{"learner":{"attributes":{"best_iteration":"251","best_score":"0.6080980829374735"},"feature_names":["Home","Minutes Diff","Rest Days","UR","Recent T"],"feature_types":["float","float","float","float","float"],"gradient_booster":{"model":{"gbtree_model_param":{"num_parallel_tree":"1","num_trees":"302"},"iteration_indptr":[0,1,2,3,4,5,6,7,8,9,10,11,12,13,14,15,16,17,18,19,20,21,22,23,24,25,26,27,28,29,30,31,32,33,34,35,36,37,38,39,40,41,42,43,44,45,46,47,48,49,50,51,52,53,54,55,56,57,58,59,60,61,62,63,64,65,66,67,68,69,70,71,72,73,74,75,76,77,78,79,80,81,82,83,84,85,86,87,88,89,90,91,92,93,94,95,96,97,98,99,100,101,102,103,104,105,106,107,108,109,110,111,112,113,114,115,116,117,118,119,120,121,122,123,124,125,126,127,128,129,130,131,132,133,134,135,136,137,138,139,140,141,142,143,144,145,146,147,148,149,150,151,152,153,154,155,156,157,158,159,160,161,162,163,164,165,166,167,168,169,170,171,172,173,174,175,176,177,178,179,180,181,182,183,184,185,186,187,188,189,190,191,192,193,194,195,196,197,198,199,200,201,202,203,204,205,206,207,208,209,210,211,212,213,214,215,216,217,218,219,220,221,222,223,224,225,226,227,228,229,230,231,232,233,234,235,236,237,238,239,240,241,242,243,244,245,246,247,248,249,250,251,252,253,254,255,256,257,258,259,260,261,262,263,264,265,266,267,268,269,270,271,272,273,274,275,276,277,278,279,280,281,282,283,284,285,286,287,288,289,290,291,292,293,294,295,296,297,298,299,300,301,302],"tree_info":[0,0,0,0,0,0,0,0,0,0,0,0,0,0,0,0,0,0,0,0,0,0,0,0,0,0,0,0,0,0,0,0,0,0,0,0,0,0,0,0,0,0,0,0,0,0,0,0,0,0,0,0,0,0,0,0,0,0,0,0,0,0,0,0,0,0,0,0,0,0,0,0,0,0,0,0,0,0,0,0,0,0,0,0,0,0,0,0,0,0,0,0,0,0,0,0,0,0,0,0,0,0,0,0,0,0,0,0,0,0,0,0,0,0,0,0,0,0,0,0,0,0,0,0,0,0,0,0,0,0,0,0,0,0,0,0,0,0,0,0,0,0,0,0,0,0,0,0,0,0,0,0,0,0,0,0,0,0,0,0,0,0,0,0,0,0,0,0,0,0,0,0,0,0,0,0,0,0,0,0,0,0,0,0,0,0,0,0,0,0,0,0,0,0,0,0,0,0,0,0,0,0,0,0,0,0,0,0,0,0,0,0,0,0,0,0,0,0,0,0,0,0,0,0,0,0,0,0,0,0,0,0,0,0,0,0,0,0,0,0,0,0,0,0,0,0,0,0,0,0,0,0,0,0,0,0,0,0,0,0,0,0,0,0,0,0,0,0,0,0,0,0,0,0,0,0,0,0,0,0,0,0,0,0,0,0,0,0,0,0,0,0,0,0,0,0,0,0,0,0,0,0],"trees":[{"base_weights":[-4.2427193E-2,2.2405945E-1,-6.581857E-1,-1.8674488E-1,5.221879E-1,-8.7577456E-1,5.6719487E-3,4.7419894E-2,-5.720668E-2,5.789264E-2,2.7996168E-1,-1.0856816E0,9.4916485E-3,-3.1756964E-1,8.1588167E-1,-2.9148761E-2,4.8419958E-1,-1.2162517E0,-1.2741128E-2,-5.590294E-2,1.1927611E-2,5.39572E-2,9.4916485E-3,6.180979E-2,9.192393E-3,-7.0776545E-2,-1.2741128E-2],"categories":[],"categories_nodes":[],"categories_segments":[],"categories_sizes":[],"default_left":[0,0,0,0,0,0,0,0,0,0,0,0,0,0,0,0,0,0,0,0,0,0,0,0,0,0,0],"id":0,"left_children":[1,3,5,7,9,11,-1,13,-1,-1,15,17,-1,19,21,-1,23,25,-1,-1,-1,-1,-1,-1,-1,-1,-1],"loss_changes":[5.8449173E0,3.156815E0,1.9028406E0,2.5743918E0,1.9451637E0,2.1059322E0,0E0,3.0617473E0,0E0,0E0,2.3955529E0,4.7601128E-1,0E0,3.6030145E0,3.716433E-1,0E0,2.0860422E0,7.880287E-1,0E0,0E0,0E0,0E0,0E0,0E0,0E0,0E0,0E0],"parents":[2147483647,0,0,1,1,2,2,3,3,4,4,5,5,7,7,10,10,11,11,13,13,14,14,16,16,17,17],"right_children":[2,4,6,8,10,12,-1,14,-1,-1,16,18,-1,20,22,-1,24,26,-1,-1,-1,-1,-1,-1,-1,-1,-1],"split_conditions":[4.466625E-1,-3.6842105E-1,1.4852226E0,-4.9029034E-1,-1.6484512E-1,7.5E-1,5.6719487E-3,-8.8258046E-1,-5.720668E-2,5.789264E-2,-6.375767E-2,3.6666667E0,9.4916485E-3,-2.0714285E0,-2.1388888E0,-2.9148761E-2,0E0,1.0795913E0,-1.2741128E-2,-5.590294E-2,1.1927611E-2,5.39572E-2,9.4916485E-3,6.180979E-2,9.192393E-3,-7.0776545E-2,-1.2741128E-2],"split_indices":[4,4,4,4,4,3,0,4,0,0,4,1,0,1,1,0,4,4,0,0,0,0,0,0,0,0,0],"split_type":[0,0,0,0,0,0,0,0,0,0,0,0,0,0,0,0,0,0,0,0,0,0,0,0,0,0,0],"sum_hessian":[3.372116E1,2.3979492E1,9.741669E0,1.0241241E1,1.3738251E1,7.4935913E0,2.2480774E0,8.99231E0,1.2489319E0,2.7476501E0,1.0990601E1,6.2446594E0,1.2489319E0,6.494446E0,2.4978638E0,1.7485046E0,9.242096E0,4.9957275E0,1.2489319E0,2.2480774E0,4.2463684E0,1.2489319E0,1.2489319E0,1.7485046E0,7.4935913E0,3.7467957E0,1.2489319E0],"tree_param":{"num_deleted":"0","num_feature":"5","num_nodes":"27","size_leaf_vector":"1"}},{"base_weights":[3.7438657E-2,-6.376646E-1,1.7124897E-1,7.472192E-3,-5.0959956E-2,6.517205E-1,-2.2463016E-1,8.342644E-1,6.893589E-2,-4.5418566E-1,4.7986567E-2,9.073943E-1,8.948536E-3,5.2938193E-2,-3.478983E-2,-6.2578785E-1,2.5331289E-2,2.7657026E-2,5.9477575E-2,-3.816815E-2,7.602894E-3],"categories":[],"categories_nodes":[],"categories_segments":[],"categories_sizes":[],"default_left":[0,0,0,0,0,0,0,0,0,0,0,0,0,0,0,0,0,0,0,0,0],"id":1,"left_children":[1,3,5,-1,-1,7,9,11,13,15,-1,17,-1,-1,-1,19,-1,-1,-1,-1,-1],"loss_changes":[3.132141E0,1.878252E0,5.6084623E0,0E0,0E0,1.349783E0,4.918524E0,3.160119E-1,3.9501693E0,2.7060554E0,0E0,2.1514177E-1,0E0,0E0,0E0,1.4795523E0,0E0,0E0,0E0,0E0,0E0],"parents":[2147483647,0,0,1,1,2,2,5,5,6,6,7,7,8,8,9,9,11,11,15,15],"right_children":[2,4,6,-1,-1,8,10,12,14,16,-1,18,-1,-1,-1,20,-1,-1,-1,-1,-1],"split_conditions":[-1.17504E0,1E0,2.3555508E-2,7.472192E-3,-5.0959956E-2,3E0,4E0,-3.4847226E-2,8.3333336E-2,1.2727273E0,4.7986567E-2,5.4545456E-1,8.948536E-3,5.2938193E-2,-3.478983E-2,2.6E0,2.5331289E-2,2.7657026E-2,5.9477575E-2,-3.816815E-2,7.602894E-3],"split_indices":[4,0,4,0,0,2,2,4,1,4,0,3,0,0,0,1,0,0,0,0,0],"split_type":[0,0,0,0,0,0,0,0,0,0,0,0,0,0,0,0,0,0,0,0,0],"sum_hessian":[3.246339E1,4.7472095E0,2.7716183E1,1.7484514E0,2.9987583E0,1.2228457E1,1.5487725E1,8.983171E0,3.2452862E0,1.3489647E1,1.998078E0,7.735217E0,1.2479539E0,1.2468903E0,1.9983959E0,1.174132E1,1.7483271E0,4.7419753E0,2.993242E0,9.992582E0,1.7487379E0],"tree_param":{"num_deleted":"0","num_feature":"5","num_nodes":"21","size_leaf_vector":"1"}},{"base_weights":[-2.4287818E-2,2.0929538E-1,-2.9785082E-1,-3.6876613E-1,4.0451694E-1,-5.268402E-1,4.645229E-2,1.0904387E-1,-5.5351116E-2,6.006315E-1,-1.549112E-1,-6.7843145E-1,3.0883664E-2,-3.2000016E-2,3.172892E-2,5.7344384E-2,4.0355894E-1,-3.515782E-2,1.2107196E-2,-3.0523962E-1,-8.9682615E-1,-2.1585368E-4,3.8657606E-2,-3.7956964E-2,5.6872973E-3,1.1182413E-2,-5.6875017E-2],"categories":[],"categories_nodes":[],"categories_segments":[],"categories_sizes":[],"default_left":[0,0,0,0,0,0,0,0,0,0,0,0,0,0,0,0,0,0,0,0,0,0,0,0,0,0,0],"id":2,"left_children":[1,3,5,7,9,11,-1,13,-1,15,17,19,-1,-1,-1,-1,21,-1,-1,23,25,-1,-1,-1,-1,-1,-1],"loss_changes":[2.326799E0,2.372656E0,5.1910167E0,2.059864E0,1.761292E0,2.9765387E0,0E0,2.0782151E0,0E0,7.712674E-1,1.2024934E0,8.2599354E-1,0E0,0E0,0E0,0E0,1.5059084E0,0E0,0E0,1.321976E0,2.4106727E0,0E0,0E0,0E0,0E0,0E0,0E0],"parents":[2147483647,0,0,1,1,2,2,3,3,4,4,5,5,7,7,9,9,10,10,11,11,16,16,19,19,20,20],"right_children":[2,4,6,8,10,12,-1,14,-1,16,18,20,-1,-1,-1,-1,22,-1,-1,24,26,-1,-1,-1,-1,-1,-1],"split_conditions":[2.3555508E-2,-1.17504E0,4E0,-1.2175192E0,3E0,1.4585114E0,4.645229E-2,-2.0714285E0,-5.5351116E-2,-9.6598595E-1,-5.8517236E-1,9.722222E-1,3.0883664E-2,-3.2000016E-2,3.172892E-2,5.7344384E-2,-2.5E-1,-3.515782E-2,1.2107196E-2,-8.3333336E-2,4.4444445E-1,-2.1585368E-4,3.8657606E-2,-3.7956964E-2,5.6872973E-3,1.1182413E-2,-5.6875017E-2],"split_indices":[4,4,2,4,2,4,0,1,0,4,4,1,0,0,0,0,1,0,0,1,3,0,0,0,0,0,0],"split_type":[0,0,0,0,0,0,0,0,0,0,0,0,0,0,0,0,0,0,0,0,0,0,0,0,0,0,0],"sum_hessian":[3.4437714E1,1.8702993E1,1.5734721E1,4.497296E0,1.4205698E1,1.3740727E1,1.9939939E0,3.2476594E0,1.2496367E0,1.0463821E1,3.7418761E0,1.2493227E1,1.2475011E0,1.2492688E0,1.9983907E0,1.4963994E0,8.9674225E0,1.247889E0,2.493987E0,5.497233E0,6.9959936E0,4.7327585E0,4.2346635E0,2.248987E0,3.2482462E0,1.2495186E0,5.7464747E0],"tree_param":{"num_deleted":"0","num_feature":"5","num_nodes":"27","size_leaf_vector":"1"}},{"base_weights":[-6.455242E-2,-5.4224414E-1,2.0328678E-2,-1.1992347E-1,-5.494017E-2,3.5539782E-1,-2.3829323E-1,-2.526635E-2,1.760934E-2,6.1500186E-1,-3.9861265E-1,-4.0470853E-1,3.3491485E-2,9.0274704E-1,3.2113245E-1,-4.5946684E-2,1.6735619E-2,-6.676343E-1,-6.87917E-2,5.5223685E-2,8.261918E-3,-1.8217128E-2,3.91761E-2,-4.6150755E-2,-1.2165527E-4,3.3397056E-2,-2.057675E-2],"categories":[],"categories_nodes":[],"categories_segments":[],"categories_sizes":[],"default_left":[0,0,0,0,0,0,0,0,0,0,0,0,0,0,0,0,0,0,0,0,0,0,0,0,0,0,0],"id":3,"left_children":[1,3,5,7,-1,9,11,-1,-1,13,15,17,-1,19,21,-1,-1,23,25,-1,-1,-1,-1,-1,-1,-1,-1],"loss_changes":[1.4772599E0,1.1591445E0,2.8290255E0,9.503931E-1,0E0,3.0241342E0,3.062708E0,0E0,0E0,6.363797E-1,1.926497E0,1.3879452E0,0E0,5.5878973E-1,2.4951518E0,0E0,0E0,1.5252953E0,2.3562846E0,0E0,0E0,0E0,0E0,0E0,0E0,0E0,0E0],"parents":[2147483647,0,0,1,1,2,2,3,3,5,5,6,6,9,9,10,10,11,11,13,13,14,14,17,17,18,18],"right_children":[2,4,6,8,-1,10,12,-1,-1,14,16,18,-1,20,22,-1,-1,24,26,-1,-1,-1,-1,-1,-1,-1,-1],"split_conditions":[-1.1471385E0,-1.2175192E0,2.3555508E-2,-2.0714285E0,-5.494017E-2,3E0,4E0,-2.526635E-2,1.760934E-2,-4.83843E-1,-4.4840473E-1,6.1538464E-1,3.3491485E-2,1E0,-2.5E-1,-4.5946684E-2,1.6735619E-2,1E0,3.611111E-1,5.5223685E-2,8.261918E-3,-1.8217128E-2,3.91761E-2,-4.6150755E-2,-1.2165527E-4,3.3397056E-2,-2.057675E-2],"split_indices":[4,4,4,1,0,2,2,0,0,4,4,3,0,0,1,0,0,0,1,0,0,0,0,0,0,0,0],"split_type":[0,0,0,0,0,0,0,0,0,0,0,0,0,0,0,0,0,0,0,0,0,0,0,0,0,0,0],"sum_hessian":[3.5161415E1,4.4921765E0,3.0669239E1,3.2451837E0,1.2469928E0,1.3197035E1,1.7472204E1,1.7479228E0,1.497261E0,9.954189E0,3.242845E0,1.5234753E1,2.2374525E0,3.9826274E0,5.971562E0,1.7488595E0,1.4939855E0,7.991904E0,7.2428484E0,2.7365422E0,1.2460852E0,2.4909165E0,3.4806454E0,5.4947963E0,2.4971077E0,1.9984137E0,5.244435E0],"tree_param":{"num_deleted":"0","num_feature":"5","num_nodes":"27","size_leaf_vector":"1"}},{"base_weights":[-1.504939E-1,-3.3645633E-1,3.1147048E-1,2.7909992E-2,-7.6131874E-1,-1.5347461E-1,9.016896E-1,-8.0742294E-1,3.2211512E-1,-1.1956992E0,-2.3009174E-1,2.0290399E-2,-3.7982225E-1,6.264863E-2,1.2458962E-2,-1.2732757E-3,-6.1226644E-2,-2.711138E-2,5.773827E-1,-8.407279E-3,-7.696337E-2,3.208401E-2,-5.447463E-1,-5.356756E-2,7.606751E-2,3.9320238E-2,-1.2042776E-2,-7.655542E-4,-4.2142037E-2,2.9808804E-2,-1.6923463E-2],"categories":[],"categories_nodes":[],"categories_segments":[],"categories_sizes":[],"default_left":[0,0,0,0,0,0,0,0,0,0,0,0,0,0,0,0,0,0,0,0,0,0,0,0,0,0,0,0,0,0,0],"id":4,"left_children":[1,3,5,7,9,11,13,15,17,19,21,-1,23,-1,-1,-1,-1,-1,25,-1,-1,-1,27,-1,29,-1,-1,-1,-1,-1,-1],"loss_changes":[3.230567E0,4.111655E0,3.1466327E0,3.99286E0,2.5479574E0,1.0385593E0,8.2832146E-1,1.3521724E0,2.9491405E0,2.0331821E0,2.198883E0,0E0,1.8123059E0,0E0,0E0,0E0,0E0,0E0,1.8497267E0,0E0,0E0,0E0,8.5427296E-1,0E0,1.1164848E0,0E0,0E0,0E0,0E0,0E0,0E0],"parents":[2147483647,0,0,1,1,2,2,3,3,4,4,5,5,6,6,7,7,8,8,9,9,10,10,12,12,18,18,22,22,24,24],"right_children":[2,4,6,8,10,12,14,16,18,20,22,-1,24,-1,-1,-1,-1,-1,26,-1,-1,-1,28,-1,30,-1,-1,-1,-1,-1,-1],"split_conditions":[3E0,1.2717624E-1,-6.92715E-2,-1.1471385E0,1E0,-1.2175192E0,8.746668E-1,1E0,4.1666666E-1,2.6244533E-1,3E-1,2.0290399E-2,-7.824209E-1,6.264863E-2,1.2458962E-2,-1.2732757E-3,-6.1226644E-2,-2.711138E-2,1.75E0,-8.407279E-3,-7.696337E-2,3.208401E-2,6.1538464E-1,-5.356756E-2,8.3333336E-2,3.9320238E-2,-1.2042776E-2,-7.655542E-4,-4.2142037E-2,2.9808804E-2,-1.6923463E-2],"split_indices":[2,4,4,4,0,4,4,0,3,4,1,0,4,0,0,0,0,0,1,0,0,0,3,0,1,0,0,0,0,0,0],"split_type":[0,0,0,0,0,0,0,0,0,0,0,0,0,0,0,0,0,0,0,0,0,0,0,0,0,0,0,0,0,0,0],"sum_hessian":[3.5385086E1,2.5422869E1,9.962218E0,1.4188756E1,1.1234114E1,5.986401E0,3.9758172E0,3.2413135E0,1.0947442E1,5.4922857E0,5.7418275E0,1.4963113E0,4.4900894E0,1.986265E0,1.9895523E0,1.4966294E0,1.7446841E0,2.2396786E0,8.707764E0,1.7494353E0,3.7428505E0,1.2471623E0,4.494665E0,1.2476041E0,3.2424853E0,6.966938E0,1.7408257E0,1.9978023E0,2.4968631E0,1.2437767E0,1.9987087E0],"tree_param":{"num_deleted":"0","num_feature":"5","num_nodes":"31","size_leaf_vector":"1"}},{"base_weights":[4.278962E-2,2.5068226E-1,-2.0430556E-1,-1.9759774E-1,4.9909532E-1,-9.765681E-1,3.5408378E-2,3.3616522E-1,-5.580315E-1,4.8802275E-2,3.080906E-1,-1.1593937E-2,-6.1565008E-2,-2.906362E-1,9.0521955E-1,3.7875924E-2,-1.41013935E-2,3.0755114E-2,-5.7894178E-2,-4.7210848E-1,6.367171E-1,5.3352643E-2,-5.81605E-1,5.59884E-2,1.6398473E-2,-2.9884327E-2,3.2259203E-2,8.074353E-3,-4.2651583E-2,5.3534703E-3,5.696964E-2,-1.0973827E-2,-4.4860583E-2],"categories":[],"categories_nodes":[],"categories_segments":[],"categories_sizes":[],"default_left":[0,0,0,0,0,0,0,0,0,0,0,0,0,0,0,0,0,0,0,0,0,0,0,0,0,0,0,0,0,0,0,0,0],"id":5,"left_children":[1,3,5,7,9,11,13,15,17,-1,19,-1,-1,21,23,-1,-1,25,-1,27,29,-1,31,-1,-1,-1,-1,-1,-1,-1,-1,-1,-1],"loss_changes":[1.8663663E0,2.2855892E0,3.125443E0,1.672592E0,8.763094E-1,4.713695E-1,4.150182E0,1.1866252E0,1.7956983E0,0E0,3.0406313E0,0E0,0E0,4.8580017E0,1.2566829E-1,0E0,0E0,1.7328575E0,0E0,1.0407717E0,1.9933674E0,0E0,8.866124E-1,0E0,0E0,0E0,0E0,0E0,0E0,0E0,0E0,0E0,0E0],"parents":[2147483647,0,0,1,1,2,2,3,3,4,4,5,5,6,6,7,7,8,8,10,10,13,13,14,14,17,17,19,19,20,20,22,22],"right_children":[2,4,6,8,10,12,14,16,18,-1,20,-1,-1,22,24,-1,-1,26,-1,28,30,-1,32,-1,-1,-1,-1,-1,-1,-1,-1,-1,-1],"split_conditions":[3.1219527E-2,-7.824209E-1,0E0,1E0,-2.3888888E0,1.9809546E-1,3E0,-9E-1,4.6153846E-1,4.8802275E-2,-2.5E-1,-1.1593937E-2,-6.1565008E-2,3.611111E-1,8.746668E-1,3.7875924E-2,-1.41013935E-2,-2.8888888E0,-5.7894178E-2,-3.6961424E-1,1E0,5.3352643E-2,6.666667E-1,5.59884E-2,1.6398473E-2,-2.9884327E-2,3.2259203E-2,8.074353E-3,-4.2651583E-2,5.3534703E-3,5.696964E-2,-1.0973827E-2,-4.4860583E-2],"split_indices":[4,4,1,0,1,4,2,1,3,0,1,0,0,1,4,0,0,1,0,4,0,0,3,0,0,0,0,0,0,0,0,0,0],"split_type":[0,0,0,0,0,0,0,0,0,0,0,0,0,0,0,0,0,0,0,0,0,0,0,0,0,0,0,0,0,0,0,0,0],"sum_hessian":[3.433533E1,1.8638977E1,1.5696354E1,6.718856E0,1.1920121E1,2.9899714E0,1.2706383E1,2.7353835E0,3.9834723E0,2.2333224E0,9.686799E0,1.2489747E0,1.7409967E0,9.726364E0,2.9800186E0,1.4926413E0,1.2427421E0,2.4890585E0,1.494414E0,2.7415102E0,6.9452887E0,1.2458527E0,8.480512E0,1.4873708E0,1.4926478E0,1.2439685E0,1.2450899E0,1.2456553E0,1.4958547E0,3.972566E0,2.9727228E0,4.738708E0,3.7418036E0],"tree_param":{"num_deleted":"0","num_feature":"5","num_nodes":"33","size_leaf_vector":"1"}},{"base_weights":[-1.2988003E-2,2.2619598E-1,-2.6427913E-1,4.370375E-2,4.9878936E-2,-4.529247E-1,3.5043146E-2,3.2628617E-1,-2.7942237E-1,-6.2062764E-1,3.2907855E-2,7.913055E-1,-3.1346917E-1,-9.151041E-1,2.8631407E-1,-1.5759195E-1,-7.939948E-1,6.719538E-2,-1.2427831E-2,-3.2749034E-2,7.029044E-3,-8.338296E-3,-5.968685E-2,-1.8286547E-2,5.4352086E-2,-3.4104366E-2,2.5890604E-2,-6.516888E-2,-2.4672516E-2],"categories":[],"categories_nodes":[],"categories_segments":[],"categories_sizes":[],"default_left":[0,0,0,0,0,0,0,0,0,0,0,0,0,0,0,0,0,0,0,0,0,0,0,0,0,0,0,0,0],"id":6,"left_children":[1,3,5,7,-1,9,-1,11,13,15,-1,17,19,21,23,25,27,-1,-1,-1,-1,-1,-1,-1,-1,-1,-1,-1,-1],"loss_changes":[2.1493266E0,2.5396173E0,3.4881153E0,1.5416734E0,0E0,3.2360091E0,0E0,2.906415E0,3.1209736E0,9.7459364E-1,0E0,3.4705157E0,7.863682E-1,6.311755E-1,2.991405E0,2.1171901E0,8.448739E-1,0E0,0E0,0E0,0E0,0E0,0E0,0E0,0E0,0E0,0E0,0E0,0E0],"parents":[2147483647,0,0,1,1,2,2,3,3,5,5,7,7,8,8,9,9,11,11,12,12,13,13,14,14,15,15,16,16],"right_children":[2,4,6,8,-1,10,-1,12,14,16,-1,18,20,22,24,26,28,-1,-1,-1,-1,-1,-1,-1,-1,-1,-1,-1,-1],"split_conditions":[2.3555508E-2,-6.375767E-2,1.4852226E0,1E0,4.9878936E-2,4E0,3.5043146E-2,-5.205222E-1,-7.824209E-1,3.611111E-1,3.2907855E-2,-8.333333E-1,-3.091962E-1,4.6153846E-1,5.4545456E-1,6.1538464E-1,2.3428297E-1,6.719538E-2,-1.2427831E-2,-3.2749034E-2,7.029044E-3,-8.338296E-3,-5.968685E-2,-1.8286547E-2,5.4352086E-2,-3.4104366E-2,2.5890604E-2,-6.516888E-2,-2.4672516E-2],"split_indices":[4,4,4,0,0,2,0,4,4,1,0,1,4,3,3,3,4,0,0,0,0,0,0,0,0,0,0,0,0],"split_type":[0,0,0,0,0,0,0,0,0,0,0,0,0,0,0,0,0,0,0,0,0,0,0,0,0,0,0,0,0],"sum_hessian":[3.376506E1,1.7350433E1,1.6414629E1,1.4885506E1,2.4649277E0,1.4174763E1,2.239866E0,7.9357233E0,6.949782E0,1.2699382E1,1.4753816E0,4.458259E0,3.4774647E0,2.9817905E0,3.9679914E0,3.9795787E0,8.719803E0,2.720268E0,1.737991E0,1.7321255E0,1.7453392E0,1.2427068E0,1.7390838E0,2.4864712E0,1.4815202E0,2.2344708E0,1.7451079E0,1.9975319E0,6.722271E0],"tree_param":{"num_deleted":"0","num_feature":"5","num_nodes":"29","size_leaf_vector":"1"}},{"base_weights":[1.3118231E-1,2.4740359E-1,-5.958459E-1,1.7855653E-1,5.1070053E-2,-4.386707E-2,-8.628212E-3,4.1818768E-1,-1.9521011E-1,8.2279974E-1,-3.0971183E-2,-6.3312006E-1,1.5186772E-1,-4.093447E-3,5.379066E-2,-3.3987727E-2,1.8685209E-2,-4.723544E-2,1.1890176E-2,3.1384584E-2,-1.2790521E-2],"categories":[],"categories_nodes":[],"categories_segments":[],"categories_sizes":[],"default_left":[0,0,0,0,0,0,0,0,0,0,0,0,0,0,0,0,0,0,0,0,0],"id":7,"left_children":[1,3,5,7,-1,-1,-1,9,11,13,15,17,19,-1,-1,-1,-1,-1,-1,-1,-1],"loss_changes":[3.0178533E0,1.4160186E0,4.4144177E-1,2.6573253E0,0E0,0E0,0E0,3.267861E0,1.9072773E0,2.2447858E0,2.7269258E0,1.7069149E0,1.6065285E0,0E0,0E0,0E0,0E0,0E0,0E0,0E0,0E0],"parents":[2147483647,0,0,1,1,2,2,3,3,7,7,8,8,9,9,10,10,11,11,12,12],"right_children":[2,4,6,8,-1,-1,-1,10,12,14,16,18,20,-1,-1,-1,-1,-1,-1,-1,-1],"split_conditions":[3.2954545E0,1.4585114E0,4.15E0,3.1219527E-2,5.1070053E-2,-4.386707E-2,-8.628212E-3,1E0,5.833333E-1,4E-1,-2.0714285E0,1.7E0,7.777778E-1,-4.093447E-3,5.379066E-2,-3.3987727E-2,1.8685209E-2,-4.723544E-2,1.1890176E-2,3.1384584E-2,-1.2790521E-2],"split_indices":[1,4,1,4,0,0,0,0,3,3,1,1,1,0,0,0,0,0,0,0,0],"split_type":[0,0,0,0,0,0,0,0,0,0,0,0,0,0,0,0,0,0,0,0,0],"sum_hessian":[3.297124E1,2.8995743E1,3.975496E0,2.7757416E1,1.2383275E0,1.7433808E0,2.2321153E0,1.6841232E1,1.09161825E1,8.422339E0,8.418894E0,4.4621367E0,6.4540462E0,1.9885504E0,6.433789E0,2.972912E0,5.445982E0,3.2239792E0,1.2381575E0,2.7290936E0,3.7249525E0],"tree_param":{"num_deleted":"0","num_feature":"5","num_nodes":"21","size_leaf_vector":"1"}},{"base_weights":[2.5405306E-2,4.1709706E-2,-4.304698E-2,5.352439E-1,-1.2426118E-1,5.4157216E-2,-7.9158945E-3,-3.8482454E-2,-4.2932563E-2,5.7247706E-2,-5.34078E-1,-2.6503399E-2,9.667362E-3,-4.2771507E-2,1.015015E-2],"categories":[],"categories_nodes":[],"categories_segments":[],"categories_sizes":[],"default_left":[0,0,0,0,0,0,0,0,0,0,0,0,0,0,0],"id":8,"left_children":[1,-1,3,5,7,-1,-1,-1,9,11,13,-1,-1,-1,-1],"loss_changes":[1.9406154E0,0E0,1.6008726E0,1.7718781E0,1.5131898E0,0E0,0E0,0E0,1.3699223E0,1.9819084E0,1.2889135E0,0E0,0E0,0E0,0E0],"parents":[2147483647,0,0,2,2,3,3,4,4,8,8,9,9,10,10],"right_children":[2,-1,4,6,8,-1,-1,-1,10,12,14,-1,-1,-1,-1],"split_conditions":[-4.090909E0,4.1709706E-2,3.5714287E-1,2.3555508E-2,4E-1,5.4157216E-2,-7.9158945E-3,-3.8482454E-2,7.1428573E-1,-1.9166666E0,5.450043E-1,-2.6503399E-2,9.667362E-3,-4.2771507E-2,1.015015E-2],"split_indices":[1,0,3,4,3,0,0,0,3,1,4,0,0,0,0],"split_type":[0,0,0,0,0,0,0,0,0,0,0,0,0,0,0],"sum_hessian":[3.3403675E1,1.7336353E0,3.1670042E1,3.2115405E0,2.84585E1,1.4803668E0,1.7311736E0,2.237695E0,2.6220806E1,2.2512342E1,3.7084632E0,3.6907587E0,1.8821583E1,2.470717E0,1.2377462E0],"tree_param":{"num_deleted":"0","num_feature":"5","num_nodes":"15","size_leaf_vector":"1"}},{"base_weights":[9.763851E-2,2.9694265E-1,-2.7606034E-1,-3.3170413E-2,4.586785E-1,-5.7468504E-2,-2.7103562E-2,3.3085978E-1,-5.2282274E-1,5.843044E-2,2.8217348E-1,4.4905806E-1,-3.1889895E-1,5.5684518E-2,-3.2762766E-1,8.038016E-3,-4.4682153E-2,-2.9581234E-2,4.606959E-1,2.217949E-3,3.7684113E-2,-2.1255227E-2,-3.9897785E-2,-3.469426E-2,1.1259637E-2,-1.0618911E-2,3.422043E-2,-2.1938173E-2,2.0112919E-2],"categories":[],"categories_nodes":[],"categories_segments":[],"categories_sizes":[],"default_left":[0,0,0,0,0,0,0,0,0,0,0,0,0,0,0,0,0,0,0,0,0,0,0,0,0,0,0,0,0],"id":9,"left_children":[1,3,5,7,9,-1,11,13,15,-1,17,19,21,-1,23,-1,-1,-1,25,-1,-1,27,-1,-1,-1,-1,-1,-1,-1],"loss_changes":[2.6243012E0,1.2295141E0,2.662857E0,1.6722893E0,1.5914602E0,0E0,1.6252146E0,3.167556E0,1.1511097E0,0E0,2.3936753E0,5.1740015E-1,1.0094345E0,0E0,9.1061914E-1,0E0,0E0,0E0,1.9301188E0,0E0,0E0,1.1432042E0,0E0,0E0,0E0,0E0,0E0,0E0,0E0],"parents":[2147483647,0,0,1,1,2,2,3,3,4,4,6,6,7,7,8,8,10,10,11,11,12,12,14,14,18,18,21,21],"right_children":[2,4,6,8,10,-1,12,14,16,-1,18,20,22,-1,24,-1,-1,-1,26,-1,-1,28,-1,-1,-1,-1,-1,-1,-1],"split_conditions":[2.6244533E-1,-7.824209E-1,-1.125E0,-4.5E-1,-4.83843E-1,-5.7468504E-2,1.2777778E0,1E0,-1.249212E0,5.843044E-2,-3.6842105E-1,6.1538464E-1,7E-1,5.5684518E-2,-2.8888888E0,8.038016E-3,-4.4682153E-2,-2.9581234E-2,4.5454547E-1,2.217949E-3,3.7684113E-2,9.2221963E-1,-3.9897785E-2,-3.469426E-2,1.1259637E-2,-1.0618911E-2,3.422043E-2,-2.1938173E-2,2.0112919E-2],"split_indices":[4,4,1,1,4,0,1,0,4,0,4,3,3,0,1,0,0,0,3,0,0,4,0,0,0,0,0,0,0],"split_type":[0,0,0,0,0,0,0,0,0,0,0,0,0,0,0,0,0,0,0,0,0,0,0,0,0,0,0,0,0],"sum_hessian":[3.3134483E1,2.1743473E1,1.1391011E1,7.4113503E0,1.4332122E1,1.7245959E0,9.666415E0,4.4369864E0,2.974364E0,1.7345744E0,1.2597548E1,3.4681015E0,6.198314E0,1.7112787E0,2.7257075E0,1.2452677E0,1.7290963E0,1.7445656E0,1.0852982E1,1.9813969E0,1.4867046E0,4.467174E0,1.73114E0,1.4860132E0,1.2396944E0,2.720027E0,8.132955E0,2.2314036E0,2.2357705E0],"tree_param":{"num_deleted":"0","num_feature":"5","num_nodes":"29","size_leaf_vector":"1"}},{"base_weights":[5.4922394E-2,3.435023E-1,-2.1346654E-1,8.5863665E-2,7.7088886E-1,-8.504511E-1,3.0280288E-2,5.934594E-1,-2.7340874E-1,-1.3616787E-2,5.9732985E-2,6.9055627E-3,-6.7708924E-2,-3.2241812E-1,9.50089E-1,-1.3368577E-2,9.1152966E-1,1.727559E-2,-5.379839E-1,5.4725777E-2,-6.360158E-1,1.3036142E-2,6.0189802E-2,5.6897115E-2,1.4861191E-2,-4.2984676E-2,1.3181304E-2,-5.0511837E-2,-6.5617203E-3],"categories":[],"categories_nodes":[],"categories_segments":[],"categories_sizes":[],"default_left":[0,0,0,0,0,0,0,0,0,0,0,0,0,0,0,0,0,0,0,0,0,0,0,0,0,0,0,0,0],"id":10,"left_children":[1,3,5,7,9,11,13,15,17,-1,-1,-1,-1,19,21,-1,23,-1,25,-1,27,-1,-1,-1,-1,-1,-1,-1,-1],"loss_changes":[2.902101E0,1.9139187E0,3.0596366E0,2.413518E0,3.2599332E0,2.897085E0,5.204357E0,1.7309378E0,1.4816601E0,0E0,0E0,0E0,0E0,5.877204E0,4.6234846E-1,0E0,2.4496698E-1,0E0,1.7570587E0,0E0,1.7903256E0,0E0,0E0,0E0,0E0,0E0,0E0,0E0,0E0],"parents":[2147483647,0,0,1,1,2,2,3,3,4,4,5,5,6,6,7,7,8,8,13,13,14,14,16,16,18,18,20,20],"right_children":[2,4,6,8,10,12,14,16,18,-1,-1,-1,-1,20,22,-1,24,-1,26,-1,28,-1,-1,-1,-1,-1,-1,-1,-1],"split_conditions":[0E0,-3.6842105E-1,-8.3333336E-2,4.4444445E-1,4.5454547E-1,1.527207E-1,3E0,-1.249212E0,-1.2197248E0,-1.3616787E-2,5.9732985E-2,6.9055627E-3,-6.7708924E-2,3.611111E-1,5.555556E-1,-1.3368577E-2,-1.8888888E0,1.727559E-2,5.714286E-1,5.4725777E-2,1E0,1.3036142E-2,6.0189802E-2,5.6897115E-2,1.4861191E-2,-4.2984676E-2,1.3181304E-2,-5.0511837E-2,-6.5617203E-3],"split_indices":[4,4,1,3,3,4,2,4,4,0,0,0,0,1,3,0,1,0,3,0,0,0,0,0,0,0,0,0,0],"split_type":[0,0,0,0,0,0,0,0,0,0,0,0,0,0,0,0,0,0,0,0,0,0,0,0,0,0,0,0,0],"sum_hessian":[3.55231E1,1.6982807E1,1.8540297E1,1.1344799E1,5.6380076E0,4.442256E0,1.4098041E1,4.4316845E0,6.9131145E0,1.7318789E0,3.9061286E0,1.7445016E0,2.6977541E0,1.0659972E1,3.438068E0,1.2386838E0,3.1930008E0,1.9786195E0,4.9344954E0,1.4804845E0,9.179488E0,1.4703971E0,1.9676707E0,1.7102547E0,1.482746E0,3.4695888E0,1.4649066E0,4.696437E0,4.483051E0],"tree_param":{"num_deleted":"0","num_feature":"5","num_nodes":"29","size_leaf_vector":"1"}},{"base_weights":[3.210352E-2,1.1068994E-1,-4.447494E-1,-3.1844616E-1,2.2445984E-1,1.1733624E-2,-4.658273E-2,-7.6512307E-1,2.1479467E-2,8.530194E-1,1.02209434E-1,9.612435E-3,-5.8002856E-2,5.29362E-3,5.762918E-2,-2.5614439E-2,1.7952195E-1,-1.2442487E-2,1.7087521E-2],"categories":[],"categories_nodes":[],"categories_segments":[],"categories_sizes":[],"default_left":[0,0,0,0,0,0,0,0,0,0,0,0,0,0,0,0,0,0,0],"id":11,"left_children":[1,3,5,7,9,-1,-1,11,-1,13,15,-1,-1,-1,-1,-1,17,-1,-1],"loss_changes":[1.3672152E0,1.5847466E0,1.9307251E0,2.6370928E0,1.8404968E0,0E0,0E0,1.9945109E0,0E0,7.6173353E-1,1.143702E0,0E0,0E0,0E0,0E0,0E0,1.5030286E0,0E0,0E0],"parents":[2147483647,0,0,1,1,2,2,3,3,4,4,7,7,9,9,10,10,16,16],"right_children":[2,4,6,8,10,-1,-1,12,-1,14,16,-1,-1,-1,-1,-1,18,-1,-1],"split_conditions":[7.1428573E-1,4E-1,1.2777778E0,1E0,4.4444445E-1,1.1733624E-2,-4.658273E-2,2.7272728E-1,2.1479467E-2,4.1666666E-1,4.5454547E-1,9.612435E-3,-5.8002856E-2,5.29362E-3,5.762918E-2,-2.5614439E-2,-3.6842105E-1,-1.2442487E-2,1.7087521E-2],"split_indices":[3,3,1,0,3,0,0,3,0,3,3,0,0,0,0,0,4,0,0],"split_type":[0,0,0,0,0,0,0,0,0,0,0,0,0,0,0,0,0,0,0],"sum_hessian":[3.417052E1,2.999513E1,4.17539E0,5.9086967E0,2.4086433E1,1.9593575E0,2.2160325E0,3.6852612E0,2.2234356E0,2.9485588E0,2.1137875E1,1.2261431E0,2.4591181E0,1.2312081E0,1.7173506E0,1.7334883E0,1.9404387E1,5.18341E0,1.4220977E1],"tree_param":{"num_deleted":"0","num_feature":"5","num_nodes":"19","size_leaf_vector":"1"}},{"base_weights":[-1.5053572E-2,-4.4779125E-1,6.648905E-2,-9.475401E-1,1.833331E-2,5.059459E-1,-3.2662857E-2,-1.5857076E-2,-5.5889796E-2,5.218169E-2,-1.8710265E-2,-7.451098E-1,1.2212633E-1,-5.320477E-2,9.9113946E-5,-3.5544384E-1,2.90363E-1,1.492206E-2,-6.0976934E-2,5.552494E-2,1.529919E-3],"categories":[],"categories_nodes":[],"categories_segments":[],"categories_sizes":[],"default_left":[0,0,0,0,0,0,0,0,0,0,0,0,0,0,0,0,0,0,0,0,0],"id":12,"left_children":[1,3,5,7,-1,9,11,-1,-1,-1,-1,13,15,-1,-1,17,19,-1,-1,-1,-1],"loss_changes":[1.3207266E0,2.7611086E0,1.395819E0,6.988573E-2,0E0,3.1769805E0,3.0428207E0,0E0,0E0,0E0,0E0,1.1742022E0,1.9389684E0,0E0,0E0,3.9810946E0,3.6829114E0,0E0,0E0,0E0,0E0],"parents":[2147483647,0,0,1,1,2,2,3,3,5,5,6,6,11,11,12,12,15,15,16,16],"right_children":[2,4,6,8,-1,10,12,-1,-1,-1,-1,14,16,-1,-1,18,20,-1,-1,-1,-1],"split_conditions":[-1.1471385E0,3E0,-4.83843E-1,1E0,1.833331E-2,4.5454547E-1,3.846154E-1,-1.5857076E-2,-5.5889796E-2,5.218169E-2,-1.8710265E-2,5.5E-1,-2.5E-1,-5.320477E-2,9.9113946E-5,1.527207E-1,6.666667E-1,1.492206E-2,-6.0976934E-2,5.552494E-2,1.529919E-3],"split_indices":[4,2,4,0,0,3,3,0,0,0,0,1,1,0,0,4,1,0,0,0,0],"split_type":[0,0,0,0,0,0,0,0,0,0,0,0,0,0,0,0,0,0,0,0,0],"sum_hessian":[3.5584843E1,4.9300594E0,3.0654783E1,2.9540577E0,1.976002E0,4.8879375E0,2.5766846E1,1.2369168E0,1.7171409E0,2.9189782E0,1.9689592E0,3.9183197E0,2.1848526E1,2.4485478E0,1.4697719E0,5.401795E0,1.644673E1,3.4475534E0,1.9542415E0,3.1683893E0,1.3278341E1],"tree_param":{"num_deleted":"0","num_feature":"5","num_nodes":"21","size_leaf_vector":"1"}},{"base_weights":[5.7655044E-2,2.1424781E-1,-2.5164613E-1,7.906694E-2,5.971851E-2,-6.63454E-1,1.6640472E-1,3.1397015E-1,-4.3360063E-1,-6.230442E-2,1.925214E-2,7.514101E-1,-2.9265298E-2,4.8660865E-1,-2.4079824E-2,-5.03789E-2,7.963401E-2,6.259817E-3,4.824883E-2,-1.55471135E-2,3.9036293E-2,2.816546E-2,-1.2785829E-2],"categories":[],"categories_nodes":[],"categories_segments":[],"categories_sizes":[],"default_left":[0,0,0,0,0,0,0,0,0,0,0,0,0,0,0,0,0,0,0,0,0,0,0],"id":13,"left_children":[1,3,5,7,-1,9,11,13,15,-1,-1,17,-1,19,-1,-1,21,-1,-1,-1,-1,-1,-1],"loss_changes":[1.692014E0,2.9520614E0,2.1465907E0,2.6985238E0,0E0,4.242136E0,3.3724234E0,2.3181024E0,2.1735096E0,0E0,0E0,4.39296E-1,0E0,3.2837281E0,0E0,0E0,9.028506E-1,0E0,0E0,0E0,0E0,0E0,0E0],"parents":[2147483647,0,0,1,1,2,2,3,3,5,5,6,6,7,7,8,8,11,11,13,13,16,16],"right_children":[2,4,6,8,-1,10,12,14,16,-1,-1,18,-1,20,-1,-1,22,-1,-1,-1,-1,-1,-1],"split_conditions":[1.625E0,1.2272727E0,1E0,6.375767E-2,5.971851E-2,3E0,3.2954545E0,8.3333336E-2,-8.3333336E-2,-6.230442E-2,1.925214E-2,1.9642857E0,-2.9265298E-2,-1.2112035E0,-2.4079824E-2,-5.03789E-2,3E-1,6.259817E-3,4.824883E-2,-1.55471135E-2,3.9036293E-2,2.816546E-2,-1.2785829E-2],"split_indices":[1,1,0,4,0,1,1,1,1,0,0,1,0,4,0,0,1,0,0,0,0,0,0],"split_type":[0,0,0,0,0,0,0,0,0,0,0,0,0,0,0,0,0,0,0,0,0,0,0],"sum_hessian":[3.2821045E1,2.1993505E1,1.08275385E1,2.027746E1,1.7160461E0,5.1587796E0,5.6687584E0,1.4171626E1,6.1058335E0,3.1949437E0,1.9638361E0,3.1880867E0,2.4806716E0,1.1963819E1,2.2078073E0,2.427661E0,3.6781728E0,1.2141644E0,1.9739223E0,3.2078795E0,8.7559395E0,1.227701E0,2.4504719E0],"tree_param":{"num_deleted":"0","num_feature":"5","num_nodes":"23","size_leaf_vector":"1"}},{"base_weights":[-1.1890185E-1,-2.927959E-2,-7.131646E-1,-1.1162241E-1,4.1785676E-2,-5.996879E-2,-1.2578982E-3,-6.9474736E-3,-4.9955364E-2,-2.8652614E-1,1.8079805E-1,1.059255E-2,-4.812623E-2,3.2889564E-2,-9.986739E-3],"categories":[],"categories_nodes":[],"categories_segments":[],"categories_sizes":[],"default_left":[0,0,0,0,0,0,0,0,0,0,0,0,0,0,0],"id":14,"left_children":[1,3,5,7,-1,-1,-1,9,-1,11,13,-1,-1,-1,-1],"loss_changes":[1.9075336E0,2.4085498E0,1.5427947E0,2.8322508E0,0E0,0E0,0E0,1.5396348E0,0E0,4.1707525E0,3.3206832E0,0E0,0E0,0E0,0E0],"parents":[2147483647,0,0,1,1,2,2,3,3,7,7,9,9,10,10],"right_children":[2,4,6,8,-1,-1,-1,10,-1,12,14,-1,-1,-1,-1],"split_conditions":[3.2954545E0,1.0795913E0,4.181818E0,8.2392305E-1,4.1785676E-2,-5.996879E-2,-1.2578982E-3,-3.7904903E-1,-4.9955364E-2,4.6153846E-1,3.1219527E-2,1.059255E-2,-4.812623E-2,3.2889564E-2,-9.986739E-3],"split_indices":[1,4,1,4,0,0,0,4,0,3,4,0,0,0,0],"split_type":[0,0,0,0,0,0,0,0,0,0,0,0,0,0,0],"sum_hessian":[3.520813E1,3.1505915E1,3.7022154E0,2.956266E1,1.9432547E0,1.7337326E0,1.9684829E0,2.7345238E1,2.217422E0,1.0774459E1,1.6570778E1,6.597263E0,4.1771955E0,7.0300684E0,9.54071E0],"tree_param":{"num_deleted":"0","num_feature":"5","num_nodes":"15","size_leaf_vector":"1"}},{"base_weights":[-6.4581702E-3,2.672006E-1,-2.927213E-1,-4.5411277E-1,4.311941E-1,-5.773064E-1,5.2645856E-1,-3.9299387E-2,7.5361044E-3,-1.6427182E-2,5.1753664E-1,-9.4077505E-2,-7.917292E-1,-1.2324684E-2,8.266918E-1,5.1626522E-2,3.024682E-1,-4.8829045E-2,4.7250545E-1,1.6214196E-2,-9.996412E-1,6.643434E-3,5.4622915E-2,-2.5658611E-2,2.3508174E-2,-5.873742E-3,4.9103532E-2,-6.231307E-2,-2.3688225E-2],"categories":[],"categories_nodes":[],"categories_segments":[],"categories_sizes":[],"default_left":[0,0,0,0,0,0,0,0,0,0,0,0,0,0,0,0,0,0,0,0,0,0,0,0,0,0,0,0,0],"id":15,"left_children":[1,3,5,7,9,11,13,-1,-1,-1,15,17,19,-1,21,-1,23,-1,25,-1,27,-1,-1,-1,-1,-1,-1,-1,-1],"loss_changes":[2.867873E0,2.4112506E0,4.4725933E0,9.126238E-1,1.2046673E0,1.3500304E0,1.3950759E0,0E0,0E0,0E0,1.2993624E0,3.141662E0,2.5024395E0,0E0,5.7896805E-1,0E0,1.8386958E0,0E0,1.2993834E0,0E0,4.676504E-1,0E0,0E0,0E0,0E0,0E0,0E0,0E0,0E0],"parents":[2147483647,0,0,1,1,2,2,3,3,4,4,5,5,6,6,10,10,11,11,12,12,14,14,16,16,18,18,20,20],"right_children":[2,4,6,8,10,12,14,-1,-1,-1,16,18,20,-1,22,-1,24,-1,26,-1,28,-1,-1,-1,-1,-1,-1,-1,-1],"split_conditions":[2.3555508E-2,-1.2696314E0,3E0,-2.0714285E0,-4.6136365E0,6.666667E-1,9.722222E-1,-3.9299387E-2,7.5361044E-3,-1.6427182E-2,-2.05E0,4.5454547E-1,4.4444445E-1,-1.2324684E-2,5.833333E-1,5.1626522E-2,-1.05E0,-4.8829045E-2,-5.277778E-1,1.6214196E-2,2.6E0,6.643434E-3,5.4622915E-2,-2.5658611E-2,2.3508174E-2,-5.873742E-3,4.9103532E-2,-6.231307E-2,-2.3688225E-2],"split_indices":[4,4,2,1,1,1,1,0,0,0,1,3,3,0,3,0,1,0,1,0,1,0,0,0,0,0,0,0,0],"split_type":[0,0,0,0,0,0,0,0,0,0,0,0,0,0,0,0,0,0,0,0,0,0,0,0,0,0,0,0,0],"sum_hessian":[3.4610344E1,1.7728773E1,1.6881573E1,2.9563584E0,1.4772414E1,1.2748111E1,4.133462E0,1.7155321E0,1.2408264E0,1.2212636E0,1.3551151E1,4.360322E0,8.387789E0,1.2064478E0,2.927014E0,2.8723078E0,1.06788435E1,1.421921E0,2.9384012E0,1.2293367E0,7.1584516E0,1.2260838E0,1.7009302E0,1.4698077E0,9.209035E0,1.718344E0,1.2200572E0,3.94057E0,3.2178817E0],"tree_param":{"num_deleted":"0","num_feature":"5","num_nodes":"29","size_leaf_vector":"1"}},{"base_weights":[6.0770437E-2,1.849497E-1,-5.297837E-1,-1.3693494E-1,2.8568187E-1,-5.260062E-2,1.8380551E-1,2.048817E-1,-4.1938584E-2,4.3440488E-1,5.3168043E-2,2.6848987E-2,-1.2439042E-2,-2.7021784E-1,6.271714E-1,5.8324195E-2,5.990285E-1,-2.8690523E-1,4.1473764E-1,9.406867E-3,-3.0164888E-2,5.493324E-3,4.356882E-2,2.6017904E-2,-2.7201409E-2,8.7281497E-4,4.873604E-2,2.3349084E-2,-3.335076E-2,-3.915978E-3,4.4443414E-2],"categories":[],"categories_nodes":[],"categories_segments":[],"categories_sizes":[],"default_left":[0,0,0,0,0,0,0,0,0,0,0,0,0,0,0,0,0,0,0,0,0,0,0,0,0,0,0,0,0,0,0],"id":16,"left_children":[1,3,5,7,9,-1,11,13,-1,15,17,-1,-1,19,21,23,25,27,29,-1,-1,-1,-1,-1,-1,-1,-1,-1,-1,-1,-1],"loss_changes":[2.5822253E0,9.7070086E-1,2.4831023E0,1.9768859E0,7.4482346E-1,0E0,6.6032946E-1,1.34587E0,0E0,7.9495287E-1,1.3243123E0,0E0,0E0,6.414499E-1,3.3446455E-1,1.7272241E0,1.9964817E0,1.9284054E0,1.2758906E0,0E0,0E0,0E0,0E0,0E0,0E0,0E0,0E0,0E0,0E0,0E0,0E0],"parents":[2147483647,0,0,1,1,2,2,3,3,4,4,6,6,7,7,9,9,10,10,13,13,14,14,15,15,16,16,17,17,18,18],"right_children":[2,4,6,8,10,-1,12,14,-1,16,18,-1,-1,20,22,24,26,28,30,-1,-1,-1,-1,-1,-1,-1,-1,-1,-1,-1,-1],"split_conditions":[9.06614E-1,-1.4642857E0,1.4852226E0,-2.3888888E0,1.3E0,-5.260062E-2,1.876754E0,-8.8258046E-1,-4.1938584E-2,-3.7904903E-1,2.6E0,2.6848987E-2,-1.2439042E-2,-3.6E0,-4.090909E0,-6.8694204E-1,0E0,4.6153846E-1,1.4157875E-1,9.406867E-3,-3.0164888E-2,5.493324E-3,4.356882E-2,2.6017904E-2,-2.7201409E-2,8.7281497E-4,4.873604E-2,2.3349084E-2,-3.335076E-2,-3.915978E-3,4.4443414E-2],"split_indices":[4,1,4,1,1,0,4,4,0,4,1,0,0,1,1,4,1,3,4,0,0,0,0,0,0,0,0,0,0,0,0],"split_type":[0,0,0,0,0,0,0,0,0,0,0,0,0,0,0,0,0,0,0,0,0,0,0,0,0,0,0,0,0,0,0],"sum_hessian":[3.287545E1,2.773109E1,5.1443577E0,6.5241385E0,2.1206953E1,2.696623E0,2.4477344E0,4.863526E0,1.6606125E0,1.2404412E1,8.802541E0,1.2146996E0,1.2330348E0,2.4581182E0,2.4054077E0,4.1889944E0,8.215418E0,4.642526E0,4.1600146E0,1.2176518E0,1.2404662E0,1.2363384E0,1.1690692E0,2.44765E0,1.7413443E0,3.634959E0,4.5804586E0,1.4795442E0,3.162982E0,2.4485433E0,1.7114711E0],"tree_param":{"num_deleted":"0","num_feature":"5","num_nodes":"31","size_leaf_vector":"1"}},{"base_weights":[-1.5618297E-1,-7.5378686E-2,-6.143729E-1,-1.7436437E-1,5.651664E-1,-5.06755E-2,-2.3439036E-1,-8.2668595E-2,-5.908209E-1,-1.03069795E-2,4.650616E-2,-2.1534234E-2,2.694352E-3,-3.6976534E-1,2.1497397E-1,-4.9339913E-2,4.817144E-3,-4.6544345E-3,-5.8697958E-2,3.0679437E-3,4.5249797E-2],"categories":[],"categories_nodes":[],"categories_segments":[],"categories_sizes":[],"default_left":[0,0,0,0,0,0,0,0,0,0,0,0,0,0,0,0,0,0,0,0,0],"id":17,"left_children":[1,3,5,7,9,-1,11,13,15,-1,-1,-1,-1,17,19,-1,-1,-1,-1,-1,-1],"loss_changes":[1.2682154E0,2.084512E0,5.4851437E-1,1.0163476E0,1.4382466E0,0E0,2.4706854E-1,2.1323156E0,1.4204055E0,0E0,0E0,0E0,0E0,2.6933067E0,1.2617338E0,0E0,0E0,0E0,0E0,0E0,0E0],"parents":[2147483647,0,0,1,1,2,2,3,3,4,4,6,6,7,7,8,8,13,13,14,14],"right_children":[2,4,6,8,10,-1,12,14,16,-1,-1,-1,-1,18,20,-1,-1,-1,-1,-1,-1],"split_conditions":[3.2954545E0,2.4444444E0,3.6666667E0,1.625E0,-3.804674E-1,-5.06755E-2,5.344887E-1,-2E-1,1E0,-1.03069795E-2,4.650616E-2,-2.1534234E-2,2.694352E-3,1.527207E-1,4E0,-4.9339913E-2,4.817144E-3,-4.6544345E-3,-5.8697958E-2,3.0679437E-3,4.5249797E-2],"split_indices":[1,1,1,1,4,0,4,1,0,0,0,0,0,4,2,0,0,0,0,0,0],"split_type":[0,0,0,0,0,0,0,0,0,0,0,0,0,0,0,0,0,0,0,0,0],"sum_hessian":[3.450497E1,3.0322031E1,4.182941E0,2.6893822E1,3.4282095E0,1.2269198E0,2.9560213E0,2.3023083E1,3.870739E0,1.2408797E0,2.18733E0,1.464689E0,1.4913323E0,1.1595811E1,1.1427272E1,2.1790302E0,1.6917087E0,9.457712E0,2.1380987E0,1.0237162E1,1.1901097E0],"tree_param":{"num_deleted":"0","num_feature":"5","num_nodes":"21","size_leaf_vector":"1"}},{"base_weights":[1.02793545E-1,2.4151291E-1,-2.6617008E-1,-9.157824E-2,3.732498E-1,-6.672874E-1,9.376648E-2,2.9057997E-1,-6.2273E-1,5.757178E-2,2.0231658E-1,-4.8788182E-2,6.6471347E-3,-1.6087247E-2,3.6093315E-1,-2.3856093E-1,5.10555E-2,-3.862645E-2,-8.8812355E-3,-2.8657332E-2,3.3254534E-1,4.2340662E-2,-1.5634848E-2,9.277175E-3,-2.4840403E-2,-1.1885667E-2,2.7963076E-2],"categories":[],"categories_nodes":[],"categories_segments":[],"categories_sizes":[],"default_left":[0,0,0,0,0,0,0,0,0,0,0,0,0,0,0,0,0,0,0,0,0,0,0,0,0,0,0],"id":18,"left_children":[1,3,5,7,9,11,13,15,17,-1,19,-1,-1,-1,21,23,-1,-1,-1,-1,25,-1,-1,-1,-1,-1,-1],"loss_changes":[1.8386798E0,1.1627705E0,1.4988918E0,1.8235387E0,2.2448306E0,1.3215873E0,7.955328E-1,2.3263452E0,1.0976207E-1,0E0,1.8554677E0,0E0,0E0,0E0,1.6382694E0,5.231902E-1,0E0,0E0,0E0,0E0,2.0396953E0,0E0,0E0,0E0,0E0,0E0,0E0],"parents":[2147483647,0,0,1,1,2,2,3,3,4,4,5,5,6,6,7,7,8,8,10,10,14,14,15,15,20,20],"right_children":[2,4,6,8,10,12,14,16,18,-1,20,-1,-1,-1,22,24,-1,-1,-1,-1,26,-1,-1,-1,-1,-1,-1],"split_conditions":[4.1755053E-1,-7.824209E-1,1E0,-4.5E-1,-4.83843E-1,3E0,7.5E-1,-2.25E0,1.3571428E0,5.757178E-2,-3.6842105E-1,-4.8788182E-2,6.6471347E-3,-1.6087247E-2,3.2954545E0,-3.6E0,5.10555E-2,-3.862645E-2,-8.8812355E-3,-2.8657332E-2,4.5454547E-1,4.2340662E-2,-1.5634848E-2,9.277175E-3,-2.4840403E-2,-1.1885667E-2,2.7963076E-2],"split_indices":[4,4,0,1,4,2,1,1,1,0,4,0,0,0,1,1,0,0,0,0,3,0,0,0,0,0,0],"split_type":[0,0,0,0,0,0,0,0,0,0,0,0,0,0,0,0,0,0,0,0,0,0,0,0,0,0,0],"sum_hessian":[3.3668095E1,2.4719664E1,8.948431E0,7.0921936E0,1.762747E1,3.8282657E0,5.120165E0,4.3879986E0,2.7041948E0,2.1415837E0,1.5485887E1,2.6048017E0,1.223464E0,1.9238338E0,3.1963313E0,2.9353173E0,1.4526814E0,1.4728885E0,1.2313063E0,1.7376658E0,1.3748221E1,1.7075845E0,1.4887466E0,1.2174675E0,1.7178497E0,3.8971703E0,9.85105E0],"tree_param":{"num_deleted":"0","num_feature":"5","num_nodes":"27","size_leaf_vector":"1"}},{"base_weights":[-1.1735013E-1,9.36951E-2,-5.6260514E-1,-1.6874562E-1,3.9333805E-1,-9.578024E-1,-1.8612252E-1,3.9713804E-2,-4.9948856E-2,9.820113E-2,6.57741E-1,-5.752471E-2,-1.001404E-2,2.2837026E-2,-5.008014E-1,-2.989844E-1,4.3574455E-1,-3.9752036E-1,3.5585843E-2,5.778706E-2,1.2616664E-2,-1.60753E-3,-3.456232E-2,-2.6030248E-2,1.4066349E-2,3.5671182E-2,-1.556662E-2,3.6617236E-3,-3.724531E-2,-1.14063695E-2,1.21761E-2],"categories":[],"categories_nodes":[],"categories_segments":[],"categories_sizes":[],"default_left":[0,0,0,0,0,0,0,0,0,0,0,0,0,0,0,0,0,0,0,0,0,0,0,0,0,0,0,0,0,0,0],"id":19,"left_children":[1,3,5,7,9,11,13,15,-1,17,19,-1,-1,-1,21,23,25,27,-1,-1,29,-1,-1,-1,-1,-1,-1,-1,-1,-1,-1],"loss_changes":[3.0773325E0,1.8510139E0,1.3829634E0,2.2546034E0,7.857027E-1,4.81637E-1,1.5669281E0,1.6314133E0,0E0,2.2063806E0,1.7755141E0,0E0,0E0,0E0,4.1672873E-1,9.985347E-1,1.3767445E0,7.3152196E-1,0E0,0E0,2.4669294E-1,0E0,0E0,0E0,0E0,0E0,0E0,0E0,0E0,0E0,0E0],"parents":[2147483647,0,0,1,1,2,2,3,3,4,4,5,5,6,6,7,7,9,9,10,10,14,14,15,15,16,16,17,17,20,20],"right_children":[2,4,6,8,10,12,14,16,-1,18,20,-1,-1,-1,22,24,26,28,-1,-1,30,-1,-1,-1,-1,-1,-1,-1,-1,-1,-1],"split_conditions":[1.375E0,-2E-1,2.6E0,1.527207E-1,1E0,8.615498E-1,3.2954545E0,4.6153846E-1,-4.9948856E-2,5.5E-1,3.611111E-1,-5.752471E-2,-1.001404E-2,2.2837026E-2,3.1372792E-1,-1.05E0,-6.5E-1,8.3333336E-2,3.5585843E-2,5.778706E-2,8.5E-1,-1.60753E-3,-3.456232E-2,-2.6030248E-2,1.4066349E-2,3.5671182E-2,-1.556662E-2,3.6617236E-3,-3.724531E-2,-1.14063695E-2,1.21761E-2],"split_indices":[1,1,1,4,0,4,1,3,0,1,1,0,0,0,4,1,1,1,0,0,1,0,0,0,0,0,0,0,0,0,0],"split_type":[0,0,0,0,0,0,0,0,0,0,0,0,0,0,0,0,0,0,0,0,0,0,0,0,0,0,0,0,0,0,0],"sum_hessian":[3.1187433E1,2.169422E1,9.493215E0,1.1797918E1,9.8963E0,3.878176E0,5.6150384E0,1.0191214E1,1.6067046E0,5.324402E0,4.5718985E0,2.6781662E0,1.2000098E0,1.6969202E0,3.9181182E0,5.625313E0,4.565901E0,3.1396346E0,2.1847672E0,2.1334736E0,2.438425E0,1.4698647E0,2.4482534E0,4.1451645E0,1.4801486E0,3.361515E0,1.2043858E0,1.6681923E0,1.4714423E0,1.1996692E0,1.2387557E0],"tree_param":{"num_deleted":"0","num_feature":"5","num_nodes":"31","size_leaf_vector":"1"}},{"base_weights":[-5.378815E-2,-4.5592913E-1,6.564192E-2,-3.824731E-2,-7.9346913E-1,1.8926305E-1,-4.750697E-1,-3.8539004E-2,2.7607534E-2,-5.6190968E-2,-1.2072151E-2,3.4385285E-1,-1.3212919E-1,5.6569017E-3,-7.7784026E-1,1.7414542E-1,4.801323E-2,4.0326706E-1,-6.3681865E-1,-4.780462E-2,-1.5289694E-2,-8.011512E-3,2.0410085E-2,-8.896189E-3,3.998179E-2,-4.917139E-2,9.437594E-3],"categories":[],"categories_nodes":[],"categories_segments":[],"categories_sizes":[],"default_left":[0,0,0,0,0,0,0,0,0,0,0,0,0,0,0,0,0,0,0,0,0,0,0,0,0,0,0],"id":20,"left_children":[1,3,5,7,9,11,13,-1,-1,-1,-1,15,17,-1,19,21,-1,23,25,-1,-1,-1,-1,-1,-1,-1,-1],"loss_changes":[1.6860315E0,1.1005782E0,1.9254719E0,2.4305265E0,5.2846384E-1,1.1914307E0,1.048782E0,0E0,0E0,0E0,0E0,1.4910498E0,2.4762273E0,0E0,1.8000364E-2,1.1338034E0,0E0,1.2014701E0,1.5064452E0,0E0,0E0,0E0,0E0,0E0,0E0,0E0,0E0],"parents":[2147483647,0,0,1,1,2,2,3,3,4,4,5,5,6,6,11,11,12,12,14,14,15,15,17,17,18,18],"right_children":[2,4,6,8,10,12,14,-1,-1,-1,-1,16,18,-1,20,22,-1,24,26,-1,-1,-1,-1,-1,-1,-1,-1],"split_conditions":[4.1666666E-1,-3.6961424E-1,3.2954545E0,-1.2112035E0,0E0,6.25E-1,3.1372792E-1,-3.8539004E-2,2.7607534E-2,-5.6190968E-2,-1.2072151E-2,1.8863636E0,1.2777778E0,5.6569017E-3,3.6666667E0,-3.6842105E-1,4.801323E-2,-7.222222E-1,2.4166667E0,-4.780462E-2,-1.5289694E-2,-8.011512E-3,2.0410085E-2,-8.896189E-3,3.998179E-2,-4.917139E-2,9.437594E-3],"split_indices":[3,4,1,4,1,3,4,0,0,0,0,1,1,0,1,4,0,1,1,0,0,0,0,0,0,0,0],"split_type":[0,0,0,0,0,0,0,0,0,0,0,0,0,0,0,0,0,0,0,0,0,0,0,0,0,0,0],"sum_hessian":[3.348224E1,7.0216455E0,2.6460592E1,3.6358502E0,3.385795E0,2.2065746E1,4.3948455E0,1.486258E0,2.1495922E0,1.4701822E0,1.9156129E0,1.4852029E1,7.2137175E0,1.7062844E0,2.688561E0,1.2651418E1,2.200611E0,3.5978858E0,3.6158316E0,1.2072601E0,1.4813008E0,5.3391967E0,7.312221E0,1.6822857E0,1.9156002E0,2.411974E0,1.2038577E0],"tree_param":{"num_deleted":"0","num_feature":"5","num_nodes":"27","size_leaf_vector":"1"}},{"base_weights":[-9.660758E-2,-4.8037902E-3,-7.3090404E-1,-9.419428E-2,4.243386E-2,-4.5726668E-2,-7.67471E-3,3.532231E-2,-7.181891E-1,-2.8629E-1,2.238407E-1,-6.1140656E-2,6.84852E-3,7.7870847E-3,-3.287993E-2,2.4076847E-2,1.1920755E-3],"categories":[],"categories_nodes":[],"categories_segments":[],"categories_sizes":[],"default_left":[0,0,0,0,0,0,0,0,0,0,0,0,0,0,0,0,0],"id":21,"left_children":[1,3,5,7,-1,-1,-1,9,11,13,15,-1,-1,-1,-1,-1,-1],"loss_changes":[1.9162023E0,2.3539116E0,3.0087352E-1,2.2785695E0,0E0,0E0,0E0,1.5216874E0,2.2556872E0,1.6326237E0,7.986048E-1,0E0,0E0,0E0,0E0,0E0,0E0],"parents":[2147483647,0,0,1,1,2,2,3,3,7,7,8,8,9,9,10,10],"right_children":[2,4,6,8,-1,-1,-1,10,12,14,16,-1,-1,-1,-1,-1,-1],"split_conditions":[3.2954545E0,2.5833333E0,6.666667E-1,1.5555556E0,4.243386E-2,-4.5726668E-2,-7.67471E-3,-1.05E0,1E0,-2.3888888E0,5E-1,-6.1140656E-2,6.84852E-3,7.7870847E-3,-3.287993E-2,2.4076847E-2,1.1920755E-3],"split_indices":[1,1,3,1,0,0,0,1,0,1,3,0,0,0,0,0,0],"split_type":[0,0,0,0,0,0,0,0,0,0,0,0,0,0,0,0,0],"sum_hessian":[3.1967306E1,2.8805733E1,3.1615741E0,2.6880049E1,1.9256833E0,1.9557474E0,1.2058268E0,2.3041037E1,3.8390124E0,8.323136E0,1.47179E1,2.143955E0,1.6950574E0,4.064743E0,4.258394E0,5.816161E0,8.901739E0],"tree_param":{"num_deleted":"0","num_feature":"5","num_nodes":"17","size_leaf_vector":"1"}},{"base_weights":[-2.1319523E-2,-4.2790003E-2,6.5659046E-2,2.7139574E-1,-1.7772047E-1,7.429052E-2,6.0589486E-1,-5.309352E-1,2.3260872E-1,3.9535713E-1,-2.0865214E-1,8.871876E-1,-1.201656E-2,-7.73113E-1,1.0008412E-2,4.3722954E-2,-2.3078741E-1,4.3779906E-2,-1.1529594E-2,-2.6619485E-2,5.6921346E-3,5.615918E-3,5.6672085E-2,-4.2645545E-3,-4.626491E-2,-5.3414043E-2,2.7272416E-2],"categories":[],"categories_nodes":[],"categories_segments":[],"categories_sizes":[],"default_left":[0,0,0,0,0,0,0,0,0,0,0,0,0,0,0,0,0,0,0,0,0,0,0,0,0,0,0],"id":22,"left_children":[1,-1,3,5,7,9,11,13,15,17,19,21,-1,23,-1,-1,25,-1,-1,-1,-1,-1,-1,-1,-1,-1,-1],"loss_changes":[2.2664866E0,0E0,1.4756231E0,9.9958766E-1,2.1037369E0,1.0916735E0,1.5782895E0,1.5087335E0,2.2885432E0,1.87008E0,7.454607E-1,7.346337E-1,0E0,5.439048E-1,0E0,0E0,3.7457185E0,0E0,0E0,0E0,0E0,0E0,0E0,0E0,0E0,0E0,0E0],"parents":[2147483647,0,0,2,2,3,3,4,4,5,5,6,6,7,7,8,8,9,9,10,10,11,11,13,13,16,16],"right_children":[2,-1,4,6,8,10,12,14,16,18,20,22,-1,24,-1,-1,26,-1,-1,-1,-1,-1,-1,-1,-1,-1,-1],"split_conditions":[-1.2696314E0,-4.2790003E-2,2.8818024E-2,5.4545456E-1,6.1538464E-1,4.4444445E-1,3E0,1E0,7.777778E-1,-4.83843E-1,-4.4840473E-1,-3.6842105E-1,-1.201656E-2,3E-1,1.0008412E-2,4.3722954E-2,2.25E0,4.3779906E-2,-1.1529594E-2,-2.6619485E-2,5.6921346E-3,5.615918E-3,5.6672085E-2,-4.2645545E-3,-4.626491E-2,-5.3414043E-2,2.7272416E-2],"split_indices":[4,0,4,3,3,3,2,0,1,4,4,4,0,3,0,0,1,0,0,0,0,0,0,0,0,0,0],"split_type":[0,0,0,0,0,0,0,0,0,0,0,0,0,0,0,0,0,0,0,0,0,0,0,0,0,0,0],"sum_hessian":[2.945243E1,1.9457281E0,2.7506702E1,1.4843712E1,1.2662992E1,1.0109018E1,4.7346935E0,6.647147E0,6.0158443E0,4.549364E0,5.5596538E0,3.517156E0,1.2175376E0,4.950001E0,1.6971463E0,2.1503406E0,3.8655038E0,2.3486207E0,2.2007432E0,2.4496837E0,3.1099703E0,1.1993523E0,2.3178036E0,1.1795056E0,3.7704952E0,1.6784086E0,2.1870952E0],"tree_param":{"num_deleted":"0","num_feature":"5","num_nodes":"27","size_leaf_vector":"1"}},{"base_weights":[7.431269E-2,-2.3407137E-2,5.3305443E-2,-9.2625625E-2,4.544088E-2,-9.204022E-3,-4.195843E-2,-7.030434E-2,2.5667299E-2,1.4018281E-2,-8.637364E-3],"categories":[],"categories_nodes":[],"categories_segments":[],"categories_sizes":[],"default_left":[0,0,0,0,0,0,0,0,0,0,0],"id":23,"left_children":[1,3,-1,5,-1,7,-1,9,-1,-1,-1],"loss_changes":[3.1131172E0,2.018979E0,0E0,1.7870783E0,0E0,8.960284E-1,0E0,9.462951E-1,0E0,0E0,0E0],"parents":[2147483647,0,0,1,1,3,3,5,5,7,7],"right_children":[2,4,-1,6,-1,8,-1,10,-1,-1,-1],"split_conditions":[4E0,1.4852226E0,5.3305443E-2,9.7987247E-1,4.544088E-2,7.5E-1,-4.195843E-2,-2.3888888E0,2.5667299E-2,1.4018281E-2,-8.637364E-3],"split_indices":[2,4,0,4,0,3,0,1,0,0,0],"split_type":[0,0,0,0,0,0,0,0,0,0,0],"sum_hessian":[3.0863617E1,2.8984251E1,1.879365E0,2.7819286E1,1.1649659E0,2.5933683E1,1.8856018E0,2.3993633E1,1.9400498E0,5.031981E0,1.8961653E1],"tree_param":{"num_deleted":"0","num_feature":"5","num_nodes":"11","size_leaf_vector":"1"}},{"base_weights":[-4.9540073E-2,-6.3895756E-1,2.3346385E-2,-3.899735E-2,-9.00729E-3,1.82096E-1,-3.249403E-1,6.873978E-2,6.2668264E-1,-4.703904E-1,1.0928789E-2,2.253318E-1,-4.418995E-2,2.6998366E-3,4.5998096E-2,-6.0209084E-1,9.590031E-3,1.9387044E-2,-9.409689E-3,-1.6610845E-3,-4.7565497E-2],"categories":[],"categories_nodes":[],"categories_segments":[],"categories_sizes":[],"default_left":[0,0,0,0,0,0,0,0,0,0,0,0,0,0,0,0,0,0,0,0,0],"id":24,"left_children":[1,3,5,-1,-1,7,9,11,13,15,-1,17,-1,-1,-1,19,-1,-1,-1,-1,-1],"loss_changes":[1.538579E0,1.1425722E-1,1.8576661E0,0E0,0E0,1.1152737E0,9.363264E-1,3.09854E0,7.1395063E-1,8.685355E-1,0E0,1.2476459E0,0E0,0E0,0E0,1.4472225E0,0E0,0E0,0E0,0E0,0E0],"parents":[2147483647,0,0,1,1,2,2,5,5,6,6,7,7,8,8,9,9,11,11,15,15],"right_children":[2,4,6,-1,-1,8,10,12,14,16,-1,18,-1,-1,-1,20,-1,-1,-1,-1,-1],"split_conditions":[-1.1471385E0,-2.5E-1,4.466625E-1,-3.899735E-2,-9.00729E-3,2.3428297E-1,1.4852226E0,1.2717624E-1,5.833333E-1,7.5E-1,1.0928789E-2,8.5E-1,-4.418995E-2,2.6998366E-3,4.5998096E-2,5.8523047E-1,9.590031E-3,1.9387044E-2,-9.409689E-3,-1.6610845E-3,-4.7565497E-2],"split_indices":[4,1,4,0,0,4,4,4,3,3,0,1,0,0,0,4,0,0,0,0,0],"split_type":[0,0,0,0,0,0,0,0,0,0,0,0,0,0,0,0,0,0,0,0,0],"sum_hessian":[3.4466526E1,2.9383361E0,3.1528189E1,1.7122474E0,1.2260889E0,2.1984695E1,9.543492E0,1.8438139E1,3.5465558E0,7.6348696E0,1.908623E0,1.6490616E1,1.9475238E0,1.6021514E0,1.9444045E0,6.4440074E0,1.190862E0,1.188516E1,4.605455E0,2.8677106E0,3.576297E0],"tree_param":{"num_deleted":"0","num_feature":"5","num_nodes":"21","size_leaf_vector":"1"}},{"base_weights":[-5.1389005E-2,8.7987915E-2,-5.7128507E-1,-5.2207047E-1,2.3022756E-1,-8.257686E-1,-2.1227645E-6,-5.4635983E-3,-5.176695E-2,5.024284E-2,6.2387865E-2,-4.7310643E-2,-1.2683868E-2,-1.9220926E-2,1.6521161E-2,-4.1276845E-1,3.0099845E-1,7.7899243E-3,-3.5702325E-2,2.3325142E-2,-1.924736E-2],"categories":[],"categories_nodes":[],"categories_segments":[],"categories_sizes":[],"default_left":[0,0,0,0,0,0,0,0,0,0,0,0,0,0,0,0,0,0,0,0,0],"id":25,"left_children":[1,3,5,7,9,11,-1,13,-1,-1,15,-1,-1,-1,-1,17,19,-1,-1,-1,-1],"loss_changes":[2.3843374E0,2.3995836E0,1.009315E0,1.3924176E0,2.7970016E0,9.0940475E-2,0E0,5.894589E-1,0E0,0E0,2.2947948E0,0E0,0E0,0E0,0E0,1.279776E0,1.6920803E0,0E0,0E0,0E0,0E0],"parents":[2147483647,0,0,1,1,2,2,3,3,4,4,5,5,7,7,10,10,15,15,16,16],"right_children":[2,4,6,8,10,12,-1,14,-1,-1,16,-1,-1,-1,-1,18,20,-1,-1,-1,-1],"split_conditions":[5.848185E-1,3.846154E-1,3E0,3.5714287E-1,4.4444445E-1,1.4852226E0,-2.1227645E-6,-5.749889E-1,-5.176695E-2,5.024284E-2,-3.6842105E-1,-4.7310643E-2,-1.2683868E-2,-1.9220926E-2,1.6521161E-2,4.6153846E-1,7.1428573E-1,7.7899243E-3,-3.5702325E-2,2.3325142E-2,-1.924736E-2],"split_indices":[4,3,2,3,3,4,0,4,0,0,4,0,0,0,0,3,3,0,0,0,0],"split_type":[0,0,0,0,0,0,0,0,0,0,0,0,0,0,0,0,0,0,0,0,0],"sum_hessian":[3.1211184E1,2.5267954E1,5.943229E0,4.2726073E0,2.0995346E1,3.8033192E0,2.1399102E0,2.6330633E0,1.6395442E0,2.8508482E0,1.8144499E1,2.601634E0,1.2016851E0,1.1693212E0,1.463742E0,5.821665E0,1.2322834E1,2.1836295E0,3.6380353E0,1.0185257E1,2.137577E0],"tree_param":{"num_deleted":"0","num_feature":"5","num_nodes":"21","size_leaf_vector":"1"}},{"base_weights":[7.220542E-2,1.8497086E-1,-4.07268E-1,2.5654876E-1,-3.0801806E-1,-6.039195E-1,1.0272895E-2,4.607605E-2,5.46003E-1,2.8851659E-3,-2.9247513E-2,-4.6658415E-2,4.4061583E-3,2.1550107E-1,-6.65373E-1,5.3734094E-2,2.3563713E-1,-5.9271994E-4,4.3526363E-2,-4.3998506E-2,-7.3594316E-3,-1.387396E-2,2.5251625E-2],"categories":[],"categories_nodes":[],"categories_segments":[],"categories_sizes":[],"default_left":[0,0,0,0,0,0,0,0,0,0,0,0,0,0,0,0,0,0,0,0,0,0,0],"id":26,"left_children":[1,3,5,7,9,11,-1,13,15,-1,-1,-1,-1,17,19,-1,21,-1,-1,-1,-1,-1,-1],"loss_changes":[1.9465704E0,1.0920053E0,9.5573235E-1,1.5352377E0,4.4839254E-1,1.3306315E0,0E0,2.0625665E0,1.5009937E0,0E0,0E0,0E0,0E0,2.0378947E0,2.3822129E-1,0E0,1.248367E0,0E0,0E0,0E0,0E0,0E0,0E0],"parents":[2147483647,0,0,1,1,2,2,3,3,4,4,5,5,7,7,8,8,13,13,14,14,16,16],"right_children":[2,4,6,8,10,12,-1,14,16,-1,-1,-1,-1,18,20,-1,22,-1,-1,-1,-1,-1,-1],"split_conditions":[8.2392305E-1,7.1428573E-1,4E0,5.5E-1,1.2777778E0,1.4852226E0,1.0272895E-2,3.1219527E-2,1.3214285E0,2.8851659E-3,-2.9247513E-2,-4.6658415E-2,4.4061583E-3,-6.375767E-2,-5.277778E-1,5.3734094E-2,1.8863636E0,-5.9271994E-4,4.3526363E-2,-4.3998506E-2,-7.3594316E-3,-1.387396E-2,2.5251625E-2],"split_indices":[4,3,2,1,1,4,0,4,1,0,0,0,0,4,1,0,1,0,0,0,0,0,0],"split_type":[0,0,0,0,0,0,0,0,0,0,0,0,0,0,0,0,0,0,0,0,0,0,0],"sum_hessian":[3.360895E1,2.7706898E1,5.9020534E0,2.4612911E1,3.093985E0,4.4789333E0,1.42312E0,1.4921864E1,9.691048E0,1.6743904E0,1.4195948E0,2.798895E0,1.6800387E0,1.261485E1,2.3070142E0,2.6738195E0,7.0172286E0,1.0093397E1,2.5214524E0,1.1376832E0,1.1693311E0,2.4054914E0,4.6117373E0],"tree_param":{"num_deleted":"0","num_feature":"5","num_nodes":"23","size_leaf_vector":"1"}},{"base_weights":[-7.105842E-2,-5.779764E-1,2.1458276E-2,6.410719E-3,-4.7538385E-2,3.500099E-1,-1.2456114E-1,7.2125673E-1,-1.9548593E-2,-6.866186E-1,4.3927614E-2,4.3500047E-2,8.150785E-3,-3.6954966E-1,2.7825532E-2,-1.843103E-1,-5.34452E-2,-8.558336E-2,3.6822475E-2,1.698969E-2,-4.374389E-2,-1.5133475E-2,9.466748E-4,2.7417785E-2,-1.3882781E-2],"categories":[],"categories_nodes":[],"categories_segments":[],"categories_sizes":[],"default_left":[0,0,0,0,0,0,0,0,0,0,0,0,0,0,0,0,0,0,0,0,0,0,0,0,0],"id":27,"left_children":[1,3,5,-1,-1,7,9,11,13,15,17,-1,-1,19,-1,21,-1,23,-1,-1,-1,-1,-1,-1,-1],"loss_changes":[1.629501E0,1.5323473E0,1.4887618E0,0E0,0E0,1.3217326E0,2.07496E0,2.5517058E-1,1.3649788E0,7.7080536E-1,1.6372747E0,0E0,0E0,1.7947962E0,0E0,8.719446E-2,0E0,2.0618234E0,0E0,0E0,0E0,0E0,0E0,0E0,0E0],"parents":[2147483647,0,0,1,1,2,2,5,5,6,6,7,7,8,8,9,9,10,10,13,13,15,15,17,17],"right_children":[2,4,6,-1,-1,8,10,12,14,16,18,-1,-1,20,-1,22,-1,24,-1,-1,-1,-1,-1,-1,-1],"split_conditions":[-1.1471385E0,1E0,-3.1495342E-1,6.410719E-3,-4.7538385E-2,4.5454547E-1,-2.5E-1,-4.83843E-1,-3.6842105E-1,6.375767E-2,4E0,4.3500047E-2,8.150785E-3,-9.6598595E-1,2.7825532E-2,-3.768892E-2,-5.34452E-2,3.611111E-1,3.6822475E-2,1.698969E-2,-4.374389E-2,-1.5133475E-2,9.466748E-4,2.7417785E-2,-1.3882781E-2],"split_indices":[4,0,4,0,0,3,1,4,4,4,2,0,0,4,0,4,0,1,0,0,0,0,0,0,0],"split_type":[0,0,0,0,0,0,0,0,0,0,0,0,0,0,0,0,0,0,0,0,0,0,0,0,0],"sum_hessian":[3.3480907E1,4.357578E0,2.9123327E1,1.732229E0,2.625349E0,8.531033E0,2.0592297E1,3.7810435E0,4.749989E0,4.0400457E0,1.655225E1,2.5445707E0,1.2364727E0,3.177746E0,1.5722429E0,2.3864586E0,1.6535873E0,1.4682787E1,1.8694625E0,1.4582863E0,1.7194598E0,1.1990163E0,1.1874423E0,2.982856E0,1.1699931E1],"tree_param":{"num_deleted":"0","num_feature":"5","num_nodes":"25","size_leaf_vector":"1"}},{"base_weights":[-4.3999434E-2,1.6143328E-1,-2.8407097E-1,2.7103925E-1,-3.5478893E-1,-4.694853E-2,-8.803162E-2,-9.797922E-3,6.351459E-1,-3.0014006E-2,5.084715E-3,-3.9370978E-1,6.791692E-1,3.2332128E-1,-5.3540224E-1,-4.1492213E-3,9.1217226E-1,2.8581256E-2,-6.0388684E-1,4.9234744E-2,9.406769E-3,-8.631307E-3,2.5927378E-2,1.38779525E-2,-5.7337534E-2,5.7065584E-2,8.426734E-3,-3.62505E-2,8.537895E-4],"categories":[],"categories_nodes":[],"categories_segments":[],"categories_sizes":[],"default_left":[0,0,0,0,0,0,0,0,0,0,0,0,0,0,0,0,0,0,0,0,0,0,0,0,0,0,0,0,0],"id":28,"left_children":[1,3,5,7,9,-1,11,13,15,-1,-1,17,19,21,23,-1,25,-1,27,-1,-1,-1,-1,-1,-1,-1,-1,-1,-1],"loss_changes":[1.7783946E0,1.2033441E0,2.0435967E0,1.7146833E0,4.936285E-1,0E0,3.515321E0,1.9970676E0,1.5260851E0,0E0,0E0,2.4829772E0,4.6177542E-1,7.672389E-1,2.5138733E0,0E0,7.1832323E-1,0E0,6.997483E-1,0E0,0E0,0E0,0E0,0E0,0E0,0E0,0E0,0E0,0E0],"parents":[2147483647,0,0,1,1,2,2,3,3,4,4,6,6,7,7,8,8,11,11,12,12,13,13,14,14,16,16,18,18],"right_children":[2,4,6,8,10,-1,12,14,16,-1,-1,18,20,22,24,-1,26,-1,28,-1,-1,-1,-1,-1,-1,-1,-1,-1,-1],"split_conditions":[3.1219527E-2,5.833333E-1,-8.3333336E-2,-3.7904903E-1,7E-1,-4.694853E-2,3E0,4.6153846E-1,-1.05E0,-3.0014006E-2,5.084715E-3,3.611111E-1,5.8523047E-1,-1.2760211E0,-1.0659816E0,-4.1492213E-3,1.625E0,2.8581256E-2,1.4852226E0,4.9234744E-2,9.406769E-3,-8.631307E-3,2.5927378E-2,1.38779525E-2,-5.7337534E-2,5.7065584E-2,8.426734E-3,-3.62505E-2,8.537895E-4],"split_indices":[4,3,1,4,3,0,2,3,1,0,0,1,4,4,4,0,1,0,4,0,0,0,0,0,0,0,0,0,0],"split_type":[0,0,0,0,0,0,0,0,0,0,0,0,0,0,0,0,0,0,0,0,0,0,0,0,0,0,0,0,0],"sum_hessian":[3.4129505E1,1.8568085E1,1.55614195E1,1.5707891E1,2.860194E0,2.711968E0,1.2849452E1,9.417342E0,6.2905493E0,1.6550939E0,1.2050999E0,9.536584E0,3.3128676E0,5.9996943E0,3.4176476E0,1.9461155E0,4.344434E0,1.3976233E0,8.138961E0,1.4224534E0,1.8904142E0,1.7273487E0,4.2723455E0,1.7012894E0,1.7163582E0,2.9122915E0,1.4321419E0,6.670312E0,1.468649E0],"tree_param":{"num_deleted":"0","num_feature":"5","num_nodes":"29","size_leaf_vector":"1"}},{"base_weights":[1.263333E-1,3.5987478E-1,-1.3241911E-1,8.767328E-2,5.07017E-1,-3.441384E-1,5.137266E-1,4.130314E-1,-2.705531E-1,4.576029E-2,2.7207783E-1,-1.9695349E-1,-3.9699934E-2,-1.42226815E-2,4.39425E-2,5.2451767E-2,-1.8387279E-2,8.934178E-3,-2.6095498E-2,-2.0786045E-2,4.705562E-1,-3.431202E-1,2.350737E-2,-1.4912841E-2,4.293781E-2,-5.1373057E-3,-3.494888E-2],"categories":[],"categories_nodes":[],"categories_segments":[],"categories_sizes":[],"default_left":[0,0,0,0,0,0,0,0,0,0,0,0,0,0,0,0,0,0,0,0,0,0,0,0,0,0,0],"id":29,"left_children":[1,3,5,7,9,11,13,15,17,-1,19,21,-1,-1,-1,-1,-1,-1,-1,-1,23,25,-1,-1,-1,-1,-1],"loss_changes":[2.0815172E0,6.748557E-1,2.4610538E0,9.8713547E-1,8.48897E-1,7.1600616E-1,1.5678861E0,2.5368078E0,5.6514496E-1,0E0,1.3818269E0,1.258998E0,0E0,0E0,0E0,0E0,0E0,0E0,0E0,0E0,2.408708E0,7.675066E-1,0E0,0E0,0E0,0E0,0E0],"parents":[2147483647,0,0,1,1,2,2,3,3,4,4,5,5,6,6,7,7,8,8,10,10,11,11,20,20,21,21],"right_children":[2,4,6,8,10,12,14,16,18,-1,20,22,-1,-1,-1,-1,-1,-1,-1,-1,24,26,-1,-1,-1,-1,-1],"split_conditions":[2.3555508E-2,-8.8258046E-1,3E0,-4.5E-1,-4.83843E-1,3.65E0,9.722222E-1,1E0,-1.249212E0,4.576029E-2,-3.6842105E-1,2.6E0,-3.9699934E-2,-1.42226815E-2,4.39425E-2,5.2451767E-2,-1.8387279E-2,8.934178E-3,-2.6095498E-2,-2.0786045E-2,4.5454547E-1,1.3214285E0,2.350737E-2,-1.4912841E-2,4.293781E-2,-5.1373057E-3,-3.494888E-2],"split_indices":[4,4,2,1,4,1,1,0,4,0,4,1,0,0,0,0,0,0,0,0,3,1,0,0,0,0,0],"split_type":[0,0,0,0,0,0,0,0,0,0,0,0,0,0,0,0,0,0,0,0,0,0,0,0,0,0,0],"sum_hessian":[3.265683E1,1.69592E1,1.5697628E1,6.5107207E0,1.044848E1,1.2175531E1,3.5220969E0,3.3317125E0,3.1790082E0,2.759156E0,7.6893234E0,1.025735E1,1.9181814E0,1.1748178E0,2.347279E0,1.6467375E0,1.6849751E0,1.2442861E0,1.9347223E0,1.4768765E0,6.212447E0,8.812189E0,1.4451606E0,2.162132E0,4.050315E0,6.028676E0,2.7835133E0],"tree_param":{"num_deleted":"0","num_feature":"5","num_nodes":"27","size_leaf_vector":"1"}},{"base_weights":[2.640667E-2,-4.3169107E-2,5.4244614E-1,3.0237368E-1,-1.9163905E-1,4.7501016E-2,-6.2293275E-3,-1.7715189E-1,9.041919E-1,-6.392121E-1,-1.8045187E-2,1.3228513E-1,-3.418227E-2,5.5615474E-2,1.0087739E-2,-4.8777774E-2,6.155979E-3,-1.2911746E-1,3.3877667E-2,-2.086615E-2,4.6349403E-2,1.2478694E-2,-2.0565044E-2],"categories":[],"categories_nodes":[],"categories_segments":[],"categories_sizes":[],"default_left":[0,0,0,0,0,0,0,0,0,0,0,0,0,0,0,0,0,0,0,0,0,0,0],"id":30,"left_children":[1,3,5,7,9,-1,-1,11,13,15,17,19,-1,-1,-1,-1,-1,21,-1,-1,-1,-1,-1],"loss_changes":[1.1989726E0,1.5856426E0,1.1959528E0,2.8548298E0,1.6543195E0,0E0,0E0,1.0359539E0,4.048624E-1,1.6490161E0,1.3605897E0,2.38851E0,0E0,0E0,0E0,0E0,0E0,1.710782E0,0E0,0E0,0E0,0E0,0E0],"parents":[2147483647,0,0,1,1,2,2,3,3,4,4,7,7,8,8,9,9,10,10,11,11,17,17],"right_children":[2,4,6,8,10,-1,-1,12,14,16,18,20,-1,-1,-1,-1,-1,22,-1,-1,-1,-1,-1],"split_conditions":[4E0,-4.83843E-1,6E-1,-1.1202241E0,4.5454547E-1,4.7501016E-2,-6.2293275E-3,-4.5E-1,1.1111111E-1,1E0,1.4852226E0,-2.0714285E0,-3.418227E-2,5.5615474E-2,1.0087739E-2,-4.8777774E-2,6.155979E-3,9.722222E-1,3.3877667E-2,-2.086615E-2,4.6349403E-2,1.2478694E-2,-2.0565044E-2],"split_indices":[2,4,3,4,3,0,0,1,1,0,4,1,0,0,0,0,0,1,0,0,0,0,0],"split_type":[0,0,0,0,0,0,0,0,0,0,0,0,0,0,0,0,0,0,0,0,0,0,0],"sum_hessian":[3.1741776E1,2.8778074E1,2.963701E0,8.337387E0,2.0440687E1,1.5762951E0,1.3874058E0,5.0328655E0,3.3045216E0,4.962852E0,1.5477835E1,3.5828075E0,1.450058E0,2.0991008E0,1.2054206E0,3.2494736E0,1.7133787E0,1.4048903E1,1.4289314E0,2.398736E0,1.1840713E0,6.04801E0,8.000894E0],"tree_param":{"num_deleted":"0","num_feature":"5","num_nodes":"23","size_leaf_vector":"1"}},{"base_weights":[-7.783795E-2,-1.2850669E-1,3.90435E-1,3.8194665E-1,-1.9482027E-1,8.456041E-4,2.7746335E-2,-1.5680937E-2,4.0713575E-2,-6.2693745E-1,-8.556496E-2,9.166148E-2,-6.077658E-2,2.1775815E-1,-2.497034E-1,2.8079335E-2,-2.4938531E-2,-1.6405017E-3,2.4511676E-2,-4.8507765E-2,-2.259161E-3],"categories":[],"categories_nodes":[],"categories_segments":[],"categories_sizes":[],"default_left":[0,0,0,0,0,0,0,0,0,0,0,0,0,0,0,0,0,0,0,0,0],"id":31,"left_children":[1,3,5,7,9,-1,-1,-1,-1,11,13,15,-1,17,19,-1,-1,-1,-1,-1,-1],"loss_changes":[8.4175366E-1,1.1189272E0,2.0597208E-1,1.4238036E0,1.2669276E0,0E0,0E0,0E0,0E0,2.4321954E0,1.2236065E0,1.223604E0,0E0,6.155463E-1,2.2701616E0,0E0,0E0,0E0,0E0,0E0,0E0],"parents":[2147483647,0,0,1,1,2,2,3,3,4,4,9,9,10,10,11,11,13,13,14,14],"right_children":[2,4,6,8,10,-1,-1,-1,-1,12,14,16,-1,18,20,-1,-1,-1,-1,-1,-1],"split_conditions":[4E0,-3.25E0,5.5E-1,-4.681818E0,-1.45E0,8.456041E-4,2.7746335E-2,-1.5680937E-2,4.0713575E-2,1E0,3E-1,-5.205222E-1,-6.077658E-2,-2.5E-1,-3.9911407E-1,2.8079335E-2,-2.4938531E-2,-1.6405017E-3,2.4511676E-2,-4.8507765E-2,-2.259161E-3],"split_indices":[2,1,1,1,1,0,0,0,0,0,1,4,0,1,4,0,0,0,0,0,0],"split_type":[0,0,0,0,0,0,0,0,0,0,0,0,0,0,0,0,0,0,0,0,0],"sum_hessian":[3.236229E1,2.9857212E1,2.505079E0,2.8855774E0,2.6971634E1,1.1030712E0,1.4020077E0,1.2112994E0,1.6742779E0,4.4869514E0,2.2484684E1,2.400507E0,2.0864446E0,7.7802787E0,1.4704405E1,1.3638628E0,1.0366442E0,4.511287E0,3.2689915E0,2.4235458E0,1.2280859E1],"tree_param":{"num_deleted":"0","num_feature":"5","num_nodes":"21","size_leaf_vector":"1"}},{"base_weights":[2.315968E-2,1.3178094E-1,-2.498763E-1,2.6130205E-2,4.052158E-2,-3.944924E-2,-3.579045E-2,1.8715444E-1,-4.6790567E-1,2.806195E-1,-5.7755446E-1,-3.8778874E-1,3.3209583E-1,1.6205544E-2,-8.1128836E-1,-1.8197168E-1,4.1140437E-2,-4.3739684E-2,-1.0784847E-3,-4.8550908E-3,-3.011003E-2,1.1227223E-2,4.0991556E-2,-1.2642686E-2,-5.33891E-2,1.3724918E-2,-2.306441E-2],"categories":[],"categories_nodes":[],"categories_segments":[],"categories_sizes":[],"default_left":[0,0,0,0,0,0,0,0,0,0,0,0,0,0,0,0,0,0,0,0,0,0,0,0,0,0,0],"id":32,"left_children":[1,3,5,7,-1,-1,9,11,13,15,17,19,21,-1,23,25,-1,-1,-1,-1,-1,-1,-1,-1,-1,-1,-1],"loss_changes":[1.0366759E0,1.7617863E0,1.1233323E0,1.881508E0,0E0,0E0,1.5658476E0,1.6055759E0,1.8482287E0,1.6151676E0,5.34148E-1,1.9266301E-1,5.8661425E-1,0E0,3.5330462E-1,6.330151E-1,0E0,0E0,0E0,0E0,0E0,0E0,0E0,0E0,0E0,0E0,0E0],"parents":[2147483647,0,0,1,1,2,2,3,3,6,6,7,7,8,8,9,9,10,10,11,11,12,12,14,14,15,15],"right_children":[2,4,6,8,-1,-1,10,12,14,16,18,20,22,-1,24,26,-1,-1,-1,-1,-1,-1,-1,-1,-1,-1,-1],"split_conditions":[4.1755053E-1,2.3428297E-1,4.5454547E-1,0E0,4.052158E-2,-3.944924E-2,3.2954545E0,-2.8888888E0,-6.5E-1,1.4642857E0,4.0277777E0,-3.6E0,-6.375767E-2,1.6205544E-2,6.666667E-1,9.06614E-1,4.1140437E-2,-4.3739684E-2,-1.0784847E-3,-4.8550908E-3,-3.011003E-2,1.1227223E-2,4.0991556E-2,-1.2642686E-2,-5.33891E-2,1.3724918E-2,-2.306441E-2],"split_indices":[4,4,3,4,0,0,1,1,1,1,1,1,4,0,1,4,0,0,0,0,0,0,0,0,0,0,0],"split_type":[0,0,0,0,0,0,0,0,0,0,0,0,0,0,0,0,0,0,0,0,0,0,0,0,0,0,0],"sum_hessian":[3.2844616E1,2.386701E1,8.977606E0,2.1550571E1,2.3164387E0,1.7884884E0,7.189117E0,1.6721575E1,4.828996E0,4.842782E0,2.346335E0,3.0293756E0,1.36922E1,1.4774235E0,3.3515728E0,2.971716E0,1.8710663E0,1.155286E0,1.191049E0,1.9026923E0,1.1266832E0,1.2414941E1,1.2772583E0,1.6799077E0,1.6716652E0,1.13466E0,1.8370559E0],"tree_param":{"num_deleted":"0","num_feature":"5","num_nodes":"27","size_leaf_vector":"1"}},{"base_weights":[-8.212793E-2,-1.3468601E-1,3.2672238E-2,-1.9705942E-1,3.750222E-1,-2.0725885E-2,-4.4835484E-1,8.874517E-5,2.7417654E-2,1.701887E-1,-4.2673394E-1,-6.7025036E-1,1.8882437E-1,-2.5615335E-2,1.7602563E-2,-3.4182053E-2,-3.2274462E-3,-1.0925451E-3,-3.874727E-2,4.7200404E-2,-2.861355E-2],"categories":[],"categories_nodes":[],"categories_segments":[],"categories_sizes":[],"default_left":[0,0,0,0,0,0,0,0,0,0,0,0,0,0,0,0,0,0,0,0,0],"id":33,"left_children":[1,3,-1,5,7,9,11,-1,-1,13,15,17,19,-1,-1,-1,-1,-1,-1,-1,-1],"loss_changes":[1.2450563E0,9.88304E-1,0E0,1.1552874E0,2.2418752E-1,1.3510244E0,1.6519508E0,0E0,0E0,1.6614529E0,4.7321844E-1,5.412009E-1,2.5903583E0,0E0,0E0,0E0,0E0,0E0,0E0,0E0,0E0],"parents":[2147483647,0,0,1,1,3,3,4,4,5,5,6,6,9,9,10,10,11,11,12,12],"right_children":[2,4,-1,6,8,10,12,-1,-1,14,16,18,20,-1,-1,-1,-1,-1,-1,-1,-1],"split_conditions":[4.181818E0,4E0,3.2672238E-2,1.2717624E-1,5.5E-1,8.5E-1,2.4166667E0,8.874517E-5,2.7417654E-2,-1.1766968E0,1.7E0,3E-1,3.2954545E0,-2.5615335E-2,1.7602563E-2,-3.4182053E-2,-3.2274462E-3,-1.0925451E-3,-3.874727E-2,4.7200404E-2,-2.861355E-2],"split_indices":[1,2,0,4,1,1,1,0,0,4,1,3,1,0,0,0,0,0,0,0,0],"split_type":[0,0,0,0,0,0,0,0,0,0,0,0,0,0,0,0,0,0,0,0,0],"sum_hessian":[2.8928549E1,2.776181E1,1.1667383E0,2.5281483E1,2.4803283E0,1.5492735E1,9.788749E0,1.1069291E0,1.3733993E0,1.0932731E1,4.5600038E0,7.221858E0,2.5668902E0,1.9179673E0,9.014764E0,2.148483E0,2.4115207E0,1.1720154E0,6.0498424E0,1.1678164E0,1.3990738E0],"tree_param":{"num_deleted":"0","num_feature":"5","num_nodes":"21","size_leaf_vector":"1"}},{"base_weights":[-1.2830471E-2,-4.3508035E-1,6.1249547E-2,1.1862661E-2,-4.368312E-2,4.573214E-1,-2.583371E-2,7.2173816E-1,-1.2261546E-2,-3.476506E-2,6.6263184E-2,4.6377733E-2,1.0150439E-2,-2.8311074E-2,1.730733E-1,2.6436761E-2,9.254971E-4],"categories":[],"categories_nodes":[],"categories_segments":[],"categories_sizes":[],"default_left":[0,0,0,0,0,0,0,0,0,0,0,0,0,0,0,0,0],"id":34,"left_children":[1,3,5,-1,-1,7,9,11,-1,-1,13,-1,-1,-1,15,-1,-1],"loss_changes":[1.013868E0,1.6326907E0,9.6813416E-1,0E0,0E0,1.1152719E0,1.5058138E0,2.3056293E-1,0E0,0E0,1.5656798E0,0E0,0E0,0E0,1.0540688E0,0E0,0E0],"parents":[2147483647,0,0,1,1,2,2,5,5,6,6,7,7,10,10,14,14],"right_children":[2,4,6,-1,-1,8,10,12,-1,-1,14,-1,-1,-1,16,-1,-1],"split_conditions":[-1.1471385E0,-1.5152766E0,-2.3888888E0,1.1862661E-2,-4.368312E-2,3E0,-1.4642857E0,5E-1,-1.2261546E-2,-3.476506E-2,-3.9911407E-1,4.6377733E-2,1.0150439E-2,-2.8311074E-2,2.3555508E-2,2.6436761E-2,9.254971E-4],"split_indices":[4,4,1,0,0,2,1,3,0,0,4,0,0,0,4,0,0],"split_type":[0,0,0,0,0,0,0,0,0,0,0,0,0,0,0,0,0],"sum_hessian":[3.0560446E1,3.8339782E0,2.6726467E1,1.6948566E0,2.1391215E0,4.0508513E0,2.2675615E1,2.9233088E0,1.1275426E0,1.9501296E0,2.0725487E1,1.5286553E0,1.3946534E0,2.3729105E0,1.8352575E1,4.8262286E0,1.3526347E1],"tree_param":{"num_deleted":"0","num_feature":"5","num_nodes":"17","size_leaf_vector":"1"}},{"base_weights":[8.071912E-2,-1.2639935E-1,2.0590281E-1,1.392186E-1,-5.1942177E-2,5.4108316E-1,-4.0064342E-2,-8.5761964E-2,4.149453E-2,-9.8152794E-2,7.7508533E-1,2.4816984E-1,-2.0559323E-1,-3.6683142E-1,1.2651724E-1,1.1883035E-2,-2.0096036E-2,9.9111956E-1,2.4565138E-1,-1.154162E-2,3.3205207E-2,-5.0555E-1,4.0203863E-1,-1.4683107E-3,-2.8084783E-2,2.4500841E-2,-1.3819321E-2,1.0009321E-2,6.040862E-2,-8.002895E-3,2.673587E-2,-4.7880832E-2,-1.08373165E-2,4.1586604E-2,-7.362018E-3],"categories":[],"categories_nodes":[],"categories_segments":[],"categories_sizes":[],"default_left":[0,0,0,0,0,0,0,0,0,0,0,0,0,0,0,0,0,0,0,0,0,0,0,0,0,0,0,0,0,0,0,0,0,0,0],"id":35,"left_children":[1,3,5,7,-1,9,11,13,-1,15,17,19,21,23,25,-1,-1,27,29,-1,-1,31,33,-1,-1,-1,-1,-1,-1,-1,-1,-1,-1,-1,-1],"loss_changes":[8.992024E-1,3.3695772E0,1.7835581E0,1.8096513E0,0E0,1.4393725E0,6.835181E-1,6.040049E-1,0E0,4.3519995E-1,5.324693E-1,1.2070527E0,1.8377414E0,2.647997E-1,1.0240935E0,0E0,0E0,5.2871275E-1,4.7207606E-1,0E0,0E0,6.3413644E-1,9.5346177E-1,0E0,0E0,0E0,0E0,0E0,0E0,0E0,0E0,0E0,0E0,0E0,0E0],"parents":[2147483647,0,0,1,1,2,2,3,3,5,5,6,6,7,7,9,9,10,10,11,11,12,12,13,13,14,14,17,17,18,18,21,21,22,22],"right_children":[2,4,6,8,-1,10,12,14,-1,16,18,20,22,24,26,-1,-1,28,30,-1,-1,32,34,-1,-1,-1,-1,-1,-1,-1,-1,-1,-1,-1,-1],"split_conditions":[-2E-1,1.527207E-1,1.3214285E0,6E-1,-5.1942177E-2,-6.92715E-2,2.3555508E-2,4.1666666E-1,4.149453E-2,-9.62272E-1,5.848185E-1,1E0,3E0,3.3333334E-1,5E-1,1.1883035E-2,-2.0096036E-2,3.846154E-1,1.009409E0,-1.154162E-2,3.3205207E-2,1.4157875E-1,5.8523047E-1,-1.4683107E-3,-2.8084783E-2,2.4500841E-2,-1.3819321E-2,1.0009321E-2,6.040862E-2,-8.002895E-3,2.673587E-2,-4.7880832E-2,-1.08373165E-2,4.1586604E-2,-7.362018E-3],"split_indices":[1,4,1,3,0,4,4,3,0,4,4,0,2,3,3,0,0,3,4,0,0,4,4,0,0,0,0,0,0,0,0,0,0,0,0],"split_type":[0,0,0,0,0,0,0,0,0,0,0,0,0,0,0,0,0,0,0,0,0,0,0,0,0,0,0,0,0,0,0,0,0,0,0],"sum_hessian":[3.2677155E1,1.2306364E1,2.0370792E1,1.0187999E1,2.1183653E0,8.113997E0,1.2256795E1,8.345387E0,1.8426112E0,2.3298824E0,5.7841153E0,4.2890506E0,7.9677444E0,3.2776008E0,5.0677867E0,1.209933E0,1.1199493E0,3.4885745E0,2.295541E0,2.2002287E0,2.0888216E0,5.446892E0,2.5208526E0,1.6210214E0,1.6565793E0,2.5505068E0,2.5172799E0,1.1651392E0,2.3234353E0,1.1407588E0,1.1547822E0,1.2205504E0,4.2263412E0,1.1258727E0,1.3949798E0],"tree_param":{"num_deleted":"0","num_feature":"5","num_nodes":"35","size_leaf_vector":"1"}},{"base_weights":[6.375301E-2,2.4347454E-1,-2.443189E-1,-8.165982E-2,6.4447194E-1,-4.6191138E-1,2.251392E-1,1.6820504E-1,-4.982752E-2,4.2074464E-2,9.405752E-1,-7.7249366E-1,-1.6690381E-1,-1.0766249E-2,2.6715178E-2,-2.9465562E-2,3.396921E-1,2.3660677E-2,-1.3565145E-2,1.898265E-2,5.5888016E-2,-4.602385E-3,-5.0775755E-2,-3.9835073E-2,2.5226417E-1,3.0705323E-2,-4.940699E-3,3.366902E-2,-2.3045512E-2],"categories":[],"categories_nodes":[],"categories_segments":[],"categories_sizes":[],"default_left":[0,0,0,0,0,0,0,0,0,0,0,0,0,0,0,0,0,0,0,0,0,0,0,0,0,0,0,0,0],"id":36,"left_children":[1,3,5,7,9,11,13,15,-1,17,19,21,23,-1,-1,-1,25,-1,-1,-1,-1,-1,-1,-1,27,-1,-1,-1,-1],"loss_changes":[1.9116156E0,2.8724108E0,1.4139764E0,3.1008244E0,1.7078538E0,7.039573E-1,7.596711E-1,1.6205864E0,0E0,7.060173E-1,2.2376633E-1,5.932181E-1,1.768463E0,0E0,0E0,0E0,1.2098802E0,0E0,0E0,0E0,0E0,0E0,0E0,0E0,1.6091313E0,0E0,0E0,0E0,0E0],"parents":[2147483647,0,0,1,1,2,2,3,3,4,4,5,5,6,6,7,7,9,9,10,10,11,11,12,12,16,16,24,24],"right_children":[2,4,6,8,10,12,14,16,-1,18,20,22,24,-1,-1,-1,26,-1,-1,-1,-1,-1,-1,-1,28,-1,-1,-1,-1],"split_conditions":[1.3214285E0,-2.5E-1,3E0,1.527207E-1,-6.92715E-2,1E0,5.555556E-1,-1.2696314E0,-4.982752E-2,4.2857143E-1,4.5454547E-1,1.75E0,1.8863636E0,-1.0766249E-2,2.6715178E-2,-2.9465562E-2,-3.1495342E-1,2.3660677E-2,-1.3565145E-2,1.898265E-2,5.5888016E-2,-4.602385E-3,-5.0775755E-2,-3.9835073E-2,3.9318182E0,3.0705323E-2,-4.940699E-3,3.366902E-2,-2.3045512E-2],"split_indices":[1,1,2,4,4,0,3,4,0,3,3,1,1,0,0,0,4,0,0,0,0,0,0,0,1,0,0,0,0],"split_type":[0,0,0,0,0,0,0,0,0,0,0,0,0,0,0,0,0,0,0,0,0,0,0,0,0,0,0,0,0],"sum_hessian":[3.2451782E1,2.0627748E1,1.1824035E1,1.1831202E1,8.796547E0,8.090286E0,3.7337492E0,9.934223E0,1.8969784E0,3.2753046E0,5.521242E0,3.1526446E0,4.9376416E0,1.6650667E0,2.0686824E0,1.3840278E0,8.550195E0,1.163937E0,2.1113677E0,2.0798063E0,3.4414358E0,1.192494E0,1.9601505E0,1.6131775E0,3.3244638E0,5.012778E0,3.537417E0,2.1253076E0,1.1991563E0],"tree_param":{"num_deleted":"0","num_feature":"5","num_nodes":"29","size_leaf_vector":"1"}},{"base_weights":[3.743637E-3,7.6284625E-2,-4.4832912E-1,1.0859047E-2,5.343289E-1,-2.6265696E-2,-4.6279307E-2,7.918982E-2,-4.162967E-2,3.0485431E-3,3.618471E-2,1.41750565E-2,-1.4705988E-2,4.7892475E-1,3.2493272E-3,-5.9601623E-3,4.1315965E-2,-3.4303736E-2,4.4500674E-3],"categories":[],"categories_nodes":[],"categories_segments":[],"categories_sizes":[],"default_left":[0,0,0,0,0,0,0,0,0,0,0,0,0,0,0,0,0,0,0],"id":37,"left_children":[1,3,5,7,9,11,-1,13,-1,-1,-1,-1,-1,15,17,-1,-1,-1,-1],"loss_changes":[1.1273121E0,8.805962E-1,9.334038E-1,1.6164116E0,2.8539157E-1,3.781309E-1,0E0,7.8160936E-1,0E0,0E0,0E0,0E0,0E0,9.5291096E-1,1.4021311E0,0E0,0E0,0E0,0E0],"parents":[2147483647,0,0,1,1,2,2,3,3,4,4,5,5,7,7,13,13,14,14],"right_children":[2,4,6,8,10,12,-1,14,-1,-1,-1,-1,-1,16,18,-1,-1,-1,-1],"split_conditions":[3.2954545E0,1.0795913E0,9.7987247E-1,9.06614E-1,9.722222E-1,1E0,-4.6279307E-2,-1.2175192E0,-4.162967E-2,3.0485431E-3,3.618471E-2,1.41750565E-2,-1.4705988E-2,-2.0714285E0,-1.1471385E0,-5.9601623E-3,4.1315965E-2,-3.4303736E-2,4.4500674E-3],"split_indices":[1,4,4,4,1,0,0,4,0,0,0,0,0,1,4,0,0,0,0],"split_type":[0,0,0,0,0,0,0,0,0,0,0,0,0,0,0,0,0,0,0],"sum_hessian":[3.2332867E1,2.8578354E1,3.754515E0,2.5902264E1,2.6760893E0,2.552362E0,1.202153E0,2.4799305E1,1.1029588E0,1.1423993E0,1.53369E0,1.1564912E0,1.3958708E0,3.1119692E0,2.1687336E1,1.3847077E0,1.7272614E0,1.6248856E0,2.006245E1],"tree_param":{"num_deleted":"0","num_feature":"5","num_nodes":"19","size_leaf_vector":"1"}},{"base_weights":[1.314164E-1,-3.5427982E-1,2.3176233E-1,9.902413E-3,-6.847089E-1,3.0894138E-2,4.4586596E-1,-7.255225E-3,-4.691221E-2,2.5045902E-1,-4.1793215E-1,6.007613E-1,-1.51369795E-2,7.12351E-2,4.5100275E-2,-6.5489125E-1,6.645009E-3,4.33565E-2,-2.0121026E-1,2.5127316E-2,-2.4314826E-2,-4.2603284E-2,-5.3834897E-3,-2.0729078E-2,6.7143342E-3],"categories":[],"categories_nodes":[],"categories_segments":[],"categories_sizes":[],"default_left":[0,0,0,0,0,0,0,0,0,0,0,0,0,0,0,0,0,0,0,0,0,0,0,0,0],"id":38,"left_children":[1,3,5,-1,7,9,11,-1,-1,13,15,17,-1,19,-1,21,-1,-1,23,-1,-1,-1,-1,-1,-1],"loss_changes":[1.5960431E0,1.1784894E0,1.1193919E0,0E0,3.8368678E-1,1.5502506E0,1.6521547E0,0E0,0E0,1.1590018E0,7.649077E-1,2.490325E0,0E0,2.4810834E0,0E0,3.18272E-1,0E0,0E0,3.072694E-1,0E0,0E0,0E0,0E0,0E0,0E0],"parents":[2147483647,0,0,1,1,2,2,4,4,5,5,6,6,9,9,10,10,11,11,13,13,15,15,18,18],"right_children":[2,4,6,-1,8,10,12,-1,-1,14,16,18,-1,20,-1,22,-1,-1,24,-1,-1,-1,-1,-1,-1],"split_conditions":[-1.1202241E0,1E0,1E0,9.902413E-3,-1.2175192E0,1.5E0,7.1428573E-1,-7.255225E-3,-4.691221E-2,6.1538464E-1,3.1944444E0,3E0,-1.51369795E-2,3.1219527E-2,4.5100275E-2,6.363636E-1,6.645009E-3,4.33565E-2,1.2142857E0,2.5127316E-2,-2.4314826E-2,-4.2603284E-2,-5.3834897E-3,-2.0729078E-2,6.7143342E-3],"split_indices":[4,0,0,0,4,1,3,0,0,3,1,2,0,4,0,3,0,0,1,0,0,0,0,0,0],"split_type":[0,0,0,0,0,0,0,0,0,0,0,0,0,0,0,0,0,0,0,0,0,0,0,0,0],"sum_hessian":[3.0062935E1,4.714268E0,2.5348667E1,1.9145834E0,2.799685E0,1.3668974E1,1.1679693E1,1.397558E0,1.402127E0,9.475533E0,4.1934414E0,9.840972E0,1.8387206E0,8.301369E0,1.1741636E0,2.8000102E0,1.3934311E0,7.326338E0,2.5146346E0,4.7361026E0,3.5652664E0,1.648829E0,1.1511812E0,1.3929893E0,1.1216453E0],"tree_param":{"num_deleted":"0","num_feature":"5","num_nodes":"25","size_leaf_vector":"1"}},{"base_weights":[-5.542141E-2,1.3494672E-1,-2.6863214E-1,-4.899699E-2,5.0432157E-2,-4.061916E-1,2.8814921E-2,6.7214526E-2,-3.852801E-2,-6.7494255E-1,-1.0399831E-1,-2.4426085E-1,3.9082968E-1,-2.5444382E-1,-5.4682504E-2,1.5524802E-2,-2.6791218E-1,-2.4706516E-3,-3.2778338E-2,4.344478E-2,7.223524E-3,-3.4149546E-2,1.3191776E-2,-3.2818574E-2,7.0728175E-3],"categories":[],"categories_nodes":[],"categories_segments":[],"categories_sizes":[],"default_left":[0,0,0,0,0,0,0,0,0,0,0,0,0,0,0,0,0,0,0,0,0,0,0,0,0],"id":39,"left_children":[1,3,5,7,-1,9,-1,11,-1,13,15,17,19,21,-1,-1,23,-1,-1,-1,-1,-1,-1,-1,-1],"loss_changes":[1.326666E0,2.8557005E0,2.0159752E0,1.341334E0,0E0,1.0482159E0,0E0,1.523268E0,0E0,9.7296906E-1,6.0391194E-1,5.953802E-1,7.3796964E-1,1.2571821E0,0E0,0E0,1.0516257E0,0E0,0E0,0E0,0E0,0E0,0E0,0E0,0E0],"parents":[2147483647,0,0,1,1,2,2,3,3,5,5,7,7,9,9,10,10,11,11,12,12,13,13,16,16],"right_children":[2,4,6,8,-1,10,-1,12,-1,14,16,18,20,22,-1,-1,24,-1,-1,-1,-1,-1,-1,-1,-1],"split_conditions":[2.3555508E-2,-6.375767E-2,4E0,-1.4336088E-1,5.0432157E-2,5.063292E-1,2.8814921E-2,-6.9167805E-1,-3.852801E-2,1.5E0,5.8523047E-1,-1E-1,-4.83843E-1,5.833333E-1,-5.4682504E-2,1.5524802E-2,6.1538464E-1,-2.4706516E-3,-3.2778338E-2,4.344478E-2,7.223524E-3,-3.4149546E-2,1.3191776E-2,-3.2818574E-2,7.0728175E-3],"split_indices":[4,4,2,4,0,4,0,4,0,1,4,1,4,3,0,0,3,0,0,0,0,0,0,0,0],"split_type":[0,0,0,0,0,0,0,0,0,0,0,0,0,0,0,0,0,0,0,0,0,0,0,0,0],"sum_hessian":[3.07926E1,1.6461658E1,1.4330943E1,1.4378417E1,2.0832405E0,1.2771011E1,1.5599321E0,1.3164978E1,1.2134395E0,6.1066637E0,6.6643476E0,6.833263E0,6.3317146E0,3.8489435E0,2.2577202E0,1.6351719E0,5.0291758E0,5.3967834E0,1.4364797E0,1.2939087E0,5.037806E0,1.9328954E0,1.9160482E0,2.270895E0,2.7582808E0],"tree_param":{"num_deleted":"0","num_feature":"5","num_nodes":"25","size_leaf_vector":"1"}},{"base_weights":[-5.27842E-2,3.0008618E-2,-9.9943556E-2,-3.9719424E-1,5.5452086E-2,-4.190268E-2,-5.1734228E-2,3.6930257E-1,-1.906197E-1,3.6327642E-1,-3.5701132E-1,-2.4865232E-1,5.866582E-1,-5.981138E-1,1.5879154E-1,-9.267359E-3,4.4124376E-2,-3.273851E-2,1.2708147E-2,2.0756952E-3,-2.1294791E-2,7.9646066E-5,4.357729E-2,-3.1964408E-4,-3.66027E-2,2.4906307E-2,-2.2328554E-2],"categories":[],"categories_nodes":[],"categories_segments":[],"categories_sizes":[],"default_left":[0,0,0,0,0,0,0,0,0,0,0,0,0,0,0,0,0,0,0,0,0,0,0,0,0,0,0],"id":40,"left_children":[1,-1,3,5,7,9,-1,11,13,15,17,19,21,23,25,-1,-1,-1,-1,-1,-1,-1,-1,-1,-1,-1,-1],"loss_changes":[1.0990273E0,0E0,1.515266E0,2.4980502E0,1.7776848E0,1.1826626E0,0E0,1.4965204E0,1.9531982E0,1.3324877E0,1.1024666E0,1.8837297E-1,1.2881682E0,4.8943496E-1,1.8280953E0,0E0,0E0,0E0,0E0,0E0,0E0,0E0,0E0,0E0,0E0,0E0,0E0],"parents":[2147483647,0,0,2,2,3,3,4,4,5,5,7,7,8,8,9,9,10,10,11,11,12,12,13,13,14,14],"right_children":[2,-1,4,6,8,10,-1,12,14,16,18,20,22,24,26,-1,-1,-1,-1,-1,-1,-1,-1,-1,-1,-1,-1],"split_conditions":[-4.090909E0,3.0008618E-2,-2.5E-1,-3.4847226E-2,1.3214285E0,1E0,-5.1734228E-2,-4.213539E-1,2.4444444E0,4.1666666E-1,-2.0714285E0,1E0,4.5454547E-1,4.4444445E-1,3.9318182E0,-9.267359E-3,4.4124376E-2,-3.273851E-2,1.2708147E-2,2.0756952E-3,-2.1294791E-2,7.9646066E-5,4.357729E-2,-3.1964408E-4,-3.66027E-2,2.4906307E-2,-2.2328554E-2],"split_indices":[1,0,1,4,1,0,0,4,1,3,1,0,3,3,1,0,0,0,0,0,0,0,0,0,0,0,0],"split_type":[0,0,0,0,0,0,0,0,0,0,0,0,0,0,0,0,0,0,0,0,0,0,0,0,0,0,0],"sum_hessian":[3.2742855E1,1.4156497E0,3.1327204E1,1.022059E1,2.1106613E1,7.2472315E0,2.9733582E0,9.055741E0,1.2050872E1,3.1036172E0,4.1436143E0,2.3189213E0,6.73682E0,5.234483E0,6.8163896E0,1.8217204E0,1.2818967E0,2.738237E0,1.4053773E0,1.1697304E0,1.149191E0,2.5354447E0,4.2013755E0,1.15955E0,4.0749326E0,4.481461E0,2.3349285E0],"tree_param":{"num_deleted":"0","num_feature":"5","num_nodes":"27","size_leaf_vector":"1"}},{"base_weights":[-5.6916145E-3,-3.2043013E-1,1.4774379E-1,1.11374654E-1,-5.837025E-1,4.6225333E-1,-1.0693309E-1,-3.693536E-2,6.1801106E-1,3.4865201E-3,-7.607793E-1,1.8022554E-1,7.8115314E-1,-3.1199599E-2,4.2584464E-2,3.713211E-2,1.1433511E-2,-9.207733E-1,-1.2111074E-2,-8.002506E-2,2.7714375E-2,9.651147E-3,5.5035364E-2,-3.5242546E-1,4.0043136E-1,-1.6497925E-2,-5.442198E-2,3.051017E-2,-2.326628E-2,-3.2440137E-2,-5.6576362E-5,4.006016E-2,-9.7015435E-3],"categories":[],"categories_nodes":[],"categories_segments":[],"categories_sizes":[],"default_left":[0,0,0,0,0,0,0,0,0,0,0,0,0,0,0,0,0,0,0,0,0,0,0,0,0,0,0,0,0,0,0,0,0],"id":41,"left_children":[1,3,5,7,9,11,13,-1,15,-1,17,19,21,-1,23,-1,-1,25,-1,27,-1,-1,-1,29,31,-1,-1,-1,-1,-1,-1,-1,-1],"loss_changes":[1.6050711E0,1.3026726E0,1.8411825E0,2.5941858E0,8.5416603E-1,7.763066E-1,1.0449356E0,0E0,7.5069666E-3,0E0,2.3588467E-1,6.97688E-1,6.3057446E-1,0E0,1.7177728E0,0E0,0E0,2.4237871E-2,0E0,1.5688576E0,0E0,0E0,0E0,6.066324E-1,1.6612555E0,0E0,0E0,0E0,0E0,0E0,0E0,0E0,0E0],"parents":[2147483647,0,0,1,1,2,2,3,3,4,4,5,5,6,6,8,8,10,10,11,11,12,12,14,14,17,17,19,19,23,23,24,24],"right_children":[2,4,6,8,10,12,14,-1,16,-1,18,20,22,-1,24,-1,-1,26,-1,28,-1,-1,-1,30,32,-1,-1,-1,-1,-1,-1,-1,-1],"split_conditions":[-3E-1,1E0,1.375E0,3.846154E-1,-3.25E0,1.392715E-1,1.7E0,-3.693536E-2,5.4545456E-1,3.4865201E-3,-1.125E0,5.5E-1,7.5E-1,-3.1199599E-2,1E0,3.713211E-2,1.1433511E-2,-2.5555556E0,-1.2111074E-2,-1E-1,2.7714375E-2,9.651147E-3,5.5035364E-2,5.714286E-1,3.2954545E0,-1.6497925E-2,-5.442198E-2,3.051017E-2,-2.326628E-2,-3.2440137E-2,-5.6576362E-5,4.006016E-2,-9.7015435E-3],"split_indices":[1,0,1,3,1,4,1,0,3,0,1,1,1,0,0,0,0,1,0,1,0,0,0,3,1,0,0,0,0,0,0,0,0],"split_type":[0,0,0,0,0,0,0,0,0,0,0,0,0,0,0,0,0,0,0,0,0,0,0,0,0,0,0,0,0,0,0,0,0],"sum_hessian":[3.125645E1,9.887034E0,2.1369415E1,3.9634175E0,5.923617E0,9.196846E0,1.217257E1,1.3089974E0,2.65442E0,1.3922553E0,4.5313616E0,5.7111664E0,3.4856794E0,2.018581E0,1.0153989E1,1.3233656E0,1.3310544E0,2.8701677E0,1.6611937E0,3.8314974E0,1.8796687E0,1.791857E0,1.6938224E0,4.833582E0,5.3204074E0,1.2905467E0,1.5796212E0,1.1634974E0,2.6680002E0,2.1623611E0,2.6712205E0,2.970196E0,2.3502114E0],"tree_param":{"num_deleted":"0","num_feature":"5","num_nodes":"33","size_leaf_vector":"1"}},{"base_weights":[1.2914486E-1,2.6856917E-1,-2.122477E-1,7.5976914E-1,1.3787372E-1,-3.8896716E-1,1.4419297E-2,1.5106531E-2,5.108676E-2,-3.4183443E-2,2.7648365E-1,-5.746305E-1,1.5524504E-2,5.4167706E-1,-1.346809E-3,-8.1106323E-1,7.7207745E-3,2.2150963E-3,-9.7399205E-4,3.6854055E-2,-3.1751727E-3,-2.8267367E-2,1.3396655E-2,-7.384335E-3,-5.195856E-2],"categories":[],"categories_nodes":[],"categories_segments":[],"categories_sizes":[],"default_left":[0,0,0,0,0,0,0,0,0,0,0,0,0,0,0,0,0,0,0,0,0,0,0,0,0],"id":42,"left_children":[1,3,5,7,9,11,-1,-1,-1,-1,13,15,17,19,21,23,-1,-1,-1,-1,-1,-1,-1,-1,-1],"loss_changes":[1.520751E0,1.3253245E0,9.505171E-1,2.259674E-1,2.3317199E0,5.668622E-1,0E0,0E0,0E0,0E0,1.2394215E0,1.0075006E0,4.1982643E-3,1.0642858E0,1.5499192E0,4.5558286E-1,0E0,0E0,0E0,0E0,0E0,0E0,0E0,0E0,0E0],"parents":[2147483647,0,0,1,1,2,2,3,3,4,4,5,5,10,10,11,11,12,12,13,13,14,14,15,15],"right_children":[2,4,6,8,10,12,-1,-1,-1,-1,14,16,18,20,22,24,-1,-1,-1,-1,-1,-1,-1,-1,-1],"split_conditions":[4.466625E-1,3.75E-1,1.4852226E0,1E0,4.1666666E-1,2.5833333E0,1.4419297E-2,1.5106531E-2,5.108676E-2,-3.4183443E-2,1E0,1.0795913E0,1E0,1.75E0,-1.1202241E0,5.5E-1,7.7207745E-3,2.2150963E-3,-9.7399205E-4,3.6854055E-2,-3.1751727E-3,-2.8267367E-2,1.3396655E-2,-7.384335E-3,-5.195856E-2],"split_indices":[4,3,4,0,3,1,0,0,0,0,0,4,0,1,4,1,0,0,0,0,0,0,0,0,0],"split_type":[0,0,0,0,0,0,0,0,0,0,0,0,0,0,0,0,0,0,0,0,0,0,0,0,0],"sum_hessian":[2.9752022E1,2.1276173E1,8.475849E0,3.4597862E0,1.7816387E1,6.4293823E0,2.0464673E0,2.0434046E0,1.4163815E0,2.004337E0,1.581205E1,4.1183968E0,2.3109853E0,7.6041274E0,8.207922E0,3.024907E0,1.0934898E0,1.1225302E0,1.1884552E0,5.583381E0,2.020746E0,2.2971394E0,5.910783E0,1.1955342E0,1.8293729E0],"tree_param":{"num_deleted":"0","num_feature":"5","num_nodes":"25","size_leaf_vector":"1"}},{"base_weights":[7.245474E-2,2.3577374E-1,-1.5188865E-1,-7.10434E-2,6.3913894E-1,-5.4160673E-2,1.5242395E-1,3.409426E-1,-3.989337E-1,-6.8874257E-3,8.925711E-1,6.7836076E-1,-1.2228089E-1,3.4158427E-2,-2.9446013E-2,-6.034961E-1,1.5476984E-2,5.66507E-2,1.0852046E-2,4.702119E-2,1.1365338E-2,1.5788643E-1,-3.4020685E-2,-2.1242293E-2,2.1992745E-2,-3.534267E-2,-1.1200478E-2,2.6363343E-2,-1.1928811E-2],"categories":[],"categories_nodes":[],"categories_segments":[],"categories_sizes":[],"default_left":[0,0,0,0,0,0,0,0,0,0,0,0,0,0,0,0,0,0,0,0,0,0,0,0,0,0,0,0,0],"id":43,"left_children":[1,3,5,7,9,-1,11,13,15,-1,17,19,21,-1,23,25,-1,-1,-1,-1,-1,27,-1,-1,-1,-1,-1,-1,-1],"loss_changes":[1.1744686E0,2.3196688E0,4.0481043E0,1.6675308E0,1.7057655E0,0E0,1.7015615E0,7.253327E-1,1.1685106E0,0E0,7.603893E-1,2.5865376E-1,1.3906981E0,0E0,8.605544E-1,6.111598E-2,0E0,0E0,0E0,0E0,0E0,1.0448178E0,0E0,0E0,0E0,0E0,0E0,0E0,0E0],"parents":[2147483647,0,0,1,1,2,2,3,3,4,4,6,6,7,7,8,8,10,10,11,11,12,12,14,14,15,15,21,21],"right_children":[2,4,6,8,10,-1,12,14,16,-1,18,20,22,-1,24,26,-1,-1,-1,-1,-1,28,-1,-1,-1,-1,-1,-1,-1],"split_conditions":[1.2717624E-1,-3.6842105E-1,0E0,1E0,4.5454547E-1,-5.4160673E-2,1.3214285E0,-8.333333E-1,1.2142857E0,-6.8874257E-3,2.3555508E-2,5.653827E-1,7E-1,3.4158427E-2,-9.62272E-1,-1.1202241E0,1.5476984E-2,5.66507E-2,1.0852046E-2,4.702119E-2,1.1365338E-2,5.8523047E-1,-3.4020685E-2,-2.1242293E-2,2.1992745E-2,-3.534267E-2,-1.1200478E-2,2.6363343E-2,-1.1928811E-2],"split_indices":[4,4,1,0,3,0,1,1,1,0,4,4,3,0,4,4,0,0,0,0,0,4,0,0,0,0,0,0,0],"split_type":[0,0,0,0,0,0,0,0,0,0,0,0,0,0,0,0,0,0,0,0,0,0,0,0,0,0,0,0,0],"sum_hessian":[3.0077286E1,1.7376486E1,1.2700799E1,1.0337334E1,7.039152E0,2.4975874E0,1.0203212E1,4.563545E0,5.773788E0,1.84373E0,5.195422E0,2.9966164E0,7.2065954E0,1.93303E0,2.6305153E0,4.5951676E0,1.1786205E0,3.3321733E0,1.8632491E0,1.2091507E0,1.7874657E0,5.2755375E0,1.931058E0,1.4790763E0,1.1514391E0,2.9335306E0,1.6616367E0,2.5602493E0,2.7152882E0],"tree_param":{"num_deleted":"0","num_feature":"5","num_nodes":"29","size_leaf_vector":"1"}},{"base_weights":[-1.6421817E-2,-2.8801648E-2,4.2151827E-2,4.094783E-1,-8.732346E-2,-2.6828859E-2,6.5197885E-1,-4.6591616E-1,3.622922E-2,8.4630907E-1,9.149985E-3,5.236482E-3,-6.399485E-1,-4.672677E-2,1.5544307E-1,1.6547645E-2,5.052001E-2,-4.512043E-2,2.8054111E-3,2.0619282E-2,-7.0566866E-3],"categories":[],"categories_nodes":[],"categories_segments":[],"categories_sizes":[],"default_left":[0,0,0,0,0,0,0,0,0,0,0,0,0,0,0,0,0,0,0,0,0],"id":44,"left_children":[1,-1,3,5,7,-1,9,11,13,15,-1,-1,17,-1,19,-1,-1,-1,-1,-1,-1],"loss_changes":[1.0722034E0,0E0,1.4564835E0,2.1762562E0,1.0885876E0,0E0,4.6378303E-1,6.3403606E-1,2.25175E0,4.8144102E-2,0E0,0E0,8.756139E-1,0E0,1.3588774E0,0E0,0E0,0E0,0E0,0E0,0E0],"parents":[2147483647,0,0,2,2,3,3,4,4,6,6,7,7,8,8,9,9,12,12,14,14],"right_children":[2,-1,4,6,8,-1,10,12,14,16,-1,-1,18,-1,20,-1,-1,-1,-1,-1,-1],"split_conditions":[-1.2696314E0,-2.8801648E-2,4.4444445E-1,2.5E-1,-3.6842105E-1,-2.6828859E-2,0E0,4.6153846E-1,4.5454547E-1,3.6363637E-1,9.149985E-3,5.236482E-3,5.714286E-1,-4.672677E-2,1.3214285E0,1.6547645E-2,5.052001E-2,-4.512043E-2,2.8054111E-3,2.0619282E-2,-7.0566866E-3],"split_indices":[4,0,3,3,4,0,4,3,3,3,0,0,3,0,1,0,0,0,0,0,0],"split_type":[0,0,0,0,0,0,0,0,0,0,0,0,0,0,0,0,0,0,0,0,0],"sum_hessian":[3.0969847E1,2.0973623E0,2.8872486E1,6.9610667E0,2.1911419E1,1.1728396E0,5.788227E0,4.7094946E0,1.7201923E1,3.5235863E0,2.2646408E0,1.1936793E0,3.5158153E0,1.1334043E0,1.606852E1,1.5795681E0,1.944018E0,2.3378358E0,1.1779792E0,8.400323E0,7.668197E0],"tree_param":{"num_deleted":"0","num_feature":"5","num_nodes":"21","size_leaf_vector":"1"}},{"base_weights":[4.693392E-2,-1.5588994E-1,1.7541033E-1,6.447626E-2,-4.747287E-2,-6.1494727E-2,3.888704E-1,-7.035084E-2,3.116239E-2,-5.4228574E-1,1.7651834E-1,4.9218178E-2,1.7162006E-1,-2.943939E-1,2.0205308E-1,-7.5576417E-3,-3.9201446E-2,-3.1808678E-2,4.993311E-1,-2.5564054E-1,5.2484536E-1,1.851011E-3,-2.6882395E-2,2.7541269E-2,-1.0608583E-2,3.8312517E-2,-1.2718322E-2,-4.62473E-2,9.6833715E-3,4.6998974E-2,-3.9733467E-3],"categories":[],"categories_nodes":[],"categories_segments":[],"categories_sizes":[],"default_left":[0,0,0,0,0,0,0,0,0,0,0,0,0,0,0,0,0,0,0,0,0,0,0,0,0,0,0,0,0,0,0],"id":45,"left_children":[1,3,5,7,-1,9,11,13,-1,15,17,-1,19,21,23,-1,-1,-1,25,27,29,-1,-1,-1,-1,-1,-1,-1,-1,-1,-1],"loss_changes":[8.8065404E-1,2.3745308E0,1.0615083E0,8.9438695E-1,0E0,1.3074064E0,1.2450444E0,6.694021E-1,0E0,2.3622465E-1,2.3736198E0,0E0,1.5255361E0,4.9479282E-1,8.541145E-1,0E0,0E0,0E0,1.4359893E0,1.6360903E0,1.4229841E0,0E0,0E0,0E0,0E0,0E0,0E0,0E0,0E0,0E0,0E0],"parents":[2147483647,0,0,1,1,2,2,3,3,5,5,6,6,7,7,9,9,10,10,12,12,13,13,14,14,18,18,19,19,20,20],"right_children":[2,4,6,8,-1,10,12,14,-1,16,18,-1,20,22,24,-1,-1,-1,26,28,30,-1,-1,-1,-1,-1,-1,-1,-1,-1,-1],"split_conditions":[-2E-1,1.527207E-1,1E0,6.1538464E-1,-4.747287E-2,4E-1,3.611111E-1,-1.9166666E0,3.116239E-2,2.4763414E-1,-3.352119E-1,4.9218178E-2,1.8863636E0,1E0,-7.9545456E-1,-7.5576417E-3,-3.9201446E-2,-3.1808678E-2,1.2418408E0,-1.641527E-1,3.2954545E0,1.851011E-3,-2.6882395E-2,2.7541269E-2,-1.0608583E-2,3.8312517E-2,-1.2718322E-2,-4.62473E-2,9.6833715E-3,4.6998974E-2,-3.9733467E-3],"split_indices":[1,4,0,3,0,3,1,1,0,4,4,0,1,0,1,0,0,0,4,4,1,0,0,0,0,0,0,0,0,0,0],"split_type":[0,0,0,0,0,0,0,0,0,0,0,0,0,0,0,0,0,0,0,0,0,0,0,0,0,0,0,0,0,0,0],"sum_hessian":[3.1746437E1,1.2228347E1,1.951809E1,1.0289736E1,1.9386113E0,9.588438E0,9.929652E0,8.99372E0,1.2960154E0,2.7516549E0,6.8367825E0,1.7103882E0,8.219264E0,4.890622E0,4.103098E0,1.671875E0,1.0797799E0,1.6676636E0,5.1691194E0,3.8448315E0,4.374432E0,2.4290493E0,2.4615731E0,2.0485063E0,2.054592E0,3.8049536E0,1.3641655E0,1.1191314E0,2.7257E0,2.2638328E0,2.1105995E0],"tree_param":{"num_deleted":"0","num_feature":"5","num_nodes":"31","size_leaf_vector":"1"}},{"base_weights":[-2.2702092E-2,-4.9072468E-1,1.380671E-1,-4.073762E-2,-4.437521E-2,2.9519498E-1,-4.7466737E-1,-2.598744E-2,3.3679533E-1,3.422901E-2,5.1859266E-1,-3.7641577E-2,9.240351E-3,5.4272776E-4,2.695475E-2,2.7550468E-1,-2.5354362E-1,6.1561733E-2,1.2263025E-1,-4.119624E-3,3.8007617E-2,-3.757189E-2,1.1987141E-2,-2.3084043E-2,1.5612942E-2],"categories":[],"categories_nodes":[],"categories_segments":[],"categories_sizes":[],"default_left":[0,0,0,0,0,0,0,0,0,0,0,0,0,0,0,0,0,0,0,0,0,0,0,0,0],"id":46,"left_children":[1,3,5,7,-1,9,11,-1,13,15,17,-1,-1,-1,-1,19,21,-1,23,-1,-1,-1,-1,-1,-1],"loss_changes":[2.3691547E0,1.3993152E0,2.4070945E0,1.04588E0,0E0,1.1107482E0,1.0910447E0,0E0,2.1172655E-1,7.640734E-1,2.7719781E0,0E0,0E0,0E0,0E0,1.0891085E0,1.4279767E0,0E0,1.0050266E0,0E0,0E0,0E0,0E0,0E0,0E0],"parents":[2147483647,0,0,1,1,2,2,3,3,5,5,6,6,8,8,9,9,10,10,15,15,16,16,18,18],"right_children":[2,4,6,8,-1,10,12,-1,14,16,18,-1,-1,-1,-1,20,22,-1,24,-1,-1,-1,-1,-1,-1],"split_conditions":[-1.05E0,1E0,9.06614E-1,4.1666666E-1,-4.437521E-2,1E0,3E0,-2.598744E-2,6E-1,1.5E0,4.6153846E-1,-3.7641577E-2,9.240351E-3,5.4272776E-4,2.695475E-2,5E-1,2.5833333E0,6.1561733E-2,-7.824209E-1,-4.119624E-3,3.8007617E-2,-3.757189E-2,1.1987141E-2,-2.3084043E-2,1.5612942E-2],"split_indices":[1,0,4,3,0,0,2,0,3,1,3,0,0,0,0,1,1,0,4,0,0,0,0,0,0],"split_type":[0,0,0,0,0,0,0,0,0,0,0,0,0,0,0,0,0,0,0,0,0,0,0,0,0],"sum_hessian":[2.958601E1,7.039792E0,2.2546219E1,3.8154109E0,3.224381E0,1.8357027E1,4.189191E0,1.5156574E0,2.2997534E0,8.998495E0,9.358532E0,2.84684E0,1.3423507E0,1.2842516E0,1.015502E0,4.917866E0,4.0806293E0,2.5891604E0,6.769372E0,3.3062782E0,1.611588E0,1.7703816E0,2.3102477E0,1.3070967E0,5.462275E0],"tree_param":{"num_deleted":"0","num_feature":"5","num_nodes":"25","size_leaf_vector":"1"}},{"base_weights":[1.2584922E-1,2.3127022E-1,-3.978947E-1,4.387036E-1,8.611831E-2,-3.4865662E-2,9.716453E-3,7.1372485E-1,3.7767053E-2,-4.0360296E-1,2.8818992E-1,1.0845395E-2,4.4818766E-2,3.2538566E-1,-1.479909E-2,1.711411E-2,-3.3326823E-2,6.4801496E-1,-3.5751693E-2,-4.9861665E-3,2.978794E-2,6.156574E-4,5.3628445E-2,-2.4414562E-2,2.4780989E-2],"categories":[],"categories_nodes":[],"categories_segments":[],"categories_sizes":[],"default_left":[0,0,0,0,0,0,0,0,0,0,0,0,0,0,0,0,0,0,0,0,0,0,0,0,0],"id":47,"left_children":[1,3,5,7,9,-1,-1,11,13,15,17,-1,-1,19,-1,-1,-1,21,23,-1,-1,-1,-1,-1,-1],"loss_changes":[1.8569288E0,7.824439E-1,1.150425E0,1.1827197E0,1.8254324E0,0E0,0E0,3.909726E-1,6.2612385E-1,1.299227E0,1.5162833E0,0E0,0E0,4.549006E-1,0E0,0E0,0E0,1.6387784E0,2.090865E0,0E0,0E0,0E0,0E0,0E0,0E0],"parents":[2147483647,0,0,1,1,2,2,3,3,4,4,7,7,8,8,9,9,10,10,13,13,17,17,18,18],"right_children":[2,4,6,8,10,-1,-1,12,14,16,18,-1,-1,20,-1,-1,-1,22,24,-1,-1,-1,-1,-1,-1],"split_conditions":[9.06614E-1,-3.4503278E-1,3E0,4.6153846E-1,-2.5E-1,-3.4865662E-2,9.716453E-3,3.6363637E-1,3E0,-2.4615386E0,1.3214285E0,1.0845395E-2,4.4818766E-2,5.4545456E-1,-1.479909E-2,1.711411E-2,-3.3326823E-2,4.5454547E-1,2.6E0,-4.9861665E-3,2.978794E-2,6.156574E-4,5.3628445E-2,-2.4414562E-2,2.4780989E-2],"split_indices":[4,4,2,3,1,0,0,3,2,1,1,0,0,3,0,0,0,3,1,0,0,0,0,0,0],"split_type":[0,0,0,0,0,0,0,0,0,0,0,0,0,0,0,0,0,0,0,0,0,0,0,0,0],"sum_hessian":[3.096508E1,2.6241524E1,4.7235565E0,9.970511E0,1.6271011E1,3.0194988E0,1.7040575E0,5.45116E0,4.519351E0,4.4614196E0,1.1809592E1,2.0533955E0,3.3977642E0,2.440893E0,2.078458E0,1.084147E0,3.3772726E0,5.120965E0,6.6886272E0,1.1942819E0,1.2466111E0,2.462607E0,2.6583583E0,3.656048E0,3.0325792E0],"tree_param":{"num_deleted":"0","num_feature":"5","num_nodes":"25","size_leaf_vector":"1"}},{"base_weights":[-3.619234E-2,-2.7033854E-1,1.12748176E-1,-6.789965E-2,-4.5935355E-2,4.380161E-1,-1.1296283E-1,-1.8929349E-1,2.59974E-2,1.7556438E-1,4.6685502E-2,-3.7396085E-2,1.0234043E-1,-4.81784E-1,-2.0417517E-2,3.3545393E-2,-1.1699933E-1,3.878991E-2,-8.904772E-2,5.6178874E-4,-3.5674404E-2,1.1064154E-2,-2.5942361E-2,1.7639907E-2,-1.7312376E-2,-1.3705603E-2,1.850844E-2],"categories":[],"categories_nodes":[],"categories_segments":[],"categories_sizes":[],"default_left":[0,0,0,0,0,0,0,0,0,0,0,0,0,0,0,0,0,0,0,0,0,0,0,0,0,0,0],"id":48,"left_children":[1,3,5,7,-1,9,11,13,-1,15,-1,-1,17,19,21,-1,23,-1,25,-1,-1,-1,-1,-1,-1,-1,-1],"loss_changes":[1.1153238E0,1.5636955E0,1.4971782E0,8.49195E-1,0E0,9.136549E-1,1.7766496E0,4.5709658E-1,0E0,1.041803E0,0E0,0E0,1.3794723E0,3.9823252E-1,9.625902E-1,0E0,6.6393894E-1,0E0,8.505032E-1,0E0,0E0,0E0,0E0,0E0,0E0,0E0,0E0],"parents":[2147483647,0,0,1,1,2,2,3,3,5,5,6,6,7,7,9,9,12,12,13,13,14,14,16,16,18,18],"right_children":[2,4,6,8,-1,10,12,14,-1,16,-1,-1,18,20,22,-1,24,-1,26,-1,-1,-1,-1,-1,-1,-1,-1],"split_conditions":[-2E-1,1.527207E-1,2.3555508E-2,6.1538464E-1,-4.5935355E-2,-1.641527E-1,2.3428297E-1,-2.8888888E0,2.59974E-2,4.6153846E-1,4.6685502E-2,-3.7396085E-2,3.403143E-1,4.5454547E-1,-7.9545456E-1,3.3545393E-2,-1.0659816E0,3.878991E-2,1.18531E0,5.6178874E-4,-3.5674404E-2,1.1064154E-2,-2.5942361E-2,1.7639907E-2,-1.7312376E-2,-1.3705603E-2,1.850844E-2],"split_indices":[1,4,4,3,0,4,4,1,0,3,0,0,4,3,1,0,4,0,4,0,0,0,0,0,0,0,0],"split_type":[0,0,0,0,0,0,0,0,0,0,0,0,0,0,0,0,0,0,0,0,0,0,0,0,0,0,0],"sum_hessian":[3.0107645E1,1.1388675E1,1.871897E1,9.520752E0,1.8679228E0,7.282987E0,1.1435983E1,8.453124E0,1.0676286E0,5.6471877E0,1.6357994E0,2.2694016E0,9.166581E0,2.4159133E0,6.0372105E0,1.6167107E0,4.030477E0,1.3528017E0,7.81378E0,1.0766106E0,1.3393029E0,4.4401255E0,1.5970845E0,1.145032E0,2.8854449E0,5.85664E0,1.9571396E0],"tree_param":{"num_deleted":"0","num_feature":"5","num_nodes":"27","size_leaf_vector":"1"}},{"base_weights":[-4.6833516E-3,3.4277472E-1,-1.2744053E-1,7.5682944E-1,-8.090964E-2,-2.1146849E-1,2.963481E-2,6.3596293E-3,4.8345856E-2,-2.79529E-2,2.2659548E-2,-5.5812675E-1,-4.6356365E-2,-9.581193E-1,1.1925745E-2,2.376539E-1,-3.0226466E-1,-4.02078E-3,-6.0876846E-2,2.9195616E-2,-2.1079364E-3,-4.4758238E-2,7.177602E-3],"categories":[],"categories_nodes":[],"categories_segments":[],"categories_sizes":[],"default_left":[0,0,0,0,0,0,0,0,0,0,0,0,0,0,0,0,0,0,0,0,0,0,0],"id":49,"left_children":[1,3,5,7,9,11,-1,-1,-1,-1,-1,13,15,17,-1,19,21,-1,-1,-1,-1,-1,-1],"loss_changes":[1.3295223E0,1.4894432E0,1.5174223E0,4.3443847E-1,1.5116794E0,1.195487E0,0E0,0E0,0E0,0E0,0E0,2.3933852E0,1.2016269E0,9.7730064E-1,0E0,7.9270303E-1,2.4061933E0,0E0,0E0,0E0,0E0,0E0,0E0],"parents":[2147483647,0,0,1,1,2,2,3,3,4,4,5,5,11,11,12,12,13,13,15,15,16,16],"right_children":[2,4,6,8,10,12,-1,-1,-1,-1,-1,14,16,18,-1,20,22,-1,-1,-1,-1,-1,-1],"split_conditions":[-4.83843E-1,1E0,4E0,-1.1858541E0,-1.7045455E0,4.5454547E-1,2.963481E-2,6.3596293E-3,4.8345856E-2,-2.79529E-2,2.2659548E-2,1E0,1.3214285E0,2.7272728E-1,1.1925745E-2,6.375767E-2,2.6E0,-4.02078E-3,-6.0876846E-2,2.9195616E-2,-2.1079364E-3,-4.4758238E-2,7.177602E-3],"split_indices":[4,0,2,4,1,3,0,0,0,0,0,0,1,3,0,4,1,0,0,0,0,0,0],"split_type":[0,0,0,0,0,0,0,0,0,0,0,0,0,0,0,0,0,0,0,0,0,0,0],"sum_hessian":[2.9146523E1,7.141256E0,2.2005266E1,3.2139997E0,3.927256E0,2.0338457E1,1.6668094E0,1.205755E0,2.0082448E0,2.0475125E0,1.8797436E0,5.793831E0,1.4544626E1,3.7222147E0,2.0716162E0,6.9276094E0,7.617017E0,1.1480231E0,2.5741916E0,2.6104593E0,4.31715E0,2.8366206E0,4.7803965E0],"tree_param":{"num_deleted":"0","num_feature":"5","num_nodes":"23","size_leaf_vector":"1"}},{"base_weights":[2.2911428E-2,-2.5688503E-2,6.0653247E-2,2.3791661E-2,1.425171E-2,-3.8579822E-1,6.975862E-2,5.632266E-3,-3.3586647E-2,5.882139E-1,-1.3831357E-2,8.394885E-3,3.874617E-2,-8.388844E-3,1.0980994E-2],"categories":[],"categories_nodes":[],"categories_segments":[],"categories_sizes":[],"default_left":[0,0,0,0,0,0,0,0,0,0,0,0,0,0,0],"id":50,"left_children":[1,-1,3,-1,5,7,9,-1,-1,11,13,-1,-1,-1,-1],"loss_changes":[6.6549736E-1,0E0,5.7412976E-1,0E0,6.520725E-1,5.863884E-1,1.1162748E0,0E0,0E0,1.503048E-1,8.633204E-1,0E0,0E0,0E0,0E0],"parents":[2147483647,0,0,2,2,4,4,5,5,6,6,9,9,10,10],"right_children":[2,-1,4,-1,6,8,10,-1,-1,12,14,-1,-1,-1,-1],"split_conditions":[2.5E-1,-2.5688503E-2,3.3333334E-1,2.3791661E-2,4E-1,-5.205222E-1,4.4444445E-1,5.632266E-3,-3.3586647E-2,4.1666666E-1,2.3428297E-1,8.394885E-3,3.874617E-2,-8.388844E-3,1.0980994E-2],"split_indices":[3,0,3,0,3,4,3,0,0,3,4,0,0,0,0],"split_type":[0,0,0,0,0,0,0,0,0,0,0,0,0,0,0],"sum_hessian":[3.0316961E1,1.1632347E0,2.9153727E1,2.0003965E0,2.715333E1,2.583445E0,2.4569883E1,1.1626866E0,1.4207585E0,2.573182E0,2.1996702E1,1.3756332E0,1.1975489E0,1.3425077E1,8.571625E0],"tree_param":{"num_deleted":"0","num_feature":"5","num_nodes":"15","size_leaf_vector":"1"}},{"base_weights":[-2.2726433E-2,7.3309965E-2,-4.006423E-1,-3.353556E-1,1.8022783E-1,-6.8984056E-1,1.2260289E-2,-4.7592137E-2,1.678558E-1,4.223537E-2,4.740975E-2,-4.9297452E-2,8.3815254E-4,-2.0181539E-2,1.6268326E-2,2.6385216E-2,-2.1506423E-2,-6.876357E-1,2.7972156E-1,1.2303773E-2,-5.0495353E-2,1.4300722E-3,2.975373E-2],"categories":[],"categories_nodes":[],"categories_segments":[],"categories_sizes":[],"default_left":[0,0,0,0,0,0,0,0,0,0,0,0,0,0,0,0,0,0,0,0,0,0,0],"id":51,"left_children":[1,3,5,7,9,11,13,-1,15,-1,17,-1,-1,-1,-1,-1,-1,19,21,-1,-1,-1,-1],"loss_changes":[1.1731246E0,1.1953198E0,7.894386E-1,1.9391401E0,1.8342917E0,8.249513E-1,6.100761E-1,0E0,1.0894592E0,0E0,3.3956883E0,0E0,0E0,0E0,0E0,0E0,0E0,1.6911387E0,1.1680895E0,0E0,0E0,0E0,0E0],"parents":[2147483647,0,0,1,1,2,2,3,3,4,4,5,5,6,6,8,8,10,10,17,17,18,18],"right_children":[2,4,6,8,10,12,14,-1,16,-1,18,-1,-1,-1,-1,-1,-1,20,22,-1,-1,-1,-1],"split_conditions":[5.8523047E-1,-1.1471385E0,6.1538464E-1,-2.0714285E0,-2.3888888E0,3E0,1.9642857E0,-4.7592137E-2,-1.2197248E0,4.223537E-2,-5.277778E-1,-4.9297452E-2,8.3815254E-4,-2.0181539E-2,1.6268326E-2,2.6385216E-2,-2.1506423E-2,-5.205222E-1,8.000711E-2,1.2303773E-2,-5.0495353E-2,1.4300722E-3,2.975373E-2],"split_indices":[4,4,3,1,1,2,1,0,4,0,1,0,0,0,0,0,0,4,4,0,0,0,0],"split_type":[0,0,0,0,0,0,0,0,0,0,0,0,0,0,0,0,0,0,0,0,0,0,0],"sum_hessian":[3.0513845E1,2.4973553E1,5.540292E0,4.7357635E0,2.023779E1,2.8637807E0,2.676511E0,1.7276605E0,3.008103E0,2.4784408E0,1.775935E1,1.7394948E0,1.1242859E0,1.0253917E0,1.6511194E0,1.9513618E0,1.0567412E0,3.7942364E0,1.3965113E1,1.0342255E0,2.760011E0,8.381501E0,5.5836115E0],"tree_param":{"num_deleted":"0","num_feature":"5","num_nodes":"23","size_leaf_vector":"1"}},{"base_weights":[-6.0509928E-2,2.4446049E-3,-4.798888E-1,-1.3952465E-1,2.571107E-1,-1.4761569E-3,-3.3702977E-2,4.4342004E-2,-6.51845E-1,-3.534844E-2,4.4099107E-1,1.20786294E-1,-2.2848787E-2,-4.6077024E-2,-9.579114E-3,8.375002E-1,-2.5247829E-2,-1.214363E-3,2.8590634E-2,3.959646E-3,5.1207077E-2,-2.6293565E-2,3.563949E-2],"categories":[],"categories_nodes":[],"categories_segments":[],"categories_sizes":[],"default_left":[0,0,0,0,0,0,0,0,0,0,0,0,0,0,0,0,0,0,0,0,0,0,0],"id":52,"left_children":[1,3,5,7,9,-1,-1,11,13,-1,15,17,-1,-1,-1,19,21,-1,-1,-1,-1,-1,-1],"loss_changes":[8.1337357E-1,1.0389068E0,3.3166516E-1,1.767898E0,2.134486E0,0E0,0E0,6.117062E-1,4.3657112E-1,0E0,1.7313136E0,8.900994E-1,0E0,0E0,0E0,6.305828E-1,2.3043568E0,0E0,0E0,0E0,0E0,0E0,0E0],"parents":[2147483647,0,0,1,1,2,2,3,3,4,4,7,7,8,8,10,10,11,11,15,15,16,16],"right_children":[2,4,6,8,10,-1,-1,12,14,-1,16,18,-1,-1,-1,20,22,-1,-1,-1,-1,-1,-1],"split_conditions":[7.1428573E-1,2.1655124E-1,1.75E0,7.5E-1,-3.5E-1,-1.4761569E-3,-3.3702977E-2,1.21760674E-1,2.4444444E0,-3.534844E-2,5.8523047E-1,-6.375767E-2,-2.2848787E-2,-4.6077024E-2,-9.579114E-3,3.846154E-1,1.4852226E0,-1.214363E-3,2.8590634E-2,3.959646E-3,5.1207077E-2,-2.6293565E-2,3.563949E-2],"split_indices":[3,4,1,1,1,0,0,4,1,0,4,4,0,0,0,3,4,0,0,0,0,0,0],"split_type":[0,0,0,0,0,0,0,0,0,0,0,0,0,0,0,0,0,0,0,0,0,0,0],"sum_hessian":[2.9763071E1,2.6742783E1,3.0202885E0,1.7460928E1,9.281855E0,1.256943E0,1.7633455E0,1.3521606E1,3.9393213E0,1.0311009E0,8.250753E0,1.2391179E1,1.1304277E0,1.8519483E0,2.087373E0,4.028477E0,4.222276E0,1.0091408E1,2.2997708E0,1.0770054E0,2.9514718E0,2.687067E0,1.5352093E0],"tree_param":{"num_deleted":"0","num_feature":"5","num_nodes":"23","size_leaf_vector":"1"}},{"base_weights":[-1.3710302E-2,-9.702269E-2,1.3397044E-1,1.6253971E-3,-3.7086993E-2,-2.632981E-2,2.5420412E-1,1.2711309E-1,-2.4699645E-1,5.4476815E-1,-3.723513E-2,-1.8463175E-1,4.0064082E-1,-3.276158E-2,-3.1516057E-2,7.441263E-1,-7.985461E-3,-3.1037752E-2,2.8719118E-1,-4.103475E-2,4.98229E-3,3.6298648E-2,8.581481E-3,-1.5037625E-2,1.177074E-2,3.8550347E-3,4.6786487E-2,2.6111556E-2,-7.672922E-3],"categories":[],"categories_nodes":[],"categories_segments":[],"categories_sizes":[],"default_left":[0,0,0,0,0,0,0,0,0,0,0,0,0,0,0,0,0,0,0,0,0,0,0,0,0,0,0,0,0],"id":53,"left_children":[1,3,5,7,-1,-1,9,11,13,15,17,19,21,23,-1,25,-1,-1,27,-1,-1,-1,-1,-1,-1,-1,-1,-1,-1],"loss_changes":[4.0558633E-1,1.3355296E0,1.081245E0,6.3021666E-1,0E0,0E0,9.3196917E-1,1.217939E0,5.359597E-1,8.849727E-1,1.3729928E0,1.3392586E0,4.3130505E-1,4.5908928E-1,0E0,4.9384403E-1,0E0,0E0,5.710231E-1,0E0,0E0,0E0,0E0,0E0,0E0,0E0,0E0,0E0,0E0],"parents":[2147483647,0,0,1,1,2,2,3,3,6,6,7,7,8,8,9,9,10,10,11,11,12,12,13,13,15,15,18,18],"right_children":[2,4,6,8,-1,-1,10,12,14,16,18,20,22,24,-1,26,-1,-1,28,-1,-1,-1,-1,-1,-1,-1,-1,-1,-1],"split_conditions":[2.3428297E-1,1.2717624E-1,0E0,8.5E-1,-3.7086993E-2,-2.632981E-2,5.8523047E-1,-1.7045455E0,2.3555508E-2,7E-1,9.798502E-1,-1.2696314E0,-6.5E-1,-3.9911407E-1,-3.1516057E-2,3.846154E-1,-7.985461E-3,-3.1037752E-2,3.2954545E0,-4.103475E-2,4.98229E-3,3.6298648E-2,8.581481E-3,-1.5037625E-2,1.177074E-2,3.8550347E-3,4.6786487E-2,2.6111556E-2,-7.672922E-3],"split_indices":[4,4,1,1,0,0,4,1,4,3,4,4,1,4,0,3,0,0,1,0,0,0,0,0,0,0,0,0,0],"split_type":[0,0,0,0,0,0,0,0,0,0,0,0,0,0,0,0,0,0,0,0,0,0,0,0,0,0,0,0,0],"sum_hessian":[3.0908304E1,1.9979898E1,1.0928405E1,1.819358E1,1.7863183E0,1.162397E0,9.766008E0,1.2415696E1,5.7778845E0,4.4550767E0,5.3109317E0,5.954376E0,6.46132E0,4.4027276E0,1.3751571E0,3.4285572E0,1.0265194E0,1.5713235E0,3.739608E0,1.2563586E0,4.6980176E0,1.7728236E0,4.688496E0,2.141368E0,2.2613597E0,1.0780295E0,2.3505275E0,2.3180401E0,1.4215678E0],"tree_param":{"num_deleted":"0","num_feature":"5","num_nodes":"29","size_leaf_vector":"1"}},{"base_weights":[4.0043514E-2,-2.9170487E-2,8.419595E-2,3.251153E-2,2.9758565E-2,-4.2653385E-1,1.0645381E-1,-6.565189E-1,6.2980945E-3,3.845239E-2,4.826823E-3,-4.7372933E-3,-4.3855067E-2,3.539904E-2,-3.3782122E-3],"categories":[],"categories_nodes":[],"categories_segments":[],"categories_sizes":[],