{"learner":{"attributes":{"best_iteration":"39","best_score":"0.6832557929269338"},"feature_names":["FG T","Minutes Diff","Line T"],"feature_types":["float","float","float"],"gradient_booster":{"model":{"gbtree_model_param":{"num_parallel_tree":"1","num_trees":"90"},"iteration_indptr":[0,1,2,3,4,5,6,7,8,9,10,11,12,13,14,15,16,17,18,19,20,21,22,23,24,25,26,27,28,29,30,31,32,33,34,35,36,37,38,39,40,41,42,43,44,45,46,47,48,49,50,51,52,53,54,55,56,57,58,59,60,61,62,63,64,65,66,67,68,69,70,71,72,73,74,75,76,77,78,79,80,81,82,83,84,85,86,87,88,89,90],"tree_info":[0,0,0,0,0,0,0,0,0,0,0,0,0,0,0,0,0,0,0,0,0,0,0,0,0,0,0,0,0,0,0,0,0,0,0,0,0,0,0,0,0,0,0,0,0,0,0,0,0,0,0,0,0,0,0,0,0,0,0,0,0,0,0,0,0,0,0,0,0,0,0,0,0,0,0,0,0,0,0,0,0,0,0,0,0,0,0,0,0,0],"trees":[{"base_weights":[1.7089266E-4,-1.0298922E0,6.800406E-2,-1.4685552E-2,-6.398057E-2,1.6138268E-1,-5.9474397E-1,4.2472303E-2,4.4171643E-3,-4.4545703E-2,1.6214937E-2],"categories":[],"categories_nodes":[],"categories_segments":[],"categories_sizes":[],"default_left":[0,0,0,0,0,0,0,0,0,0,0],"id":0,"left_children":[1,3,5,-1,-1,7,9,-1,-1,-1,-1],"loss_changes":[4.2282352E0,3.1150436E-1,3.60943E0,0E0,0E0,2.4652762E0,2.2554085E0,0E0,0E0,0E0,0E0],"parents":[2147483647,0,0,1,1,2,2,5,5,6,6],"right_children":[2,4,6,-1,-1,8,10,-1,-1,-1,-1],"split_conditions":[-1.2657317E0,-1.7464621E0,1.4920948E0,-1.4685552E-2,-6.398057E-2,-1.0366421E0,1.1292558E0,4.2472303E-2,4.4171643E-3,-4.4545703E-2,1.6214937E-2],"split_indices":[1,1,1,0,0,1,0,0,0,0,0],"split_type":[0,0,0,0,0,0,0,0,0,0,0],"sum_hessian":[5.8511288E1,2.7388263E0,5.577246E1,1.244921E0,1.4939052E0,4.9547855E1,6.224605E0,3.7347631E0,4.5813095E1,4.7307E0,1.4939052E0],"tree_param":{"num_deleted":"0","num_feature":"3","num_nodes":"11","size_leaf_vector":"1"}},{"base_weights":[-8.3578477E-4,-9.978778E-1,6.495799E-2,-1.4271189E-2,-6.1947383E-2,1.5432243E-1,-5.681454E-1,-7.971388E-3,1.5333799E-2,-4.262216E-2,1.5739897E-2],"categories":[],"categories_nodes":[],"categories_segments":[],"categories_sizes":[],"default_left":[0,0,0,0,0,0,0,0,0,0,0],"id":1,"left_children":[1,3,5,-1,-1,7,9,-1,-1,-1,-1],"loss_changes":[3.968071E0,2.8949738E-1,3.2988167E0,0E0,0E0,2.4639392E0,2.084235E0,0E0,0E0,0E0,0E0],"parents":[2147483647,0,0,1,1,2,2,5,5,6,6],"right_children":[2,4,6,-1,-1,8,10,-1,-1,-1,-1],"split_conditions":[-1.2657317E0,-1.7464621E0,1.4920948E0,-1.4271189E-2,-6.1947383E-2,-5.2698606E-1,1.1292558E0,-7.971388E-3,1.5333799E-2,-4.262216E-2,1.5739897E-2],"split_indices":[1,1,1,0,0,0,0,0,0,0,0],"split_type":[0,0,0,0,0,0,0,0,0,0,0],"sum_hessian":[5.8501537E1,2.7445004E0,5.575704E1,1.24602E0,1.4984804E0,4.952297E1,6.2340703E0,1.6172207E1,3.335076E1,4.741806E0,1.4922643E0],"tree_param":{"num_deleted":"0","num_feature":"3","num_nodes":"11","size_leaf_vector":"1"}},{"base_weights":[-2.3949181E-3,-9.676849E-1,6.1399102E-2,-1.3869369E-2,-6.0051978E-2,1.4683756E-1,-5.430962E-1,4.0909983E-2,3.7953102E-3,4.3950374E-3,-4.741642E-2],"categories":[],"categories_nodes":[],"categories_segments":[],"categories_sizes":[],"default_left":[0,0,0,0,0,0,0,0,0,0,0],"id":2,"left_children":[1,3,5,-1,-1,7,9,-1,-1,-1,-1],"loss_changes":[3.7222435E0,2.7042246E-1,3.0099022E0,0E0,0E0,2.3425243E0,1.9342561E0,0E0,0E0,0E0,0E0],"parents":[2147483647,0,0,1,1,2,2,5,5,6,6],"right_children":[2,4,6,-1,-1,8,10,-1,-1,-1,-1],"split_conditions":[-1.2657317E0,-1.7464621E0,1.4920948E0,-1.3869369E-2,-6.0051978E-2,-1.0366421E0,1.8430158E-1,4.0909983E-2,3.7953102E-3,4.3950374E-3,-4.741642E-2],"split_indices":[1,1,1,0,0,1,2,0,0,0,0],"split_type":[0,0,0,0,0,0,0,0,0,0,0],"sum_hessian":[5.8481075E1,2.7469592E0,5.5734116E1,1.2469604E0,1.4999988E0,4.9495575E1,6.23854E0,3.7229488E0,4.5772625E1,2.7459068E0,3.4926333E0],"tree_param":{"num_deleted":"0","num_feature":"3","num_nodes":"11","size_leaf_vector":"1"}},{"base_weights":[-3.484131E-3,-9.3915457E-1,5.839E-2,-1.3479647E-2,-5.8280606E-2,1.4046167E-1,-5.2159435E-1,-8.044405E-3,1.4360017E-2,-3.9866034E-2,1.6163914E-2],"categories":[],"categories_nodes":[],"categories_segments":[],"categories_sizes":[],"default_left":[0,0,0,0,0,0,0,0,0,0,0],"id":3,"left_children":[1,3,5,-1,-1,7,9,-1,-1,-1,-1],"loss_changes":[3.4970655E0,2.5382757E-1,2.772731E0,0E0,0E0,2.2779212E0,1.9448881E0,0E0,0E0,0E0,0E0],"parents":[2147483647,0,0,1,1,2,2,5,5,6,6],"right_children":[2,4,6,-1,-1,8,10,-1,-1,-1,-1],"split_conditions":[-1.2657317E0,-1.7464621E0,1.4920948E0,-1.3479647E-2,-5.8280606E-2,-5.2698606E-1,1.1292558E0,-8.044405E-3,1.4360017E-2,-3.9866034E-2,1.6163914E-2],"split_indices":[1,1,1,0,0,0,0,0,0,0,0],"split_type":[0,0,0,0,0,0,0,0,0,0,0],"sum_hessian":[5.8457638E1,2.746479E0,5.571116E1,1.2477537E0,1.4987252E0,4.946881E1,6.242349E0,1.6168324E1,3.3300488E1,4.748837E0,1.4935122E0],"tree_param":{"num_deleted":"0","num_feature":"3","num_nodes":"11","size_leaf_vector":"1"}},{"base_weights":[-4.8081046E-3,-9.1214424E-1,5.5200394E-2,-1.3101581E-2,-5.6621134E-2,7.8890234E-1,-1.1058106E-2,5.7436496E-2,9.694657E-3,-1.8886385E-2,6.4857565E-3],"categories":[],"categories_nodes":[],"categories_segments":[],"categories_sizes":[],"default_left":[0,0,0,0,0,0,0,0,0,0,0],"id":4,"left_children":[1,3,5,-1,-1,7,9,-1,-1,-1,-1],"loss_changes":[3.2858052E0,2.3933506E-1,2.764148E0,0E0,0E0,7.8534913E-1,2.7832258E0,0E0,0E0,0E0,0E0],"parents":[2147483647,0,0,1,1,2,2,5,5,6,6],"right_children":[2,4,6,-1,-1,8,10,-1,-1,-1,-1],"split_conditions":[-1.2657317E0,-1.7464621E0,-1.0366421E0,-1.3101581E-2,-5.6621134E-2,-4.1804954E-1,-5.2698606E-1,5.7436496E-2,9.694657E-3,-1.8886385E-2,6.4857565E-3],"split_indices":[1,1,1,0,0,2,0,0,0,0,0],"split_type":[0,0,0,0,0,0,0,0,0,0,0],"sum_hessian":[5.8422974E1,2.7433233E0,5.567965E1,1.2484102E0,1.4949131E0,3.708441E0,5.1971207E1,1.7310141E0,1.9774268E0,1.3950735E1,3.8020473E1],"tree_param":{"num_deleted":"0","num_feature":"3","num_nodes":"11","size_leaf_vector":"1"}},{"base_weights":[-4.815625E-3,-8.865265E-1,5.3431697E-2,-1.2734774E-2,-5.5062886E-2,7.6602125E-1,-1.0736328E-2,5.586089E-2,9.379416E-3,-1.7987607E-2,6.1726896E-3],"categories":[],"categories_nodes":[],"categories_segments":[],"categories_sizes":[],"default_left":[0,0,0,0,0,0,0,0,0,0,0],"id":5,"left_children":[1,3,5,-1,-1,7,9,-1,-1,-1,-1],"loss_changes":[3.0979927E0,2.2662878E-1,2.5991325E0,0E0,0E0,7.441213E-1,2.5251207E0,0E0,0E0,0E0,0E0],"parents":[2147483647,0,0,1,1,2,2,5,5,6,6],"right_children":[2,4,6,-1,-1,8,10,-1,-1,-1,-1],"split_conditions":[-1.2657317E0,-1.7464621E0,-1.0366421E0,-1.2734774E-2,-5.5062886E-2,-4.1804954E-1,-5.2698606E-1,5.586089E-2,9.379416E-3,-1.7987607E-2,6.1726896E-3],"split_indices":[1,1,1,0,0,2,0,0,0,0,0],"split_type":[0,0,0,0,0,0,0,0,0,0,0],"sum_hessian":[5.840001E1,2.737744E0,5.5662266E1,1.2489401E0,1.4888039E0,3.6946976E0,5.1967567E1,1.719341E0,1.9753566E0,1.3965002E1,3.8002563E1],"tree_param":{"num_deleted":"0","num_feature":"3","num_nodes":"11","size_leaf_vector":"1"}},{"base_weights":[-4.8136576E-3,-8.6218697E-1,5.1733144E-2,-1.2378827E-2,-5.3596396E-2,1.311328E-1,-5.0818276E-1,3.7211925E-2,3.3464998E-3,5.026312E-3,-4.5117702E-2],"categories":[],"categories_nodes":[],"categories_segments":[],"categories_sizes":[],"default_left":[0,0,0,0,0,0,0,0,0,0,0],"id":6,"left_children":[1,3,5,-1,-1,7,9,-1,-1,-1,-1],"loss_changes":[2.9229507E0,2.1544361E-1,2.584681E0,0E0,0E0,1.9341E0,1.8277181E0,0E0,0E0,0E0,0E0],"parents":[2147483647,0,0,1,1,2,2,5,5,6,6],"right_children":[2,4,6,-1,-1,8,10,-1,-1,-1,-1],"split_conditions":[-1.2657317E0,-1.7464621E0,1.4920948E0,-1.2378827E-2,-5.3596396E-2,-1.0366421E0,1.8430158E-1,3.7211925E-2,3.3464998E-3,5.026312E-3,-4.5117702E-2],"split_indices":[1,1,1,0,0,1,2,0,0,0,0],"split_type":[0,0,0,0,0,0,0,0,0,0,0],"sum_hessian":[5.8369743E1,2.7299783E0,5.5639767E1,1.2493528E0,1.4806256E0,4.9400288E1,6.2394776E0,3.67868E0,4.5721607E1,2.745161E0,3.4943168E0],"tree_param":{"num_deleted":"0","num_feature":"3","num_nodes":"11","size_leaf_vector":"1"}},{"base_weights":[-5.6782593E-3,-8.3902276E-1,4.9189426E-2,-1.2033381E-2,-5.2213263E-2,1.2546636E-1,-4.8836926E-1,3.4818014E-3,4.026936E-2,-3.777281E-2,1.6157523E-2],"categories":[],"categories_nodes":[],"categories_segments":[],"categories_sizes":[],"default_left":[0,0,0,0,0,0,0,0,0,0,0],"id":7,"left_children":[1,3,5,-1,-1,7,9,-1,-1,-1,-1],"loss_changes":[2.7539594E0,2.0555544E-1,2.3823745E0,0E0,0E0,1.8559338E0,1.8130695E0,0E0,0E0,0E0,0E0],"parents":[2147483647,0,0,1,1,2,2,5,5,6,6],"right_children":[2,4,6,-1,-1,8,10,-1,-1,-1,-1],"split_conditions":[-1.2657317E0,-1.7464621E0,1.4920948E0,-1.2033381E-2,-5.2213263E-2,1.2364521E0,1.1292558E0,3.4818014E-3,4.026936E-2,-3.777281E-2,1.6157523E-2],"split_indices":[1,1,1,0,0,1,0,0,0,0,0],"split_type":[0,0,0,0,0,0,0,0,0,0,0],"sum_hessian":[5.832786E1,2.7202506E0,5.5607613E1,1.2496569E0,1.4705938E0,4.9368996E1,6.2386184E0,4.6641537E1,2.7274585E0,4.745776E0,1.4928424E0],"tree_param":{"num_deleted":"0","num_feature":"3","num_nodes":"11","size_leaf_vector":"1"}},{"base_weights":[-6.1106165E-3,-8.1694156E-1,4.7149602E-2,-1.1698066E-2,-5.090607E-2,7.156568E-1,-1.2570122E-2,5.3332802E-2,7.753695E-3,-1.7425545E-2,5.8446256E-3],"categories":[],"categories_nodes":[],"categories_segments":[],"categories_sizes":[],"default_left":[0,0,0,0,0,0,0,0,0,0,0],"id":8,"left_children":[1,3,5,-1,-1,7,9,-1,-1,-1,-1],"loss_changes":[2.5987709E0,1.9677758E-1,2.267718E0,0E0,0E0,7.5091267E-1,2.3423188E0,0E0,0E0,0E0,0E0],"parents":[2147483647,0,0,1,1,2,2,5,5,6,6],"right_children":[2,4,6,-1,-1,8,10,-1,-1,-1,-1],"split_conditions":[-1.2657317E0,-1.7464621E0,-1.0366421E0,-1.1698066E-2,-5.090607E-2,-4.1804954E-1,-5.2698606E-1,5.3332802E-2,7.753695E-3,-1.7425545E-2,5.8446256E-3],"split_indices":[1,1,1,0,0,2,0,0,0,0,0],"split_type":[0,0,0,0,0,0,0,0,0,0,0],"sum_hessian":[5.8285637E1,2.7087703E0,5.5576866E1,1.2498608E0,1.4589095E0,3.6569617E0,5.1919907E1,1.6937118E0,1.9632499E0,1.397205E1,3.7947857E1],"tree_param":{"num_deleted":"0","num_feature":"3","num_nodes":"11","size_leaf_vector":"1"}},{"base_weights":[-6.025583E-3,-7.958604E-1,4.5699753E-2,-1.1372564E-2,-4.966816E-2,1.9538327E-1,-2.1007413E-1,1.3224274E-3,5.7017077E-2,-3.561123E-2,7.853206E-3],"categories":[],"categories_nodes":[],"categories_segments":[],"categories_sizes":[],"default_left":[0,0,0,0,0,0,0,0,0,0,0],"id":9,"left_children":[1,3,5,-1,-1,7,9,-1,-1,-1,-1],"loss_changes":[2.456805E0,1.8894982E-1,2.2060516E0,0E0,0E0,5.74726E0,4.0494685E0,0E0,0E0,0E0,0E0],"parents":[2147483647,0,0,1,1,2,2,5,5,6,6],"right_children":[2,4,6,-1,-1,8,10,-1,-1,-1,-1],"split_conditions":[-1.2657317E0,-1.7464621E0,7.113514E-1,-1.1372564E-2,-4.966816E-2,4.941436E-1,2.3824655E-2,1.3224274E-3,5.7017077E-2,-3.561123E-2,7.853206E-3],"split_indices":[1,1,1,0,0,1,2,0,0,0,0],"split_type":[0,0,0,0,0,0,0,0,0,0,0],"sum_hessian":[5.824527E1,2.6957326E0,5.5549538E1,1.2499723E0,1.4457603E0,3.5191147E1,2.0358389E1,3.0726086E1,4.4650607E0,8.201253E0,1.2157136E1],"tree_param":{"num_deleted":"0","num_feature":"3","num_nodes":"11","size_leaf_vector":"1"}},{"base_weights":[-6.2307734E-3,-7.7570415E-1,4.398765E-2,-1.1056519E-2,-4.8493635E-2,1.1671024E-1,-4.678399E-1,3.4753174E-2,2.8368845E-3,6.462668E-3,-4.3073833E-2],"categories":[],"categories_nodes":[],"categories_segments":[],"categories_sizes":[],"default_left":[0,0,0,0,0,0,0,0,0,0,0],"id":10,"left_children":[1,3,5,-1,-1,7,9,-1,-1,-1,-1],"loss_changes":[2.3221967E0,1.8193889E-1,2.158774E0,0E0,0E0,1.7051878E0,1.811279E0,0E0,0E0,0E0,0E0],"parents":[2147483647,0,0,1,1,2,2,5,5,6,6],"right_children":[2,4,6,-1,-1,8,10,-1,-1,-1,-1],"split_conditions":[-1.2657317E0,-1.7464621E0,1.4920948E0,-1.1056519E-2,-4.8493635E-2,-1.0366421E0,1.8430158E-1,3.4753174E-2,2.8368845E-3,6.462668E-3,-4.3073833E-2],"split_indices":[1,1,1,0,0,1,2,0,0,0,0],"split_type":[0,0,0,0,0,0,0,0,0,0,0],"sum_hessian":[5.8212536E1,2.6813202E0,5.5531216E1,1.2499988E0,1.4313214E0,4.9298634E1,6.232582E0,3.636817E0,4.5661816E1,2.743186E0,3.4893959E0],"tree_param":{"num_deleted":"0","num_feature":"3","num_nodes":"11","size_leaf_vector":"1"}},{"base_weights":[-6.915487E-3,-7.564054E-1,4.1838918E-2,-1.074965E-2,-4.73772E-2,1.1170313E-1,-4.498032E-1,2.909597E-3,3.8363304E-2,-3.5418116E-2,1.6278965E-2],"categories":[],"categories_nodes":[],"categories_segments":[],"categories_sizes":[],"default_left":[0,0,0,0,0,0,0,0,0,0,0],"id":11,"left_children":[1,3,5,-1,-1,7,9,-1,-1,-1,-1],"loss_changes":[2.1933908E0,1.7562914E-1,1.9907042E0,0E0,0E0,1.7186713E0,1.679724E0,0E0,0E0,0E0,0E0],"parents":[2147483647,0,0,1,1,2,2,5,5,6,6],"right_children":[2,4,6,-1,-1,8,10,-1,-1,-1,-1],"split_conditions":[-1.2657317E0,-1.7464621E0,1.4920948E0,-1.074965E-2,-4.73772E-2,1.2364521E0,1.1292558E0,2.909597E-3,3.8363304E-2,-3.5418116E-2,1.6278965E-2],"split_indices":[1,1,1,0,0,1,0,0,0,0,0],"split_type":[0,0,0,0,0,0,0,0,0,0,0],"sum_hessian":[5.8159508E1,2.6657016E0,5.5493805E1,1.2499471E0,1.4157546E0,4.926575E1,6.2280536E0,4.655445E1,2.7113016E0,4.7354164E0,1.492637E0],"tree_param":{"num_deleted":"0","num_feature":"3","num_nodes":"11","size_leaf_vector":"1"}},{"base_weights":[-7.1889195E-3,-7.3790324E-1,4.0166605E-2,-1.0451638E-2,-4.6314143E-2,6.691463E-1,-1.5491285E-2,5.1047064E-2,6.2387567E-3,-1.6806297E-2,5.4226024E-3],"categories":[],"categories_nodes":[],"categories_segments":[],"categories_sizes":[],"default_left":[0,0,0,0,0,0,0,0,0,0,0],"id":12,"left_children":[1,3,5,-1,-1,7,9,-1,-1,-1,-1],"loss_changes":[2.0749347E0,1.6992378E-1,1.986823E0,0E0,0E0,7.559166E-1,2.1365588E0,0E0,0E0,0E0,0E0],"parents":[2147483647,0,0,1,1,2,2,5,5,6,6],"right_children":[2,4,6,-1,-1,8,10,-1,-1,-1,-1],"split_conditions":[-1.2657317E0,-1.7464621E0,-1.0366421E0,-1.0451638E-2,-4.6314143E-2,-4.1804954E-1,-5.2698606E-1,5.1047064E-2,6.2387567E-3,-1.6806297E-2,5.4226024E-3],"split_indices":[1,1,1,0,0,2,0,0,0,0,0],"split_type":[0,0,0,0,0,0,0,0,0,0,0],"sum_hessian":[5.8106846E1,2.6490326E0,5.5457813E1,1.2498235E0,1.3992093E0,3.612388E0,5.1845425E1,1.6625376E0,1.9498504E0,1.3976652E1,3.7868774E1],"tree_param":{"num_deleted":"0","num_feature":"3","num_nodes":"11","size_leaf_vector":"1"}},{"base_weights":[-7.015439E-3,-7.2014254E-1,3.9003737E-2,-1.0162215E-2,-4.5300204E-2,1.7874633E-1,-1.9933595E-1,8.009574E-4,5.4691996E-2,-3.3983998E-2,7.6577524E-3],"categories":[],"categories_nodes":[],"categories_segments":[],"categories_sizes":[],"default_left":[0,0,0,0,0,0,0,0,0,0,0],"id":13,"left_children":[1,3,5,-1,-1,7,9,-1,-1,-1,-1],"loss_changes":[1.9662272E0,1.6473925E-1,1.9149867E0,0E0,0E0,5.3578606E0,3.7153807E0,0E0,0E0,0E0,0E0],"parents":[2147483647,0,0,1,1,2,2,5,5,6,6],"right_children":[2,4,6,-1,-1,8,10,-1,-1,-1,-1],"split_conditions":[-1.2657317E0,-1.7464621E0,7.113514E-1,-1.0162215E-2,-4.5300204E-2,4.941436E-1,2.3824655E-2,8.009574E-4,5.4691996E-2,-3.3983998E-2,7.6577524E-3],"split_indices":[1,1,1,0,0,1,2,0,0,0,0],"split_type":[0,0,0,0,0,0,0,0,0,0,0],"sum_hessian":[5.805806E1,2.6314569E0,5.54266E1,1.2496339E0,1.3818228E0,3.5098053E1,2.0328548E1,3.0662905E1,4.4351482E0,8.2110405E0,1.2117508E1],"tree_param":{"num_deleted":"0","num_feature":"3","num_nodes":"11","size_leaf_vector":"1"}},{"base_weights":[-7.1047456E-3,-7.0307297E-1,3.7608374E-2,-9.88109E-3,-4.433157E-2,6.507514E-1,-1.6397981E-2,4.9815588E-2,6.0106884E-3,-1.5963038E-2,5.043853E-3],"categories":[],"categories_nodes":[],"categories_segments":[],"categories_sizes":[],"default_left":[0,0,0,0,0,0,0,0,0,0,0],"id":14,"left_children":[1,3,5,-1,-1,7,9,-1,-1,-1,-1],"loss_changes":[1.8627902E0,1.6000557E-1,1.8781996E0,0E0,0E0,7.217301E-1,1.9078385E0,0E0,0E0,0E0,0E0],"parents":[2147483647,0,0,1,1,2,2,5,5,6,6],"right_children":[2,4,6,-1,-1,8,10,-1,-1,-1,-1],"split_conditions":[-1.2657317E0,-1.7464621E0,-1.0366421E0,-9.88109E-3,-4.433157E-2,-4.1804954E-1,-5.2698606E-1,4.9815588E-2,6.0106884E-3,-1.5963038E-2,5.043853E-3],"split_indices":[1,1,1,0,0,2,0,0,0,0,0],"split_type":[0,0,0,0,0,0,0,0,0,0,0],"sum_hessian":[5.80107E1,2.6131067E0,5.5397594E1,1.2493846E0,1.3637221E0,3.590016E0,5.180758E1,1.6423558E0,1.9476601E0,1.3980533E1,3.7827045E1],"tree_param":{"num_deleted":"0","num_feature":"3","num_nodes":"11","size_leaf_vector":"1"}},{"base_weights":[-6.909982E-3,-6.866496E-1,3.6557343E-2,-9.608009E-3,-4.3404818E-2,1.03653535E-1,-4.3467548E-1,2.602532E-2,1.3570448E-3,7.643029E-3,-4.139185E-2],"categories":[],"categories_nodes":[],"categories_segments":[],"categories_sizes":[],"default_left":[0,0,0,0,0,0,0,0,0,0,0],"id":15,"left_children":[1,3,5,-1,-1,7,9,-1,-1,-1,-1],"loss_changes":[1.7670863E0,1.5566182E-1,1.827148E0,0E0,0E0,1.5852485E0,1.793774E0,0E0,0E0,0E0,0E0],"parents":[2147483647,0,0,1,1,2,2,5,5,6,6],"right_children":[2,4,6,-1,-1,8,10,-1,-1,-1,-1],"split_conditions":[-1.2657317E0,-1.7464621E0,1.4920948E0,-9.608009E-3,-4.3404818E-2,-1.5021985E0,1.8430158E-1,2.602532E-2,1.3570448E-3,7.643029E-3,-4.139185E-2],"split_indices":[1,1,1,0,0,0,2,0,0,0,0],"split_type":[0,0,0,0,0,0,0,0,0,0,0],"sum_hessian":[5.795745E1,2.5941029E0,5.536335E1,1.2490802E0,1.3450227E0,4.9145794E1,6.2175555E0,6.7217526E0,4.242404E1,2.7376475E0,3.479908E0],"tree_param":{"num_deleted":"0","num_feature":"3","num_nodes":"11","size_leaf_vector":"1"}},{"base_weights":[-7.584776E-3,-2.4703111E-1,1.10012464E-1,-4.4826E-1,4.1572873E-2,3.962478E-1,-3.0282578E-1,1.4134822E-3,-4.149067E-2,3.3216324E-2,-1.0281922E-3,-4.85173E-2,2.4694183E-3],"categories":[],"categories_nodes":[],"categories_segments":[],"categories_sizes":[],"default_left":[0,0,0,0,0,0,0,0,0,0,0,0,0],"id":16,"left_children":[1,3,5,7,-1,9,11,-1,-1,-1,-1,-1,-1],"loss_changes":[1.6861913E0,4.6509805E0,4.870873E0,3.1623015E0,0E0,2.7150183E0,4.051469E0,0E0,0E0,0E0,0E0,0E0,0E0],"parents":[2147483647,0,0,1,1,2,2,3,3,5,5,6,6],"right_children":[2,4,6,8,-1,10,12,-1,-1,-1,-1,-1,-1],"split_conditions":[-5.2698606E-1,1.2774634E-1,2.5304645E-1,-1.4797486E0,4.1572873E-2,7.389907E-1,4.7818252E-1,1.4134822E-3,-4.149067E-2,3.3216324E-2,-1.0281922E-3,-4.85173E-2,2.4694183E-3],"split_indices":[0,2,2,0,0,1,2,0,0,0,0,0,0],"split_type":[0,0,0,0,0,0,0,0,0,0,0,0,0],"sum_hessian":[5.7917583E1,1.8713442E1,3.9204144E1,1.6263325E1,2.4501164E0,2.3175756E1,1.6028385E1,7.6433277E0,8.619998E0,1.3742948E1,9.43281E0,4.9300013E0,1.1098383E1],"tree_param":{"num_deleted":"0","num_feature":"3","num_nodes":"13","size_leaf_vector":"1"}},{"base_weights":[-7.394202E-3,-6.6811126E-1,3.4668967E-2,-9.131515E-3,-4.250793E-2,6.31813E-1,-1.7669061E-2,4.875539E-2,5.560109E-3,-4.294748E-2,1.1809171E-3],"categories":[],"categories_nodes":[],"categories_segments":[],"categories_sizes":[],"default_left":[0,0,0,0,0,0,0,0,0,0,0],"id":17,"left_children":[1,3,5,-1,-1,7,9,-1,-1,-1,-1],"loss_changes":[1.6594772E0,1.6054511E-1,1.7708576E0,0E0,0E0,7.073356E-1,1.8521647E0,0E0,0E0,0E0,0E0],"parents":[2147483647,0,0,1,1,2,2,5,5,6,6],"right_children":[2,4,6,-1,-1,8,10,-1,-1,-1,-1],"split_conditions":[-1.2657317E0,-1.7464621E0,-1.0366421E0,-9.131515E-3,-4.250793E-2,-4.1804954E-1,-9.805807E-1,4.875539E-2,5.560109E-3,-4.294748E-2,1.1809171E-3],"split_indices":[1,1,1,0,0,2,1,0,0,0,0],"split_type":[0,0,0,0,0,0,0,0,0,0,0],"sum_hessian":[5.7877483E1,2.5732975E0,5.5304188E1,1.2480965E0,1.3252009E0,3.564436E0,5.173975E1,1.6219215E0,1.9425144E0,1.493979E0,5.0245773E1],"tree_param":{"num_deleted":"0","num_feature":"3","num_nodes":"11","size_leaf_vector":"1"}},{"base_weights":[-7.69137E-3,-6.529312E-1,3.3184137E-2,-8.879791E-3,-4.1656353E-2,6.15456E-1,-1.757708E-2,4.7657862E-2,5.3800116E-3,-4.1620877E-2,1.1231195E-3],"categories":[],"categories_nodes":[],"categories_segments":[],"categories_sizes":[],"default_left":[0,0,0,0,0,0,0,0,0,0,0],"id":18,"left_children":[1,3,5,-1,-1,7,9,-1,-1,-1,-1],"loss_changes":[1.5733241E0,1.5639067E-1,1.6742294E0,0E0,0E0,6.761656E-1,1.7393112E0,0E0,0E0,0E0,0E0],"parents":[2147483647,0,0,1,1,2,2,5,5,6,6],"right_children":[2,4,6,-1,-1,8,10,-1,-1,-1,-1],"split_conditions":[-1.2657317E0,-1.7464621E0,-1.0366421E0,-8.879791E-3,-4.1656353E-2,-4.1804954E-1,-9.805807E-1,4.7657862E-2,5.3800116E-3,-4.1620877E-2,1.1231195E-3],"split_indices":[1,1,1,0,0,2,1,0,0,0,0],"split_type":[0,0,0,0,0,0,0,0,0,0,0],"sum_hessian":[5.7831703E1,2.5532799E0,5.5278423E1,1.247663E0,1.3056169E0,3.5405817E0,5.1737843E1,1.5998958E0,1.9406857E0,1.4963243E0,5.0241516E1],"tree_param":{"num_deleted":"0","num_feature":"3","num_nodes":"11","size_leaf_vector":"1"}},{"base_weights":[-7.956445E-3,-6.3828135E-1,3.177364E-2,-8.635188E-3,-4.0838167E-2,9.535343E-2,-4.1420293E-1,2.1814152E-3,3.6642935E-2,1.1289054E-2,-3.7414048E-2],"categories":[],"categories_nodes":[],"categories_segments":[],"categories_sizes":[],"default_left":[0,0,0,0,0,0,0,0,0,0,0],"id":19,"left_children":[1,3,5,-1,-1,7,9,-1,-1,-1,-1],"loss_changes":[1.4923885E0,1.5251756E-1,1.6344875E0,0E0,0E0,1.6182568E0,1.7095784E0,0E0,0E0,0E0,0E0],"parents":[2147483647,0,0,1,1,2,2,5,5,6,6],"right_children":[2,4,6,-1,-1,8,10,-1,-1,-1,-1],"split_conditions":[-1.2657317E0,-1.7464621E0,1.4920948E0,-8.635188E-3,-4.0838167E-2,1.2364521E0,2.254938E-1,2.1814152E-3,3.6642935E-2,1.1289054E-2,-3.7414048E-2],"split_indices":[1,1,1,0,0,1,0,0,0,0,0],"split_type":[0,0,0,0,0,0,0,0,0,0,0],"sum_hessian":[5.7783535E1,2.5329168E0,5.5250618E1,1.247192E0,1.2857249E0,4.9044827E1,6.2057896E0,4.635238E1,2.692448E0,2.2396057E0,3.9661841E0],"tree_param":{"num_deleted":"0","num_feature":"3","num_nodes":"11","size_leaf_vector":"1"}},{"base_weights":[-8.195543E-3,-2.3252973E-1,1.0181162E-1,-4.2746505E-1,4.055808E-2,3.7517625E-1,-2.9104152E-1,1.5625835E-3,-3.9745066E-2,3.166697E-2,-1.1828935E-3,-4.6363976E-2,2.2935215E-3],"categories":[],"categories_nodes":[],"categories_segments":[],"categories_sizes":[],"default_left":[0,0,0,0,0,0,0,0,0,0,0,0,0],"id":20,"left_children":[1,3,5,7,-1,9,11,-1,-1,-1,-1,-1,-1],"loss_changes":[1.4731066E0,4.3403497E0,4.4160166E0,2.9230177E0,0E0,2.4948864E0,3.6905832E0,0E0,0E0,0E0,0E0,0E0,0E0],"parents":[2147483647,0,0,1,1,2,2,3,3,5,5,6,6],"right_children":[2,4,6,8,-1,10,12,-1,-1,-1,-1,-1,-1],"split_conditions":[-5.2698606E-1,1.2774634E-1,2.5304645E-1,-1.4797486E0,4.055808E-2,7.389907E-1,4.7818252E-1,1.5625835E-3,-3.9745066E-2,3.166697E-2,-1.1828935E-3,-4.6363976E-2,2.2935215E-3],"split_indices":[0,2,2,0,0,1,2,0,0,0,0,0,0],"split_type":[0,0,0,0,0,0,0,0,0,0,0,0,0],"sum_hessian":[5.7732918E1,1.86292E1,3.9103718E1,1.6194841E1,2.4343598E0,2.3085085E1,1.6018631E1,7.6096754E0,8.585165E0,1.3657004E1,9.428081E0,4.939116E0,1.1079515E1],"tree_param":{"num_deleted":"0","num_feature":"3","num_nodes":"13","size_leaf_vector":"1"}},{"base_weights":[-7.962524E-3,-6.219603E-1,3.0553035E-2,-8.205558E-3,-4.0063202E-2,7.0218724E-1,-1.27797425E-2,7.727779E-3,4.6939425E-2,-3.244697E-2,3.8029656E-3],"categories":[],"categories_nodes":[],"categories_segments":[],"categories_sizes":[],"default_left":[0,0,0,0,0,0,0,0,0,0,0],"id":21,"left_children":[1,3,5,-1,-1,7,9,-1,-1,-1,-1],"loss_changes":[1.4065479E0,1.5666449E-1,1.6435484E0,0E0,0E0,2.9827476E-1,3.0866203E0,0E0,0E0,0E0,0E0],"parents":[2147483647,0,0,1,1,2,2,5,5,6,6],"right_children":[2,4,6,-1,-1,8,10,-1,-1,-1,-1],"split_conditions":[-1.2657317E0,-1.7464621E0,-1.1311536E0,-8.205558E-3,-4.0063202E-2,-1.650545E0,-7.576768E-1,7.727779E-3,4.6939425E-2,-3.244697E-2,3.8029656E-3],"split_indices":[1,1,2,0,0,2,2,0,0,0,0],"split_type":[0,0,0,0,0,0,0,0,0,0,0],"sum_hessian":[5.767379E1,2.5101304E0,5.516366E1,1.2453693E0,1.264761E0,2.4218464E0,5.2741814E1,1.2294418E0,1.1924045E0,5.690262E0,4.705155E1],"tree_param":{"num_deleted":"0","num_feature":"3","num_nodes":"11","size_leaf_vector":"1"}},{"base_weights":[-7.947199E-3,-6.083349E-1,2.9504053E-2,-7.980031E-3,-3.930485E-2,6.852654E-1,-1.267015E-2,7.516747E-3,4.5879822E-2,-3.1010384E-2,3.6179076E-3],"categories":[],"categories_nodes":[],"categories_segments":[],"categories_sizes":[],"default_left":[0,0,0,0,0,0,0,0,0,0,0],"id":22,"left_children":[1,3,5,-1,-1,7,9,-1,-1,-1,-1],"loss_changes":[1.336474E0,1.5287471E-1,1.5615842E0,0E0,0E0,2.8599346E-1,2.8209226E0,0E0,0E0,0E0,0E0],"parents":[2147483647,0,0,1,1,2,2,5,5,6,6],"right_children":[2,4,6,-1,-1,8,10,-1,-1,-1,-1],"split_conditions":[-1.2657317E0,-1.7464621E0,-1.1311536E0,-7.980031E-3,-3.930485E-2,-1.650545E0,-7.576768E-1,7.516747E-3,4.5879822E-2,-3.1010384E-2,3.6179076E-3],"split_indices":[1,1,2,0,0,2,2,0,0,0,0],"split_type":[0,0,0,0,0,0,0,0,0,0,0],"sum_hessian":[5.7639523E1,2.4893253E0,5.51502E1,1.244812E0,1.2445133E0,2.4111457E0,5.273905E1,1.2288506E0,1.1822951E0,5.702177E0,4.7036877E1],"tree_param":{"num_deleted":"0","num_feature":"3","num_nodes":"11","size_leaf_vector":"1"}},{"base_weights":[-7.917653E-3,-5.95153E-1,2.8508065E-2,-7.7608386E-3,-3.857363E-2,1.626301E-1,-1.7691843E-1,-1.6372147E-3,4.1249093E-2,-2.4970936E-2,1.463375E-2],"categories":[],"categories_nodes":[],"categories_segments":[],"categories_sizes":[],"default_left":[0,0,0,0,0,0,0,0,0,0,0],"id":23,"left_children":[1,3,5,-1,-1,7,9,-1,-1,-1,-1],"loss_changes":[1.2704788E0,1.492964E-1,1.5753621E0,0E0,0E0,4.4891415E0,3.5766115E0,0E0,0E0,0E0,0E0],"parents":[2147483647,0,0,1,1,2,2,5,5,6,6],"right_children":[2,4,6,-1,-1,8,10,-1,-1,-1,-1],"split_conditions":[-1.2657317E0,-1.7464621E0,3.8837868E-1,-7.7608386E-3,-3.857363E-2,7.566499E-2,1.1403378E0,-1.6372147E-3,4.1249093E-2,-2.4970936E-2,1.463375E-2],"split_indices":[1,1,0,0,0,0,0,0,0,0,0],"split_type":[0,0,0,0,0,0,0,0,0,0,0],"sum_hessian":[5.7601437E1,2.4684024E0,5.5133034E1,1.2442303E0,1.2241722E0,3.3481464E1,2.1651567E1,2.658904E1,6.892425E0,1.2798496E1,8.853071E0],"tree_param":{"num_deleted":"0","num_feature":"3","num_nodes":"11","size_leaf_vector":"1"}},{"base_weights":[-7.8077405E-3,4.5979977E-2,-3.9861205E-1,-3.7894656E-3,7.06562E-1,-6.477665E-1,1.6526066E-2,4.5355274E-3,-2.099522E-2,5.138235E-2,1.4907116E-3,1.0223838E-2,-6.29788E-2],"categories":[],"categories_nodes":[],"categories_segments":[],"categories_sizes":[],"default_left":[0,0,0,0,0,0,0,0,0,0,0,0,0],"id":24,"left_children":[1,3,5,7,9,11,-1,-1,-1,-1,-1,-1,-1],"loss_changes":[1.2492092E0,1.7243897E0,1.5198654E0,1.9922069E0,7.6779413E-1,3.2269633E0,0E0,0E0,0E0,0E0,0E0,0E0,0E0],"parents":[2147483647,0,0,1,1,2,2,3,3,4,4,5,5],"right_children":[2,4,6,8,10,12,-1,-1,-1,-1,-1,-1,-1],"split_conditions":[1.4920948E0,1.2364521E0,1.1292558E0,9.058216E-1,5.0445896E-1,2.254938E-1,1.6526066E-2,4.5355274E-3,-2.099522E-2,5.138235E-2,1.4907116E-3,1.0223838E-2,-6.29788E-2],"split_indices":[1,1,0,0,2,0,0,0,0,0,0,0,0],"split_type":[0,0,0,0,0,0,0,0,0,0,0,0,0],"sum_hessian":[5.7556297E1,5.1368607E1,6.18769E0,4.8694164E1,2.6744428E0,4.694956E0,1.492734E0,4.0319565E1,8.374598E0,1.4621929E0,1.21225E0,2.2401862E0,2.4547694E0],"tree_param":{"num_deleted":"0","num_feature":"3","num_nodes":"13","size_leaf_vector":"1"}},{"base_weights":[-7.420049E-3,-2.1461011E-1,9.4156705E-2,-4.0214613E-1,3.9450713E-2,3.551356E-1,-2.8002995E-1,2.0136319E-3,-3.788853E-2,3.0355364E-2,-1.5801502E-3,-4.435188E-2,2.1009324E-3],"categories":[],"categories_nodes":[],"categories_segments":[],"categories_sizes":[],"default_left":[0,0,0,0,0,0,0,0,0,0,0,0,0],"id":25,"left_children":[1,3,5,7,-1,9,11,-1,-1,-1,-1,-1,-1],"loss_changes":[1.2519294E0,3.9985354E0,4.0024676E0,2.7275047E0,0E0,2.3565936E0,3.3568377E0,0E0,0E0,0E0,0E0,0E0,0E0],"parents":[2147483647,0,0,1,1,2,2,3,3,5,5,6,6],"right_children":[2,4,6,8,-1,10,12,-1,-1,-1,-1,-1,-1],"split_conditions":[-5.2698606E-1,1.2774634E-1,2.5304645E-1,-1.4797486E0,3.9450713E-2,7.389907E-1,4.7818252E-1,2.0136319E-3,-3.788853E-2,3.0355364E-2,-1.5801502E-3,-4.435188E-2,2.1009324E-3],"split_indices":[0,2,2,0,0,1,2,0,0,0,0,0,0],"split_type":[0,0,0,0,0,0,0,0,0,0,0,0,0],"sum_hessian":[5.75261E1,1.8558603E1,3.8967495E1,1.6141693E1,2.416911E0,2.2986399E1,1.5981097E1,7.588227E0,8.553467E0,1.3573225E1,9.413173E0,4.9315653E0,1.1049532E1],"tree_param":{"num_deleted":"0","num_feature":"3","num_nodes":"13","size_leaf_vector":"1"}},{"base_weights":[-7.208908E-3,-5.8355254E-1,2.8399784E-2,-7.50317E-3,-3.79826E-2,5.848434E-1,-1.9685624E-2,4.624323E-2,4.343512E-3,1.9530943E-3,-2.6815131E-2],"categories":[],"categories_nodes":[],"categories_segments":[],"categories_sizes":[],"default_left":[0,0,0,0,0,0,0,0,0,0,0],"id":26,"left_children":[1,3,5,-1,-1,7,9,-1,-1,-1,-1],"loss_changes":[1.2161472E0,1.4918256E-1,1.5099782E0,0E0,0E0,6.794293E-1,1.6148064E0,0E0,0E0,0E0,0E0],"parents":[2147483647,0,0,1,1,2,2,5,5,6,6],"right_children":[2,4,6,-1,-1,8,10,-1,-1,-1,-1],"split_conditions":[-1.2657317E0,-1.7464621E0,-1.0366421E0,-7.50317E-3,-3.79826E-2,-4.1804954E-1,1.2646013E0,4.624323E-2,4.343512E-3,1.9530943E-3,-2.6815131E-2],"split_indices":[1,1,1,0,0,2,2,0,0,0,0],"split_type":[0,0,0,0,0,0,0,0,0,0,0],"sum_hessian":[5.745069E1,2.4475765E0,5.5003113E1,1.242116E0,1.2054604E0,3.4871597E0,5.1515953E1,1.5628034E0,1.9243562E0,4.708593E1,4.430024E0],"tree_param":{"num_deleted":"0","num_feature":"3","num_nodes":"11","size_leaf_vector":"1"}},{"base_weights":[-7.186105E-3,-5.7115054E-1,2.746182E-2,-7.29742E-3,-3.729693E-2,6.671558E-1,-1.3483386E-2,7.623294E-3,4.4415124E-2,-3.0057913E-2,3.4495012E-3],"categories":[],"categories_nodes":[],"categories_segments":[],"categories_sizes":[],"default_left":[0,0,0,0,0,0,0,0,0,0,0],"id":27,"left_children":[1,3,5,-1,-1,7,9,-1,-1,-1,-1],"loss_changes":[1.157015E0,1.457994E-1,1.4753174E0,0E0,0E0,2.5014293E-1,2.6390996E0,0E0,0E0,0E0,0E0],"parents":[2147483647,0,0,1,1,2,2,5,5,6,6],"right_children":[2,4,6,-1,-1,8,10,-1,-1,-1,-1],"split_conditions":[-1.2657317E0,-1.7464621E0,-1.1311536E0,-7.29742E-3,-3.729693E-2,-1.650545E0,-7.576768E-1,7.623294E-3,4.4415124E-2,-3.0057913E-2,3.4495012E-3],"split_indices":[1,1,2,0,0,2,2,0,0,0,0],"split_type":[0,0,0,0,0,0,0,0,0,0,0],"sum_hessian":[5.7409348E1,2.4266324E0,5.4982716E1,1.2414914E0,1.185141E0,2.3875616E0,5.2595154E1,1.2252907E0,1.1622708E0,5.698764E0,4.689639E1],"tree_param":{"num_deleted":"0","num_feature":"3","num_nodes":"11","size_leaf_vector":"1"}},{"base_weights":[-7.1597043E-3,4.4280663E-2,-3.8136262E-1,-4.583424E-3,6.9295263E-1,-6.236339E-1,1.6141549E-2,4.325948E-3,-2.0190245E-2,5.0382674E-2,1.5590695E-3,9.87292E-3,-6.0895413E-2],"categories":[],"categories_nodes":[],"categories_segments":[],"categories_sizes":[],"default_left":[0,0,0,0,0,0,0,0,0,0,0,0,0],"id":28,"left_children":[1,3,5,7,9,11,-1,-1,-1,-1,-1,-1,-1],"loss_changes":[1.140432E0,1.6580808E0,1.4225365E0,1.8369439E0,7.316537E-1,3.0056593E0,0E0,0E0,0E0,0E0,0E0,0E0,0E0],"parents":[2147483647,0,0,1,1,2,2,3,3,4,4,5,5],"right_children":[2,4,6,8,10,12,-1,-1,-1,-1,-1,-1,-1],"split_conditions":[1.4920948E0,1.2364521E0,1.1292558E0,9.058216E-1,5.0445896E-1,2.254938E-1,1.6141549E-2,4.325948E-3,-2.0190245E-2,5.0382674E-2,1.5590695E-3,9.87292E-3,-6.0895413E-2],"split_indices":[1,1,0,0,2,0,0,0,0,0,0,0,0],"split_type":[0,0,0,0,0,0,0,0,0,0,0,0,0],"sum_hessian":[5.7368595E1,5.121053E1,6.1580653E0,4.8546482E1,2.6640444E0,4.6668715E0,1.4911941E0,4.0164272E1,8.382212E0,1.4512508E0,1.2127936E0,2.2398562E0,2.427015E0],"tree_param":{"num_deleted":"0","num_feature":"3","num_nodes":"13","size_leaf_vector":"1"}},{"base_weights":[-6.789546E-3,-2.0680553E-1,9.118087E-2,-3.8835087E-1,3.8291994E-2,3.370822E-1,-2.6045713E-1,3.0320198E-3,-3.5664648E-2,2.9049877E-2,-1.7562181E-3,-4.248917E-2,2.551392E-3],"categories":[],"categories_nodes":[],"categories_segments":[],"categories_sizes":[],"default_left":[0,0,0,0,0,0,0,0,0,0,0,0,0],"id":29,"left_children":[1,3,5,7,-1,9,11,-1,-1,-1,-1,-1,-1],"loss_changes":[1.1618913E0,3.7378435E0,3.53332E0,2.535547E0,0E0,2.1888597E0,3.1570506E0,0E0,0E0,0E0,0E0,0E0,0E0],"parents":[2147483647,0,0,1,1,2,2,3,3,5,5,6,6],"right_children":[2,4,6,8,-1,10,12,-1,-1,-1,-1,-1,-1],"split_conditions":[-5.2698606E-1,1.2774634E-1,2.5304645E-1,-1.5021985E0,3.8291994E-2,7.389907E-1,4.7818252E-1,3.0320198E-3,-3.5664648E-2,2.9049877E-2,-1.7562181E-3,-4.248917E-2,2.551392E-3],"split_indices":[0,2,2,0,0,1,2,0,0,0,0,0,0],"split_type":[0,0,0,0,0,0,0,0,0,0,0,0,0],"sum_hessian":[5.7331043E1,1.8483767E1,3.884728E1,1.608265E1,2.401117E0,2.288508E1,1.5962199E1,7.093932E0,8.988717E0,1.3486269E1,9.39881E0,4.921882E0,1.1040318E1],"tree_param":{"num_deleted":"0","num_feature":"3","num_nodes":"13","size_leaf_vector":"1"}},{"base_weights":[-6.5625515E-3,3.836331E-2,-4.298823E-1,-4.6909098E-2,4.9030015E-1,-9.7794056E-1,1.4785861E-2,1.4088885E-3,-5.2667595E-2,5.4036587E-2,-1.9726306E-2,-5.8952045E-2,-1.7013883E-2],"categories":[],"categories_nodes":[],"categories_segments":[],"categories_sizes":[],"default_left":[0,0,0,0,0,0,0,0,0,0,0,0,0],"id":30,"left_children":[1,3,5,7,9,11,-1,-1,-1,-1,-1,-1,-1],"loss_changes":[1.1242037E0,2.0876646E0,2.5441036E0,3.5047002E0,4.9147873E0,4.281354E-2,0E0,0E0,0E0,0E0,0E0,0E0,0E0],"parents":[2147483647,0,0,1,1,2,2,3,3,4,4,5,5],"right_children":[2,4,6,8,10,12,-1,-1,-1,-1,-1,-1,-1],"split_conditions":[1.2646013E0,4.7818252E-1,1.7129004E0,3.6422467E-1,1.0169054E0,1.4377142E0,1.4785861E-2,1.4088885E-3,-5.2667595E-2,5.4036587E-2,-1.9726306E-2,-5.8952045E-2,-1.7013883E-2],"split_indices":[2,2,2,2,1,2,0,0,0,0,0,0,0],"split_type":[0,0,0,0,0,0,0,0,0,0,0,0,0],"sum_hessian":[5.7245434E1,5.257514E1,4.6702924E0,4.498372E1,7.59142E0,2.4625304E0,2.2077622E0,4.2765175E1,2.2185445E0,4.420368E0,3.1710522E0,1.2266705E0,1.2358599E0],"tree_param":{"num_deleted":"0","num_feature":"3","num_nodes":"13","size_leaf_vector":"1"}},{"base_weights":[-7.5649885E-3,-5.656668E-1,2.6639707E-2,-7.41253E-3,-3.6790155E-2,6.528874E-1,-1.3342E-2,7.5620464E-3,4.3369617E-2,-2.9115174E-2,3.3351195E-3],"categories":[],"categories_nodes":[],"categories_segments":[],"categories_sizes":[],"default_left":[0,0,0,0,0,0,0,0,0,0,0],"id":31,"left_children":[1,3,5,-1,-1,7,9,-1,-1,-1,-1],"loss_changes":[1.1262021E0,1.3282168E-1,1.4058466E0,0E0,0E0,2.3130262E-1,2.472202E0,0E0,0E0,0E0,0E0],"parents":[2147483647,0,0,1,1,2,2,5,5,6,6],"right_children":[2,4,6,-1,-1,8,10,-1,-1,-1,-1],"split_conditions":[-1.2657317E0,-1.7464621E0,-1.1311536E0,-7.41253E-3,-3.6790155E-2,-1.650545E0,-7.576768E-1,7.5620464E-3,4.3369617E-2,-2.9115174E-2,3.3351195E-3],"split_indices":[1,1,2,0,0,2,2,0,0,0,0],"split_type":[0,0,0,0,0,0,0,0,0,0,0],"sum_hessian":[5.720587E1,2.4062667E0,5.4799606E1,1.238664E0,1.1676027E0,2.3686678E0,5.243094E1,1.2201846E0,1.1484834E0,5.69262E0,4.673832E1],"tree_param":{"num_deleted":"0","num_feature":"3","num_nodes":"11","size_leaf_vector":"1"}},{"base_weights":[-7.5197243E-3,3.6545288E-2,-4.2195556E-1,-4.483362E-2,4.6913853E-1,-9.521483E-1,1.4185214E-2,1.3967968E-3,-5.1027723E-2,5.2070852E-2,-1.9098725E-2,-1.654635E-2,-5.7433248E-2],"categories":[],"categories_nodes":[],"categories_segments":[],"categories_sizes":[],"default_left":[0,0,0,0,0,0,0,0,0,0,0,0,0],"id":32,"left_children":[1,3,5,7,9,11,-1,-1,-1,-1,-1,-1,-1],"loss_changes":[1.0775987E0,1.9042118E0,2.3913114E0,3.2901187E0,4.565689E0,4.3106318E-2,0E0,0E0,0E0,0E0,0E0,0E0,0E0],"parents":[2147483647,0,0,1,1,2,2,3,3,4,4,5,5],"right_children":[2,4,6,8,10,12,-1,-1,-1,-1,-1,-1,-1],"split_conditions":[1.2646013E0,4.7818252E-1,1.7129004E0,3.6422467E-1,1.0169054E0,7.437537E-1,1.4185214E-2,1.3967968E-3,-5.1027723E-2,5.2070852E-2,-1.9098725E-2,-1.654635E-2,-5.7433248E-2],"split_indices":[2,2,2,2,1,0,0,0,0,0,0,0,0],"split_type":[0,0,0,0,0,0,0,0,0,0,0,0,0],"sum_hessian":[5.7162918E1,5.2493362E1,4.6695533E0,4.493635E1,7.5570107E0,2.4668214E0,2.2027318E0,4.272154E1,2.2148163E0,4.384996E0,3.1720145E0,1.2378235E0,1.2289981E0],"tree_param":{"num_deleted":"0","num_feature":"3","num_nodes":"13","size_leaf_vector":"1"}},{"base_weights":[-8.449912E-3,-5.585302E-1,2.5121192E-2,-7.532277E-3,-3.6167886E-2,6.3705784E-1,-1.3815147E-2,7.1710567E-3,4.246957E-2,-2.791789E-2,3.1482556E-3],"categories":[],"categories_nodes":[],"categories_segments":[],"categories_sizes":[],"default_left":[0,0,0,0,0,0,0,0,0,0,0],"id":33,"left_children":[1,3,5,-1,-1,7,9,-1,-1,-1,-1],"loss_changes":[1.0872033E0,1.18650794E-1,1.3366063E0,0E0,0E0,2.2983205E-1,2.2666864E0,0E0,0E0,0E0,0E0],"parents":[2147483647,0,0,1,1,2,2,5,5,6,6],"right_children":[2,4,6,-1,-1,8,10,-1,-1,-1,-1],"split_conditions":[-1.2657317E0,-1.7464621E0,-1.1311536E0,-7.532277E-3,-3.6167886E-2,-6.9892544E-1,-7.576768E-1,7.1710567E-3,4.246957E-2,-2.791789E-2,3.1482556E-3],"split_indices":[1,1,2,0,0,0,2,0,0,0,0],"split_type":[0,0,0,0,0,0,0,0,0,0,0],"sum_hessian":[5.7113598E1,2.3856833E0,5.4727913E1,1.2374439E0,1.1482394E0,2.354965E0,5.2372948E1,1.2122219E0,1.142743E0,5.696926E0,4.667602E1],"tree_param":{"num_deleted":"0","num_feature":"3","num_nodes":"11","size_leaf_vector":"1"}},{"base_weights":[-8.358449E-3,-5.469518E-1,2.4328116E-2,-7.326071E-3,-3.55408E-2,5.486438E-1,-2.0480145E-2,4.468944E-2,3.029739E-3,-4.051321E-2,9.341654E-4],"categories":[],"categories_nodes":[],"categories_segments":[],"categories_sizes":[],"default_left":[0,0,0,0,0,0,0,0,0,0,0],"id":34,"left_children":[1,3,5,-1,-1,7,9,-1,-1,-1,-1],"loss_changes":[1.0355871E0,1.1665213E-1,1.3199131E0,0E0,0E0,6.906531E-1,1.6322478E0,0E0,0E0,0E0,0E0],"parents":[2147483647,0,0,1,1,2,2,5,5,6,6],"right_children":[2,4,6,-1,-1,8,10,-1,-1,-1,-1],"split_conditions":[-1.2657317E0,-1.7464621E0,-1.0366421E0,-7.326071E-3,-3.55408E-2,-4.1804954E-1,-9.805807E-1,4.468944E-2,3.029739E-3,-4.051321E-2,9.341654E-4],"split_indices":[1,1,1,0,0,2,1,0,0,0,0],"split_type":[0,0,0,0,0,0,0,0,0,0,0],"sum_hessian":[5.7068417E1,2.3650496E0,5.4703365E1,1.2368234E0,1.1282262E0,3.4216223E0,5.1281746E1,1.5172694E0,1.9043528E0,1.4925787E0,4.9789165E1],"tree_param":{"num_deleted":"0","num_feature":"3","num_nodes":"11","size_leaf_vector":"1"}},{"base_weights":[-8.5426E-3,3.479334E-2,-4.1507396E-1,-4.2867493E-2,4.486728E-1,1.858022E-2,-8.4890944E-1,1.3892617E-3,-4.950406E-2,5.0215878E-2,-1.8525448E-2,-6.540266E-2,4.6747345E-3],"categories":[],"categories_nodes":[],"categories_segments":[],"categories_sizes":[],"default_left":[0,0,0,0,0,0,0,0,0,0,0,0,0],"id":35,"left_children":[1,3,5,7,9,-1,11,-1,-1,-1,-1,-1,-1],"loss_changes":[1.0365821E0,1.7340987E0,2.2493093E0,3.0949898E0,4.2486515E0,0E0,1.8343427E0,0E0,0E0,0E0,0E0,0E0,0E0],"parents":[2147483647,0,0,1,1,2,2,3,3,4,4,6,6],"right_children":[2,4,6,8,10,-1,12,-1,-1,-1,-1,-1,-1],"split_conditions":[1.2646013E0,4.7818252E-1,2.1524881E-1,3.6422467E-1,1.0169054E0,1.858022E-2,1.7129004E0,1.3892617E-3,-4.950406E-2,5.0215878E-2,-1.8525448E-2,-6.540266E-2,4.6747345E-3],"split_indices":[2,2,0,2,1,0,2,0,0,0,0,0,0],"split_type":[0,0,0,0,0,0,0,0,0,0,0,0,0],"sum_hessian":[5.7018734E1,5.2352417E1,4.6663146E0,4.48358E1,7.5166173E0,1.7096438E0,2.9566708E0,4.2626923E1,2.2088783E0,4.3440685E0,3.172549E0,1.7271832E0,1.2294875E0],"tree_param":{"num_deleted":"0","num_feature":"3","num_nodes":"13","size_leaf_vector":"1"}},{"base_weights":[-9.118548E-3,-1.9993773E-1,8.43978E-2,-3.6785835E-1,3.5440393E-2,5.192211E-1,-9.669547E-2,2.3135166E-3,-3.5119228E-2,4.404265E-2,-2.4875443E-2,-2.4267338E-2,5.2591367E-3],"categories":[],"categories_nodes":[],"categories_segments":[],"categories_sizes":[],"default_left":[0,0,0,0,0,0,0,0,0,0,0,0,0],"id":36,"left_children":[1,3,5,7,-1,9,11,-1,-1,-1,-1,-1,-1],"loss_changes":[1.0511475E0,3.2149332E0,3.1684697E0,2.3874047E0,0E0,4.777006E0,2.310695E0,0E0,0E0,0E0,0E0,0E0,0E0],"parents":[2147483647,0,0,1,1,2,2,3,3,5,5,6,6],"right_children":[2,4,6,8,-1,10,12,-1,-1,-1,-1,-1,-1],"split_conditions":[-5.2698606E-1,1.2774634E-1,-3.0264583E-1,-1.4797486E0,3.5440393E-2,7.9813075E-1,3.283054E-1,2.3135166E-3,-3.5119228E-2,4.404265E-2,-2.4875443E-2,-2.4267338E-2,5.2591367E-3],"split_indices":[0,2,2,0,0,1,1,0,0,0,0,0,0],"split_type":[0,0,0,0,0,0,0,0,0,0,0,0,0],"sum_hessian":[5.695965E1,1.8359425E1,3.8600224E1,1.5998397E1,2.3610282E0,1.0800345E1,2.7799875E1,7.5336967E0,8.464701E0,8.065308E0,2.735038E0,9.023631E0,1.8776245E1],"tree_param":{"num_deleted":"0","num_feature":"3","num_nodes":"13","size_leaf_vector":"1"}},{"base_weights":[-8.593955E-3,-5.400465E-1,2.353401E-2,-7.287834E-3,-3.5059657E-2,3.9534023E-1,-3.7382938E-2,-8.38701E-3,5.3928893E-2,-2.5635874E-2,4.389079E-3],"categories":[],"categories_nodes":[],"categories_segments":[],"categories_sizes":[],"default_left":[0,0,0,0,0,0,0,0,0,0,0],"id":37,"left_children":[1,3,5,-1,-1,7,9,-1,-1,-1,-1],"loss_changes":[1.0011678E0,1.101383E-1,1.2729251E0,0E0,0E0,3.2226324E0,2.9390032E0,0E0,0E0,0E0,0E0],"parents":[2147483647,0,0,1,1,2,2,5,5,6,6],"right_children":[2,4,6,-1,-1,8,10,-1,-1,-1,-1],"split_conditions":[-1.2657317E0,-1.7464621E0,-1.5021985E0,-7.287834E-3,-3.5059657E-2,-3.8781577E-1,-5.2698606E-1,-8.38701E-3,5.3928893E-2,-2.5635874E-2,4.389079E-3],"split_indices":[1,1,0,0,0,2,0,0,0,0,0],"split_type":[0,0,0,0,0,0,0,0,0,0,0],"sum_hessian":[5.6890945E1,2.3419397E0,5.4549007E1,1.2320023E0,1.1099374E0,6.906345E0,4.7642662E1,4.1997085E0,2.7066367E0,9.284972E0,3.835769E1],"tree_param":{"num_deleted":"0","num_feature":"3","num_nodes":"11","size_leaf_vector":"1"}},{"base_weights":[-8.481769E-3,3.3468608E-2,-4.0094024E-1,-3.9878596E-2,4.2539617E-1,1.8245287E-2,-8.235511E-1,1.429977E-3,-4.7915038E-2,4.834152E-2,-1.8187257E-2,-6.319694E-2,4.2841756E-3],"categories":[],"categories_nodes":[],"categories_segments":[],"categories_sizes":[],"default_left":[0,0,0,0,0,0,0,0,0,0,0,0,0],"id":38,"left_children":[1,3,5,7,9,-1,11,-1,-1,-1,-1,-1,-1],"loss_changes":[9.6568507E-1,1.5456462E0,2.133245E0,2.9021127E0,3.970108E0,0E0,1.6923594E0,0E0,0E0,0E0,0E0,0E0,0E0],"parents":[2147483647,0,0,1,1,2,2,3,3,4,4,6,6],"right_children":[2,4,6,8,10,-1,12,-1,-1,-1,-1,-1,-1],"split_conditions":[1.2646013E0,4.7818252E-1,2.1524881E-1,3.6422467E-1,1.0169054E0,1.8245287E-2,1.7129004E0,1.429977E-3,-4.7915038E-2,4.834152E-2,-1.8187257E-2,-6.319694E-2,4.2841756E-3],"split_indices":[2,2,0,2,1,0,2,0,0,0,0,0,0],"split_type":[0,0,0,0,0,0,0,0,0,0,0,0,0],"sum_hessian":[5.6840076E1,5.217748E1,4.6625957E0,4.4708725E1,7.468755E0,1.7065564E0,2.956039E0,4.2508152E1,2.2005744E0,4.2960463E0,3.1727087E0,1.7286531E0,1.227386E0],"tree_param":{"num_deleted":"0","num_feature":"3","num_nodes":"13","size_leaf_vector":"1"}},{"base_weights":[-9.040092E-3,-6.633059E-2,2.7852887E-1,4.388855E-2,-5.616313E-2,7.1733826E-1,-2.1374016E-1,-9.261861E-3,1.0292985E-2,-7.3806494E-3,5.3919245E-2,2.6412463E-2,-4.367539E-2],"categories":[],"categories_nodes":[],"categories_segments":[],"categories_sizes":[],"default_left":[0,0,0,0,0,0,0,0,0,0,0,0,0],"id":39,"left_children":[1,3,5,7,-1,9,11,-1,-1,-1,-1,-1,-1],"loss_changes":[9.7025615E-1,5.75537E0,2.2680252E0,1.7199814E0,0E0,1.8472466E0,3.0972407E0,0E0,0E0,0E0,0E0,0E0,0E0],"parents":[2147483647,0,0,1,1,2,2,3,3,5,5,6,6],"right_children":[2,4,6,8,-1,10,12,-1,-1,-1,-1,-1,-1],"split_conditions":[1.1403378E0,9.058216E-1,1.5894388E0,-5.2698606E-1,-5.616313E-2,8.753173E-1,7.389907E-1,-9.261861E-3,1.0292985E-2,-7.3806494E-3,5.3919245E-2,2.6412463E-2,-4.367539E-2],"split_indices":[0,0,0,0,0,1,1,0,0,0,0,0,0],"split_type":[0,0,0,0,0,0,0,0,0,0,0,0,0],"sum_hessian":[5.677135E1,4.7981625E1,8.789728E0,4.4318474E1,3.6631508E0,4.4054737E0,4.384254E0,1.8294819E1,2.6023653E1,1.4714668E0,2.934007E0,2.1573691E0,2.226885E0],"tree_param":{"num_deleted":"0","num_feature":"3","num_nodes":"13","size_leaf_vector":"1"}},{"base_weights":[-9.0330355E-3,-5.289464E-1,2.2267507E-2,-7.138761E-3,-3.4398284E-2,6.268993E-1,-1.5888417E-2,7.731095E-3,4.1131917E-2,-2.7026594E-2,2.913361E-3],"categories":[],"categories_nodes":[],"categories_segments":[],"categories_sizes":[],"default_left":[0,0,0,0,0,0,0,0,0,0,0],"id":40,"left_children":[1,3,5,-1,-1,7,9,-1,-1,-1,-1],"loss_changes":[9.5081663E-1,1.0547185E-1,1.287736E0,0E0,0E0,1.7901516E-1,2.0963445E0,0E0,0E0,0E0,0E0],"parents":[2147483647,0,0,1,1,2,2,5,5,6,6],"right_children":[2,4,6,-1,-1,8,10,-1,-1,-1,-1],"split_conditions":[-1.2657317E0,-1.7464621E0,-1.1311536E0,-7.138761E-3,-3.4398284E-2,-1.650545E0,-7.576768E-1,7.731095E-3,4.1131917E-2,-2.7026594E-2,2.913361E-3],"split_indices":[1,1,2,0,0,2,2,0,0,0,0],"split_type":[0,0,0,0,0,0,0,0,0,0,0],"sum_hessian":[5.6703274E1,2.317063E0,5.438621E1,1.2293906E0,1.0876726E0,2.3124475E0,5.2073765E1,1.202062E0,1.1103854E0,5.6699934E0,4.640377E1],"tree_param":{"num_deleted":"0","num_feature":"3","num_nodes":"11","size_leaf_vector":"1"}},{"base_weights":[-8.879868E-3,3.7961308E-2,-3.4969485E-1,-1.247277E-2,7.0232433E-1,9.715315E-3,-6.405246E-1,3.67052E-3,-1.9297108E-2,4.925665E-2,3.8884599E-3,-5.7245564E-2,1.4914023E-2],"categories":[],"categories_nodes":[],"categories_segments":[],"categories_sizes":[],"default_left":[0,0,0,0,0,0,0,0,0,0,0,0,0],"id":41,"left_children":[1,3,5,7,9,-1,11,-1,-1,-1,-1,-1,-1],"loss_changes":[9.3372583E-1,1.7374468E0,1.2421851E0,1.5979046E0,5.6944025E-1,0E0,2.6316204E0,0E0,0E0,0E0,0E0,0E0,0E0],"parents":[2147483647,0,0,1,1,2,2,3,3,4,4,6,6],"right_children":[2,4,6,8,10,-1,12,-1,-1,-1,-1,-1,-1],"split_conditions":[1.4920948E0,1.2364521E0,2.254938E-1,9.058216E-1,5.0445896E-1,9.715315E-3,1.1292558E0,3.67052E-3,-1.9297108E-2,4.925665E-2,3.8884599E-3,-5.7245564E-2,1.4914023E-2],"split_indices":[1,1,0,0,2,0,0,0,0,0,0,0,0],"split_type":[0,0,0,0,0,0,0,0,0,0,0,0,0],"sum_hessian":[5.6657276E1,5.059252E1,6.0647554E0,4.793485E1,2.6576731E0,2.2283971E0,3.8363583E0,3.96259E1,8.30895E0,1.4319346E0,1.2257386E0,2.352762E0,1.4835964E0],"tree_param":{"num_deleted":"0","num_feature":"3","num_nodes":"13","size_leaf_vector":"1"}},{"base_weights":[-8.364387E-3,-5.204308E-1,2.2333177E-2,-7.044129E-3,-3.3885214E-2,5.3306836E-1,-2.116498E-2,4.3985415E-2,2.5117693E-3,-2.3424424E-2,2.192027E-3],"categories":[],"categories_nodes":[],"categories_segments":[],"categories_sizes":[],"default_left":[0,0,0,0,0,0,0,0,0,0,0],"id":42,"left_children":[1,3,5,-1,-1,7,9,-1,-1,-1,-1],"loss_changes":[9.172038E-1,1.0147625E-1,1.2400615E0,0E0,0E0,6.887413E-1,1.5306232E0,0E0,0E0,0E0,0E0],"parents":[2147483647,0,0,1,1,2,2,5,5,6,6],"right_children":[2,4,6,-1,-1,8,10,-1,-1,-1,-1],"split_conditions":[-1.2657317E0,-1.7464621E0,-1.0366421E0,-7.044129E-3,-3.3885214E-2,-4.1804954E-1,-6.494176E-1,4.3985415E-2,2.5117693E-3,-2.3424424E-2,2.192027E-3],"split_indices":[1,1,1,0,0,2,1,0,0,0,0],"split_type":[0,0,0,0,0,0,0,0,0,0,0],"sum_hessian":[5.6609894E1,2.2994385E0,5.4310455E1,1.2290797E0,1.0703589E0,3.3791444E0,5.093131E1,1.48852E0,1.8906244E0,5.6747384E0,4.525657E1],"tree_param":{"num_deleted":"0","num_feature":"3","num_nodes":"11","size_leaf_vector":"1"}},{"base_weights":[-8.219603E-3,-6.3190304E-2,2.675538E-1,4.1215975E-2,-5.3277906E-2,6.884824E-1,-2.0271902E-1,-8.775878E-3,9.722534E-3,-6.5768063E-3,5.162735E-2,2.5919674E-2,-4.214206E-2],"categories":[],"categories_nodes":[],"categories_segments":[],"categories_sizes":[],"default_left":[0,0,0,0,0,0,0,0,0,0,0,0,0],"id":43,"left_children":[1,3,5,7,-1,9,11,-1,-1,-1,-1,-1,-1],"loss_changes":[8.8954103E-1,5.1515694E0,2.0712402E0,1.5340796E0,0E0,1.6528175E0,2.9210434E0,0E0,0E0,0E0,0E0,0E0,0E0],"parents":[2147483647,0,0,1,1,2,2,3,3,5,5,6,6],"right_children":[2,4,6,8,-1,10,12,-1,-1,-1,-1,-1,-1],"split_conditions":[1.1403378E0,9.058216E-1,1.5894388E0,-5.2698606E-1,-5.3277906E-2,8.753173E-1,7.389907E-1,-8.775878E-3,9.722534E-3,-6.5768063E-3,5.162735E-2,2.5919674E-2,-4.214206E-2],"split_indices":[0,0,0,0,0,1,1,0,0,0,0,0,0],"split_type":[0,0,0,0,0,0,0,0,0,0,0,0,0],"sum_hessian":[5.656368E1,4.7805363E1,8.758318E0,4.4164124E1,3.6412385E0,4.376776E0,4.3815417E0,1.823182E1,2.5932304E1,1.4762022E0,2.9005742E0,2.1498504E0,2.2316916E0],"tree_param":{"num_deleted":"0","num_feature":"3","num_nodes":"13","size_leaf_vector":"1"}},{"base_weights":[-8.21774E-3,3.755501E-2,-3.428669E-1,-1.0827887E-2,6.779224E-1,9.037908E-3,-6.2451833E-1,1.8015715E-3,-3.164147E-2,4.721088E-2,4.3100836E-3,-5.5494454E-2,1.3858263E-2],"categories":[],"categories_nodes":[],"categories_segments":[],"categories_sizes":[],"default_left":[0,0,0,0,0,0,0,0,0,0,0,0,0],"id":44,"left_children":[1,3,5,7,9,-1,11,-1,-1,-1,-1,-1,-1],"loss_changes":[8.933832E-1,1.6019484E0,1.1474688E0,1.4462119E0,4.9077964E-1,0E0,2.402206E0,0E0,0E0,0E0,0E0,0E0,0E0],"parents":[2147483647,0,0,1,1,2,2,3,3,4,4,6,6],"right_children":[2,4,6,8,10,-1,12,-1,-1,-1,-1,-1,-1],"split_conditions":[1.4920948E0,1.2364521E0,2.254938E-1,1.0497813E0,5.0445896E-1,9.037908E-3,1.1292558E0,1.8015715E-3,-3.164147E-2,4.721088E-2,4.3100836E-3,-5.5494454E-2,1.3858263E-2],"split_indices":[1,1,0,1,2,0,0,0,0,0,0,0,0],"split_type":[0,0,0,0,0,0,0,0,0,0,0,0,0],"sum_hessian":[5.648255E1,5.0467472E1,6.0150785E0,4.78363E1,2.6311755E0,2.2291086E0,3.7859697E0,4.5361034E1,2.4752624E0,1.4037321E0,1.2274433E0,2.3110425E0,1.4749273E0],"tree_param":{"num_deleted":"0","num_feature":"3","num_nodes":"13","size_leaf_vector":"1"}},{"base_weights":[-8.013748E-3,1.4571635E-1,-1.05885126E-1,-4.2935628E-1,4.406787E-1,8.737547E-1,-2.0989338E-1,-4.479265E-2,9.963007E-4,3.600314E-2,-2.7692989E-2,1.1203821E-2,5.4151375E-2,-3.7036676E-2,-3.0399871E-5],"categories":[],"categories_nodes":[],"categories_segments":[],"categories_sizes":[],"default_left":[0,0,0,0,0,0,0,0,0,0,0,0,0,0,0],"id":45,"left_children":[1,3,5,7,9,11,13,-1,-1,-1,-1,-1,-1,-1,-1],"loss_changes":[8.7941855E-1,4.049602E0,3.8173869E0,1.7411205E0,4.715697E0,2.4906826E-1,3.671168E0,0E0,0E0,0E0,0E0,0E0,0E0,0E0,0E0],"parents":[2147483647,0,0,1,1,2,2,3,3,4,4,5,5,6,6],"right_children":[2,4,6,8,10,12,14,-1,-1,-1,-1,-1,-1,-1,-1],"split_conditions":[-3.0264583E-1,-1.0615684E0,-1.56E0,-8.1496894E-1,7.9813075E-1,-9.655351E-1,2.3824655E-2,-4.479265E-2,9.963007E-4,3.600314E-2,-2.7692989E-2,1.1203821E-2,5.4151375E-2,-3.7036676E-2,-3.0399871E-5],"split_indices":[2,0,0,2,1,1,2,0,0,0,0,0,0,0,0],"split_type":[0,0,0,0,0,0,0,0,0,0,0,0,0,0,0],"sum_hessian":[5.6424046E1,2.1758434E1,3.466561E1,7.222152E0,1.4536283E1,2.6168673E0,3.2048744E1,3.0555565E0,4.1665955E0,1.15637865E1,2.9724958E0,1.142077E0,1.4747903E0,8.344377E0,2.3704369E1],"tree_param":{"num_deleted":"0","num_feature":"3","num_nodes":"15","size_leaf_vector":"1"}},{"base_weights":[-7.7260057E-3,3.197996E-2,-3.7807578E-1,-3.9297577E-2,4.1475073E-1,1.7211976E-2,-7.774695E-1,1.327101E-3,-4.6213582E-2,4.642312E-2,-1.6782759E-2,-5.9836753E-2,4.0528234E-3],"categories":[],"categories_nodes":[],"categories_segments":[],"categories_sizes":[],"default_left":[0,0,0,0,0,0,0,0,0,0,0,0,0],"id":46,"left_children":[1,3,5,7,9,-1,11,-1,-1,-1,-1,-1,-1],"loss_changes":[8.5548896E-1,1.4547247E0,1.8922942E0,2.6674616E0,3.5355334E0,0E0,1.5128062E0,0E0,0E0,0E0,0E0,0E0,0E0],"parents":[2147483647,0,0,1,1,2,2,3,3,4,4,6,6],"right_children":[2,4,6,8,10,-1,12,-1,-1,-1,-1,-1,-1],"split_conditions":[1.2646013E0,4.7818252E-1,2.1524881E-1,3.6422467E-1,1.0169054E0,1.7211976E-2,1.7129004E0,1.327101E-3,-4.6213582E-2,4.642312E-2,-1.6782759E-2,-5.9836753E-2,4.0528234E-3],"split_indices":[2,2,0,2,1,0,2,0,0,0,0,0,0],"split_type":[0,0,0,0,0,0,0,0,0,0,0,0,0],"sum_hessian":[5.6354137E1,5.1722507E1,4.631628E0,4.435946E1,7.3630486E0,1.698299E0,2.9333289E0,4.2190605E1,2.168855E0,4.2300014E0,3.133047E0,1.7061704E0,1.2271584E0],"tree_param":{"num_deleted":"0","num_feature":"3","num_nodes":"13","size_leaf_vector":"1"}},{"base_weights":[-8.278941E-3,-5.0685513E-1,2.152226E-2,-6.713304E-3,-3.3223182E-2,3.9259893E-1,-3.963217E-2,-6.656658E-3,5.1419582E-2,-2.4420206E-2,3.9791786E-3],"categories":[],"categories_nodes":[],"categories_segments":[],"categories_sizes":[],"default_left":[0,0,0,0,0,0,0,0,0,0,0],"id":47,"left_children":[1,3,5,-1,-1,7,9,-1,-1,-1,-1],"loss_changes":[8.618947E-1,1.0287219E-1,1.2637392E0,0E0,0E0,2.768784E0,2.6138077E0,0E0,0E0,0E0,0E0],"parents":[2147483647,0,0,1,1,2,2,5,5,6,6],"right_children":[2,4,6,-1,-1,8,10,-1,-1,-1,-1],"split_conditions":[-1.2657317E0,-1.7464621E0,-1.5021985E0,-6.713304E-3,-3.3223182E-2,-3.8781577E-1,-5.2698606E-1,-6.656658E-3,5.1419582E-2,-2.4420206E-2,3.9791786E-3],"split_indices":[1,1,0,0,0,2,0,0,0,0,0],"split_type":[0,0,0,0,0,0,0,0,0,0,0],"sum_hessian":[5.6273952E1,2.2710612E0,5.400289E1,1.2256056E0,1.0454556E0,6.8738036E0,4.712909E1,4.195325E0,2.6784787E0,9.241998E0,3.788709E1],"tree_param":{"num_deleted":"0","num_feature":"3","num_nodes":"11","size_leaf_vector":"1"}},{"base_weights":[-8.14272E-3,1.4122337E-1,-1.0310249E-1,-4.0871587E-1,4.235535E-1,8.2047784E-1,-2.0029843E-1,-4.291178E-2,1.057347E-3,3.4731496E-2,-2.6767304E-2,9.978825E-3,5.1275738E-2,-3.5255905E-2,-2.3055674E-5],"categories":[],"categories_nodes":[],"categories_segments":[],"categories_sizes":[],"default_left":[0,0,0,0,0,0,0,0,0,0,0,0,0,0,0],"id":48,"left_children":[1,3,5,7,9,11,13,-1,-1,-1,-1,-1,-1,-1,-1],"loss_changes":[8.261092E-1,3.6913824E0,3.3562176E0,1.6018386E0,4.3915176E0,2.5132966E-1,3.3262525E0,0E0,0E0,0E0,0E0,0E0,0E0,0E0,0E0],"parents":[2147483647,0,0,1,1,2,2,3,3,4,4,5,5,6,6],"right_children":[2,4,6,8,10,12,14,-1,-1,-1,-1,-1,-1,-1,-1],"split_conditions":[-3.0264583E-1,-1.0615684E0,-1.56E0,-8.1496894E-1,7.9813075E-1,-9.655351E-1,2.3824655E-2,-4.291178E-2,1.057347E-3,3.4731496E-2,-2.6767304E-2,9.978825E-3,5.1275738E-2,-3.5255905E-2,-2.3055674E-5],"split_indices":[2,0,0,2,1,1,2,0,0,0,0,0,0,0,0],"split_type":[0,0,0,0,0,0,0,0,0,0,0,0,0,0,0],"sum_hessian":[5.6216717E1,2.1659857E1,3.455686E1,7.1958003E0,1.4464056E1,2.5818627E0,3.1974997E1,3.030347E0,4.1654534E0,1.1491157E1,2.9728987E0,1.1308234E0,1.4510393E0,8.350895E0,2.3624102E1],"tree_param":{"num_deleted":"0","num_feature":"3","num_nodes":"15","size_leaf_vector":"1"}},{"base_weights":[-7.865223E-3,-6.13251E-2,2.6010835E-1,3.6299065E-2,-5.0079882E-2,6.6139805E-1,-1.8852636E-1,-8.236467E-3,8.932251E-3,-6.6853003E-3,4.9962137E-2,2.4710584E-2,-3.9482664E-2],"categories":[],"categories_nodes":[],"categories_segments":[],"categories_sizes":[],"default_left":[0,0,0,0,0,0,0,0,0,0,0,0,0],"id":49,"left_children":[1,3,5,7,-1,9,11,-1,-1,-1,-1,-1,-1],"loss_changes":[8.343993E-1,4.4826674E0,1.8696804E0,1.3127574E0,0E0,1.5675333E0,2.5878234E0,0E0,0E0,0E0,0E0,0E0,0E0],"parents":[2147483647,0,0,1,1,2,2,3,3,5,5,6,6],"right_children":[2,4,6,8,-1,10,12,-1,-1,-1,-1,-1,-1],"split_conditions":[1.1403378E0,9.058216E-1,1.5894388E0,-5.2698606E-1,-5.0079882E-2,8.753173E-1,7.389907E-1,-8.236467E-3,8.932251E-3,-6.6853003E-3,4.9962137E-2,2.4710584E-2,-3.9482664E-2],"split_indices":[0,0,0,0,0,1,1,0,0,0,0,0,0],"split_type":[0,0,0,0,0,0,0,0,0,0,0,0,0],"sum_hessian":[5.613092E1,4.7438286E1,8.692635E0,4.3847225E1,3.5910606E0,4.3380966E0,4.354538E0,1.8111696E1,2.573553E1,1.4738014E0,2.8642952E0,2.122143E0,2.232395E0],"tree_param":{"num_deleted":"0","num_feature":"3","num_nodes":"13","size_leaf_vector":"1"}},{"base_weights":[-7.842806E-3,-4.8891327E-1,2.0763373E-2,-6.080178E-3,-3.2553013E-2,3.848078E-1,-3.92E-2,-5.4712794E-3,4.9135134E-2,-2.3003759E-2,3.6455716E-3],"categories":[],"categories_nodes":[],"categories_segments":[],"categories_sizes":[],"default_left":[0,0,0,0,0,0,0,0,0,0,0],"id":50,"left_children":[1,3,5,-1,-1,7,9,-1,-1,-1,-1],"loss_changes":[7.9508024E-1,1.1391872E-1,1.2112361E0,0E0,0E0,2.4247441E0,2.2962477E0,0E0,0E0,0E0,0E0],"parents":[2147483647,0,0,1,1,2,2,5,5,6,6],"right_children":[2,4,6,-1,-1,8,10,-1,-1,-1,-1],"split_conditions":[-1.2657317E0,-1.7464621E0,-1.5021985E0,-6.080178E-3,-3.2553013E-2,-3.8781577E-1,-5.2698606E-1,-5.4712794E-3,4.9135134E-2,-2.3003759E-2,3.6455716E-3],"split_indices":[1,1,0,0,0,2,0,0,0,0,0],"split_type":[0,0,0,0,0,0,0,0,0,0,0],"sum_hessian":[5.603766E1,2.2420416E0,5.3795616E1,1.2225566E0,1.0194851E0,6.8416724E0,4.6953945E1,4.1927953E0,2.6488771E0,9.223703E0,3.773024E1],"tree_param":{"num_deleted":"0","num_feature":"3","num_nodes":"11","size_leaf_vector":"1"}},{"base_weights":[-7.706611E-3,1.3856587E-1,-1.004632E-1,-3.816217E-1,4.058738E-1,7.8254133E-1,-1.9264196E-1,-4.085651E-2,1.4692182E-3,3.34342E-2,-2.5875363E-2,9.324963E-3,4.904969E-2,-3.071442E-2,1.666205E-3],"categories":[],"categories_nodes":[],"categories_segments":[],"categories_sizes":[],"default_left":[0,0,0,0,0,0,0,0,0,0,0,0,0,0,0],"id":51,"left_children":[1,3,5,7,9,11,13,-1,-1,-1,-1,-1,-1,-1,-1],"loss_changes":[7.869442E-1,3.2876668E0,3.0357952E0,1.4851483E0,4.075191E0,2.3672366E-1,3.1548538E0,0E0,0E0,0E0,0E0,0E0,0E0,0E0,0E0],"parents":[2147483647,0,0,1,1,2,2,3,3,4,4,5,5,6,6],"right_children":[2,4,6,8,10,12,14,-1,-1,-1,-1,-1,-1,-1,-1],"split_conditions":[-3.0264583E-1,-1.0615684E0,-1.56E0,-8.1496894E-1,7.9813075E-1,-9.655351E-1,2.0424895E-1,-4.085651E-2,1.4692182E-3,3.34342E-2,-2.5875363E-2,9.324963E-3,4.904969E-2,-3.071442E-2,1.666205E-3],"split_indices":[2,0,0,2,1,1,1,0,0,0,0,0,0,0,0],"split_type":[0,0,0,0,0,0,0,0,0,0,0,0,0,0,0],"sum_hessian":[5.597512E1,2.1529816E1,3.4445305E1,7.1629324E0,1.4366884E1,2.5479958E0,3.1897308E1,2.9980397E0,4.1648927E0,1.1398504E1,2.9683802E0,1.1209738E0,1.427022E0,1.0530042E1,2.1367268E1],"tree_param":{"num_deleted":"0","num_feature":"3","num_nodes":"15","size_leaf_vector":"1"}},{"base_weights":[-7.3539037E-3,8.403874E-2,-1.5356354E-1,-8.5994184E-2,7.145676E-1,-4.2732748E-1,2.4824892E-1,-9.149766E-3,2.2298224E-2,-1.6157625E-2,4.8025176E-2,6.1753625E-3,-4.2124968E-2,4.9666293E-2,-1.6563766E-4],"categories":[],"categories_nodes":[],"categories_segments":[],"categories_sizes":[],"default_left":[0,0,0,0,0,0,0,0,0,0,0,0,0,0,0],"id":52,"left_children":[1,3,5,7,9,11,13,-1,-1,-1,-1,-1,-1,-1,-1],"loss_changes":[7.7306265E-1,3.883749E0,2.551993E0,1.576611E0,2.270338E0,3.2124891E0,1.8106875E0,0E0,0E0,0E0,0E0,0E0,0E0,0E0,0E0],"parents":[2147483647,0,0,1,1,2,2,3,3,4,4,5,5,6,6],"right_children":[2,4,6,8,10,12,14,-1,-1,-1,-1,-1,-1,-1,-1],"split_conditions":[3.8837868E-1,7.566499E-2,1.1403378E0,2.2401787E-1,-7.5385606E-1,2.5304645E-1,1.2061266E0,-9.149766E-3,2.2298224E-2,-1.6157625E-2,4.8025176E-2,6.1753625E-3,-4.2124968E-2,4.9666293E-2,-1.6563766E-4],"split_indices":[0,0,0,2,1,2,0,0,0,0,0,0,0,0,0],"split_type":[0,0,0,0,0,0,0,0,0,0,0,0,0,0,0],"sum_hessian":[5.5887424E1,3.465224E1,2.1235188E1,2.7972572E1,6.679668E0,1.2592281E1,8.642906E0,2.4213337E1,3.7592347E0,1.2196053E0,5.4600625E0,5.7138596E0,6.8784213E0,1.437291E0,7.2056146E0],"tree_param":{"num_deleted":"0","num_feature":"3","num_nodes":"15","size_leaf_vector":"1"}},{"base_weights":[-5.941121E-3,3.7041288E-2,-3.2139406E-1,-1.0404806E-2,6.626498E-1,8.476584E-3,-5.906401E-1,1.7029949E-3,-2.978589E-2,4.542109E-2,5.193615E-3,-5.2602585E-2,1.2702952E-2],"categories":[],"categories_nodes":[],"categories_segments":[],"categories_sizes":[],"default_left":[0,0,0,0,0,0,0,0,0,0,0,0,0],"id":53,"left_children":[1,3,5,7,9,-1,11,-1,-1,-1,-1,-1,-1],"loss_changes":[7.820007E-1,1.5172108E0,1.014045E0,1.2768075E0,4.0035367E-1,0E0,2.0945454E0,0E0,0E0,0E0,0E0,0E0,0E0],"parents":[2147483647,0,0,1,1,2,2,3,3,4,4,6,6],"right_children":[2,4,6,8,10,-1,12,-1,-1,-1,-1,-1,-1],"split_conditions":[1.4920948E0,1.2364521E0,2.254938E-1,1.0497813E0,5.0445896E-1,8.476584E-3,1.1292558E0,1.7029949E-3,-2.978589E-2,4.542109E-2,5.193615E-3,-5.2602585E-2,1.2702952E-2],"split_indices":[1,1,0,1,2,0,0,0,0,0,0,0,0],"split_type":[0,0,0,0,0,0,0,0,0,0,0,0,0],"sum_hessian":[5.579623E1,4.988207E1,5.914162E0,4.7279747E1,2.6023233E0,2.2259169E0,3.6882453E0,4.481693E1,2.4628165E0,1.3727874E0,1.2295358E0,2.226538E0,1.4617072E0],"tree_param":{"num_deleted":"0","num_feature":"3","num_nodes":"13","size_leaf_vector":"1"}},{"base_weights":[-5.81712E-3,4.1831368E-1,-3.704159E-2,-9.90747E-3,3.7921987E-2,-5.444452E-1,3.6558133E-2,-8.801219E-3,-4.2932793E-2,4.5302045E-2,-2.3811364E-3],"categories":[],"categories_nodes":[],"categories_segments":[],"categories_sizes":[],"default_left":[0,0,0,0,0,0,0,0,0,0,0],"id":54,"left_children":[1,3,5,-1,-1,7,9,-1,-1,-1,-1],"loss_changes":[7.6680255E-1,9.8301095E-1,2.027552E0,0E0,0E0,6.4449215E-1,3.548163E0,0E0,0E0,0E0,0E0],"parents":[2147483647,0,0,1,1,2,2,5,5,6,6],"right_children":[2,4,6,-1,-1,8,10,-1,-1,-1,-1],"split_conditions":[-1.1311536E0,-1.7463387E0,-7.576768E-1,-9.90747E-3,3.7921987E-2,-9.4784117E-1,-6.0263985E-1,-8.801219E-3,-4.2932793E-2,4.5302045E-2,-2.3811364E-3],"split_indices":[2,2,2,0,0,2,2,0,0,0,0],"split_type":[0,0,0,0,0,0,0,0,0,0,0],"sum_hessian":[5.5731327E1,2.971508E0,5.275982E1,1.2049729E0,1.7665352E0,5.873051E0,4.688677E1,3.4214804E0,2.4515707E0,3.2769504E0,4.3609818E1],"tree_param":{"num_deleted":"0","num_feature":"3","num_nodes":"11","size_leaf_vector":"1"}},{"base_weights":[-5.1779337E-3,3.2385074E-2,-3.53938E-1,-3.6523815E-2,4.033308E-1,-8.0899423E-1,1.2245747E-2,1.325057E-3,-4.4281363E-2,4.4609062E-2,-1.5482462E-2,-5.061638E-2,-1.24074E-2],"categories":[],"categories_nodes":[],"categories_segments":[],"categories_sizes":[],"default_left":[0,0,0,0,0,0,0,0,0,0,0,0,0],"id":55,"left_children":[1,3,5,7,9,11,-1,-1,-1,-1,-1,-1,-1],"loss_changes":[7.542305E-1,1.3465118E0,1.7232945E0,2.4239137E0,3.1501012E0,1.37954E-1,0E0,0E0,0E0,0E0,0E0,0E0,0E0],"parents":[2147483647,0,0,1,1,2,2,3,3,4,4,5,5],"right_children":[2,4,6,8,10,12,-1,-1,-1,-1,-1,-1,-1],"split_conditions":[1.2646013E0,4.7818252E-1,1.7129004E0,3.6422467E-1,1.0169054E0,1.4377142E0,1.2245747E-2,1.325057E-3,-4.4281363E-2,4.4609062E-2,-1.5482462E-2,-5.061638E-2,-1.24074E-2],"split_indices":[2,2,2,2,1,2,0,0,0,0,0,0,0],"split_type":[0,0,0,0,0,0,0,0,0,0,0,0,0],"sum_hessian":[5.5697796E1,5.110112E1,4.596675E0,4.3855774E1,7.2453475E0,2.4125335E0,2.1841416E0,4.1727337E1,2.1284347E0,4.14916E0,3.0961876E0,1.1797999E0,1.2327335E0],"tree_param":{"num_deleted":"0","num_feature":"3","num_nodes":"13","size_leaf_vector":"1"}},{"base_weights":[-6.0562096E-3,-2.397962E-2,2.1966018E-2,5.221163E-1,-2.0700995E-2,4.2150866E-2,3.602894E-3,-3.8489725E-2,8.6641975E-4],"categories":[],"categories_nodes":[],"categories_segments":[],"categories_sizes":[],"default_left":[0,0,0,0,0,0,0,0,0],"id":56,"left_children":[1,-1,3,5,7,-1,-1,-1,-1],"loss_changes":[7.6179904E-1,0E0,1.1718873E0,5.624187E-1,1.4688818E0,0E0,0E0,0E0,0E0],"parents":[2147483647,0,0,2,2,3,3,4,4],"right_children":[2,-1,4,6,8,-1,-1,-1,-1],"split_conditions":[-1.2657317E0,-2.397962E-2,-1.0366421E0,-4.1804954E-1,-9.805807E-1,4.2150866E-2,3.602894E-3,-3.8489725E-2,8.6641975E-4],"split_indices":[1,0,1,2,1,0,0,0,0],"split_type":[0,0,0,0,0,0,0,0,0],"sum_hessian":[5.5615707E1,2.2069333E0,5.3408775E1,3.3148234E0,5.0093952E1,1.4253739E0,1.8894495E0,1.4905896E0,4.8603363E1],"tree_param":{"num_deleted":"0","num_feature":"3","num_nodes":"9","size_leaf_vector":"1"}},{"base_weights":[-6.033333E-3,4.114736E-1,-3.6628846E-2,-9.135975E-3,3.6915537E-2,-5.2619714E-1,3.451029E-2,-4.205181E-2,-7.905072E-3,4.3617435E-2,-2.3088064E-3],"categories":[],"categories_nodes":[],"categories_segments":[],"categories_sizes":[],"default_left":[0,0,0,0,0,0,0,0,0,0,0],"id":57,"left_children":[1,3,5,-1,-1,7,9,-1,-1,-1,-1],"loss_changes":[7.3766834E-1,9.008693E-1,1.8857595E0,0E0,0E0,6.626314E-1,3.2689126E0,0E0,0E0,0E0,0E0],"parents":[2147483647,0,0,1,1,2,2,5,5,6,6],"right_children":[2,4,6,-1,-1,8,10,-1,-1,-1,-1],"split_conditions":[-1.1311536E0,-1.7463387E0,-7.576768E-1,-9.135975E-3,3.6915537E-2,-1.4838241E-1,-6.0263985E-1,-4.205181E-2,-7.905072E-3,4.3617435E-2,-2.3088064E-3],"split_indices":[2,2,2,0,0,1,2,0,0,0,0],"split_type":[0,0,0,0,0,0,0,0,0,0,0],"sum_hessian":[5.5568474E1,2.944121E0,5.262435E1,1.201226E0,1.7428948E0,5.865078E0,4.6759274E1,2.4687126E0,3.3963654E0,3.245613E0,4.351366E1],"tree_param":{"num_deleted":"0","num_feature":"3","num_nodes":"11","size_leaf_vector":"1"}},{"base_weights":[-5.3858142E-3,-2.334605E-2,2.17542E-2,3.7966648E-1,-3.723231E-2,-4.3136324E-3,4.7108967E-2,-2.2310285E-2,3.5974183E-3],"categories":[],"categories_nodes":[],"categories_segments":[],"categories_sizes":[],"default_left":[0,0,0,0,0,0,0,0,0],"id":58,"left_children":[1,-1,3,5,7,-1,-1,-1,-1],"loss_changes":[7.182293E-1,0E0,1.161444E0,2.1199672E0,2.1559994E0,0E0,0E0,0E0,0E0],"parents":[2147483647,0,0,2,2,3,3,4,4],"right_children":[2,-1,4,6,8,-1,-1,-1,-1],"split_conditions":[-1.2657317E0,-2.334605E-2,-1.5021985E0,-3.8781577E-1,-5.2698606E-1,-4.3136324E-3,4.7108967E-2,-2.2310285E-2,3.5974183E-3],"split_indices":[1,0,0,2,0,0,0,0,0],"split_type":[0,0,0,0,0,0,0,0,0],"sum_hessian":[5.5527847E1,2.183957E0,5.334389E1,6.7783594E0,4.6565533E1,4.1704955E0,2.607864E0,9.161428E0,3.7404102E1],"tree_param":{"num_deleted":"0","num_feature":"3","num_nodes":"9","size_leaf_vector":"1"}},{"base_weights":[-5.103086E-3,4.0893963E-1,-3.5365544E-2,-8.4187435E-3,3.619939E-2,-5.0368875E-1,3.257259E-2,-7.1990886E-3,-4.080188E-2,4.249385E-2,-2.285442E-3],"categories":[],"categories_nodes":[],"categories_segments":[],"categories_sizes":[],"default_left":[0,0,0,0,0,0,0,0,0,0,0],"id":59,"left_children":[1,3,5,-1,-1,7,9,-1,-1,-1,-1],"loss_changes":[7.219565E-1,8.3587563E-1,1.7198492E0,0E0,0E0,6.513989E-1,3.0903795E0,0E0,0E0,0E0,0E0],"parents":[2147483647,0,0,1,1,2,2,5,5,6,6],"right_children":[2,4,6,-1,-1,8,10,-1,-1,-1,-1],"split_conditions":[-1.1311536E0,-1.7463387E0,-7.576768E-1,-8.4187435E-3,3.619939E-2,-9.4784117E-1,-6.0263985E-1,-7.1990886E-3,-4.080188E-2,4.249385E-2,-2.285442E-3],"split_indices":[2,2,2,0,0,2,2,0,0,0,0],"split_type":[0,0,0,0,0,0,0,0,0,0,0],"sum_hessian":[5.5464245E1,2.9254827E0,5.253876E1,1.1972054E0,1.7282773E0,5.8434844E0,4.6695274E1,3.3948612E0,2.448623E0,3.2199898E0,4.3475285E1],"tree_param":{"num_deleted":"0","num_feature":"3","num_nodes":"11","size_leaf_vector":"1"}},{"base_weights":[-4.4844896E-3,3.2165907E-2,-3.436496E-1,-3.4326293E-2,3.905518E-1,1.6971188E-2,-7.285662E-1,1.3449655E-3,-4.299014E-2,4.3345284E-2,-1.4898563E-2,-5.5887867E-2,3.354944E-3],"categories":[],"categories_nodes":[],"categories_segments":[],"categories_sizes":[],"default_left":[0,0,0,0,0,0,0,0,0,0,0,0,0],"id":60,"left_children":[1,3,5,7,9,-1,11,-1,-1,-1,-1,-1,-1],"loss_changes":[7.124309E-1,1.2486408E0,1.7165672E0,2.2793808E0,2.9454274E0,0E0,1.2801988E0,0E0,0E0,0E0,0E0,0E0,0E0],"parents":[2147483647,0,0,1,1,2,2,3,3,4,4,6,6],"right_children":[2,4,6,8,10,-1,12,-1,-1,-1,-1,-1,-1],"split_conditions":[1.2646013E0,4.7818252E-1,2.1524881E-1,3.6422467E-1,1.0169054E0,1.6971188E-2,1.7129004E0,1.3449655E-3,-4.299014E-2,4.3345284E-2,-1.4898563E-2,-5.5887867E-2,3.354944E-3],"split_indices":[2,2,0,2,1,0,2,0,0,0,0,0,0],"split_type":[0,0,0,0,0,0,0,0,0,0,0,0,0],"sum_hessian":[5.542372E1,5.083556E1,4.588161E0,4.3642654E1,7.192907E0,1.6962259E0,2.891935E0,4.15298E1,2.1128523E0,4.0983725E0,3.094534E0,1.6701771E0,1.221758E0],"tree_param":{"num_deleted":"0","num_feature":"3","num_nodes":"13","size_leaf_vector":"1"}},{"base_weights":[-5.1255715E-3,-5.4444283E-2,2.4112026E-1,3.5505235E-2,-4.6381127E-2,4.825599E-2,-2.543902E-3,1.3031736E-2,-3.6685155E-3,-2.3824938E-2,1.724585E-2],"categories":[],"categories_nodes":[],"categories_segments":[],"categories_sizes":[],"default_left":[0,0,0,0,0,0,0,0,0,0,0],"id":61,"left_children":[1,3,5,7,-1,-1,9,-1,-1,-1,-1],"loss_changes":[6.972358E-1,3.7830698E0,1.693138E0,1.1037582E0,0E0,0E0,1.5094346E0,0E0,0E0,0E0,0E0],"parents":[2147483647,0,0,1,1,2,2,3,3,6,6],"right_children":[2,4,6,8,-1,-1,10,-1,-1,-1,-1],"split_conditions":[1.1403378E0,9.058216E-1,1.2061266E0,-5.375022E-1,-4.6381127E-2,4.825599E-2,9.8350525E-2,1.3031736E-2,-3.6685155E-3,-2.3824938E-2,1.724585E-2],"split_indices":[0,0,0,2,0,0,2,0,0,0,0],"split_type":[0,0,0,0,0,0,0,0,0,0,0],"sum_hessian":[5.533057E1,4.674689E1,8.583677E0,4.3250797E1,3.4960964E0,1.4158628E0,7.1678147E0,1.3644091E1,2.9606705E1,2.874911E0,4.2929034E0],"tree_param":{"num_deleted":"0","num_feature":"3","num_nodes":"11","size_leaf_vector":"1"}},{"base_weights":[-4.7905394E-3,-2.3177011E-2,2.216426E-2,5.038834E-1,-1.8617548E-2,4.076448E-2,3.6453877E-3,-3.726818E-2,9.177254E-4],"categories":[],"categories_nodes":[],"categories_segments":[],"categories_sizes":[],"default_left":[0,0,0,0,0,0,0,0,0],"id":62,"left_children":[1,-1,3,5,7,-1,-1,-1,-1],"loss_changes":[7.062621E-1,0E0,1.0724989E0,5.1220727E-1,1.3801461E0,0E0,0E0,0E0,0E0],"parents":[2147483647,0,0,2,2,3,3,4,4],"right_children":[2,-1,4,6,8,-1,-1,-1,-1],"split_conditions":[-1.2657317E0,-2.3177011E-2,-1.0366421E0,-4.1804954E-1,-9.805807E-1,4.076448E-2,3.6453877E-3,-3.726818E-2,9.177254E-4],"split_indices":[1,0,1,2,1,0,0,0,0],"split_type":[0,0,0,0,0,0,0,0,0],"sum_hessian":[5.528464E1,2.1692224E0,5.311542E1,3.2594032E0,4.9856018E1,1.3745075E0,1.8848957E0,1.4860036E0,4.8370014E1],"tree_param":{"num_deleted":"0","num_feature":"3","num_nodes":"9","size_leaf_vector":"1"}},{"base_weights":[-4.819097E-3,3.0716352E-2,-3.3442292E-1,-2.6053348E-1,1.1153296E-1,1.653875E-2,-7.1119374E-1,1.865602E-2,-3.306962E-2,1.4466514E-2,-5.3827143E-3,-5.4180134E-2,2.718439E-3],"categories":[],"categories_nodes":[],"categories_segments":[],"categories_sizes":[],"default_left":[0,0,0,0,0,0,0,0,0,0,0,0,0],"id":63,"left_children":[1,3,5,7,9,-1,11,-1,-1,-1,-1,-1,-1],"loss_changes":[6.689538E-1,1.245488E0,1.6280086E0,3.1742322E0,1.634982E0,0E0,1.1608747E0,0E0,0E0,0E0,0E0,0E0,0E0],"parents":[2147483647,0,0,1,1,2,2,3,3,4,4,6,6],"right_children":[2,4,6,8,10,-1,12,-1,-1,-1,-1,-1,-1],"split_conditions":[1.2646013E0,-6.494176E-1,2.1524881E-1,-5.0915104E-1,7.095749E-1,1.653875E-2,1.7129004E0,1.865602E-2,-3.306962E-2,1.4466514E-2,-5.3827143E-3,-5.4180134E-2,2.718439E-3],"split_indices":[2,1,0,2,1,0,2,0,0,0,0,0,0],"split_type":[0,0,0,0,0,0,0,0,0,0,0,0,0],"sum_hessian":[5.523692E1,5.0679806E1,4.557114E0,1.0525144E1,4.015466E1,1.6919734E0,2.8651407E0,4.105156E0,6.4199877E0,2.199392E1,1.8160742E1,1.6480238E0,1.2171168E0],"tree_param":{"num_deleted":"0","num_feature":"3","num_nodes":"13","size_leaf_vector":"1"}},{"base_weights":[-5.299838E-3,-5.3316113E-2,2.3444061E-1,3.2769125E-2,-4.470492E-2,4.722402E-2,-3.3031928E-3,-4.373794E-3,1.2013675E-2,-2.3241669E-2,1.681086E-2],"categories":[],"categories_nodes":[],"categories_segments":[],"categories_sizes":[],"default_left":[0,0,0,0,0,0,0,0,0,0,0],"id":64,"left_children":[1,3,5,7,-1,-1,9,-1,-1,-1,-1],"loss_changes":[6.591651E-1,3.4757578E0,1.6167554E0,1.1228448E0,0E0,0E0,1.4345932E0,0E0,0E0,0E0,0E0],"parents":[2147483647,0,0,1,1,2,2,3,3,6,6],"right_children":[2,4,6,8,-1,-1,10,-1,-1,-1,-1],"split_conditions":[1.1403378E0,9.058216E-1,1.2061266E0,7.566499E-2,-4.470492E-2,4.722402E-2,9.8350525E-2,-4.373794E-3,1.2013675E-2,-2.3241669E-2,1.681086E-2],"split_indices":[0,0,0,0,0,0,2,0,0,0,0],"split_type":[0,0,0,0,0,0,0,0,0,0,0],"sum_hessian":[5.5175903E1,4.661688E1,8.559025E0,4.315898E1,3.4578965E0,1.4012889E0,7.157736E0,2.7690992E1,1.5467988E1,2.8773267E0,4.2804093E0],"tree_param":{"num_deleted":"0","num_feature":"3","num_nodes":"11","size_leaf_vector":"1"}},{"base_weights":[-4.973521E-3,3.456777E-2,-2.9731804E-1,-1.2723165E-2,6.5575886E-1,8.860591E-3,-5.66399E-1,1.4606947E-3,-2.796027E-2,4.4304762E-2,5.919813E-3,-5.0078806E-2,1.10626165E-2],"categories":[],"categories_nodes":[],"categories_segments":[],"categories_sizes":[],"default_left":[0,0,0,0,0,0,0,0,0,0,0,0,0],"id":65,"left_children":[1,3,5,7,9,-1,11,-1,-1,-1,-1,-1,-1],"loss_changes":[6.588917E-1,1.4866046E0,9.6726185E-1,1.1104796E0,3.380674E-1,0E0,1.7883162E0,0E0,0E0,0E0,0E0,0E0,0E0],"parents":[2147483647,0,0,1,1,2,2,3,3,4,4,6,6],"right_children":[2,4,6,8,10,-1,12,-1,-1,-1,-1,-1,-1],"split_conditions":[1.4920948E0,1.2364521E0,2.254938E-1,1.0497813E0,5.0445896E-1,8.860591E-3,1.1292558E0,1.4606947E-3,-2.796027E-2,4.4304762E-2,5.919813E-3,-5.0078806E-2,1.10626165E-2],"split_indices":[1,1,0,1,2,0,0,0,0,0,0,0,0],"split_type":[0,0,0,0,0,0,0,0,0,0,0,0,0],"sum_hessian":[5.5110043E1,4.9320866E1,5.7891765E0,4.6741947E1,2.5789204E0,2.2184002E0,3.5707762E0,4.4289696E1,2.4522502E0,1.3508977E0,1.2280228E0,2.1250746E0,1.4457016E0],"tree_param":{"num_deleted":"0","num_feature":"3","num_nodes":"13","size_leaf_vector":"1"}},{"base_weights":[-4.8555704E-3,3.0162845E-2,-3.311395E-1,-9.514458E-2,2.246441E-1,1.5859392E-2,-6.991457E-1,1.9068562E-3,-4.0904526E-2,-9.539227E-3,2.3124887E-2,-5.270474E-2,1.8828036E-3],"categories":[],"categories_nodes":[],"categories_segments":[],"categories_sizes":[],"default_left":[0,0,0,0,0,0,0,0,0,0,0,0,0],"id":66,"left_children":[1,3,5,7,9,-1,11,-1,-1,-1,-1,-1,-1],"loss_changes":[6.5032333E-1,1.2770824E0,1.5376347E0,3.1183202E0,2.112689E0,0E0,1.0414233E0,0E0,0E0,0E0,0E0,0E0,0E0],"parents":[2147483647,0,0,1,1,2,2,3,3,4,4,6,6],"right_children":[2,4,6,8,10,-1,12,-1,-1,-1,-1,-1,-1],"split_conditions":[1.2646013E0,3.091962E-2,2.1524881E-1,-8.2263954E-2,2.6765168E-1,1.5859392E-2,1.7129004E0,1.9068562E-3,-4.0904526E-2,-9.539227E-3,2.3124887E-2,-5.270474E-2,1.8828036E-3],"split_indices":[2,2,0,2,1,0,2,0,0,0,0,0,0],"split_type":[0,0,0,0,0,0,0,0,0,0,0,0,0],"sum_hessian":[5.50422E1,5.052695E1,4.515247E0,3.1038876E1,1.9488073E1,1.6849362E0,2.8303108E0,2.7007114E1,4.031761E0,7.167466E0,1.2320607E1,1.619495E0,1.2108159E0],"tree_param":{"num_deleted":"0","num_feature":"3","num_nodes":"13","size_leaf_vector":"1"}},{"base_weights":[-5.6991624E-3,3.3537142E-2,-2.9700232E-1,-1.1745078E-2,6.331151E-1,8.085892E-3,-5.574624E-1,1.4782607E-3,-2.7498161E-2,4.2908456E-2,5.6685726E-3,-4.9088653E-2,1.0390153E-2],"categories":[],"categories_nodes":[],"categories_segments":[],"categories_sizes":[],"default_left":[0,0,0,0,0,0,0,0,0,0,0,0,0],"id":67,"left_children":[1,3,5,7,9,-1,11,-1,-1,-1,-1,-1,-1],"loss_changes":[6.498808E-1,1.3714706E0,8.963213E-1,1.0766896E0,3.1749642E-1,0E0,1.6745049E0,0E0,0E0,0E0,0E0,0E0,0E0],"parents":[2147483647,0,0,1,1,2,2,3,3,4,4,6,6],"right_children":[2,4,6,8,10,-1,12,-1,-1,-1,-1,-1,-1],"split_conditions":[1.4920948E0,1.2364521E0,2.254938E-1,1.0497813E0,5.0445896E-1,8.085892E-3,1.1292558E0,1.4782607E-3,-2.7498161E-2,4.2908456E-2,5.6685726E-3,-4.9088653E-2,1.0390153E-2],"split_indices":[1,1,0,1,2,0,0,0,0,0,0,0,0],"split_type":[0,0,0,0,0,0,0,0,0,0,0,0,0],"sum_hessian":[5.498769E1,4.9240273E1,5.747416E0,4.669418E1,2.546096E0,2.2187967E0,3.5286193E0,4.4243397E1,2.4507809E0,1.3223615E0,1.2237346E0,2.0879898E0,1.4406294E0],"tree_param":{"num_deleted":"0","num_feature":"3","num_nodes":"13","size_leaf_vector":"1"}},{"base_weights":[-5.5751735E-3,-2.210038E-2,2.0018425E-2,3.7065044E-1,-3.8191155E-2,-4.4347676E-3,4.64049E-2,-2.2003924E-2,3.5053287E-3],"categories":[],"categories_nodes":[],"categories_segments":[],"categories_sizes":[],"default_left":[0,0,0,0,0,0,0,0,0],"id":68,"left_children":[1,-1,3,5,7,-1,-1,-1,-1],"loss_changes":[6.334464E-1,0E0,1.1117564E0,2.0668035E0,2.0776389E0,0E0,0E0,0E0,0E0],"parents":[2147483647,0,0,2,2,3,3,4,4],"right_children":[2,-1,4,6,8,-1,-1,-1,-1],"split_conditions":[-1.2657317E0,-2.210038E-2,-1.5021985E0,-3.8781577E-1,-5.2698606E-1,-4.4347676E-3,4.64049E-2,-2.2003924E-2,3.5053287E-3],"split_indices":[1,0,0,2,0,0,0,0,0],"split_type":[0,0,0,0,0,0,0,0,0],"sum_hessian":[5.4918087E1,2.1408699E0,5.2777218E1,6.750044E0,4.6027176E1,4.1616592E0,2.5883846E0,9.119942E0,3.6907234E1],"tree_param":{"num_deleted":"0","num_feature":"3","num_nodes":"9","size_leaf_vector":"1"}},{"base_weights":[-5.2714315E-3,3.9270192E-1,-3.4392264E-2,-8.16094E-3,3.4921627E-2,-5.040036E-1,3.4369297E-2,-4.087567E-2,-7.1145887E-3,4.0302247E-2,-1.9706932E-3],"categories":[],"categories_nodes":[],"categories_segments":[],"categories_sizes":[],"default_left":[0,0,0,0,0,0,0,0,0,0,0],"id":69,"left_children":[1,3,5,-1,-1,7,9,-1,-1,-1,-1],"loss_changes":[6.608139E-1,7.749531E-1,1.7276262E0,0E0,0E0,6.580378E-1,2.71556E0,0E0,0E0,0E0,0E0],"parents":[2147483647,0,0,1,1,2,2,5,5,6,6],"right_children":[2,4,6,-1,-1,8,10,-1,-1,-1,-1],"split_conditions":[-1.1311536E0,-1.7463387E0,-7.576768E-1,-8.16094E-3,3.4921627E-2,-1.4838241E-1,-6.0263985E-1,-4.087567E-2,-7.1145887E-3,4.0302247E-2,-1.9706932E-3],"split_indices":[2,2,2,0,0,1,2,0,0,0,0],"split_type":[0,0,0,0,0,0,0,0,0,0,0],"sum_hessian":[5.4853855E1,2.8888447E0,5.196501E1,1.1904119E0,1.6984329E0,5.8285875E0,4.6136425E1,2.4472961E0,3.3812914E0,3.1602123E0,4.297621E1],"tree_param":{"num_deleted":"0","num_feature":"3","num_nodes":"11","size_leaf_vector":"1"}},{"base_weights":[-4.6939775E-3,3.814991E-1,-3.2866966E-2,-7.941623E-3,3.4010034E-2,-4.8652908E-1,3.3491634E-2,-6.6672075E-3,-3.97103E-2,3.9041292E-2,-1.8741334E-3],"categories":[],"categories_nodes":[],"categories_segments":[],"categories_sizes":[],"default_left":[0,0,0,0,0,0,0,0,0,0,0],"id":70,"left_children":[1,3,5,-1,-1,7,9,-1,-1,-1,-1],"loss_changes":[6.197337E-1,7.332428E-1,1.6098274E0,0E0,0E0,6.3511086E-1,2.5282898E0,0E0,0E0,0E0,0E0],"parents":[2147483647,0,0,1,1,2,2,5,5,6,6],"right_children":[2,4,6,-1,-1,8,10,-1,-1,-1,-1],"split_conditions":[-1.1311536E0,-1.7463387E0,-7.576768E-1,-7.941623E-3,3.4010034E-2,-9.4784117E-1,-6.0263985E-1,-6.6672075E-3,-3.97103E-2,3.9041292E-2,-1.8741334E-3],"split_indices":[2,2,2,0,0,2,2,0,0,0,0],"split_type":[0,0,0,0,0,0,0,0,0,0,0],"sum_hessian":[5.4807274E1,2.8736873E0,5.1933586E1,1.1897551E0,1.6839321E0,5.819133E0,4.6114452E1,3.3765514E0,2.4425814E0,3.1321797E0,4.2982273E1],"tree_param":{"num_deleted":"0","num_feature":"3","num_nodes":"11","size_leaf_vector":"1"}},{"base_weights":[-4.148308E-3,3.3964965E-2,-2.880772E-1,-1.0152104E-2,6.189526E-1,7.849885E-3,-5.431952E-1,1.4992234E-3,-2.660793E-2,4.204992E-2,5.5235936E-3,-4.8059992E-2,1.0103482E-2],"categories":[],"categories_nodes":[],"categories_segments":[],"categories_sizes":[],"default_left":[0,0,0,0,0,0,0,0,0,0,0,0,0],"id":71,"left_children":[1,3,5,7,9,-1,11,-1,-1,-1,-1,-1,-1],"loss_changes":[6.131971E-1,1.2981274E0,8.465737E-1,1.0117763E0,3.0524576E-1,0E0,1.5917343E0,0E0,0E0,0E0,0E0,0E0,0E0],"parents":[2147483647,0,0,1,1,2,2,3,3,4,4,6,6],"right_children":[2,4,6,8,10,-1,12,-1,-1,-1,-1,-1,-1],"split_conditions":[1.4920948E0,1.2364521E0,2.254938E-1,1.0497813E0,5.0445896E-1,7.849885E-3,1.1292558E0,1.4992234E-3,-2.660793E-2,4.204992E-2,5.5235936E-3,-4.8059992E-2,1.0103482E-2],"split_indices":[1,1,0,1,2,0,0,0,0,0,0,0,0],"split_type":[0,0,0,0,0,0,0,0,0,0,0,0,0],"sum_hessian":[5.4760735E1,4.9056057E1,5.7046785E0,4.652965E1,2.5264063E0,2.2186546E0,3.4860237E0,4.4082733E1,2.4469192E0,1.3033221E0,1.2230843E0,2.047742E0,1.4382818E0],"tree_param":{"num_deleted":"0","num_feature":"3","num_nodes":"13","size_leaf_vector":"1"}},{"base_weights":[-4.093347E-3,3.0057829E-2,-3.2224548E-1,-3.4610823E-2,3.8190433E-1,1.5526545E-2,-6.837542E-1,1.27036E-3,-4.242432E-2,4.176126E-2,-1.3894525E-2,-5.141024E-2,1.522716E-3],"categories":[],"categories_nodes":[],"categories_segments":[],"categories_sizes":[],"default_left":[0,0,0,0,0,0,0,0,0,0,0,0,0],"id":72,"left_children":[1,3,5,7,9,-1,11,-1,-1,-1,-1,-1,-1],"loss_changes":[6.1476946E-1,1.1783303E0,1.4667466E0,2.179265E0,2.6348813E0,0E0,9.6669495E-1,0E0,0E0,0E0,0E0,0E0,0E0],"parents":[2147483647,0,0,1,1,2,2,3,3,4,4,6,6],"right_children":[2,4,6,8,10,-1,12,-1,-1,-1,-1,-1,-1],"split_conditions":[1.2646013E0,4.7818252E-1,2.1524881E-1,3.6422467E-1,1.0169054E0,1.5526545E-2,1.7129004E0,1.27036E-3,-4.242432E-2,4.176126E-2,-1.3894525E-2,-5.141024E-2,1.522716E-3],"split_indices":[2,2,0,2,1,0,2,0,0,0,0,0,0],"split_type":[0,0,0,0,0,0,0,0,0,0,0,0,0],"sum_hessian":[5.468969E1,5.0205986E1,4.4837017E0,4.317259E1,7.0334005E0,1.6814845E0,2.802217E0,4.110979E1,2.0627966E0,4.011417E0,3.0219836E0,1.5938758E0,1.2083414E0],"tree_param":{"num_deleted":"0","num_feature":"3","num_nodes":"13","size_leaf_vector":"1"}},{"base_weights":[-4.747541E-3,-2.196757E-2,2.0689493E-2,4.7473165E-1,-2.262586E-2,4.463416E-2,2.059774E-3,2.8079737E-2,-3.843486E-3],"categories":[],"categories_nodes":[],"categories_segments":[],"categories_sizes":[],"default_left":[0,0,0,0,0,0,0,0,0],"id":73,"left_children":[1,-1,3,5,7,-1,-1,-1,-1],"loss_changes":[6.236455E-1,0E0,1.0623713E0,8.1528795E-1,1.6203812E0,0E0,0E0,0E0,0E0],"parents":[2147483647,0,0,2,2,3,3,4,4],"right_children":[2,-1,4,6,8,-1,-1,-1,-1],"split_conditions":[-1.2657317E0,-2.196757E-2,-1.0323708E0,-4.802937E-1,-2.020726E0,4.463416E-2,2.059774E-3,2.8079737E-2,-3.843486E-3],"split_indices":[1,0,1,2,0,0,0,0,0],"split_type":[0,0,0,0,0,0,0,0,0],"sum_hessian":[5.459056E1,2.1187415E0,5.247182E1,3.7024055E0,4.8769417E1,1.3458557E0,2.3565497E0,3.348801E0,4.5420616E1],"tree_param":{"num_deleted":"0","num_feature":"3","num_nodes":"9","size_leaf_vector":"1"}},{"base_weights":[-3.6235508E-3,-2.1326562E-2,2.0999666E-2,4.6324378E-1,-2.1002948E-2,4.37689E-2,1.9879544E-3,-3.951187E-2,9.33746E-4],"categories":[],"categories_nodes":[],"categories_segments":[],"categories_sizes":[],"default_left":[0,0,0,0,0,0,0,0,0],"id":74,"left_children":[1,-1,3,5,7,-1,-1,-1,-1],"loss_changes":[5.87504E-1,0E0,1.0026683E0,7.819922E-1,1.5339562E0,0E0,0E0,0E0,0E0],"parents":[2147483647,0,0,2,2,3,3,4,4],"right_children":[2,-1,4,6,8,-1,-1,-1,-1],"split_conditions":[-1.2657317E0,-2.1326562E-2,-1.0323708E0,-4.802937E-1,-9.6370995E-1,4.37689E-2,1.9879544E-3,-3.951187E-2,9.33746E-4],"split_indices":[1,0,1,2,1,0,0,0,0],"split_type":[0,0,0,0,0,0,0,0,0],"sum_hessian":[5.455822E1,2.103745E0,5.2454475E1,3.679909E0,4.8774567E1,1.3241583E0,2.3557506E0,1.464573E0,4.7309994E1],"tree_param":{"num_deleted":"0","num_feature":"3","num_nodes":"9","size_leaf_vector":"1"}},{"base_weights":[-3.6945944E-3,-9.2740275E-2,1.10966526E-1,9.2245355E-2,-5.710387E-1,4.467277E-2,-1.1971663E-2,-1.0901277E-2,2.4419963E-2,-5.1757287E-2,1.8771238E-3,-2.9453797E-2,1.291469E-2],"categories":[],"categories_nodes":[],"categories_segments":[],"categories_sizes":[],"default_left":[0,0,0,0,0,0,0,0,0,0,0,0,0],"id":75,"left_children":[1,3,5,7,9,-1,11,-1,-1,-1,-1,-1,-1],"loss_changes":[5.771137E-1,2.865686E0,2.388973E0,3.03029E0,2.5825765E0,0E0,3.638539E0,0E0,0E0,0E0,0E0,0E0,0E0],"parents":[2147483647,0,0,1,1,2,2,3,3,4,4,6,6],"right_children":[2,4,6,8,10,-1,12,-1,-1,-1,-1,-1,-1],"split_conditions":[3.091962E-2,7.095749E-1,-7.745967E-1,-4.9053693E-1,9.3745905E-1,4.467277E-2,2.4339688E-1,-1.0901277E-2,2.4419963E-2,-5.1757287E-2,1.8771238E-3,-2.9453797E-2,1.291469E-2],"split_indices":[2,1,0,0,1,0,1,0,0,0,0,0,0],"split_type":[0,0,0,0,0,0,0,0,0,0,0,0,0],"sum_hessian":[5.4516E1,3.0793211E1,2.372279E1,2.2787218E1,8.005994E0,2.3700635E0,2.1352726E1,1.3030932E1,9.756285E0,4.1444783E0,3.861516E0,6.4341383E0,1.4918587E1],"tree_param":{"num_deleted":"0","num_feature":"3","num_nodes":"13","size_leaf_vector":"1"}},{"base_weights":[-3.6441316E-3,3.738258E-1,-3.1091826E-2,-7.6856907E-3,3.3390157E-2,-4.6670365E-1,3.270586E-2,-3.880989E-2,-5.838511E-3,3.765715E-2,-1.7604197E-3],"categories":[],"categories_nodes":[],"categories_segments":[],"categories_sizes":[],"default_left":[0,0,0,0,0,0,0,0,0,0,0],"id":76,"left_children":[1,3,5,-1,-1,7,9,-1,-1,-1,-1],"loss_changes":[5.8589315E-1,6.97247E-1,1.4769009E0,0E0,0E0,6.4410305E-1,2.316819E0,0E0,0E0,0E0,0E0],"parents":[2147483647,0,0,1,1,2,2,5,5,6,6],"right_children":[2,4,6,-1,-1,8,10,-1,-1,-1,-1],"split_conditions":[-1.1311536E0,-1.7463387E0,-7.576768E-1,-7.6856907E-3,3.3390157E-2,-1.4838241E-1,-6.0263985E-1,-3.880989E-2,-5.838511E-3,3.765715E-2,-1.7604197E-3],"split_indices":[2,2,2,0,0,1,2,0,0,0,0],"split_type":[0,0,0,0,0,0,0,0,0,0,0],"sum_hessian":[5.4427856E1,2.8340113E0,5.1593845E1,1.1848795E0,1.6491318E0,5.784155E0,4.5809692E1,2.423018E0,3.3611372E0,3.0771842E0,4.2732506E1],"tree_param":{"num_deleted":"0","num_feature":"3","num_nodes":"11","size_leaf_vector":"1"}},{"base_weights":[-3.1481131E-3,3.3730492E-2,-2.7844697E-1,-9.693256E-3,6.092085E-1,7.6460415E-3,-5.2845573E-1,1.458528E-3,-2.5629362E-2,4.1251265E-2,5.656055E-3,-4.6969708E-2,9.744297E-3],"categories":[],"categories_nodes":[],"categories_segments":[],"categories_sizes":[],"default_left":[0,0,0,0,0,0,0,0,0,0,0,0,0],"id":77,"left_children":[1,3,5,7,9,-1,11,-1,-1,-1,-1,-1,-1],"loss_changes":[5.71619E-1,1.2485646E0,7.979831E-1,9.378921E-1,2.8189576E-1,0E0,1.501199E0,0E0,0E0,0E0,0E0,0E0,0E0],"parents":[2147483647,0,0,1,1,2,2,3,3,4,4,6,6],"right_children":[2,4,6,8,10,-1,12,-1,-1,-1,-1,-1,-1],"split_conditions":[1.4920948E0,1.2364521E0,2.254938E-1,1.0497813E0,5.0445896E-1,7.6460415E-3,1.1292558E0,1.458528E-3,-2.5629362E-2,4.1251265E-2,5.656055E-3,-4.6969708E-2,9.744297E-3],"split_indices":[1,1,0,1,2,0,0,0,0,0,0,0,0],"split_type":[0,0,0,0,0,0,0,0,0,0,0,0,0],"sum_hessian":[5.4377407E1,4.8727436E1,5.6499734E0,4.6222767E1,2.504667E0,2.2155602E0,3.4344134E0,4.3781326E1,2.441441E0,1.2833134E0,1.2213538E0,1.9996842E0,1.4347293E0],"tree_param":{"num_deleted":"0","num_feature":"3","num_nodes":"13","size_leaf_vector":"1"}},{"base_weights":[-3.1284443E-3,-2.0978017E-2,2.1084046E-2,3.540965E-1,-3.4191903E-2,-4.4542933E-3,4.477941E-2,-2.139583E-2,3.5955042E-3],"categories":[],"categories_nodes":[],"categories_segments":[],"categories_sizes":[],"default_left":[0,0,0,0,0,0,0,0,0],"id":78,"left_children":[1,-1,3,5,7,-1,-1,-1,-1],"loss_changes":[5.664837E-1,0E0,9.917359E-1,1.9190292E0,1.9755884E0,0E0,0E0,0E0,0E0],"parents":[2147483647,0,0,2,2,3,3,4,4],"right_children":[2,-1,4,6,8,-1,-1,-1,-1],"split_conditions":[-1.2657317E0,-2.0978017E-2,-1.5021985E0,-3.8781577E-1,-5.2698606E-1,-4.4542933E-3,4.477941E-2,-2.139583E-2,3.5955042E-3],"split_indices":[1,0,0,2,0,0,0,0,0],"split_type":[0,0,0,0,0,0,0,0,0],"sum_hessian":[5.430554E1,2.0867724E0,5.2218765E1,6.6641736E0,4.5554592E1,4.124208E0,2.539966E0,9.026365E0,3.652823E1],"tree_param":{"num_deleted":"0","num_feature":"3","num_nodes":"9","size_leaf_vector":"1"}},{"base_weights":[-2.940723E-3,3.7120312E-1,-3.0106625E-2,-7.0791193E-3,3.2737087E-2,-4.481264E-1,3.1096619E-2,-5.072636E-3,-3.777961E-2,3.6733918E-2,-1.7453516E-3],"categories":[],"categories_nodes":[],"categories_segments":[],"categories_sizes":[],"default_left":[0,0,0,0,0,0,0,0,0,0,0],"id":79,"left_children":[1,3,5,-1,-1,7,9,-1,-1,-1,-1],"loss_changes":[5.726227E-1,6.472813E-1,1.3551776E0,0E0,0E0,6.439185E-1,2.1926954E0,0E0,0E0,0E0,0E0],"parents":[2147483647,0,0,1,1,2,2,5,5,6,6],"right_children":[2,4,6,-1,-1,8,10,-1,-1,-1,-1],"split_conditions":[-1.1311536E0,-1.7463387E0,-7.576768E-1,-7.0791193E-3,3.2737087E-2,-9.4784117E-1,-6.0263985E-1,-5.072636E-3,-3.777961E-2,3.6733918E-2,-1.7453516E-3],"split_indices":[2,2,2,0,0,2,2,0,0,0,0],"split_type":[0,0,0,0,0,0,0,0,0,0,0],"sum_hessian":[5.4239033E1,2.8143222E0,5.1424713E1,1.1803298E0,1.6339924E0,5.7602324E0,4.566448E1,3.3326116E0,2.4276206E0,3.047547E0,4.2616932E1],"tree_param":{"num_deleted":"0","num_feature":"3","num_nodes":"11","size_leaf_vector":"1"}},{"base_weights":[-2.462456E-3,3.0280972E-2,-3.0622458E-1,-8.828554E-2,2.1431157E-1,1.5800035E-2,-6.675116E-1,1.9133391E-3,-3.8591687E-2,-9.317241E-3,2.2280497E-2,-4.991882E-2,1.0530859E-3],"categories":[],"categories_nodes":[],"categories_segments":[],"categories_sizes":[],"default_left":[0,0,0,0,0,0,0,0,0,0,0,0,0],"id":80,"left_children":[1,3,5,7,9,-1,11,-1,-1,-1,-1,-1,-1],"loss_changes":[5.581994E-1,1.1258281E0,1.4383886E0,2.7596495E0,1.9521236E0,0E0,8.812262E-1,0E0,0E0,0E0,0E0,0E0,0E0],"parents":[2147483647,0,0,1,1,2,2,3,3,4,4,6,6],"right_children":[2,4,6,8,10,-1,12,-1,-1,-1,-1,-1,-1],"split_conditions":[1.2646013E0,3.091962E-2,2.1524881E-1,-8.2263954E-2,2.6765168E-1,1.5800035E-2,1.7129004E0,1.9133391E-3,-3.8591687E-2,-9.317241E-3,2.2280497E-2,-4.991882E-2,1.0530859E-3],"split_indices":[2,2,0,2,1,0,2,0,0,0,0,0,0],"split_type":[0,0,0,0,0,0,0,0,0,0,0,0,0],"sum_hessian":[5.4189507E1,4.9729343E1,4.4601607E0,3.0560326E1,1.916902E1,1.6844573E0,2.7757037E0,2.6582796E1,3.9775298E0,7.087085E0,1.2081935E1,1.5709363E0,1.2047673E0],"tree_param":{"num_deleted":"0","num_feature":"3","num_nodes":"13","size_leaf_vector":"1"}},{"base_weights":[-3.377199E-3,3.3634413E-2,-2.8025183E-1,-7.930816E-3,5.878579E-1,1.0349382E-1,-5.5542547E-1,1.5374956E-3,-2.5385195E-2,4.1189678E-2,6.349049E-3,-1.8686017E-2,2.9454974E-2,-3.7540767E-2,-3.8290978E-4],"categories":[],"categories_nodes":[],"categories_segments":[],"categories_sizes":[],"default_left":[0,0,0,0,0,0,0,0,0,0,0,0,0,0,0],"id":81,"left_children":[1,3,5,7,9,11,13,-1,-1,-1,-1,-1,-1,-1,-1],"loss_changes":[5.7434535E-1,1.1454189E0,7.552047E-1,9.2519474E-1,2.72501E-1,1.0549436E0,4.229126E-1,0E0,0E0,0E0,0E0,0E0,0E0,0E0,0E0],"parents":[2147483647,0,0,1,1,2,2,3,3,4,4,5,5,6,6],"right_children":[2,4,6,8,10,12,14,-1,-1,-1,-1,-1,-1,-1,-1],"split_conditions":[1.4920948E0,1.2364521E0,1.8430158E-1,1.0497813E0,1.3694983E0,-2.9444385E-2,2.232295E0,1.5374956E-3,-2.5385195E-2,4.1189678E-2,6.349049E-3,-1.8686017E-2,2.9454974E-2,-3.7540767E-2,-3.8290978E-4],"split_indices":[1,1,2,1,1,2,1,0,0,0,0,0,0,0,0],"split_type":[0,0,0,0,0,0,0,0,0,0,0,0,0,0,0],"sum_hessian":[5.4127113E1,4.8519695E1,5.607419E0,4.605164E1,2.4680555E0,2.6022818E0,3.005137E0,4.36145E1,2.4371405E0,1.1115661E0,1.3564893E0,1.4286869E0,1.173595E0,1.9418068E0,1.06333E0],"tree_param":{"num_deleted":"0","num_feature":"3","num_nodes":"15","size_leaf_vector":"1"}},{"base_weights":[-3.2754354E-3,3.245219E-2,-2.713711E-1,-8.04342E-3,5.7483417E-1,7.002113E-3,-5.1118046E-1,2.874335E-3,-1.4568693E-2,3.9542213E-2,4.817851E-3,-4.5744225E-2,9.420271E-3],"categories":[],"categories_nodes":[],"categories_segments":[],"categories_sizes":[],"default_left":[0,0,0,0,0,0,0,0,0,0,0,0,0],"id":82,"left_children":[1,3,5,7,9,-1,11,-1,-1,-1,-1,-1,-1],"loss_changes":[5.363757E-1,1.0917404E0,7.21143E-1,8.9017665E-1,2.8063238E-1,0E0,1.4077986E0,0E0,0E0,0E0,0E0,0E0,0E0],"parents":[2147483647,0,0,1,1,2,2,3,3,4,4,6,6],"right_children":[2,4,6,8,10,-1,12,-1,-1,-1,-1,-1,-1],"split_conditions":[1.4920948E0,1.2364521E0,2.254938E-1,9.058216E-1,5.0445896E-1,7.002113E-3,1.1292558E0,2.874335E-3,-1.4568693E-2,3.9542213E-2,4.817851E-3,-4.5744225E-2,9.420271E-3],"split_indices":[1,1,0,0,2,0,0,0,0,0,0,0,0],"split_type":[0,0,0,0,0,0,0,0,0,0,0,0,0],"sum_hessian":[5.4078926E1,4.8495193E1,5.583733E0,4.60427E1,2.4524941E0,2.20938E0,3.374353E0,3.8041393E1,8.001306E0,1.2399006E0,1.2125934E0,1.9445032E0,1.4298496E0],"tree_param":{"num_deleted":"0","num_feature":"3","num_nodes":"13","size_leaf_vector":"1"}},{"base_weights":[-3.063402E-3,-2.0546032E-2,2.0645307E-2,4.5824397E-1,-2.0918291E-2,4.288744E-2,2.5108221E-3,2.7029578E-2,-3.6538846E-3],"categories":[],"categories_nodes":[],"categories_segments":[],"categories_sizes":[],"default_left":[0,0,0,0,0,0,0,0,0],"id":83,"left_children":[1,-1,3,5,7,-1,-1,-1,-1],"loss_changes":[5.404096E-1,0E0,9.724554E-1,7.125926E-1,1.4835095E0,0E0,0E0,0E0,0E0],"parents":[2147483647,0,0,2,2,3,3,4,4],"right_children":[2,-1,4,6,8,-1,-1,-1,-1],"split_conditions":[-1.2657317E0,-2.0546032E-2,-1.0323708E0,-4.802937E-1,-2.020726E0,4.288744E-2,2.5108221E-3,2.7029578E-2,-3.6538846E-3],"split_indices":[1,0,1,2,0,0,0,0,0],"split_type":[0,0,0,0,0,0,0,0,0],"sum_hessian":[5.4009174E1,2.069848E0,5.1939327E1,3.6357307E0,4.8303596E1,1.2801431E0,2.3555877E0,3.3096895E0,4.4993908E1],"tree_param":{"num_deleted":"0","num_feature":"3","num_nodes":"9","size_leaf_vector":"1"}},{"base_weights":[-2.0267777E-3,-1.408909E-1,6.641795E-2,-2.9115397E-1,3.3062335E-2,2.5510794E-1,-2.0924817E-1,2.8742123E-3,-2.8801668E-2,4.0705837E-3,3.3175934E-2,-3.3538397E-2,2.0002201E-3],"categories":[],"categories_nodes":[],"categories_segments":[],"categories_sizes":[],"default_left":[0,0,0,0,0,0,0,0,0,0,0,0,0],"id":84,"left_children":[1,3,5,7,-1,9,11,-1,-1,-1,-1,-1,-1],"loss_changes":[5.3187793E-1,2.4188843E0,2.0042114E0,1.6471798E0,0E0,1.5574034E0,1.8431649E0,0E0,0E0,0E0,0E0,0E0,0E0],"parents":[2147483647,0,0,1,1,2,2,3,3,5,5,6,6],"right_children":[2,4,6,8,-1,10,12,-1,-1,-1,-1,-1,-1],"split_conditions":[-5.2698606E-1,1.2774634E-1,2.5304645E-1,-1.4797486E0,3.3062335E-2,2.3824655E-2,4.7818252E-1,2.8742123E-3,-2.8801668E-2,4.0705837E-3,3.3175934E-2,-3.3538397E-2,2.0002201E-3],"split_indices":[0,2,2,0,0,2,2,0,0,0,0,0,0],"split_type":[0,0,0,0,0,0,0,0,0,0,0,0,0],"sum_hessian":[5.3976E1,1.7471163E1,3.650484E1,1.5251207E1,2.2199554E0,2.1715458E1,1.4789382E1,7.217084E0,8.034123E0,1.6077196E1,5.6382613E0,4.5932794E0,1.0196102E1],"tree_param":{"num_deleted":"0","num_feature":"3","num_nodes":"13","size_leaf_vector":"1"}},{"base_weights":[-1.6916876E-3,3.6475164E-1,-2.831649E-2,-6.5225973E-3,3.2428447E-2,-4.357279E-1,3.15838E-2,-4.6610977E-3,-3.701642E-2,3.5680436E-2,-1.6108629E-3],"categories":[],"categories_nodes":[],"categories_segments":[],"categories_sizes":[],"default_left":[0,0,0,0,0,0,0,0,0,0,0],"id":85,"left_children":[1,3,5,-1,-1,7,9,-1,-1,-1,-1],"loss_changes":[5.4559857E-1,6.170331E-1,1.2845984E0,0E0,0E0,6.344199E-1,2.0390868E0,0E0,0E0,0E0,0E0],"parents":[2147483647,0,0,1,1,2,2,5,5,6,6],"right_children":[2,4,6,-1,-1,8,10,-1,-1,-1,-1],"split_conditions":[-1.1311536E0,-9.035625E-1,-7.576768E-1,-6.5225973E-3,3.2428447E-2,-9.4784117E-1,-6.0263985E-1,-4.6610977E-3,-3.701642E-2,3.5680436E-2,-1.6108629E-3],"split_indices":[2,0,2,0,0,2,2,0,0,0,0],"split_type":[0,0,0,0,0,0,0,0,0,0,0],"sum_hessian":[5.3863026E1,2.788233E0,5.107479E1,1.2126942E0,1.575539E0,5.742564E0,4.533223E1,3.317863E0,2.4247012E0,3.0066485E0,4.232558E1],"tree_param":{"num_deleted":"0","num_feature":"3","num_nodes":"11","size_leaf_vector":"1"}},{"base_weights":[-1.263855E-3,3.0711114E-2,-2.9798996E-1,-2.4686292E-1,1.0758862E-1,1.501406E-2,-6.454673E-1,1.7872801E-2,-3.1078553E-2,1.37834465E-2,-5.095535E-3,-4.8610147E-2,1.207091E-3],"categories":[],"categories_nodes":[],"categories_segments":[],"categories_sizes":[],"default_left":[0,0,0,0,0,0,0,0,0,0,0,0,0],"id":86,"left_children":[1,3,5,7,9,-1,11,-1,-1,-1,-1,-1,-1],"loss_changes":[5.2920145E-1,1.1017785E0,1.3216859E0,2.7656062E0,1.442059E0,0E0,8.438201E-1,0E0,0E0,0E0,0E0,0E0,0E0],"parents":[2147483647,0,0,1,1,2,2,3,3,4,4,6,6],"right_children":[2,4,6,8,10,-1,12,-1,-1,-1,-1,-1,-1],"split_conditions":[1.2646013E0,-6.494176E-1,2.1524881E-1,-5.0915104E-1,7.095749E-1,1.501406E-2,1.7129004E0,1.7872801E-2,-3.1078553E-2,1.37834465E-2,-5.095535E-3,-4.8610147E-2,1.207091E-3],"split_indices":[2,1,0,2,1,0,2,0,0,0,0,0,0],"split_type":[0,0,0,0,0,0,0,0,0,0,0,0,0],"sum_hessian":[5.381243E1,4.9387028E1,4.4254065E0,1.023205E1,3.9154976E1,1.6758416E0,2.7495651E0,3.933788E0,6.298262E0,2.1549816E1,1.760516E1,1.5441843E0,1.2053808E0],"tree_param":{"num_deleted":"0","num_feature":"3","num_nodes":"13","size_leaf_vector":"1"}},{"base_weights":[-1.8796385E-3,-8.814769E-2,1.09300405E-1,1.5495424E-2,-8.6124563E-1,4.3305315E-2,-9.559911E-3,-9.436684E-3,2.0277048E-2,-1.5381812E-2,-5.1970184E-2,-2.7437767E-2,1.2291133E-2],"categories":[],"categories_nodes":[],"categories_segments":[],"categories_sizes":[],"default_left":[0,0,0,0,0,0,0,0,0,0,0,0,0],"id":87,"left_children":[1,3,5,7,9,-1,11,-1,-1,-1,-1,-1,-1],"loss_changes":[5.3469443E-1,2.5276089E0,2.1999831E0,2.358893E0,4.7843933E-2,0E0,3.1707323E0,0E0,0E0,0E0,0E0,0E0,0E0],"parents":[2147483647,0,0,1,1,2,2,3,3,4,4,6,6],"right_children":[2,4,6,8,10,-1,12,-1,-1,-1,-1,-1,-1],"split_conditions":[3.091962E-2,-5.601862E-2,-7.745967E-1,-3.8640846E-2,3.3546367E-1,4.3305315E-2,2.4339688E-1,-9.436684E-3,2.0277048E-2,-1.5381812E-2,-5.1970184E-2,-2.7437767E-2,1.2291133E-2],"split_indices":[2,2,0,0,0,0,1,0,0,0,0,0,0],"split_type":[0,0,0,0,0,0,0,0,0,0,0,0,0],"sum_hessian":[5.3743423E1,3.0378763E1,2.3364662E1,2.7651678E1,2.7270846E0,2.318104E0,2.1046558E1,1.8487623E1,9.164055E0,1.3278075E0,1.399277E0,6.3952837E0,1.4651276E1],"tree_param":{"num_deleted":"0","num_feature":"3","num_nodes":"13","size_leaf_vector":"1"}},{"base_weights":[-2.2957597E-3,6.76946E-2,-1.3270701E-1,-6.094031E-2,8.114945E-1,-6.910923E-1,1.1239554E-1,1.2464545E-2,-1.1415322E-2,1.682171E-3,5.049191E-2,-4.129791E-2,-1.0872464E-2,1.33406995E-2,-3.7203062E-2],"categories":[],"categories_nodes":[],"categories_segments":[],"categories_sizes":[],"default_left":[0,0,0,0,0,0,0,0,0,0,0,0,0,0,0],"id":88,"left_children":[1,3,5,7,9,11,13,-1,-1,-1,-1,-1,-1,-1,-1],"loss_changes":[5.079897E-1,3.5167482E0,2.7370994E0,1.7093865E0,8.01162E-1,2.0797253E-1,2.098211E0,0E0,0E0,0E0,0E0,0E0,0E0,0E0,0E0],"parents":[2147483647,0,0,1,1,2,2,3,3,4,4,5,5,6,6],"right_children":[2,4,6,8,10,12,14,-1,-1,-1,-1,-1,-1,-1,-1],"split_conditions":[7.389907E-1,4.941436E-1,-1.6963778E-1,-5.082232E-1,-1.0542675E0,-4.928054E-1,1.7527121E0,1.2464545E-2,-1.1415322E-2,1.682171E-3,5.049191E-2,-4.129791E-2,-1.0872464E-2,1.33406995E-2,-3.7203062E-2],"split_indices":[1,1,2,2,2,2,0,0,0,0,0,0,0,0,0],"split_type":[0,0,0,0,0,0,0,0,0,0,0,0,0,0,0],"sum_hessian":[5.3670444E1,3.523897E1,1.8431473E1,3.0825918E1,4.4130545E0,5.067421E0,1.3364051E1,1.06309E1,2.0195017E1,1.134291E0,3.2787635E0,3.3653302E0,1.7020907E0,1.1905895E1,1.4581554E0],"tree_param":{"num_deleted":"0","num_feature":"3","num_nodes":"15","size_leaf_vector":"1"}},{"base_weights":[-2.5805545E-3,3.252346E-2,-2.665828E-1,-6.934976E-3,5.622873E-1,9.897127E-2,-5.295067E-1,1.4874014E-3,-2.397993E-2,3.99333E-2,5.503738E-3,-1.7790629E-2,2.8188815E-2,-3.5956107E-2,-2.0204468E-4],"categories":[],"categories_nodes":[],"categories_segments":[],"categories_sizes":[],"default_left":[0,0,0,0,0,0,0,0,0,0,0,0,0,0,0],"id":89,"left_children":[1,3,5,7,9,11,13,-1,-1,-1,-1,-1,-1,-1,-1],"loss_changes":[5.147264E-1,1.0300152E0,6.788094E-1,8.2351583E-1,2.7712274E-1,9.5504874E-1,3.9048922E-1,0E0,0E0,0E0,0E0,0E0,0E0,0E0,0E0],"parents":[2147483647,0,0,1,1,2,2,3,3,4,4,5,5,6,6],"right_children":[2,4,6,8,10,12,14,-1,-1,-1,-1,-1,-1,-1,-1],"split_conditions":[1.4920948E0,1.2364521E0,1.8430158E-1,1.0497813E0,1.3694983E0,-2.9444385E-2,2.232295E0,1.4874014E-3,-2.397993E-2,3.99333E-2,5.503738E-3,-1.7790629E-2,2.8188815E-2,-3.5956107E-2,-2.0204468E-4],"split_indices":[1,1,2,1,1,2,1,0,0,0,0,0,0,0,0],"split_type":[0,0,0,0,0,0,0,0,0,0,0,0,0,0,0],"sum_hessian":[5.3605244E1,4.808787E1,5.517372E0,4.567292E1,2.4149501E0,2.5690663E0,2.9483058E0,4.3253147E1,2.4197755E0,1.0828156E0,1.3321346E0,1.4170544E0,1.1520119E0,1.8956972E0,1.0526087E0],"tree_param":{"num_deleted":"0","num_feature":"3","num_nodes":"15","size_leaf_vector":"1"}}]},"name":"gbtree"},"learner_model_param":{"base_score":"5.318716E-1","boost_from_average":"1","num_class":"0","num_feature":"3","num_target":"1"},"objective":{"name":"binary:logistic","reg_loss_param":{"scale_pos_weight":"1"}}},"version":[2,0,0]}