{"learner":{"attributes":{"best_iteration":"50","best_score":"0.5112375169992447"},"feature_names":["FG T","Minutes Diff","Rest Days"],"feature_types":["float","float","float"],"gradient_booster":{"model":{"gbtree_model_param":{"num_parallel_tree":"1","num_trees":"101"},"iteration_indptr":[0,1,2,3,4,5,6,7,8,9,10,11,12,13,14,15,16,17,18,19,20,21,22,23,24,25,26,27,28,29,30,31,32,33,34,35,36,37,38,39,40,41,42,43,44,45,46,47,48,49,50,51,52,53,54,55,56,57,58,59,60,61,62,63,64,65,66,67,68,69,70,71,72,73,74,75,76,77,78,79,80,81,82,83,84,85,86,87,88,89,90,91,92,93,94,95,96,97,98,99,100,101],"tree_info":[0,0,0,0,0,0,0,0,0,0,0,0,0,0,0,0,0,0,0,0,0,0,0,0,0,0,0,0,0,0,0,0,0,0,0,0,0,0,0,0,0,0,0,0,0,0,0,0,0,0,0,0,0,0,0,0,0,0,0,0,0,0,0,0,0,0,0,0,0,0,0,0,0,0,0,0,0,0,0,0,0,0,0,0,0,0,0,0,0,0,0,0,0,0,0,0,0,0,0,0,0],"trees":[{"base_weights":[-4.7877938E-2,9.26192E-1,-3.203722E-1,5.406909E-2,1.5529782E-2,-6.0221905E-1,9.183127E-2,-4.227886E-2,1.7329827E-2,-1.0093155E-2,4.8862632E-2],"categories":[],"categories_nodes":[],"categories_segments":[],"categories_sizes":[],"default_left":[0,0,0,0,0,0,0,0,0,0,0],"id":0,"left_children":[1,3,5,-1,-1,7,9,-1,-1,-1,-1],"loss_changes":[6.038987E0,1.4047098E-1,2.105597E0,0E0,0E0,2.743761E0,2.2865357E0,0E0,0E0,0E0,0E0],"parents":[2147483647,0,0,1,1,2,2,5,5,6,6],"right_children":[2,4,6,-1,-1,8,10,-1,-1,-1,-1],"split_conditions":[-2.8022426E-1,-3.505848E-1,3E0,5.406909E-2,1.5529782E-2,1.9810146E-1,3.1900677E-1,-4.227886E-2,1.7329827E-2,-1.0093155E-2,4.8862632E-2],"split_indices":[1,0,2,0,0,0,1,0,0,0,0],"split_type":[0,0,0,0,0,0,0,0,0,0,0],"sum_hessian":[2.0633932E1,3.9861007E0,1.6647833E1,2.5792415E0,1.406859E0,9.613537E0,7.034295E0,7.737725E0,1.875812E0,5.8619127E0,1.1723826E0],"tree_param":{"num_deleted":"0","num_feature":"3","num_nodes":"11","size_leaf_vector":"1"}},{"base_weights":[-5.294348E-2,2.1137647E-1,-9.02018E-1,4.886364E-1,-2.9460484E-1,-5.9364922E-2,1.838347E-3,4.1916303E-2,4.192631E-3,-2.5848597E-2,-2.6039397E-3],"categories":[],"categories_nodes":[],"categories_segments":[],"categories_sizes":[],"default_left":[0,0,0,0,0,0,0,0,0,0,0],"id":1,"left_children":[1,3,5,7,9,-1,-1,-1,-1,-1,-1],"loss_changes":[4.9299655E0,2.5168204E0,1.4371309E0,1.5296113E0,3.2962465E-1,0E0,0E0,0E0,0E0,0E0,0E0],"parents":[2147483647,0,0,1,1,2,2,3,3,4,4],"right_children":[2,4,6,8,10,-1,-1,-1,-1,-1,-1],"split_conditions":[1.7888296E-1,-7.145896E-2,7.5592893E-1,-1.01015255E-1,3E0,-5.9364922E-2,1.838347E-3,4.1916303E-2,4.192631E-3,-2.5848597E-2,-2.6039397E-3],"split_indices":[1,0,0,1,2,0,0,0,0,0,0],"split_type":[0,0,0,0,0,0,0,0,0,0,0],"sum_hessian":[2.0117302E1,1.5914205E1,4.203098E0,1.0302873E1,5.611332E0,3.020502E0,1.182596E0,4.952982E0,5.34989E0,2.3369846E0,3.274347E0],"tree_param":{"num_deleted":"0","num_feature":"3","num_nodes":"11","size_leaf_vector":"1"}},{"base_weights":[1.009429E-1,1.004275E0,-1.9803736E-1,4.4542397E-3,6.889814E-2,6.1765786E-2,-6.7175937E-1,-9.645401E-3,5.7541937E-2,-5.0590437E-2,-1.4439486E-2],"categories":[],"categories_nodes":[],"categories_segments":[],"categories_sizes":[],"default_left":[0,0,0,0,0,0,0,0,0,0,0],"id":2,"left_children":[1,3,5,-1,-1,7,9,-1,-1,-1,-1],"loss_changes":[6.023071E0,1.7675409E0,2.1383781E0,0E0,0E0,3.5278144E0,5.0462174E-1,0E0,0E0,0E0,0E0],"parents":[2147483647,0,0,1,1,2,2,5,5,6,6],"right_children":[2,4,6,-1,-1,8,10,-1,-1,-1,-1],"split_conditions":[-2.8022426E-1,-7.4336416E-1,5.1102556E-2,4.4542397E-3,6.889814E-2,-1.4920942E-2,2E-1,-9.645401E-3,5.7541937E-2,-5.0590437E-2,-1.4439486E-2],"split_indices":[1,1,0,0,0,0,0,0,0,0,0],"split_type":[0,0,0,0,0,0,0,0,0,0,0],"sum_hessian":[2.0564798E1,4.5272546E0,1.6037542E1,1.6716497E0,2.8556046E0,1.0918908E1,5.1186357E0,9.516416E0,1.4024925E0,1.8415043E0,3.277131E0],"tree_param":{"num_deleted":"0","num_feature":"3","num_nodes":"11","size_leaf_vector":"1"}},{"base_weights":[-1.044445E-1,4.240911E-1,-2.2783396E-1,-9.577041E-3,5.228093E-2,-6.2316E-1,-1.21173814E-1,-4.9085654E-2,5.3787837E-3,3.770734E-2,-1.2756261E-2],"categories":[],"categories_nodes":[],"categories_segments":[],"categories_sizes":[],"default_left":[0,0,0,0,0,0,0,0,0,0,0],"id":3,"left_children":[1,3,5,-1,-1,7,9,-1,-1,-1,-1],"loss_changes":[1.5637903E0,1.9632566E0,7.2098154E-1,0E0,0E0,1.0939565E0,2.0821784E0,0E0,0E0,0E0,0E0],"parents":[2147483647,0,0,1,1,2,2,5,5,6,6],"right_children":[2,4,6,-1,-1,8,10,-1,-1,-1,-1],"split_conditions":[-2.8022426E-1,-4.7301617E-1,-9.4518906E-1,-9.577041E-3,5.228093E-2,8.537347E-2,-6.430526E-1,-4.9085654E-2,5.3787837E-3,3.770734E-2,-1.2756261E-2],"split_indices":[1,1,0,0,0,1,0,0,0,0,0],"split_type":[0,0,0,0,0,0,0,0,0,0,0],"sum_hessian":[2.1497152E1,3.607501E0,1.7889652E1,2.1599054E0,1.4475955E0,2.7722135E0,1.5117438E1,1.6292999E0,1.1429137E0,1.3919009E0,1.3725537E1],"tree_param":{"num_deleted":"0","num_feature":"3","num_nodes":"11","size_leaf_vector":"1"}},{"base_weights":[2.8726507E-2,1.0520526E0,-2.3088008E-1,2.1755852E-2,6.28997E-2,-3.85185E-1,2.847212E-2,4.3135206E-3,-2.797168E-2,1.1413167E-2,-2.5665462E-2],"categories":[],"categories_nodes":[],"categories_segments":[],"categories_sizes":[],"default_left":[0,0,0,0,0,0,0,0,0,0,0],"id":4,"left_children":[1,3,5,-1,-1,7,9,-1,-1,-1,-1],"loss_changes":[6.0759654E0,3.9988518E-2,7.4467E-1,0E0,0E0,9.982166E-1,9.582326E-1,0E0,0E0,0E0,0E0],"parents":[2147483647,0,0,1,1,2,2,5,5,6,6],"right_children":[2,4,6,-1,-1,8,10,-1,-1,-1,-1],"split_conditions":[-1.9285202E-1,-4.7301617E-1,3E0,2.1755852E-2,6.28997E-2,-5.405899E-1,4E0,4.3135206E-3,-2.797168E-2,1.1413167E-2,-2.5665462E-2],"split_indices":[1,1,2,0,0,0,2,0,0,0,0],"split_type":[0,0,0,0,0,0,0,0,0,0,0],"sum_hessian":[2.0956707E1,3.6229908E0,1.7333717E1,1.685771E0,1.9372199E0,1.0563591E1,6.7701254E0,2.9869246E0,7.576667E0,5.368922E0,1.4012029E0],"tree_param":{"num_deleted":"0","num_feature":"3","num_nodes":"11","size_leaf_vector":"1"}},{"base_weights":[1.3938567E-1,1.086447E0,-1.384442E-1,6.6754304E-2,1.9574001E-2,-4.2420715E-2,-3.3986643E-2,2.7052363E-2,-5.7689664E-3],"categories":[],"categories_nodes":[],"categories_segments":[],"categories_sizes":[],"default_left":[0,0,0,0,0,0,0,0,0],"id":5,"left_children":[1,3,5,-1,-1,-1,7,-1,-1],"loss_changes":[5.689248E0,3.2191372E-1,1.243986E0,0E0,0E0,0E0,8.114332E-1,0E0,0E0],"parents":[2147483647,0,0,1,1,2,2,6,6],"right_children":[2,4,6,-1,-1,-1,8,-1,-1],"split_conditions":[-2.8022426E-1,-3.505848E-1,-1.04229234E-1,6.6754304E-2,1.9574001E-2,-4.2420715E-2,-3.0882737E-2,2.7052363E-2,-5.7689664E-3],"split_indices":[1,0,1,0,0,0,1,0,0],"split_type":[0,0,0,0,0,0,0,0,0],"sum_hessian":[2.0050455E1,3.8876905E0,1.6162764E1,2.1849132E0,1.7027773E0,1.1595458E0,1.5003218E1,1.1600652E0,1.3843153E1],"tree_param":{"num_deleted":"0","num_feature":"3","num_nodes":"9","size_leaf_vector":"1"}},{"base_weights":[1.4192379E-1,5.2389573E-2,-1.186368E-1,-3.6751574E-1,2.2558966E-1,5.2710157E-4,-4.073916E-2,2.637195E-2,-2.9780617E-2],"categories":[],"categories_nodes":[],"categories_segments":[],"categories_sizes":[],"default_left":[0,0,0,0,0,0,0,0,0],"id":6,"left_children":[1,-1,3,5,7,-1,-1,-1,-1],"loss_changes":[5.206798E0,0E0,1.5925221E0,1.8022089E0,2.3006103E0,0E0,0E0,0E0,0E0],"parents":[2147483647,0,0,2,2,3,3,4,4],"right_children":[2,-1,4,6,8,-1,-1,-1,-1],"split_conditions":[-2.8022426E-1,5.2389573E-2,3E0,4.434601E-2,4E0,5.2710157E-4,-4.073916E-2,2.637195E-2,-2.9780617E-2],"split_indices":[1,0,2,1,2,0,0,0,0],"split_type":[0,0,0,0,0,0,0,0,0],"sum_hessian":[2.053293E1,3.9118066E0,1.6621124E1,9.6073E0,7.0138245E0,5.735627E0,3.8716729E0,5.3902516E0,1.6235726E0],"tree_param":{"num_deleted":"0","num_feature":"3","num_nodes":"9","size_leaf_vector":"1"}},{"base_weights":[-1.00185916E-1,4.44826E-2,-2.0509528E-1,-7.7268E-2,-5.041451E-2,-4.984505E-2,3.6778636E-3],"categories":[],"categories_nodes":[],"categories_segments":[],"categories_sizes":[],"default_left":[0,0,0,0,0,0,0],"id":7,"left_children":[1,-1,3,5,-1,-1,-1],"loss_changes":[2.3650396E0,0E0,1.956655E0,2.5947897E0,0E0,0E0,0E0],"parents":[2147483647,0,0,2,2,3,3],"right_children":[2,-1,4,6,-1,-1,-1],"split_conditions":[-2.367685E0,4.44826E-2,4E0,-1.0801234E0,-5.041451E-2,-4.984505E-2,3.6778636E-3],"split_indices":[0,0,2,0,0,0,0],"split_type":[0,0,0,0,0,0,0],"sum_hessian":[2.0017986E1,1.2014934E0,1.8816492E1,1.7178726E1,1.6377677E0,1.6300589E0,1.5548666E1],"tree_param":{"num_deleted":"0","num_feature":"3","num_nodes":"7","size_leaf_vector":"1"}},{"base_weights":[-7.91253E-3,5.997103E-1,-2.7807882E-1,-1.0415763E-2,8.6010164E-1,2.4655886E-2,-4.6183628E-1,5.9246045E-2,4.499217E-3,-9.252689E-3,2.7691651E-2,-3.454087E-2,1.2267177E-2],"categories":[],"categories_nodes":[],"categories_segments":[],"categories_sizes":[],"default_left":[0,0,0,0,0,0,0,0,0,0,0,0,0],"id":8,"left_children":[1,3,5,-1,7,9,11,-1,-1,-1,-1,-1,-1],"loss_changes":[3.6179867E0,1.6072712E0,8.589709E-1,0E0,1.2262225E0,8.464901E-1,1.7129881E0,0E0,0E0,0E0,0E0,0E0,0E0],"parents":[2147483647,0,0,1,1,2,2,4,4,5,5,6,6],"right_children":[2,4,6,-1,8,10,12,-1,-1,-1,-1,-1,-1],"split_conditions":[-3.126718E-2,-7.4336416E-1,-2.5925925E-1,-1.0415763E-2,-2.7741334E-1,-4.17365E-1,3.1900677E-1,5.9246045E-2,4.499217E-3,-9.252689E-3,2.7691651E-2,-3.454087E-2,1.2267177E-2],"split_indices":[1,1,0,0,0,0,1,0,0,0,0,0,0],"split_type":[0,0,0,0,0,0,0,0,0,0,0,0,0],"sum_hessian":[2.0023615E1,5.7874513E0,1.4236163E1,1.4592417E0,4.32821E0,5.704311E0,8.531852E0,2.665383E0,1.6628265E0,4.551055E0,1.153256E0,6.4624743E0,2.0693774E0],"tree_param":{"num_deleted":"0","num_feature":"3","num_nodes":"13","size_leaf_vector":"1"}},{"base_weights":[6.382267E-2,6.9231856E-1,-1.8333857E-1,5.2265048E-2,1.8361257E-1,2.5596092E-2,-3.1644753E-1,-2.0881451E-3,1.6460214E-2,-8.010924E-3,-3.9064154E-2],"categories":[],"categories_nodes":[],"categories_segments":[],"categories_sizes":[],"default_left":[0,0,0,0,0,0,0,0,0,0,0],"id":9,"left_children":[1,3,5,-1,7,-1,9,-1,-1,-1,-1],"loss_changes":[3.4296062E0,9.2324543E-1,1.647399E0,0E0,1.3703075E-1,0E0,8.980075E-1,0E0,0E0,0E0,0E0],"parents":[2147483647,0,0,1,1,2,2,4,4,6,6],"right_children":[2,4,6,-1,8,-1,10,-1,-1,-1,-1],"split_conditions":[-6.405126E-1,-1.01015255E-1,-3.2219845E-1,5.2265048E-2,-1.0801234E0,2.5596092E-2,5.831437E-1,-2.0881451E-3,1.6460214E-2,-8.010924E-3,-3.9064154E-2],"split_indices":[0,1,1,0,0,0,1,0,0,0,0],"split_type":[0,0,0,0,0,0,0,0,0,0,0],"sum_hessian":[2.0260986E1,5.2104564E0,1.505053E1,2.4533179E0,2.7571385E0,1.9611394E0,1.3089391E1,1.3619676E0,1.3951709E0,1.0803172E1,2.2862182E0],"tree_param":{"num_deleted":"0","num_feature":"3","num_nodes":"11","size_leaf_vector":"1"}},{"base_weights":[-1.00845374E-1,1.1180705E-1,-5.327238E-1,4.764243E-1,-3.9139085E-2,-4.931817E-2,1.8981937E-1,-1.1826578E-2,4.3688737E-2,-1.6305564E-2,1.3903642E-2,2.9815812E-2,-1.0632584E-2],"categories":[],"categories_nodes":[],"categories_segments":[],"categories_sizes":[],"default_left":[0,0,0,0,0,0,0,0,0,0,0,0,0],"id":10,"left_children":[1,3,5,7,9,-1,11,-1,-1,-1,-1,-1,-1],"loss_changes":[2.1111562E0,8.879651E-1,2.6598904E0,1.5382555E0,1.1916698E0,0E0,7.4001914E-1,0E0,0E0,0E0,0E0,0E0,0E0],"parents":[2147483647,0,0,1,1,2,2,3,3,4,4,6,6],"right_children":[2,4,6,8,10,-1,12,-1,-1,-1,-1,-1,-1],"split_conditions":[4.434601E-2,-2.8022426E-1,0E0,-7.4336416E-1,-1.6230053E-1,-4.931817E-2,3.1333977E-1,-1.1826578E-2,4.3688737E-2,-1.6305564E-2,1.3903642E-2,2.9815812E-2,-1.0632584E-2],"split_indices":[1,1,0,1,0,0,0,0,0,0,0,0,0],"split_type":[0,0,0,0,0,0,0,0,0,0,0,0,0],"sum_hessian":[2.1338787E1,1.4794999E1,6.543789E0,3.700359E0,1.109464E1,3.7956257E0,2.7481632E0,1.4691063E0,2.231253E0,5.8102365E0,5.2844033E0,1.1276232E0,1.62054E0],"tree_param":{"num_deleted":"0","num_feature":"3","num_nodes":"13","size_leaf_vector":"1"}},{"base_weights":[-4.4089824E-2,4.411919E-2,-1.4243165E-1,-4.2715184E-2,-5.468368E-2,8.244849E-3,-2.314653E-2],"categories":[],"categories_nodes":[],"categories_segments":[],"categories_sizes":[],"default_left":[0,0,0,0,0,0,0],"id":11,"left_children":[1,-1,3,-1,5,-1,-1],"loss_changes":[2.0759132E0,0E0,1.2158318E0,0E0,1.7851464E0,0E0,0E0],"parents":[2147483647,0,0,2,2,4,4],"right_children":[2,-1,4,-1,6,-1,-1],"split_conditions":[-2.2445703E0,4.411919E-2,-1.3055824E0,-4.2715184E-2,5.1102556E-2,8.244849E-3,-2.314653E-2],"split_indices":[0,0,0,0,0,0,0],"split_type":[0,0,0,0,0,0,0],"sum_hessian":[2.0405005E1,1.1930181E0,1.9211987E1,1.1496173E0,1.806237E1,1.2132721E1,5.929649E0],"tree_param":{"num_deleted":"0","num_feature":"3","num_nodes":"7","size_leaf_vector":"1"}},{"base_weights":[1.4750631E-1,8.075604E-1,-4.7934253E-2,2.9072952E-1,6.262985E-2,3.5173067E-1,-1.6434774E-1,3.8866237E-2,-1.3329226E-2,-7.885421E-3,4.7772862E-2,-1.327899E-2,2.789776E-2],"categories":[],"categories_nodes":[],"categories_segments":[],"categories_sizes":[],"default_left":[0,0,0,0,0,0,0,0,0,0,0,0,0],"id":12,"left_children":[1,3,5,7,-1,9,11,-1,-1,-1,-1,-1,-1],"loss_changes":[2.9447494E0,8.324404E-1,9.103909E-1,1.21314E0,0E0,1.5199587E0,1.2356786E0,0E0,0E0,0E0,0E0,0E0,0E0],"parents":[2147483647,0,0,1,1,2,2,3,3,5,5,6,6],"right_children":[2,4,6,8,-1,10,12,-1,-1,-1,-1,-1,-1],"split_conditions":[-2.8022426E-1,-4.7301617E-1,-6.430526E-1,-1.0568458E0,6.262985E-2,-9.4518906E-1,8.573214E-1,3.8866237E-2,-1.3329226E-2,-7.885421E-3,4.7772862E-2,-1.327899E-2,2.789776E-2],"split_indices":[1,1,0,0,0,0,0,0,0,0,0,0,0],"split_type":[0,0,0,0,0,0,0,0,0,0,0,0,0],"sum_hessian":[2.1527205E1,4.202445E0,1.7324759E1,2.7093213E0,1.4931238E0,3.4520307E0,1.3872728E1,1.2356745E0,1.4736466E0,2.272888E0,1.1791427E0,1.2722029E1,1.1506999E0],"tree_param":{"num_deleted":"0","num_feature":"3","num_nodes":"13","size_leaf_vector":"1"}},{"base_weights":[1.2643442E-1,7.122512E-1,-5.767469E-2,7.6024467E-3,4.5252737E-2,2.4511215E-1,-3.1190258E-1,2.4027137E-2,-1.5962629E-2,-2.2016126E-3,-3.2340307E-2],"categories":[],"categories_nodes":[],"categories_segments":[],"categories_sizes":[],"default_left":[0,0,0,0,0,0,0,0,0,0,0],"id":13,"left_children":[1,3,5,-1,-1,7,9,-1,-1,-1,-1],"loss_changes":[2.2435465E0,3.9790106E-1,1.3437014E0,0E0,0E0,1.2261617E0,8.138141E-1,0E0,0E0,0E0,0E0],"parents":[2147483647,0,0,1,1,2,2,5,5,6,6],"right_children":[2,4,6,-1,-1,8,10,-1,-1,-1,-1],"split_conditions":[-2.8022426E-1,-7.4336416E-1,-2.330272E-1,7.6024467E-3,4.5252737E-2,2.0697348E-1,4.434601E-2,2.4027137E-2,-1.5962629E-2,-2.2016126E-3,-3.2340307E-2],"split_indices":[1,1,0,0,0,1,1,0,0,0,0],"split_type":[0,0,0,0,0,0,0,0,0,0,0],"sum_hessian":[1.9420788E1,3.958046E0,1.5462743E1,1.4714069E0,2.486639E0,7.073738E0,8.389005E0,5.0962915E0,1.9774466E0,5.2896175E0,3.0993874E0],"tree_param":{"num_deleted":"0","num_feature":"3","num_nodes":"11","size_leaf_vector":"1"}},{"base_weights":[2.1092806E-2,4.7240876E-2,-8.845703E-2,-4.532471E-2,1.4876283E-2,4.0250245E-2,-7.1143913E-3],"categories":[],"categories_nodes":[],"categories_segments":[],"categories_sizes":[],"default_left":[0,0,0,0,0,0,0],"id":14,"left_children":[1,-1,3,-1,5,-1,-1],"loss_changes":[2.3535554E0,0E0,1.7859285E0,0E0,2.5485098E0,0E0,0E0],"parents":[2147483647,0,0,2,2,4,4],"right_children":[2,-1,4,-1,6,-1,-1],"split_conditions":[-2.300336E0,4.7240876E-2,-1.07349E0,-4.532471E-2,-6.405126E-1,4.0250245E-2,-7.1143913E-3],"split_indices":[0,0,0,0,0,0,0],"split_type":[0,0,0,0,0,0,0],"sum_hessian":[2.1431984E1,1.4638925E0,1.9968092E1,1.367754E0,1.8600338E1,2.4020712E0,1.6198267E1],"tree_param":{"num_deleted":"0","num_feature":"3","num_nodes":"7","size_leaf_vector":"1"}},{"base_weights":[-5.615452E-2,4.5711756E-2,-1.656437E-1,-4.4156E-2,-7.372202E-2,1.6712932E-3,-2.799038E-2],"categories":[],"categories_nodes":[],"categories_segments":[],"categories_sizes":[],"default_left":[0,0,0,0,0,0,0],"id":15,"left_children":[1,-1,3,-1,5,-1,-1],"loss_changes":[2.5795352E0,0E0,1.3451254E0,0E0,1.0627416E0,0E0,0E0],"parents":[2147483647,0,0,2,2,4,4],"right_children":[2,-1,4,-1,6,-1,-1],"split_conditions":[-2.300336E0,4.5711756E-2,-1.3055824E0,-4.4156E-2,3.9669916E-1,1.6712932E-3,-2.799038E-2],"split_indices":[0,0,0,0,1,0,0],"split_type":[0,0,0,0,0,0,0],"sum_hessian":[2.1853294E1,1.4704926E0,2.0382803E1,1.3373191E0,1.9045483E1,1.636859E1,2.6768947E0],"tree_param":{"num_deleted":"0","num_feature":"3","num_nodes":"7","size_leaf_vector":"1"}},{"base_weights":[-1.3891983E-1,4.7358325E-1,-3.0473956E-1,-4.016931E-3,3.380785E-2,-5.0680786E-1,4.5090035E-2,-1.0753431E-2,-4.7018986E-2,4.5648713E-2,-1.8241182E-2],"categories":[],"categories_nodes":[],"categories_segments":[],"categories_sizes":[],"default_left":[0,0,0,0,0,0,0,0,0,0,0],"id":16,"left_children":[1,3,5,-1,-1,7,9,-1,-1,-1,-1],"loss_changes":[2.3204172E0,6.1045825E-1,1.2577564E0,0E0,0E0,1.2087479E0,2.9352431E0,0E0,0E0,0E0,0E0],"parents":[2147483647,0,0,1,1,2,2,5,5,6,6],"right_children":[2,4,6,-1,-1,8,10,-1,-1,-1,-1],"split_conditions":[-2.8022426E-1,-7.7473074E-1,0E0,-4.016931E-3,3.380785E-2,3E0,5.1102556E-2,-1.0753431E-2,-4.7018986E-2,4.5648713E-2,-1.8241182E-2],"split_indices":[1,1,0,0,0,2,0,0,0,0,0],"split_type":[0,0,0,0,0,0,0,0,0,0,0],"sum_hessian":[2.0425642E1,3.9562137E0,1.6469429E1,1.2209722E0,2.7352414E0,1.0154987E1,6.314442E0,6.964677E0,3.19031E0,1.6319605E0,4.682482E0],"tree_param":{"num_deleted":"0","num_feature":"3","num_nodes":"11","size_leaf_vector":"1"}},{"base_weights":[1.4594621E-2,3.9333284E-2,-6.7319684E-2,6.661315E-2,-5.4578197E-1,-2.1673294E-2,9.577797E-3,-4.9334142E-2,9.720901E-3],"categories":[],"categories_nodes":[],"categories_segments":[],"categories_sizes":[],"default_left":[0,0,0,0,0,0,0,0,0],"id":17,"left_children":[1,-1,3,5,7,-1,-1,-1,-1],"loss_changes":[1.468111E0,0E0,1.3917537E0,1.1712359E0,1.7369813E0,0E0,0E0,0E0,0E0],"parents":[2147483647,0,0,2,2,3,3,4,4],"right_children":[2,-1,4,6,8,-1,-1,-1,-1],"split_conditions":[-2.300336E0,3.9333284E-2,3.104602E-1,-8.247861E-1,3E0,-2.1673294E-2,9.577797E-3,-4.9334142E-2,9.720901E-3],"split_indices":[0,0,1,0,2,0,0,0,0],"split_type":[0,0,0,0,0,0,0,0,0],"sum_hessian":[2.1376202E1,1.225156E0,2.0151047E1,1.6416468E1,3.7345781E0,2.7880564E0,1.3628411E1,2.131784E0,1.6027943E0],"tree_param":{"num_deleted":"0","num_feature":"3","num_nodes":"9","size_leaf_vector":"1"}},{"base_weights":[-1.7899225E-2,1.9745499E-1,-6.855481E-1,-2.0410456E-2,7.575709E-2,-5.229559E-2,-3.0350387E-3,2.5071949E-2,-1.8280087E-2],"categories":[],"categories_nodes":[],"categories_segments":[],"categories_sizes":[],"default_left":[0,0,0,0,0,0,0,0,0],"id":18,"left_children":[1,3,5,7,-1,-1,-1,-1,-1],"loss_changes":[3.2183452E0,4.9081225E0,1.1644044E0,2.9872377E0,0E0,0E0,0E0,0E0,0E0],"parents":[2147483647,0,0,1,1,2,2,3,3],"right_children":[2,4,6,8,-1,-1,-1,-1,-1],"split_conditions":[5.1102556E-2,0E0,3E0,-1.01015255E-1,7.575709E-2,-5.229559E-2,-3.0350387E-3,2.5071949E-2,-1.8280087E-2],"split_indices":[0,0,2,1,0,0,0,0,0],"split_type":[0,0,0,0,0,0,0,0,0],"sum_hessian":[2.0442196E1,1.5989077E1,4.4531207E0,1.456536E1,1.4237164E0,2.3969038E0,2.0562167E0,5.618638E0,8.946722E0],"tree_param":{"num_deleted":"0","num_feature":"3","num_nodes":"9","size_leaf_vector":"1"}},{"base_weights":[4.8644606E-2,5.553988E-1,-9.936948E-2,-5.0975145E-3,8.144479E-1,7.677724E-3,-4.0981468E-2,7.1068644E-3,5.6108285E-2,1.6708432E-2,-6.9986726E-3],"categories":[],"categories_nodes":[],"categories_segments":[],"categories_sizes":[],"default_left":[0,0,0,0,0,0,0,0,0,0,0],"id":19,"left_children":[1,3,5,-1,7,9,-1,-1,-1,-1,-1],"loss_changes":[1.56501E0,8.8372755E-1,1.2728487E0,0E0,5.6130147E-1,7.839643E-1,0E0,0E0,0E0,0E0,0E0],"parents":[2147483647,0,0,1,1,2,2,4,4,5,5],"right_children":[2,4,6,-1,8,10,-1,-1,-1,-1,-1],"split_conditions":[-3.2099816E-1,-7.4336416E-1,4E0,-5.0975145E-3,-3.2163376E-1,-5.405899E-1,-4.0981468E-2,7.1068644E-3,5.6108285E-2,1.6708432E-2,-6.9986726E-3],"split_indices":[1,1,2,0,0,0,0,0,0,0,0],"split_type":[0,0,0,0,0,0,0,0,0,0,0],"sum_hessian":[1.9129124E1,3.7020652E0,1.5427058E1,1.217937E0,2.4841282E0,1.4292242E1,1.1348162E0,1.2390107E0,1.2451177E0,4.057326E0,1.0234917E1],"tree_param":{"num_deleted":"0","num_feature":"3","num_nodes":"11","size_leaf_vector":"1"}},{"base_weights":[2.1569183E-2,4.2663004E-2,-7.8716256E-2,2.909838E-2,-4.6654712E-2,6.8036537E-3,-3.097028E-2],"categories":[],"categories_nodes":[],"categories_segments":[],"categories_sizes":[],"default_left":[0,0,0,0,0,0,0],"id":20,"left_children":[1,-1,3,5,-1,-1,-1],"loss_changes":[1.918704E0,0E0,1.9362963E0,1.4282717E0,0E0,0E0,0E0],"parents":[2147483647,0,0,2,2,3,3],"right_children":[2,-1,4,6,-1,-1,-1],"split_conditions":[-2.300336E0,4.2663004E-2,4E0,5.831437E-1,-4.6654712E-2,6.8036537E-3,-3.097028E-2],"split_indices":[0,0,2,1,0,0,0],"split_type":[0,0,0,0,0,0,0],"sum_hessian":[2.1198978E1,1.4731854E0,1.9725792E1,1.8373205E1,1.3525873E0,1.6449871E1,1.9233329E0],"tree_param":{"num_deleted":"0","num_feature":"3","num_nodes":"7","size_leaf_vector":"1"}},{"base_weights":[-1.0768007E-2,4.13651E-2,-1.22017935E-1,-7.3565105E-3,-3.414155E-2,-2.967987E-2,7.1140365E-3],"categories":[],"categories_nodes":[],"categories_segments":[],"categories_sizes":[],"default_left":[0,0,0,0,0,0,0],"id":21,"left_children":[1,-1,3,5,-1,-1,-1],"loss_changes":[1.9676042E0,0E0,1.1875639E0,1.5239006E0,0E0,0E0,0E0],"parents":[2147483647,0,0,2,2,3,3],"right_children":[2,-1,4,6,-1,-1,-1],"split_conditions":[-2.300336E0,4.13651E-2,5.831437E-1,-8.247861E-1,-3.414155E-2,-2.967987E-2,7.1140365E-3],"split_indices":[0,0,1,0,0,0,0],"split_type":[0,0,0,0,0,0,0],"sum_hessian":[1.9020956E1,1.4747695E0,1.7546186E1,1.5408873E1,2.137314E0,2.5300126E0,1.287886E1],"tree_param":{"num_deleted":"0","num_feature":"3","num_nodes":"7","size_leaf_vector":"1"}},{"base_weights":[-9.778346E-2,8.3201194E-1,-2.8992563E-1,5.1735003E-2,1.2775409E-2,-3.9675996E-1,1.584229E-2,-1.129047E-2,-4.0549703E-2],"categories":[],"categories_nodes":[],"categories_segments":[],"categories_sizes":[],"default_left":[0,0,0,0,0,0,0,0,0],"id":22,"left_children":[1,3,5,-1,-1,7,-1,-1,-1],"loss_changes":[3.5891051E0,1.408329E-1,1.1805187E0,0E0,0E0,8.280723E-1,0E0,0E0,0E0],"parents":[2147483647,0,0,1,1,2,2,5,5],"right_children":[2,4,6,-1,-1,8,-1,-1,-1],"split_conditions":[-3.6697313E-1,-4.9236596E-1,3.5310328E-1,5.1735003E-2,1.2775409E-2,5.1102556E-2,1.584229E-2,-1.129047E-2,-4.0549703E-2],"split_indices":[1,0,0,0,0,0,0,0,0],"split_type":[0,0,0,0,0,0,0,0,0],"sum_hessian":[1.7739597E1,2.467744E0,1.52718525E1,1.2377794E0,1.2299649E0,1.3279791E1,1.9920614E0,1.04941E1,2.785692E0],"tree_param":{"num_deleted":"0","num_feature":"3","num_nodes":"9","size_leaf_vector":"1"}},{"base_weights":[1.8703529E-1,-4.0589357E-3,5.8603305E-1,2.5186628E-1,-4.9252713E-1,5.4991145E-2,2.1514986E-1,-1.4051902E-3,3.8945623E-2,-3.3585753E-2,4.1073197E-3,1.9984087E-2,-1.2143373E-2],"categories":[],"categories_nodes":[],"categories_segments":[],"categories_sizes":[],"default_left":[0,0,0,0,0,0,0,0,0,0,0,0,0],"id":23,"left_children":[1,3,5,7,9,-1,11,-1,-1,-1,-1,-1,-1],"loss_changes":[1.4979562E0,1.9062274E0,9.751191E-1,1.4998908E0,5.947304E-1,0E0,5.142798E-1,0E0,0E0,0E0,0E0,0E0,0E0],"parents":[2147483647,0,0,1,1,2,2,3,3,4,4,6,6],"right_children":[2,4,6,8,10,-1,12,-1,-1,-1,-1,-1,-1],"split_conditions":[-1.4920942E-2,-2.7741334E-1,5.1102556E-2,-5.767504E-1,-7.514691E-2,5.4991145E-2,5.831437E-1,-1.4051902E-3,3.8945623E-2,-3.3585753E-2,4.1073197E-3,1.9984087E-2,-1.2143373E-2],"split_indices":[0,0,0,0,0,0,1,0,0,0,0,0,0],"split_type":[0,0,0,0,0,0,0,0,0,0,0,0,0],"sum_hessian":[1.8615118E1,1.3256118E1,5.3589997E0,9.01646E0,4.2396574E0,1.4226986E0,3.9363012E0,6.5067253E0,2.509735E0,3.1031928E0,1.1364648E0,2.896634E0,1.0396672E0],"tree_param":{"num_deleted":"0","num_feature":"3","num_nodes":"13","size_leaf_vector":"1"}},{"base_weights":[-6.73134E-2,5.1214665E-1,-2.4389295E-1,-6.857361E-3,7.33257E-1,-3.3982784E-1,3.0604107E-2,4.4145245E-2,1.0437925E-2,-4.103793E-2,-9.703902E-3],"categories":[],"categories_nodes":[],"categories_segments":[],"categories_sizes":[],"default_left":[0,0,0,0,0,0,0,0,0,0,0],"id":24,"left_children":[1,3,5,-1,7,9,-1,-1,-1,-1,-1],"loss_changes":[2.3671975E0,8.816849E-1,1.6428837E0,0E0,1.4662242E-1,9.871522E-1,0E0,0E0,0E0,0E0,0E0],"parents":[2147483647,0,0,1,1,2,2,4,4,5,5],"right_children":[2,4,6,-1,8,10,-1,-1,-1,-1,-1],"split_conditions":[-2.8022426E-1,-7.4336416E-1,7.5592893E-1,-6.857361E-3,3E0,-1.1683327E-2,3.0604107E-2,4.4145245E-2,1.0437925E-2,-4.103793E-2,-9.703902E-3],"split_indices":[1,1,0,0,2,1,0,0,0,0,0],"split_type":[0,0,0,0,0,0,0,0,0,0,0],"sum_hessian":[2.0914297E1,4.440865E0,1.647343E1,1.2245853E0,3.2162797E0,1.5355437E1,1.117994E0,1.970681E0,1.2455988E0,2.494163E0,1.2861274E1],"tree_param":{"num_deleted":"0","num_feature":"3","num_nodes":"11","size_leaf_vector":"1"}},{"base_weights":[-1.4774697E-1,3.3631116E-2,-2.337789E-1,-4.4197492E-2,-7.674458E-2,4.4961806E-4,-3.5463262E-2],"categories":[],"categories_nodes":[],"categories_segments":[],"categories_sizes":[],"default_left":[0,0,0,0,0,0,0],"id":25,"left_children":[1,-1,3,-1,5,-1,-1],"loss_changes":[1.6153989E0,0E0,1.9171007E0,0E0,9.14967E-1,0E0,0E0],"parents":[2147483647,0,0,2,2,4,4],"right_children":[2,-1,4,-1,6,-1,-1],"split_conditions":[-2.300336E0,3.3631116E-2,-8.247861E-1,-4.4197492E-2,7.594937E-1,4.4961806E-4,-3.5463262E-2],"split_indices":[0,0,0,0,1,0,0],"split_type":[0,0,0,0,0,0,0],"sum_hessian":[1.9660192E1,1.2189016E0,1.844129E1,2.687049E0,1.5754242E1,1.4741802E1,1.0124391E0],"tree_param":{"num_deleted":"0","num_feature":"3","num_nodes":"7","size_leaf_vector":"1"}},{"base_weights":[-2.2860846E-2,-6.3901657E-1,1.3019885E-1,-1.2057129E-3,-4.1769437E-2,4.065362E-2,-4.1166353E-3,2.6671818E-2,-6.82872E-3],"categories":[],"categories_nodes":[],"categories_segments":[],"categories_sizes":[],"default_left":[0,0,0,0,0,0,0,0,0],"id":26,"left_children":[1,3,5,-1,-1,-1,7,-1,-1],"loss_changes":[2.1803927E0,5.345944E-1,1.7133319E0,0E0,0E0,0E0,1.2529811E0,0E0,0E0],"parents":[2147483647,0,0,1,1,2,2,6,6],"right_children":[2,4,6,-1,-1,-1,8,-1,-1],"split_conditions":[-6.9631064E-1,-2.0412414E0,-5.405899E-1,-1.2057129E-3,-4.1769437E-2,4.065362E-2,-2.8022426E-1,2.6671818E-2,-6.82872E-3],"split_indices":[0,0,0,0,0,0,1,0,0],"split_type":[0,0,0,0,0,0,0,0,0],"sum_hessian":[2.1237558E1,3.5941262E0,1.7643433E1,1.1417501E0,2.4523761E0,2.0693245E0,1.5574108E1,2.480457E0,1.3093651E1],"tree_param":{"num_deleted":"0","num_feature":"3","num_nodes":"9","size_leaf_vector":"1"}},{"base_weights":[5.8559265E-2,3.6199424E-2,-1.9374153E-2,-3.8156625E-2,6.5544054E-2,9.190097E-3,-2.6518041E-2],"categories":[],"categories_nodes":[],"categories_segments":[],"categories_sizes":[],"default_left":[0,0,0,0,0,0,0],"id":27,"left_children":[1,-1,3,-1,5,-1,-1],"loss_changes":[1.0742829E0,0E0,1.2674282E0,0E0,1.38153E0,0E0,0E0],"parents":[2147483647,0,0,2,2,4,4],"right_children":[2,-1,4,-1,6,-1,-1],"split_conditions":[-2.2445703E0,3.6199424E-2,-1.3055824E0,-3.8156625E-2,4E0,9.190097E-3,-2.6518041E-2],"split_indices":[0,0,0,0,2,0,0],"split_type":[0,0,0,0,0,0,0],"sum_hessian":[1.9444914E1,1.1694877E0,1.8275425E1,1.0543342E0,1.722109E1,1.4946502E1,2.274589E0],"tree_param":{"num_deleted":"0","num_feature":"3","num_nodes":"7","size_leaf_vector":"1"}},{"base_weights":[-1.16372764E-1,3.5219748E-2,-1.9787966E-1,-2.7660385E-1,3.0717934E-2,-4.402721E-2,-8.855141E-3],"categories":[],"categories_nodes":[],"categories_segments":[],"categories_sizes":[],"default_left":[0,0,0,0,0,0,0],"id":28,"left_children":[1,-1,3,5,-1,-1,-1],"loss_changes":[1.5837787E0,0E0,1.4757216E0,1.0042228E0,0E0,0E0,0E0],"parents":[2147483647,0,0,2,2,3,3],"right_children":[2,-1,4,6,-1,-1,-1],"split_conditions":[-2.2445703E0,3.5219748E-2,8.573214E-1,-1.07349E0,3.0717934E-2,-4.402721E-2,-8.855141E-3],"split_indices":[0,0,0,0,0,0,0],"split_type":[0,0,0,0,0,0,0],"sum_hessian":[2.0590904E1,1.1697245E0,1.942118E1,1.8306337E1,1.1148417E0,1.4790947E0,1.6827244E1],"tree_param":{"num_deleted":"0","num_feature":"3","num_nodes":"7","size_leaf_vector":"1"}},{"base_weights":[3.5235456E-3,3.8711956E-1,-1.7901231E-1,-3.663211E-3,6.078824E-1,-4.6008316E-1,1.7767721E-1,5.8065277E-2,9.248892E-4,-3.3676565E-2,1.5558727E-2,-9.405553E-3,2.0138018E-2],"categories":[],"categories_nodes":[],"categories_segments":[],"categories_sizes":[],"default_left":[0,0,0,0,0,0,0,0,0,0,0,0,0],"id":29,"left_children":[1,3,5,-1,7,9,11,-1,-1,-1,-1,-1,-1],"loss_changes":[1.5070971E0,7.49576E-1,1.5451847E0,0E0,1.5429397E0,1.5994304E0,6.648216E-1,0E0,0E0,0E0,0E0,0E0,0E0],"parents":[2147483647,0,0,1,1,2,2,4,4,5,5,6,6],"right_children":[2,4,6,-1,8,10,12,-1,-1,-1,-1,-1,-1],"split_conditions":[-3.0882737E-2,-8.247861E-1,3E0,-3.663211E-3,-2.7741334E-1,2E-1,-3.4647945E-2,5.8065277E-2,9.248892E-4,-3.3676565E-2,1.5558727E-2,-9.405553E-3,2.0138018E-2],"split_indices":[1,0,2,0,0,0,0,0,0,0,0,0,0],"split_type":[0,0,0,0,0,0,0,0,0,0,0,0,0],"sum_hessian":[1.9534098E1,5.9369373E0,1.359716E1,2.1407337E0,3.7962034E0,7.4425616E0,6.154598E0,1.4573779E0,2.3388255E0,5.928531E0,1.5140306E0,2.4070692E0,3.747529E0],"tree_param":{"num_deleted":"0","num_feature":"3","num_nodes":"13","size_leaf_vector":"1"}},{"base_weights":[1.3708752E-1,7.018943E-1,-4.06089E-2,2.3171742E-1,5.373794E-2,-2.2012405E-1,5.4595435E-1,2.977061E-2,-1.1447488E-2,-4.014537E-3,-4.082321E-2,5.0810915E-3,4.214311E-2],"categories":[],"categories_nodes":[],"categories_segments":[],"categories_sizes":[],"default_left":[0,0,0,0,0,0,0,0,0,0,0,0,0],"id":30,"left_children":[1,3,5,7,-1,9,11,-1,-1,-1,-1,-1,-1],"loss_changes":[2.0645413E0,6.1168575E-1,1.8446093E0,7.1372604E-1,0E0,1.0394988E0,4.5853078E-1,0E0,0E0,0E0,0E0,0E0,0E0],"parents":[2147483647,0,0,1,1,2,2,3,3,5,5,6,6],"right_children":[2,4,6,8,-1,10,12,-1,-1,-1,-1,-1,-1],"split_conditions":[-2.8022426E-1,-4.7301617E-1,2E-1,-1.0568458E0,5.373794E-2,2.307351E-2,1.2569752E-1,2.977061E-2,-1.1447488E-2,-4.014537E-3,-4.082321E-2,5.0810915E-3,4.214311E-2],"split_indices":[1,1,0,0,0,0,1,0,0,0,0,0,0],"split_type":[0,0,0,0,0,0,0,0,0,0,0,0,0],"sum_hessian":[1.928651E1,3.909675E0,1.5376836E1,2.4463341E0,1.4633408E0,1.2251913E1,3.1249228E0,1.2035986E0,1.2427355E0,1.0843828E1,1.408085E0,1.7893572E0,1.3355656E0],"tree_param":{"num_deleted":"0","num_feature":"3","num_nodes":"13","size_leaf_vector":"1"}},{"base_weights":[6.238943E-2,5.08891E-1,-7.5061865E-2,-7.3584565E-3,7.65174E-1,-3.9590072E-2,2.9234838E-2,1.0330428E-2,5.172036E-2,-9.9976985E-3,1.5745854E-2],"categories":[],"categories_nodes":[],"categories_segments":[],"categories_sizes":[],"default_left":[0,0,0,0,0,0,0,0,0,0,0],"id":31,"left_children":[1,3,5,-1,7,-1,9,-1,-1,-1,-1],"loss_changes":[1.2785788E0,9.340892E-1,1.2435011E0,0E0,3.3889008E-1,0E0,1.0592147E0,0E0,0E0,0E0,0E0],"parents":[2147483647,0,0,1,1,2,2,4,4,6,6],"right_children":[2,4,6,-1,8,-1,10,-1,-1,-1,-1],"split_conditions":[-2.8022426E-1,-6.494066E-1,-1.1111111E-1,-7.3584565E-3,-3.2163376E-1,-3.9590072E-2,3E0,1.0330428E-2,5.172036E-2,-9.9976985E-3,1.5745854E-2],"split_indices":[1,1,1,0,0,0,2,0,0,0,0],"split_type":[0,0,0,0,0,0,0,0,0,0,0],"sum_hessian":[1.9210781E1,3.8857713E0,1.532501E1,1.2111354E0,2.674636E0,1.1093826E0,1.4215628E1,1.4447263E0,1.2299095E0,8.054212E0,6.161416E0],"tree_param":{"num_deleted":"0","num_feature":"3","num_nodes":"11","size_leaf_vector":"1"}},{"base_weights":[6.3613225E-3,3.625181E-2,-8.1500545E-2,-2.0549576E-1,3.2837287E-1,-3.4158186E-3,-4.4023212E-2,9.2480093E-4,3.1131197E-2],"categories":[],"categories_nodes":[],"categories_segments":[],"categories_sizes":[],"default_left":[0,0,0,0,0,0,0,0,0],"id":32,"left_children":[1,-1,3,5,7,-1,-1,-1,-1],"loss_changes":[1.4230238E0,0E0,1.0913557E0,1.4289255E0,4.5023018E-1,0E0,0E0,0E0,0E0],"parents":[2147483647,0,0,2,2,3,3,4,4],"right_children":[2,-1,4,6,8,-1,-1,-1,-1],"split_conditions":[-2.300336E0,3.625181E-2,2E-1,5.1102556E-2,1.2569752E-1,-3.4158186E-3,-4.4023212E-2,9.2480093E-4,3.1131197E-2],"split_indices":[0,0,0,0,1,0,0,0,0],"split_type":[0,0,0,0,0,0,0,0,0],"sum_hessian":[2.0600317E1,1.4541286E0,1.9146189E1,1.5082159E1,4.0640297E0,1.3449849E1,1.6323093E0,2.4971404E0,1.5668895E0],"tree_param":{"num_deleted":"0","num_feature":"3","num_nodes":"9","size_leaf_vector":"1"}},{"base_weights":[-1.8228205E-1,4.3686014E-1,-3.5855332E-1,3.6085468E-2,4.1136234E-3,-4.6906462E-1,2.6037363E-2,-2.9530799E-2,-1.1693399E-2],"categories":[],"categories_nodes":[],"categories_segments":[],"categories_sizes":[],"default_left":[0,0,0,0,0,0,0,0,0],"id":33,"left_children":[1,3,5,-1,-1,7,-1,-1,-1],"loss_changes":[2.2040944E0,4.0607667E-1,1.7166399E0,0E0,0E0,2.6172757E-1,0E0,0E0,0E0],"parents":[2147483647,0,0,1,1,2,2,5,5],"right_children":[2,4,6,-1,-1,8,-1,-1,-1],"split_conditions":[-1.9285202E-1,-1.0568458E0,8.1315714E-1,3.6085468E-2,4.1136234E-3,3E0,2.6037363E-2,-2.9530799E-2,-1.1693399E-2],"split_indices":[1,0,0,0,0,2,0,0,0],"split_type":[0,0,0,0,0,0,0,0,0],"sum_hessian":[1.776043E1,3.6082675E0,1.4152162E1,1.426764E0,2.1815035E0,1.2986548E1,1.1656132E0,7.5654893E0,5.421059E0],"tree_param":{"num_deleted":"0","num_feature":"3","num_nodes":"9","size_leaf_vector":"1"}},{"base_weights":[6.711735E-2,1.3783544E-1,-1.9307649E-2,3.3979898E-3,4.8492953E-2,8.1460895E-3,-4.3996252E-2],"categories":[],"categories_nodes":[],"categories_segments":[],"categories_sizes":[],"default_left":[0,0,0,0,0,0,0],"id":34,"left_children":[1,3,-1,5,-1,-1,-1],"loss_changes":[7.130968E-1,2.071015E0,0E0,2.5344112E0,0E0,0E0,0E0],"parents":[2147483647,0,0,1,1,3,3],"right_children":[2,4,-1,6,-1,-1,-1],"split_conditions":[6E-1,2E-1,-1.9307649E-2,5.1102556E-2,4.8492953E-2,8.1460895E-3,-4.3996252E-2],"split_indices":[0,0,0,0,0,0,0],"split_type":[0,0,0,0,0,0,0],"sum_hessian":[1.9585972E1,1.7544615E1,2.041358E0,1.5968522E1,1.5760921E0,1.4216627E1,1.7518951E0],"tree_param":{"num_deleted":"0","num_feature":"3","num_nodes":"7","size_leaf_vector":"1"}},{"base_weights":[1.8766629E-2,1.7600712E-1,-4.8031765E-1,2.8973126E-1,-2.9321676E-1,-4.122322E-2,9.221763E-3,2.6674628E-2,7.0268265E-3,-2.7017703E-2,9.266014E-3],"categories":[],"categories_nodes":[],"categories_segments":[],"categories_sizes":[],"default_left":[0,0,0,0,0,0,0,0,0,0,0],"id":35,"left_children":[1,3,5,7,9,-1,-1,-1,-1,-1,-1],"loss_changes":[1.7901254E0,1.0059139E0,1.4046109E0,4.4853282E-1,5.5710196E-1,0E0,0E0,0E0,0E0,0E0,0E0],"parents":[2147483647,0,0,1,1,2,2,3,3,4,4],"right_children":[2,4,6,8,10,-1,-1,-1,-1,-1,-1],"split_conditions":[5.1102556E-2,2.0697348E-1,1.527207E-1,-2.8022426E-1,6.633881E-1,-4.122322E-2,9.221763E-3,2.6674628E-2,7.0268265E-3,-2.7017703E-2,9.266014E-3],"split_indices":[0,1,1,1,1,0,0,0,0,0,0],"split_type":[0,0,0,0,0,0,0,0,0,0,0],"sum_hessian":[2.0733786E1,1.6258694E1,4.4750915E0,1.3394778E1,2.8639147E0,2.790286E0,1.6848055E0,4.107667E0,9.287111E0,1.8033876E0,1.0605271E0],"tree_param":{"num_deleted":"0","num_feature":"3","num_nodes":"11","size_leaf_vector":"1"}},{"base_weights":[1.3146346E-2,3.0182784E-2,-5.273574E-2,-3.972903E-2,3.689795E-2,6.6726874E-3,-2.8040303E-2],"categories":[],"categories_nodes":[],"categories_segments":[],"categories_sizes":[],"default_left":[0,0,0,0,0,0,0],"id":36,"left_children":[1,-1,3,-1,5,-1,-1],"loss_changes":[8.6000746E-1,0E0,1.3639009E0,0E0,1.1634382E0,0E0,0E0],"parents":[2147483647,0,0,2,2,4,4],"right_children":[2,-1,4,-1,6,-1,-1],"split_conditions":[-2.300336E0,3.0182784E-2,-1.3055824E0,-3.972903E-2,3.9669916E-1,6.6726874E-3,-2.8040303E-2],"split_indices":[0,0,0,0,1,0,0],"split_type":[0,0,0,0,0,0,0],"sum_hessian":[2.0287617E1,1.2169824E0,1.9070635E1,1.207998E0,1.7862637E1,1.6047047E1,1.8155895E0],"tree_param":{"num_deleted":"0","num_feature":"3","num_nodes":"7","size_leaf_vector":"1"}},{"base_weights":[4.0004924E-2,3.643587E-1,-8.9705534E-2,6.62319E-2,3.762475E-2,-4.014856E-1,2.841983E-1,2.9389257E-2,-1.4373372E-2,2.8768586E-4,-4.2439807E-2,4.538933E-2,-3.536554E-3],"categories":[],"categories_nodes":[],"categories_segments":[],"categories_sizes":[],"default_left":[0,0,0,0,0,0,0,0,0,0,0,0,0],"id":37,"left_children":[1,3,5,7,-1,9,11,-1,-1,-1,-1,-1,-1],"loss_changes":[9.333398E-1,6.8065315E-1,1.9903302E0,1.0298991E0,0E0,1.6791052E0,1.8135297E0,0E0,0E0,0E0,0E0,0E0,0E0],"parents":[2147483647,0,0,1,1,2,2,3,3,5,5,6,6],"right_children":[2,4,6,8,-1,10,12,-1,-1,-1,-1,-1,-1],"split_conditions":[-6.405126E-1,-8.247861E-1,0E0,-2.300336E0,3.762475E-2,3E0,5.1102556E-2,2.9389257E-2,-1.4373372E-2,2.8768586E-4,-4.2439807E-2,4.538933E-2,-3.536554E-3],"split_indices":[0,0,0,0,0,2,0,0,0,0,0,0,0],"split_type":[0,0,0,0,0,0,0,0,0,0,0,0,0],"sum_hessian":[2.0407423E1,5.312922E0,1.5094501E1,3.6669698E0,1.6459522E0,8.190815E0,6.903685E0,1.2144141E0,2.4525557E0,4.8041606E0,3.3866546E0,1.9391207E0,4.964565E0],"tree_param":{"num_deleted":"0","num_feature":"3","num_nodes":"13","size_leaf_vector":"1"}},{"base_weights":[-1.1487864E-1,3.1259456E-1,-2.364213E-1,-7.2105858E-3,2.9858066E-2,-3.3504012E-1,2.8092602E-2,3.9588176E-3,-2.553975E-2],"categories":[],"categories_nodes":[],"categories_segments":[],"categories_sizes":[],"default_left":[0,0,0,0,0,0,0,0,0],"id":38,"left_children":[1,3,5,-1,-1,7,-1,-1,-1],"loss_changes":[1.109025E0,7.1543735E-1,1.4542727E0,0E0,0E0,1.1280745E0,0E0,0E0,0E0],"parents":[2147483647,0,0,1,1,2,2,5,5],"right_children":[2,4,6,-1,-1,8,-1,-1,-1],"split_conditions":[-2.8022426E-1,-7.4336416E-1,8.1315714E-1,-7.2105858E-3,2.9858066E-2,-5.405899E-1,2.8092602E-2,3.9588176E-3,-2.553975E-2],"split_indices":[1,1,0,0,0,0,0,0,0],"split_type":[0,0,0,0,0,0,0,0,0],"sum_hessian":[1.8922943E1,3.8412242E0,1.5081718E1,1.6637235E0,2.1775007E0,1.39398775E1,1.1418408E0,4.3164473E0,9.62343E0],"tree_param":{"num_deleted":"0","num_feature":"3","num_nodes":"9","size_leaf_vector":"1"}},{"base_weights":[3.4668475E-2,3.0752268E-1,-2.0552844E-1,1.04242764E-1,4.8178617E-2,-4.146116E-2,-3.5471383E-2,2.5317494E-2,-1.1168435E-2,1.7205099E-2,-1.727966E-2],"categories":[],"categories_nodes":[],"categories_segments":[],"categories_sizes":[],"default_left":[0,0,0,0,0,0,0,0,0,0,0],"id":39,"left_children":[1,3,5,7,-1,-1,9,-1,-1,-1,-1],"loss_changes":[1.3372498E0,1.1667166E0,1.1306983E0,1.2164237E0,0E0,0E0,1.2535864E0,0E0,0E0,0E0,0E0],"parents":[2147483647,0,0,1,1,2,2,3,3,6,6],"right_children":[2,4,6,8,-1,-1,10,-1,-1,-1,-1],"split_conditions":[-2.5925925E-1,-3.8088664E-1,-1.6230053E-1,-1.0568458E0,4.8178617E-2,-4.146116E-2,5.1102556E-2,2.5317494E-2,-1.1168435E-2,1.7205099E-2,-1.727966E-2],"split_indices":[0,0,0,0,0,0,0,0,0,0,0],"split_type":[0,0,0,0,0,0,0,0,0,0,0],"sum_hessian":[1.8439573E1,8.501692E0,9.937881E0,7.375313E0,1.1263791E0,1.2986939E0,8.639187E0,3.066249E0,4.309064E0,3.835347E0,4.80384E0],"tree_param":{"num_deleted":"0","num_feature":"3","num_nodes":"11","size_leaf_vector":"1"}},{"base_weights":[-5.328839E-2,2.6406664E-2,-1.127198E-1,-3.7123673E-2,-4.1245446E-2,2.7904236E-3,-2.7135817E-2],"categories":[],"categories_nodes":[],"categories_segments":[],"categories_sizes":[],"default_left":[0,0,0,0,0,0,0],"id":40,"left_children":[1,-1,3,-1,5,-1,-1],"loss_changes":[8.072287E-1,0E0,8.901046E-1,0E0,9.7590965E-1,0E0,0E0],"parents":[2147483647,0,0,2,2,4,4],"right_children":[2,-1,4,-1,6,-1,-1],"split_conditions":[-2.300336E0,2.6406664E-2,-1.3055824E0,-3.7123673E-2,4E0,2.7904236E-3,-2.7135817E-2],"split_indices":[0,0,0,0,2,0,0],"split_type":[0,0,0,0,0,0,0],"sum_hessian":[2.0638084E1,1.1825621E0,1.9455523E1,1.0261595E0,1.8429363E1,1.6185547E1,2.2438157E0],"tree_param":{"num_deleted":"0","num_feature":"3","num_nodes":"7","size_leaf_vector":"1"}},{"base_weights":[3.348327E-2,-2.6870478E-2,9.619451E-2,5.124947E-1,-2.995391E-2,3.889898E-2,-1.5418566E-3,-8.994612E-3,1.4686316E-2],"categories":[],"categories_nodes":[],"categories_segments":[],"categories_sizes":[],"default_left":[0,0,0,0,0,0,0,0,0],"id":41,"left_children":[1,-1,3,5,7,-1,-1,-1,-1],"loss_changes":[7.840063E-1,0E0,1.0277711E0,6.7865217E-1,8.167319E-1,0E0,0E0,0E0,0E0],"parents":[2147483647,0,0,2,2,3,3,4,4],"right_children":[2,-1,4,6,8,-1,-1,-1,-1],"split_conditions":[-7.4336416E-1,-2.6870478E-2,-1.7108831E-1,3E0,1.5971914E-1,3.889898E-2,-1.5418566E-3,-8.994612E-3,1.4686316E-2],"split_indices":[1,0,1,2,1,0,0,0,0],"split_type":[0,0,0,0,0,0,0,0,0],"sum_hessian":[1.94548E1,1.176344E0,1.8278456E1,3.5384955E0,1.473996E1,2.0869124E0,1.4515831E0,1.0377172E1,4.362787E0],"tree_param":{"num_deleted":"0","num_feature":"3","num_nodes":"9","size_leaf_vector":"1"}},{"base_weights":[4.790909E-2,4.898022E-1,-7.209226E-2,3.0214263E-2,7.4398518E-3,-3.3324774E-2,5.2593436E-2,8.649307E-3,-2.6084695E-2],"categories":[],"categories_nodes":[],"categories_segments":[],"categories_sizes":[],"default_left":[0,0,0,0,0,0,0,0,0],"id":42,"left_children":[1,3,5,-1,-1,-1,7,-1,-1],"loss_changes":[1.0758322E0,7.869232E-2,1.2433468E0,0E0,0E0,0E0,1.0860858E0,0E0,0E0],"parents":[2147483647,0,0,1,1,2,2,6,6],"right_children":[2,4,6,-1,-1,-1,8,-1,-1],"split_conditions":[-2.8022426E-1,-5.560146E-1,-9.4518906E-1,3.0214263E-2,7.4398518E-3,-3.3324774E-2,5.831437E-1,8.649307E-3,-2.6084695E-2],"split_indices":[1,1,0,0,0,0,1,0,0],"split_type":[0,0,0,0,0,0,0,0,0],"sum_hessian":[1.8622198E1,3.3189294E0,1.5303269E1,1.9067277E0,1.4122019E0,1.900028E0,1.3403241E1,1.1658048E1,1.7451937E0],"tree_param":{"num_deleted":"0","num_feature":"3","num_nodes":"9","size_leaf_vector":"1"}},{"base_weights":[-2.5720978E-2,4.3018243E-1,-1.6716677E-1,-8.982614E-3,6.5228003E-1,2.8641143E-1,-3.4074745E-1,1.32927885E-2,4.0166207E-2,-7.797194E-3,3.512633E-2,-4.876325E-2,5.8199856E-3],"categories":[],"categories_nodes":[],"categories_segments":[],"categories_sizes":[],"default_left":[0,0,0,0,0,0,0,0,0,0,0,0,0],"id":43,"left_children":[1,3,5,-1,7,9,11,-1,-1,-1,-1,-1,-1],"loss_changes":[1.4205416E0,8.2581663E-1,1.4109828E0,0E0,2.2886157E-2,1.0594257E0,3.7455528E0,0E0,0E0,0E0,0E0,0E0,0E0],"parents":[2147483647,0,0,1,1,2,2,4,4,5,5,6,6],"right_children":[2,4,6,-1,8,10,12,-1,-1,-1,-1,-1,-1],"split_conditions":[-1.9285202E-1,-7.443491E-1,-5.405899E-1,-8.982614E-3,-3.2163376E-1,-6.9631064E-1,0E0,1.32927885E-2,4.0166207E-2,-7.797194E-3,3.512633E-2,-4.876325E-2,5.8199856E-3],"split_indices":[1,1,0,0,0,0,0,0,0,0,0,0,0],"split_type":[0,0,0,0,0,0,0,0,0,0,0,0,0],"sum_hessian":[1.9913649E1,4.231972E0,1.5681677E1,1.1808127E0,3.0511594E0,4.160358E0,1.1521318E1,1.6331366E0,1.4180228E0,2.3196597E0,1.8406982E0,4.3500724E0,7.1712465E0],"tree_param":{"num_deleted":"0","num_feature":"3","num_nodes":"13","size_leaf_vector":"1"}},{"base_weights":[3.2219026E-2,4.7575027E-1,-1.5201078E-1,-2.8932613E-1,5.360374E-2,3.3362982E-1,-2.7927062E-1,2.2712026E-2,-4.19249E-2,3.7427485E-2,-1.3068646E-2,-2.866747E-2,-3.134026E-3],"categories":[],"categories_nodes":[],"categories_segments":[],"categories_sizes":[],"default_left":[0,0,0,0,0,0,0,0,0,0,0,0,0],"id":44,"left_children":[1,3,5,7,-1,9,11,-1,-1,-1,-1,-1,-1],"loss_changes":[1.7606144E0,3.18707E0,1.0422053E0,1.8303179E0,0E0,1.0952952E0,7.7373457E-1,0E0,0E0,0E0,0E0,0E0,0E0],"parents":[2147483647,0,0,1,1,2,2,3,3,5,5,6,6],"right_children":[2,4,6,8,-1,10,12,-1,-1,-1,-1,-1,-1],"split_conditions":[-5.405899E-1,-1.07349E0,-1.9285202E-1,-2.300336E0,5.360374E-2,3E0,0E0,2.2712026E-2,-4.19249E-2,3.7427485E-2,-1.3068646E-2,-2.866747E-2,-3.134026E-3],"split_indices":[0,0,1,0,0,2,0,0,0,0,0,0,0],"split_type":[0,0,0,0,0,0,0,0,0,0,0,0,0],"sum_hessian":[1.9661617E1,5.305738E0,1.4355879E1,2.5495355E0,2.7562025E0,2.6440785E0,1.1711801E1,1.1565095E0,1.3930259E0,1.4057384E0,1.2383401E0,4.268717E0,7.443084E0],"tree_param":{"num_deleted":"0","num_feature":"3","num_nodes":"13","size_leaf_vector":"1"}},{"base_weights":[6.3785203E-3,1.0145408E-1,-3.092729E-2,-2.761979E-1,2.1319805E-1,3.0231437E-2,-4.003024E-2,4.2803798E-2,3.0709826E-3],"categories":[],"categories_nodes":[],"categories_segments":[],"categories_sizes":[],"default_left":[0,0,0,0,0,0,0,0,0],"id":45,"left_children":[1,3,-1,5,7,-1,-1,-1,-1],"loss_changes":[1.3266289E0,8.742845E-1,0E0,2.723167E0,1.4573592E0,0E0,0E0,0E0,0E0],"parents":[2147483647,0,0,1,1,3,3,4,4],"right_children":[2,4,-1,6,8,-1,-1,-1,-1],"split_conditions":[5.831437E-1,-8.247861E-1,-3.092729E-2,-5.5834216E-1,-5.405899E-1,3.0231437E-2,-4.003024E-2,4.2803798E-2,3.0709826E-3],"split_indices":[1,0,0,1,0,0,0,0,0],"split_type":[0,0,0,0,0,0,0,0,0],"sum_hessian":[2.0271975E1,1.8322115E1,1.9498602E0,3.847461E0,1.4474654E1,1.3787127E0,2.4687483E0,1.8783493E0,1.2596305E1],"tree_param":{"num_deleted":"0","num_feature":"3","num_nodes":"9","size_leaf_vector":"1"}},{"base_weights":[-1.6380945E-1,3.8969898E-1,-3.584412E-1,4.122707E-2,-4.695155E-2,-4.500032E-2,-1.5906775E-1,8.074519E-3,-1.0054284E-2,3.5212066E-2,-1.557599E-2],"categories":[],"categories_nodes":[],"categories_segments":[],"categories_sizes":[],"default_left":[0,0,0,0,0,0,0,0,0,0,0],"id":46,"left_children":[1,3,5,-1,7,-1,9,-1,-1,-1,-1],"loss_changes":[2.255439E0,1.0998007E0,1.4819493E0,0E0,1.5245591E-1,0E0,1.8271353E0,0E0,0E0,0E0,0E0],"parents":[2147483647,0,0,1,1,2,2,4,4,6,6],"right_children":[2,4,6,-1,8,-1,10,-1,-1,-1,-1],"split_conditions":[-6.405126E-1,-1.01015255E-1,-3.2163376E-1,4.122707E-2,-1.0571429E0,-4.500032E-2,-2.5925925E-1,8.074519E-3,-1.0054284E-2,3.5212066E-2,-1.557599E-2],"split_indices":[0,1,0,0,0,0,0,0,0,0,0],"split_type":[0,0,0,0,0,0,0,0,0,0,0],"sum_hessian":[1.8639362E1,4.5883713E0,1.4050992E1,1.8538576E0,2.7345133E0,2.8352714E0,1.1215721E1,1.1421757E0,1.5923376E0,1.1401011E0,1.007562E1],"tree_param":{"num_deleted":"0","num_feature":"3","num_nodes":"11","size_leaf_vector":"1"}},{"base_weights":[-1.1573376E-1,-2.7473497E-1,3.2134885E-1,-1.4167248E-1,-4.342216E-2,3.3038896E-2,-3.4437597E-2,3.7287758E-3,-2.006833E-2,-1.8974947E-2,1.6764952E-2],"categories":[],"categories_nodes":[],"categories_segments":[],"categories_sizes":[],"default_left":[0,0,0,0,0,0,0,0,0,0,0],"id":47,"left_children":[1,3,5,7,-1,-1,9,-1,-1,-1,-1],"loss_changes":[1.4959443E0,1.0928794E0,7.308921E-1,8.03134E-1,0E0,0E0,6.137634E-1,0E0,0E0,0E0,0E0],"parents":[2147483647,0,0,1,1,2,2,3,3,6,6],"right_children":[2,4,6,8,-1,-1,10,-1,-1,-1,-1],"split_conditions":[1.5971914E-1,4.434601E-2,3.9669916E-1,3E0,-4.342216E-2,3.3038896E-2,3E0,3.7287758E-3,-2.006833E-2,-1.8974947E-2,1.6764952E-2],"split_indices":[1,1,1,2,0,0,2,0,0,0,0],"split_type":[0,0,0,0,0,0,0,0,0,0,0],"sum_hessian":[1.9255053E1,1.4391258E1,4.863794E0,1.2768248E1,1.6230099E0,2.0504155E0,2.8133786E0,7.355848E0,5.4124002E0,1.4415916E0,1.3717868E0],"tree_param":{"num_deleted":"0","num_feature":"3","num_nodes":"11","size_leaf_vector":"1"}},{"base_weights":[-9.27173E-2,3.1378484E-1,-2.6081875E-1,-3.628756E-2,4.3961346E-2,-3.7378535E-1,2.828939E-2,2.9936334E-2,-2.3465563E-2,-3.8944047E-2,-9.3617765E-3],"categories":[],"categories_nodes":[],"categories_segments":[],"categories_sizes":[],"default_left":[0,0,0,0,0,0,0,0,0,0,0],"id":48,"left_children":[1,3,5,7,-1,9,-1,-1,-1,-1,-1],"loss_changes":[1.425056E0,1.2600641E0,1.5610143E0,1.5987898E0,0E0,8.605205E-1,0E0,0E0,0E0,0E0,0E0],"parents":[2147483647,0,0,1,1,2,2,3,3,5,5],"right_children":[2,4,6,8,-1,10,-1,-1,-1,-1,-1],"split_conditions":[-6.405126E-1,-8.247861E-1,8.573214E-1,-2.300336E0,4.3961346E-2,-7.8939855E-2,2.828939E-2,2.9936334E-2,-2.3465563E-2,-3.8944047E-2,-9.3617765E-3],"split_indices":[0,0,0,0,0,1,0,0,0,0,0],"split_type":[0,0,0,0,0,0,0,0,0,0,0],"sum_hessian":[1.8656729E1,5.2045264E0,1.3452201E1,3.792417E0,1.4121095E0,1.2316762E1,1.1354395E0,1.3824447E0,2.4099724E0,2.8824E0,9.434361E0],"tree_param":{"num_deleted":"0","num_feature":"3","num_nodes":"11","size_leaf_vector":"1"}},{"base_weights":[-1.189032E-1,3.009595E-1,-2.8246975E-1,5.725299E-2,3.4310576E-2,-3.9689073E-1,2.7422339E-2,2.4167903E-2,-1.0971772E-2,-7.8928685E-3,-4.1594278E-2],"categories":[],"categories_nodes":[],"categories_segments":[],"categories_sizes":[],"default_left":[0,0,0,0,0,0,0,0,0,0,0],"id":49,"left_children":[1,3,5,7,-1,9,-1,-1,-1,-1,-1],"loss_changes":[1.3952969E0,5.0837535E-1,1.5721248E0,6.5593857E-1,0E0,1.2310119E0,0E0,0E0,0E0,0E0,0E0],"parents":[2147483647,0,0,1,1,2,2,3,3,5,5],"right_children":[2,4,6,8,-1,10,-1,-1,-1,-1,-1],"split_conditions":[-6.405126E-1,-6.9631064E-1,8.573214E-1,-2.300336E0,3.4310576E-2,4.434601E-2,2.7422339E-2,2.4167903E-2,-1.0971772E-2,-7.8928685E-3,-4.1594278E-2],"split_indices":[0,0,0,0,0,1,0,0,0,0,0],"split_type":[0,0,0,0,0,0,0,0,0,0,0],"sum_hessian":[1.8079367E1,4.8331256E0,1.3246242E1,3.6639562E0,1.1691694E0,1.2102077E1,1.1441652E0,1.1484234E0,2.5155325E0,8.689833E0,3.4122434E0],"tree_param":{"num_deleted":"0","num_feature":"3","num_nodes":"11","size_leaf_vector":"1"}},{"base_weights":[-1.0162462E-1,-2.4639852E-1,3.8996792E-1,-1.0239493E-1,-4.3228503E-2,3.245326E-2,-6.295147E-5,1.1891049E-2,-1.0001684E-2],"categories":[],"categories_nodes":[],"categories_segments":[],"categories_sizes":[],"default_left":[0,0,0,0,0,0,0,0,0],"id":50,"left_children":[1,3,5,7,-1,-1,-1,-1,-1],"loss_changes":[1.527157E0,1.3487792E0,5.0376844E-1,5.202621E-1,0E0,0E0,0E0,0E0,0E0],"parents":[2147483647,0,0,1,1,2,2,3,3],"right_children":[2,4,6,8,-1,-1,-1,-1,-1],"split_conditions":[2E-1,2.0697348E-1,6E-1,-1.0568458E0,-4.3228503E-2,3.245326E-2,-6.295147E-5,1.1891049E-2,-1.0001684E-2],"split_indices":[0,1,0,0,0,0,0,0,0],"split_type":[0,0,0,0,0,0,0,0,0],"sum_hessian":[1.9107826E1,1.5146082E1,3.961743E0,1.3229824E1,1.9162577E0,1.986859E0,1.9748842E0,2.6300077E0,1.0599816E1],"tree_param":{"num_deleted":"0","num_feature":"3","num_nodes":"9","size_leaf_vector":"1"}},{"base_weights":[8.672261E-2,4.284751E-2,-4.040872E-3,-4.073603E-2,1.21902645E-1,1.203686E-2,-3.8508963E-2],"categories":[],"categories_nodes":[],"categories_segments":[],"categories_sizes":[],"default_left":[0,0,0,0,0,0,0],"id":51,"left_children":[1,-1,3,-1,5,-1,-1],"loss_changes":[1.4037186E0,0E0,2.0303962E0,0E0,2.013053E0,0E0,0E0],"parents":[2147483647,0,0,2,2,4,4],"right_children":[2,-1,4,-1,6,-1,-1],"split_conditions":[-2.300336E0,4.284751E-2,-4.7301617E-1,-4.073603E-2,7.594937E-1,1.203686E-2,-3.8508963E-2],"split_indices":[0,0,1,0,1,0,0],"split_type":[0,0,0,0,0,0,0],"sum_hessian":[1.9029823E1,1.1161861E0,1.7913637E1,1.6733832E0,1.6240253E1,1.4975502E1,1.264752E0],"tree_param":{"num_deleted":"0","num_feature":"3","num_nodes":"7","size_leaf_vector":"1"}},{"base_weights":[9.5469095E-2,4.1976716E-2,6.3934578E-3,-7.29528E-1,1.5140902E-1,-4.4841465E-2,-1.0312643E-2,3.657993E-2,2.9720499E-3],"categories":[],"categories_nodes":[],"categories_segments":[],"categories_sizes":[],"default_left":[0,0,0,0,0,0,0,0,0],"id":52,"left_children":[1,-1,3,5,7,-1,-1,-1,-1],"loss_changes":[1.3033363E0,0E0,2.0999546E0,9.8729014E-2,8.3168113E-1,0E0,0E0,0E0,0E0],"parents":[2147483647,0,0,2,2,3,3,4,4],"right_children":[2,-1,4,6,8,-1,-1,-1,-1],"split_conditions":[-2.300336E0,4.1976716E-2,-8.247861E-1,-3.1927545E-2,-6.303715E-1,-4.4841465E-2,-1.0312643E-2,3.657993E-2,2.9720499E-3],"split_indices":[0,0,0,1,0,0,0,0,0],"split_type":[0,0,0,0,0,0,0,0,0],"sum_hessian":[1.874565E1,1.1034411E0,1.7642208E1,2.240662E0,1.54015465E1,1.1569012E0,1.0837609E0,1.15571E0,1.4245836E1],"tree_param":{"num_deleted":"0","num_feature":"3","num_nodes":"9","size_leaf_vector":"1"}},{"base_weights":[7.5350595E-3,-2.026679E-1,2.6363125E-1,3.3593628E-1,-4.544987E-1,-5.0553147E-2,5.4807734E-1,-1.1846716E-2,3.6815185E-2,-3.6257416E-2,-1.2333958E-2,2.5665468E-2,-1.733566E-2,3.3657305E-2,2.8752924E-3],"categories":[],"categories_nodes":[],"categories_segments":[],"categories_sizes":[],"default_left":[0,0,0,0,0,0,0,0,0,0,0,0,0,0,0],"id":53,"left_children":[1,3,5,7,9,11,13,-1,-1,-1,-1,-1,-1,-1,-1],"loss_changes":[1.1771512E0,1.7843801E0,9.075098E-1,1.1853975E0,3.0608702E-1,1.1120251E0,2.8348482E-1,0E0,0E0,0E0,0E0,0E0,0E0,0E0,0E0],"parents":[2147483647,0,0,1,1,2,2,3,3,4,4,5,5,6,6],"right_children":[2,4,6,8,10,12,14,-1,-1,-1,-1,-1,-1,-1,-1],"split_conditions":[3E0,-1.7108831E-1,-3.4647945E-2,-8.247861E-1,-6.235383E-1,-7.8392947E-1,5.4272044E-1,-1.1846716E-2,3.6815185E-2,-3.6257416E-2,-1.2333958E-2,2.5665468E-2,-1.733566E-2,3.3657305E-2,2.8752924E-3],"split_indices":[2,1,0,0,0,0,0,0,0,0,0,0,0,0,0],"split_type":[0,0,0,0,0,0,0,0,0,0,0,0,0,0,0],"sum_hessian":[1.9874533E1,1.1029874E1,8.84466E0,3.4076889E0,7.6221848E0,4.5933537E0,4.2513056E0,1.5697709E0,1.8379179E0,2.229423E0,5.3927617E0,1.3292892E0,3.2640646E0,3.0910826E0,1.1602231E0],"tree_param":{"num_deleted":"0","num_feature":"3","num_nodes":"15","size_leaf_vector":"1"}},{"base_weights":[1.0890923E-1,-2.9242378E-2,4.2437473E-1,-9.4627395E-2,1.7795324E-2,4.3181E-2,1.12607256E-1,-1.6609935E-2,7.1919146E-3,-1.3874263E-2,2.7248299E-2],"categories":[],"categories_nodes":[],"categories_segments":[],"categories_sizes":[],"default_left":[0,0,0,0,0,0,0,0,0,0,0],"id":54,"left_children":[1,3,5,7,-1,-1,9,-1,-1,-1,-1],"loss_changes":[8.769195E-1,4.0463936E-1,7.388849E-1,8.059516E-1,0E0,0E0,9.4746476E-1,0E0,0E0,0E0,0E0],"parents":[2147483647,0,0,1,1,2,2,3,3,6,6],"right_children":[2,4,6,8,-1,-1,10,-1,-1,-1,-1],"split_conditions":[1.2569752E-1,4.3033147E-1,3.104602E-1,-2.2397105E-2,1.7795324E-2,4.3181E-2,3E0,-1.6609935E-2,7.1919146E-3,-1.3874263E-2,2.7248299E-2],"split_indices":[1,0,1,1,0,0,2,0,0,0,0],"split_type":[0,0,0,0,0,0,0,0,0,0,0],"sum_hessian":[1.8836367E1,1.3730626E1,5.10574E0,1.2382768E1,1.3478581E0,1.3847319E0,3.7210083E0,6.0061135E0,6.3766546E0,2.1444237E0,1.5765847E0],"tree_param":{"num_deleted":"0","num_feature":"3","num_nodes":"11","size_leaf_vector":"1"}},{"base_weights":[7.409615E-2,-3.541508E-1,3.7487778E-1,-1.20248646E-1,-3.7780777E-2,3.125941E-2,3.3484485E-2,-2.3132322E-2,4.222826E-3,2.515172E-2,-8.35134E-3],"categories":[],"categories_nodes":[],"categories_segments":[],"categories_sizes":[],"default_left":[0,0,0,0,0,0,0,0,0,0,0],"id":55,"left_children":[1,3,5,7,-1,9,-1,-1,-1,-1,-1],"loss_changes":[2.5670924E0,6.8961203E-1,1.1528945E0,4.9052373E-1,0E0,6.8269116E-1,0E0,0E0,0E0,0E0,0E0],"parents":[2147483647,0,0,1,1,2,2,3,3,5,5],"right_children":[2,4,6,8,-1,10,-1,-1,-1,-1,-1],"split_conditions":[-3.2163376E-1,3E0,3E0,-1.3055824E0,-3.7780777E-2,-2.287545E-2,3.3484485E-2,-2.3132322E-2,4.222826E-3,2.515172E-2,-8.35134E-3],"split_indices":[0,2,2,0,0,1,0,0,0,0,0],"split_type":[0,0,0,0,0,0,0,0,0,0,0],"sum_hessian":[1.7898777E1,7.3114476E0,1.058733E1,5.4409533E0,1.8704941E0,5.399716E0,5.1876144E0,1.5643308E0,3.8766224E0,1.143091E0,4.256625E0],"tree_param":{"num_deleted":"0","num_feature":"3","num_nodes":"11","size_leaf_vector":"1"}},{"base_weights":[3.4051564E-2,1.0745902E-1,-2.1086385E-2,2.1974277E-1,-1.7148964E-1,4.284327E-3,3.5621475E-2,-3.8708743E-2,1.00433435E-2],"categories":[],"categories_nodes":[],"categories_segments":[],"categories_sizes":[],"default_left":[0,0,0,0,0,0,0,0,0],"id":56,"left_children":[1,3,-1,5,7,-1,-1,-1,-1],"loss_changes":[7.175882E-1,6.046901E-1,0E0,8.2040477E-1,1.4474977E0,0E0,0E0,0E0,0E0],"parents":[2147483647,0,0,1,1,3,3,4,4],"right_children":[2,4,-1,6,8,-1,-1,-1,-1],"split_conditions":[4E0,5.1102556E-2,-2.1086385E-2,0E0,1.9810146E-1,4.284327E-3,3.5621475E-2,-3.8708743E-2,1.00433435E-2],"split_indices":[2,0,0,0,0,0,0,0,0],"split_type":[0,0,0,0,0,0,0,0,0],"sum_hessian":[1.9093185E1,1.7102846E1,1.9903411E0,1.2345658E1,4.7571864E0,1.0627826E1,1.7178324E0,1.4046078E0,3.3525789E0],"tree_param":{"num_deleted":"0","num_feature":"3","num_nodes":"9","size_leaf_vector":"1"}},{"base_weights":[6.5753095E-2,1.9351389E-1,-2.9049653E-1,-2.8334374E-2,3.158659E-2,-3.4540024E-2,-2.4087107E-2,-2.212746E-2,5.053024E-3,1.50146065E-2,-2.1744505E-2],"categories":[],"categories_nodes":[],"categories_segments":[],"categories_sizes":[],"default_left":[0,0,0,0,0,0,0,0,0,0,0],"id":57,"left_children":[1,3,5,7,-1,-1,9,-1,-1,-1,-1],"loss_changes":[9.3788975E-1,1.4623731E0,5.713024E-1,6.2472E-1,0E0,0E0,7.0975965E-1,0E0,0E0,0E0,0E0],"parents":[2147483647,0,0,1,1,2,2,3,3,6,6],"right_children":[2,4,6,8,-1,-1,10,-1,-1,-1,-1],"split_conditions":[5.1102556E-2,-1.9011727E-1,2E-1,-1.3055824E0,3.158659E-2,-3.4540024E-2,6E-1,-2.212746E-2,5.053024E-3,1.50146065E-2,-2.1744505E-2],"split_indices":[0,0,0,0,0,0,0,0,0,0,0],"split_type":[0,0,0,0,0,0,0,0,0,0,0],"sum_hessian":[1.8371193E1,1.3858103E1,4.5130897E0,9.821368E0,4.036735E0,1.1668261E0,3.3462634E0,1.7617053E0,8.059663E0,2.020133E0,1.3261305E0],"tree_param":{"num_deleted":"0","num_feature":"3","num_nodes":"11","size_leaf_vector":"1"}},{"base_weights":[7.793843E-2,4.2153303E-2,-9.469999E-3,-3.2337108E-1,1.9231278E-1,-5.2975104E-3,-3.3287577E-2,2.4627244E-2,-1.0956342E-2],"categories":[],"categories_nodes":[],"categories_segments":[],"categories_sizes":[],"default_left":[0,0,0,0,0,0,0,0,0],"id":58,"left_children":[1,-1,3,5,7,-1,-1,-1,-1],"loss_changes":[1.378571E0,0E0,1.2898021E0,5.2176553E-1,1.6427186E0,0E0,0E0,0E0,0E0],"parents":[2147483647,0,0,2,2,3,3,4,4],"right_children":[2,-1,4,6,8,-1,-1,-1,-1],"split_conditions":[-2.300336E0,4.2153303E-2,-3.2163376E-1,3E0,5.1102556E-2,-5.2975104E-3,-3.3287577E-2,2.4627244E-2,-1.0956342E-2],"split_indices":[0,0,0,2,0,0,0,0,0],"split_type":[0,0,0,0,0,0,0,0,0],"sum_hessian":[1.9493658E1,1.1122725E0,1.8381386E1,6.9567013E0,1.1424684E1,5.055667E0,1.9010344E0,6.4910016E0,4.9336824E0],"tree_param":{"num_deleted":"0","num_feature":"3","num_nodes":"9","size_leaf_vector":"1"}},{"base_weights":[1.5856504E-1,5.725019E-1,4.5704965E-2,3.6324293E-3,3.718392E-2,-9.3400024E-2,3.5979506E-1,-2.3976287E-2,3.3846512E-4,1.3354939E-3,2.854745E-2],"categories":[],"categories_nodes":[],"categories_segments":[],"categories_sizes":[],"default_left":[0,0,0,0,0,0,0,0,0,0,0],"id":59,"left_children":[1,3,5,-1,-1,7,9,-1,-1,-1,-1],"loss_changes":[8.619106E-1,2.870152E-1,7.337123E-1,0E0,0E0,4.6348953E-1,3.4516823E-1,0E0,0E0,0E0,0E0],"parents":[2147483647,0,0,1,1,2,2,5,5,6,6],"right_children":[2,4,6,-1,-1,8,10,-1,-1,-1,-1],"split_conditions":[-2.8022426E-1,-8.247861E-1,1.5971914E-1,3.6324293E-3,3.718392E-2,-9.4518906E-1,-1.4920942E-2,-2.3976287E-2,3.3846512E-4,1.3354939E-3,2.854745E-2],"split_indices":[1,0,1,0,0,0,0,0,0,0,0],"split_type":[0,0,0,0,0,0,0,0,0,0,0],"sum_hessian":[1.8009737E1,2.9858537E0,1.5023884E1,1.1250368E0,1.8608168E0,1.0899375E1,4.1245084E0,1.465009E0,9.434366E0,2.0372846E0,2.087224E0],"tree_param":{"num_deleted":"0","num_feature":"3","num_nodes":"11","size_leaf_vector":"1"}},{"base_weights":[1.7730322E-1,-4.2404123E-2,3.024433E-1,3.8114634E-1,-4.8786348E-1,4.5214406E-1,-1.3054225E-1,-4.1784416E-3,2.9827556E-2,-3.6149893E-2,2.6185827E-3,1.0184729E-2,4.5875516E-2,-2.535588E-2,2.0928454E-2],"categories":[],"categories_nodes":[],"categories_segments":[],"categories_sizes":[],"default_left":[0,0,0,0,0,0,0,0,0,0,0,0,0,0,0],"id":60,"left_children":[1,3,5,7,9,11,13,-1,-1,-1,-1,-1,-1,-1,-1],"loss_changes":[5.601586E-1,1.7144153E0,8.890972E-1,5.217396E-1,5.9513855E-1,9.392593E-1,1.0530504E0,0E0,0E0,0E0,0E0,0E0,0E0,0E0,0E0],"parents":[2147483647,0,0,1,1,2,2,3,3,4,4,5,5,6,6],"right_children":[2,4,6,8,10,12,14,-1,-1,-1,-1,-1,-1,-1,-1],"split_conditions":[-1.1683327E-2,-2.8022426E-1,3.9669916E-1,-8.247861E-1,-1.6230053E-1,1.11733586E-1,3E0,-4.1784416E-3,2.9827556E-2,-3.6149893E-2,2.6185827E-3,1.0184729E-2,4.5875516E-2,-2.535588E-2,2.0928454E-2],"split_indices":[1,1,1,0,0,1,2,0,0,0,0,0,0,0,0],"split_type":[0,0,0,0,0,0,0,0,0,0,0,0,0,0,0],"sum_hessian":[1.8907248E1,7.101084E0,1.1806164E1,3.7140632E0,3.3870208E0,8.740107E0,3.0660582E0,1.3701452E0,2.343918E0,2.1241808E0,1.26284E0,6.6353416E0,2.1047645E0,1.8641307E0,1.2019274E0],"tree_param":{"num_deleted":"0","num_feature":"3","num_nodes":"15","size_leaf_vector":"1"}},{"base_weights":[1.05926394E-1,1.1004813E-2,3.5564882E-1,1.2136309E-1,-2.7346512E-2,6.792651E-1,-1.047038E-1,-2.3149475E-3,1.6584855E-2,5.6242025E-3,4.8170503E-2,8.357444E-3,-1.5689466E-2],"categories":[],"categories_nodes":[],"categories_segments":[],"categories_sizes":[],"default_left":[0,0,0,0,0,0,0,0,0,0,0,0,0],"id":61,"left_children":[1,3,5,7,-1,9,11,-1,-1,-1,-1,-1,-1],"loss_changes":[4.8342448E-1,1.047157E0,9.0993917E-1,5.1318663E-1,0E0,4.4560862E-1,2.3380858E-1,0E0,0E0,0E0,0E0,0E0,0E0],"parents":[2147483647,0,0,1,1,2,2,3,3,5,5,6,6],"right_children":[2,4,6,8,-1,10,12,-1,-1,-1,-1,-1,-1],"split_conditions":[1.5971914E-1,4.434601E-2,5.831437E-1,-1.6230053E-1,-2.7346512E-2,-5.2510506E-1,5.1102556E-2,-2.3149475E-3,1.6584855E-2,5.6242025E-3,4.8170503E-2,8.357444E-3,-1.5689466E-2],"split_indices":[1,1,1,0,0,0,0,0,0,0,0,0,0],"split_type":[0,0,0,0,0,0,0,0,0,0,0,0,0],"sum_hessian":[1.9559292E1,1.4928799E1,4.6304936E0,1.3116803E1,1.8119954E0,2.4398255E0,2.1906679E0,7.7327385E0,5.384064E0,1.2808318E0,1.1589937E0,1.0395796E0,1.1510882E0],"tree_param":{"num_deleted":"0","num_feature":"3","num_nodes":"13","size_leaf_vector":"1"}},{"base_weights":[5.3446718E-2,4.1442385E-1,-4.897978E-2,-1.1778097E-2,4.6599567E-2,5.9286334E-2,-4.9856937E-1,7.605564E-3,-2.1427365E-2,-4.1333344E-2,2.9050333E-3],"categories":[],"categories_nodes":[],"categories_segments":[],"categories_sizes":[],"default_left":[0,0,0,0,0,0,0,0,0,0,0],"id":62,"left_children":[1,3,5,-1,-1,7,9,-1,-1,-1,-1],"loss_changes":[7.346351E-1,1.6916953E0,8.056435E-1,0E0,0E0,6.8753475E-1,6.326011E-1,0E0,0E0,0E0,0E0],"parents":[2147483647,0,0,1,1,2,2,5,5,6,6],"right_children":[2,4,6,-1,-1,8,10,-1,-1,-1,-1],"split_conditions":[-6.405126E-1,-1.0801234E0,4E0,-1.1778097E-2,4.6599567E-2,5.831437E-1,-3.2163376E-1,7.605564E-3,-2.1427365E-2,-4.1333344E-2,2.9050333E-3],"split_indices":[0,0,2,0,0,1,0,0,0,0,0],"split_type":[0,0,0,0,0,0,0,0,0,0,0],"sum_hessian":[1.8320173E1,3.3760498E0,1.4944123E1,1.7381127E0,1.6379371E0,1.27434845E1,2.2006388E0,1.1284467E1,1.4590172E0,1.0794168E0,1.121222E0],"tree_param":{"num_deleted":"0","num_feature":"3","num_nodes":"11","size_leaf_vector":"1"}},{"base_weights":[2.6381526E-3,-1.9229001E-1,2.914835E-1,-3.9025847E-2,-3.900331E-2,5.2224374E-1,-1.3838306E-2,-9.725943E-3,3.630436E-2,3.742944E-2,-7.3959827E-3],"categories":[],"categories_nodes":[],"categories_segments":[],"categories_sizes":[],"default_left":[0,0,0,0,0,0,0,0,0,0,0],"id":63,"left_children":[1,3,5,7,-1,9,-1,-1,-1,-1,-1],"loss_changes":[1.1605232E0,1.0789298E0,1.2331102E0,1.4285403E0,0E0,1.0588351E0,0E0,0E0,0E0,0E0,0E0],"parents":[2147483647,0,0,1,1,2,2,3,3,5,5],"right_children":[2,4,6,8,-1,10,-1,-1,-1,-1,-1],"split_conditions":[3E0,3.8556784E-1,4E0,1.5971914E-1,-3.900331E-2,2.0692845E-1,-1.3838306E-2,-9.725943E-3,3.630436E-2,3.742944E-2,-7.3959827E-3],"split_indices":[2,1,2,1,0,0,0,0,0,0,0],"split_type":[0,0,0,0,0,0,0,0,0,0,0],"sum_hessian":[1.8616226E1,1.1314729E1,7.3014984E0,9.820423E0,1.4943051E0,5.2503476E0,2.0511508E0,8.781528E0,1.038895E0,3.8372927E0,1.413055E0],"tree_param":{"num_deleted":"0","num_feature":"3","num_nodes":"11","size_leaf_vector":"1"}},{"base_weights":[8.174465E-2,4.1361418E-2,-3.5317163E-3,-3.462245E-2,7.379738E-2,3.0291324E-2,3.0186248E-4],"categories":[],"categories_nodes":[],"categories_segments":[],"categories_sizes":[],"default_left":[0,0,0,0,0,0,0],"id":64,"left_children":[1,-1,3,-1,5,-1,-1],"loss_changes":[1.3050445E0,0E0,1.083317E0,0E0,6.569343E-1,0E0,0E0],"parents":[2147483647,0,0,2,2,4,4],"right_children":[2,-1,4,-1,6,-1,-1],"split_conditions":[-2.300336E0,4.1361418E-2,-1.3055824E0,-3.462245E-2,-1.0568458E0,3.0291324E-2,3.0186248E-4],"split_indices":[0,0,0,0,0,0,0],"split_type":[0,0,0,0,0,0,0],"sum_hessian":[1.9482603E1,1.1067619E0,1.8375841E1,1.0517081E0,1.7324133E1,1.0600711E0,1.6264063E1],"tree_param":{"num_deleted":"0","num_feature":"3","num_nodes":"7","size_leaf_vector":"1"}},{"base_weights":[9.8256275E-2,3.1877074E-1,-4.2465344E-1,-4.745871E-1,6.625584E-1,-3.8081057E-2,-1.5953994E-1,2.1061568E-2,-4.3515585E-2,5.4357123E-2,1.8825868E-2,1.5112678E-2,-2.926012E-2],"categories":[],"categories_nodes":[],"categories_segments":[],"categories_sizes":[],"default_left":[0,0,0,0,0,0,0,0,0,0,0,0,0],"id":65,"left_children":[1,3,5,7,9,-1,11,-1,-1,-1,-1,-1,-1],"loss_changes":[2.292092E0,4.0584693E0,4.1241968E-1,2.0443342E0,8.044796E-1,0E0,1.0830551E0,0E0,0E0,0E0,0E0,0E0,0E0],"parents":[2147483647,0,0,1,1,2,2,3,3,4,4,6,6],"right_children":[2,4,6,8,10,-1,12,-1,-1,-1,-1,-1,-1],"split_conditions":[5.1102556E-2,-6.9631064E-1,2E-1,-2.300336E0,-1.01015255E-1,-3.8081057E-2,6E-1,2.1061568E-2,-4.3515585E-2,5.4357123E-2,1.8825868E-2,1.5112678E-2,-2.926012E-2],"split_indices":[0,0,0,0,1,0,0,0,0,0,0,0,0],"split_type":[0,0,0,0,0,0,0,0,0,0,0,0,0],"sum_hessian":[1.770385E1,1.2727128E1,4.9767227E0,3.732706E0,8.994422E0,1.3667406E0,3.609982E0,1.1239399E0,2.608766E0,2.4931176E0,6.501304E0,1.8705635E0,1.7394185E0],"tree_param":{"num_deleted":"0","num_feature":"3","num_nodes":"13","size_leaf_vector":"1"}},{"base_weights":[2.6447335E-3,-6.0057584E-2,2.7759025E-2,6.932463E-2,-4.9304813E-1,-4.6575465E-3,1.4462118E-2,-4.3822985E-2,2.4247102E-3],"categories":[],"categories_nodes":[],"categories_segments":[],"categories_sizes":[],"default_left":[0,0,0,0,0,0,0,0,0],"id":66,"left_children":[1,3,-1,5,7,-1,-1,-1,-1],"loss_changes":[7.22414E-1,1.0854018E0,0E0,5.7450026E-1,9.644723E-1,0E0,0E0,0E0,0E0],"parents":[2147483647,0,0,1,1,3,3,4,4],"right_children":[2,4,-1,6,8,-1,-1,-1,-1],"split_conditions":[8.1315714E-1,5.1102556E-2,2.7759025E-2,-3.2163376E-1,2.7720797E-1,-4.6575465E-3,1.4462118E-2,-4.3822985E-2,2.4247102E-3],"split_indices":[0,0,0,0,0,0,0,0,0],"split_type":[0,0,0,0,0,0,0,0,0],"sum_hessian":[1.888933E1,1.776468E1,1.1246486E0,1.4324316E1,3.4403653E0,8.569549E0,5.7547674E0,1.6521755E0,1.7881899E0],"tree_param":{"num_deleted":"0","num_feature":"3","num_nodes":"9","size_leaf_vector":"1"}},{"base_weights":[-1.534302E-1,3.778092E-1,-2.9244718E-1,-8.177698E-3,2.9923255E-2,-3.890179E-1,2.6921583E-2,-4.7083315E-2,-1.2157737E-2],"categories":[],"categories_nodes":[],"categories_segments":[],"categories_sizes":[],"default_left":[0,0,0,0,0,0,0,0,0],"id":67,"left_children":[1,3,5,-1,-1,7,-1,-1,-1],"loss_changes":[1.5909501E0,6.466743E-1,1.5295739E0,0E0,0E0,1.0059757E0,0E0,0E0,0E0],"parents":[2147483647,0,0,1,1,2,2,5,5],"right_children":[2,4,6,-1,-1,8,-1,-1,-1],"split_conditions":[-2.8022426E-1,-7.7473074E-1,8.573214E-1,-8.177698E-3,2.9923255E-2,-7.8939855E-2,2.6921583E-2,-4.7083315E-2,-1.2157737E-2],"split_indices":[1,1,0,0,0,1,0,0,0],"split_type":[0,0,0,0,0,0,0,0,0],"sum_hessian":[1.904651E1,3.5941417E0,1.5452369E1,1.1156813E0,2.4784606E0,1.4319817E1,1.1325525E0,1.8509797E0,1.2468837E1],"tree_param":{"num_deleted":"0","num_feature":"3","num_nodes":"9","size_leaf_vector":"1"}},{"base_weights":[1.2573735E-1,4.6799058E-1,1.8402169E-2,-1.45616755E-2,4.2305123E-2,-3.6336E-1,1.2212281E-1,-6.860348E-4,-2.5569418E-2,1.0095082E-2,-1.8454613E-2],"categories":[],"categories_nodes":[],"categories_segments":[],"categories_sizes":[],"default_left":[0,0,0,0,0,0,0,0,0,0,0],"id":68,"left_children":[1,3,5,-1,-1,7,9,-1,-1,-1,-1],"loss_changes":[7.334386E-1,1.6190618E0,6.9447577E-1,0E0,0E0,1.8754563E-1,6.097936E-1,0E0,0E0,0E0,0E0],"parents":[2147483647,0,0,1,1,2,2,5,5,6,6],"right_children":[2,4,6,-1,-1,8,10,-1,-1,-1,-1],"split_conditions":[-2.8022426E-1,-7.4336416E-1,-3.1927545E-2,-1.45616755E-2,4.2305123E-2,-6.235383E-1,6E-1,-6.860348E-4,-2.5569418E-2,1.0095082E-2,-1.8454613E-2],"split_indices":[1,1,1,0,0,0,0,0,0,0,0],"split_type":[0,0,0,0,0,0,0,0,0,0,0],"sum_hessian":[1.9199654E1,3.7815542E0,1.54181E1,1.3335801E0,2.4479742E0,2.759183E0,1.2658917E1,1.145717E0,1.6134658E0,1.1396907E1,1.2620103E0],"tree_param":{"num_deleted":"0","num_feature":"3","num_nodes":"11","size_leaf_vector":"1"}},{"base_weights":[5.2651756E-2,-5.006312E-2,3.3102474E-1,3.0599207E-1,-1.9497117E-1,7.526605E-1,-1.8274267E-1,-6.5387907E-3,2.7103623E-2,-4.319505E-2,-1.0911793E-3,4.8161127E-2,7.877805E-3,-1.7592898E-2,4.474976E-3],"categories":[],"categories_nodes":[],"categories_segments":[],"categories_sizes":[],"default_left":[0,0,0,0,0,0,0,0,0,0,0,0,0,0,0],"id":69,"left_children":[1,3,5,7,9,11,13,-1,-1,-1,-1,-1,-1,-1,-1],"loss_changes":[6.032026E-1,8.777199E-1,1.3638893E0,5.839243E-1,1.3571131E0,2.623464E-1,1.8602279E-1,0E0,0E0,0E0,0E0,0E0,0E0,0E0,0E0],"parents":[2147483647,0,0,1,1,2,2,3,3,4,4,5,5,6,6],"right_children":[2,4,6,8,10,12,14,-1,-1,-1,-1,-1,-1,-1,-1],"split_conditions":[1.2569752E-1,-2.8022426E-1,3.9669916E-1,-7.4336416E-1,-9.4518906E-1,-2.5925925E-1,7.2336423E-1,-6.5387907E-3,2.7103623E-2,-4.319505E-2,-1.0911793E-3,4.8161127E-2,7.877805E-3,-1.7592898E-2,4.474976E-3],"split_indices":[1,1,1,1,0,0,1,0,0,0,0,0,0,0,0],"split_type":[0,0,0,0,0,0,0,0,0,0,0,0,0,0,0],"sum_hessian":[1.9516542E1,1.4855335E1,4.6612067E0,3.9754887E0,1.0879847E1,2.3047633E0,2.3564436E0,1.5513743E0,2.4241142E0,1.4168124E0,9.463035E0,1.2454991E0,1.0592642E0,1.2731351E0,1.0833085E0],"tree_param":{"num_deleted":"0","num_feature":"3","num_nodes":"15","size_leaf_vector":"1"}},{"base_weights":[-8.602462E-2,3.104405E-1,-2.999638E-1,6.0027915E-1,-9.240557E-2,-1.6374673E-1,-4.0324487E-2,8.881927E-3,4.286321E-2,1.3218421E-2,-2.2031073E-2,-1.4061925E-2,2.0263677E-2],"categories":[],"categories_nodes":[],"categories_segments":[],"categories_sizes":[],"default_left":[0,0,0,0,0,0,0,0,0,0,0,0,0],"id":70,"left_children":[1,3,5,7,9,11,-1,-1,-1,-1,-1,-1,-1],"loss_changes":[1.6736099E0,8.7539023E-1,7.3808897E-1,3.0577278E-1,5.8918643E-1,8.623121E-1,0E0,0E0,0E0,0E0,0E0,0E0,0E0],"parents":[2147483647,0,0,1,1,2,2,3,3,4,4,5,5],"right_children":[2,4,6,8,10,12,-1,-1,-1,-1,-1,-1,-1],"split_conditions":[-5.6195146E-1,0E0,5.831437E-1,-9.4518906E-1,-1.0571429E0,1.2569752E-1,-4.0324487E-2,8.881927E-3,4.286321E-2,1.3218421E-2,-2.2031073E-2,-1.4061925E-2,2.0263677E-2],"split_indices":[0,1,1,0,0,1,0,0,0,0,0,0,0],"split_type":[0,0,0,0,0,0,0,0,0,0,0,0,0],"sum_hessian":[1.7633572E1,6.0222554E0,1.1611317E1,3.2173495E0,2.804906E0,1.0193352E1,1.4179648E0,1.8560718E0,1.3612776E0,1.5043622E0,1.3005437E0,8.868025E0,1.3253273E0],"tree_param":{"num_deleted":"0","num_feature":"3","num_nodes":"13","size_leaf_vector":"1"}},{"base_weights":[-2.2761691E-2,-9.4438754E-2,4.0033025E-1,9.3659265E-3,-5.0833124E-1,2.5551265E-2,4.9548266E-3,-6.145982E-3,2.8656079E-2,-3.7737515E-2,-1.801397E-3],"categories":[],"categories_nodes":[],"categories_segments":[],"categories_sizes":[],"default_left":[0,0,0,0,0,0,0,0,0,0,0],"id":71,"left_children":[1,3,5,7,9,-1,-1,-1,-1,-1,-1],"loss_changes":[6.755069E-1,8.1209517E-1,5.730462E-2,1.2640519E0,4.134292E-1,0E0,0E0,0E0,0E0,0E0,0E0],"parents":[2147483647,0,0,1,1,2,2,3,3,4,4],"right_children":[2,4,6,8,10,-1,-1,-1,-1,-1,-1],"split_conditions":[3.5310328E-1,5.1102556E-2,1.2569752E-1,0E0,2E-1,2.5551265E-2,4.9548266E-3,-6.145982E-3,2.8656079E-2,-3.7737515E-2,-1.801397E-3],"split_indices":[0,0,1,0,0,0,0,0,0,0,0],"split_type":[0,0,0,0,0,0,0,0,0,0,0],"sum_hessian":[2.0028175E1,1.7790955E1,2.237221E0,1.5005045E1,2.7859101E0,1.1267356E0,1.1104854E0,1.278662E1,2.2184248E0,1.4377564E0,1.3481537E0],"tree_param":{"num_deleted":"0","num_feature":"3","num_nodes":"11","size_leaf_vector":"1"}},{"base_weights":[5.3546585E-2,-2.9415263E-2,2.6605466E-2,6.592087E-2,-3.9293762E-2,7.987284E-3,-1.961872E-2],"categories":[],"categories_nodes":[],"categories_segments":[],"categories_sizes":[],"default_left":[0,0,0,0,0,0,0],"id":72,"left_children":[1,3,-1,5,-1,-1,-1],"loss_changes":[8.1405663E-1,1.356148E0,0E0,7.9300725E-1,0E0,0E0,0E0],"parents":[2147483647,0,0,1,1,3,3],"right_children":[2,4,-1,6,-1,-1,-1],"split_conditions":[4.3033147E-1,2.0692845E-1,2.6605466E-2,4E0,-3.9293762E-2,7.987284E-3,-1.961872E-2],"split_indices":[0,0,0,2,0,0,0],"split_type":[0,0,0,0,0,0,0],"sum_hessian":[1.9109703E1,1.7086231E1,2.023471E0,1.5984565E1,1.1016678E0,1.3808952E1,2.1756122E0],"tree_param":{"num_deleted":"0","num_feature":"3","num_nodes":"7","size_leaf_vector":"1"}},{"base_weights":[1.1039826E-1,2.778383E-2,3.218065E-2,-1.24276035E-1,3.6719316E-1,-2.9806752E-2,-3.5690016E-4,1.6023264E-3,4.001099E-2],"categories":[],"categories_nodes":[],"categories_segments":[],"categories_sizes":[],"default_left":[0,0,0,0,0,0,0,0,0],"id":73,"left_children":[1,-1,3,5,7,-1,-1,-1,-1],"loss_changes":[6.935829E-1,0E0,1.0120027E0,7.316858E-1,8.6284906E-1,0E0,0E0,0E0,0E0],"parents":[2147483647,0,0,2,2,3,3,4,4],"right_children":[2,-1,4,6,8,-1,-1,-1,-1],"split_conditions":[-5.560146E-1,2.778383E-2,1.2569752E-1,-8.247861E-1,3E0,-2.9806752E-2,-3.5690016E-4,1.6023264E-3,4.001099E-2],"split_indices":[1,0,1,0,2,0,0,0,0],"split_type":[0,0,0,0,0,0,0,0,0],"sum_hessian":[1.9427603E1,1.9906971E0,1.7436907E1,1.2314746E1,5.1221604E0,1.6358795E0,1.0678866E1,3.4928381E0,1.6293222E0],"tree_param":{"num_deleted":"0","num_feature":"3","num_nodes":"9","size_leaf_vector":"1"}},{"base_weights":[4.304582E-3,2.0327201E-2,-4.2659733E-2,-3.6799088E-2,5.9305195E-2,7.0411586E-3,-1.0148466E-2],"categories":[],"categories_nodes":[],"categories_segments":[],"categories_sizes":[],"default_left":[0,0,0,0,0,0,0],"id":74,"left_children":[1,-1,3,-1,5,-1,-1],"loss_changes":[3.805384E-1,0E0,1.3246961E0,0E0,3.861224E-1,0E0,0E0],"parents":[2147483647,0,0,2,2,4,4],"right_children":[2,-1,4,-1,6,-1,-1],"split_conditions":[-2.300336E0,2.0327201E-2,-4.7301617E-1,-3.6799088E-2,3.104602E-1,7.0411586E-3,-1.0148466E-2],"split_indices":[0,0,1,0,1,0,0],"split_type":[0,0,0,0,0,0,0],"sum_hessian":[1.822594E1,1.1050422E0,1.71209E1,1.3978784E0,1.5723021E1,1.2348144E1,3.3748772E0],"tree_param":{"num_deleted":"0","num_feature":"3","num_nodes":"7","size_leaf_vector":"1"}},{"base_weights":[-7.4151285E-2,-1.2217444E-1,1.2189914E-2,-3.6237407E-2,-3.8669772E-2,-1.0167578E-2,6.0391366E-3],"categories":[],"categories_nodes":[],"categories_segments":[],"categories_sizes":[],"default_left":[0,0,0,0,0,0,0],"id":75,"left_children":[1,3,-1,5,-1,-1,-1],"loss_changes":[3.4048027E-1,9.985889E-1,0E0,4.773326E-1,0E0,0E0,0E0],"parents":[2147483647,0,0,1,1,3,3],"right_children":[2,4,-1,6,-1,-1,-1],"split_conditions":[4.3033147E-1,2.0692845E-1,1.2189914E-2,-3.2163376E-1,-3.8669772E-2,-1.0167578E-2,6.0391366E-3],"split_indices":[0,0,0,0,0,0,0],"split_type":[0,0,0,0,0,0,0],"sum_hessian":[1.934813E1,1.7344202E1,2.0039284E0,1.6254814E1,1.0893877E0,7.7313685E0,8.523445E0],"tree_param":{"num_deleted":"0","num_feature":"3","num_nodes":"7","size_leaf_vector":"1"}},{"base_weights":[7.495688E-3,-5.305677E-2,2.651886E-2,2.1393219E-1,-1.7972258E-1,-1.3660601E-2,1.9684074E-2,-1.2620521E-2,5.032124E-3],"categories":[],"categories_nodes":[],"categories_segments":[],"categories_sizes":[],"default_left":[0,0,0,0,0,0,0,0,0],"id":76,"left_children":[1,3,-1,5,7,-1,-1,-1,-1],"loss_changes":[6.4990395E-1,6.6438025E-1,0E0,6.69022E-1,2.9230008E-1,0E0,0E0,0E0,0E0],"parents":[2147483647,0,0,1,1,3,3,4,4],"right_children":[2,4,-1,6,8,-1,-1,-1,-1],"split_conditions":[7.7151674E-1,-1.01015255E-1,2.651886E-2,-7.4336416E-1,2E-1,-1.3660601E-2,1.9684074E-2,-1.2620521E-2,5.032124E-3],"split_indices":[0,1,0,1,0,0,0,0,0],"split_type":[0,0,0,0,0,0,0,0,0],"sum_hessian":[1.8637691E1,1.7508629E1,1.129062E0,5.412048E0,1.2096581E1,1.3185751E0,4.0934725E0,9.685273E0,2.411309E0],"tree_param":{"num_deleted":"0","num_feature":"3","num_nodes":"9","size_leaf_vector":"1"}},{"base_weights":[-1.20867535E-1,8.843622E-2,-3.6501402E-1,2.1883953E-1,-2.3390751E-2,-7.171316E-1,-3.7632912E-2,-5.865167E-3,3.1612936E-2,-1.0571345E-3,-4.7705643E-2,-1.0639271E-2,1.8703168E-2],"categories":[],"categories_nodes":[],"categories_segments":[],"categories_sizes":[],"default_left":[0,0,0,0,0,0,0,0,0,0,0,0,0],"id":77,"left_children":[1,3,5,7,-1,9,11,-1,-1,-1,-1,-1,-1],"loss_changes":[1.1084185E0,9.8323816E-1,1.1160398E0,1.5359287E0,0E0,7.586386E-1,5.26215E-1,0E0,0E0,0E0,0E0,0E0,0E0],"parents":[2147483647,0,0,1,1,2,2,3,3,5,5,6,6],"right_children":[2,4,6,8,-1,10,12,-1,-1,-1,-1,-1,-1],"split_conditions":[-1.5151516E-1,2.0697348E-1,3E0,-1.1683327E-2,-2.3390751E-2,-3.0882737E-2,2.8721347E-1,-5.865167E-3,3.1612936E-2,-1.0571345E-3,-4.7705643E-2,-1.0639271E-2,1.8703168E-2],"split_indices":[0,1,2,1,0,1,1,0,0,0,0,0,0],"split_type":[0,0,0,0,0,0,0,0,0,0,0,0,0],"sum_hessian":[2.0059134E1,1.11436205E1,8.915514E0,9.518708E0,1.624912E0,3.721891E0,5.1936226E0,5.645073E0,3.873635E0,1.2220564E0,2.4998345E0,3.9824672E0,1.2111555E0],"tree_param":{"num_deleted":"0","num_feature":"3","num_nodes":"13","size_leaf_vector":"1"}},{"base_weights":[-6.301416E-2,2.231922E-2,-1.3226783E-1,-2.82389E-1,1.3203408E-1,-6.0145664E-3,-4.1803356E-2,3.8480323E-2,-1.2594441E-2],"categories":[],"categories_nodes":[],"categories_segments":[],"categories_sizes":[],"default_left":[0,0,0,0,0,0,0,0,0],"id":78,"left_children":[1,-1,3,5,7,-1,-1,-1,-1],"loss_changes":[7.5483024E-1,0E0,7.567969E-1,9.659961E-1,1.9685786E0,0E0,0E0,0E0,0E0],"parents":[2147483647,0,0,2,2,3,3,4,4],"right_children":[2,-1,4,6,8,-1,-1,-1,-1],"split_conditions":[-5.560146E-1,2.231922E-2,0E0,-1.5151516E-1,5.1102556E-2,-6.0145664E-3,-4.1803356E-2,3.8480323E-2,-1.2594441E-2],"split_indices":[1,0,0,0,0,0,0,0,0],"split_type":[0,0,0,0,0,0,0,0,0],"sum_hessian":[1.8723156E1,1.5890658E0,1.713409E1,1.0883771E1,6.2503195E0,9.360579E0,1.5231923E0,1.9715775E0,4.278742E0],"tree_param":{"num_deleted":"0","num_feature":"3","num_nodes":"9","size_leaf_vector":"1"}},{"base_weights":[-1.2422849E-1,3.0992764E-1,-2.3613653E-1,2.7149776E-2,4.9215596E-2,-1.2888783E-1,-3.1553414E-2,-1.19710555E-2,1.6284617E-2,-1.4487358E-2,2.6266566E-2],"categories":[],"categories_nodes":[],"categories_segments":[],"categories_sizes":[],"default_left":[0,0,0,0,0,0,0,0,0,0,0],"id":79,"left_children":[1,3,5,-1,7,9,-1,-1,-1,-1,-1],"loss_changes":[1.0365738E0,2.4647191E-1,6.1044765E-1,0E0,3.350845E-1,1.6361864E0,0E0,0E0,0E0,0E0,0E0],"parents":[2147483647,0,0,1,1,2,2,4,4,5,5],"right_children":[2,4,6,-1,8,10,-1,-1,-1,-1,-1],"split_conditions":[-2.8022426E-1,-1.0568458E0,3.9669916E-1,2.7149776E-2,-4.9908122E-1,1.5971914E-1,-3.1553414E-2,-1.19710555E-2,1.6284617E-2,-1.4487358E-2,2.6266566E-2],"split_indices":[1,0,1,0,1,1,0,0,0,0,0],"split_type":[0,0,0,0,0,0,0,0,0,0,0],"sum_hessian":[1.8828701E1,3.4960418E0,1.5332659E1,1.2742049E0,2.221837E0,1.3101213E1,2.2314453E0,1.152586E0,1.0692511E0,1.0962792E1,2.1384203E0],"tree_param":{"num_deleted":"0","num_feature":"3","num_nodes":"11","size_leaf_vector":"1"}},{"base_weights":[-5.2607334E-3,5.9716336E-2,-2.2945268E-2,-2.7649308E-2,3.2005783E-2,3.5263647E-3,-3.7287917E-2],"categories":[],"categories_nodes":[],"categories_segments":[],"categories_sizes":[],"default_left":[0,0,0,0,0,0,0],"id":80,"left_children":[1,3,-1,5,-1,-1,-1],"loss_changes":[5.967076E-1,9.192113E-1,0E0,1.2096252E0,0E0,0E0,0E0],"parents":[2147483647,0,0,1,1,3,3],"right_children":[2,4,-1,6,-1,-1,-1],"split_conditions":[5.831437E-1,4.3033147E-1,-2.2945268E-2,2.0692845E-1,3.2005783E-2,3.5263647E-3,-3.7287917E-2],"split_indices":[1,0,0,0,0,0,0],"split_type":[0,0,0,0,0,0,0],"sum_hessian":[1.8313808E1,1.6778875E1,1.5349324E0,1.54114065E1,1.3674682E0,1.4351168E1,1.0602388E0],"tree_param":{"num_deleted":"0","num_feature":"3","num_nodes":"7","size_leaf_vector":"1"}},{"base_weights":[-5.3561594E-2,-1.8477905E-1,5.151458E-1,-2.7110597E-1,2.3145787E-2,3.4117013E-2,3.76962E-3,-3.2996032E-3,-4.668718E-2],"categories":[],"categories_nodes":[],"categories_segments":[],"categories_sizes":[],"default_left":[0,0,0,0,0,0,0,0,0],"id":81,"left_children":[1,3,5,7,-1,-1,-1,-1,-1],"loss_changes":[1.4108832E0,9.6764505E-1,2.1098924E-1,1.8304526E0,0E0,0E0,0E0,0E0,0E0],"parents":[2147483647,0,0,1,1,2,2,3,3],"right_children":[2,4,6,8,-1,-1,-1,-1,-1],"split_conditions":[3.790235E-1,4.3033147E-1,2.0692845E-1,2.307351E-2,2.3145787E-2,3.4117013E-2,3.76962E-3,-3.2996032E-3,-4.668718E-2],"split_indices":[1,0,0,0,0,0,0,0,0],"split_type":[0,0,0,0,0,0,0,0,0],"sum_hessian":[1.6630913E1,1.4061583E1,2.5693295E0,1.2920875E1,1.140708E0,1.4618794E0,1.10745E0,1.0706391E1,2.2144837E0],"tree_param":{"num_deleted":"0","num_feature":"3","num_nodes":"9","size_leaf_vector":"1"}},{"base_weights":[-3.2359227E-3,5.609762E-2,-2.1463355E-2,-2.6439655E-1,2.5232708E-1,4.932541E-3,-4.3015093E-2,-9.432598E-3,1.76179E-2],"categories":[],"categories_nodes":[],"categories_segments":[],"categories_sizes":[],"default_left":[0,0,0,0,0,0,0,0,0],"id":82,"left_children":[1,3,-1,5,7,-1,-1,-1,-1],"loss_changes":[4.7763455E-1,1.1128135E0,0E0,1.5570934E0,5.4413944E-1,0E0,0E0,0E0,0E0],"parents":[2147483647,0,0,1,1,3,3,4,4],"right_children":[2,4,-1,6,8,-1,-1,-1,-1],"split_conditions":[6E-1,-1.1683327E-2,-2.1463355E-2,-1.9285202E-1,-9.9591E-1,4.932541E-3,-4.3015093E-2,-9.432598E-3,1.76179E-2],"split_indices":[0,1,0,1,0,0,0,0,0],"split_type":[0,0,0,0,0,0,0,0,0],"sum_hessian":[1.6942669E1,1.5633685E1,1.308985E0,5.805081E0,9.828604E0,4.12589E0,1.6791911E0,1.6534688E0,8.175135E0],"tree_param":{"num_deleted":"0","num_feature":"3","num_nodes":"9","size_leaf_vector":"1"}},{"base_weights":[5.3241134E-2,3.8192624E-1,-1.2221443E-1,1.174301E-1,3.3938672E-2,-2.2701542E-1,2.6380375E-2,2.4838623E-2,-2.5436461E-2,-3.8177387E-3,-3.1333324E-2],"categories":[],"categories_nodes":[],"categories_segments":[],"categories_sizes":[],"default_left":[0,0,0,0,0,0,0,0,0,0,0],"id":83,"left_children":[1,3,5,7,-1,9,-1,-1,-1,-1,-1],"loss_changes":[1.1366413E0,4.557805E-1,1.010544E0,1.3966216E0,0E0,6.724375E-1,0E0,0E0,0E0,0E0,0E0],"parents":[2147483647,0,0,1,1,2,2,3,3,5,5],"right_children":[2,4,6,8,-1,10,-1,-1,-1,-1,-1],"split_conditions":[-5.405899E-1,-6.9631064E-1,8.573214E-1,-1.0568458E0,3.3938672E-2,1.3671719E-1,2.6380375E-2,2.4838623E-2,-2.5436461E-2,-3.8177387E-3,-3.1333324E-2],"split_indices":[0,0,0,0,0,1,0,0,0,0,0],"split_type":[0,0,0,0,0,0,0,0,0,0,0],"sum_hessian":[1.7900145E1,5.820219E0,1.2079926E1,3.8158338E0,2.0043855E0,1.096257E1,1.1173551E0,2.5049255E0,1.3109082E0,8.826285E0,2.1362846E0],"tree_param":{"num_deleted":"0","num_feature":"3","num_nodes":"11","size_leaf_vector":"1"}},{"base_weights":[2.4982821E-2,-4.069045E-2,2.7291927E-1,6.670132E-2,-3.572016E-2,3.1580865E-2,-8.505161E-3,7.3810727E-3,-1.4597507E-2],"categories":[],"categories_nodes":[],"categories_segments":[],"categories_sizes":[],"default_left":[0,0,0,0,0,0,0,0,0],"id":84,"left_children":[1,3,5,7,-1,-1,-1,-1,-1],"loss_changes":[3.2990628E-1,1.2305362E0,7.796039E-1,4.7889447E-1,0E0,0E0,0E0,0E0,0E0],"parents":[2147483647,0,0,1,1,2,2,3,3],"right_children":[2,4,6,8,-1,-1,-1,-1,-1],"split_conditions":[2E-1,5.1102556E-2,6E-1,2.0697348E-1,-3.572016E-2,3.1580865E-2,-8.505161E-3,7.3810727E-3,-1.4597507E-2],"split_indices":[0,0,0,1,0,0,0,0,0],"split_type":[0,0,0,0,0,0,0,0,0],"sum_hessian":[1.8579008E1,1.5349204E1,3.229805E0,1.40160055E1,1.3331981E0,1.5495193E0,1.6802857E0,1.19159E1,2.100106E0],"tree_param":{"num_deleted":"0","num_feature":"3","num_nodes":"9","size_leaf_vector":"1"}},{"base_weights":[6.550317E-2,3.8743652E-2,-1.3702742E-2,-3.77567E-2,8.006625E-2,1.1989843E-2,-6.5211314E-3],"categories":[],"categories_nodes":[],"categories_segments":[],"categories_sizes":[],"default_left":[0,0,0,0,0,0,0],"id":85,"left_children":[1,-1,3,-1,5,-1,-1],"loss_changes":[1.1446508E0,0E0,1.3910534E0,0E0,6.329055E-1,0E0,0E0],"parents":[2147483647,0,0,2,2,4,4],"right_children":[2,-1,4,-1,6,-1,-1],"split_conditions":[-2.300336E0,3.8743652E-2,-1.07349E0,-3.77567E-2,3E0,1.1989843E-2,-6.5211314E-3],"split_indices":[0,0,0,0,2,0,0],"split_type":[0,0,0,0,0,0,0],"sum_hessian":[1.9183449E1,1.0446371E0,1.8138813E1,1.2446034E0,1.6894209E1,9.526065E0,7.368144E0],"tree_param":{"num_deleted":"0","num_feature":"3","num_nodes":"7","size_leaf_vector":"1"}},{"base_weights":[1.1617276E-1,3.7025493E-2,4.661806E-3,-2.336398E-1,2.62873E-1,-2.4060039E-2,1.6449379E-2,1.7829694E-2,-1.1420979E-2],"categories":[],"categories_nodes":[],"categories_segments":[],"categories_sizes":[],"default_left":[0,0,0,0,0,0,0,0,0],"id":86,"left_children":[1,-1,3,5,7,-1,-1,-1,-1],"loss_changes":[1.3240746E0,0E0,1.1188358E0,1.4768307E0,4.8288733E-1,0E0,0E0,0E0,0E0],"parents":[2147483647,0,0,2,2,3,3,4,4],"right_children":[2,-1,4,6,8,-1,-1,-1,-1],"split_conditions":[-3.6697313E-1,3.7025493E-2,-1.6230053E-1,8.537347E-2,7.594937E-1,-2.4060039E-2,1.6449379E-2,1.7829694E-2,-1.1420979E-2],"split_indices":[1,0,0,1,1,0,0,0,0],"split_type":[0,0,0,0,0,0,0,0,0],"sum_hessian":[1.8068064E1,1.8832533E0,1.618481E1,8.466389E0,7.718422E0,5.9799047E0,2.4864843E0,6.7121563E0,1.0062653E0],"tree_param":{"num_deleted":"0","num_feature":"3","num_nodes":"9","size_leaf_vector":"1"}},{"base_weights":[8.309718E-3,-2.8354308E-1,1.5064634E-1,-1.3994694E-1,-2.6566902E-2,3.209031E-2,-2.6124695E-4,-1.8749764E-2,1.8981554E-2,2.6466176E-2,-5.872446E-3],"categories":[],"categories_nodes":[],"categories_segments":[],"categories_sizes":[],"default_left":[0,0,0,0,0,0,0,0,0,0,0],"id":87,"left_children":[1,3,5,7,-1,-1,9,-1,-1,-1,-1],"loss_changes":[8.189504E-1,1.5595108E-1,9.7953206E-1,8.08611E-1,0E0,0E0,7.514963E-1,0E0,0E0,0E0,0E0],"parents":[2147483647,0,0,1,1,2,2,3,3,6,6],"right_children":[2,4,6,8,-1,-1,10,-1,-1,-1,-1],"split_conditions":[-5.767504E-1,-6.430526E-1,-2.9277003E-1,-8.247861E-1,-2.6566902E-2,3.209031E-2,-1.9285202E-1,-1.8749764E-2,1.8981554E-2,2.6466176E-2,-5.872446E-3],"split_indices":[0,0,0,0,0,0,1,0,0,0,0],"split_type":[0,0,0,0,0,0,0,0,0,0,0],"sum_hessian":[1.7685858E1,5.472586E0,1.2213272E1,4.455444E0,1.017142E0,2.1059735E0,1.0107299E1,3.2592733E0,1.1961707E0,1.1941062E0,8.913193E0],"tree_param":{"num_deleted":"0","num_feature":"3","num_nodes":"11","size_leaf_vector":"1"}},{"base_weights":[1.9055126E-2,2.3324746E-1,-1.9863915E-1,3.6651157E-2,4.8726182E-2,4.2520497E-2,-5.6904143E-1,8.557442E-3,-1.609505E-2,-5.647303E-3,2.2480464E-2,-4.198079E-2,-2.9297764E-3],"categories":[],"categories_nodes":[],"categories_segments":[],"categories_sizes":[],"default_left":[0,0,0,0,0,0,0,0,0,0,0,0,0],"id":88,"left_children":[1,3,5,7,-1,9,11,-1,-1,-1,-1,-1,-1],"loss_changes":[9.377516E-1,1.4356227E0,9.193604E-1,4.9002498E-1,0E0,4.93805E-1,5.061947E-1,0E0,0E0,0E0,0E0,0E0,0E0],"parents":[2147483647,0,0,1,1,2,2,3,3,5,5,6,6],"right_children":[2,4,6,8,-1,10,12,-1,-1,-1,-1,-1,-1],"split_conditions":[-2.5925925E-1,-3.5307494E-1,4.434601E-2,-5.405899E-1,4.8726182E-2,3.5310328E-1,4.5175394E-1,8.557442E-3,-1.609505E-2,-5.647303E-3,2.2480464E-2,-4.198079E-2,-2.9297764E-3],"split_indices":[0,0,1,0,0,0,1,0,0,0,0,0,0],"split_type":[0,0,0,0,0,0,0,0,0,0,0,0,0],"sum_hessian":[1.8117506E1,9.096194E0,9.021313E0,8.018914E0,1.0772793E0,6.0000405E0,3.0212717E0,6.211548E0,1.8073668E0,4.8647513E0,1.1352891E0,1.5531298E0,1.468142E0],"tree_param":{"num_deleted":"0","num_feature":"3","num_nodes":"13","size_leaf_vector":"1"}},{"base_weights":[2.6878105E-2,1.0240615E-1,-3.7440357E-1,-8.993835E-2,4.2967206E-1,-2.9977446E-2,2.3229355E-3,1.440367E-2,-1.8731756E-2,2.9986022E-2,-6.366899E-3],"categories":[],"categories_nodes":[],"categories_segments":[],"categories_sizes":[],"default_left":[0,0,0,0,0,0,0,0,0,0,0],"id":89,"left_children":[1,3,5,7,9,-1,-1,-1,-1,-1,-1],"loss_changes":[6.4010394E-1,1.1399189E0,3.462172E-1,1.3827536E0,7.0617425E-1,0E0,0E0,0E0,0E0,0E0,0E0],"parents":[2147483647,0,0,1,1,2,2,3,3,4,4],"right_children":[2,4,6,8,10,-1,-1,-1,-1,-1,-1],"split_conditions":[4E0,3E0,-3.2163376E-1,-3.0882737E-2,2.0692845E-1,-2.9977446E-2,2.3229355E-3,1.440367E-2,-1.8731756E-2,2.9986022E-2,-6.366899E-3],"split_indices":[2,2,0,1,0,0,0,0,0,0,0],"split_type":[0,0,0,0,0,0,0,0,0,0,0],"sum_hessian":[1.8854898E1,1.6495052E1,2.3598475E0,1.084581E1,5.649242E0,1.2607965E0,1.099051E0,4.6542187E0,6.191591E0,4.2692223E0,1.3800192E0],"tree_param":{"num_deleted":"0","num_feature":"3","num_nodes":"11","size_leaf_vector":"1"}},{"base_weights":[-8.2555376E-2,-4.6023694E-1,9.044672E-2,-5.806379E-1,4.9726845E-4,2.920783E-1,-4.287022E-1,-6.47036E-3,-3.8689163E-2,4.0161774E-2,-1.0056623E-3,-4.0318936E-2,5.669029E-3],"categories":[],"categories_nodes":[],"categories_segments":[],"categories_sizes":[],"default_left":[0,0,0,0,0,0,0,0,0,0,0,0,0],"id":90,"left_children":[1,3,5,7,-1,9,11,-1,-1,-1,-1,-1,-1],"loss_changes":[1.2518162E0,3.4447074E-1,1.5423882E0,3.1646287E-1,0E0,1.6671677E0,9.497685E-1,0E0,0E0,0E0,0E0,0E0,0E0],"parents":[2147483647,0,0,1,1,2,2,3,3,5,5,6,6],"right_children":[2,4,6,8,-1,10,12,-1,-1,-1,-1,-1,-1],"split_conditions":[-3.1927545E-2,-1.6230053E-1,3.104602E-1,-6.405126E-1,4.9726845E-4,-2.5925925E-1,3E0,-6.47036E-3,-3.8689163E-2,4.0161774E-2,-1.0056623E-3,-4.0318936E-2,5.669029E-3],"split_indices":[1,0,1,0,0,0,2,0,0,0,0,0,0],"split_type":[0,0,0,0,0,0,0,0,0,0,0,0,0],"sum_hessian":[1.7521498E1,4.9829354E0,1.2538563E1,3.7800472E0,1.2028883E0,9.346052E0,3.1925106E0,1.6335975E0,2.1464498E0,2.9473715E0,6.3986807E0,1.5942315E0,1.5982791E0],"tree_param":{"num_deleted":"0","num_feature":"3","num_nodes":"13","size_leaf_vector":"1"}},{"base_weights":[-7.041599E-2,-1.4420024E-2,-2.395577E-2,-8.712791E-2,2.2453232E-2,-7.295864E-4,-3.1820748E-2],"categories":[],"categories_nodes":[],"categories_segments":[],"categories_sizes":[],"default_left":[0,0,0,0,0,0,0],"id":91,"left_children":[1,3,-1,5,-1,-1,-1],"loss_changes":[4.6813536E-1,6.8908423E-1,0E0,6.8834114E-1,0E0,0E0,0E0],"parents":[2147483647,0,0,1,1,3,3],"right_children":[2,4,-1,6,-1,-1,-1],"split_conditions":[6E-1,2E-1,-2.395577E-2,5.1102556E-2,2.2453232E-2,-7.295864E-4,-3.1820748E-2],"split_indices":[0,0,0,0,0,0,0],"split_type":[0,0,0,0,0,0,0],"sum_hessian":[1.9757416E1,1.828717E1,1.4702452E0,1.650933E1,1.7778404E0,1.5490318E1,1.0190114E0],"tree_param":{"num_deleted":"0","num_feature":"3","num_nodes":"7","size_leaf_vector":"1"}},{"base_weights":[-1.385535E-1,-2.4840443E-1,2.290888E-1,6.954554E-2,-4.5061648E-1,-1.2723537E-1,2.9631553E-2,-2.1381356E-2,1.9782316E-2,-1.4061324E-2,-4.0338475E-2,1.0217299E-2,-1.8433755E-2],"categories":[],"categories_nodes":[],"categories_segments":[],"categories_sizes":[],"default_left":[0,0,0,0,0,0,0,0,0,0,0,0,0],"id":92,"left_children":[1,3,5,7,9,11,-1,-1,-1,-1,-1,-1,-1],"loss_changes":[8.260411E-1,1.004936E0,7.103505E-1,1.2640643E0,3.3959734E-1,3.3941475E-1,0E0,0E0,0E0,0E0,0E0,0E0,0E0],"parents":[2147483647,0,0,1,1,2,2,3,3,4,4,5,5],"right_children":[2,4,6,8,10,12,-1,-1,-1,-1,-1,-1,-1],"split_conditions":[1.5971914E-1,-3.0882737E-2,-1.4920942E-2,-4.7301617E-1,4.434601E-2,3.1900677E-1,2.9631553E-2,-2.1381356E-2,1.9782316E-2,-1.4061324E-2,-4.0338475E-2,1.0217299E-2,-1.8433755E-2],"split_indices":[1,1,0,1,1,1,0,0,0,0,0,0,0],"split_type":[0,0,0,0,0,0,0,0,0,0,0,0,0],"sum_hessian":[1.8044653E1,1.4143061E1,3.9015925E0,5.7531376E0,8.389923E0,2.298622E0,1.6029707E0,2.1555126E0,3.5976253E0,6.8985333E0,1.4913898E0,1.0332472E0,1.2653747E0],"tree_param":{"num_deleted":"0","num_feature":"3","num_nodes":"13","size_leaf_vector":"1"}},{"base_weights":[-3.803922E-2,-1.8403247E-1,2.5529584E-1,-4.4776893E-1,1.3855615E-1,3.9615482E-1,-1.2750059E-2,-7.05978E-3,-3.993092E-2,2.4757765E-2,-1.3555283E-2,4.5662373E-3,3.820813E-2],"categories":[],"categories_nodes":[],"categories_segments":[],"categories_sizes":[],"default_left":[0,0,0,0,0,0,0,0,0,0,0,0,0],"id":93,"left_children":[1,3,5,7,9,11,-1,-1,-1,-1,-1,-1,-1],"loss_changes":[8.230058E-1,1.1408515E0,5.6397164E-1,6.630546E-1,1.0790297E0,5.4035884E-1,0E0,0E0,0E0,0E0,0E0,0E0,0E0],"parents":[2147483647,0,0,1,1,2,2,3,3,4,4,5,5],"right_children":[2,4,6,8,10,12,-1,-1,-1,-1,-1,-1,-1],"split_conditions":[1.2569752E-1,-1.6230053E-1,1.0101526E0,-3.7032804E-1,2.307351E-2,1.4048786E-1,-1.2750059E-2,-7.05978E-3,-3.993092E-2,2.4757765E-2,-1.3555283E-2,4.5662373E-3,3.820813E-2],"split_indices":[1,0,1,0,0,0,0,0,0,0,0,0,0],"split_type":[0,0,0,0,0,0,0,0,0,0,0,0,0],"sum_hessian":[1.7120821E1,1.1680194E1,5.4406276E0,6.212795E0,5.467399E0,4.4389954E0,1.0016322E0,4.064052E0,2.1487424E0,2.8114326E0,2.6559665E0,3.110582E0,1.328413E0],"tree_param":{"num_deleted":"0","num_feature":"3","num_nodes":"13","size_leaf_vector":"1"}},{"base_weights":[-1.2787056E-1,-1.9356653E-1,2.6154539E-2,2.3526773E-2,-2.6823598E-1,-8.209673E-3,-3.7397835E-2],"categories":[],"categories_nodes":[],"categories_segments":[],"categories_sizes":[],"default_left":[0,0,0,0,0,0,0],"id":94,"left_children":[1,3,-1,-1,5,-1,-1],"loss_changes":[9.61941E-1,1.0689201E0,0E0,0E0,7.619277E-1,0E0,0E0],"parents":[2147483647,0,0,1,1,4,4],"right_children":[2,4,-1,-1,6,-1,-1],"split_conditions":[8.573214E-1,-2.300336E0,2.6154539E-2,2.3526773E-2,4E0,-8.209673E-3,-3.7397835E-2],"split_indices":[0,0,0,0,2,0,0],"split_type":[0,0,0,0,0,0,0],"sum_hessian":[1.912574E1,1.8010717E1,1.1150231E0,1.2845435E0,1.6726173E1,1.4848153E1,1.8780199E0],"tree_param":{"num_deleted":"0","num_feature":"3","num_nodes":"7","size_leaf_vector":"1"}},{"base_weights":[3.4197677E-2,-2.3831692E-2,2.6473878E-2,2.2952447E-2,-8.588448E-2,-3.2327265E-2,1.4886012E-3],"categories":[],"categories_nodes":[],"categories_segments":[],"categories_sizes":[],"default_left":[0,0,0,0,0,0,0],"id":95,"left_children":[1,3,-1,-1,5,-1,-1],"loss_changes":[5.792352E-1,5.968784E-1,0E0,0E0,1.1428641E0,0E0,0E0],"parents":[2147483647,0,0,1,1,4,4],"right_children":[2,4,-1,-1,6,-1,-1],"split_conditions":[8.1315714E-1,-2.300336E0,2.6473878E-2,2.2952447E-2,-6.9631064E-1,-3.2327265E-2,1.4886012E-3],"split_indices":[0,0,0,0,0,0,0],"split_type":[0,0,0,0,0,0,0],"sum_hessian":[1.8714737E1,1.7604044E1,1.110692E0,1.2760899E0,1.6327955E1,2.007261E0,1.4320693E1],"tree_param":{"num_deleted":"0","num_feature":"3","num_nodes":"7","size_leaf_vector":"1"}},{"base_weights":[-5.22187E-2,-2.2688325E-2,2.3436552E-2,4.1269237E-1,-1.14487395E-1,6.127298E-3,3.0485854E-2,-1.921117E-2,9.753518E-3],"categories":[],"categories_nodes":[],"categories_segments":[],"categories_sizes":[],"default_left":[0,0,0,0,0,0,0,0,0],"id":96,"left_children":[1,-1,3,5,7,-1,-1,-1,-1],"loss_changes":[5.798423E-1,0E0,9.4475263E-1,1.8771976E-1,1.1709844E0,0E0,0E0,0E0,0E0],"parents":[2147483647,0,0,2,2,3,3,4,4],"right_children":[2,-1,4,6,8,-1,-1,-1,-1],"split_conditions":[-4.7301617E-1,-2.2688325E-2,-3.0882737E-2,-2.0246457E-1,3E0,6.127298E-3,3.0485854E-2,-1.921117E-2,9.753518E-3],"split_indices":[1,0,1,1,2,0,0,0,0],"split_type":[0,0,0,0,0,0,0,0,0],"sum_hessian":[1.7736753E1,2.019617E0,1.5717137E1,3.5908077E0,1.2126329E1,2.1081882E0,1.4826194E0,6.3510675E0,5.775262E0],"tree_param":{"num_deleted":"0","num_feature":"3","num_nodes":"9","size_leaf_vector":"1"}},{"base_weights":[2.301609E-1,5.4276943E-2,4.568256E-1,1.5860906E-1,-2.501216E-2,3.6652297E-2,1.5099937E-1,-7.496036E-3,1.7051404E-2,-1.3217121E-2,2.5718182E-2],"categories":[],"categories_nodes":[],"categories_segments":[],"categories_sizes":[],"default_left":[0,0,0,0,0,0,0,0,0,0,0],"id":97,"left_children":[1,3,5,7,-1,-1,9,-1,-1,-1,-1],"loss_changes":[6.939884E-1,7.3233694E-1,5.433867E-1,6.2851065E-1,0E0,0E0,8.805954E-1,0E0,0E0,0E0,0E0],"parents":[2147483647,0,0,1,1,2,2,3,3,6,6],"right_children":[2,4,6,8,-1,-1,10,-1,-1,-1,-1],"split_conditions":[-1.9011727E-1,4E0,2.307351E-2,-8.247861E-1,-2.501216E-2,3.6652297E-2,4.3033147E-1,-7.496036E-3,1.7051404E-2,-1.3217121E-2,2.5718182E-2],"split_indices":[0,2,0,0,0,0,0,0,0,0,0],"split_type":[0,0,0,0,0,0,0,0,0,0,0],"sum_hessian":[1.7029675E1,1.0286875E1,6.7427993E0,9.258813E0,1.0280612E0,2.808891E0,3.9339082E0,3.5064387E0,5.752374E0,1.9628248E0,1.9710835E0],"tree_param":{"num_deleted":"0","num_feature":"3","num_nodes":"11","size_leaf_vector":"1"}},{"base_weights":[1.3617925E-1,2.3357403E-1,-1.1128908E-1,3.2690838E-1,-1.5205814E-1,-4.7650316E-1,3.4958568E-1,2.8752152E-2,2.0802882E-3,-1.5305257E-2,4.4934168E-3,-5.6661484E-3,-3.6252495E-2,2.2616642E-2,3.9275936E-3],"categories":[],"categories_nodes":[],"categories_segments":[],"categories_sizes":[],"default_left":[0,0,0,0,0,0,0,0,0,0,0,0,0,0,0],"id":98,"left_children":[1,3,5,7,9,11,13,-1,-1,-1,-1,-1,-1,-1,-1],"loss_changes":[4.7585562E-1,5.433951E-1,1.167823E0,7.8035283E-1,1.5255708E-1,2.5560296E-1,5.3767443E-2,0E0,0E0,0E0,0E0,0E0,0E0,0E0,0E0],"parents":[2147483647,0,0,1,1,2,2,3,3,4,4,5,5,6,6],"right_children":[2,4,6,8,10,12,14,-1,-1,-1,-1,-1,-1,-1,-1],"split_conditions":[5.1102556E-2,2.0697348E-1,4.3033147E-1,3E0,3E0,2.0692845E-1,5.3846862E-2,2.8752152E-2,2.0802882E-3,-1.5305257E-2,4.4934168E-3,-5.6661484E-3,-3.6252495E-2,2.2616642E-2,3.9275936E-3],"split_indices":[0,1,0,2,2,0,1,0,0,0,0,0,0,0,0],"split_type":[0,0,0,0,0,0,0,0,0,0,0,0,0,0,0],"sum_hessian":[1.76648E1,1.2716272E1,4.948529E0,1.0360907E1,2.3553658E0,2.7418642E0,2.2066643E0,4.9982514E0,5.3626556E0,1.2769711E0,1.0783947E0,1.705583E0,1.0362813E0,1.1150424E0,1.091622E0],"tree_param":{"num_deleted":"0","num_feature":"3","num_nodes":"15","size_leaf_vector":"1"}},{"base_weights":[-9.27351E-3,1.5678392E-1,-2.0188844E-1,-2.68449E-1,3.1752953E-1,-4.4547638E-1,3.7744436E-1,4.3534245E-3,-2.7867114E-2,-3.6250593E-3,3.3664435E-2,-2.8487582E-2,5.9712E-3,3.4607824E-2,-3.193425E-3],"categories":[],"categories_nodes":[],"categories_segments":[],"categories_sizes":[],"default_left":[0,0,0,0,0,0,0,0,0,0,0,0,0,0,0],"id":99,"left_children":[1,3,5,7,9,11,13,-1,-1,-1,-1,-1,-1,-1,-1],"loss_changes":[6.513694E-1,8.3493364E-1,1.4956986E0,4.1319212E-1,1.2167597E0,5.651803E-1,5.061382E-1,0E0,0E0,0E0,0E0,0E0,0E0,0E0,0E0],"parents":[2147483647,0,0,1,1,2,2,3,3,4,4,5,5,6,6],"right_children":[2,4,6,8,10,12,14,-1,-1,-1,-1,-1,-1,-1,-1],"split_conditions":[-1.5151516E-1,-3.6273813E-1,2.8721347E-1,-5.560146E-1,-5.767504E-1,4.3033147E-1,3.1333977E-1,4.3534245E-3,-2.7867114E-2,-3.6250593E-3,3.3664435E-2,-2.8487582E-2,5.9712E-3,3.4607824E-2,-3.193425E-3],"split_indices":[0,1,1,1,0,0,0,0,0,0,0,0,0,0,0],"split_type":[0,0,0,0,0,0,0,0,0,0,0,0,0,0,0],"sum_hessian":[1.8375137E1,9.9677515E0,8.407387E0,2.5505521E0,7.417199E0,6.0814257E0,2.325961E0,1.4566209E0,1.0939313E0,3.9179864E0,3.4992127E0,4.9777565E0,1.1036692E0,1.0259354E0,1.3000256E0],"tree_param":{"num_deleted":"0","num_feature":"3","num_nodes":"15","size_leaf_vector":"1"}},{"base_weights":[5.5955056E-2,3.8292015E-1,-7.031053E-2,1.1218688E-1,3.5811413E-2,-2.4233314E-1,3.633958E-1,2.9127616E-2,-1.0347708E-2,6.6585294E-3,-1.7269643E-2,3.504275E-2,-3.6637906E-3],"categories":[],"categories_nodes":[],"categories_segments":[],"categories_sizes":[],"default_left":[0,0,0,0,0,0,0,0,0,0,0,0,0],"id":100,"left_children":[1,3,5,7,-1,9,11,-1,-1,-1,-1,-1,-1],"loss_changes":[8.539942E-1,4.3727487E-1,1.2293466E0,7.736995E-1,0E0,4.9308348E-1,7.504801E-1,0E0,0E0,0E0,0E0,0E0,0E0],"parents":[2147483647,0,0,1,1,2,2,3,3,5,5,6,6],"right_children":[2,4,6,8,-1,10,12,-1,-1,-1,-1,-1,-1],"split_conditions":[-6.405126E-1,-8.247861E-1,2E-1,-2.0412414E0,3.5811413E-2,-1.9285202E-1,6E-1,2.9127616E-2,-1.0347708E-2,6.6585294E-3,-1.7269643E-2,3.504275E-2,-3.6637906E-3],"split_indices":[0,0,0,0,0,1,0,0,0,0,0,0,0],"split_type":[0,0,0,0,0,0,0,0,0,0,0,0,0],"sum_hessian":[1.9033476E1,4.7362604E0,1.4297215E1,3.3509772E0,1.3852832E0,1.055285E1,3.7443664E0,1.02092E0,2.3300571E0,2.2096608E0,8.343188E0,1.7708571E0,1.9735092E0],"tree_param":{"num_deleted":"0","num_feature":"3","num_nodes":"13","size_leaf_vector":"1"}}]},"name":"gbtree"},"learner_model_param":{"base_score":"3.7540668E-1","boost_from_average":"1","num_class":"0","num_feature":"3","num_target":"1"},"objective":{"name":"binary:logistic","reg_loss_param":{"scale_pos_weight":"1"}}},"version":[2,0,0]}