{"learner":{"attributes":{"best_iteration":"2","best_score":"0.49973807111382484"},"feature_names":["Minutes Diff","Rest Days","L5UR","Line T"],"feature_types":["float","float","float","float"],"gradient_booster":{"model":{"gbtree_model_param":{"num_parallel_tree":"1","num_trees":"53"},"iteration_indptr":[0,1,2,3,4,5,6,7,8,9,10,11,12,13,14,15,16,17,18,19,20,21,22,23,24,25,26,27,28,29,30,31,32,33,34,35,36,37,38,39,40,41,42,43,44,45,46,47,48,49,50,51,52,53],"tree_info":[0,0,0,0,0,0,0,0,0,0,0,0,0,0,0,0,0,0,0,0,0,0,0,0,0,0,0,0,0,0,0,0,0,0,0,0,0,0,0,0,0,0,0,0,0,0,0,0,0,0,0,0,0],"trees":[{"base_weights":[-1.6552415E-3,7.588828E-1,-2.7486834E-1,-1.6757047E-2,1.1578567E0,-5.8526504E-1,2.4604306E-1,2.2487586E-2,7.731774E-2,-9.711689E-1,2.4039021E-1,-2.2435687E-2,5.47458E-1,-7.7143568E-3,-6.0295608E-2,3.0280342E-2,-7.7143568E-3,5.379904E-2,3.343307E-3],"categories":[],"categories_nodes":[],"categories_segments":[],"categories_sizes":[],"default_left":[0,0,0,0,0,0,0,0,0,0,0,0,0,0,0,0,0,0,0],"id":0,"left_children":[1,3,5,-1,7,9,11,-1,-1,13,15,-1,17,-1,-1,-1,-1,-1,-1],"loss_changes":[3.9726315E0,2.5938256E0,2.4175494E0,0E0,3.84974E-1,3.1351552E0,1.4925343E0,0E0,0E0,1.0420828E0,6.271004E-1,0E0,1.0972574E0,0E0,0E0,0E0,0E0,0E0,0E0],"parents":[2147483647,0,0,1,1,2,2,4,4,5,5,6,6,9,9,10,10,12,12],"right_children":[2,4,6,-1,8,10,12,-1,-1,14,16,-1,18,-1,-1,-1,-1,-1,-1],"split_conditions":[-5.833333E-1,-3.619614E-1,3E0,-1.6757047E-2,2.5005002E-2,5.076947E-1,2E0,2.2487586E-2,7.731774E-2,-3.3333334E-1,6.666667E-1,-2.2435687E-2,-3.3222774E-1,-7.7143568E-3,-6.0295608E-2,3.0280342E-2,-7.7143568E-3,5.379904E-2,3.343307E-3],"split_indices":[0,3,1,0,3,3,2,0,0,0,0,0,3,0,0,0,0,0,0],"split_type":[0,0,0,0,0,0,0,0,0,0,0,0,0,0,0,0,0,0,0],"sum_hessian":[1.711472E1,4.0534863E0,1.30612335E1,1.1259685E0,2.927518E0,8.106973E0,4.954261E0,1.8015494E0,1.1259685E0,5.4046483E0,2.7023242E0,1.3511621E0,3.6030989E0,1.5763557E0,3.8282926E0,1.1259685E0,1.5763557E0,1.1259685E0,2.4771304E0],"tree_param":{"num_deleted":"0","num_feature":"4","num_nodes":"19","size_leaf_vector":"1"}},{"base_weights":[4.0557522E-2,-5.0135262E-2,2.4708673E-1,6.5587133E-1,-1.083177E-1,3.0681852E-1,6.130708E-2,6.2187195E-1,-5.780451E-1,3.8521476E-2,-1.8099181E-2,-1.6024165E-3,4.87999E-2,7.086938E-3,-3.8797107E-2],"categories":[],"categories_nodes":[],"categories_segments":[],"categories_sizes":[],"default_left":[0,0,0,0,0,0,0,0,0,0,0,0,0,0,0],"id":1,"left_children":[1,-1,3,5,7,9,-1,11,13,-1,-1,-1,-1,-1,-1],"loss_changes":[3.9065523E0,0E0,2.2469835E0,1.0385234E0,3.4017704E0,2.0594163E0,0E0,9.469124E-1,9.526619E-1,0E0,0E0,0E0,0E0,0E0,0E0],"parents":[2147483647,0,0,2,2,3,3,4,4,5,5,7,7,8,8],"right_children":[2,-1,4,6,8,10,-1,12,14,-1,-1,-1,-1,-1,-1],"split_conditions":[2E0,-5.0135262E-2,3E0,1.6955242E-1,-1.6666667E-1,-2.354022E-1,6.130708E-2,1.0935222E-1,-1.1496025E-1,3.8521476E-2,-1.8099181E-2,-1.6024165E-3,4.87999E-2,7.086938E-3,-3.8797107E-2],"split_indices":[2,0,2,3,0,3,0,3,3,0,0,0,0,0,0],"split_type":[0,0,0,0,0,0,0,0,0,0,0,0,0,0,0],"sum_hessian":[1.5980996E1,2.0038269E0,1.397717E1,6.1072335E0,7.869936E0,4.7424703E0,1.3647634E0,2.954021E0,4.915915E0,2.7111545E0,2.0313158E0,1.3572524E0,1.5967687E0,1.1213077E0,3.7946072E0],"tree_param":{"num_deleted":"0","num_feature":"4","num_nodes":"15","size_leaf_vector":"1"}},{"base_weights":[-1.5018234E-1,-3.4715438E-1,4.1928297E-1,-6.066353E-2,-5.435663E-2,5.8579136E-2,-2.1951312E-1,-4.154838E-1,6.5420383E-1,-2.2952192E-2,7.570162E-3,8.079581E-3,-3.420862E-2,-1.4304558E-3,5.1287007E-2],"categories":[],"categories_nodes":[],"categories_segments":[],"categories_sizes":[],"default_left":[0,0,0,0,0,0,0,0,0,0,0,0,0,0,0],"id":2,"left_children":[1,3,5,7,-1,-1,9,11,13,-1,-1,-1,-1,-1,-1],"loss_changes":[2.071591E0,2.7546837E0,2.5955195E0,2.973349E0,0E0,0E0,3.781168E-1,1.3090252E0,1.0241377E0,0E0,0E0,0E0,0E0,0E0,0E0],"parents":[2147483647,0,0,1,1,2,2,3,3,6,6,7,7,8,8],"right_children":[2,4,6,8,-1,-1,10,12,14,-1,-1,-1,-1,-1,-1],"split_conditions":[5.076947E-1,1.06154956E-1,-1.7857143E-1,-1.4079697E-1,-5.435663E-2,5.8579136E-2,1.25E0,-5.477226E-1,-4E-1,-2.2952192E-2,7.570162E-3,8.079581E-3,-3.420862E-2,-1.4304558E-3,5.1287007E-2],"split_indices":[3,3,0,3,0,0,3,3,0,0,0,0,0,0,0],"split_type":[0,0,0,0,0,0,0,0,0,0,0,0,0,0,0],"sum_hessian":[1.617087E1,1.2305063E1,3.8658066E0,9.650676E0,2.6543875E0,1.3921942E0,2.4736123E0,6.729382E0,2.921294E0,1.3586367E0,1.1149757E0,2.264468E0,4.4649143E0,1.3546687E0,1.5666252E0],"tree_param":{"num_deleted":"0","num_feature":"4","num_nodes":"15","size_leaf_vector":"1"}},{"base_weights":[3.1412E-2,5.088922E-1,-6.8660486E-1,4.008559E-2,7.81028E-1,-8.456525E-1,8.214346E-3,5.3449035E-1,-4.282348E-2,1.084726E0,1.0075359E-1,-5.93121E-2,3.8144698E-3,-1.6180715E-2,4.7873322E-2,2.377005E-2,6.993323E-2,2.1095686E-2,-1.5215158E-2],"categories":[],"categories_nodes":[],"categories_segments":[],"categories_sizes":[],"default_left":[0,0,0,0,0,0,0,0,0,0,0,0,0,0,0,0,0,0,0],"id":3,"left_children":[1,3,5,7,9,11,-1,13,-1,15,17,-1,-1,-1,-1,-1,-1,-1,-1],"loss_changes":[6.897543E0,1.5054662E0,1.2289088E0,2.8860788E0,1.4541163E0,2.272316E0,0E0,1.814965E0,0E0,3.162713E-1,5.756364E-1,0E0,0E0,0E0,0E0,0E0,0E0,0E0,0E0],"parents":[2147483647,0,0,1,1,2,2,3,3,4,4,5,5,7,7,9,9,10,10],"right_children":[2,4,6,8,10,12,-1,14,-1,16,18,-1,-1,-1,-1,-1,-1,-1,-1],"split_conditions":[5E-2,-4.0622223E-2,2E0,-2.354022E-1,-1.6666667E-1,3E0,8.214346E-3,-8.5933787E-1,-4.282348E-2,4.7034863E-1,2.651979E-1,-5.93121E-2,3.8144698E-3,-1.6180715E-2,4.7873322E-2,2.377005E-2,6.993323E-2,2.1095686E-2,-1.5215158E-2],"split_indices":[0,3,0,3,0,1,0,3,0,3,3,0,0,0,0,0,0,0,0],"split_type":[0,0,0,0,0,0,0,0,0,0,0,0,0,0,0,0,0,0,0],"sum_hessian":[1.809975E1,1.1045657E1,7.054093E0,4.47827E0,6.5673866E0,5.9483852E0,1.1057076E0,3.146806E0,1.3314642E0,4.129357E0,2.4380298E0,4.134365E0,1.8140202E0,1.1165459E0,2.03026E0,2.2590559E0,1.8703011E0,1.3366303E0,1.1013995E0],"tree_param":{"num_deleted":"0","num_feature":"4","num_nodes":"19","size_leaf_vector":"1"}},{"base_weights":[6.439294E-2,4.591799E-1,-5.157258E-1,1.9462813E-1,4.63289E-2,-7.093608E-1,3.8378225E-3,-1.7214073E-2,3.2523593E-1,-5.456388E-2,5.976276E-3,2.8618509E-2,-1.3714089E-2],"categories":[],"categories_nodes":[],"categories_segments":[],"categories_sizes":[],"default_left":[0,0,0,0,0,0,0,0,0,0,0,0,0],"id":4,"left_children":[1,3,5,7,-1,9,-1,-1,11,-1,-1,-1,-1],"loss_changes":[4.358276E0,1.2091825E0,9.445317E-1,7.0615184E-1,0E0,2.0124178E0,0E0,0E0,1.2399282E0,0E0,0E0,0E0,0E0],"parents":[2147483647,0,0,1,1,2,2,3,3,5,5,8,8],"right_children":[2,4,6,8,-1,10,-1,-1,12,-1,-1,-1,-1],"split_conditions":[5E-2,4.7034863E-1,3E0,-2.1666667E0,4.63289E-2,5.076947E-1,3.8378225E-3,-1.7214073E-2,3E0,-5.456388E-2,5.976276E-3,2.8618509E-2,-1.3714089E-2],"split_indices":[0,3,1,0,0,3,0,0,2,0,0,0,0],"split_type":[0,0,0,0,0,0,0,0,0,0,0,0,0],"sum_hessian":[1.6995834E1,1.0237442E1,6.758392E0,7.4417486E0,2.7956932E0,4.9449987E0,1.8133929E0,1.1325719E0,6.3091764E0,3.168517E0,1.7764816E0,4.499618E0,1.8095583E0],"tree_param":{"num_deleted":"0","num_feature":"4","num_nodes":"13","size_leaf_vector":"1"}},{"base_weights":[1.1940328E-1,-3.3921283E-2,2.76891E-1,4.625869E-1,-8.180081E-2,5.473742E-2,8.4562063E-1,-5.1741546E-1,4.013005E-1,3.6804896E-2,-2.1355119E-2,5.3445686E-2,2.2770416E-3,-3.8949635E-2,-4.7018747E-3,3.0866316E-2,1.4548085E-3],"categories":[],"categories_nodes":[],"categories_segments":[],"categories_sizes":[],"default_left":[0,0,0,0,0,0,0,0,0,0,0,0,0,0,0,0,0],"id":5,"left_children":[1,-1,3,5,7,9,11,13,15,-1,-1,-1,-1,-1,-1,-1,-1],"loss_changes":[2.3665743E0,0E0,1.0497085E0,1.5408752E0,1.4769865E0,2.2808504E0,8.749666E-1,3.2637686E-1,2.572801E-1,0E0,0E0,0E0,0E0,0E0,0E0,0E0,0E0],"parents":[2147483647,0,0,2,2,3,3,4,4,5,5,6,6,7,7,8,8],"right_children":[2,-1,4,6,8,10,12,14,16,-1,-1,-1,-1,-1,-1,-1,-1],"split_conditions":[2E0,-3.3921283E-2,5E-2,6.7200415E-2,9E-1,-2.354022E-1,1.0292337E0,-2.076137E-1,1.5E0,3.6804896E-2,-2.1355119E-2,5.3445686E-2,2.2770416E-3,-3.8949635E-2,-4.7018747E-3,3.0866316E-2,1.4548085E-3],"split_indices":[2,0,0,3,0,3,3,3,0,0,0,0,0,0,0,0,0],"split_type":[0,0,0,0,0,0,0,0,0,0,0,0,0,0,0,0,0],"sum_hessian":[1.6339872E1,2.1483884E0,1.4191484E1,9.159784E0,5.0317006E0,4.9897094E0,4.170075E0,2.6085393E0,2.4231613E0,1.8483336E0,3.1413758E0,2.9974983E0,1.1725764E0,1.093186E0,1.5153534E0,1.116551E0,1.3066101E0],"tree_param":{"num_deleted":"0","num_feature":"4","num_nodes":"17","size_leaf_vector":"1"}},{"base_weights":[-5.4380257E-2,5.646046E-1,-4.9910665E-1,-1.8244594E-2,7.818259E-1,-1.0401119E-1,-8.4270644E-1,3.9919567E-1,5.9444148E-2,-3.526873E-2,4.5604935E-1,-5.308779E-3,-5.4839443E-2,3.6216628E-2,-8.520831E-3,3.7493788E-2,-1.7644037E-3],"categories":[],"categories_nodes":[],"categories_segments":[],"categories_sizes":[],"default_left":[0,0,0,0,0,0,0,0,0,0,0,0,0,0,0,0,0],"id":6,"left_children":[1,3,5,-1,7,9,11,13,-1,-1,15,-1,-1,-1,-1,-1,-1],"loss_changes":[5.049904E0,1.8421698E0,1.352715E0,0E0,5.484581E-1,2.368086E0,9.1918707E-1,1.0293236E0,0E0,0E0,5.6832945E-1,0E0,0E0,0E0,0E0,0E0,0E0],"parents":[2147483647,0,0,1,1,2,2,4,4,5,5,6,6,7,7,10,10],"right_children":[2,4,6,-1,8,10,12,14,-1,-1,16,-1,-1,-1,-1,-1,-1],"split_conditions":[-1.25E-1,-2.6785715E0,3E0,-1.8244594E-2,4.7034863E-1,2E0,-3.315988E-2,3E0,5.9444148E-2,-3.526873E-2,9.092412E-2,-5.308779E-3,-5.4839443E-2,3.6216628E-2,-8.520831E-3,3.7493788E-2,-1.7644037E-3],"split_indices":[0,0,2,0,3,2,3,1,0,0,3,0,0,0,0,0,0],"split_type":[0,0,0,0,0,0,0,0,0,0,0,0,0,0,0,0,0],"sum_hessian":[1.6321E1,6.710939E0,9.610061E0,1.1424679E0,5.568471E0,5.076012E0,4.5340486E0,3.8913357E0,1.6771352E0,2.3226316E0,2.7533805E0,1.5266099E0,3.007439E0,2.304369E0,1.5869666E0,1.3937227E0,1.3596578E0],"tree_param":{"num_deleted":"0","num_feature":"4","num_nodes":"17","size_leaf_vector":"1"}},{"base_weights":[-3.50142E-2,7.861441E-1,-2.4486902E-1,-1.7527219E-2,7.295307E-2,-4.6023678E-2,-6.292758E-2,2.7567998E-1,-3.2665244E-1,-1.776998E-2,3.5386622E-2,-3.6405142E-2,9.581887E-4],"categories":[],"categories_nodes":[],"categories_segments":[],"categories_sizes":[],"default_left":[0,0,0,0,0,0,0,0,0,0,0,0,0],"id":7,"left_children":[1,3,5,-1,-1,-1,7,9,11,-1,-1,-1,-1],"loss_changes":[3.0170817E0,3.2450452E0,1.6405072E0,0E0,0E0,0E0,1.1579934E0,1.8270892E0,1.0108278E0,0E0,0E0,0E0,0E0],"parents":[2147483647,0,0,1,1,2,2,6,6,7,7,8,8],"right_children":[2,4,6,-1,-1,-1,8,10,12,-1,-1,-1,-1],"split_conditions":[-6.5E-1,0E0,2E0,-1.7527219E-2,7.295307E-2,-4.6023678E-2,1.06154956E-1,3E0,5.076947E-1,-1.776998E-2,3.5386622E-2,-3.6405142E-2,9.581887E-4],"split_indices":[0,3,2,0,0,0,3,1,3,0,0,0,0],"split_type":[0,0,0,0,0,0,0,0,0,0,0,0,0],"sum_hessian":[1.5391096E1,2.5737855E0,1.281731E1,1.1352296E0,1.438556E0,1.8581718E0,1.0959139E1,4.7784944E0,6.180644E0,2.0140615E0,2.764433E0,2.3486671E0,3.8319771E0],"tree_param":{"num_deleted":"0","num_feature":"4","num_nodes":"13","size_leaf_vector":"1"}},{"base_weights":[5.113864E-4,-3.317458E-2,1.3786745E-1,5.70314E-1,-2.0808642E-1,-2.0035585E-2,8.231722E-1,3.9564314E-1,-5.381346E-1,2.3722341E-2,5.809139E-2,-1.1565607E-2,5.076751E-2,-4.2634476E-2,-3.4428113E-3],"categories":[],"categories_nodes":[],"categories_segments":[],"categories_sizes":[],"default_left":[0,0,0,0,0,0,0,0,0,0,0,0,0,0,0],"id":8,"left_children":[1,-1,3,5,7,-1,9,11,13,-1,-1,-1,-1,-1,-1],"loss_changes":[1.7266711E0,0E0,2.4650629E0,2.106973E0,2.0950963E0,0E0,1.656146E-1,1.75595E0,9.053377E-1,0E0,0E0,0E0,0E0,0E0,0E0],"parents":[2147483647,0,0,2,2,3,3,4,4,6,6,7,7,8,8],"right_children":[2,-1,4,6,8,-1,10,12,14,-1,-1,-1,-1,-1,-1],"split_conditions":[2E0,-3.317458E-2,3E0,-7.905694E-1,1.06154956E-1,-2.0035585E-2,1.6955242E-1,-4.0622223E-2,7.042952E-1,2.3722341E-2,5.809139E-2,-1.1565607E-2,5.076751E-2,-4.2634476E-2,-3.4428113E-3],"split_indices":[2,0,2,3,3,0,3,3,3,0,0,0,0,0,0],"split_type":[0,0,0,0,0,0,0,0,0,0,0,0,0,0,0],"sum_hessian":[1.692884E1,2.2451153E0,1.4683726E1,6.237833E0,8.445893E0,1.1679488E0,5.0698843E0,2.914994E0,5.530899E0,3.680706E0,1.3891783E0,1.7605709E0,1.1544232E0,2.822182E0,2.7087173E0],"tree_param":{"num_deleted":"0","num_feature":"4","num_nodes":"15","size_leaf_vector":"1"}},{"base_weights":[3.2468613E-2,3.3510205E-1,-5.6030136E-1,-1.9522393E-2,4.6173424E-1,-5.054773E-2,-1.5834596E-2,7.737348E-1,7.636689E-2,1.1277254E-2,-9.594827E-3,1.697388E-2,4.892728E-2,2.5846634E-2,-2.968134E-2],"categories":[],"categories_nodes":[],"categories_segments":[],"categories_sizes":[],"default_left":[0,0,0,0,0,0,0,0,0,0,0,0,0,0,0],"id":9,"left_children":[1,3,5,-1,7,-1,9,11,13,-1,-1,-1,-1,-1,-1],"loss_changes":[3.2112415E0,1.2629163E0,1.4735278E0,0E0,1.2022448E0,0E0,2.0328958E-1,1.7366505E-1,2.019762E0,0E0,0E0,0E0,0E0,0E0,0E0],"parents":[2147483647,0,0,1,1,2,2,4,4,6,6,7,7,8,8],"right_children":[2,4,6,-1,8,-1,10,12,14,-1,-1,-1,-1,-1,-1],"split_conditions":[5E-2,-8.5933787E-1,9E-1,-1.9522393E-2,3E0,-5.054773E-2,1.25E0,-5.714286E-1,-1.6666667E-1,1.1277254E-2,-9.594827E-3,1.697388E-2,4.892728E-2,2.5846634E-2,-2.968134E-2],"split_indices":[0,3,0,0,2,0,0,0,0,0,0,0,0,0,0],"split_type":[0,0,0,0,0,0,0,0,0,0,0,0,0,0,0],"sum_hessian":[1.5854057E1,1.0783381E1,5.0706754E0,1.2928076E0,9.490574E0,2.3055775E0,2.7650976E0,4.6876116E0,4.8029623E0,1.0476804E0,1.7174174E0,2.3539932E0,2.3336186E0,3.0354211E0,1.7675414E0],"tree_param":{"num_deleted":"0","num_feature":"4","num_nodes":"15","size_leaf_vector":"1"}},{"base_weights":[2.1845695E-2,4.991302E-1,-3.416949E-1,-3.2572302E-1,9.63801E-1,9.2893556E-2,-7.076817E-1,8.196915E-3,-3.907803E-2,3.901724E-1,6.289898E-2,-4.3287482E-2,6.6271645E-1,1.1519163E-3,-9.141855E-1,2.6634945E-2,3.37058E-3,5.3761423E-2,3.533636E-3,-5.2112926E-2,-1.1626518E-2],"categories":[],"categories_nodes":[],"categories_segments":[],"categories_sizes":[],"default_left":[0,0,0,0,0,0,0,0,0,0,0,0,0,0,0,0,0,0,0,0,0],"id":10,"left_children":[1,3,5,7,9,11,13,-1,-1,15,-1,-1,17,-1,19,-1,-1,-1,-1,-1,-1],"loss_changes":[3.324381E0,3.4818485E0,1.8012128E0,9.5972687E-1,4.4395113E-1,3.7814188E0,9.323478E-1,0E0,0E0,1.1715835E-1,0E0,0E0,9.618099E-1,0E0,1.7085004E-1,0E0,0E0,0E0,0E0,0E0,0E0],"parents":[2147483647,0,0,1,1,2,2,3,3,4,4,5,5,6,6,9,9,12,12,14,14],"right_children":[2,4,6,8,10,12,14,-1,-1,16,-1,-1,18,-1,20,-1,-1,-1,-1,-1,-1],"split_conditions":[-1.6666667E-1,-4.0622223E-2,3E0,-3.478266E-1,4.7034863E-1,2E0,-3.315988E-2,8.196915E-3,-3.907803E-2,3.8749214E-2,6.289898E-2,-4.3287482E-2,9.092412E-2,1.1519163E-3,1.45E0,2.6634945E-2,3.37058E-3,5.3761423E-2,3.533636E-3,-5.2112926E-2,-1.1626518E-2],"split_indices":[0,3,2,3,3,2,3,0,0,3,0,0,3,0,0,0,0,0,0,0,0],"split_type":[0,0,0,0,0,0,0,0,0,0,0,0,0,0,0,0,0,0,0,0,0],"sum_hessian":[1.7176413E1,7.265166E0,9.911247E0,2.7257023E0,4.5394635E0,4.872095E0,5.0391517E0,1.6228224E0,1.1028799E0,2.3274336E0,2.2120302E0,1.622741E0,3.2493541E0,1.3060589E0,3.7330928E0,1.1632947E0,1.1641388E0,1.4340417E0,1.8153123E0,2.6972983E0,1.0357945E0],"tree_param":{"num_deleted":"0","num_feature":"4","num_nodes":"21","size_leaf_vector":"1"}},{"base_weights":[-1.0104444E-1,1.2529042E-1,-4.8239318E-1,-3.20604E-2,3.2672584E-1,-7.1541256E-1,5.560404E-3,6.5527606E-1,4.587805E-2,-4.9506392E-2,1.8666774E-3,1.5391803E-2,4.4359457E-2,-9.035419E-3,2.0322194E-2],"categories":[],"categories_nodes":[],"categories_segments":[],"categories_sizes":[],"default_left":[0,0,0,0,0,0,0,0,0,0,0,0,0,0,0],"id":11,"left_children":[1,3,5,-1,7,9,-1,11,13,-1,-1,-1,-1,-1,-1],"loss_changes":[1.582423E0,2.040617E0,1.0165197E0,0E0,8.976407E-1,1.0706835E0,0E0,9.417117E-2,6.0414684E-1,0E0,0E0,0E0,0E0,0E0,0E0],"parents":[2147483647,0,0,1,1,2,2,4,4,5,5,7,7,8,8],"right_children":[2,4,6,-1,8,10,-1,12,14,-1,-1,-1,-1,-1,-1],"split_conditions":[5E-2,-3.619614E-1,3E0,-3.20604E-2,-5.833333E-1,5.076947E-1,5.560404E-3,-1.8333334E0,0E0,-4.9506392E-2,1.8666774E-3,1.5391803E-2,4.4359457E-2,-9.035419E-3,2.0322194E-2],"split_indices":[0,3,1,0,0,3,0,0,0,0,0,0,0,0,0],"split_type":[0,0,0,0,0,0,0,0,0,0,0,0,0,0,0],"sum_hessian":[1.6633406E1,1.0859576E1,5.7738285E0,1.8056303E0,9.053946E0,3.9988606E0,1.7749681E0,3.5581877E0,5.495758E0,2.6986368E0,1.3002238E0,2.3559716E0,1.2022161E0,3.681226E0,1.8145322E0],"tree_param":{"num_deleted":"0","num_feature":"4","num_nodes":"15","size_leaf_vector":"1"}},{"base_weights":[1.19011134E-1,4.304825E-1,-4.0094388E-1,-1.9266663E-2,5.574289E-1,-5.440823E-1,1.0816901E-2,9.0128875E-1,2.0600842E-1,-4.2688083E-2,1.0343767E-2,6.270197E-2,2.2555763E-2,2.8635576E-4,2.4751225E-2],"categories":[],"categories_nodes":[],"categories_segments":[],"categories_sizes":[],"default_left":[0,0,0,0,0,0,0,0,0,0,0,0,0,0,0],"id":12,"left_children":[1,3,5,-1,7,9,-1,11,13,-1,-1,-1,-1,-1,-1],"loss_changes":[3.0450861E0,1.4134974E0,7.505485E-1,0E0,1.0740275E0,1.5948988E0,0E0,2.2394037E-1,3.7063068E-1,0E0,0E0,0E0,0E0,0E0,0E0],"parents":[2147483647,0,0,1,1,2,2,4,4,5,5,7,7,8,8],"right_children":[2,4,6,-1,8,10,-1,12,14,-1,-1,-1,-1,-1,-1],"split_conditions":[5E-2,-3.125E0,2E0,-1.9266663E-2,3E0,3E0,1.0816901E-2,-6.5E-1,4E0,-4.2688083E-2,1.0343767E-2,6.270197E-2,2.2555763E-2,2.8635576E-4,2.4751225E-2],"split_indices":[0,0,0,0,1,1,0,0,1,0,0,0,0,0,0],"split_type":[0,0,0,0,0,0,0,0,0,0,0,0,0,0,0],"sum_hessian":[1.6736755E1,1.0574396E1,6.1623583E0,1.1498076E0,9.424588E0,5.0986433E0,1.0637152E0,3.9726787E0,5.45191E0,3.5130408E0,1.5856024E0,1.2261791E0,2.7464995E0,3.8226912E0,1.6292187E0],"tree_param":{"num_deleted":"0","num_feature":"4","num_nodes":"15","size_leaf_vector":"1"}},{"base_weights":[-4.2533543E-2,1.6737531E-1,-3.5813364E-1,-2.4968311E-2,3.2053867E-1,-5.6343824E-1,1.0072803E-2,5.133998E-2,5.6919724E-2,-4.75996E-2,7.2887647E-3,-2.4083097E-2,1.23974355E-2],"categories":[],"categories_nodes":[],"categories_segments":[],"categories_sizes":[],"default_left":[0,0,0,0,0,0,0,0,0,0,0,0,0],"id":13,"left_children":[1,3,5,-1,7,9,-1,-1,11,-1,-1,-1,-1],"loss_changes":[1.1521139E0,1.2407566E0,9.06657E-1,0E0,1.6571804E0,1.6031736E0,0E0,0E0,9.187152E-1,0E0,0E0,0E0,0E0],"parents":[2147483647,0,0,1,1,2,2,4,4,5,5,8,8],"right_children":[2,4,6,-1,8,10,-1,-1,12,-1,-1,-1,-1],"split_conditions":[5E-2,-2.1666667E0,3E0,-2.4968311E-2,-5.833333E-1,5.076947E-1,1.0072803E-2,5.133998E-2,-3.9285713E-1,-4.75996E-2,7.2887647E-3,-2.4083097E-2,1.23974355E-2],"split_indices":[0,0,1,0,0,3,0,0,0,0,0,0,0],"split_type":[0,0,0,0,0,0,0,0,0,0,0,0,0],"sum_hessian":[1.5486286E1,9.582517E0,5.9037695E0,1.3678263E0,8.21469E0,4.314112E0,1.589657E0,1.4459184E0,6.7687716E0,2.5659797E0,1.7481326E0,1.3738816E0,5.3948903E0],"tree_param":{"num_deleted":"0","num_feature":"4","num_nodes":"13","size_leaf_vector":"1"}},{"base_weights":[-7.133908E-2,-4.0783938E-2,4.8113056E-2,2.373611E-1,-3.3796868E-1,3.2352384E-2,8.957958E-2,-5.878319E-1,9.70222E-3,-4.225127E-2,1.6991047E-2,8.062643E-3,-4.5467004E-2],"categories":[],"categories_nodes":[],"categories_segments":[],"categories_sizes":[],"default_left":[0,0,0,0,0,0,0,0,0,0,0,0,0],"id":14,"left_children":[1,-1,3,5,7,-1,9,11,-1,-1,-1,-1,-1],"loss_changes":[1.621366E0,0E0,1.2695497E0,6.3894475E-1,8.806632E-1,0E0,2.5370512E0,1.1514437E0,0E0,0E0,0E0,0E0,0E0],"parents":[2147483647,0,0,2,2,3,3,4,4,6,6,7,7],"right_children":[2,-1,4,6,8,-1,10,12,-1,-1,-1,-1,-1],"split_conditions":[2E0,-4.0783938E-2,5E-2,-2.354022E-1,3E0,3.2352384E-2,-4.0622223E-2,3E0,9.70222E-3,-4.225127E-2,1.6991047E-2,8.062643E-3,-4.5467004E-2],"split_indices":[2,0,0,3,1,0,3,2,0,0,0,0,0],"split_type":[0,0,0,0,0,0,0,0,0,0,0,0,0],"sum_hessian":[1.6794043E1,1.5164042E0,1.5277638E1,1.0510734E1,4.766906E0,1.8907378E0,8.619995E0,3.1721604E0,1.5947452E0,1.3185637E0,7.3014317E0,1.1023152E0,2.0698454E0],"tree_param":{"num_deleted":"0","num_feature":"4","num_nodes":"13","size_leaf_vector":"1"}},{"base_weights":[-1.9998217E-1,-3.1846437E-1,3.8108222E-2,1.5252884E-1,-4.808548E-1,-2.3824155E-2,4.951179E-1,-7.499641E-1,-7.5640716E-2,4.7496933E-2,-8.67002E-3,-5.350538E-2,-1.5353018E-2,-3.830018E-2,1.03063155E-2],"categories":[],"categories_nodes":[],"categories_segments":[],"categories_sizes":[],"default_left":[0,0,0,0,0,0,0,0,0,0,0,0,0,0,0],"id":15,"left_children":[1,3,-1,5,7,-1,9,11,13,-1,-1,-1,-1,-1,-1],"loss_changes":[2.396212E0,1.4137254E0,0E0,1.3677454E0,1.3905988E0,0E0,1.3477196E0,7.8640413E-1,1.4045764E0,0E0,0E0,0E0,0E0,0E0,0E0],"parents":[2147483647,0,0,1,1,3,3,4,4,6,6,7,7,8,8],"right_children":[2,4,-1,6,8,-1,10,12,14,-1,-1,-1,-1,-1,-1],"split_conditions":[1.25E0,-5.833333E-1,3.8108222E-2,-2.6785715E0,3E0,-2.3824155E-2,3E0,2.4385655E-1,-1.0397505E0,4.7496933E-2,-8.67002E-3,-5.350538E-2,-1.5353018E-2,-3.830018E-2,1.03063155E-2],"split_indices":[3,0,0,0,1,0,1,3,3,0,0,0,0,0,0],"split_type":[0,0,0,0,0,0,0,0,0,0,0,0,0,0,0],"sum_hessian":[1.789072E1,1.6524803E1,1.3659172E0,4.252291E0,1.22725115E1,1.3615615E0,2.89073E0,6.8635383E0,5.4089727E0,1.4698017E0,1.4209282E0,3.1619055E0,3.701633E0,1.0696447E0,4.3393283E0],"tree_param":{"num_deleted":"0","num_feature":"4","num_nodes":"15","size_leaf_vector":"1"}},{"base_weights":[-1.5999389E-1,-1.9782437E-3,-5.8512014E-1,-2.961231E-1,3.2049203E-1,-4.239544E-2,7.5295004E-3,5.653894E-3,-3.5241164E-2,6.018631E-1,-1.1115219E-2,-2.3431543E-2,4.7274873E-2,-7.1757347E-3,5.4992188E-2,5.1565435E-2,-4.580671E-2],"categories":[],"categories_nodes":[],"categories_segments":[],"categories_sizes":[],"default_left":[0,0,0,0,0,0,0,0,0,0,0,0,0,0,0,0,0],"id":16,"left_children":[1,3,5,7,9,-1,-1,11,-1,13,15,-1,-1,-1,-1,-1,-1],"loss_changes":[1.1788436E0,1.4047519E0,1.047276E0,9.587996E-1,6.6613746E-1,0E0,0E0,2.8703735E0,0E0,1.5837779E0,4.93177E0,0E0,0E0,0E0,0E0,0E0,0E0],"parents":[2147483647,0,0,1,1,2,2,3,3,4,4,7,7,9,9,10,10],"right_children":[2,4,6,8,10,-1,-1,12,-1,14,16,-1,-1,-1,-1,-1,-1],"split_conditions":[5.7522374E-1,-4.0622223E-2,1.25E0,-2.354022E-1,1.06154956E-1,-4.239544E-2,7.5295004E-3,-3.619614E-1,-3.5241164E-2,3E0,3E0,-2.3431543E-2,4.7274873E-2,-7.1757347E-3,5.4992188E-2,5.1565435E-2,-4.580671E-2],"split_indices":[3,3,3,3,3,0,0,3,0,2,2,0,0,0,0,0,0],"split_type":[0,0,0,0,0,0,0,0,0,0,0,0,0,0,0,0,0],"sum_hessian":[1.6565659E1,1.2809234E1,3.7564244E0,6.741554E0,6.0676794E0,2.6554272E0,1.1009971E0,4.445351E0,2.2962027E0,2.841586E0,3.2260935E0,3.287642E0,1.1577092E0,1.4231783E0,1.4184077E0,1.4343867E0,1.7917068E0],"tree_param":{"num_deleted":"0","num_feature":"4","num_nodes":"17","size_leaf_vector":"1"}},{"base_weights":[1.3791385E-1,-4.4654813E-2,3.2503235E-1,5.6568545E-1,-1.2705244E-1,-1.9810094E-2,7.239048E-1,-4.1939425E-1,1.9072548E-2,5.6157004E-2,2.0028494E-2,-3.4079645E-2,1.13243405E-2],"categories":[],"categories_nodes":[],"categories_segments":[],"categories_sizes":[],"default_left":[0,0,0,0,0,0,0,0,0,0,0,0,0],"id":17,"left_children":[1,-1,3,5,7,-1,9,11,-1,-1,-1,-1,-1],"loss_changes":[3.7542343E0,0E0,1.8050185E0,1.896915E0,1.1040512E0,0E0,7.685437E-1,9.1792184E-1,0E0,0E0,0E0,0E0,0E0],"parents":[2147483647,0,0,2,2,3,3,4,4,6,6,7,7],"right_children":[2,-1,4,6,8,-1,10,12,-1,-1,-1,-1,-1],"split_conditions":[2E0,-4.4654813E-2,5E-2,-2.6785715E0,3E0,-1.9810094E-2,-5.833333E-1,7.5377834E-1,1.9072548E-2,5.6157004E-2,2.0028494E-2,-3.4079645E-2,1.13243405E-2],"split_indices":[2,0,0,0,1,0,0,3,0,0,0,0,0],"split_type":[0,0,0,0,0,0,0,0,0,0,0,0,0],"sum_hessian":[1.6955267E1,2.024964E0,1.4930303E1,9.579615E0,5.3506875E0,1.1406932E0,8.438922E0,3.5087328E0,1.8419546E0,2.6693501E0,5.7695713E0,2.4562957E0,1.0524372E0],"tree_param":{"num_deleted":"0","num_feature":"4","num_nodes":"13","size_leaf_vector":"1"}},{"base_weights":[-7.192179E-2,6.871396E-2,-6.733875E-1,-2.3357356E-2,1.630712E-1,-3.9172824E-2,-1.0600063E-2,3.4131836E-2,1.9330716E-2,-2.8704613E-2,9.500525E-3],"categories":[],"categories_nodes":[],"categories_segments":[],"categories_sizes":[],"default_left":[0,0,0,0,0,0,0,0,0,0,0],"id":18,"left_children":[1,3,5,-1,7,-1,-1,-1,9,-1,-1],"loss_changes":[1.4955331E0,8.241852E-1,3.5015345E-3,0E0,9.815804E-1,0E0,0E0,0E0,1.2700866E0,0E0,0E0],"parents":[2147483647,0,0,1,1,2,2,4,4,8,8],"right_children":[2,4,6,-1,8,-1,-1,-1,10,-1,-1],"split_conditions":[9.6428573E-1,-8.5933787E-1,1.7E0,-2.3357356E-2,-3.3222774E-1,-3.9172824E-2,-1.0600063E-2,3.4131836E-2,-1.4079697E-1,-2.8704613E-2,9.500525E-3],"split_indices":[0,3,0,0,3,0,0,0,3,0,0],"split_type":[0,0,0,0,0,0,0,0,0,0,0],"sum_hessian":[1.613327E1,1.3793748E1,2.3395221E0,1.4736956E0,1.2320052E1,1.3253062E0,1.014216E0,1.8573538E0,1.0462699E1,1.8091266E0,8.653572E0],"tree_param":{"num_deleted":"0","num_feature":"4","num_nodes":"11","size_leaf_vector":"1"}},{"base_weights":[6.369611E-2,2.73181E-1,-3.4417716E-1,-2.4884572E-2,4.306375E-1,-3.6406666E-2,1.2643161E-2,2.6672724E-1,3.4651645E-2,2.2359906E-2,-1.2408194E-2],"categories":[],"categories_nodes":[],"categories_segments":[],"categories_sizes":[],"default_left":[0,0,0,0,0,0,0,0,0,0,0],"id":19,"left_children":[1,3,5,-1,7,-1,-1,9,-1,-1,-1],"loss_changes":[1.4688369E0,1.5723131E0,1.5371597E0,0E0,2.3777986E-1,0E0,0E0,8.2406616E-1,0E0,0E0,0E0],"parents":[2147483647,0,0,1,1,2,2,4,4,7,7],"right_children":[2,4,6,-1,8,-1,-1,10,-1,-1,-1],"split_conditions":[5E-2,-2.6785715E0,3E0,-2.4884572E-2,4.7034863E-1,-3.6406666E-2,1.2643161E-2,1.06154956E-1,3.4651645E-2,2.2359906E-2,-1.2408194E-2],"split_indices":[0,0,1,0,3,0,0,3,0,0,0],"split_type":[0,0,0,0,0,0,0,0,0,0,0],"sum_hessian":[1.5090373E1,1.0188012E1,4.9023614E0,1.3615154E0,8.826496E0,2.8499742E0,2.0523875E0,6.673978E0,2.1525187E0,5.0391955E0,1.6347822E0],"tree_param":{"num_deleted":"0","num_feature":"4","num_nodes":"11","size_leaf_vector":"1"}},{"base_weights":[9.798072E-2,3.8477132E-1,-4.373728E-1,1.2855397E-1,6.577223E-2,-4.4924177E-2,-6.498983E-2,2.226608E-2,-3.8763184E-2,2.0017365E-2,-3.784295E-1,-3.7049223E-2,9.129191E-3,-3.866134E-2,1.2834804E-2],"categories":[],"categories_nodes":[],"categories_segments":[],"categories_sizes":[],"default_left":[0,0,0,0,0,0,0,0,0,0,0,0,0,0,0],"id":20,"left_children":[1,3,5,7,-1,-1,9,-1,11,-1,13,-1,-1,-1,-1],"loss_changes":[2.8551555E0,2.6750584E0,1.0701898E0,5.717008E-1,0E0,0E0,8.390813E-1,0E0,1.3422742E0,0E0,1.033685E0,0E0,0E0,0E0,0E0],"parents":[2147483647,0,0,1,1,2,2,3,3,6,6,8,8,10,10],"right_children":[2,4,6,8,-1,-1,10,-1,12,-1,14,-1,-1,-1,-1],"split_conditions":[5E-2,6.4418364E-1,6.4285713E-1,-2.354022E-1,6.577223E-2,-4.4924177E-2,9.6428573E-1,2.226608E-2,-4.0622223E-2,2.0017365E-2,2E0,-3.7049223E-2,9.129191E-3,-3.866134E-2,1.2834804E-2],"split_indices":[0,3,0,3,0,0,0,0,3,0,0,0,0,0,0],"split_type":[0,0,0,0,0,0,0,0,0,0,0,0,0,0,0],"sum_hessian":[1.6500101E1,1.0927487E1,5.572614E0,9.460979E0,1.4665084E0,1.8584976E0,3.7141166E0,2.6957672E0,6.765212E0,1.3832511E0,2.3308654E0,1.0587436E0,5.7064686E0,1.3032928E0,1.0275726E0],"tree_param":{"num_deleted":"0","num_feature":"4","num_nodes":"15","size_leaf_vector":"1"}},{"base_weights":[3.6171276E-2,-1.0325681E-1,4.8470747E-2,-3.7835266E-2,2.2793354E-2,-2.4855676E-1,3.751426E-1,3.8268874E-4,-4.0028393E-2,3.11451E-2,-1.9531257E-2],"categories":[],"categories_nodes":[],"categories_segments":[],"categories_sizes":[],"default_left":[0,0,0,0,0,0,0,0,0,0,0],"id":21,"left_children":[1,3,-1,-1,5,7,9,-1,-1,-1,-1],"loss_changes":[2.149224E0,1.2201983E0,0E0,0E0,1.3566151E0,1.1469675E0,1.409641E0,0E0,0E0,0E0,0E0],"parents":[2147483647,0,0,1,1,4,4,5,5,6,6],"right_children":[2,4,-1,-1,6,8,10,-1,-1,-1,-1],"split_conditions":[1.118034E0,2E0,4.8470747E-2,-3.7835266E-2,3E0,5E-2,6.260879E-1,3.8268874E-4,-4.0028393E-2,3.11451E-2,-1.9531257E-2],"split_indices":[3,2,0,0,1,0,3,0,0,0,0],"split_type":[0,0,0,0,0,0,0,0,0,0,0],"sum_hessian":[1.4747921E1,1.36047125E1,1.1432084E0,1.3909209E0,1.2213791E1,7.066406E0,5.1473856E0,5.4998426E0,1.5665631E0,4.0300527E0,1.1173329E0],"tree_param":{"num_deleted":"0","num_feature":"4","num_nodes":"11","size_leaf_vector":"1"}},{"base_weights":[1.338957E-1,2.969343E-1,-1.5239777E-1,8.904824E-2,5.0450683E-2,-4.1472055E-2,2.3890871E-1,-2.1303723E-2,2.3936386E-1,3.560779E-2,-1.4747277E-1,2.2306621E-2,-4.3762065E-3,3.4887444E-2,-4.193713E-2],"categories":[],"categories_nodes":[],"categories_segments":[],"categories_sizes":[],"default_left":[0,0,0,0,0,0,0,0,0,0,0,0,0,0,0],"id":22,"left_children":[1,3,5,7,-1,-1,9,-1,11,-1,13,-1,-1,-1,-1],"loss_changes":[7.3771584E-1,1.3595983E0,1.799342E0,7.737544E-1,0E0,0E0,9.473355E-1,0E0,5.3625643E-1,0E0,2.5509858E0,0E0,0E0,0E0,0E0],"parents":[2147483647,0,0,1,1,2,2,3,3,6,6,8,8,10,10],"right_children":[2,4,6,8,-1,-1,10,-1,12,-1,14,-1,-1,-1,-1],"split_conditions":[2.6880166E-1,5.7166196E-2,5.076947E-1,-2.1666667E0,5.0450683E-2,-4.1472055E-2,-1.6666667E-1,-2.1303723E-2,-2.354022E-1,3.560779E-2,3E0,2.2306621E-2,-4.3762065E-3,3.4887444E-2,-4.193713E-2],"split_indices":[3,3,3,0,0,0,0,0,3,0,1,0,0,0,0],"split_type":[0,0,0,0,0,0,0,0,0,0,0,0,0,0,0],"sum_hessian":[1.3835257E1,8.791499E0,5.0437574E0,7.6756935E0,1.115806E0,1.4372824E0,3.606475E0,1.319458E0,6.3562355E0,1.2420492E0,2.364426E0,3.6700246E0,2.6862109E0,1.059542E0,1.3048838E0],"tree_param":{"num_deleted":"0","num_feature":"4","num_nodes":"15","size_leaf_vector":"1"}},{"base_weights":[-2.756548E-1,-4.0015677E-1,2.4989164E-2,2.0844074E-1,-6.3982177E-1,-2.4851835E-1,4.304769E-2,6.5724677E-3,-8.3275944E-1,-2.3006193E-2,5.6849816E-3,-1.4677378E-2,-5.734701E-2],"categories":[],"categories_nodes":[],"categories_segments":[],"categories_sizes":[],"default_left":[0,0,0,0,0,0,0,0,0,0,0,0,0],"id":23,"left_children":[1,3,-1,5,7,9,-1,-1,11,-1,-1,-1,-1],"loss_changes":[1.7111065E0,2.1815412E0,0E0,1.6218348E0,1.6452208E0,3.2464093E-1,0E0,0E0,1.0849481E0,0E0,0E0,0E0,0E0],"parents":[2147483647,0,0,1,1,3,3,4,4,5,5,8,8],"right_children":[2,4,-1,6,8,10,-1,-1,12,-1,-1,-1,-1],"split_conditions":[1.25E0,-2.354022E-1,2.4989164E-2,-3.7818778E-1,-8.5714287E-1,3E0,4.304769E-2,6.5724677E-3,3E0,-2.3006193E-2,5.6849816E-3,-1.4677378E-2,-5.734701E-2],"split_indices":[3,3,0,3,0,1,0,0,2,0,0,0,0],"split_type":[0,0,0,0,0,0,0,0,0,0,0,0,0],"sum_hessian":[1.4652157E1,1.3042115E1,1.6100419E0,3.7216814E0,9.320434E0,2.552962E0,1.1687193E0,1.9287846E0,7.391649E0,1.440901E0,1.112061E0,3.433405E0,3.9582438E0],"tree_param":{"num_deleted":"0","num_feature":"4","num_nodes":"13","size_leaf_vector":"1"}},{"base_weights":[-1.4149593E-2,6.980757E-2,-2.4981905E-2,-2.5799334E-1,2.6972774E-1,1.8425967E-1,-5.1608014E-1,4.7281873E-1,-4.4417433E-2,1.19590955E-2,2.3548168E-3,-4.2331737E-2,-4.6918653E-3,5.7759252E-3,4.343025E-2,2.8551737E-2,-2.4094736E-2],"categories":[],"categories_nodes":[],"categories_segments":[],"categories_sizes":[],"default_left":[0,0,0,0,0,0,0,0,0,0,0,0,0,0,0,0,0],"id":24,"left_children":[1,3,-1,5,7,9,11,13,15,-1,-1,-1,-1,-1,-1,-1,-1],"loss_changes":[7.716411E-1,1.137002E0,0E0,8.5772705E-1,6.976872E-1,1.2835808E-2,5.461837E-1,8.2276845E-1,1.6425928E0,0E0,0E0,0E0,0E0,0E0,0E0,0E0,0E0],"parents":[2147483647,0,0,1,1,3,3,4,4,5,5,6,6,7,7,8,8],"right_children":[2,4,-1,6,8,10,12,14,16,-1,-1,-1,-1,-1,-1,-1,-1],"split_conditions":[1E0,-1.4079697E-1,-2.4981905E-2,-5.477226E-1,-1.25E-1,-1.228683E0,-3.619614E-1,-3.9285713E-1,9.092412E-2,1.19590955E-2,2.3548168E-3,-4.2331737E-2,-4.6918653E-3,5.7759252E-3,4.343025E-2,2.8551737E-2,-2.4094736E-2],"split_indices":[0,3,0,3,0,3,3,0,3,0,0,0,0,0,0,0,0],"split_type":[0,0,0,0,0,0,0,0,0,0,0,0,0,0,0,0,0],"sum_hessian":[1.7075523E1,1.528794E1,1.7875831E0,5.681589E0,9.606351E0,2.1991758E0,3.4824133E0,5.527678E0,4.078673E0,1.0392643E0,1.1599114E0,1.3895268E0,2.0928864E0,3.5840285E0,1.9436493E0,1.5677872E0,2.5108855E0],"tree_param":{"num_deleted":"0","num_feature":"4","num_nodes":"17","size_leaf_vector":"1"}},{"base_weights":[-7.1710356E-2,-1.985352E-1,4.3100193E-2,2.6392803E-1,-3.697294E-1,-1.702775E-2,5.397458E-1,-4.7483325E-2,-1.8697053E-1,6.253858E-3,3.7571456E-2,2.1876654E-2,-1.7989887E-2],"categories":[],"categories_nodes":[],"categories_segments":[],"categories_sizes":[],"default_left":[0,0,0,0,0,0,0,0,0,0,0,0,0],"id":25,"left_children":[1,3,-1,5,7,-1,9,-1,11,-1,-1,-1,-1],"loss_changes":[2.1530328E0,1.3285155E0,0E0,9.814365E-1,1.0692673E0,0E0,2.2832954E-1,0E0,1.2572486E0,0E0,0E0,0E0,0E0],"parents":[2147483647,0,0,1,1,3,3,4,4,6,6,8,8],"right_children":[2,4,-1,6,8,-1,10,-1,12,-1,-1,-1,-1],"split_conditions":[1.0882144E0,-6.5E-1,4.3100193E-2,-2.6785715E0,-3.9285713E-1,-1.702775E-2,-1.8333334E0,-4.7483325E-2,-1.25E-1,6.253858E-3,3.7571456E-2,2.1876654E-2,-1.7989887E-2],"split_indices":[3,0,0,0,0,0,0,0,0,0,0,0,0],"split_type":[0,0,0,0,0,0,0,0,0,0,0,0,0],"sum_hessian":[1.5736409E1,1.4547779E1,1.18863E0,3.784003E0,1.0763776E1,1.1120723E0,2.6719308E0,1.5737176E0,9.190058E0,1.4406654E0,1.2312654E0,1.6600215E0,7.5300364E0],"tree_param":{"num_deleted":"0","num_feature":"4","num_nodes":"13","size_leaf_vector":"1"}},{"base_weights":[-1.0390313E-3,4.0921208E-1,-1.8125182E-1,-1.807258E-2,6.753201E-1,8.883644E-2,-5.3390783E-1,4.493338E-2,5.4161856E-3,-3.39441E-1,3.9442062E-1,-1.4641052E-3,-6.5758413E-1,-2.9814973E-2,9.903247E-3,4.997207E-4,4.675336E-2,-4.441669E-2,-7.850045E-3],"categories":[],"categories_nodes":[],"categories_segments":[],"categories_sizes":[],"default_left":[0,0,0,0,0,0,0,0,0,0,0,0,0,0,0,0,0,0,0],"id":26,"left_children":[1,3,5,-1,7,9,11,-1,-1,13,15,-1,17,-1,-1,-1,-1,-1,-1],"loss_changes":[1.3899206E0,1.4209657E0,1.2911863E0,0E0,4.8699546E-1,1.2138655E0,3.43099E-1,0E0,0E0,6.6672015E-1,1.0877063E0,0E0,3.937844E-1,0E0,0E0,0E0,0E0,0E0,0E0],"parents":[2147483647,0,0,1,1,2,2,4,4,5,5,6,6,9,9,10,10,12,12],"right_children":[2,4,6,-1,8,10,12,-1,-1,14,16,-1,18,-1,-1,-1,-1,-1,-1],"split_conditions":[-5.833333E-1,-3.619614E-1,2.6880166E-1,-1.807258E-2,3E0,3E0,-1.25E-1,4.493338E-2,5.4161856E-3,6.7200415E-2,4E-1,-1.4641052E-3,7.042952E-1,-2.9814973E-2,9.903247E-3,4.997207E-4,4.675336E-2,-4.441669E-2,-7.850045E-3],"split_indices":[0,3,3,0,1,1,0,0,0,3,0,0,3,0,0,0,0,0,0],"split_type":[0,0,0,0,0,0,0,0,0,0,0,0,0,0,0,0,0,0,0],"sum_hessian":[1.679664E1,4.738597E0,1.2058044E1,1.1242929E0,3.614304E0,7.252032E0,4.806012E0,2.1732643E0,1.4410397E0,2.9736526E0,4.2783794E0,1.1894726E0,3.6165395E0,1.9381058E0,1.0355468E0,3.095683E0,1.1826962E0,1.9452544E0,1.6712852E0],"tree_param":{"num_deleted":"0","num_feature":"4","num_nodes":"19","size_leaf_vector":"1"}},{"base_weights":[-1.0879192E-1,2.1995497E-1,-6.451582E-1,1.0892253E-2,4.4574797E-2,-4.3725822E-2,-3.522055E-1,-3.8880493E-2,2.1945415E-1,6.2915063E-3,-2.9283214E-2,2.5127498E-2,-1.9994114E-2],"categories":[],"categories_nodes":[],"categories_segments":[],"categories_sizes":[],"default_left":[0,0,0,0,0,0,0,0,0,0,0,0,0],"id":27,"left_children":[1,3,5,7,-1,-1,9,-1,11,-1,-1,-1,-1],"loss_changes":[2.8749444E0,1.4441388E0,1.0482597E-1,1.6358091E0,0E0,0E0,5.6165814E-1,0E0,1.573043E0,0E0,0E0,0E0,0E0],"parents":[2147483647,0,0,1,1,2,2,3,3,6,6,8,8],"right_children":[2,4,6,8,-1,-1,10,-1,12,-1,-1,-1,-1],"split_conditions":[5E-2,6.4418364E-1,-1.58069E-1,-2.1666667E0,4.4574797E-2,-4.3725822E-2,6.666667E-1,-3.8880493E-2,1.06154956E-1,6.2915063E-3,-2.9283214E-2,2.5127498E-2,-1.9994114E-2],"split_indices":[0,3,3,0,0,0,0,0,3,0,0,0,0],"split_type":[0,0,0,0,0,0,0,0,0,0,0,0,0],"sum_hessian":[1.4499677E1,9.35548E0,5.144197E0,7.909371E0,1.4461089E0,1.7718233E0,3.3723736E0,1.0837274E0,6.8256435E0,1.25783E0,2.1145437E0,4.813831E0,2.011813E0],"tree_param":{"num_deleted":"0","num_feature":"4","num_nodes":"13","size_leaf_vector":"1"}},{"base_weights":[-1.5666333E-1,9.436603E-2,-6.3296425E-1,-8.858799E-2,4.6782628E-1,-4.2923886E-2,-3.3933637E-1,4.297689E-1,-4.470828E-1,4.190531E-2,-7.813764E-3,2.328565E-3,-2.6603848E-2,-1.0049289E-2,3.4782037E-2,-4.5712683E-2,-1.4258268E-3],"categories":[],"categories_nodes":[],"categories_segments":[],"categories_sizes":[],"default_left":[0,0,0,0,0,0,0,0,0,0,0,0,0,0,0,0,0],"id":28,"left_children":[1,3,5,7,9,-1,11,13,15,-1,-1,-1,-1,-1,-1,-1,-1],"loss_changes":[2.08989E0,8.6063683E-1,1.05327606E-1,1.8437856E0,1.0787907E0,0E0,3.413181E-1,8.347078E-1,1.0971874E0,0E0,0E0,0E0,0E0,0E0,0E0,0E0,0E0],"parents":[2147483647,0,0,1,1,2,2,3,3,4,4,6,6,7,7,8,8],"right_children":[2,4,6,8,10,-1,12,14,16,-1,-1,-1,-1,-1,-1,-1,-1],"split_conditions":[5E-2,4.7034863E-1,-1.58069E-1,-2.354022E-1,-2.5E-1,-4.2923886E-2,9.166667E-1,-8.5933787E-1,0E0,4.190531E-2,-7.813764E-3,2.328565E-3,-2.6603848E-2,-1.0049289E-2,3.4782037E-2,-4.5712683E-2,-1.4258268E-3],"split_indices":[0,3,3,3,0,0,0,3,3,0,0,0,0,0,0,0,0],"split_type":[0,0,0,0,0,0,0,0,0,0,0,0,0,0,0,0,0],"sum_hessian":[1.5979476E1,1.098947E1,4.9900064E0,7.8880115E0,3.1014578E0,1.7343161E0,3.2556906E0,3.1436753E0,4.744336E0,1.7313476E0,1.3701104E0,1.337035E0,1.9186555E0,1.004544E0,2.1391313E0,1.6823633E0,3.0619729E0],"tree_param":{"num_deleted":"0","num_feature":"4","num_nodes":"17","size_leaf_vector":"1"}},{"base_weights":[-2.8176805E-2,-1.3266702E-1,3.1312607E-2,-3.460822E-2,-3.3864465E-2,-2.2374598E-2,5.20462E-2,2.5787596E-2,-3.2035813E-3],"categories":[],"categories_nodes":[],"categories_segments":[],"categories_sizes":[],"default_left":[0,0,0,0,0,0,0,0,0],"id":29,"left_children":[1,3,-1,5,-1,-1,7,-1,-1],"loss_changes":[1.1883014E0,7.649481E-1,0E0,5.0858104E-1,0E0,0E0,6.849279E-1,0E0,0E0],"parents":[2147483647,0,0,1,1,3,3,6,6],"right_children":[2,4,-1,6,-1,-1,8,-1,-1],"split_conditions":[1.25E0,9.6428573E-1,3.1312607E-2,-8.5933787E-1,-3.3864465E-2,-2.2374598E-2,-3.3333334E-1,2.5787596E-2,-3.2035813E-3],"split_indices":[3,0,0,3,0,0,3,0,0],"split_type":[0,0,0,0,0,0,0,0,0],"sum_hessian":[1.5162555E1,1.3762436E1,1.4001185E0,1.2563868E1,1.198569E0,1.4570998E0,1.1106768E1,1.5350527E0,9.571714E0],"tree_param":{"num_deleted":"0","num_feature":"4","num_nodes":"9","size_leaf_vector":"1"}},{"base_weights":[6.3310705E-2,-1.7962798E-1,5.536715E-1,1.24944694E-1,-4.845191E-2,4.7330152E-2,9.906942E-2,-2.4312988E-1,3.8063297E-1,-2.5874412E-2,3.2604482E-2,2.294868E-2,-4.1857406E-2,7.2578783E-3,3.2202896E-2],"categories":[],"categories_nodes":[],"categories_segments":[],"categories_sizes":[],"default_left":[0,0,0,0,0,0,0,0,0,0,0,0,0,0,0],"id":30,"left_children":[1,3,5,7,-1,-1,9,11,13,-1,-1,-1,-1,-1,-1],"loss_changes":[1.9914742E0,2.856144E0,8.8986623E-1,9.4843316E-1,0E0,0E0,1.5887665E0,2.1934898E0,2.6357E-1,0E0,0E0,0E0,0E0,0E0,0E0],"parents":[2147483647,0,0,1,1,2,2,3,3,6,6,7,7,8,8],"right_children":[2,4,6,8,-1,-1,10,12,14,-1,-1,-1,-1,-1,-1],"split_conditions":[5.076947E-1,9.092412E-2,7.5276196E-1,3E0,-4.845191E-2,4.7330152E-2,1.25E0,-4.1666666E-1,-1.4079697E-1,-2.5874412E-2,3.2604482E-2,2.294868E-2,-4.1857406E-2,7.2578783E-3,3.2202896E-2],"split_indices":[3,3,3,1,0,0,3,0,3,0,0,0,0,0,0],"split_type":[0,0,0,0,0,0,0,0,0,0,0,0,0,0,0],"sum_hessian":[1.488229E1,1.0375603E1,4.506687E0,8.094342E0,2.2812603E0,1.8367984E0,2.669889E0,3.3381064E0,4.756236E0,1.2928035E0,1.3770853E0,1.6340601E0,1.7040464E0,3.330312E0,1.4259241E0],"tree_param":{"num_deleted":"0","num_feature":"4","num_nodes":"15","size_leaf_vector":"1"}},{"base_weights":[-3.5780936E-2,-2.7512884E-2,7.1795434E-2,-1.138838E-1,3.1801352E-1,2.8956753E-1,-3.7889567E-1,5.283525E-1,-7.0739067E-3,-9.243646E-3,4.0917426E-2,-3.6310613E-2,5.6785108E-3,3.56327E-2,-8.550658E-4],"categories":[],"categories_nodes":[],"categories_segments":[],"categories_sizes":[],"default_left":[0,0,0,0,0,0,0,0,0,0,0,0,0,0,0],"id":31,"left_children":[1,-1,3,5,7,9,11,13,-1,-1,-1,-1,-1,-1,-1],"loss_changes":[9.755595E-1,0E0,7.1615607E-1,1.0949739E0,7.1820474E-1,1.2100041E0,1.1078498E0,4.9253345E-1,0E0,0E0,0E0,0E0,0E0,0E0,0E0],"parents":[2147483647,0,0,2,2,3,3,4,4,5,5,6,6,7,7],"right_children":[2,-1,4,6,8,10,12,14,-1,-1,-1,-1,-1,-1,-1],"split_conditions":[2E0,-2.7512884E-2,3E0,-4.1666666E-1,9.092412E-2,-2.1666667E0,5.076947E-1,4E0,-7.0739067E-3,-9.243646E-3,4.0917426E-2,-3.6310613E-2,5.6785108E-3,3.56327E-2,-8.550658E-4],"split_indices":[2,0,1,0,3,0,3,1,0,0,0,0,0,0,0],"split_type":[0,0,0,0,0,0,0,0,0,0,0,0,0,0,0],"sum_hessian":[1.5912896E1,2.0402925E0,1.3872603E1,8.214962E0,5.6576414E0,3.2200828E0,4.9948792E0,3.7782362E0,1.8794054E0,2.0400548E0,1.180028E0,2.6507592E0,2.34412E0,2.5949152E0,1.183321E0],"tree_param":{"num_deleted":"0","num_feature":"4","num_nodes":"15","size_leaf_vector":"1"}},{"base_weights":[1.0614006E-1,-2.5021141E-2,2.1409807E-1,-6.457775E-2,3.6632988E-1,-3.6171284E-2,2.093573E-1,5.456093E-2,1.3986574E-1,2.8107593E-2,-2.1225255E-2,2.3273239E-2,-5.5076126E-3],"categories":[],"categories_nodes":[],"categories_segments":[],"categories_sizes":[],"default_left":[0,0,0,0,0,0,0,0,0,0,0,0,0],"id":32,"left_children":[1,-1,3,5,7,-1,9,-1,11,-1,-1,-1,-1],"loss_changes":[1.2160939E0,0E0,6.632543E-1,1.2661818E0,1.4725968E0,0E0,1.3876362E0,0E0,7.587267E-1,0E0,0E0,0E0,0E0],"parents":[2147483647,0,0,2,2,3,3,4,4,6,6,8,8],"right_children":[2,-1,4,6,8,-1,10,-1,12,-1,-1,-1,-1],"split_conditions":[2E0,-2.5021141E-2,-4.0622223E-2,-2.1666667E0,-2.5357144E0,-3.6171284E-2,-2.354022E-1,5.456093E-2,2.651979E-1,2.8107593E-2,-2.1225255E-2,2.3273239E-2,-5.5076126E-3],"split_indices":[2,0,3,0,0,0,3,0,3,0,0,0,0],"split_type":[0,0,0,0,0,0,0,0,0,0,0,0,0],"sum_hessian":[1.5934914E1,1.8583593E0,1.4076554E1,5.1764073E0,8.900147E0,1.0383003E0,4.138107E0,1.209656E0,7.6904907E0,2.7311428E0,1.4069641E0,2.9660594E0,4.7244315E0],"tree_param":{"num_deleted":"0","num_feature":"4","num_nodes":"13","size_leaf_vector":"1"}},{"base_weights":[3.976145E-2,5.7617015E-1,-1.5368424E-1,6.6365846E-3,3.9875142E-2,3.1868618E-2,-3.0252287E-1,-4.0969756E-2,-6.759134E-2,2.5885487E-2,-1.5996842E-2],"categories":[],"categories_nodes":[],"categories_segments":[],"categories_sizes":[],"default_left":[0,0,0,0,0,0,0,0,0,0,0],"id":33,"left_children":[1,3,5,-1,-1,-1,7,-1,9,-1,-1],"loss_changes":[1.6583296E0,3.0835032E-1,1.5948501E0,0E0,0E0,0E0,1.2439508E0,0E0,1.4131621E0,0E0,0E0],"parents":[2147483647,0,0,1,1,2,2,6,6,8,8],"right_children":[2,4,6,-1,-1,-1,8,-1,10,-1,-1],"split_conditions":[-2.354022E-1,3E0,-2.5357144E0,6.6365846E-3,3.9875142E-2,3.1868618E-2,-3.9285713E-1,-4.0969756E-2,-1.25E-1,2.5885487E-2,-1.5996842E-2],"split_indices":[3,1,0,0,0,0,0,0,0,0,0],"split_type":[0,0,0,0,0,0,0,0,0,0,0],"sum_hessian":[1.4128097E1,3.2202244E0,1.0907872E1,1.6047707E0,1.6154538E0,1.2075595E0,9.700313E0,2.2538407E0,7.446472E0,1.9264921E0,5.5199804E0],"tree_param":{"num_deleted":"0","num_feature":"4","num_nodes":"11","size_leaf_vector":"1"}},{"base_weights":[1.0499688E-1,-2.226756E-2,1.979452E-1,8.2980886E-2,4.132163E-2,3.865905E-1,-2.9850125E-1,-1.6108243E-2,3.2153215E-2,1.0309312E-2,-3.6357068E-2],"categories":[],"categories_nodes":[],"categories_segments":[],"categories_sizes":[],"default_left":[0,0,0,0,0,0,0,0,0,0,0],"id":34,"left_children":[1,-1,3,5,-1,7,9,-1,-1,-1,-1],"loss_changes":[9.284302E-1,0E0,9.9682236E-1,1.6878797E0,0E0,1.6606086E0,1.5736005E0,0E0,0E0,0E0,0E0],"parents":[2147483647,0,0,2,2,3,3,5,5,6,6],"right_children":[2,-1,4,6,-1,8,10,-1,-1,-1,-1],"split_conditions":[2E0,-2.226756E-2,1.25E0,1.06154956E-1,4.132163E-2,-1.8333334E0,-1.25E-1,-1.6108243E-2,3.2153215E-2,1.0309312E-2,-3.6357068E-2],"split_indices":[2,0,3,3,0,0,0,0,0,0,0],"split_type":[0,0,0,0,0,0,0,0,0,0,0],"sum_hessian":[1.5426403E1,1.6811155E0,1.3745288E1,1.2576753E1,1.1685352E0,6.9957023E0,5.5810504E0,1.7907903E0,5.204912E0,2.8014984E0,2.779552E0],"tree_param":{"num_deleted":"0","num_feature":"4","num_nodes":"11","size_leaf_vector":"1"}},{"base_weights":[3.556409E-2,-4.6823826E-2,2.8897256E-2,6.72861E-2,-4.046787E-2,1.7705959E-1,-3.3639774E-2,1.1747036E-3,5.1096816E-2],"categories":[],"categories_nodes":[],"categories_segments":[],"categories_sizes":[],"default_left":[0,0,0,0,0,0,0,0,0],"id":35,"left_children":[1,3,-1,5,-1,7,-1,-1,-1],"loss_changes":[8.141237E-1,1.4654301E0,0E0,1.3400364E0,0E0,1.7766693E0,0E0,0E0,0E0],"parents":[2147483647,0,0,1,1,3,3,5,5],"right_children":[2,4,-1,6,-1,8,-1,-1,-1],"split_conditions":[1.25E0,7.5276196E-1,2.8897256E-2,1E0,-4.046787E-2,6.4285713E-1,-3.3639774E-2,1.1747036E-3,5.1096816E-2],"split_indices":[3,3,0,0,0,0,0,0,0],"split_type":[0,0,0,0,0,0,0,0,0],"sum_hessian":[1.6613312E1,1.5215708E1,1.3976028E0,1.4028206E1,1.1875019E0,1.2878713E1,1.1494937E0,1.1767626E1,1.1110862E0],"tree_param":{"num_deleted":"0","num_feature":"4","num_nodes":"9","size_leaf_vector":"1"}},{"base_weights":[5.2798513E-2,-3.9071396E-2,1.9087513E-1,8.651883E-2,3.8788598E-2,-7.617718E-3,2.7101198E-2,9.773162E-3,-1.2283558E-2],"categories":[],"categories_nodes":[],"categories_segments":[],"categories_sizes":[],"default_left":[0,0,0,0,0,0,0,0,0],"id":36,"left_children":[1,-1,3,5,-1,7,-1,-1,-1],"loss_changes":[2.082228E0,0E0,8.608056E-1,6.0557157E-1,0E0,6.576467E-1,0E0,0E0,0E0],"parents":[2147483647,0,0,2,2,3,3,5,5],"right_children":[2,-1,4,6,-1,8,-1,-1,-1],"split_conditions":[2E0,-3.9071396E-2,4E0,1.118034E0,3.8788598E-2,1.06154956E-1,2.7101198E-2,9.773162E-3,-1.2283558E-2],"split_indices":[2,0,1,3,0,3,0,0,0],"split_type":[0,0,0,0,0,0,0,0,0],"sum_hessian":[1.5782016E1,1.5795239E0,1.4202492E1,1.3026285E1,1.1762065E0,1.1610159E1,1.4161264E0,6.3618445E0,5.2483144E0],"tree_param":{"num_deleted":"0","num_feature":"4","num_nodes":"9","size_leaf_vector":"1"}},{"base_weights":[1.24333076E-1,-2.7578324E-2,4.0802145E-1,1.2435548E-1,-3.7028342E-2,5.686912E-2,-1.5847157E-1,-2.4931872E-2,2.8101033E-1,1.900015E-2,-4.0141776E-2,-4.45483E-3,2.6446162E-2],"categories":[],"categories_nodes":[],"categories_segments":[],"categories_sizes":[],"default_left":[0,0,0,0,0,0,0,0,0,0,0,0,0],"id":37,"left_children":[1,3,5,7,-1,-1,9,-1,11,-1,-1,-1,-1],"loss_changes":[7.353964E-1,1.3790139E0,2.6276133E0,1.1794412E0,0E0,0E0,1.7663876E0,0E0,8.86596E-1,0E0,0E0,0E0,0E0],"parents":[2147483647,0,0,1,1,2,2,3,3,6,6,8,8],"right_children":[2,4,6,8,-1,-1,10,-1,12,-1,-1,-1,-1],"split_conditions":[4.7034863E-1,2.6880166E-1,-1.6666667E-1,-1.8333334E0,-3.7028342E-2,5.686912E-2,3E0,-2.4931872E-2,3E0,1.900015E-2,-4.0141776E-2,-4.45483E-3,2.6446162E-2],"split_indices":[3,3,0,0,0,0,1,0,1,0,0,0,0],"split_type":[0,0,0,0,0,0,0,0,0,0,0,0,0],"sum_hessian":[1.5803236E1,1.08799515E1,4.9232845E0,9.649322E0,1.23063E0,1.7117028E0,3.211582E0,1.5002035E0,8.149118E0,1.9730407E0,1.2385411E0,3.5259187E0,4.6231995E0],"tree_param":{"num_deleted":"0","num_feature":"4","num_nodes":"13","size_leaf_vector":"1"}},{"base_weights":[2.2621565E-2,-1.5505773E-1,3.1788123E-1,1.8855524E-1,-3.5633734E-1,3.492568E-2,-8.9147076E-2,-2.7616245E-3,1.5828384E-2,-6.3348097E-1,-2.3835452E-2,1.894609E-2,-3.662302E-2,-4.8980325E-2,8.377513E-3,1.8886082E-2,-3.321112E-2],"categories":[],"categories_nodes":[],"categories_segments":[],"categories_sizes":[],"default_left":[0,0,0,0,0,0,0,0,0,0,0,0,0,0,0,0,0],"id":38,"left_children":[1,3,5,7,9,-1,11,-1,-1,13,15,-1,-1,-1,-1,-1,-1],"loss_changes":[9.0201193E-1,8.155109E-1,1.0591466E0,1.6262372E-1,6.4553666E-1,0E0,1.4808688E0,0E0,0E0,1.2373773E0,1.3561673E0,0E0,0E0,0E0,0E0,0E0,0E0],"parents":[2147483647,0,0,1,1,2,2,3,3,4,4,6,6,9,9,10,10],"right_children":[2,4,6,8,10,-1,12,-1,-1,14,16,-1,-1,-1,-1,-1,-1],"split_conditions":[4.7034863E-1,-2.354022E-1,-1.6666667E-1,-8.5933787E-1,3E0,3.492568E-2,3E0,-2.7616245E-3,1.5828384E-2,6.7200415E-2,1.06154956E-1,1.894609E-2,-3.662302E-2,-4.8980325E-2,8.377513E-3,1.8886082E-2,-3.321112E-2],"split_indices":[3,3,0,3,2,0,1,0,0,3,3,0,0,0,0,0,0],"split_type":[0,0,0,0,0,0,0,0,0,0,0,0,0,0,0,0,0],"sum_hessian":[1.5254235E1,9.819793E0,5.434443E0,3.6507168E0,6.169076E0,2.4382162E0,2.9962268E0,1.452708E0,2.1980088E0,2.870931E0,3.2981448E0,1.9722325E0,1.0239944E0,1.8490325E0,1.0218985E0,2.2791572E0,1.0189877E0],"tree_param":{"num_deleted":"0","num_feature":"4","num_nodes":"17","size_leaf_vector":"1"}},{"base_weights":[-2.1331933E-1,-3.9008092E-2,-1.13887414E-1,3.9175802E-1,-2.6088288E-1,2.4347993E-2,4.6850755E-3,-4.0188957E-2,-1.0958501E-1,1.2921077E-2,-1.2627075E-2],"categories":[],"categories_nodes":[],"categories_segments":[],"categories_sizes":[],"default_left":[0,0,0,0,0,0,0,0,0,0,0],"id":39,"left_children":[1,-1,3,5,7,-1,-1,-1,9,-1,-1],"loss_changes":[7.6006025E-1,0E0,1.1416657E0,5.5092216E-2,8.512034E-1,0E0,0E0,0E0,5.9665835E-1,0E0,0E0],"parents":[2147483647,0,0,2,2,3,3,4,4,8,8],"right_children":[2,-1,4,6,8,-1,-1,-1,10,-1,-1],"split_conditions":[-8.5933787E-1,-3.9008092E-2,-2.354022E-1,-4.1666666E-1,-4.0622223E-2,2.4347993E-2,4.6850755E-3,-4.0188957E-2,1.06154956E-1,1.2921077E-2,-1.2627075E-2],"split_indices":[3,0,3,0,3,0,0,0,3,0,0],"split_type":[0,0,0,0,0,0,0,0,0,0,0],"sum_hessian":[1.4061697E1,1.076811E0,1.2984886E1,2.5495749E0,1.0435311E1,1.4520075E0,1.0975672E0,1.334438E0,9.100873E0,2.320254E0,6.780619E0],"tree_param":{"num_deleted":"0","num_feature":"4","num_nodes":"11","size_leaf_vector":"1"}},{"base_weights":[-9.4804585E-2,3.9306277E-1,-2.4603233E-1,-1.7793762E-3,3.7915938E-2,1.648964E-1,-4.075426E-1,-8.207726E-3,2.0125663E-2,-5.651835E-1,-1.24943554E-1,-3.705742E-2,4.842458E-3,9.44519E-3,-2.6454335E-2],"categories":[],"categories_nodes":[],"categories_segments":[],"categories_sizes":[],"default_left":[0,0,0,0,0,0,0,0,0,0,0,0,0,0,0],"id":40,"left_children":[1,3,5,-1,-1,7,9,-1,-1,11,13,-1,-1,-1,-1],"loss_changes":[1.38341E0,7.333783E-1,9.916064E-1,0E0,0E0,4.2899996E-1,3.8763928E-1,0E0,0E0,8.0794406E-1,7.2998184E-1,0E0,0E0,0E0,0E0],"parents":[2147483647,0,0,1,1,2,2,5,5,6,6,9,9,10,10],"right_children":[2,4,6,-1,-1,8,10,-1,-1,12,14,-1,-1,-1,-1],"split_conditions":[-6.5E-1,-2.1666667E0,-3.3222774E-1,-1.7793762E-3,3.7915938E-2,-8.5933787E-1,3E0,-8.207726E-3,2.0125663E-2,6.925641E-1,6.260879E-1,-3.705742E-2,4.842458E-3,9.44519E-3,-2.6454335E-2],"split_indices":[0,0,3,0,0,3,1,0,0,3,3,0,0,0,0],"split_type":[0,0,0,0,0,0,0,0,0,0,0,0,0,0,0],"sum_hessian":[1.6439959E1,3.5117507E0,1.2928207E1,2.0309153E0,1.4808353E0,3.641702E0,9.286506E0,1.6566887E0,1.9850131E0,5.31931E0,3.9671953E0,4.107938E0,1.2113724E0,2.5328386E0,1.4343566E0],"tree_param":{"num_deleted":"0","num_feature":"4","num_nodes":"15","size_leaf_vector":"1"}},{"base_weights":[1.24306E-1,-2.1864273E-2,2.1886045E-1,-1.7564544E-2,2.902355E-1,3.3560317E-2,1.3988253E-1,-2.8342286E-2,1.5604141E-2],"categories":[],"categories_nodes":[],"categories_segments":[],"categories_sizes":[],"default_left":[0,0,0,0,0,0,0,0,0],"id":41,"left_children":[1,-1,3,-1,5,-1,7,-1,-1],"loss_changes":[9.7301817E-1,0E0,7.045298E-1,0E0,6.912688E-1,0E0,1.5267557E0,0E0,0E0],"parents":[2147483647,0,0,2,2,4,4,6,6],"right_children":[2,-1,4,-1,6,-1,8,-1,-1],"split_conditions":[2E0,-2.1864273E-2,-3.125E0,-1.7564544E-2,-6.5E-1,3.3560317E-2,-3.9285713E-1,-2.8342286E-2,1.5604141E-2],"split_indices":[2,0,0,0,0,0,0,0,0],"split_type":[0,0,0,0,0,0,0,0,0],"sum_hessian":[1.5521613E1,1.7144153E0,1.3807198E1,1.0998359E0,1.2707362E1,2.615611E0,1.0091751E1,1.5281754E0,8.563576E0],"tree_param":{"num_deleted":"0","num_feature":"4","num_nodes":"9","size_leaf_vector":"1"}},{"base_weights":[1.4216863E-1,5.624887E-1,1.8507758E-2,2.5940237E-3,3.8507573E-2,2.2432242E-1,-1.9214743E-1,-1.1513831E-1,3.984545E-1,-2.9155975E-2,7.709694E-2,7.7695823E-3,-1.5478429E-2,1.9741787E-3,4.1195463E-2,1.819809E-2,-9.427703E-3],"categories":[],"categories_nodes":[],"categories_segments":[],"categories_sizes":[],"default_left":[0,0,0,0,0,0,0,0,0,0,0,0,0,0,0,0,0],"id":42,"left_children":[1,3,5,-1,-1,7,9,11,13,-1,15,-1,-1,-1,-1,-1,-1],"loss_changes":[8.081275E-1,3.360325E-1,6.154934E-1,0E0,0E0,4.678801E-1,7.884544E-1,2.1622868E-1,7.223672E-1,0E0,4.5467263E-1,0E0,0E0,0E0,0E0,0E0,0E0],"parents":[2147483647,0,0,1,1,2,2,5,5,6,6,7,7,8,8,10,10],"right_children":[2,4,6,-1,-1,8,10,12,14,-1,16,-1,-1,-1,-1,-1,-1],"split_conditions":[-6.5E-1,-4.0622223E-2,1.06154956E-1,2.5940237E-3,3.8507573E-2,3E0,5.076947E-1,-3.478266E-1,4E-1,-2.9155975E-2,7.166696E-1,7.7695823E-3,-1.5478429E-2,1.9741787E-3,4.1195463E-2,1.819809E-2,-9.427703E-3],"split_indices":[0,3,3,0,0,1,3,3,0,0,3,0,0,0,0,0,0],"split_type":[0,0,0,0,0,0,0,0,0,0,0,0,0,0,0,0,0],"sum_hessian":[1.4748037E1,2.5459113E0,1.22021265E1,1.0974048E0,1.4485064E0,6.1391573E0,6.0629687E0,2.1963274E0,3.94283E0,1.9971406E0,4.0658283E0,1.0023893E0,1.1939381E0,2.7312138E0,1.2116163E0,1.7769275E0,2.2889006E0],"tree_param":{"num_deleted":"0","num_feature":"4","num_nodes":"17","size_leaf_vector":"1"}},{"base_weights":[-9.231562E-2,3.3187233E-2,-3.8902674E-2,-4.730812E-2,2.7676035E-2,3.8432786E-1,-1.9088823E-1,-2.919405E-3,3.721216E-2,6.5575736E-3,-1.31184375E-2],"categories":[],"categories_nodes":[],"categories_segments":[],"categories_sizes":[],"default_left":[0,0,0,0,0,0,0,0,0,0,0],"id":43,"left_children":[1,3,-1,5,-1,7,9,-1,-1,-1,-1],"loss_changes":[1.440822E0,6.4846814E-1,0E0,9.2786086E-1,0E0,6.4472026E-1,2.8795785E-1,0E0,0E0,0E0,0E0],"parents":[2147483647,0,0,1,1,3,3,5,5,6,6],"right_children":[2,4,-1,6,-1,8,10,-1,-1,-1,-1],"split_conditions":[1E0,8.75E-1,-3.8902674E-2,-6.5E-1,2.7676035E-2,3E0,-5.477226E-1,-2.919405E-3,3.721216E-2,6.5575736E-3,-1.31184375E-2],"split_indices":[0,0,0,0,0,2,3,0,0,0,0],"split_type":[0,0,0,0,0,0,0,0,0,0,0],"sum_hessian":[1.5441632E1,1.3857123E1,1.5845091E0,1.2787919E1,1.0692043E0,2.7734673E0,1.0014452E1,1.6193496E0,1.1541177E0,1.667429E0,8.347023E0],"tree_param":{"num_deleted":"0","num_feature":"4","num_nodes":"11","size_leaf_vector":"1"}},{"base_weights":[6.0260914E-2,2.363672E-1,-3.162912E-1,-1.1817936E-2,5.938848E-1,-4.411986E-2,2.451097E-1,3.4998703E-1,-3.096361E-1,8.804041E-1,-1.2298218E-2,2.8011268E-2,-5.0007063E-3,2.4592038E-4,2.8575292E-2,-3.637783E-2,4.184796E-4,5.554232E-2,1.8089335E-2],"categories":[],"categories_nodes":[],"categories_segments":[],"categories_sizes":[],"default_left":[0,0,0,0,0,0,0,0,0,0,0,0,0,0,0,0,0,0,0],"id":44,"left_children":[1,3,5,7,9,-1,11,13,15,17,-1,-1,-1,-1,-1,-1,-1,-1,-1],"loss_changes":[1.1825341E0,1.0677325E0,2.043974E0,9.7432464E-1,1.399925E0,0E0,4.5516065E-1,3.1042933E-1,6.624428E-1,6.243348E-2,0E0,0E0,0E0,0E0,0E0,0E0,0E0,0E0,0E0],"parents":[2147483647,0,0,1,1,2,2,3,3,4,4,6,6,7,7,8,8,9,9],"right_children":[2,4,6,8,10,-1,12,14,16,18,-1,-1,-1,-1,-1,-1,-1,-1,-1],"split_conditions":[5E-2,2.11183E-1,9E-1,-2.354022E-1,-1.25E-1,-4.411986E-2,2.8947368E-1,-5.833333E-1,-4.0622223E-2,6.260879E-1,-1.2298218E-2,2.8011268E-2,-5.0007063E-3,2.4592038E-4,2.8575292E-2,-3.637783E-2,4.184796E-4,5.554232E-2,1.8089335E-2],"split_indices":[0,3,0,3,0,0,3,0,3,3,0,0,0,0,0,0,0,0,0],"split_type":[0,0,0,0,0,0,0,0,0,0,0,0,0,0,0,0,0,0,0],"sum_hessian":[1.5705171E1,1.0954326E1,4.7508445E0,7.036561E0,3.917765E0,2.080814E0,2.6700306E0,3.0979004E0,3.9386606E0,2.8851807E0,1.0325842E0,1.0698991E0,1.6001314E0,1.6108379E0,1.4870625E0,1.1454484E0,2.7932122E0,1.2069482E0,1.6782326E0],"tree_param":{"num_deleted":"0","num_feature":"4","num_nodes":"19","size_leaf_vector":"1"}},{"base_weights":[8.409491E-3,-3.1470034E-1,1.8068235E-1,-4.1293878E-2,9.021317E-2,5.7704484E-1,-1.23091824E-1,2.802496E-2,-1.880659E-2,-5.122436E-3,5.0203502E-2,4.018025E-1,-4.7153425E-1,3.723975E-3,2.7193552E-2,-3.5194885E-2,6.8114917E-3],"categories":[],"categories_nodes":[],"categories_segments":[],"categories_sizes":[],"default_left":[0,0,0,0,0,0,0,0,0,0,0,0,0,0,0,0,0],"id":45,"left_children":[1,3,5,-1,7,9,11,-1,-1,-1,-1,13,15,-1,-1,-1,-1],"loss_changes":[9.6120423E-1,1.3194335E0,1.423426E0,0E0,1.1445997E0,1.5679377E0,1.5031868E0,0E0,0E0,0E0,0E0,1.17868066E-1,7.705337E-1,0E0,0E0,0E0,0E0],"parents":[2147483647,0,0,1,1,2,2,4,4,5,5,6,6,11,11,12,12],"right_children":[2,4,6,-1,8,10,12,-1,-1,-1,-1,14,16,-1,-1,-1,-1],"split_conditions":[-1.4079697E-1,3E0,2.6880166E-1,-4.1293878E-2,-4.4166017E-1,-4E-1,-1.6666667E-1,2.802496E-2,-1.880659E-2,-5.122436E-3,5.0203502E-2,-1.25E0,1.7E0,3.723975E-3,2.7193552E-2,-3.5194885E-2,6.8114917E-3],"split_indices":[3,1,3,0,3,0,0,0,0,0,0,0,0,0,0,0,0],"split_type":[0,0,0,0,0,0,0,0,0,0,0,0,0,0,0,0,0],"sum_hessian":[1.5246745E1,5.014654E0,1.0232091E1,1.7569627E0,3.2576916E0,4.0491724E0,6.182918E0,1.5214678E0,1.7362239E0,1.8559785E0,2.1931942E0,2.405751E0,3.777167E0,1.189475E0,1.2162759E0,2.6180463E0,1.1591208E0],"tree_param":{"num_deleted":"0","num_feature":"4","num_nodes":"17","size_leaf_vector":"1"}},{"base_weights":[9.936379E-3,-2.5108713E-1,1.6757749E-1,9.081121E-2,-4.0955983E-2,3.0481026E-1,-7.324776E-2,-1.3319555E-1,2.09431E-2,-1.3748443E-1,5.885367E-1,-3.8467178E-1,2.3184223E-2,-1.4815809E-2,2.5195265E-3,1.6672252E-2,-2.5609503E-2,4.226124E-2,5.7954956E-3,5.9757463E-4,-3.309125E-2],"categories":[],"categories_nodes":[],"categories_segments":[],"categories_sizes":[],"default_left":[0,0,0,0,0,0,0,0,0,0,0,0,0,0,0,0,0,0,0,0,0],"id":46,"left_children":[1,3,5,7,-1,9,11,13,-1,15,17,19,-1,-1,-1,-1,-1,-1,-1,-1,-1],"loss_changes":[6.8774277E-1,1.2995671E0,3.6546698E-1,4.1134152E-1,0E0,9.352072E-1,9.433892E-1,1.2375329E-1,0E0,7.8328395E-1,4.2813492E-1,3.8629562E-1,0E0,0E0,0E0,0E0,0E0,0E0,0E0,0E0,0E0],"parents":[2147483647,0,0,1,1,2,2,3,3,5,5,6,6,7,7,9,9,10,10,11,11],"right_children":[2,4,6,8,-1,10,12,14,-1,16,18,20,-1,-1,-1,-1,-1,-1,-1,-1,-1],"split_conditions":[-1.58069E-1,5E-2,5.7522374E-1,-2.2222222E-1,-4.0955983E-2,-3.9285713E-1,1.25E0,-4.454354E-1,2.09431E-2,-2.1666667E0,3E0,5E-2,2.3184223E-2,-1.4815809E-2,2.5195265E-3,1.6672252E-2,-2.5609503E-2,4.226124E-2,5.7954956E-3,5.9757463E-4,-3.309125E-2],"split_indices":[3,0,3,0,0,0,3,3,0,0,2,0,0,0,0,0,0,0,0,0,0],"split_type":[0,0,0,0,0,0,0,0,0,0,0,0,0,0,0,0,0,0,0,0,0],"sum_hessian":[1.4691301E1,5.308562E0,9.382739E0,3.8383763E0,1.4701856E0,5.8076158E0,3.575124E0,2.6338515E0,1.2045248E0,2.4710248E0,3.3365908E0,2.442205E0,1.1329191E0,1.0695161E0,1.5643353E0,1.1437174E0,1.3273073E0,1.6513642E0,1.6852267E0,1.3981888E0,1.044016E0],"tree_param":{"num_deleted":"0","num_feature":"4","num_nodes":"21","size_leaf_vector":"1"}},{"base_weights":[1.0219783E-1,2.0445861E-1,-2.267254E-2,-1.4176616E-2,2.7858385E-1,1.7055507E-1,3.2195333E-2,1.0379319E-3,3.276657E-2],"categories":[],"categories_nodes":[],"categories_segments":[],"categories_sizes":[],"default_left":[0,0,0,0,0,0,0,0,0],"id":47,"left_children":[1,3,-1,-1,5,7,-1,-1,-1],"loss_changes":[9.626678E-1,5.716539E-1,0E0,0E0,3.7671942E-1,7.7611685E-1,0E0,0E0,0E0],"parents":[2147483647,0,0,1,1,4,4,5,5],"right_children":[2,4,-1,-1,6,8,-1,-1,-1],"split_conditions":[1E0,2E0,-2.267254E-2,-1.4176616E-2,6.4285713E-1,6.4418364E-1,3.2195333E-2,1.0379319E-3,3.276657E-2],"split_indices":[0,2,0,0,0,3,0,0,0],"split_type":[0,0,0,0,0,0,0,0,0],"sum_hessian":[1.431045E1,1.2619931E1,1.6905179E0,1.2916344E0,1.1328297E1,9.875033E0,1.4532633E0,8.3406E0,1.5344338E0],"tree_param":{"num_deleted":"0","num_feature":"4","num_nodes":"9","size_leaf_vector":"1"}},{"base_weights":[-1.1541136E-1,7.6096445E-2,-4.6455717E-1,-1.7571794E-2,2.1284884E-1,-4.0828895E-2,-1.2796056E-1,4.8378232E-1,-1.8077523E-1,2.1781676E-2,-2.712038E-2,5.9413277E-3,3.411771E-2,-2.5110161E-2,1.8678872E-2],"categories":[],"categories_nodes":[],"categories_segments":[],"categories_sizes":[],"default_left":[0,0,0,0,0,0,0,0,0,0,0,0,0,0,0],"id":48,"left_children":[1,3,5,-1,7,-1,9,11,13,-1,-1,-1,-1,-1,-1],"loss_changes":[1.0734972E0,7.112544E-1,5.6383157E-1,0E0,1.0334574E0,0E0,1.1867683E0,3.193946E-1,9.617139E-1,0E0,0E0,0E0,0E0,0E0,0E0],"parents":[2147483647,0,0,1,1,2,2,4,4,6,6,7,7,8,8],"right_children":[2,4,6,-1,8,-1,10,12,14,-1,-1,-1,-1,-1,-1],"split_conditions":[5E-2,-1.8333334E0,6.4285713E-1,-1.7571794E-2,1.06154956E-1,-4.0828895E-2,3E0,-3.619614E-1,6.4418364E-1,2.1781676E-2,-2.712038E-2,5.9413277E-3,3.411771E-2,-2.5110161E-2,1.8678872E-2],"split_indices":[0,0,0,0,3,0,2,3,3,0,0,0,0,0,0],"split_type":[0,0,0,0,0,0,0,0,0,0,0,0,0,0,0],"sum_hessian":[1.4526198E1,9.885832E0,4.640367E0,2.0153437E0,7.8704877E0,1.5711927E0,3.0691743E0,4.5261016E0,3.344386E0,1.2789071E0,1.7902671E0,2.1581106E0,2.3679912E0,2.1764796E0,1.1679065E0],"tree_param":{"num_deleted":"0","num_feature":"4","num_nodes":"15","size_leaf_vector":"1"}},{"base_weights":[-4.2279083E-2,-3.5736132E-2,6.578722E-2,3.0907696E-1,-1.4723638E-1,-6.1713006E-2,3.468213E-2,3.0912578E-1,-5.3169596E-1,-1.4760355E-2,1.6145824E-2,-1.0938288E-2,3.1075139E-2,-4.858061E-2,1.0591833E-2],"categories":[],"categories_nodes":[],"categories_segments":[],"categories_sizes":[],"default_left":[0,0,0,0,0,0,0,0,0,0,0,0,0,0,0],"id":49,"left_children":[1,-1,3,5,7,9,-1,11,13,-1,-1,-1,-1,-1,-1],"loss_changes":[1.1542147E0,0E0,7.732758E-1,1.0235863E0,1.5967996E0,4.922912E-1,0E0,8.5582185E-1,1.7754881E0,0E0,0E0,0E0,0E0,0E0,0E0],"parents":[2147483647,0,0,2,2,3,3,4,4,5,5,7,7,8,8],"right_children":[2,-1,4,6,8,10,-1,12,14,-1,-1,-1,-1,-1,-1],"split_conditions":[2E0,-3.5736132E-2,3E0,-1E-1,-1.6666667E-1,2.5005002E-2,3.468213E-2,-1.25E0,9E-1,-1.4760355E-2,1.6145824E-2,-1.0938288E-2,3.1075139E-2,-4.858061E-2,1.0591833E-2],"split_indices":[2,0,2,0,0,3,0,0,0,0,0,0,0,0,0],"split_type":[0,0,0,0,0,0,0,0,0,0,0,0,0,0,0],"sum_hessian":[1.423625E1,1.1938384E0,1.3042412E1,5.8781714E0,7.16424E0,3.420105E0,2.4580667E0,3.3653917E0,3.7988482E0,2.2728393E0,1.1472657E0,1.3625195E0,2.0028722E0,2.1940012E0,1.6048471E0],"tree_param":{"num_deleted":"0","num_feature":"4","num_nodes":"15","size_leaf_vector":"1"}},{"base_weights":[-7.670444E-2,2.953708E-1,-2.0884322E-1,-8.992744E-3,2.6784185E-2,1.8275182E-1,-3.4893522E-1,-1.5070518E-2,2.482604E-2,-4.1368846E-2,-1.4593907E-1,2.1905135E-2,-1.790261E-2],"categories":[],"categories_nodes":[],"categories_segments":[],"categories_sizes":[],"default_left":[0,0,0,0,0,0,0,0,0,0,0,0,0],"id":50,"left_children":[1,3,5,-1,-1,7,9,-1,-1,-1,11,-1,-1],"loss_changes":[8.598675E-1,6.295321E-1,7.531195E-1,0E0,0E0,7.523322E-1,8.1148756E-1,0E0,0E0,0E0,1.1421546E0,0E0,0E0],"parents":[2147483647,0,0,1,1,2,2,5,5,6,6,10,10],"right_children":[2,4,6,-1,-1,8,10,-1,-1,-1,12,-1,-1],"split_conditions":[-6.5E-1,-2.6785715E0,-3.3222774E-1,-8.992744E-3,2.6784185E-2,-8.5933787E-1,-1.0506222E-1,-1.5070518E-2,2.482604E-2,-4.1368846E-2,1.06154956E-1,2.1905135E-2,-1.790261E-2],"split_indices":[0,0,3,0,0,3,3,0,0,0,3,0,0],"split_type":[0,0,0,0,0,0,0,0,0,0,0,0,0],"sum_hessian":[1.5234562E1,3.6687684E0,1.1565794E1,1.3166454E0,2.352123E0,2.967188E0,8.598606E0,1.1822703E0,1.7849176E0,1.6452023E0,6.9534035E0,1.5686882E0,5.3847156E0],"tree_param":{"num_deleted":"0","num_feature":"4","num_nodes":"13","size_leaf_vector":"1"}},{"base_weights":[1.0742715E-1,5.703348E-1,-7.352168E-2,2.361641E-1,4.100754E-2,-3.7050033E-1,7.420198E-2,-1.411809E-2,3.044965E-2,6.3850903E-3,-3.780752E-2,2.123454E-2,-9.485805E-2,2.082344E-2,-1.8375501E-2],"categories":[],"categories_nodes":[],"categories_segments":[],"categories_sizes":[],"default_left":[0,0,0,0,0,0,0,0,0,0,0,0,0,0,0],"id":51,"left_children":[1,3,5,7,-1,9,11,-1,-1,-1,-1,-1,13,-1,-1],"loss_changes":[1.3306019E0,1.7679238E-1,5.5161047E-1,8.1046575E-1,0E0,8.9111006E-1,5.623951E-1,0E0,0E0,0E0,0E0,0E0,1.0957252E0,0E0,0E0],"parents":[2147483647,0,0,1,1,2,2,3,3,5,5,6,6,12,12],"right_children":[2,4,6,8,-1,10,12,-1,-1,-1,-1,-1,14,-1,-1],"split_conditions":[-5.833333E-1,2.5005002E-2,-1.58069E-1,-2.1666667E0,4.100754E-2,-5.477226E-1,1.06154956E-1,-1.411809E-2,3.044965E-2,6.3850903E-3,-3.780752E-2,2.123454E-2,3E0,2.082344E-2,-1.8375501E-2],"split_indices":[0,3,3,0,0,3,3,0,0,0,0,0,2,0,0],"split_type":[0,0,0,0,0,0,0,0,0,0,0,0,0,0,0],"sum_hessian":[1.438479E1,3.4379168E0,1.0946874E1,2.3028378E0,1.1350789E0,3.1354358E0,7.8114376E0,1.0647069E0,1.238131E0,1.6599262E0,1.4755096E0,2.0498E0,5.7616377E0,1.8203362E0,3.9413013E0],"tree_param":{"num_deleted":"0","num_feature":"4","num_nodes":"15","size_leaf_vector":"1"}},{"base_weights":[9.441645E-2,-1.685397E-2,1.636888E-1,8.2669035E-2,2.5715807E-2,1.8562266E-1,-2.454898E-2,1.8138143E-3,2.4035053E-2],"categories":[],"categories_nodes":[],"categories_segments":[],"categories_sizes":[],"default_left":[0,0,0,0,0,0,0,0,0],"id":52,"left_children":[1,-1,3,5,-1,7,-1,-1,-1],"loss_changes":[5.0682E-1,0E0,3.4646294E-1,8.184027E-1,0E0,4.7463843E-1,0E0,0E0,0E0],"parents":[2147483647,0,0,2,2,3,3,5,5],"right_children":[2,-1,4,6,-1,8,-1,-1,-1],"split_conditions":[2E0,-1.685397E-2,1.118034E0,7.5276196E-1,2.5715807E-2,4.454354E-1,-2.454898E-2,1.8138143E-3,2.4035053E-2],"split_indices":[2,0,3,3,0,3,0,0,0],"split_type":[0,0,0,0,0,0,0,0,0],"sum_hessian":[1.4109833E1,1.4170514E0,1.2692781E1,1.1314179E1,1.3786023E0,1.0166075E1,1.1481042E0,7.495405E0,2.6706698E0],"tree_param":{"num_deleted":"0","num_feature":"4","num_nodes":"9","size_leaf_vector":"1"}}]},"name":"gbtree"},"learner_model_param":{"base_score":"3.424998E-1","boost_from_average":"1","num_class":"0","num_feature":"4","num_target":"1"},"objective":{"name":"binary:logistic","reg_loss_param":{"scale_pos_weight":"1"}}},"version":[2,0,0]}