{"learner":{"attributes":{"best_iteration":"11","best_score":"0.5894697159528732"},"feature_names":["Minutes Diff","Rest Days","L5UR","Line T"],"feature_types":["float","float","float","float"],"gradient_booster":{"model":{"gbtree_model_param":{"num_parallel_tree":"1","num_trees":"62"},"iteration_indptr":[0,1,2,3,4,5,6,7,8,9,10,11,12,13,14,15,16,17,18,19,20,21,22,23,24,25,26,27,28,29,30,31,32,33,34,35,36,37,38,39,40,41,42,43,44,45,46,47,48,49,50,51,52,53,54,55,56,57,58,59,60,61,62],"tree_info":[0,0,0,0,0,0,0,0,0,0,0,0,0,0,0,0,0,0,0,0,0,0,0,0,0,0,0,0,0,0,0,0,0,0,0,0,0,0,0,0,0,0,0,0,0,0,0,0,0,0,0,0,0,0,0,0,0,0,0,0,0,0],"trees":[{"base_weights":[5.031128E-2,5.267806E-1,-5.3073215E-1,2.3643796E-1,6.987448E-2,-7.556564E-1,1.0471102E-2,6.2768203E-1,-3.2792382E-2,-4.95115E-2,1.1599567E-2,-1.820737E-2,4.6897586E-2],"categories":[],"categories_nodes":[],"categories_segments":[],"categories_sizes":[],"default_left":[0,0,0,0,0,0,0,0,0,0,0,0,0],"id":0,"left_children":[1,3,5,7,-1,9,-1,11,-1,-1,-1,-1,-1],"loss_changes":[5.0121703E0,2.1709008E0,1.5234015E0,3.4222069E0,0E0,1.737009E0,0E0,2.3436735E0,0E0,0E0,0E0,0E0,0E0],"parents":[2147483647,0,0,1,1,2,2,3,3,5,5,7,7],"right_children":[2,4,6,8,-1,10,-1,12,-1,-1,-1,-1,-1],"split_conditions":[5E-2,6.4418364E-1,3E0,3E0,6.987448E-2,2.1111112E0,1.0471102E-2,-8.5933787E-1,-3.2792382E-2,-4.95115E-2,1.1599567E-2,-1.820737E-2,4.6897586E-2],"split_indices":[0,3,1,2,0,0,0,3,0,0,0,0,0],"split_type":[0,0,0,0,0,0,0,0,0,0,0,0,0],"sum_hessian":[1.6094461E1,8.894308E0,7.2001543E0,7.6236925E0,1.2706155E0,5.506E0,1.6941539E0,5.506E0,2.1176925E0,4.447154E0,1.0588462E0,1.2706155E0,4.235385E0],"tree_param":{"num_deleted":"0","num_feature":"4","num_nodes":"13","size_leaf_vector":"1"}},{"base_weights":[2.0695595E-2,4.8158592E-1,-7.4022186E-1,2.5790614E-1,5.4795183E-2,-2.2045623E-3,-9.375213E-1,5.700826E-1,-2.96977E-1,-5.2885193E-2,-1.2669741E-2,-1.2873428E-2,3.966411E-2,5.585117E-3,-3.6376093E-2],"categories":[],"categories_nodes":[],"categories_segments":[],"categories_sizes":[],"default_left":[0,0,0,0,0,0,0,0,0,0,0,0,0,0,0],"id":1,"left_children":[1,3,5,7,-1,-1,9,11,13,-1,-1,-1,-1,-1,-1],"loss_changes":[5.9849215E0,1.1740417E0,8.4430337E-1,1.7419951E0,0E0,0E0,1.4101934E-1,1.3407164E0,7.721222E-1,0E0,0E0,0E0,0E0,0E0,0E0],"parents":[2147483647,0,0,1,1,2,2,3,3,6,6,7,7,8,8],"right_children":[2,4,6,8,-1,-1,10,12,14,-1,-1,-1,-1,-1,-1],"split_conditions":[5E-2,6.4418364E-1,-3.3333334E-1,3E0,5.4795183E-2,-2.2045623E-3,1.7857143E0,2E0,-2.5E-1,-5.2885193E-2,-1.2669741E-2,-1.2873428E-2,3.966411E-2,5.585117E-3,-3.6376093E-2],"split_indices":[0,3,3,2,0,0,0,2,0,0,0,0,0,0,0],"split_type":[0,0,0,0,0,0,0,0,0,0,0,0,0,0,0],"sum_hessian":[1.5049185E1,9.600953E0,5.4482317E0,8.079092E0,1.5218602E0,1.4733368E0,3.974895E0,5.1527634E0,2.9263294E0,2.9164827E0,1.0584123E0,1.0619316E0,4.0908318E0,1.8812116E0,1.0451176E0],"tree_param":{"num_deleted":"0","num_feature":"4","num_nodes":"15","size_leaf_vector":"1"}},{"base_weights":[-2.2994079E-1,8.9849573E-1,-4.6843216E-1,9.327888E-3,5.9192874E-2,-7.4831265E-1,1.06734395E-1,-9.5070654E-1,-7.365528E-2,-2.258821E-2,4.2784375E-1,-1.746226E-2,-5.668041E-2,1.2982179E-2,-1.7144484E-2,3.6115253E-3,3.6279343E-2],"categories":[],"categories_nodes":[],"categories_segments":[],"categories_sizes":[],"default_left":[0,0,0,0,0,0,0,0,0,0,0,0,0,0,0,0,0],"id":2,"left_children":[1,3,5,-1,-1,7,9,11,13,-1,15,-1,-1,-1,-1,-1,-1],"loss_changes":[4.766669E0,4.2114115E-1,2.331616E0,0E0,0E0,1.2318258E0,1.1713648E0,4.0164995E-1,3.8373247E-1,0E0,3.6862123E-1,0E0,0E0,0E0,0E0,0E0,0E0],"parents":[2147483647,0,0,1,1,2,2,5,5,6,6,7,7,8,8,10,10],"right_children":[2,4,6,-1,-1,8,10,12,14,-1,16,-1,-1,-1,-1,-1,-1],"split_conditions":[-1.2E0,-2.3214285E0,3E0,9.327888E-3,5.9192874E-2,5.3977793E-1,2E0,-3.3333334E-1,8.75E-1,-2.258821E-2,4E-1,-1.746226E-2,-5.668041E-2,1.2982179E-2,-1.7144484E-2,3.6115253E-3,3.6279343E-2],"split_indices":[0,0,1,0,0,3,2,0,0,0,0,0,0,0,0,0,0],"split_type":[0,0,0,0,0,0,0,0,0,0,0,0,0,0,0,0,0],"sum_hessian":[1.5147986E1,2.1600697E0,1.2987917E1,1.0912675E0,1.0688024E0,8.534115E0,4.4538026E0,6.2499814E0,2.2841332E0,1.477366E0,2.9764366E0,2.1358461E0,4.1141353E0,1.0365537E0,1.2475795E0,1.9226675E0,1.0537692E0],"tree_param":{"num_deleted":"0","num_feature":"4","num_nodes":"17","size_leaf_vector":"1"}},{"base_weights":[-7.795384E-2,8.551973E-1,-3.6116013E-1,-1.3529345E-2,6.4361505E-2,-6.2150335E-1,9.884751E-2,3.330444E-3,-8.814912E-1,4.2881513E-1,-3.7610874E-2,-2.6771167E-2,3.5239693E-2,-5.471055E-2,-1.07499575E-2,-3.7309297E-3,5.952662E-2],"categories":[],"categories_nodes":[],"categories_segments":[],"categories_sizes":[],"default_left":[0,0,0,0,0,0,0,0,0,0,0,0,0,0,0,0,0],"id":3,"left_children":[1,3,5,-1,-1,7,9,11,13,15,-1,-1,-1,-1,-1,-1,-1],"loss_changes":[5.070734E0,2.5332198E0,1.8011183E0,0E0,0E0,1.5321727E0,2.0391831E0,1.7991786E0,7.077532E-1,2.0222614E0,0E0,0E0,0E0,0E0,0E0,0E0,0E0],"parents":[2147483647,0,0,1,1,2,2,5,5,6,6,7,7,8,8,9,9],"right_children":[2,4,6,-1,-1,8,10,12,14,16,-1,-1,-1,-1,-1,-1,-1],"split_conditions":[-5.833333E-1,-4.4166017E-1,3E0,-1.3529345E-2,6.4361505E-2,-1.25E-1,6.260879E-1,-3.9285713E-1,5.3977793E-1,-1.6150053E-1,-3.7610874E-2,-2.6771167E-2,3.5239693E-2,-5.471055E-2,-1.07499575E-2,-3.7309297E-3,5.952662E-2],"split_indices":[0,3,1,0,0,0,3,0,3,3,0,0,0,0,0,0,0],"split_type":[0,0,0,0,0,0,0,0,0,0,0,0,0,0,0,0,0],"sum_hessian":[1.701867E1,3.4922328E0,1.3526437E1,1.0721444E0,2.4200885E0,8.413634E0,5.1128025E0,2.7622519E0,5.651383E0,4.0418673E0,1.0709352E0,1.6962018E0,1.06605E0,3.7975862E0,1.8537965E0,2.976608E0,1.0652592E0],"tree_param":{"num_deleted":"0","num_feature":"4","num_nodes":"17","size_leaf_vector":"1"}},{"base_weights":[5.279951E-4,8.0632555E-1,-2.7245787E-1,1.089255E-2,6.340763E-2,-4.3767836E-2,-1.1422234E-1,4.2941895E-1,-4.5270348E-1,-1.9240893E-2,4.0640183E-2,1.7643068E-2,-3.4933228E-2],"categories":[],"categories_nodes":[],"categories_segments":[],"categories_sizes":[],"default_left":[0,0,0,0,0,0,0,0,0,0,0,0,0],"id":4,"left_children":[1,3,5,-1,-1,-1,7,9,11,-1,-1,-1,-1],"loss_changes":[3.9555795E0,9.603658E-1,1.181551E0,0E0,0E0,0E0,2.3640254E0,1.8852909E0,1.78274E0,0E0,0E0,0E0,0E0],"parents":[2147483647,0,0,1,1,2,2,6,6,7,7,8,8],"right_children":[2,4,6,-1,-1,-1,8,10,12,-1,-1,-1,-1],"split_conditions":[-5.833333E-1,3E0,2E0,1.089255E-2,6.340763E-2,-4.3767836E-2,3E0,-2.2222222E-1,-1.6666667E-1,-1.9240893E-2,4.0640183E-2,1.7643068E-2,-3.4933228E-2],"split_indices":[0,2,2,0,0,0,2,0,0,0,0,0,0],"split_type":[0,0,0,0,0,0,0,0,0,0,0,0,0],"sum_hessian":[1.598353E1,3.550238E0,1.2433292E1,2.2081978E0,1.3420401E0,1.6426368E0,1.0790655E1,4.0374165E0,6.753239E0,1.2912679E0,2.7461483E0,1.4779795E0,5.2752595E0],"tree_param":{"num_deleted":"0","num_feature":"4","num_nodes":"13","size_leaf_vector":"1"}},{"base_weights":[-2.3290475E-3,6.645305E-1,-3.802282E-1,-2.2797903E-2,1.1068711E0,-6.1805373E-1,2.4468776E-2,5.628162E-1,7.585852E-2,-5.3043973E-2,1.2956071E-1,-3.3380973E-1,3.5163216E-2,5.475639E-2,-5.2327435E-3,-1.4757657E-3,1.2877725E-2,-3.9499324E-2,8.16962E-3],"categories":[],"categories_nodes":[],"categories_segments":[],"categories_sizes":[],"default_left":[0,0,0,0,0,0,0,0,0,0,0,0,0,0,0,0,0,0,0],"id":5,"left_children":[1,3,5,-1,7,9,11,13,-1,-1,15,17,-1,-1,-1,-1,-1,-1,-1],"loss_changes":[4.364425E0,3.6101692E0,1.0787014E0,0E0,2.1401453E-1,2.4543254E0,1.4634361E0,1.4102129E0,0E0,0E0,7.875092E-2,1.0329067E0,0E0,0E0,0E0,0E0,0E0,0E0,0E0],"parents":[2147483647,0,0,1,1,2,2,4,4,5,5,6,6,7,7,10,10,11,11],"right_children":[2,4,6,-1,8,10,12,14,-1,-1,16,18,-1,-1,-1,-1,-1,-1,-1],"split_conditions":[-2.5E-1,-4.454354E-1,3E0,-2.2797903E-2,4.7034863E-1,5.3977793E-1,4E-1,-1.6966219E-1,7.585852E-2,-5.3043973E-2,1.1237237E0,-3.619614E-1,3.5163216E-2,5.475639E-2,-5.2327435E-3,-1.4757657E-3,1.2877725E-2,-3.9499324E-2,8.16962E-3],"split_indices":[0,3,1,0,3,3,0,3,0,0,3,3,0,0,0,0,0,0,0],"split_type":[0,0,0,0,0,0,0,0,0,0,0,0,0,0,0,0,0,0,0],"sum_hessian":[1.5316112E1,5.265631E0,1.005048E1,1.4816624E0,3.783969E0,5.998299E0,4.0521812E0,2.6464758E0,1.1374931E0,3.503872E0,2.494427E0,2.984925E0,1.0672562E0,1.1158599E0,1.5306159E0,1.4552197E0,1.0392073E0,1.249584E0,1.7353411E0],"tree_param":{"num_deleted":"0","num_feature":"4","num_nodes":"19","size_leaf_vector":"1"}},{"base_weights":[-6.13634E-2,4.155568E-1,-4.2871413E-1,-2.2239527E-2,6.947535E-1,-5.390733E-1,1.2288455E-2,9.1268426E-1,-1.9481166E-3,-4.4450548E-2,-3.713883E-2,6.543978E-2,1.4487254E-2,-3.5108067E-2,1.7382829E-2],"categories":[],"categories_nodes":[],"categories_segments":[],"categories_sizes":[],"default_left":[0,0,0,0,0,0,0,0,0,0,0,0,0,0,0],"id":6,"left_children":[1,3,5,-1,7,9,-1,11,-1,-1,13,-1,-1,-1,-1],"loss_changes":[3.0282998E0,2.1312869E0,8.531686E-1,0E0,1.0138068E0,1.4834559E0,0E0,7.9479E-1,0E0,0E0,1.4187336E0,0E0,0E0,0E0,0E0],"parents":[2147483647,0,0,1,1,2,2,4,4,5,5,7,7,10,10],"right_children":[2,4,6,-1,8,10,-1,12,-1,-1,14,-1,-1,-1,-1],"split_conditions":[-1.25E-1,-4.454354E-1,2.125E0,-2.2239527E-2,3E0,3E0,1.2288455E-2,-5.833333E-1,-1.9481166E-3,-4.4450548E-2,2E0,6.543978E-2,1.4487254E-2,-3.5108067E-2,1.7382829E-2],"split_indices":[0,3,0,0,1,1,0,0,0,0,2,0,0,0,0],"split_type":[0,0,0,0,0,0,0,0,0,0,0,0,0,0,0],"sum_hessian":[1.52682295E1,6.5862617E0,8.681968E0,1.468367E0,5.1178946E0,7.6337004E0,1.0482671E0,3.7578154E0,1.3600795E0,4.043495E0,3.5902052E0,1.6240938E0,2.1337216E0,1.0136317E0,2.5765736E0],"tree_param":{"num_deleted":"0","num_feature":"4","num_nodes":"15","size_leaf_vector":"1"}},{"base_weights":[-1.00518644E-1,7.0730984E-1,-2.9893774E-1,5.773793E-3,4.816536E-2,1.9897678E-1,-7.581755E-1,-2.4849078E-2,5.2212447E-1,-9.1107315E-1,-1.2425085E-2,-3.4101398E-3,3.867123E-2,-5.079642E-2,-1.3718434E-2],"categories":[],"categories_nodes":[],"categories_segments":[],"categories_sizes":[],"default_left":[0,0,0,0,0,0,0,0,0,0,0,0,0,0,0],"id":7,"left_children":[1,3,5,-1,-1,7,9,-1,11,13,-1,-1,-1,-1,-1],"loss_changes":[2.6628356E0,3.9067495E-1,3.1190724E0,0E0,0E0,1.8383257E0,3.1601954E-1,0E0,8.36313E-1,5.3685665E-2,0E0,0E0,0E0,0E0,0E0],"parents":[2147483647,0,0,1,1,2,2,5,5,6,6,8,8,9,9],"right_children":[2,4,6,-1,-1,8,10,-1,12,14,-1,-1,-1,-1,-1],"split_conditions":[-5.833333E-1,3E0,3E0,5.773793E-3,4.816536E-2,2E0,9.166667E-1,-2.4849078E-2,-2.2222222E-1,6.2745583E-1,-1.2425085E-2,-3.4101398E-3,3.867123E-2,-5.079642E-2,-1.3718434E-2],"split_indices":[0,2,2,0,0,2,0,0,0,3,0,0,0,0,0],"split_type":[0,0,0,0,0,0,0,0,0,0,0,0,0,0,0],"sum_hessian":[1.4293626E1,2.3127882E0,1.1980838E1,1.1364769E0,1.1763114E0,6.020269E0,5.960569E0,1.7383884E0,4.2818804E0,3.9792638E0,1.9813051E0,1.4960709E0,2.7858095E0,2.9052157E0,1.074048E0],"tree_param":{"num_deleted":"0","num_feature":"4","num_nodes":"15","size_leaf_vector":"1"}},{"base_weights":[-5.4322463E-2,3.5617617E-1,-6.4128506E-1,7.6702225E-1,4.4393554E-2,-4.138797E-2,1.1775446E-2,1.0247926E-2,5.0306994E-2,4.7822407E-1,-4.8534024E-1,-3.3733626E-3,5.4764528E-2,4.549177E-3,-4.1103832E-2],"categories":[],"categories_nodes":[],"categories_segments":[],"categories_sizes":[],"default_left":[0,0,0,0,0,0,0,0,0,0,0,0,0,0,0],"id":8,"left_children":[1,3,5,7,9,-1,-1,-1,-1,11,13,-1,-1,-1,-1],"loss_changes":[4.2816653E0,1.3163266E0,1.3852437E0,3.968315E-1,1.8534528E0,0E0,0E0,0E0,0E0,1.5495399E0,7.875596E-1,0E0,0E0,0E0,0E0],"parents":[2147483647,0,0,1,1,2,2,3,3,4,4,9,9,10,10],"right_children":[2,4,6,8,10,-1,-1,-1,-1,12,14,-1,-1,-1,-1],"split_conditions":[5E-2,-7.5E-1,2.125E0,3E0,3E0,-4.138797E-2,1.1775446E-2,1.0247926E-2,5.0306994E-2,-1.6574839E-1,-1.6666667E-1,-3.3733626E-3,5.4764528E-2,4.549177E-3,-4.1103832E-2],"split_indices":[0,0,0,2,2,0,0,0,0,3,0,0,0,0,0],"split_type":[0,0,0,0,0,0,0,0,0,0,0,0,0,0,0],"sum_hessian":[1.582216E1,9.542027E0,6.2801323E0,3.4869895E0,6.0550375E0,5.224849E0,1.0552831E0,1.5949907E0,1.8919989E0,3.3823044E0,2.6727333E0,2.267631E0,1.1146733E0,1.2548565E0,1.417877E0],"tree_param":{"num_deleted":"0","num_feature":"4","num_nodes":"15","size_leaf_vector":"1"}},{"base_weights":[-1.2709403E-1,3.2428223E-1,-7.357141E-1,-8.8079E-2,6.038074E-1,-5.301084E-2,3.701809E-3,2.9453024E-1,-3.687385E-2,4.7619544E-2,-8.223052E-3,-1.4640774E-2,3.4382388E-2],"categories":[],"categories_nodes":[],"categories_segments":[],"categories_sizes":[],"default_left":[0,0,0,0,0,0,0,0,0,0,0,0,0],"id":9,"left_children":[1,3,5,7,9,-1,-1,11,-1,-1,-1,-1,-1],"loss_changes":[4.5199795E0,1.1646194E0,1.9027138E0,1.4019625E0,1.7297595E0,0E0,0E0,1.05915E0,0E0,0E0,0E0,0E0,0E0],"parents":[2147483647,0,0,1,1,2,2,3,3,4,4,7,7],"right_children":[2,4,6,8,10,-1,-1,12,-1,-1,-1,-1,-1],"split_conditions":[5E-2,-8.0940485E-2,3E0,-2.8635132E-1,-1.6666667E-1,-5.301084E-2,3.701809E-3,-8.5933787E-1,-3.687385E-2,4.7619544E-2,-8.223052E-3,-1.4640774E-2,3.4382388E-2],"split_indices":[0,3,1,3,0,0,0,3,0,0,0,0,0],"split_type":[0,0,0,0,0,0,0,0,0,0,0,0,0],"sum_hessian":[1.4584788E1,8.642419E0,5.9423695E0,3.7682774E0,4.8741417E0,4.021474E0,1.9208957E0,2.7150774E0,1.0531999E0,3.1880026E0,1.6861391E0,1.1909132E0,1.5241643E0],"tree_param":{"num_deleted":"0","num_feature":"4","num_nodes":"13","size_leaf_vector":"1"}},{"base_weights":[-8.424585E-2,2.8420544E-1,-5.392429E-1,-1.4761264E-2,3.9819482E-1,-6.989627E-1,1.2620444E-2,6.763194E-1,4.2460747E-2,-4.3262158E-2,-3.4515706E-3,5.152259E-2,9.350351E-3,-1.8421045E-2,2.6887352E-2],"categories":[],"categories_nodes":[],"categories_segments":[],"categories_sizes":[],"default_left":[0,0,0,0,0,0,0,0,0,0,0,0,0,0,0],"id":10,"left_children":[1,3,5,-1,7,9,-1,11,13,-1,-1,-1,-1,-1,-1],"loss_changes":[2.9435518E0,7.682449E-1,1.1617339E0,0E0,8.278792E-1,6.472614E-1,0E0,6.3765955E-1,1.1883458E0,0E0,0E0,0E0,0E0,0E0,0E0],"parents":[2147483647,0,0,1,1,2,2,4,4,5,5,7,7,8,8],"right_children":[2,4,6,-1,8,10,-1,12,14,-1,-1,-1,-1,-1,-1],"split_conditions":[5E-2,-8.5933787E-1,2.125E0,-1.4761264E-2,3E0,3E0,1.2620444E-2,-2.3836565E-1,4.9099025E-1,-4.3262158E-2,-3.4515706E-3,5.152259E-2,9.350351E-3,-1.8421045E-2,2.6887352E-2],"split_indices":[0,3,0,0,2,1,0,3,3,0,0,0,0,0,0],"split_type":[0,0,0,0,0,0,0,0,0,0,0,0,0,0,0],"sum_hessian":[1.5644149E1,8.851598E0,6.7925515E0,1.1937242E0,7.6578736E0,5.7496195E0,1.0429317E0,3.7919827E0,3.8658907E0,4.2533326E0,1.4962869E0,1.5582823E0,2.2337005E0,2.252991E0,1.6128999E0],"tree_param":{"num_deleted":"0","num_feature":"4","num_nodes":"15","size_leaf_vector":"1"}},{"base_weights":[-2.0075893E-2,4.9321848E-1,-3.3322638E-1,8.504288E-2,4.9553487E-2,1.3357337E-1,-7.6856005E-1,2.3687836E-2,-1.5384768E-2,-1.1932962E-1,3.3817753E-2,-4.2190995E-2,-1.0577862E-2,1.2857596E-2,-1.8988151E-2],"categories":[],"categories_nodes":[],"categories_segments":[],"categories_sizes":[],"default_left":[0,0,0,0,0,0,0,0,0,0,0,0,0,0,0],"id":11,"left_children":[1,3,5,7,-1,9,11,-1,-1,13,-1,-1,-1,-1,-1],"loss_changes":[2.8029637E0,1.2616354E0,2.2957997E0,8.683672E-1,0E0,9.125535E-1,6.178665E-2,0E0,0E0,5.863109E-1,0E0,0E0,0E0,0E0,0E0],"parents":[2147483647,0,0,1,1,2,2,3,3,5,5,6,6,9,9],"right_children":[2,4,6,8,-1,10,12,-1,-1,14,-1,-1,-1,-1,-1],"split_conditions":[-1.6666667E-1,4.7034863E-1,9.092412E-2,-2.3836565E-1,4.9553487E-2,-1.58069E-1,1.5789798E0,2.3687836E-2,-1.5384768E-2,5E-2,3.3817753E-2,-4.2190995E-2,-1.0577862E-2,1.2857596E-2,-1.8988151E-2],"split_indices":[0,3,3,3,0,3,3,0,0,0,0,0,0,0,0],"split_type":[0,0,0,0,0,0,0,0,0,0,0,0,0,0,0],"sum_hessian":[1.5415557E1,5.623268E0,9.792289E0,3.7332726E0,1.8899956E0,5.059865E0,4.732424E0,1.7725724E0,1.9607002E0,3.9838068E0,1.0760581E0,3.7154753E0,1.0169486E0,1.6341237E0,2.349683E0],"tree_param":{"num_deleted":"0","num_feature":"4","num_nodes":"15","size_leaf_vector":"1"}},{"base_weights":[-4.3345556E-2,-4.4232197E-2,1.250288E-1,6.071277E-1,-9.494494E-2,1.1715734E-3,7.9206467E-1,3.31721E-1,-4.166696E-1,4.9765136E-2,1.4072212E-2,-1.07489545E-2,4.6611782E-2,-3.0635495E-2,6.2375236E-4],"categories":[],"categories_nodes":[],"categories_segments":[],"categories_sizes":[],"default_left":[0,0,0,0,0,0,0,0,0,0,0,0,0,0,0],"id":12,"left_children":[1,-1,3,5,7,-1,9,11,13,-1,-1,-1,-1,-1,-1],"loss_changes":[2.4627163E0,0E0,1.6178241E0,4.9362385E-1,1.643661E0,0E0,9.064031E-2,1.931015E0,5.709517E-1,0E0,0E0,0E0,0E0,0E0,0E0],"parents":[2147483647,0,0,2,2,3,3,4,4,6,6,7,7,8,8],"right_children":[2,-1,4,6,8,-1,10,12,14,-1,-1,-1,-1,-1,-1],"split_conditions":[2E0,-4.4232197E-2,-5.833333E-1,-2.5833333E0,3E0,1.1715734E-3,-1.6966219E-1,6.7200415E-2,3E0,4.9765136E-2,1.4072212E-2,-1.07489545E-2,4.6611782E-2,-3.0635495E-2,6.2375236E-4],"split_indices":[2,0,0,0,2,0,3,3,1,0,0,0,0,0,0],"split_type":[0,0,0,0,0,0,0,0,0,0,0,0,0,0,0],"sum_hessian":[1.5604726E1,1.892857E0,1.3711868E1,3.7447648E0,9.967104E0,1.1720983E0,2.5726664E0,4.271388E0,5.695716E0,1.1612577E0,1.4114087E0,2.5719392E0,1.699449E0,3.6160831E0,2.0796325E0],"tree_param":{"num_deleted":"0","num_feature":"4","num_nodes":"15","size_leaf_vector":"1"}},{"base_weights":[-1.0084181E-1,2.6455376E-1,-3.6310998E-1,-2.2751799E-2,5.407577E-1,-6.3914865E-1,-3.7752226E-2,3.677382E-3,7.497702E-1,-4.6932794E-2,9.317457E-3,-3.357808E-1,2.5648633E-2,4.4560876E-2,1.0381564E-2,-5.0757653E-3,-2.240287E-2],"categories":[],"categories_nodes":[],"categories_segments":[],"categories_sizes":[],"default_left":[0,0,0,0,0,0,0,0,0,0,0,0,0,0,0,0,0],"id":13,"left_children":[1,3,5,-1,7,9,11,-1,13,-1,-1,15,-1,-1,-1,-1,-1],"loss_changes":[1.5619675E0,1.6314161E0,8.1349385E-1,0E0,4.8134363E-1,1.4068995E0,1.0492995E0,0E0,9.7688675E-2,0E0,0E0,6.1609864E-2,0E0,0E0,0E0,0E0,0E0],"parents":[2147483647,0,0,1,1,2,2,4,4,5,5,6,6,8,8,11,11],"right_children":[2,4,6,-1,8,10,12,-1,14,-1,-1,16,-1,-1,-1,-1,-1],"split_conditions":[-1.25E-1,-4.454354E-1,3E0,-2.2751799E-2,3E0,1.7857143E0,4E-1,3.677382E-3,-3.3333334E-1,-4.6932794E-2,9.317457E-3,-2.8635132E-1,2.5648633E-2,4.4560876E-2,1.0381564E-2,-5.0757653E-3,-2.240287E-2],"split_indices":[0,3,1,0,2,0,0,0,0,0,0,3,0,0,0,0,0],"split_type":[0,0,0,0,0,0,0,0,0,0,0,0,0,0,0,0,0],"sum_hessian":[1.4296678E1,5.9701996E0,8.326478E0,1.476371E0,4.493829E0,3.9828858E0,4.3435917E0,1.8068408E0,2.6869879E0,2.8219476E0,1.160938E0,3.0716438E0,1.2719481E0,1.6203401E0,1.0666479E0,1.6121149E0,1.4595289E0],"tree_param":{"num_deleted":"0","num_feature":"4","num_nodes":"17","size_leaf_vector":"1"}},{"base_weights":[-1.3844275E-1,3.4396347E-2,-3.4791154E-1,-4.3145124E-2,-1.9542418E-1,1.326141E-1,-4.4596827E-1,-7.816792E-3,3.824624E-2,8.881926E-3,-3.4225363E-2],"categories":[],"categories_nodes":[],"categories_segments":[],"categories_sizes":[],"default_left":[0,0,0,0,0,0,0,0,0,0,0],"id":14,"left_children":[1,-1,3,-1,5,7,9,-1,-1,-1,-1],"loss_changes":[3.065944E0,0E0,9.0654933E-1,0E0,1.033592E0,1.1984578E0,1.1556453E0,0E0,0E0,0E0,0E0],"parents":[2147483647,0,0,2,2,4,4,5,5,6,6],"right_children":[2,-1,4,-1,6,8,10,-1,-1,-1,-1],"split_conditions":[-1.2E0,3.4396347E-2,2E0,-4.3145124E-2,3E0,6.4285713E-1,-1.6666667E-1,-7.816792E-3,3.824624E-2,8.881926E-3,-3.4225363E-2],"split_indices":[0,0,2,0,2,0,0,0,0,0,0],"split_type":[0,0,0,0,0,0,0,0,0,0,0],"sum_hessian":[1.5329453E1,2.6380405E0,1.2691413E1,1.8350633E0,1.085635E1,4.9049616E0,5.9513884E0,3.8831947E0,1.0217667E0,1.7172717E0,4.2341166E0],"tree_param":{"num_deleted":"0","num_feature":"4","num_nodes":"11","size_leaf_vector":"1"}},{"base_weights":[-3.847572E-3,3.4828606E-1,-3.1052038E-1,-2.2322616E-2,5.732319E-1,-5.5618006E-1,2.797255E-2,4.256346E-2,1.4270693E-1,-3.9820816E-2,1.4780703E-2,-2.023376E-1,1.7755099E-2,-2.2250356E-2,3.2704994E-2,-2.2597E-2,1.03493715E-2],"categories":[],"categories_nodes":[],"categories_segments":[],"categories_sizes":[],"default_left":[0,0,0,0,0,0,0,0,0,0,0,0,0,0,0,0,0],"id":15,"left_children":[1,3,5,-1,7,9,11,-1,13,-1,-1,15,-1,-1,-1,-1,-1],"loss_changes":[1.9995462E0,1.7977188E0,8.3797204E-1,0E0,7.3553777E-1,1.4179758E0,4.569467E-1,0E0,1.496539E0,0E0,0E0,4.6509078E-1,0E0,0E0,0E0,0E0,0E0],"parents":[2147483647,0,0,1,1,2,2,4,4,5,5,6,6,8,8,11,11],"right_children":[2,4,6,-1,8,10,12,-1,14,-1,-1,16,-1,-1,-1,-1,-1],"split_conditions":[-1.25E-1,-4.454354E-1,3E0,-2.2322616E-2,-5.833333E-1,2E0,4E-1,4.256346E-2,2.11183E-1,-3.9820816E-2,1.4780703E-2,-2.3138697E-1,1.7755099E-2,-2.2250356E-2,3.2704994E-2,-2.2597E-2,1.03493715E-2],"split_indices":[0,3,1,0,0,0,0,0,3,0,0,3,0,0,0,0,0],"split_type":[0,0,0,0,0,0,0,0,0,0,0,0,0,0,0,0,0],"sum_hessian":[1.651458E1,7.624333E0,8.890247E0,1.4647232E0,6.1596093E0,4.7788863E0,4.1113615E0,3.1488004E0,3.010809E0,3.778288E0,1.0005985E0,2.636589E0,1.4747722E0,1.4612702E0,1.5495389E0,1.573173E0,1.063416E0],"tree_param":{"num_deleted":"0","num_feature":"4","num_nodes":"17","size_leaf_vector":"1"}},{"base_weights":[1.14292055E-1,3.82356E-1,-3.4461057E-1,-1.2741188E-2,4.862457E-1,-5.8187664E-1,1.0035201E-2,5.4328926E-2,1.9932066E-1,-4.1864157E-2,-2.864648E-3,-2.239652E-2,2.8700007E-2],"categories":[],"categories_nodes":[],"categories_segments":[],"categories_sizes":[],"default_left":[0,0,0,0,0,0,0,0,0,0,0,0,0],"id":16,"left_children":[1,3,5,-1,7,9,-1,-1,11,-1,-1,-1,-1],"loss_changes":[2.1086247E0,8.2680464E-1,9.515334E-1,0E0,1.4152629E0,5.8872545E-1,0E0,0E0,2.1086087E0,0E0,0E0,0E0,0E0],"parents":[2147483647,0,0,1,1,2,2,4,4,5,5,8,8],"right_children":[2,4,6,-1,8,10,-1,-1,12,-1,-1,-1,-1],"split_conditions":[5E-2,-8.5933787E-1,3E0,-1.2741188E-2,-2.3836565E-1,5.026155E-1,1.0035201E-2,5.4328926E-2,6.7200415E-2,-4.1864157E-2,-2.864648E-3,-2.239652E-2,2.8700007E-2],"split_indices":[0,3,1,0,3,3,0,0,3,0,0,0,0],"split_type":[0,0,0,0,0,0,0,0,0,0,0,0,0],"sum_hessian":[1.5070045E1,9.618365E0,5.45168E0,1.1447173E0,8.473648E0,3.7520971E0,1.699583E0,1.8389786E0,6.63467E0,2.1225774E0,1.6295197E0,2.360849E0,4.273821E0],"tree_param":{"num_deleted":"0","num_feature":"4","num_nodes":"13","size_leaf_vector":"1"}},{"base_weights":[1.8453827E-2,4.0920007E-1,-5.727224E-1,-1.6566835E-2,5.5081254E-1,-2.6725563E-1,-7.242426E-1,7.739346E-1,9.133123E-2,-3.9656892E-2,1.5986143E-2,-1.1202568E-2,-4.2101018E-2,2.0081883E-2,6.1900746E-2,3.3708695E-2,-2.5204504E-2],"categories":[],"categories_nodes":[],"categories_segments":[],"categories_sizes":[],"default_left":[0,0,0,0,0,0,0,0,0,0,0,0,0,0,0,0,0],"id":17,"left_children":[1,3,5,-1,7,9,11,13,15,-1,-1,-1,-1,-1,-1,-1,-1],"loss_changes":[4.0584364E0,1.2888794E0,1.3063717E-1,0E0,8.757875E-1,1.459674E0,5.27153E-2,5.533414E-1,1.7805569E0,0E0,0E0,0E0,0E0,0E0,0E0,0E0,0E0],"parents":[2147483647,0,0,1,1,2,2,4,4,5,5,6,6,7,7,8,8],"right_children":[2,4,6,-1,8,10,12,14,16,-1,-1,-1,-1,-1,-1,-1,-1],"split_conditions":[5E-2,-8.5933787E-1,3E0,-1.6566835E-2,-2.5E-1,6.4285713E-1,0E0,4.7034863E-1,3E0,-3.9656892E-2,1.5986143E-2,-1.1202568E-2,-4.2101018E-2,2.0081883E-2,6.1900746E-2,3.3708695E-2,-2.5204504E-2],"split_indices":[0,3,2,0,0,0,3,3,2,0,0,0,0,0,0,0,0],"split_type":[0,0,0,0,0,0,0,0,0,0,0,0,0,0,0,0,0],"sum_hessian":[1.555446E1,9.550044E0,6.0044155E0,1.3180094E0,8.232035E0,2.9072297E0,3.0971859E0,5.080568E0,3.151467E0,1.3481668E0,1.5590628E0,1.1434371E0,1.9537488E0,3.8541334E0,1.2264345E0,1.5257176E0,1.6257495E0],"tree_param":{"num_deleted":"0","num_feature":"4","num_nodes":"17","size_leaf_vector":"1"}},{"base_weights":[-2.1485934E-2,4.0688896E-1,-3.5373232E-1,9.6572675E-3,4.3195624E-2,-6.613079E-1,3.2949876E-2,2.2174452E-2,-3.753765E-1,-5.0615626E-3,-4.465894E-2,-2.5248647E-1,2.4723753E-2,-3.9566353E-2,1.1870535E-2,8.126631E-3,-2.5029693E-2],"categories":[],"categories_nodes":[],"categories_segments":[],"categories_sizes":[],"default_left":[0,0,0,0,0,0,0,0,0,0,0,0,0,0,0,0,0],"id":18,"left_children":[1,3,5,7,-1,9,11,-1,13,-1,-1,15,-1,-1,-1,-1,-1],"loss_changes":[2.371008E0,1.316953E0,1.1335372E0,9.8778486E-1,0E0,5.9187126E-1,7.958836E-1,0E0,9.8988247E-1,0E0,0E0,4.7360164E-1,0E0,0E0,0E0,0E0,0E0],"parents":[2147483647,0,0,1,1,2,2,3,3,5,5,6,6,8,8,11,11],"right_children":[2,4,6,8,-1,10,12,-1,14,-1,-1,16,-1,-1,-1,-1,-1],"split_conditions":[-1.25E-1,2.11183E-1,3E0,-2.3836565E-1,4.3195624E-2,3E0,4E-1,2.2174452E-2,3E0,-5.0615626E-3,-4.465894E-2,-7.905694E-1,2.4723753E-2,-3.9566353E-2,1.1870535E-2,8.126631E-3,-2.5029693E-2],"split_indices":[0,3,1,3,0,2,0,0,2,0,0,3,0,0,0,0,0],"split_type":[0,0,0,0,0,0,0,0,0,0,0,0,0,0,0,0,0],"sum_hessian":[1.4647725E1,6.3001275E0,8.347597E0,3.9168475E0,2.38328E0,4.2538114E0,4.093786E0,1.7703313E0,2.1465163E0,1.6660666E0,2.5877447E0,2.8092797E0,1.284506E0,1.1050608E0,1.0414555E0,1.1801335E0,1.6291463E0],"tree_param":{"num_deleted":"0","num_feature":"4","num_nodes":"17","size_leaf_vector":"1"}},{"base_weights":[-6.8051745E-3,-3.354124E-1,3.9704505E-1,-7.646976E-1,3.202809E-1,6.604648E-1,1.05149515E-1,-9.210967E-3,-4.9306925E-2,3.7515566E-2,-7.437248E-3,2.7255688E-3,5.096472E-2,-1.7664796E-2,3.889889E-1,2.703147E-2,2.6161328E-3],"categories":[],"categories_nodes":[],"categories_segments":[],"categories_sizes":[],"default_left":[0,0,0,0,0,0,0,0,0,0,0,0,0,0,0,0,0],"id":19,"left_children":[1,3,5,7,9,11,13,-1,-1,-1,-1,-1,-1,-1,15,-1,-1],"loss_changes":[2.0767674E0,2.6704648E0,4.7098064E-1,5.2568007E-1,9.414365E-1,7.0656526E-1,7.2603405E-1,0E0,0E0,0E0,0E0,0E0,0E0,0E0,1.3863665E-1,0E0,0E0],"parents":[2147483647,0,0,1,1,2,2,3,3,4,4,5,5,6,6,14,14],"right_children":[2,4,6,8,10,12,14,-1,-1,-1,-1,-1,-1,-1,16,-1,-1],"split_conditions":[3E0,4.454354E-1,-2.8635132E-1,-1.6966219E-1,6.666667E-1,-1.0699812E0,-8.0940485E-2,-9.210967E-3,-4.9306925E-2,3.7515566E-2,-7.437248E-3,2.7255688E-3,5.096472E-2,-1.7664796E-2,6.260879E-1,2.703147E-2,2.6161328E-3],"split_indices":[1,3,3,3,0,3,3,0,0,0,0,0,0,0,3,0,0],"split_type":[0,0,0,0,0,0,0,0,0,0,0,0,0,0,0,0,0],"sum_hessian":[1.3645629E1,7.6171355E0,6.028493E0,4.502855E0,3.114281E0,2.5051007E0,3.5233922E0,1.749274E0,2.7535808E0,1.311812E0,1.8024689E0,1.3601454E0,1.1449553E0,1.253725E0,2.2696671E0,1.1471422E0,1.122525E0],"tree_param":{"num_deleted":"0","num_feature":"4","num_nodes":"17","size_leaf_vector":"1"}},{"base_weights":[-5.2987017E-2,2.2076894E-1,-3.082315E-1,-3.071796E-1,6.605355E-1,7.726624E-2,-6.2638324E-1,1.3229899E-2,-4.3841522E-2,7.5384647E-1,8.589487E-3,-1.7417965E-2,3.1644607E-1,-4.265401E-2,-9.606145E-3,8.059194E-3,4.6678085E-2,3.0535493E-2,-1.1150399E-2],"categories":[],"categories_nodes":[],"categories_segments":[],"categories_sizes":[],"default_left":[0,0,0,0,0,0,0,0,0,0,0,0,0,0,0,0,0,0,0],"id":20,"left_children":[1,3,5,7,9,11,13,-1,-1,15,-1,-1,17,-1,-1,-1,-1,-1,-1],"loss_changes":[1.206159E0,2.1628306E0,1.1333635E0,1.7038318E0,9.500551E-2,6.0804254E-1,3.240267E-1,0E0,0E0,2.5836778E-1,0E0,0E0,7.163464E-1,0E0,0E0,0E0,0E0,0E0,0E0],"parents":[2147483647,0,0,1,1,2,2,3,3,4,4,5,5,6,6,9,9,12,12],"right_children":[2,4,6,8,10,12,14,-1,-1,16,-1,-1,18,-1,-1,-1,-1,-1,-1],"split_conditions":[-1.25E-1,6.7200415E-2,3E0,-2.3836565E-1,-2.5E-1,-7.905694E-1,9.166667E-1,1.3229899E-2,-4.3841522E-2,3.3687222E-1,8.589487E-3,-1.7417965E-2,5.7522374E-1,-4.265401E-2,-9.606145E-3,8.059194E-3,4.6678085E-2,3.0535493E-2,-1.1150399E-2],"split_indices":[0,3,2,3,0,3,0,0,0,3,0,0,3,0,0,0,0,0,0],"split_type":[0,0,0,0,0,0,0,0,0,0,0,0,0,0,0,0,0,0,0],"sum_hessian":[1.5287886E1,7.441627E0,7.8462586E0,3.5187688E0,3.9228582E0,3.8899858E0,3.9562728E0,2.0233614E0,1.4954073E0,2.8385203E0,1.084338E0,1.2352889E0,2.654697E0,1.9656831E0,1.9905899E0,1.101824E0,1.7366962E0,1.6322445E0,1.0224526E0],"tree_param":{"num_deleted":"0","num_feature":"4","num_nodes":"19","size_leaf_vector":"1"}},{"base_weights":[-6.750153E-2,3.044202E-2,-2.3789008E-1,1.8822333E-1,-6.7163724E-1,-2.3862211E-2,5.059221E-1,-5.0472606E-2,4.113902E-3,-1.6163032E-3,3.50805E-2],"categories":[],"categories_nodes":[],"categories_segments":[],"categories_sizes":[],"default_left":[0,0,0,0,0,0,0,0,0,0,0],"id":21,"left_children":[1,-1,3,5,7,-1,9,-1,-1,-1,-1],"loss_changes":[1.8039676E0,0E0,2.3847952E0,1.709711E0,1.6809788E0,0E0,5.6892526E-1,0E0,0E0,0E0,0E0],"parents":[2147483647,0,0,2,2,3,3,4,4,6,6],"right_children":[2,-1,4,6,8,-1,10,-1,-1,-1,-1],"split_conditions":[-1.2E0,3.044202E-2,3E0,2E0,3E0,-2.3862211E-2,-2.5E-1,-5.0472606E-2,4.113902E-3,-1.6163032E-3,3.50805E-2],"split_indices":[0,0,2,2,1,0,0,0,0,0,0],"split_type":[0,0,0,0,0,0,0,0,0,0,0],"sum_hessian":[1.339706E1,2.1780887E0,1.1218972E1,5.944825E0,5.274147E0,1.7587239E0,4.1861014E0,3.4080977E0,1.8660492E0,1.3387151E0,2.8473864E0],"tree_param":{"num_deleted":"0","num_feature":"4","num_nodes":"11","size_leaf_vector":"1"}},{"base_weights":[-1.8600237E-1,4.5182356E-1,-4.4193882E-1,-8.60593E-3,5.0343126E-2,-5.7837826E-1,-8.1687346E-2,-5.8628446E-3,-6.9398975E-1,-3.8366057E-2,2.5030259E-2,-4.4413254E-2,-1.1857197E-2],"categories":[],"categories_nodes":[],"categories_segments":[],"categories_sizes":[],"default_left":[0,0,0,0,0,0,0,0,0,0,0,0,0],"id":22,"left_children":[1,3,5,-1,-1,7,9,-1,11,-1,-1,-1,-1],"loss_changes":[2.3961968E0,1.6789176E0,4.4958484E-1,0E0,0E0,3.006971E-1,1.9575611E0,0E0,2.79886E-1,0E0,0E0,0E0,0E0],"parents":[2147483647,0,0,1,1,2,2,5,5,6,6,8,8],"right_children":[2,4,6,-1,-1,8,10,-1,12,-1,-1,-1,-1],"split_conditions":[-5.833333E-1,-1.8333334E0,3E0,-8.60593E-3,5.0343126E-2,-3.3333334E-1,-3.619614E-1,-5.8628446E-3,5.3977793E-1,-3.8366057E-2,2.5030259E-2,-4.4413254E-2,-1.1857197E-2],"split_indices":[0,0,1,0,0,0,3,0,3,0,0,0,0],"split_type":[0,0,0,0,0,0,0,0,0,0,0,0,0],"sum_hessian":[1.2455521E1,3.3475728E0,9.107948E0,1.9007546E0,1.4468182E0,6.166863E0,2.941085E0,1.6399769E0,4.526886E0,1.2047571E0,1.7363279E0,2.5136178E0,2.0132682E0],"tree_param":{"num_deleted":"0","num_feature":"4","num_nodes":"13","size_leaf_vector":"1"}},{"base_weights":[1.0811418E-1,3.9244983E-1,-3.1689477E-1,-1.5794147E-2,5.534749E-1,-6.5122485E-1,9.128842E-2,7.4539196E-1,1.05255865E-1,-8.3778715E-3,-3.8803574E-2,1.18789105E-2,-3.0439987E-3,1.9386463E-2,5.411456E-2,9.938579E-3,-9.7492395E-4],"categories":[],"categories_nodes":[],"categories_segments":[],"categories_sizes":[],"default_left":[0,0,0,0,0,0,0,0,0,0,0,0,0,0,0,0,0],"id":23,"left_children":[1,3,5,-1,7,9,11,13,15,-1,-1,-1,-1,-1,-1,-1,-1],"loss_changes":[1.8374329E0,1.1945498E0,9.1039383E-1,0E0,5.7940006E-1,8.437562E-2,9.648765E-2,2.0578861E-1,4.4209626E-2,0E0,0E0,0E0,0E0,0E0,0E0,0E0,0E0],"parents":[2147483647,0,0,1,1,2,2,4,4,5,5,6,6,7,7,8,8],"right_children":[2,4,6,-1,8,10,12,14,16,-1,-1,-1,-1,-1,-1,-1,-1],"split_conditions":[5E-2,-8.5933787E-1,9.166667E-1,-1.5794147E-2,-2.5E-1,5E-1,2.9768103E-1,-5.714286E-1,-1.6574839E-1,-8.3778715E-3,-3.8803574E-2,1.18789105E-2,-3.0439987E-3,1.9386463E-2,5.411456E-2,9.938579E-3,-9.7492395E-4],"split_indices":[0,3,0,0,0,0,3,0,3,0,0,0,0,0,0,0,0],"split_type":[0,0,0,0,0,0,0,0,0,0,0,0,0,0,0,0,0],"sum_hessian":[1.317572E1,7.9402285E0,5.2354918E0,1.2925841E0,6.647644E0,2.5507934E0,2.6846983E0,4.1904025E0,2.457242E0,1.0038587E0,1.5469347E0,1.0826187E0,1.6020796E0,3.0758553E0,1.114547E0,1.0653517E0,1.3918903E0],"tree_param":{"num_deleted":"0","num_feature":"4","num_nodes":"17","size_leaf_vector":"1"}},{"base_weights":[4.120064E-2,-3.880742E-2,1.757233E-1,3.71418E-1,-1.5249495E-1,1.6938585E-1,4.9824983E-2,-2.4254186E-2,8.790129E-2,1.8006148E-2,-2.2385523E-2,3.8345624E-2,-1.6513508E-2],"categories":[],"categories_nodes":[],"categories_segments":[],"categories_sizes":[],"default_left":[0,0,0,0,0,0,0,0,0,0,0,0,0],"id":24,"left_children":[1,-1,3,5,7,9,-1,-1,11,-1,-1,-1,-1],"loss_changes":[1.9411612E0,0E0,1.0143087E0,1.0475647E0,5.445963E-1,1.1598074E0,0E0,0E0,1.5284011E0,0E0,0E0,0E0,0E0],"parents":[2147483647,0,0,2,2,3,3,4,4,5,5,8,8],"right_children":[2,-1,4,6,8,10,-1,-1,12,-1,-1,-1,-1],"split_conditions":[2E0,-3.880742E-2,5E-2,0E0,6.4285713E-1,-2.5E-1,4.9824983E-2,-2.4254186E-2,3E0,1.8006148E-2,-2.2385523E-2,3.8345624E-2,-1.6513508E-2],"split_indices":[2,0,0,0,0,0,0,0,2,0,0,0,0],"split_type":[0,0,0,0,0,0,0,0,0,0,0,0,0],"sum_hessian":[1.5414202E1,1.5043348E0,1.3909866E1,8.631724E0,5.278142E0,7.4838552E0,1.1478691E0,1.7874082E0,3.4907339E0,6.0349483E0,1.448907E0,1.012579E0,2.478155E0],"tree_param":{"num_deleted":"0","num_feature":"4","num_nodes":"13","size_leaf_vector":"1"}},{"base_weights":[6.7630084E-3,3.1161228E-1,-1.3747592E-1,-1.2424195E-2,6.775543E-1,3.6728543E-1,-3.2104114E-1,-9.364251E-3,5.7020515E-2,3.180677E-2,-3.6106824E-3,-4.200253E-2,-8.262773E-2,2.533972E-2,-1.860642E-2],"categories":[],"categories_nodes":[],"categories_segments":[],"categories_sizes":[],"default_left":[0,0,0,0,0,0,0,0,0,0,0,0,0,0,0],"id":25,"left_children":[1,3,5,-1,7,9,11,-1,-1,-1,-1,-1,13,-1,-1],"loss_changes":[7.2067446E-1,1.2459095E0,1.1517924E0,0E0,1.5938418E0,4.5265463E-1,1.009104E0,0E0,0E0,0E0,0E0,0E0,1.3969847E0,0E0,0E0],"parents":[2147483647,0,0,1,1,2,2,4,4,5,5,6,6,12,12],"right_children":[2,4,6,-1,8,10,12,-1,-1,-1,-1,-1,14,-1,-1],"split_conditions":[-2.8635132E-1,3E0,-1.2E0,-1.2424195E-2,2E0,3E0,-8.0940485E-2,-9.364251E-3,5.7020515E-2,3.180677E-2,-3.6106824E-3,-4.200253E-2,2.5915435E-1,2.533972E-2,-1.860642E-2],"split_indices":[3,1,0,0,2,1,3,0,0,0,0,0,3,0,0],"split_type":[0,0,0,0,0,0,0,0,0,0,0,0,0,0,0],"sum_hessian":[1.4415461E1,4.257287E0,1.0158174E1,1.8091892E0,2.4480975E0,2.442107E0,7.716067E0,1.061002E0,1.3870956E0,1.2376208E0,1.2044861E0,1.6344591E0,6.081608E0,1.7559401E0,4.3256674E0],"tree_param":{"num_deleted":"0","num_feature":"4","num_nodes":"15","size_leaf_vector":"1"}},{"base_weights":[1.431291E-1,4.6602663E-1,-9.070741E-3,8.788077E-2,4.9765404E-2,-2.913192E-2,1.5353072E-1,2.0072203E-2,-1.8934242E-2,2.9833543E-1,-2.56818E-1,-1.5772287E-3,2.6791418E-2,-3.3940755E-2,1.6400171E-2],"categories":[],"categories_nodes":[],"categories_segments":[],"categories_sizes":[],"default_left":[0,0,0,0,0,0,0,0,0,0,0,0,0,0,0],"id":26,"left_children":[1,3,5,7,-1,-1,9,-1,-1,11,13,-1,-1,-1,-1],"loss_changes":[8.103912E-1,9.681262E-1,1.2207012E0,7.625401E-1,0E0,0E0,6.852003E-1,0E0,0E0,6.462482E-1,1.0145829E0,0E0,0E0,0E0,0E0],"parents":[2147483647,0,0,1,1,2,2,3,3,6,6,9,9,10,10],"right_children":[2,4,6,8,-1,-1,10,-1,-1,12,14,-1,-1,-1,-1],"split_conditions":[-2.3836565E-1,-3.619614E-1,-1.4079697E-1,-7.476672E-1,4.9765404E-2,-2.913192E-2,6.666667E-1,2.0072203E-2,-1.8934242E-2,-3.9285713E-1,9.9837774E-1,-1.5772287E-3,2.6791418E-2,-3.3940755E-2,1.6400171E-2],"split_indices":[3,3,3,3,0,0,0,0,0,0,3,0,0,0,0],"split_type":[0,0,0,0,0,0,0,0,0,0,0,0,0,0,0],"sum_hessian":[1.54038E1,4.2741323E0,1.1129667E1,3.173126E0,1.1010064E0,1.8876958E0,9.241972E0,1.9812021E0,1.1919237E0,7.0330906E0,2.208881E0,3.3069215E0,3.7261693E0,1.1896954E0,1.0191857E0],"tree_param":{"num_deleted":"0","num_feature":"4","num_nodes":"15","size_leaf_vector":"1"}},{"base_weights":[-6.861059E-2,-3.6015868E-1,4.7699336E-2,1.1546656E-2,-3.2278713E-2,2.8782237E-2,-1.4399928E-1,1.3235511E-1,-4.2937925E-1,-1.1970281E-2,3.0959124E-2,-3.4446046E-2,1.0404309E-2],"categories":[],"categories_nodes":[],"categories_segments":[],"categories_sizes":[],"default_left":[0,0,0,0,0,0,0,0,0,0,0,0,0],"id":27,"left_children":[1,3,5,-1,-1,-1,7,9,11,-1,-1,-1,-1],"loss_changes":[5.0837994E-1,8.6571777E-1,1.2202138E0,0E0,0E0,0E0,7.7009976E-1,1.1181378E0,9.184816E-1,0E0,0E0,0E0,0E0],"parents":[2147483647,0,0,1,1,2,2,6,6,7,7,8,8],"right_children":[2,4,6,-1,-1,-1,8,10,12,-1,-1,-1,-1],"split_conditions":[-3.619614E-1,-1.228683E0,-5.833333E-1,1.1546656E-2,-3.2278713E-2,2.8782237E-2,2.6880166E-1,6.7200415E-2,2E0,-1.1970281E-2,3.0959124E-2,-3.4446046E-2,1.0404309E-2],"split_indices":[3,3,0,0,0,0,3,3,0,0,0,0,0],"split_type":[0,0,0,0,0,0,0,0,0,0,0,0,0],"sum_hessian":[1.3485445E1,3.2478027E0,1.0237642E1,1.119735E0,2.1280677E0,2.1935785E0,8.044064E0,4.3590703E0,3.6849935E0,2.759806E0,1.5992645E0,2.5614073E0,1.1235862E0],"tree_param":{"num_deleted":"0","num_feature":"4","num_nodes":"13","size_leaf_vector":"1"}},{"base_weights":[9.667692E-2,3.1049243E-1,-2.8867123E-1,1.4236611E-1,4.5221716E-2,-4.4758052E-1,1.1435463E-2,-1.0161853E-1,4.4145802E-1,-5.911294E-1,-2.9529233E-3,1.2962873E-2,-2.3167066E-2,3.8295083E-2,-4.449935E-3,-8.383918E-3,-3.5669062E-2],"categories":[],"categories_nodes":[],"categories_segments":[],"categories_sizes":[],"default_left":[0,0,0,0,0,0,0,0,0,0,0,0,0,0,0,0,0],"id":28,"left_children":[1,3,5,7,-1,9,-1,11,13,15,-1,-1,-1,-1,-1,-1,-1],"loss_changes":[1.3864816E0,9.301959E-1,6.0676783E-1,7.346036E-1,0E0,2.4571407E-1,0E0,9.057492E-1,8.311885E-1,6.483781E-2,0E0,0E0,0E0,0E0,0E0,0E0,0E0],"parents":[2147483647,0,0,1,1,2,2,3,3,5,5,7,7,8,8,9,9],"right_children":[2,4,6,8,-1,10,-1,12,14,16,-1,-1,-1,-1,-1,-1,-1],"split_conditions":[5E-2,4E0,1.7857143E0,-3.9285713E-1,4.5221716E-2,3E0,1.1435463E-2,-1.2E0,3E0,6.666667E-1,-2.9529233E-3,1.2962873E-2,-2.3167066E-2,3.8295083E-2,-4.449935E-3,-8.383918E-3,-3.5669062E-2],"split_indices":[0,1,0,0,0,1,0,0,2,0,0,0,0,0,0,0,0],"split_type":[0,0,0,0,0,0,0,0,0,0,0,0,0,0,0,0,0],"sum_hessian":[1.4739746E1,9.604704E0,5.135042E0,8.451926E0,1.1527779E0,4.03166E0,1.103382E0,5.0184016E0,3.4335246E0,2.5631573E0,1.4685028E0,2.6539423E0,2.364459E0,1.8550599E0,1.5784647E0,1.1055114E0,1.4576458E0],"tree_param":{"num_deleted":"0","num_feature":"4","num_nodes":"17","size_leaf_vector":"1"}},{"base_weights":[-7.5922735E-2,-3.0335668E-1,4.147403E-1,-1.36063E-1,-4.0351328E-2,3.5243127E-2,1.8709369E-2,-3.3779475E-1,2.3393326E-2,-1.0561572E-2,1.1870371E-2,-2.2499107E-2,5.906134E-3],"categories":[],"categories_nodes":[],"categories_segments":[],"categories_sizes":[],"default_left":[0,0,0,0,0,0,0,0,0,0,0,0,0],"id":29,"left_children":[1,3,5,7,-1,-1,9,11,-1,-1,-1,-1,-1],"loss_changes":[1.7830484E0,7.9386836E-1,5.757656E-1,1.2854117E0,0E0,0E0,2.1079792E-1,4.3764448E-1,0E0,0E0,0E0,0E0,0E0],"parents":[2147483647,0,0,1,1,2,2,3,3,6,6,7,7],"right_children":[2,4,6,8,-1,-1,10,12,-1,-1,-1,-1,-1],"split_conditions":[5.3977793E-1,2.6880166E-1,-1.6666667E-1,8.084521E-2,-4.0351328E-2,3.5243127E-2,1.45E0,4E-1,2.3393326E-2,-1.0561572E-2,1.1870371E-2,-2.2499107E-2,5.906134E-3],"split_indices":[3,3,0,3,0,0,0,0,0,0,0,0,0],"split_type":[0,0,0,0,0,0,0,0,0,0,0,0,0],"sum_hessian":[1.3850644E1,9.724738E0,4.1259055E0,8.2534895E0,1.4712491E0,1.931281E0,2.1946244E0,6.517206E0,1.7362833E0,1.0864567E0,1.1081678E0,5.2406583E0,1.276548E0],"tree_param":{"num_deleted":"0","num_feature":"4","num_nodes":"13","size_leaf_vector":"1"}},{"base_weights":[-4.7124185E-2,1.8740514E-1,-4.2256412E-1,-3.4782764E-2,3.818919E-1,-4.315832E-2,6.2061217E-2,8.4054804E-1,-5.4307982E-2,-6.172826E-3,1.4294575E-2,1.144548E-2,5.324588E-2,2.5965232E-2,-2.3581337E-2],"categories":[],"categories_nodes":[],"categories_segments":[],"categories_sizes":[],"default_left":[0,0,0,0,0,0,0,0,0,0,0,0,0,0,0],"id":30,"left_children":[1,3,5,-1,7,-1,9,11,13,-1,-1,-1,-1,-1,-1],"loss_changes":[1.3637626E0,1.9268179E0,1.3169134E0,0E0,1.7606372E0,0E0,1.910304E-1,3.3798742E-1,1.5215113E0,0E0,0E0,0E0,0E0,0E0,0E0],"parents":[2147483647,0,0,1,1,2,2,4,4,6,6,7,7,8,8],"right_children":[2,4,6,-1,8,-1,10,12,14,-1,-1,-1,-1,-1,-1],"split_conditions":[5E-2,-8.5933787E-1,8.9285713E-1,-3.4782764E-2,3E0,-4.315832E-2,1.25E0,-5.714286E-1,-7.5E-1,-6.172826E-3,1.4294575E-2,1.144548E-2,5.324588E-2,2.5965232E-2,-2.3581337E-2],"split_indices":[0,3,0,0,2,0,3,0,0,0,0,0,0,0,0],"split_type":[0,0,0,0,0,0,0,0,0,0,0,0,0,0,0],"sum_hessian":[1.35888405E1,8.672287E0,4.916554E0,1.100162E0,7.5721245E0,2.166111E0,2.750443E0,3.2391934E0,4.332931E0,1.7491381E0,1.0013049E0,1.411536E0,1.8276575E0,1.7218423E0,2.6110888E0],"tree_param":{"num_deleted":"0","num_feature":"4","num_nodes":"15","size_leaf_vector":"1"}},{"base_weights":[-3.5034046E-2,1.1598166E-1,-3.0747762E-2,1.2124915E-2,3.1647827E-2,-3.648361E-1,1.9558783E-1,5.2909018E-5,-3.6729123E-2,1.9680908E-2,-7.8677153E-4],"categories":[],"categories_nodes":[],"categories_segments":[],"categories_sizes":[],"default_left":[0,0,0,0,0,0,0,0,0,0,0],"id":31,"left_children":[1,3,-1,5,-1,7,9,-1,-1,-1,-1],"loss_changes":[1.4240276E0,6.9546556E-1,0E0,8.9605176E-1,0E0,5.7612103E-1,3.6910284E-1,0E0,0E0,0E0,0E0],"parents":[2147483647,0,0,1,1,3,3,5,5,6,6],"right_children":[2,4,-1,6,-1,8,10,-1,-1,-1,-1],"split_conditions":[1.1666666E0,6.4285713E-1,-3.0747762E-2,-3.619614E-1,3.1647827E-2,-7.476672E-1,-3.3333334E-1,5.2909018E-5,-3.6729123E-2,1.9680908E-2,-7.8677153E-4],"split_indices":[0,0,0,3,0,3,0,0,0,0,0],"split_type":[0,0,0,0,0,0,0,0,0,0,0],"sum_hessian":[1.4445845E1,1.209597E1,2.3498743E0,1.0924722E1,1.1712487E0,3.2527306E0,7.671991E0,2.1360614E0,1.1166692E0,3.5152378E0,4.156753E0],"tree_param":{"num_deleted":"0","num_feature":"4","num_nodes":"11","size_leaf_vector":"1"}},{"base_weights":[-9.775944E-2,-3.5137314E-2,5.4479716E-3,-2.0468439E-1,3.8756266E-1,6.0892105E-2,-5.304713E-1,3.679122E-4,6.054972E-1,-1.3451934E-2,3.2970276E-2,-3.7454758E-2,-6.980065E-3,3.9224844E-2,5.453863E-3],"categories":[],"categories_nodes":[],"categories_segments":[],"categories_sizes":[],"default_left":[0,0,0,0,0,0,0,0,0,0,0,0,0,0,0],"id":32,"left_children":[1,-1,3,5,7,9,11,-1,13,-1,-1,-1,-1,-1,-1],"loss_changes":[9.637683E-1,0E0,1.2135555E0,8.7746763E-1,4.39467E-1,1.4172015E0,2.7909708E-1,0E0,2.1594405E-1,0E0,0E0,0E0,0E0,0E0,0E0],"parents":[2147483647,0,0,2,2,3,3,4,4,5,5,6,6,8,8],"right_children":[2,-1,4,6,8,10,12,-1,14,-1,-1,-1,-1,-1,-1],"split_conditions":[2E0,-3.5137314E-2,3E0,-1.25E-1,-1.4079697E-1,-3.9285713E-1,5.3977793E-1,3.679122E-4,9.092412E-2,-1.3451934E-2,3.2970276E-2,-3.7454758E-2,-6.980065E-3,3.9224844E-2,5.453863E-3],"split_indices":[2,0,1,0,3,0,3,0,3,0,0,0,0,0,0],"split_type":[0,0,0,0,0,0,0,0,0,0,0,0,0,0,0],"sum_hessian":[1.4374011E1,1.2481966E0,1.3125814E1,8.768295E0,4.3575196E0,5.2784643E0,3.4898307E0,1.9643377E0,2.393182E0,3.7575834E0,1.520881E0,1.6502959E0,1.8395349E0,1.3324254E0,1.0607567E0],"tree_param":{"num_deleted":"0","num_feature":"4","num_nodes":"15","size_leaf_vector":"1"}},{"base_weights":[-2.6383802E-1,-4.737682E-1,1.7126918E-1,-5.783218E-1,5.8433055E-3,3.2271404E-2,-1.5291383E-2,-7.352778E-1,-6.99843E-4,-1.0430581E-2,-4.3096624E-2],"categories":[],"categories_nodes":[],"categories_segments":[],"categories_sizes":[],"default_left":[0,0,0,0,0,0,0,0,0,0,0],"id":33,"left_children":[1,3,5,7,-1,-1,-1,9,-1,-1,-1],"loss_changes":[1.3337563E0,6.552186E-1,1.3731842E0,7.20695E-1,0E0,0E0,0E0,2.4960518E-1,0E0,0E0,0E0],"parents":[2147483647,0,0,1,1,2,2,3,3,7,7],"right_children":[2,4,6,8,-1,-1,-1,10,-1,-1,-1],"split_conditions":[4.7034863E-1,9.166667E-1,-1.6666667E-1,8.084521E-2,5.8433055E-3,3.2271404E-2,-1.5291383E-2,-5.833333E-1,-6.99843E-4,-1.0430581E-2,-4.3096624E-2],"split_indices":[3,0,0,3,0,0,0,0,0,0,0],"split_type":[0,0,0,0,0,0,0,0,0,0,0],"sum_hessian":[1.2713437E1,8.515859E0,4.197579E0,7.252817E0,1.2630414E0,1.9283147E0,2.2692642E0,5.437538E0,1.8152788E0,1.5673093E0,3.870229E0],"tree_param":{"num_deleted":"0","num_feature":"4","num_nodes":"11","size_leaf_vector":"1"}},{"base_weights":[1.4011632E-1,5.152434E-1,-4.8064083E-2,1.5312113E-1,4.836246E-2,2.2287985E-2,-2.2098668E-1,-1.5733413E-2,2.1392373E-2,-3.759871E-2,-5.2558307E-2,2.3794066E-2,-1.4226024E-2],"categories":[],"categories_nodes":[],"categories_segments":[],"categories_sizes":[],"default_left":[0,0,0,0,0,0,0,0,0,0,0,0,0],"id":34,"left_children":[1,3,5,7,-1,-1,9,-1,-1,-1,11,-1,-1],"loss_changes":[1.0951958E0,6.950115E-1,1.0389225E0,6.5484333E-1,0E0,0E0,7.497382E-1,0E0,0E0,0E0,1.0884502E0,0E0,0E0],"parents":[2147483647,0,0,1,1,2,2,3,3,6,6,10,10],"right_children":[2,4,6,8,-1,-1,10,-1,-1,-1,12,-1,-1],"split_conditions":[-2.3836565E-1,-3.619614E-1,-1.2E0,-6.5E-1,4.836246E-2,2.2287985E-2,-3.9285713E-1,-1.5733413E-2,2.1392373E-2,-3.759871E-2,-1.25E-1,2.3794066E-2,-1.4226024E-2],"split_indices":[3,3,0,0,0,0,0,0,0,0,0,0,0],"split_type":[0,0,0,0,0,0,0,0,0,0,0,0,0],"sum_hessian":[1.4163726E1,4.15097E0,1.0012756E1,3.0479102E0,1.1030596E0,2.1876304E0,7.8251257E0,1.0739155E0,1.9739946E0,1.0500584E0,6.7750673E0,1.7459719E0,5.0290956E0],"tree_param":{"num_deleted":"0","num_feature":"4","num_nodes":"13","size_leaf_vector":"1"}},{"base_weights":[1.860727E-2,3.4302408E-1,-1.4779279E-1,-7.621036E-3,4.69256E-2,-3.7253466E-2,-7.0265826E-4,-1.7631924E-2,1.2546876E-2,2.5907567E-2,-1.6726659E-1,-3.407104E-2,6.5731257E-3],"categories":[],"categories_nodes":[],"categories_segments":[],"categories_sizes":[],"default_left":[0,0,0,0,0,0,0,0,0,0,0,0,0],"id":35,"left_children":[1,3,5,7,-1,-1,9,-1,-1,-1,11,-1,-1],"loss_changes":[9.0601516E-1,1.1916473E0,9.8093134E-1,4.9548155E-1,0E0,0E0,9.478598E-1,0E0,0E0,0E0,1.3642926E0,0E0,0E0],"parents":[2147483647,0,0,1,1,2,2,3,3,6,6,10,10],"right_children":[2,4,6,8,-1,-1,10,-1,-1,-1,12,-1,-1],"split_conditions":[-2.3836565E-1,-3.619614E-1,-1.4079697E-1,3E0,4.69256E-2,-3.7253466E-2,1.06154956E-1,-1.7631924E-2,1.2546876E-2,2.5907567E-2,4.7034863E-1,-3.407104E-2,6.5731257E-3],"split_indices":[3,3,3,1,0,0,3,0,0,0,3,0,0],"split_type":[0,0,0,0,0,0,0,0,0,0,0,0,0],"sum_hessian":[1.484423E1,4.6727343E0,1.0171495E1,3.5623147E0,1.1104194E0,1.2065928E0,8.964903E0,1.3701457E0,2.192169E0,1.6656146E0,7.2992883E0,2.2116559E0,5.0876327E0],"tree_param":{"num_deleted":"0","num_feature":"4","num_nodes":"13","size_leaf_vector":"1"}},{"base_weights":[-1.01124376E-1,-7.0028245E-1,8.107918E-2,-1.0115876E-2,-4.1431434E-2,2.9693598E-1,-3.0367477E-2,4.189587E-2,1.3391218E-1,-7.742224E-3,1.5781557E-2],"categories":[],"categories_nodes":[],"categories_segments":[],"categories_sizes":[],"default_left":[0,0,0,0,0,0,0,0,0,0,0],"id":36,"left_children":[1,3,5,-1,-1,7,-1,-1,9,-1,-1],"loss_changes":[1.7175208E0,6.570625E-2,2.0470028E0,0E0,0E0,7.904134E-1,0E0,0E0,5.240047E-1,0E0,0E0],"parents":[2147483647,0,0,1,1,2,2,5,5,8,8],"right_children":[2,4,6,-1,-1,8,-1,-1,10,-1,-1],"split_conditions":[-3.619614E-1,-1.0699812E0,9.6428573E-1,-1.0115876E-2,-4.1431434E-2,-2.354022E-1,-3.0367477E-2,4.189587E-2,8.084521E-2,-7.742224E-3,1.5781557E-2],"split_indices":[3,3,0,0,0,3,0,0,3,0,0],"split_type":[0,0,0,0,0,0,0,0,0,0,0],"sum_hessian":[1.421262E1,2.6511552E0,1.1561464E1,1.0712397E0,1.5799154E0,9.234624E0,2.3268404E0,1.179778E0,8.054846E0,3.1682677E0,4.8865786E0],"tree_param":{"num_deleted":"0","num_feature":"4","num_nodes":"11","size_leaf_vector":"1"}},{"base_weights":[-9.515688E-2,-3.852232E-1,4.1393597E-2,1.15268804E-1,-4.3912645E-2,2.8307918E-2,-1.3643591E-1,-9.676985E-3,1.8067623E-2,2.5648263E-1,-3.447666E-1,2.2156654E-2,-1.3920668E-3,-2.488192E-2,9.623533E-3],"categories":[],"categories_nodes":[],"categories_segments":[],"categories_sizes":[],"default_left":[0,0,0,0,0,0,0,0,0,0,0,0,0,0,0],"id":37,"left_children":[1,3,5,7,-1,-1,9,-1,-1,11,13,-1,-1,-1,-1],"loss_changes":[6.191078E-1,1.3279097E0,1.127718E0,3.2457992E-1,0E0,0E0,8.426161E-1,0E0,0E0,2.1218865E-1,6.253153E-1,0E0,0E0,0E0,0E0],"parents":[2147483647,0,0,1,1,2,2,3,3,6,6,9,9,10,10],"right_children":[2,4,6,8,-1,-1,10,-1,-1,12,14,-1,-1,-1,-1],"split_conditions":[-3.9285713E-1,-1.2E0,-1.25E-1,-2.5357144E0,-4.3912645E-2,2.8307918E-2,-2.8635132E-1,-9.676985E-3,1.8067623E-2,5E-2,2E0,2.2156654E-2,-1.3920668E-3,-2.488192E-2,9.623533E-3],"split_indices":[0,0,0,0,0,0,3,0,0,0,0,0,0,0,0],"split_type":[0,0,0,0,0,0,0,0,0,0,0,0,0,0,0],"sum_hessian":[1.4228021E1,3.9711757E0,1.02568445E1,2.350898E0,1.6202775E0,2.0433428E0,8.213502E0,1.1372688E0,1.2136292E0,2.765862E0,5.44764E0,1.3325391E0,1.433323E0,4.2982683E0,1.1493716E0],"tree_param":{"num_deleted":"0","num_feature":"4","num_nodes":"15","size_leaf_vector":"1"}},{"base_weights":[7.092823E-2,-1.4835493E-1,5.504319E-1,3.906949E-2,-5.2617586E-1,5.6239605E-2,-3.891376E-2,-3.7515587E-1,2.840057E-1,1.2788263E-3,-4.0226024E-2,-1.5529603E-2,1.4851071E-2,-3.7494753E-2,1.0329107E-2,2.2007689E-2,-9.3810465E-3],"categories":[],"categories_nodes":[],"categories_segments":[],"categories_sizes":[],"default_left":[0,0,0,0,0,0,0,0,0,0,0,0,0,0,0,0,0],"id":38,"left_children":[1,3,5,7,9,-1,11,13,15,-1,-1,-1,-1,-1,-1,-1,-1],"loss_changes":[1.6151357E0,7.8499866E-1,1.6647891E0,9.3309283E-1,5.8092034E-1,0E0,3.9618433E-1,9.087682E-1,5.0150955E-1,0E0,0E0,0E0,0E0,0E0,0E0,0E0,0E0],"parents":[2147483647,0,0,1,1,2,2,3,3,4,4,6,6,7,7,8,8],"right_children":[2,4,6,8,10,-1,12,14,16,-1,-1,-1,-1,-1,-1,-1,-1],"split_conditions":[5.3977793E-1,1.06154956E-1,-1.6666667E-1,-3.8837868E-1,3E0,5.6239605E-2,1.25E0,3E0,5E-2,1.2788263E-3,-4.0226024E-2,-1.5529603E-2,1.4851071E-2,-3.7494753E-2,1.0329107E-2,2.2007689E-2,-9.3810465E-3],"split_indices":[3,3,0,3,2,0,3,1,0,0,0,0,0,0,0,0,0],"split_type":[0,0,0,0,0,0,0,0,0,0,0,0,0,0,0,0,0],"sum_hessian":[1.3584107E1,9.795231E0,3.7888768E0,7.1466217E0,2.648609E0,1.458712E0,2.330165E0,2.4580421E0,4.6885796E0,1.1926248E0,1.4559842E0,1.3300027E0,1.0001622E0,1.3191944E0,1.1388476E0,3.5725107E0,1.1160688E0],"tree_param":{"num_deleted":"0","num_feature":"4","num_nodes":"17","size_leaf_vector":"1"}},{"base_weights":[1.3431776E-1,3.5725463E-2,-2.1450784E-2,-2.2010555E-2,9.723335E-2,4.4804376E-1,-1.9427872E-1,3.3316713E-2,4.137039E-3,2.4053965E-2,-2.685145E-2],"categories":[],"categories_nodes":[],"categories_segments":[],"categories_sizes":[],"default_left":[0,0,0,0,0,0,0,0,0,0,0],"id":39,"left_children":[1,-1,3,-1,5,7,9,-1,-1,-1,-1],"loss_changes":[1.2287741E0,0E0,6.1712664E-1,0E0,1.0915965E0,3.2448202E-1,1.6616837E0,0E0,0E0,0E0,0E0],"parents":[2147483647,0,0,2,2,4,4,5,5,6,6],"right_children":[2,-1,4,-1,6,8,10,-1,-1,-1,-1],"split_conditions":[-1.6666666E0,3.5725463E-2,2E0,-2.2010555E-2,3E0,5E-2,-1.6666667E-1,3.3316713E-2,4.137039E-3,2.4053965E-2,-2.685145E-2],"split_indices":[0,0,2,0,2,0,0,0,0,0,0],"split_type":[0,0,0,0,0,0,0,0,0,0,0],"sum_hessian":[1.2426717E1,1.8709587E0,1.0555758E1,1.732782E0,8.822976E0,3.760529E0,5.062447E0,1.8380965E0,1.9224325E0,1.5684247E0,3.4940224E0],"tree_param":{"num_deleted":"0","num_feature":"4","num_nodes":"11","size_leaf_vector":"1"}},{"base_weights":[1.9532166E-2,-8.6219385E-2,3.4489177E-2,7.589479E-2,-4.2166638E-1,-2.806122E-1,4.3507123E-1,-1.8024687E-1,-3.249979E-2,2.7024066E-3,-2.2150507E-2,-9.376054E-4,3.511563E-2,-2.3105646E-2,1.16012795E-2],"categories":[],"categories_nodes":[],"categories_segments":[],"categories_sizes":[],"default_left":[0,0,0,0,0,0,0,0,0,0,0,0,0,0,0],"id":40,"left_children":[1,3,-1,5,7,9,11,13,-1,-1,-1,-1,-1,-1,-1],"loss_changes":[1.1953288E0,8.3303446E-1,0E0,1.5022264E0,1.5580207E-1,3.509634E-1,7.118782E-1,5.477156E-1,0E0,0E0,0E0,0E0,0E0,0E0,0E0],"parents":[2147483647,0,0,1,1,3,3,4,4,5,5,6,6,7,7],"right_children":[2,4,-1,6,8,10,12,14,-1,-1,-1,-1,-1,-1,-1],"split_conditions":[1.1237237E0,5E-2,3.4489177E-2,-3.9285713E-1,9.6428573E-1,-3.478266E-1,-8.0940485E-2,-1.58069E-1,-3.249979E-2,2.7024066E-3,-2.2150507E-2,-9.376054E-4,3.511563E-2,-2.3105646E-2,1.16012795E-2],"split_indices":[3,0,0,0,0,3,3,3,0,0,0,0,0,0,0],"split_type":[0,0,0,0,0,0,0,0,0,0,0,0,0,0,0],"sum_hessian":[1.5025033E1,1.3730078E1,1.2949547E0,9.778226E0,3.9518518E0,5.017124E0,4.7611017E0,2.7906404E0,1.1612115E0,1.8571676E0,3.1599567E0,2.1091764E0,2.6519256E0,1.5856543E0,1.2049861E0],"tree_param":{"num_deleted":"0","num_feature":"4","num_nodes":"15","size_leaf_vector":"1"}},{"base_weights":[5.714802E-2,-2.1534264E-2,1.5122977E-1,4.58216E-2,3.106746E-2,-4.132055E-2,1.7770559E-2,7.997449E-3,-1.7486697E-2],"categories":[],"categories_nodes":[],"categories_segments":[],"categories_sizes":[],"default_left":[0,0,0,0,0,0,0,0,0],"id":41,"left_children":[1,-1,3,5,-1,7,-1,-1,-1],"loss_changes":[7.6073986E-1,0E0,6.3782954E-1,3.401207E-1,0E0,6.9586796E-1,0E0,0E0,0E0],"parents":[2147483647,0,0,2,2,3,3,5,5],"right_children":[2,-1,4,6,-1,8,-1,-1,-1],"split_conditions":[2E0,-2.1534264E-2,4E0,1.1237237E0,3.106746E-2,2.5915435E-1,1.7770559E-2,7.997449E-3,-1.7486697E-2],"split_indices":[2,0,1,3,0,3,0,0,0],"split_type":[0,0,0,0,0,0,0,0,0],"sum_hessian":[1.41560955E1,1.7102612E0,1.2445834E1,1.10628395E1,1.3829945E0,9.309084E0,1.7537559E0,5.924292E0,3.3847916E0],"tree_param":{"num_deleted":"0","num_feature":"4","num_nodes":"9","size_leaf_vector":"1"}},{"base_weights":[5.731525E-2,3.1365222E-1,-3.789093E-1,-1.1975472E-2,4.2114565E-1,-5.7607263E-1,1.342986E-2,5.497045E-1,-1.084819E-2,-8.64238E-3,-3.8603514E-2,7.2949626E-3,3.5794742E-2],"categories":[],"categories_nodes":[],"categories_segments":[],"categories_sizes":[],"default_left":[0,0,0,0,0,0,0,0,0,0,0,0,0],"id":42,"left_children":[1,3,5,-1,7,9,-1,11,-1,-1,-1,-1,-1],"loss_changes":[1.7138664E0,6.676333E-1,8.8656205E-1,0E0,8.0370796E-1,2.3897338E-1,0E0,3.8056302E-1,0E0,0E0,0E0,0E0,0E0],"parents":[2147483647,0,0,1,1,2,2,4,4,5,5,7,7],"right_children":[2,4,6,-1,8,10,-1,12,-1,-1,-1,-1,-1],"split_conditions":[5E-2,-8.5933787E-1,2.125E0,-1.1975472E-2,1.0292337E0,3E0,1.342986E-2,-6.5E-1,-1.084819E-2,-8.64238E-3,-3.8603514E-2,7.2949626E-3,3.5794742E-2],"split_indices":[0,3,0,0,3,2,0,0,0,0,0,0,0],"split_type":[0,0,0,0,0,0,0,0,0,0,0,0,0],"sum_hessian":[1.3264118E1,8.53167E0,4.7324486E0,1.1883392E0,7.3433304E0,3.7123675E0,1.0200809E0,6.227274E0,1.1160564E0,1.8298047E0,1.8825629E0,2.3631802E0,3.864094E0],"tree_param":{"num_deleted":"0","num_feature":"4","num_nodes":"13","size_leaf_vector":"1"}},{"base_weights":[7.906236E-2,-1.9402996E-2,1.6002554E-1,-1.7389094E-2,2.4288413E-1,4.4112474E-1,-6.281681E-2,4.303352E-2,9.6991025E-3,-2.16247E-2,9.522165E-3],"categories":[],"categories_nodes":[],"categories_segments":[],"categories_sizes":[],"default_left":[0,0,0,0,0,0,0,0,0,0,0],"id":43,"left_children":[1,-1,3,-1,5,7,9,-1,-1,-1,-1],"loss_changes":[6.456561E-1,0E0,6.675911E-1,0E0,7.854441E-1,6.324197E-1,6.248193E-1,0E0,0E0,0E0,0E0],"parents":[2147483647,0,0,2,2,4,4,5,5,6,6],"right_children":[2,-1,4,-1,6,8,10,-1,-1,-1,-1],"split_conditions":[2E0,-1.9402996E-2,-2.3214285E0,-1.7389094E-2,5E-2,-2.3836565E-1,6.4285713E-1,4.303352E-2,9.6991025E-3,-2.16247E-2,9.522165E-3],"split_indices":[2,0,0,0,0,3,0,0,0,0,0],"split_type":[0,0,0,0,0,0,0,0,0,0,0],"sum_hessian":[1.4429961E1,1.5712857E0,1.2858675E1,1.3552978E0,1.1503378E1,6.709448E0,4.79393E0,1.5669436E0,5.142504E0,1.6612865E0,3.1326435E0],"tree_param":{"num_deleted":"0","num_feature":"4","num_nodes":"11","size_leaf_vector":"1"}},{"base_weights":[1.213713E-1,2.234996E-1,-2.2732148E-2,-2.1675583E-3,3.9199534E-1,-2.5843364E-1,2.9262556E-2,5.760817E-1,-1.8085087E-2,1.164989E-2,-3.7459146E-2,7.075456E-3,4.39277E-2],"categories":[],"categories_nodes":[],"categories_segments":[],"categories_sizes":[],"default_left":[0,0,0,0,0,0,0,0,0,0,0,0,0],"id":44,"left_children":[1,3,-1,5,7,9,-1,11,-1,-1,-1,-1,-1],"loss_changes":[1.0302161E0,5.3616613E-1,0E0,1.2069086E0,1.3274484E0,1.5193928E0,0E0,7.784629E-1,0E0,0E0,0E0,0E0,0E0],"parents":[2147483647,0,0,1,1,3,3,4,4,5,5,7,7],"right_children":[2,4,-1,6,8,10,-1,12,-1,-1,-1,-1,-1],"split_conditions":[1.1666666E0,-3.9285713E-1,-2.2732148E-2,4.7034863E-1,6.260879E-1,-1.6966219E-1,2.9262556E-2,-1.58069E-1,-1.8085087E-2,1.164989E-2,-3.7459146E-2,7.075456E-3,4.39277E-2],"split_indices":[0,0,0,3,3,3,0,3,0,0,0,0,0],"split_type":[0,0,0,0,0,0,0,0,0,0,0,0,0],"sum_hessian":[1.4785234E1,1.3078402E1,1.706833E0,6.0127E0,7.0657015E0,4.576303E0,1.4363968E0,5.8681073E0,1.1975939E0,2.54899E0,2.027313E0,3.0105648E0,2.8575428E0],"tree_param":{"num_deleted":"0","num_feature":"4","num_nodes":"13","size_leaf_vector":"1"}},{"base_weights":[-3.0101085E-2,-3.3505946E-2,6.921104E-2,1.9076586E-1,-2.4236439E-2,-1.7299715E-2,2.875698E-1,2.9695475E-2,4.11745E-3],"categories":[],"categories_nodes":[],"categories_segments":[],"categories_sizes":[],"default_left":[0,0,0,0,0,0,0,0,0],"id":45,"left_children":[1,-1,3,5,-1,-1,7,-1,-1],"loss_changes":[1.0258825E0,0E0,1.0517558E0,7.4383783E-1,0E0,0E0,6.4589965E-1,0E0,0E0],"parents":[2147483647,0,0,2,2,3,3,6,6],"right_children":[2,-1,4,6,-1,-1,8,-1,-1],"split_conditions":[2E0,-3.3505946E-2,1.1666666E0,-2.3214285E0,-2.4236439E-2,-1.7299715E-2,-2.3836565E-1,2.9695475E-2,4.11745E-3],"split_indices":[2,0,0,0,0,0,3,0,0],"split_type":[0,0,0,0,0,0,0,0,0],"sum_hessian":[1.4410309E1,1.1636368E0,1.3246672E1,1.1400583E1,1.8460883E0,1.3486102E0,1.0051973E1,3.2727022E0,6.779271E0],"tree_param":{"num_deleted":"0","num_feature":"4","num_nodes":"9","size_leaf_vector":"1"}},{"base_weights":[-1.14551306E-1,-2.5630566E-1,4.000649E-2,-3.408893E-2,-8.943662E-2,8.572503E-2,-3.5612997E-2,-8.865745E-3,1.2759141E-2],"categories":[],"categories_nodes":[],"categories_segments":[],"categories_sizes":[],"default_left":[0,0,0,0,0,0,0,0,0],"id":46,"left_children":[1,3,-1,-1,5,7,-1,-1,-1],"loss_changes":[2.0434623E0,8.6437196E-1,0E0,0E0,1.2079427E0,4.5077047E-1,0E0,0E0,0E0],"parents":[2147483647,0,0,1,1,4,4,5,5],"right_children":[2,4,-1,-1,6,8,-1,-1,-1],"split_conditions":[4E0,-3.619614E-1,4.000649E-2,-3.408893E-2,9.6428573E-1,-3.9285713E-1,-3.5612997E-2,-8.865745E-3,1.2759141E-2],"split_indices":[1,3,0,0,0,0,0,0,0],"split_type":[0,0,0,0,0,0,0,0,0],"sum_hessian":[1.3178499E1,1.2033389E1,1.1451097E0,2.5206568E0,9.5127325E0,8.097709E0,1.4150237E0,3.1546125E0,4.9430966E0],"tree_param":{"num_deleted":"0","num_feature":"4","num_nodes":"9","size_leaf_vector":"1"}},{"base_weights":[7.336277E-2,3.2864302E-1,-2.2751233E-1,-2.0465152E-2,5.72906E-1,3.000849E-2,-5.470572E-1,4.5966305E-2,2.420641E-1,-3.5687275E-2,-9.460274E-3,-2.5377274E-2,3.6930125E-2],"categories":[],"categories_nodes":[],"categories_segments":[],"categories_sizes":[],"default_left":[0,0,0,0,0,0,0,0,0,0,0,0,0],"id":47,"left_children":[1,3,5,-1,7,-1,9,-1,11,-1,-1,-1,-1],"loss_changes":[1.149191E0,1.6723211E0,2.1828089E0,0E0,5.120857E-1,0E0,1.9791245E-1,0E0,2.1004395E0,0E0,0E0,0E0,0E0],"parents":[2147483647,0,0,1,1,2,2,4,4,6,6,8,8],"right_children":[2,4,6,-1,8,-1,10,-1,12,-1,-1,-1,-1],"split_conditions":[3E0,-8.5933787E-1,-7.5E-1,-2.0465152E-2,-2.3836565E-1,3.000849E-2,1.5E-1,4.5966305E-2,8.084521E-2,-3.5687275E-2,-9.460274E-3,-2.5377274E-2,3.6930125E-2],"split_indices":[2,3,0,0,3,0,0,0,3,0,0,0,0],"split_type":[0,0,0,0,0,0,0,0,0,0,0,0,0],"sum_hessian":[1.2988491E1,6.97673E0,6.011761E0,1.5669954E0,5.4097347E0,1.429885E0,4.5818763E0,1.7737347E0,3.636E0,2.447361E0,2.1345153E0,1.4399626E0,2.1960373E0],"tree_param":{"num_deleted":"0","num_feature":"4","num_nodes":"13","size_leaf_vector":"1"}},{"base_weights":[-5.972817E-2,-1.8298212E-1,3.207816E-2,-4.612454E-2,-3.4326185E-2,2.3964113E-1,-3.5937986E-1,2.4962114E-2,-1.3153448E-2,8.548269E-3,-3.4097556E-2],"categories":[],"categories_nodes":[],"categories_segments":[],"categories_sizes":[],"default_left":[0,0,0,0,0,0,0,0,0,0,0],"id":48,"left_children":[1,3,-1,-1,5,7,9,-1,-1,-1,-1],"loss_changes":[1.3449959E0,1.3817773E0,0E0,0E0,1.1319768E0,1.0413077E0,1.1039083E0,0E0,0E0,0E0,0E0],"parents":[2147483647,0,0,1,1,4,4,5,5,6,6],"right_children":[2,4,-1,-1,6,8,10,-1,-1,-1,-1],"split_conditions":[1.1237237E0,-1.8333334E0,3.207816E-2,-4.612454E-2,3E0,5E-2,-2.5E-1,2.4962114E-2,-1.3153448E-2,8.548269E-3,-3.4097556E-2],"split_indices":[3,0,0,0,2,0,0,0,0,0,0],"split_type":[0,0,0,0,0,0,0,0,0,0,0],"sum_hessian":[1.3202278E1,1.1857388E1,1.3448911E0,1.1133479E0,1.074404E1,5.972749E0,4.7712903E0,3.9433095E0,2.02944E0,1.982242E0,2.7890484E0],"tree_param":{"num_deleted":"0","num_feature":"4","num_nodes":"11","size_leaf_vector":"1"}},{"base_weights":[1.3796406E-2,-9.5822535E-2,2.6373316E-2,-3.5899004E-1,2.8728217E-1,9.747888E-2,-3.4320395E-2,2.399475E-2,6.3375942E-3,1.6791498E-2,-1.2379057E-2,-1.2960046E-2,1.2426581E-2],"categories":[],"categories_nodes":[],"categories_segments":[],"categories_sizes":[],"default_left":[0,0,0,0,0,0,0,0,0,0,0,0,0],"id":49,"left_children":[1,3,-1,5,7,9,-1,-1,11,-1,-1,-1,-1],"loss_changes":[8.013892E-1,1.2964163E0,0E0,1.1819475E0,2.878232E-1,4.11456E-1,0E0,0E0,2.701932E-1,0E0,0E0,0E0,0E0],"parents":[2147483647,0,0,1,1,3,3,4,4,5,5,8,8],"right_children":[2,4,-1,6,8,10,-1,-1,12,-1,-1,-1,-1],"split_conditions":[1.1237237E0,3E0,2.6373316E-2,3E0,-2.8635132E-1,-1.25E-1,-3.4320395E-2,2.399475E-2,3.8749214E-2,1.6791498E-2,-1.2379057E-2,-1.2960046E-2,1.2426581E-2],"split_indices":[3,1,0,2,3,0,0,0,3,0,0,0,0],"split_type":[0,0,0,0,0,0,0,0,0,0,0,0,0],"sum_hessian":[1.2334637E1,1.0835713E1,1.4989239E0,6.460633E0,4.3750806E0,2.9918425E0,3.4687903E0,2.175459E0,2.1996214E0,1.7853538E0,1.2064886E0,1.0157481E0,1.1838734E0],"tree_param":{"num_deleted":"0","num_feature":"4","num_nodes":"13","size_leaf_vector":"1"}},{"base_weights":[-3.1109664E-3,-1.5779181E-1,2.7848935E-1,-1.767139E-2,-3.606381E-2,3.251793E-2,-1.2267685E-1,-1.6367142E-1,2.0654954E-2,-1.8323688E-2,1.1430482E-2,1.5413239E-2,-1.4165095E-2],"categories":[],"categories_nodes":[],"categories_segments":[],"categories_sizes":[],"default_left":[0,0,0,0,0,0,0,0,0,0,0,0,0],"id":50,"left_children":[1,3,5,7,-1,-1,9,11,-1,-1,-1,-1,-1],"loss_changes":[7.0678276E-1,8.1316555E-1,9.3860435E-1,6.589531E-1,0E0,0E0,3.930056E-1,5.242355E-1,0E0,0E0,0E0,0E0,0E0],"parents":[2147483647,0,0,1,1,2,2,3,3,6,6,7,7],"right_children":[2,4,6,8,-1,-1,10,12,-1,-1,-1,-1,-1],"split_conditions":[4.7034863E-1,2.6880166E-1,-1.6666667E-1,8.084521E-2,-3.606381E-2,3.251793E-2,1.7E0,-1.228683E0,2.0654954E-2,-1.8323688E-2,1.1430482E-2,1.5413239E-2,-1.4165095E-2],"split_indices":[3,3,0,3,0,0,0,3,0,0,0,0,0],"split_type":[0,0,0,0,0,0,0,0,0,0,0,0,0],"sum_hessian":[1.4217337E1,9.460447E0,4.756889E0,8.402402E0,1.0580459E0,2.1462288E0,2.6106603E0,6.7385654E0,1.6638365E0,1.5155901E0,1.0950702E0,1.0438442E0,5.694721E0],"tree_param":{"num_deleted":"0","num_feature":"4","num_nodes":"13","size_leaf_vector":"1"}},{"base_weights":[2.7290357E-2,2.8947977E-2,-9.01505E-2,3.1225365E-1,-2.6187548E-1,-6.463272E-3,3.1655952E-2,4.81673E-2,-5.292815E-1,-1.5358262E-2,1.7438846E-2,-4.2018656E-2,-1.9366903E-3],"categories":[],"categories_nodes":[],"categories_segments":[],"categories_sizes":[],"default_left":[0,0,0,0,0,0,0,0,0,0,0,0,0],"id":51,"left_children":[1,-1,3,5,7,-1,-1,9,11,-1,-1,-1,-1],"loss_changes":[9.986413E-1,0E0,9.7385633E-1,6.934832E-1,8.207484E-1,0E0,0E0,6.7950857E-1,7.661216E-1,0E0,0E0,0E0,0E0],"parents":[2147483647,0,0,2,2,3,3,4,4,7,7,8,8],"right_children":[2,-1,4,6,8,-1,-1,10,12,-1,-1,-1,-1],"split_conditions":[-7.476672E-1,2.8947977E-2,-5.833333E-1,-1.8333334E0,3E0,-6.463272E-3,3.1655952E-2,8.084521E-2,5.3977793E-1,-1.5358262E-2,1.7438846E-2,-4.2018656E-2,-1.9366903E-3],"split_indices":[3,0,0,0,2,0,0,3,3,0,0,0,0],"split_type":[0,0,0,0,0,0,0,0,0,0,0,0,0],"sum_hessian":[1.3608269E1,1.6987462E0,1.1909523E1,3.3174312E0,8.592092E0,1.6475267E0,1.6699045E0,4.3585086E0,4.233583E0,1.9874526E0,2.371056E0,2.1542716E0,2.0793111E0],"tree_param":{"num_deleted":"0","num_feature":"4","num_nodes":"13","size_leaf_vector":"1"}},{"base_weights":[-1.1161958E-1,3.0916163E-1,-3.1702104E-1,-8.709392E-3,5.963758E-1,-4.1129902E-1,1.2509197E-2,-7.2157667E-3,4.832362E-2,-2.4702614E-2,-7.067154E-1,-1.4892955E-2,2.3284288E-2,-8.211911E-3,-4.5383897E-2],"categories":[],"categories_nodes":[],"categories_segments":[],"categories_sizes":[],"default_left":[0,0,0,0,0,0,0,0,0,0,0,0,0,0,0],"id":52,"left_children":[1,3,5,-1,7,9,-1,-1,-1,11,13,-1,-1,-1,-1],"loss_changes":[1.3059007E0,8.105751E-1,6.31498E-1,0E0,1.0767684E0,9.937669E-1,0E0,0E0,0E0,7.9126006E-1,3.9413977E-1,0E0,0E0,0E0,0E0],"parents":[2147483647,0,0,1,1,2,2,4,4,5,5,9,9,10,10],"right_children":[2,4,6,-1,8,10,-1,-1,-1,12,14,-1,-1,-1,-1],"split_conditions":[-2.3836565E-1,3E0,2E0,-8.709392E-3,2E0,-2.5E-1,1.2509197E-2,-7.2157667E-3,4.832362E-2,-4E-1,3E0,-1.4892955E-2,2.3284288E-2,-8.211911E-3,-4.5383897E-2],"split_indices":[3,1,0,0,2,0,0,0,0,0,2,0,0,0,0],"split_type":[0,0,0,0,0,0,0,0,0,0,0,0,0,0,0],"sum_hessian":[1.2975504E1,4.0905433E0,8.88496E0,1.671359E0,2.4191844E0,7.8543215E0,1.0306389E0,1.0092955E0,1.409889E0,3.8715029E0,3.9828188E0,2.7386332E0,1.1328697E0,1.5678447E0,2.414974E0],"tree_param":{"num_deleted":"0","num_feature":"4","num_nodes":"15","size_leaf_vector":"1"}},{"base_weights":[1.15779854E-1,3.2014556E-2,1.1811601E-2,3.103601E-1,-1.3729538E-1,5.9263993E-2,2.7807329E-2,-3.152471E-2,6.960267E-2,2.6324362E-2,-2.4025252E-2,1.7175307E-2,-7.678634E-3],"categories":[],"categories_nodes":[],"categories_segments":[],"categories_sizes":[],"default_left":[0,0,0,0,0,0,0,0,0,0,0,0,0],"id":53,"left_children":[1,-1,3,5,7,9,-1,-1,11,-1,-1,-1,-1],"loss_changes":[8.5011256E-1,0E0,6.7227423E-1,2.7673733E-1,1.0772275E0,1.1612532E0,0E0,0E0,5.4389215E-1,0E0,0E0,0E0,0E0],"parents":[2147483647,0,0,2,2,3,3,4,4,5,5,8,8],"right_children":[2,-1,4,6,8,10,-1,-1,12,-1,-1,-1,-1],"split_conditions":[-7.476672E-1,3.2014556E-2,-5.833333E-1,4.7034863E-1,-1.6150053E-1,-1.6966219E-1,2.7807329E-2,-3.152471E-2,2.6880166E-1,2.6324362E-2,-2.4025252E-2,1.7175307E-2,-7.678634E-3],"split_indices":[3,0,0,3,3,3,0,0,3,0,0,0,0],"split_type":[0,0,0,0,0,0,0,0,0,0,0,0,0],"sum_hessian":[1.472778E1,1.5830249E0,1.3144755E1,4.0180936E0,9.126662E0,2.6015067E0,1.4165866E0,2.092128E0,7.0345335E0,1.4076519E0,1.1938548E0,2.9162452E0,4.1182885E0],"tree_param":{"num_deleted":"0","num_feature":"4","num_nodes":"13","size_leaf_vector":"1"}},{"base_weights":[1.3664365E-1,4.948327E-1,-3.7138063E-2,2.4439698E-2,4.4729732E-2,3.1301203E-1,-1.8293905E-1,-1.911459E-2,2.073066E-2,2.0203067E-2,3.3829312E-3,1.7401989E-1,-3.8312635E-1,-1.2468128E-2,2.1915283E-2,-2.8762696E-2,1.0130185E-2],"categories":[],"categories_nodes":[],"categories_segments":[],"categories_sizes":[],"default_left":[0,0,0,0,0,0,0,0,0,0,0,0,0,0,0,0,0],"id":54,"left_children":[1,3,5,7,-1,9,11,-1,-1,-1,-1,13,15,-1,-1,-1,-1],"loss_changes":[9.2445254E-1,8.8544726E-1,6.0511565E-1,6.7343074E-1,0E0,5.1377714E-2,6.531737E-1,0E0,0E0,0E0,0E0,5.1622266E-1,7.434652E-1,0E0,0E0,0E0,0E0],"parents":[2147483647,0,0,1,1,2,2,3,3,5,5,6,6,11,11,12,12],"right_children":[2,4,6,8,-1,10,12,-1,-1,-1,-1,14,16,-1,-1,-1,-1],"split_conditions":[-4.1666666E-1,3E0,-2.8635132E-1,-1.8333334E0,4.4729732E-2,-7.905694E-1,-1.25E-1,-1.911459E-2,2.073066E-2,2.0203067E-2,3.3829312E-3,2.11183E-1,1.7857143E0,-1.2468128E-2,2.1915283E-2,-2.8762696E-2,1.0130185E-2],"split_indices":[0,2,3,0,0,3,0,0,0,0,0,3,0,0,0,0,0],"split_type":[0,0,0,0,0,0,0,0,0,0,0,0,0,0,0,0,0],"sum_hessian":[1.3556198E1,3.824963E0,9.7312355E0,2.2447453E0,1.5802177E0,2.5236616E0,7.207574E0,1.1089426E0,1.1358026E0,1.3688389E0,1.1548227E0,2.6367083E0,4.5708656E0,1.0350451E0,1.6016631E0,3.455349E0,1.1155167E0],"tree_param":{"num_deleted":"0","num_feature":"4","num_nodes":"17","size_leaf_vector":"1"}},{"base_weights":[6.12831E-3,-1.6387647E-1,2.0050548E-1,-3.4972876E-1,2.931493E-2,3.8466495E-1,-1.0384065E-2,5.834471E-2,-3.851043E-2,-7.414588E-3,5.4538256E-1,-1.2723732E-2,1.761387E-2,1.2229401E-2,3.4493536E-2],"categories":[],"categories_nodes":[],"categories_segments":[],"categories_sizes":[],"default_left":[0,0,0,0,0,0,0,0,0,0,0,0,0,0,0],"id":55,"left_children":[1,3,5,7,-1,9,-1,11,-1,-1,13,-1,-1,-1,-1],"loss_changes":[5.1013863E-1,1.3559666E0,6.2024784E-1,1.2876151E0,0E0,5.3520334E-1,0E0,5.130598E-1,0E0,0E0,1.7670512E-2,0E0,0E0,0E0,0E0],"parents":[2147483647,0,0,1,1,2,2,3,3,5,5,7,7,10,10],"right_children":[2,4,6,8,-1,10,-1,12,-1,-1,14,-1,-1,-1,-1],"split_conditions":[3E0,1.25E0,9.092412E-2,3E0,2.931493E-2,2E0,-1.0384065E-2,8.084521E-2,-3.851043E-2,-7.414588E-3,-1.6150053E-1,-1.2723732E-2,1.761387E-2,1.2229401E-2,3.4493536E-2],"split_indices":[1,3,3,2,0,2,0,3,0,0,3,0,0,0,0],"split_type":[0,0,0,0,0,0,0,0,0,0,0,0,0,0,0],"sum_hessian":[1.3443329E1,7.254961E0,6.188368E0,6.242272E0,1.0126894E0,4.304124E0,1.884244E0,3.6049395E0,2.6373322E0,1.015137E0,3.2889872E0,1.8113948E0,1.7935448E0,1.9410046E0,1.3479825E0],"tree_param":{"num_deleted":"0","num_feature":"4","num_nodes":"15","size_leaf_vector":"1"}},{"base_weights":[5.397539E-2,-9.372397E-2,3.635016E-1,4.121849E-2,-3.3089895E-2,3.3154253E-2,-9.776699E-3,-1.9672286E-2,1.4982499E-1,1.34575395E-2,-1.3778865E-2],"categories":[],"categories_nodes":[],"categories_segments":[],"categories_sizes":[],"default_left":[0,0,0,0,0,0,0,0,0,0,0],"id":56,"left_children":[1,3,5,7,-1,-1,-1,-1,9,-1,-1],"loss_changes":[6.6563505E-1,8.051299E-1,9.113774E-1,4.9046004E-1,0E0,0E0,0E0,0E0,4.821744E-1,0E0,0E0],"parents":[2147483647,0,0,1,1,2,2,3,3,8,8],"right_children":[2,4,6,8,-1,-1,-1,-1,10,-1,-1],"split_conditions":[5.026155E-1,2.5915435E-1,3E0,-1.8333334E0,-3.3089895E-2,3.3154253E-2,-9.776699E-3,-1.9672286E-2,5E-1,1.34575395E-2,-1.3778865E-2],"split_indices":[3,3,1,0,0,0,0,0,0,0,0],"split_type":[0,0,0,0,0,0,0,0,0,0,0],"sum_hessian":[1.2814745E1,9.14713E0,3.6676147E0,8.1407795E0,1.0063504E0,2.2667537E0,1.400861E0,1.1031379E0,7.037642E0,5.78285E0,1.2547925E0],"tree_param":{"num_deleted":"0","num_feature":"4","num_nodes":"11","size_leaf_vector":"1"}},{"base_weights":[6.26899E-2,4.5895815E-1,-9.415931E-2,-1.0031736E-2,3.8251482E-2,-3.4952186E-2,4.8567E-2,2.2714683E-1,-2.2885397E-2,-3.6404263E-3,2.1446409E-2],"categories":[],"categories_nodes":[],"categories_segments":[],"categories_sizes":[],"default_left":[0,0,0,0,0,0,0,0,0,0,0],"id":57,"left_children":[1,3,5,-1,-1,-1,7,9,-1,-1,-1],"loss_changes":[8.9262795E-1,9.7022676E-1,9.508567E-1,0E0,0E0,0E0,9.654025E-1,4.9799436E-1,0E0,0E0,0E0],"parents":[2147483647,0,0,1,1,2,2,6,6,7,7],"right_children":[2,4,6,-1,-1,-1,8,10,-1,-1,-1],"split_conditions":[-2.8635132E-1,-8.5933787E-1,-1.4079697E-1,-1.0031736E-2,3.8251482E-2,-3.4952186E-2,6.666667E-1,-3.9285713E-1,-2.2885397E-2,-3.6404263E-3,2.1446409E-2],"split_indices":[3,3,3,0,0,0,0,0,0,0,0],"split_type":[0,0,0,0,0,0,0,0,0,0,0],"sum_hessian":[1.26661825E1,3.0455952E0,9.620587E0,1.0745002E0,1.9710948E0,1.0925387E0,8.5280485E0,6.7118835E0,1.8161652E0,2.9563427E0,3.7555406E0],"tree_param":{"num_deleted":"0","num_feature":"4","num_nodes":"11","size_leaf_vector":"1"}},{"base_weights":[-3.949297E-3,2.6253492E-1,-1.5809563E-1,-5.2607987E-2,4.0944252E-2,-3.4368478E-2,-1.1538022E-2,1.4142999E-1,-1.689217E-2,2.933002E-2,-1.7710099E-1,1.18300645E-2,-4.3266136E-4,-2.2449791E-2,6.1062425E-3],"categories":[],"categories_nodes":[],"categories_segments":[],"categories_sizes":[],"default_left":[0,0,0,0,0,0,0,0,0,0,0,0,0,0,0],"id":58,"left_children":[1,3,5,7,-1,-1,9,11,-1,-1,13,-1,-1,-1,-1],"loss_changes":[6.25964E-1,1.0231694E0,7.396948E-1,2.9729456E-1,0E0,0E0,9.5209247E-1,5.043921E-2,0E0,0E0,6.631003E-1,0E0,0E0,0E0,0E0],"parents":[2147483647,0,0,1,1,2,2,3,3,6,6,7,7,10,10],"right_children":[2,4,6,8,-1,-1,10,12,-1,-1,14,-1,-1,-1,-1],"split_conditions":[-2.3836565E-1,-3.619614E-1,-1.4079697E-1,-7.476672E-1,4.0944252E-2,-3.4368478E-2,3.8749214E-2,-1.228683E0,-1.689217E-2,2.933002E-2,5.3977793E-1,1.18300645E-2,-4.3266136E-4,-2.2449791E-2,6.1062425E-3],"split_indices":[3,3,3,3,0,0,3,3,0,0,3,0,0,0,0],"split_type":[0,0,0,0,0,0,0,0,0,0,0,0,0,0,0],"sum_hessian":[1.3228164E1,4.589977E0,8.638187E0,3.508205E0,1.0817719E0,1.0730193E0,7.5651684E0,2.3879266E0,1.1202784E0,1.0887425E0,6.4764256E0,1.1085203E0,1.2794062E0,3.1309388E0,3.3454869E0],"tree_param":{"num_deleted":"0","num_feature":"4","num_nodes":"15","size_leaf_vector":"1"}},{"base_weights":[1.1687718E-1,-2.383282E-2,2.3726864E-1,5.3706807E-1,-7.1007706E-2,7.6576255E-2,4.376037E-2,2.0585379E-1,-1.8251816E-2,2.086774E-2,-1.760499E-2,-4.237234E-3,2.4683857E-2],"categories":[],"categories_nodes":[],"categories_segments":[],"categories_sizes":[],"default_left":[0,0,0,0,0,0,0,0,0,0,0,0,0],"id":59,"left_children":[1,-1,3,5,7,9,-1,11,-1,-1,-1,-1,-1],"loss_changes":[1.1105512E0,0E0,1.1723883E0,9.199736E-1,6.396087E-1,6.9909686E-1,0E0,3.94022E-1,0E0,0E0,0E0,0E0,0E0],"parents":[2147483647,0,0,2,2,3,3,4,4,5,5,7,7],"right_children":[2,-1,4,6,8,10,-1,12,-1,-1,-1,-1,-1],"split_conditions":[-8.5933787E-1,-2.383282E-2,-1.6666667E-1,6.7200415E-2,3E0,-2.3836565E-1,4.376037E-2,6.4285713E-1,-1.8251816E-2,2.086774E-2,-1.760499E-2,-4.237234E-3,2.4683857E-2],"split_indices":[3,0,0,3,2,3,0,0,0,0,0,0,0],"split_type":[0,0,0,0,0,0,0,0,0,0,0,0,0],"sum_hessian":[1.2958945E1,1.6862853E0,1.127266E1,5.3386483E0,5.934012E0,2.7796593E0,2.5589888E0,3.2106776E0,2.7233346E0,1.563308E0,1.2163513E0,1.9487277E0,1.2619499E0],"tree_param":{"num_deleted":"0","num_feature":"4","num_nodes":"13","size_leaf_vector":"1"}},{"base_weights":[5.9102774E-2,2.6159215E-1,-2.2132573E-1,-1.9115334E-2,4.02267E-1,-4.3767592E-1,2.055784E-2,-1.9114407E-2,6.3773525E-1,6.4798095E-3,-7.014149E-1,1.768024E-2,-1.8056722E-2,-1.9507401E-3,4.7427874E-2,-4.4718154E-2,-8.615206E-3],"categories":[],"categories_nodes":[],"categories_segments":[],"categories_sizes":[],"default_left":[0,0,0,0,0,0,0,0,0,0,0,0,0,0,0,0,0],"id":60,"left_children":[1,3,5,-1,7,9,-1,11,13,-1,15,-1,-1,-1,-1,-1,-1],"loss_changes":[8.7331563E-1,9.5063734E-1,1.0780082E0,0E0,7.769017E-1,8.949958E-1,0E0,6.0366696E-1,1.0831442E0,0E0,2.36372E-1,0E0,0E0,0E0,0E0,0E0,0E0],"parents":[2147483647,0,0,1,1,2,2,4,4,5,5,7,7,8,8,10,10],"right_children":[2,4,6,-1,8,10,-1,12,14,-1,16,-1,-1,-1,-1,-1,-1],"split_conditions":[1.06154956E-1,-1.8333334E0,1.1237237E0,-1.9115334E-2,3E0,3E0,2.055784E-2,-4.1666666E-1,-1.0397505E0,6.4798095E-3,3E0,1.768024E-2,-1.8056722E-2,-1.9507401E-3,4.7427874E-2,-4.4718154E-2,-8.615206E-3],"split_indices":[3,0,3,0,1,2,0,0,3,0,1,0,0,0,0,0,0],"split_type":[0,0,0,0,0,0,0,0,0,0,0,0,0,0,0,0,0],"sum_hessian":[1.3360058E1,7.797138E0,5.5629196E0,1.0900563E0,6.707082E0,4.374544E0,1.1883757E0,2.733744E0,3.973338E0,1.5497755E0,2.8247685E0,1.2919542E0,1.4417897E0,1.5257709E0,2.447567E0,1.5640873E0,1.2606813E0],"tree_param":{"num_deleted":"0","num_feature":"4","num_nodes":"17","size_leaf_vector":"1"}},{"base_weights":[3.1857632E-2,-4.9754314E-2,2.7641973E-2,-2.5689465E-1,2.0025831E-1,-3.6666475E-3,-5.631886E-1,-3.2197798E-3,3.2735463E-2,-1.8139103E-2,2.5754461E-2,-3.482601E-2,-5.8780424E-3,1.5009793E-2,-1.1398014E-2],"categories":[],"categories_nodes":[],"categories_segments":[],"categories_sizes":[],"default_left":[0,0,0,0,0,0,0,0,0,0,0,0,0,0,0],"id":61,"left_children":[1,3,-1,5,7,9,11,13,-1,-1,-1,-1,-1,-1,-1],"loss_changes":[6.395932E-1,7.435142E-1,0E0,5.9876835E-1,6.1399746E-1,1.1643701E0,1.2603402E-1,4.4795918E-1,0E0,0E0,0E0,0E0,0E0,0E0,0E0],"parents":[2147483647,0,0,1,1,3,3,4,4,5,5,6,6,7,7],"right_children":[2,4,-1,6,8,10,12,14,-1,-1,-1,-1,-1,-1,-1],"split_conditions":[1.25E0,3E0,2.7641973E-2,-1.25E-1,4E-1,-3.9285713E-1,4.9099025E-1,-2.8635132E-1,3.2735463E-2,-1.8139103E-2,2.5754461E-2,-3.482601E-2,-5.8780424E-3,1.5009793E-2,-1.1398014E-2],"split_indices":[3,1,0,0,0,0,3,3,0,0,0,0,0,0,0],"split_type":[0,0,0,0,0,0,0,0,0,0,0,0,0,0,0],"sum_hessian":[1.3395836E1,1.2363577E1,1.0322587E0,6.746469E0,5.617108E0,4.2471313E0,2.4993374E0,4.5657372E0,1.0513705E0,2.6874077E0,1.5597235E0,1.4904013E0,1.0089363E0,1.7999425E0,2.765795E0],"tree_param":{"num_deleted":"0","num_feature":"4","num_nodes":"15","size_leaf_vector":"1"}}]},"name":"gbtree"},"learner_model_param":{"base_score":"3.044731E-1","boost_from_average":"1","num_class":"0","num_feature":"4","num_target":"1"},"objective":{"name":"binary:logistic","reg_loss_param":{"scale_pos_weight":"1"}}},"version":[2,0,0]}