{"learner":{"attributes":{"best_iteration":"100","best_score":"0.4780480403985296"},"feature_names":["FG T","Minutes Diff","Rest Days"],"feature_types":["float","float","float"],"gradient_booster":{"model":{"gbtree_model_param":{"num_parallel_tree":"1","num_trees":"151"},"iteration_indptr":[0,1,2,3,4,5,6,7,8,9,10,11,12,13,14,15,16,17,18,19,20,21,22,23,24,25,26,27,28,29,30,31,32,33,34,35,36,37,38,39,40,41,42,43,44,45,46,47,48,49,50,51,52,53,54,55,56,57,58,59,60,61,62,63,64,65,66,67,68,69,70,71,72,73,74,75,76,77,78,79,80,81,82,83,84,85,86,87,88,89,90,91,92,93,94,95,96,97,98,99,100,101,102,103,104,105,106,107,108,109,110,111,112,113,114,115,116,117,118,119,120,121,122,123,124,125,126,127,128,129,130,131,132,133,134,135,136,137,138,139,140,141,142,143,144,145,146,147,148,149,150,151],"tree_info":[0,0,0,0,0,0,0,0,0,0,0,0,0,0,0,0,0,0,0,0,0,0,0,0,0,0,0,0,0,0,0,0,0,0,0,0,0,0,0,0,0,0,0,0,0,0,0,0,0,0,0,0,0,0,0,0,0,0,0,0,0,0,0,0,0,0,0,0,0,0,0,0,0,0,0,0,0,0,0,0,0,0,0,0,0,0,0,0,0,0,0,0,0,0,0,0,0,0,0,0,0,0,0,0,0,0,0,0,0,0,0,0,0,0,0,0,0,0,0,0,0,0,0,0,0,0,0,0,0,0,0,0,0,0,0,0,0,0,0,0,0,0,0,0,0,0,0,0,0,0,0],"trees":[{"base_weights":[1.264405E-1,3.5953745E-2,-1.14901334E-1,-2.48095E-1,3.75664E-2,-3.9535095E-3,-4.0163707E-2],"categories":[],"categories_nodes":[],"categories_segments":[],"categories_sizes":[],"default_left":[0,0,0,0,0,0,0],"id":0,"left_children":[1,-1,3,5,-1,-1,-1],"loss_changes":[3.1493444E0,0E0,2.0438228E0,1.3163965E0,0E0,0E0,0E0],"parents":[2147483647,0,0,2,2,3,3],"right_children":[2,-1,4,6,-1,-1,-1],"split_conditions":[-5.548766E-1,3.5953745E-2,8.573214E-1,3.1333977E-1,3.75664E-2,-3.9535095E-3,-4.0163707E-2],"split_indices":[0,0,0,0,0,0,0],"split_type":[0,0,0,0,0,0,0],"sum_hessian":[2.0441486E1,5.342661E0,1.50988245E1,1.3705087E1,1.3937377E0,1.1382191E1,2.322896E0],"tree_param":{"num_deleted":"0","num_feature":"3","num_nodes":"7","size_leaf_vector":"1"}},{"base_weights":[1.596115E-2,7.09328E-1,-2.1354571E-1,2.435287E-1,5.211946E-2,-4.8091948E-1,3.2368135E-1,4.887639E-2,-2.6007716E-2,2.739743E-2,-3.5336696E-2,3.7704606E-2,1.8009826E-3],"categories":[],"categories_nodes":[],"categories_segments":[],"categories_sizes":[],"default_left":[0,0,0,0,0,0,0,0,0,0,0,0,0],"id":1,"left_children":[1,3,5,7,-1,9,11,-1,-1,-1,-1,-1,-1],"loss_changes":[3.4937515E0,5.9237313E-1,2.5327013E0,2.514635E0,0E0,3.0478485E0,7.2770965E-1,0E0,0E0,0E0,0E0,0E0,0E0],"parents":[2147483647,0,0,1,1,2,2,3,3,5,5,6,6],"right_children":[2,4,6,8,-1,10,12,-1,-1,-1,-1,-1,-1],"split_conditions":[-6.405126E-1,-1.07349E0,2E-1,-2.300336E0,5.211946E-2,-3.2434183E-1,3.1333977E-1,4.887639E-2,-2.6007716E-2,2.739743E-2,-3.5336696E-2,3.7704606E-2,1.8009826E-3],"split_indices":[0,0,0,0,0,1,0,0,0,0,0,0,0],"split_type":[0,0,0,0,0,0,0,0,0,0,0,0,0],"sum_hessian":[2.0003119E1,4.4545984E0,1.554852E1,2.578978E0,1.8756205E0,1.0451634E1,5.096886E0,1.1722628E0,1.4067154E0,1.6243114E0,8.827323E0,1.392267E0,3.7046192E0],"tree_param":{"num_deleted":"0","num_feature":"3","num_nodes":"13","size_leaf_vector":"1"}},{"base_weights":[-5.875793E-2,6.0279214E-1,-3.6055633E-1,-1.21836895E-2,9.0350074E-1,-2.1853936E-1,-4.8386868E-2,5.8630772E-2,8.37092E-3,-2.3414101E-2,8.641189E-3],"categories":[],"categories_nodes":[],"categories_segments":[],"categories_sizes":[],"default_left":[0,0,0,0,0,0,0,0,0,0,0],"id":2,"left_children":[1,3,5,-1,7,9,-1,-1,-1,-1,-1],"loss_changes":[4.494611E0,2.0237732E0,1.1110678E0,0E0,8.8145447E-1,1.4221072E0,0E0,0E0,0E0,0E0,0E0],"parents":[2147483647,0,0,1,1,2,2,4,4,5,5],"right_children":[2,4,6,-1,8,10,-1,-1,-1,-1,-1],"split_conditions":[-1.7108831E-1,-7.4336416E-1,4E0,-1.21836895E-2,-2.8022426E-1,3E0,-4.8386868E-2,5.8630772E-2,8.37092E-3,-2.3414101E-2,8.641189E-3],"split_indices":[1,1,2,0,1,2,0,0,0,0,0],"split_type":[0,0,0,0,0,0,0,0,0,0,0],"sum_hessian":[2.0423332E1,6.0857882E0,1.4337543E1,1.6449839E0,4.4408045E0,1.2721876E1,1.6156666E0,2.8176215E0,1.623183E0,7.646093E0,5.0757833E0],"tree_param":{"num_deleted":"0","num_feature":"3","num_nodes":"11","size_leaf_vector":"1"}},{"base_weights":[-6.8524465E-2,4.859753E-2,-5.469346E-1,-4.6034932E-2,4.386653E-1,-4.557028E-2,-4.354679E-3,4.036895E-3,-3.3163827E-2,3.8329706E-2,-3.6516103E-3],"categories":[],"categories_nodes":[],"categories_segments":[],"categories_sizes":[],"default_left":[0,0,0,0,0,0,0,0,0,0,0],"id":3,"left_children":[1,3,5,7,9,-1,-1,-1,-1,-1,-1],"loss_changes":[1.2757944E0,7.1520454E-1,6.69155E-1,1.3100271E0,6.8876106E-1,0E0,0E0,0E0,0E0,0E0,0E0],"parents":[2147483647,0,0,1,1,2,2,3,3,4,4],"right_children":[2,4,6,8,10,-1,-1,-1,-1,-1,-1],"split_conditions":[3.9669916E-1,2.7720797E-1,2.307351E-2,2.307351E-2,5.5256647E-1,-4.557028E-2,-4.354679E-3,4.036895E-3,-3.3163827E-2,3.8329706E-2,-3.6516103E-3],"split_indices":[1,0,0,0,0,0,0,0,0,0,0],"split_type":[0,0,0,0,0,0,0,0,0,0,0],"sum_hessian":[2.1294525E1,1.7828306E1,3.4662187E0,1.5057307E1,2.7709987E0,1.3858161E0,2.0804024E0,1.3212781E1,1.8445259E0,1.3851595E0,1.3858391E0],"tree_param":{"num_deleted":"0","num_feature":"3","num_nodes":"11","size_leaf_vector":"1"}},{"base_weights":[-1.7648621E-1,4.8982286E-1,-3.5434985E-1,-1.1792402E-2,4.5563582E-2,-4.474827E-1,2.6201984E-2,-3.1349573E-3,-2.95593E-2],"categories":[],"categories_nodes":[],"categories_segments":[],"categories_sizes":[],"default_left":[0,0,0,0,0,0,0,0,0],"id":4,"left_children":[1,3,5,-1,-1,7,-1,-1,-1],"loss_changes":[2.7620947E0,1.7507383E0,1.6923068E0,0E0,0E0,8.836572E-1,0E0,0E0,0E0],"parents":[2147483647,0,0,1,1,2,2,5,5],"right_children":[2,4,6,-1,-1,8,-1,-1,-1],"split_conditions":[-3.2434183E-1,-7.4336416E-1,8.573214E-1,-1.1792402E-2,4.5563582E-2,-2.5925925E-1,2.6201984E-2,-3.1349573E-3,-2.95593E-2],"split_indices":[1,1,0,0,0,0,0,0,0],"split_type":[0,0,0,0,0,0,0,0,0],"sum_hessian":[2.0841858E1,4.0217476E0,1.682011E1,1.6393769E0,2.382371E0,1.5651225E1,1.1688848E0,4.646351E0,1.1004874E1],"tree_param":{"num_deleted":"0","num_feature":"3","num_nodes":"9","size_leaf_vector":"1"}},{"base_weights":[-1.713293E-2,6.616427E-1,-2.1946031E-1,-4.9647274E-3,4.909392E-2,-8.310106E-2,-4.697367E-2,-1.8121721E-2,1.2936491E-2],"categories":[],"categories_nodes":[],"categories_segments":[],"categories_sizes":[],"default_left":[0,0,0,0,0,0,0,0,0],"id":5,"left_children":[1,3,5,-1,-1,7,-1,-1,-1],"loss_changes":[3.0142503E0,1.3271592E0,1.5757427E0,0E0,0E0,1.5508243E0,0E0,0E0,0E0],"parents":[2147483647,0,0,1,1,2,2,5,5],"right_children":[2,4,6,-1,-1,8,-1,-1,-1],"split_conditions":[-2.8022426E-1,-7.443491E-1,4E0,-4.9647274E-3,4.909392E-2,3E0,-4.697367E-2,-1.8121721E-2,1.2936491E-2],"split_indices":[1,1,2,0,0,2,0,0,0],"split_type":[0,0,0,0,0,0,0,0,0],"sum_hessian":[1.9890875E1,4.046239E0,1.5844636E1,1.4028203E0,2.6434186E0,1.4259521E1,1.5851148E0,7.813941E0,6.4455795E0],"tree_param":{"num_deleted":"0","num_feature":"3","num_nodes":"9","size_leaf_vector":"1"}},{"base_weights":[5.0618086E-2,-5.215581E-2,4.8990965E-2,5.537602E-1,-2.7530828E-1,9.560307E-4,4.6306632E-2,-2.8174957E-2,4.517305E-3],"categories":[],"categories_nodes":[],"categories_segments":[],"categories_sizes":[],"default_left":[0,0,0,0,0,0,0,0,0],"id":6,"left_children":[1,3,-1,5,7,-1,-1,-1,-1],"loss_changes":[2.0845525E0,2.8731937E0,0E0,1.1266598E0,1.6709886E0,0E0,0E0,0E0,0E0],"parents":[2147483647,0,0,1,1,3,3,4,4],"right_children":[2,4,-1,6,8,-1,-1,-1,-1],"split_conditions":[8.573214E-1,-1.7108831E-1,4.8990965E-2,-4.7301617E-1,3E0,9.560307E-4,4.6306632E-2,-2.8174957E-2,4.517305E-3],"split_indices":[0,1,0,1,2,0,0,0,0],"split_type":[0,0,0,0,0,0,0,0,0],"sum_hessian":[2.0293194E1,1.9122074E1,1.1711185E0,4.748137E0,1.4373938E1,2.3809698E0,2.367167E0,7.73585E0,6.6380877E0],"tree_param":{"num_deleted":"0","num_feature":"3","num_nodes":"9","size_leaf_vector":"1"}},{"base_weights":[9.8451585E-2,4.7977116E-2,-2.3147138E-3,1.20629884E-1,-3.5504702E-2,1.2915141E-2,-8.540454E-3],"categories":[],"categories_nodes":[],"categories_segments":[],"categories_sizes":[],"default_left":[0,0,0,0,0,0,0],"id":7,"left_children":[1,-1,3,5,-1,-1,-1],"loss_changes":[1.8034501E0,0E0,1.7896175E0,7.4782246E-1,0E0,0E0,0E0],"parents":[2147483647,0,0,2,2,3,3],"right_children":[2,-1,4,6,-1,-1,-1],"split_conditions":[-2.0412414E0,4.7977116E-2,4E0,1.3943463E-2,-3.5504702E-2,1.2915141E-2,-8.540454E-3],"split_indices":[0,0,2,1,0,0,0],"split_type":[0,0,0,0,0,0,0],"sum_hessian":[1.9758919E1,1.1771575E0,1.8581762E1,1.6538511E1,2.0432513E0,1.1309644E1,5.2288666E0],"tree_param":{"num_deleted":"0","num_feature":"3","num_nodes":"7","size_leaf_vector":"1"}},{"base_weights":[1.272353E-1,3.3389235E-1,-3.8343787E-1,5.40889E-1,-5.250683E-1,-4.3613616E-2,-8.48298E-2,-2.029824E-2,3.3517264E-2,-2.9674068E-3,-3.996564E-2,1.33493235E-2,-2.0362604E-2],"categories":[],"categories_nodes":[],"categories_segments":[],"categories_sizes":[],"default_left":[0,0,0,0,0,0,0,0,0,0,0,0,0],"id":8,"left_children":[1,3,5,7,9,-1,11,-1,-1,-1,-1,-1,-1],"loss_changes":[2.3290083E0,3.018922E0,8.709855E-1,1.8518269E0,3.988703E-1,0E0,6.902565E-1,0E0,0E0,0E0,0E0,0E0,0E0],"parents":[2147483647,0,0,1,1,2,2,3,3,4,4,6,6],"right_children":[2,4,6,8,10,-1,12,-1,-1,-1,-1,-1,-1],"split_conditions":[2.307351E-2,2.0697348E-1,2E-1,-7.4336416E-1,-5.548766E-1,-4.3613616E-2,5.5256647E-1,-2.029824E-2,3.3517264E-2,-2.9674068E-3,-3.996564E-2,1.33493235E-2,-2.0362604E-2],"split_indices":[0,1,0,1,0,0,0,0,0,0,0,0,0],"split_type":[0,0,0,0,0,0,0,0,0,0,0,0,0],"sum_hessian":[1.985562E1,1.4381818E1,5.473801E0,1.1887424E1,2.4943933E0,1.3472182E0,4.126583E0,1.1728891E0,1.0714536E1,1.3752905E0,1.1191028E0,2.0555604E0,2.0710225E0],"tree_param":{"num_deleted":"0","num_feature":"3","num_nodes":"13","size_leaf_vector":"1"}},{"base_weights":[-3.6412016E-2,7.0898134E-1,-2.7013168E-1,-1.1345659E-2,5.9300948E-2,-3.6038375E-1,2.4972135E-2,3.6329483E-3,-2.6263744E-2],"categories":[],"categories_nodes":[],"categories_segments":[],"categories_sizes":[],"default_left":[0,0,0,0,0,0,0,0,0],"id":9,"left_children":[1,3,5,-1,-1,7,-1,-1,-1],"loss_changes":[3.8654954E0,2.639788E0,1.3453904E0,0E0,0E0,1.1519878E0,0E0,0E0,0E0],"parents":[2147483647,0,0,1,1,2,2,5,5],"right_children":[2,4,6,-1,-1,8,-1,-1,-1],"split_conditions":[-1.7108831E-1,-7.4336416E-1,8.573214E-1,-1.1345659E-2,5.9300948E-2,-5.548766E-1,2.4972135E-2,3.6329483E-3,-2.6263744E-2],"split_indices":[1,1,0,0,0,0,0,0,0],"split_type":[0,0,0,0,0,0,0,0,0],"sum_hessian":[2.0088985E1,4.3099513E0,1.5779035E1,1.6321614E0,2.67779E0,1.459868E1,1.1803545E0,4.180103E0,1.0418577E1],"tree_param":{"num_deleted":"0","num_feature":"3","num_nodes":"9","size_leaf_vector":"1"}},{"base_weights":[-9.067881E-3,-1.08439766E-1,4.7348488E-2,2.6360035E-3,-4.550219E-2,-5.9963064E-3,2.9452914E-2],"categories":[],"categories_nodes":[],"categories_segments":[],"categories_sizes":[],"default_left":[0,0,0,0,0,0,0],"id":10,"left_children":[1,3,-1,5,-1,-1,-1],"loss_changes":[2.2037427E0,1.8660302E0,0E0,1.4635711E0,0E0,0E0,0E0],"parents":[2147483647,0,0,1,1,3,3],"right_children":[2,4,-1,6,-1,-1,-1],"split_conditions":[8.573214E-1,5.5256647E-1,4.7348488E-2,2E-1,-4.550219E-2,-5.9963064E-3,2.9452914E-2],"split_indices":[0,0,0,0,0,0,0],"split_type":[0,0,0,0,0,0,0],"sum_hessian":[2.1115593E1,1.9930557E1,1.1850362E0,1.838036E1,1.5501976E0,1.5860925E1,2.5194347E0],"tree_param":{"num_deleted":"0","num_feature":"3","num_nodes":"7","size_leaf_vector":"1"}},{"base_weights":[3.669902E-2,5.575693E-1,-1.2087802E-1,-1.933129E-2,4.6603825E-2,-3.754656E-1,1.9589293E-1,5.4986533E-3,-3.286268E-2,2.469789E-2,-2.9214969E-2],"categories":[],"categories_nodes":[],"categories_segments":[],"categories_sizes":[],"default_left":[0,0,0,0,0,0,0,0,0,0,0],"id":11,"left_children":[1,3,5,-1,-1,7,9,-1,-1,-1,-1],"loss_changes":[1.8136951E0,2.170774E0,1.4571496E0,0E0,0E0,1.4203103E0,2.219178E0,0E0,0E0,0E0,0E0],"parents":[2147483647,0,0,1,1,2,2,5,5,6,6],"right_children":[2,4,6,-1,-1,8,10,-1,-1,-1,-1],"split_conditions":[-2.8022426E-1,-7.4336416E-1,3E0,-1.933129E-2,4.6603825E-2,-3.7032804E-1,4E0,5.4986533E-3,-3.286268E-2,2.469789E-2,-2.9214969E-2],"split_indices":[1,1,2,0,0,0,2,0,0,0,0],"split_type":[0,0,0,0,0,0,0,0,0,0,0],"sum_hessian":[2.0276276E1,4.119823E0,1.6156452E1,1.1608263E0,2.9589968E0,8.854686E0,7.3017673E0,3.4761024E0,5.378583E0,5.5487847E0,1.7529824E0],"tree_param":{"num_deleted":"0","num_feature":"3","num_nodes":"11","size_leaf_vector":"1"}},{"base_weights":[1.3939683E-1,6.7302024E-1,-8.446969E-3,-4.0742927E-3,9.983422E-1,8.517614E-2,-2.8862119E-2,6.0479607E-2,1.701395E-2,-1.0585497E-2,2.390498E-2],"categories":[],"categories_nodes":[],"categories_segments":[],"categories_sizes":[],"default_left":[0,0,0,0,0,0,0,0,0,0,0],"id":12,"left_children":[1,3,5,-1,7,9,-1,-1,-1,-1,-1],"loss_changes":[1.7712624E0,1.2761374E0,1.0349665E0,0E0,7.1701765E-2,2.0571322E0,0E0,0E0,0E0,0E0,0E0],"parents":[2147483647,0,0,1,1,2,2,4,4,5,5],"right_children":[2,4,6,-1,8,10,-1,-1,-1,-1,-1],"split_conditions":[-2.8022426E-1,-7.4336416E-1,4E0,-4.0742927E-3,-4.9236596E-1,3E0,-2.8862119E-2,6.0479607E-2,1.701395E-2,-1.0585497E-2,2.390498E-2],"split_indices":[1,1,2,0,0,2,0,0,0,0,0],"split_type":[0,0,0,0,0,0,0,0,0,0,0],"sum_hessian":[2.137942E1,3.8675938E0,1.7511826E1,1.3910079E0,2.4765859E0,1.5766869E1,1.7449577E0,1.2403138E0,1.236272E0,9.2436905E0,6.5231776E0],"tree_param":{"num_deleted":"0","num_feature":"3","num_nodes":"11","size_leaf_vector":"1"}},{"base_weights":[-1.2599584E-1,5.495385E-1,-3.5816485E-1,-1.0157209E-2,4.5376685E-2,9.759496E-3,-4.5858556E-1,-3.7738673E-2,-1.0137544E-2],"categories":[],"categories_nodes":[],"categories_segments":[],"categories_sizes":[],"default_left":[0,0,0,0,0,0,0,0,0],"id":13,"left_children":[1,3,5,-1,-1,-1,7,-1,-1],"loss_changes":[3.3742628E0,1.68697E0,9.609828E-1,0E0,0E0,0E0,8.754301E-1,0E0,0E0],"parents":[2147483647,0,0,1,1,2,2,6,6],"right_children":[2,4,6,-1,-1,-1,8,-1,-1],"split_conditions":[-2.089972E-1,-7.4336416E-1,-6.430526E-1,-1.0157209E-2,4.5376685E-2,9.759496E-3,-1.4920942E-2,-3.7738673E-2,-1.0137544E-2],"split_indices":[1,1,0,0,0,0,0,0,0],"split_type":[0,0,0,0,0,0,0,0,0],"sum_hessian":[1.925934E1,4.5764427E0,1.4682898E1,1.6145054E0,2.9619377E0,2.110354E0,1.2572544E1,4.9229035E0,7.6496406E0],"tree_param":{"num_deleted":"0","num_feature":"3","num_nodes":"9","size_leaf_vector":"1"}},{"base_weights":[2.4012409E-3,3.5789302E-1,-1.3618791E-1,-1.17750525E-1,7.0338374E-1,-3.74034E-1,1.2857002E-1,2.4046307E-2,-3.0293671E-2,7.350518E-3,4.8775658E-2,1.7876724E-3,-4.4275362E-2,2.9481405E-2,-7.759721E-3],"categories":[],"categories_nodes":[],"categories_segments":[],"categories_sizes":[],"default_left":[0,0,0,0,0,0,0,0,0,0,0,0,0,0,0],"id":14,"left_children":[1,3,5,7,9,11,13,-1,-1,-1,-1,-1,-1,-1,-1],"loss_changes":[1.1486492E0,1.1571943E0,1.1052232E0,1.3455614E0,4.516847E-1,1.9387628E0,1.228237E0,0E0,0E0,0E0,0E0,0E0,0E0,0E0,0E0],"parents":[2147483647,0,0,1,1,2,2,3,3,4,4,5,5,6,6],"right_children":[2,4,6,8,10,12,14,-1,-1,-1,-1,-1,-1,-1,-1],"split_conditions":[-1.7108831E-1,-4.7301617E-1,0E0,-1E0,-3.2163376E-1,-2.5925925E-1,5.1102556E-2,2.4046307E-2,-3.0293671E-2,7.350518E-3,4.8775658E-2,1.7876724E-3,-4.4275362E-2,2.9481405E-2,-7.759721E-3],"split_indices":[1,1,0,0,0,0,0,0,0,0,0,0,0,0,0],"split_type":[0,0,0,0,0,0,0,0,0,0,0,0,0,0,0],"sum_hessian":[2.1325323E1,5.537867E0,1.5787456E1,2.6073956E0,2.9304717E0,8.098976E0,7.6884794E0,1.1777022E0,1.4296935E0,1.4684408E0,1.4620308E0,5.0128365E0,3.0861397E0,2.518524E0,5.1699557E0],"tree_param":{"num_deleted":"0","num_feature":"3","num_nodes":"15","size_leaf_vector":"1"}},{"base_weights":[-2.8313374E-2,-1.07506074E-1,3.3924725E-2,-3.7942037E-3,-4.413396E-2,-6.0635596E-3,2.866649E-2],"categories":[],"categories_nodes":[],"categories_segments":[],"categories_sizes":[],"default_left":[0,0,0,0,0,0,0],"id":15,"left_children":[1,3,-1,5,-1,-1,-1],"loss_changes":[1.3460327E0,1.71034E0,0E0,1.4122771E0,0E0,0E0,0E0],"parents":[2147483647,0,0,1,1,3,3],"right_children":[2,4,-1,6,-1,-1,-1],"split_conditions":[8.573214E-1,5.5256647E-1,3.3924725E-2,2E-1,-4.413396E-2,-6.0635596E-3,2.866649E-2],"split_indices":[0,0,0,0,0,0,0],"split_type":[0,0,0,0,0,0,0],"sum_hessian":[2.174431E1,2.0315954E1,1.4283564E0,1.8804905E1,1.5110489E0,1.6280735E1,2.5241697E0],"tree_param":{"num_deleted":"0","num_feature":"3","num_nodes":"7","size_leaf_vector":"1"}},{"base_weights":[-6.3186966E-2,-1.6748063E-1,4.610323E-2,-4.682053E-2,-3.746259E-2,-4.090048E-2,2.7616208E-3],"categories":[],"categories_nodes":[],"categories_segments":[],"categories_sizes":[],"default_left":[0,0,0,0,0,0,0],"id":16,"left_children":[1,3,-1,5,-1,-1,-1],"loss_changes":[2.3448226E0,1.3774419E0,0E0,1.4407672E0,0E0,0E0,0E0],"parents":[2147483647,0,0,1,1,3,3],"right_children":[2,4,-1,6,-1,-1,-1],"split_conditions":[8.573214E-1,3.8556784E-1,4.610323E-2,-7.4336416E-1,-3.746259E-2,-4.090048E-2,2.7616208E-3],"split_indices":[0,1,0,1,0,0,0],"split_type":[0,0,0,0,0,0,0],"sum_hessian":[2.031657E1,1.9122385E1,1.194185E0,1.6732517E1,2.3898668E0,1.1355915E0,1.5596927E1],"tree_param":{"num_deleted":"0","num_feature":"3","num_nodes":"7","size_leaf_vector":"1"}},{"base_weights":[2.4169164E-2,4.4959698E-2,-6.8518065E-2,-3.5928603E-2,3.309662E-2,3.3234425E-2,-4.7275377E-3],"categories":[],"categories_nodes":[],"categories_segments":[],"categories_sizes":[],"default_left":[0,0,0,0,0,0,0],"id":17,"left_children":[1,-1,3,-1,5,-1,-1],"loss_changes":[1.858951E0,0E0,1.4088011E0,0E0,1.6018296E0,0E0,0E0],"parents":[2147483647,0,0,2,2,4,4],"right_children":[2,-1,4,-1,6,-1,-1],"split_conditions":[-2.300336E0,4.4959698E-2,-8.247861E-1,-3.5928603E-2,-5.548766E-1,3.3234425E-2,-4.7275377E-3],"split_indices":[0,0,0,0,0,0,0],"split_type":[0,0,0,0,0,0,0],"sum_hessian":[2.1161032E1,1.1933826E0,1.996765E1,1.8785526E0,1.8089096E1,2.333895E0,1.5755202E1],"tree_param":{"num_deleted":"0","num_feature":"3","num_nodes":"7","size_leaf_vector":"1"}},{"base_weights":[4.307955E-2,-5.6388594E-2,4.693396E-2,3.8307026E-1,-2.2857064E-1,-8.724272E-3,3.1101137E-2,-2.3211226E-2,2.4555842E-3],"categories":[],"categories_nodes":[],"categories_segments":[],"categories_sizes":[],"default_left":[0,0,0,0,0,0,0,0,0],"id":18,"left_children":[1,3,-1,5,7,-1,-1,-1,-1],"loss_changes":[1.9476997E0,1.6074612E0,0E0,9.1167885E-1,1.008178E0,0E0,0E0,0E0,0E0],"parents":[2147483647,0,0,1,1,3,3,4,4],"right_children":[2,4,-1,6,8,-1,-1,-1,-1],"split_conditions":[8.1315714E-1,-1.7108831E-1,4.693396E-2,-7.4336416E-1,3E0,-8.724272E-3,3.1101137E-2,-2.3211226E-2,2.4555842E-3],"split_indices":[0,1,0,1,2,0,0,0,0],"split_type":[0,0,0,0,0,0,0,0,0],"sum_hessian":[2.0269547E1,1.908675E1,1.182797E0,5.02829E0,1.405846E1,1.5894241E0,3.4388654E0,7.2413435E0,6.817117E0],"tree_param":{"num_deleted":"0","num_feature":"3","num_nodes":"9","size_leaf_vector":"1"}},{"base_weights":[-1.0411389E-1,3.187485E-1,-4.0726787E-1,4.4318548E-1,-1.4930091E-2,-3.966639E-2,-2.181388E-1,8.362132E-3,3.480785E-2,1.248104E-2,-2.4682393E-2],"categories":[],"categories_nodes":[],"categories_segments":[],"categories_sizes":[],"default_left":[0,0,0,0,0,0,0,0,0,0,0],"id":19,"left_children":[1,3,5,7,-1,-1,9,-1,-1,-1,-1],"loss_changes":[2.698034E0,8.180694E-1,7.109921E-1,4.3025458E-1,0E0,0E0,1.3482575E0,0E0,0E0,0E0,0E0],"parents":[2147483647,0,0,1,1,2,2,3,3,6,6],"right_children":[2,4,6,8,-1,-1,10,-1,-1,-1,-1],"split_conditions":[-2.5925925E-1,2.0697348E-1,0E0,-3.1927545E-2,-1.4930091E-2,-3.966639E-2,5.1102556E-2,8.362132E-3,3.480785E-2,1.248104E-2,-2.4682393E-2],"split_indices":[0,1,0,1,0,0,0,0,0,0,0],"split_type":[0,0,0,0,0,0,0,0,0,0,0],"sum_hessian":[1.9034088E1,7.926357E0,1.1107731E1,6.831478E0,1.0948787E0,2.6019208E0,8.505811E0,4.0618744E0,2.769604E0,3.187698E0,5.3181124E0],"tree_param":{"num_deleted":"0","num_feature":"3","num_nodes":"11","size_leaf_vector":"1"}},{"base_weights":[6.551235E-2,6.3166994E-1,-8.872459E-2,-2.2667027E-3,4.544038E-2,-2.0708841E-1,4.309114E-2,7.2079822E-3,-1.9893209E-2],"categories":[],"categories_nodes":[],"categories_segments":[],"categories_sizes":[],"default_left":[0,0,0,0,0,0,0,0,0],"id":20,"left_children":[1,3,5,-1,-1,7,-1,-1,-1],"loss_changes":[1.9867612E0,9.524807E-1,2.2321525E0,0E0,0E0,1.1990833E0,0E0,0E0,0E0],"parents":[2147483647,0,0,1,1,2,2,5,5],"right_children":[2,4,6,-1,-1,8,-1,-1,-1],"split_conditions":[-2.8022426E-1,-7.4336416E-1,8.573214E-1,-2.2667027E-3,4.544038E-2,-2.5925925E-1,4.309114E-2,7.2079822E-3,-1.9893209E-2],"split_indices":[1,1,0,0,0,0,0,0,0],"split_type":[0,0,0,0,0,0,0,0,0],"sum_hessian":[2.1110203E1,3.85697E0,1.7253233E1,1.3632306E0,2.4937394E0,1.603826E1,1.2149742E0,5.730979E0,1.030728E1],"tree_param":{"num_deleted":"0","num_feature":"3","num_nodes":"9","size_leaf_vector":"1"}},{"base_weights":[1.0694634E-1,4.3029714E-2,1.181723E-2,-9.43583E-2,4.175413E-2,3.1105563E-4,-3.893393E-2],"categories":[],"categories_nodes":[],"categories_segments":[],"categories_sizes":[],"default_left":[0,0,0,0,0,0,0],"id":21,"left_children":[1,-1,3,5,-1,-1,-1],"loss_changes":[1.4074467E0,0E0,1.702098E0,1.1988808E0,0E0,0E0,0E0],"parents":[2147483647,0,0,2,2,3,3],"right_children":[2,-1,4,6,-1,-1,-1],"split_conditions":[-2.300336E0,4.3029714E-2,8.573214E-1,5.5256647E-1,4.175413E-2,3.1105563E-4,-3.893393E-2],"split_indices":[0,0,0,0,0,0,0],"split_type":[0,0,0,0,0,0,0],"sum_hessian":[1.8773195E1,1.2022147E0,1.757098E1,1.6347984E1,1.2229946E0,1.5117036E1,1.2309493E0],"tree_param":{"num_deleted":"0","num_feature":"3","num_nodes":"7","size_leaf_vector":"1"}},{"base_weights":[3.8197014E-2,5.7227564E-1,-1.8881176E-1,5.742376E-3,6.58527E-1,-4.423692E-1,3.4419656E-1,3.859152E-2,1.185825E-2,-8.237225E-3,-4.9287695E-2,3.1101426E-2,-2.5882353E-3],"categories":[],"categories_nodes":[],"categories_segments":[],"categories_sizes":[],"default_left":[0,0,0,0,0,0,0,0,0,0,0,0,0],"id":22,"left_children":[1,3,5,-1,7,9,11,-1,-1,-1,-1,-1,-1],"loss_changes":[2.3703322E0,1.5373886E-1,2.0235E0,0E0,4.0383816E-2,1.3190302E0,5.8508503E-1,0E0,0E0,0E0,0E0,0E0,0E0],"parents":[2147483647,0,0,1,1,2,2,4,4,5,5,6,6],"right_children":[2,4,6,-1,8,10,12,-1,-1,-1,-1,-1,-1],"split_conditions":[-1.7108831E-1,-7.443491E-1,2E-1,5.742376E-3,-2.8022426E-1,2.0697348E-1,5.5256647E-1,3.859152E-2,1.185825E-2,-8.237225E-3,-4.9287695E-2,3.1101426E-2,-2.5882353E-3],"split_indices":[1,1,0,0,1,1,0,0,0,0,0,0,0],"split_type":[0,0,0,0,0,0,0,0,0,0,0,0,0],"sum_hessian":[1.7659433E1,4.813612E0,1.2845821E1,1.1335346E0,3.6800778E0,8.820075E0,4.0257463E0,2.2447245E0,1.435353E0,6.7000732E0,2.1200018E0,2.0302556E0,1.995491E0],"tree_param":{"num_deleted":"0","num_feature":"3","num_nodes":"13","size_leaf_vector":"1"}},{"base_weights":[3.6371186E-2,1.5663989E-1,-4.297322E-2,4.449305E-2,5.205551E-2,-4.231481E-2,8.607376E-3],"categories":[],"categories_nodes":[],"categories_segments":[],"categories_sizes":[],"default_left":[0,0,0,0,0,0,0],"id":23,"left_children":[1,3,-1,-1,5,-1,-1],"loss_changes":[2.2273676E0,1.3317263E0,0E0,0E0,1.9570149E0,0E0,0E0],"parents":[2147483647,0,0,1,1,4,4],"right_children":[2,4,-1,-1,6,-1,-1],"split_conditions":[5.5256647E-1,-2.0412414E0,-4.297322E-2,4.449305E-2,-1.07349E0,-4.231481E-2,8.607376E-3],"split_indices":[0,0,0,0,0,0,0],"split_type":[0,0,0,0,0,0,0],"sum_hessian":[1.8423819E1,1.6970608E1,1.4532101E0,1.1811619E0,1.5789447E1,1.1487942E0,1.4640653E1],"tree_param":{"num_deleted":"0","num_feature":"3","num_nodes":"7","size_leaf_vector":"1"}},{"base_weights":[-2.5022125E-2,5.352002E-1,-1.7581211E-1,3.786044E-2,6.503062E-3,-4.4145876E-1,1.2748174E-1,-3.2284044E-2,8.740449E-3,1.757514E-2,-2.7185125E-2],"categories":[],"categories_nodes":[],"categories_segments":[],"categories_sizes":[],"default_left":[0,0,0,0,0,0,0,0,0,0,0],"id":24,"left_children":[1,3,5,-1,-1,7,9,-1,-1,-1,-1],"loss_changes":[1.939455E0,3.4045136E-1,1.5036793E0,0E0,0E0,1.3463564E0,1.5689961E0,0E0,0E0,0E0,0E0],"parents":[2147483647,0,0,1,1,2,2,5,5,6,6],"right_children":[2,4,6,-1,-1,8,10,-1,-1,-1,-1],"split_conditions":[-2.8022426E-1,-5.548766E-1,3E0,3.786044E-2,6.503062E-3,2E-1,4E0,-3.2284044E-2,8.740449E-3,1.757514E-2,-2.7185125E-2],"split_indices":[1,0,2,0,0,0,2,0,0,0,0],"split_type":[0,0,0,0,0,0,0,0,0,0,0],"sum_hessian":[2.0844812E1,3.880072E0,1.696474E1,1.945154E0,1.9349183E0,8.800809E0,8.163932E0,6.574416E0,2.2263927E0,6.478049E0,1.6858826E0],"tree_param":{"num_deleted":"0","num_feature":"3","num_nodes":"11","size_leaf_vector":"1"}},{"base_weights":[1.0580491E-1,1.7630368E-2,4.1496318E-2,1.21262565E-1,-3.0698752E-2,-1.105667E-2,1.4980105E-2],"categories":[],"categories_nodes":[],"categories_segments":[],"categories_sizes":[],"default_left":[0,0,0,0,0,0,0],"id":25,"left_children":[1,3,-1,5,-1,-1,-1],"loss_changes":[1.3064456E0,1.3486166E0,0E0,1.1383697E0,0E0,0E0,0E0],"parents":[2147483647,0,0,1,1,3,3],"right_children":[2,4,-1,6,-1,-1,-1],"split_conditions":[8.573214E-1,3.1333977E-1,4.1496318E-2,-5.767504E-1,-3.0698752E-2,-1.105667E-2,1.4980105E-2],"split_indices":[0,0,0,0,0,0,0],"split_type":[0,0,0,0,0,0,0],"sum_hessian":[1.9690626E1,1.8466368E1,1.2242584E0,1.6557642E1,1.9087265E0,5.5884194E0,1.0969223E1],"tree_param":{"num_deleted":"0","num_feature":"3","num_nodes":"7","size_leaf_vector":"1"}},{"base_weights":[2.9468482E-2,3.7739944E-1,-1.4481758E-1,9.6483424E-2,3.7906747E-2,-3.2496005E-1,1.2625748E-1,2.3106568E-2,-2.0134741E-2,-6.709353E-3,-4.1688215E-2,-1.1720973E-2,2.723763E-2],"categories":[],"categories_nodes":[],"categories_segments":[],"categories_sizes":[],"default_left":[0,0,0,0,0,0,0,0,0,0,0,0,0],"id":26,"left_children":[1,3,5,7,-1,9,11,-1,-1,-1,-1,-1,-1],"loss_changes":[1.4044127E0,7.510456E-1,8.005018E-1,1.2045975E0,0E0,8.2221866E-1,1.1736352E0,0E0,0E0,0E0,0E0,0E0,0E0],"parents":[2147483647,0,0,1,1,2,2,3,3,5,5,6,6],"right_children":[2,4,6,8,-1,10,12,-1,-1,-1,-1,-1,-1],"split_conditions":[-3.0882737E-2,-1.6230053E-1,1.5971914E-1,-3.6697313E-1,3.7906747E-2,1.3943463E-2,2.307351E-2,2.3106568E-2,-2.0134741E-2,-6.709353E-3,-4.1688215E-2,-1.1720973E-2,2.723763E-2],"split_indices":[1,0,1,1,0,1,0,0,0,0,0,0,0],"split_type":[0,0,0,0,0,0,0,0,0,0,0,0,0],"sum_hessian":[2.1258732E1,6.706E0,1.4552732E1,4.5801015E0,2.1258981E0,8.623329E0,5.9294024E0,2.6864753E0,1.8936265E0,7.1908827E0,1.4324471E0,3.420941E0,2.5084612E0],"tree_param":{"num_deleted":"0","num_feature":"3","num_nodes":"13","size_leaf_vector":"1"}},{"base_weights":[-1.9210923E-1,-3.344733E-1,3.0433673E-1,4.248496E-2,-5.488027E-1,5.1274527E-2,-4.437166E-1,-1.4058977E-2,1.7351272E-2,1.4650804E-2,-3.7270706E-2,4.798319E-3,-3.908654E-2],"categories":[],"categories_nodes":[],"categories_segments":[],"categories_sizes":[],"default_left":[0,0,0,0,0,0,0,0,0,0,0,0,0],"id":27,"left_children":[1,3,5,7,9,-1,11,-1,-1,-1,-1,-1,-1],"loss_changes":[1.5361892E0,1.3361077E0,3.1774619E0,7.6961875E-1,1.9448318E0,0E0,6.542193E-1,0E0,0E0,0E0,0E0,0E0,0E0],"parents":[2147483647,0,0,1,1,2,2,3,3,4,4,6,6],"right_children":[2,4,6,8,10,-1,12,-1,-1,-1,-1,-1,-1],"split_conditions":[2E-1,-5.548766E-1,5.5256647E-1,-6.1898448E-2,-3.6697313E-1,5.1274527E-2,3E0,-1.4058977E-2,1.7351272E-2,1.4650804E-2,-3.7270706E-2,4.798319E-3,-3.908654E-2],"split_indices":[0,0,0,1,1,0,2,0,0,0,0,0,0],"split_type":[0,0,0,0,0,0,0,0,0,0,0,0,0],"sum_hessian":[1.9295366E1,1.5248789E1,4.046578E0,5.8179927E0,9.430796E0,1.8714983E0,2.1750796E0,2.8576264E0,2.9603662E0,1.6927456E0,7.7380505E0,1.1134313E0,1.0616482E0],"tree_param":{"num_deleted":"0","num_feature":"3","num_nodes":"13","size_leaf_vector":"1"}},{"base_weights":[4.141836E-2,-3.1067478E-2,2.9624594E-2,7.2927415E-2,-5.310814E-1,-2.1278195E-3,4.494989E-2,-1.7364383E-3,-4.0587213E-2],"categories":[],"categories_nodes":[],"categories_segments":[],"categories_sizes":[],"default_left":[0,0,0,0,0,0,0,0,0],"id":28,"left_children":[1,3,-1,5,7,-1,-1,-1,-1],"loss_changes":[8.838114E-1,1.0837322E0,0E0,1.7092217E0,4.7065115E-1,0E0,0E0,0E0,0E0],"parents":[2147483647,0,0,1,1,3,3,4,4],"right_children":[2,4,-1,6,8,-1,-1,-1,-1],"split_conditions":[7.2336423E-1,3.1333977E-1,2.9624594E-2,2E-1,1.3943463E-2,-2.1278195E-3,4.494989E-2,-1.7364383E-3,-4.0587213E-2],"split_indices":[1,0,0,0,1,0,0,0,0],"split_type":[0,0,0,0,0,0,0,0,0],"sum_hessian":[2.066488E1,1.9096617E1,1.5682629E0,1.6515753E1,2.5808635E0,1.5322207E1,1.1935458E0,1.3381255E0,1.242738E0],"tree_param":{"num_deleted":"0","num_feature":"3","num_nodes":"9","size_leaf_vector":"1"}},{"base_weights":[-4.0812425E-2,1.4711627E-1,-4.3518218E-1,6.1103106E-1,-2.1562397E-2,-6.964537E-1,2.1907784E-2,7.6216944E-5,4.3580797E-2,-1.8179877E-2,1.797671E-2,-4.7891517E-3,-4.3317847E-2],"categories":[],"categories_nodes":[],"categories_segments":[],"categories_sizes":[],"default_left":[0,0,0,0,0,0,0,0,0,0,0,0,0],"id":29,"left_children":[1,3,5,7,9,11,-1,-1,-1,-1,-1,-1,-1],"loss_changes":[1.5777173E0,1.1540829E0,1.8668576E0,6.215539E-1,1.6503378E0,4.940765E-1,0E0,0E0,0E0,0E0,0E0,0E0,0E0],"parents":[2147483647,0,0,1,1,2,2,3,3,4,4,5,5],"right_children":[2,4,6,8,10,12,-1,-1,-1,-1,-1,-1,-1],"split_conditions":[5.1102556E-2,-3.2434183E-1,8.1315714E-1,-6.463987E-1,3E0,-7.8939855E-2,2.1907784E-2,7.6216944E-5,4.3580797E-2,-1.8179877E-2,1.797671E-2,-4.7891517E-3,-4.3317847E-2],"split_indices":[0,1,0,0,2,1,0,0,0,0,0,0,0],"split_type":[0,0,0,0,0,0,0,0,0,0,0,0,0],"sum_hessian":[1.9424036E1,1.3579816E1,5.84422E0,2.921739E0,1.0658077E1,4.6543446E0,1.1898755E0,1.1762786E0,1.7454605E0,5.6410966E0,5.01698E0,1.3710229E0,3.2833219E0],"tree_param":{"num_deleted":"0","num_feature":"3","num_nodes":"13","size_leaf_vector":"1"}},{"base_weights":[-1.9413646E-2,4.5054588E-1,-1.8254437E-1,-6.8525183E-3,4.248288E-2,-3.4103984E-1,2.733179E-1,-9.587317E-3,-4.2165324E-2,4.7386892E-2,-1.1956677E-2],"categories":[],"categories_nodes":[],"categories_segments":[],"categories_sizes":[],"default_left":[0,0,0,0,0,0,0,0,0,0,0],"id":30,"left_children":[1,3,5,-1,-1,7,9,-1,-1,-1,-1],"loss_changes":[1.6114546E0,1.3894198E0,1.2144651E0,0E0,0E0,7.351154E-1,1.8021553E0,0E0,0E0,0E0,0E0],"parents":[2147483647,0,0,1,1,2,2,5,5,6,6],"right_children":[2,4,6,-1,-1,8,10,-1,-1,-1,-1],"split_conditions":[-6.405126E-1,-1.3055824E0,2E-1,-6.8525183E-3,4.248288E-2,5.1102556E-2,5.5256647E-1,-9.587317E-3,-4.2165324E-2,4.7386892E-2,-1.1956677E-2],"split_indices":[0,0,0,0,0,0,0,0,0,0,0],"split_type":[0,0,0,0,0,0,0,0,0,0,0],"sum_hessian":[1.8946693E1,4.4280777E0,1.4518617E1,2.0566967E0,2.3713808E0,1.095992E1,3.5586963E0,9.5138035E0,1.4461169E0,1.1697751E0,2.388921E0],"tree_param":{"num_deleted":"0","num_feature":"3","num_nodes":"11","size_leaf_vector":"1"}},{"base_weights":[-2.9103E-2,4.002761E-2,-1.2464248E-1,-5.0225087E-2,3.0668792E-3,7.227683E-3,-3.497159E-2],"categories":[],"categories_nodes":[],"categories_segments":[],"categories_sizes":[],"default_left":[0,0,0,0,0,0,0],"id":31,"left_children":[1,-1,3,-1,5,-1,-1],"loss_changes":[1.6965163E0,0E0,2.1301043E0,0E0,1.8431929E0,0E0,0E0],"parents":[2147483647,0,0,2,2,4,4],"right_children":[2,-1,4,-1,6,-1,-1],"split_conditions":[-2.300336E0,4.002761E-2,-4.7301617E-1,-5.0225087E-2,4E0,7.227683E-3,-3.497159E-2],"split_indices":[0,0,1,0,2,0,0],"split_type":[0,0,0,0,0,0,0],"sum_hessian":[1.9144289E1,1.2149038E0,1.7929384E1,1.4023441E0,1.652704E1,1.4417511E1,2.10953E0],"tree_param":{"num_deleted":"0","num_feature":"3","num_nodes":"7","size_leaf_vector":"1"}},{"base_weights":[4.4222604E-2,-4.1139446E-2,4.0064078E-2,3.5023332E-1,-2.0254244E-1,3.747272E-3,4.1540306E-2,-4.1744627E-2,-4.0987246E-3],"categories":[],"categories_nodes":[],"categories_segments":[],"categories_sizes":[],"default_left":[0,0,0,0,0,0,0,0,0],"id":32,"left_children":[1,3,-1,5,7,-1,-1,-1,-1],"loss_changes":[1.4258348E0,1.354563E0,0E0,7.711649E-1,1.0767665E0,0E0,0E0,0E0,0E0],"parents":[2147483647,0,0,1,1,3,3,4,4],"right_children":[2,4,-1,6,8,-1,-1,-1,-1],"split_conditions":[8.573214E-1,-1.7108831E-1,4.0064078E-2,-1.6230053E-1,-3.1927545E-2,3.747272E-3,4.1540306E-2,-4.1744627E-2,-4.0987246E-3],"split_indices":[0,1,0,0,1,0,0,0,0],"split_type":[0,0,0,0,0,0,0,0,0],"sum_hessian":[2.055342E1,1.932059E1,1.2328305E0,5.299745E0,1.40208435E1,4.1045017E0,1.1952434E0,1.2964756E0,1.2724368E1],"tree_param":{"num_deleted":"0","num_feature":"3","num_nodes":"9","size_leaf_vector":"1"}},{"base_weights":[5.323985E-2,-1.0413814E-1,5.089687E-1,5.356456E-2,-4.9351794E-1,-2.8076297E-2,5.5526298E-2,-1.3458446E-2,2.6222536E-2,-3.9146807E-2,-6.7782225E-3,-1.5003142E-2,1.0323122E-2],"categories":[],"categories_nodes":[],"categories_segments":[],"categories_sizes":[],"default_left":[0,0,0,0,0,0,0,0,0,0,0,0,0],"id":33,"left_children":[1,3,5,7,9,11,-1,-1,-1,-1,-1,-1,-1],"loss_changes":[1.4154665E0,9.4448745E-1,1.6613764E0,1.8953519E0,3.5047626E-1,2.9423678E-1,0E0,0E0,0E0,0E0,0E0,0E0,0E0],"parents":[2147483647,0,0,1,1,2,2,3,3,4,4,5,5],"right_children":[2,4,6,8,10,12,-1,-1,-1,-1,-1,-1,-1],"split_conditions":[1.3752283E-1,2.307351E-2,3E0,-1.6230053E-1,2E-1,-6.303715E-1,5.5526298E-2,-1.3458446E-2,2.6222536E-2,-3.9146807E-2,-6.7782225E-3,-1.5003142E-2,1.0323122E-2],"split_indices":[1,0,2,0,0,0,0,0,0,0,0,0,0],"split_type":[0,0,0,0,0,0,0,0,0,0,0,0,0],"sum_hessian":[1.7996532E1,1.3950472E1,4.0460606E0,1.054292E1,3.4075518E0,2.6413243E0,1.4047362E0,6.5097084E0,4.0332117E0,1.2276758E0,2.179876E0,1.0936646E0,1.5476598E0],"tree_param":{"num_deleted":"0","num_feature":"3","num_nodes":"13","size_leaf_vector":"1"}},{"base_weights":[-3.1738427E-2,4.0010402E-1,-2.1730098E-1,-3.597681E-3,5.396315E-1,-5.098251E-1,2.540464E-1,3.6866184E-2,1.434439E-3,-3.04067E-3,-4.205021E-2,-1.1586702E-2,4.3774772E-2],"categories":[],"categories_nodes":[],"categories_segments":[],"categories_sizes":[],"default_left":[0,0,0,0,0,0,0,0,0,0,0,0,0],"id":34,"left_children":[1,3,5,-1,7,9,11,-1,-1,-1,-1,-1,-1],"loss_changes":[1.7373883E0,4.697286E-1,2.205165E0,0E0,5.0079167E-1,1.3796229E0,2.1447217E0,0E0,0E0,0E0,0E0,0E0,0E0],"parents":[2147483647,0,0,1,1,2,2,4,4,5,5,6,6],"right_children":[2,4,6,-1,8,10,12,-1,-1,-1,-1,-1,-1],"split_conditions":[-1.7108831E-1,-7.4336416E-1,1.3752283E-1,-3.597681E-3,3E0,-1.5430336E-1,2.307351E-2,3.6866184E-2,1.434439E-3,-3.04067E-3,-4.205021E-2,-1.1586702E-2,4.3774772E-2],"split_indices":[1,1,1,0,2,0,0,0,0,0,0,0,0],"split_type":[0,0,0,0,0,0,0,0,0,0,0,0,0],"sum_hessian":[1.9596123E1,5.5421724E0,1.4053949E1,1.3748846E0,4.167288E0,8.621627E0,5.432323E0,2.6852534E0,1.4820344E0,4.16218E0,4.4594464E0,3.4009452E0,2.031378E0],"tree_param":{"num_deleted":"0","num_feature":"3","num_nodes":"13","size_leaf_vector":"1"}},{"base_weights":[-3.3060692E-2,5.99333E-1,-2.1371514E-1,-2.8559284E-3,4.2735957E-2,-3.0641007E-1,2.3660969E-2,-6.944378E-3,-4.0032204E-2],"categories":[],"categories_nodes":[],"categories_segments":[],"categories_sizes":[],"default_left":[0,0,0,0,0,0,0,0,0],"id":35,"left_children":[1,3,5,-1,-1,7,-1,-1,-1],"loss_changes":[2.6122534E0,9.028727E-1,1.2688662E0,0E0,0E0,1.2266425E0,0E0,0E0,0E0],"parents":[2147483647,0,0,1,1,2,2,5,5],"right_children":[2,4,6,-1,-1,8,-1,-1,-1],"split_conditions":[-2.8022426E-1,-7.4336416E-1,8.573214E-1,-2.8559284E-3,4.2735957E-2,3.104602E-1,2.3660969E-2,-6.944378E-3,-4.0032204E-2],"split_indices":[1,1,0,0,0,1,0,0,0],"split_type":[0,0,0,0,0,0,0,0,0],"sum_hessian":[2.0744257E1,4.0943007E0,1.6649956E1,1.3641629E0,2.730138E0,1.5158424E1,1.4915316E0,1.2277824E1,2.8806002E0],"tree_param":{"num_deleted":"0","num_feature":"3","num_nodes":"9","size_leaf_vector":"1"}},{"base_weights":[2.2884423E-1,7.471354E-1,8.935139E-2,8.302022E-3,5.613291E-2,-2.656882E-1,1.63946E-1,-2.6268024E-2,7.980625E-3,3.592403E-2,1.7993154E-3],"categories":[],"categories_nodes":[],"categories_segments":[],"categories_sizes":[],"default_left":[0,0,0,0,0,0,0,0,0,0,0],"id":36,"left_children":[1,3,5,-1,-1,7,9,-1,-1,-1,-1],"loss_changes":[1.4755692E0,7.7114606E-1,5.1880956E-1,0E0,0E0,4.7008455E-1,1.0702747E0,0E0,0E0,0E0,0E0],"parents":[2147483647,0,0,1,1,2,2,5,5,6,6],"right_children":[2,4,6,-1,-1,8,10,-1,-1,-1,-1],"split_conditions":[-2.8022426E-1,-6.463987E-1,-9.4518906E-1,8.302022E-3,5.613291E-2,8.537347E-2,-5.548766E-1,-2.6268024E-2,7.980625E-3,3.592403E-2,1.7993154E-3],"split_indices":[1,0,0,0,0,1,0,0,0,0,0],"split_type":[0,0,0,0,0,0,0,0,0,0,0],"sum_hessian":[2.033294E1,3.3881285E0,1.6944809E1,1.8961415E0,1.491987E0,2.4972355E0,1.4447575E1,1.4044589E0,1.0927768E0,1.8435117E0,1.2604063E1],"tree_param":{"num_deleted":"0","num_feature":"3","num_nodes":"11","size_leaf_vector":"1"}},{"base_weights":[3.150742E-2,4.1946262E-2,-5.8661558E-2,-1.4824036E-1,3.5543855E-2,-1.9171629E-3,-3.3125147E-2],"categories":[],"categories_nodes":[],"categories_segments":[],"categories_sizes":[],"default_left":[0,0,0,0,0,0,0],"id":37,"left_children":[1,-1,3,5,-1,-1,-1],"loss_changes":[1.582659E0,0E0,1.4758925E0,1.0278211E0,0E0,0E0,0E0],"parents":[2147483647,0,0,2,2,3,3],"right_children":[2,-1,4,6,-1,-1,-1],"split_conditions":[-2.0294442E0,4.1946262E-2,8.573214E-1,3.8556784E-1,3.5543855E-2,-1.9171629E-3,-3.3125147E-2],"split_indices":[0,0,0,1,0,0,0],"split_type":[0,0,0,0,0,0,0],"sum_hessian":[2.0062656E1,1.1812484E0,1.8881407E1,1.7635855E1,1.2455523E0,1.5416033E1,2.2198222E0],"tree_param":{"num_deleted":"0","num_feature":"3","num_nodes":"7","size_leaf_vector":"1"}},{"base_weights":[5.932423E-2,5.3608423E-1,-9.4831415E-2,-4.3339212E-3,7.9161423E-1,-4.273103E-1,2.6242092E-1,4.878569E-2,1.5448737E-2,2.0621965E-2,-3.140596E-2,2.3002049E-2,-2.0924898E-2],"categories":[],"categories_nodes":[],"categories_segments":[],"categories_sizes":[],"default_left":[0,0,0,0,0,0,0,0,0,0,0,0,0],"id":38,"left_children":[1,3,5,-1,7,9,11,-1,-1,-1,-1,-1,-1],"loss_changes":[1.53779E0,8.7920094E-1,2.0290172E0,0E0,2.821517E-2,1.7327807E0,1.3226998E0,0E0,0E0,0E0,0E0,0E0,0E0],"parents":[2147483647,0,0,1,1,2,2,4,4,5,5,6,6],"right_children":[2,4,6,-1,8,10,12,-1,-1,-1,-1,-1,-1],"split_conditions":[-2.8022426E-1,-7.443491E-1,3E0,-4.3339212E-3,-4.9236596E-1,2E0,4E0,4.878569E-2,1.5448737E-2,2.0621965E-2,-3.140596E-2,2.3002049E-2,-2.0924898E-2],"split_indices":[1,1,2,0,0,2,2,0,0,0,0,0,0],"split_type":[0,0,0,0,0,0,0,0,0,0,0,0,0],"sum_hessian":[1.923195E1,4.093709E0,1.5138242E1,1.3832712E0,2.7104378E0,7.739413E0,7.3988295E0,1.2225025E0,1.4879353E0,1.2901844E0,6.4492283E0,5.985939E0,1.4128902E0],"tree_param":{"num_deleted":"0","num_feature":"3","num_nodes":"13","size_leaf_vector":"1"}},{"base_weights":[4.8179682E-2,1.922746E-1,-6.173848E-1,6.357016E-2,5.2539684E-2,-4.3027136E-2,-4.5599258E-3,9.80075E-3,-3.8964536E-2],"categories":[],"categories_nodes":[],"categories_segments":[],"categories_sizes":[],"default_left":[0,0,0,0,0,0,0,0,0],"id":39,"left_children":[1,3,5,7,-1,-1,-1,-1,-1],"loss_changes":[1.9972607E0,1.7966201E0,3.979287E-1,1.908739E0,0E0,0E0,0E0,0E0,0E0],"parents":[2147483647,0,0,1,1,2,2,3,3],"right_children":[2,4,6,8,-1,-1,-1,-1,-1],"split_conditions":[3.8556784E-1,1.5971914E-1,7.2336423E-1,1.3943463E-2,5.2539684E-2,-4.3027136E-2,-4.5599258E-3,9.80075E-3,-3.8964536E-2],"split_indices":[1,1,1,1,0,0,0,0,0],"split_type":[0,0,0,0,0,0,0,0,0],"sum_hessian":[1.8587759E1,1.5864253E1,2.723505E0,1.4730051E1,1.1342016E0,1.4281185E0,1.2953866E0,1.339296E1,1.3370919E0],"tree_param":{"num_deleted":"0","num_feature":"3","num_nodes":"9","size_leaf_vector":"1"}},{"base_weights":[-3.8313452E-2,3.5405448E-1,-2.2842012E-1,3.73387E-2,1.5932451E-1,-1.0197473E-1,-3.5376266E-2,-2.630319E-2,2.0984804E-2,-2.2715516E-2,9.720712E-3],"categories":[],"categories_nodes":[],"categories_segments":[],"categories_sizes":[],"default_left":[0,0,0,0,0,0,0,0,0,0,0],"id":40,"left_children":[1,3,5,-1,7,9,-1,-1,-1,-1,-1],"loss_changes":[1.704955E0,4.5445162E-1,8.5319453E-1,0E0,1.3421994E0,1.4723649E0,0E0,0E0,0E0,0E0,0E0],"parents":[2147483647,0,0,1,1,2,2,4,4,5,5],"right_children":[2,4,6,-1,8,10,-1,-1,-1,-1,-1],"split_conditions":[-5.548766E-1,-2.300336E0,5.5256647E-1,3.73387E-2,-4.7301617E-1,3E0,-3.5376266E-2,-2.630319E-2,2.0984804E-2,-2.2715516E-2,9.720712E-3],"split_indices":[0,0,0,0,1,2,0,0,0,0,0],"split_type":[0,0,0,0,0,0,0,0,0,0,0],"sum_hessian":[2.0772938E1,6.4983544E0,1.4274584E1,1.214369E0,5.283985E0,1.2253489E1,2.0210953E0,1.173773E0,4.1102123E0,5.3549347E0,6.8985543E0],"tree_param":{"num_deleted":"0","num_feature":"3","num_nodes":"11","size_leaf_vector":"1"}},{"base_weights":[9.8727085E-2,-3.235761E-1,1.8963334E-1,1.6465183E-2,-3.5508435E-2,3.0241263E-1,-2.7965743E-2,3.2073583E-2,6.0346504E-3],"categories":[],"categories_nodes":[],"categories_segments":[],"categories_sizes":[],"default_left":[0,0,0,0,0,0,0,0,0],"id":41,"left_children":[1,3,5,-1,-1,7,-1,-1,-1],"loss_changes":[8.471128E-1,1.2421911E0,1.6449842E0,0E0,0E0,8.9822817E-1,0E0,0E0,0E0],"parents":[2147483647,0,0,1,1,2,2,5,5],"right_children":[2,4,6,-1,-1,8,-1,-1,-1],"split_conditions":[-8.247861E-1,-5.5834216E-1,4E0,1.6465183E-2,-3.5508435E-2,-2.7741334E-1,-2.7965743E-2,3.2073583E-2,6.0346504E-3],"split_indices":[0,1,2,0,0,0,0,0,0],"split_type":[0,0,0,0,0,0,0,0,0],"sum_hessian":[1.946762E1,2.9949927E0,1.647263E1,1.1689881E0,1.8260046E0,1.4834947E1,1.6376827E0,4.2936654E0,1.0541281E1],"tree_param":{"num_deleted":"0","num_feature":"3","num_nodes":"9","size_leaf_vector":"1"}},{"base_weights":[-2.7577467E-2,4.1877627E-1,-1.3614875E-1,-5.498714E-3,3.6644917E-2,-4.0530678E-2,-3.4974042E-2,-2.4679177E-2,3.5589903E-3],"categories":[],"categories_nodes":[],"categories_segments":[],"categories_sizes":[],"default_left":[0,0,0,0,0,0,0,0,0],"id":42,"left_children":[1,3,5,-1,-1,-1,7,-1,-1],"loss_changes":[1.0107936E0,7.6091224E-1,1.1034085E0,0E0,0E0,0E0,7.8811425E-1,0E0,0E0],"parents":[2147483647,0,0,1,1,2,2,6,6],"right_children":[2,4,6,-1,-1,-1,8,-1,-1],"split_conditions":[-4.2489895E-1,-7.4336416E-1,-9.4518906E-1,-5.498714E-3,3.6644917E-2,-4.0530678E-2,-9.360728E-2,-2.4679177E-2,3.5589903E-3],"split_indices":[1,1,0,0,0,0,1,0,0],"split_type":[0,0,0,0,0,0,0,0,0],"sum_hessian":[1.8681263E1,3.0959928E0,1.5585271E1,1.3960203E0,1.6999724E0,1.1182984E0,1.4466972E1,2.0332325E0,1.243374E1],"tree_param":{"num_deleted":"0","num_feature":"3","num_nodes":"9","size_leaf_vector":"1"}},{"base_weights":[-1.8860179E-1,1.1636349E-1,-4.139601E-1,3.176215E-1,-2.6314562E-2,-7.3349565E-1,-6.948113E-2,-4.449821E-3,4.2912286E-2,-5.3218253E-2,5.6099583E-4,6.231698E-3,-1.9045047E-2],"categories":[],"categories_nodes":[],"categories_segments":[],"categories_sizes":[],"default_left":[0,0,0,0,0,0,0,0,0,0,0,0,0],"id":43,"left_children":[1,3,5,7,-1,9,11,-1,-1,-1,-1,-1,-1],"loss_changes":[1.4807389E0,1.4137795E0,1.2926083E0,1.8269563E0,0E0,1.5464694E0,4.6933E-1,0E0,0E0,0E0,0E0,0E0,0E0],"parents":[2147483647,0,0,1,1,2,2,3,3,5,5,6,6],"right_children":[2,4,6,8,-1,10,12,-1,-1,-1,-1,-1,-1],"split_conditions":[-2.5925925E-1,2.0697348E-1,3E0,-3.1927545E-2,-2.6314562E-2,2E-1,5.1102556E-2,-4.449821E-3,4.2912286E-2,-5.3218253E-2,5.6099583E-4,6.231698E-3,-1.9045047E-2],"split_indices":[0,1,2,1,0,0,0,0,0,0,0,0,0],"split_type":[0,0,0,0,0,0,0,0,0,0,0,0,0],"sum_hessian":[1.9844507E1,8.638347E0,1.1206161E1,6.9634066E0,1.6749401E0,5.227701E0,5.978459E0,4.451041E0,2.5123653E0,3.3223796E0,1.9053218E0,4.0523343E0,1.9261245E0],"tree_param":{"num_deleted":"0","num_feature":"3","num_nodes":"13","size_leaf_vector":"1"}},{"base_weights":[1.667578E-2,3.6808938E-2,-6.416198E-2,6.3871026E-2,-3.828631E-2,-2.6355764E-2,7.6461323E-3],"categories":[],"categories_nodes":[],"categories_segments":[],"categories_sizes":[],"default_left":[0,0,0,0,0,0,0],"id":44,"left_children":[1,-1,3,5,-1,-1,-1],"loss_changes":[1.2738727E0,0E0,1.8345375E0,1.0139363E0,0E0,0E0,0E0],"parents":[2147483647,0,0,2,2,3,3],"right_children":[2,-1,4,6,-1,-1,-1],"split_conditions":[-2.300336E0,3.6808938E-2,4E0,-1.07349E0,-3.828631E-2,-2.6355764E-2,7.6461323E-3],"split_indices":[0,0,2,0,0,0,0],"split_type":[0,0,0,0,0,0,0],"sum_hessian":[2.0089659E1,1.2103121E0,1.8879347E1,1.6734346E1,2.1450007E0,1.5472037E0,1.5187142E1],"tree_param":{"num_deleted":"0","num_feature":"3","num_nodes":"7","size_leaf_vector":"1"}},{"base_weights":[1.0258197E-1,3.0093376E-2,3.5504494E-2,4.9782035E-1,-1.0053383E-1,2.5206238E-3,4.7729626E-2,-1.9155882E-2,1.0107549E-2],"categories":[],"categories_nodes":[],"categories_segments":[],"categories_sizes":[],"default_left":[0,0,0,0,0,0,0,0,0],"id":45,"left_children":[1,3,-1,5,7,-1,-1,-1,-1],"loss_changes":[9.2448753E-1,1.2862474E0,0E0,8.889084E-1,1.5014132E0,0E0,0E0,0E0,0E0],"parents":[2147483647,0,0,1,1,3,3,4,4],"right_children":[2,4,-1,6,8,-1,-1,-1,-1],"split_conditions":[8.573214E-1,-2.8022426E-1,3.5504494E-2,-4.7301617E-1,3E0,2.5206238E-3,4.7729626E-2,-1.9155882E-2,1.0107549E-2],"split_indices":[0,1,0,1,2,0,0,0,0],"split_type":[0,0,0,0,0,0,0,0,0],"sum_hessian":[2.0478489E1,1.9233107E1,1.2453825E0,3.585124E0,1.5647983E1,2.3720603E0,1.2130637E0,7.955276E0,7.692706E0],"tree_param":{"num_deleted":"0","num_feature":"3","num_nodes":"9","size_leaf_vector":"1"}},{"base_weights":[7.8777865E-2,1.9019668E-1,-5.3021157E-1,3.5742274E-1,-1.3572334E-1,-4.22856E-3,-3.6954004E-2,-1.144826E-2,2.536296E-2,-3.5968263E-2,6.413062E-3],"categories":[],"categories_nodes":[],"categories_segments":[],"categories_sizes":[],"default_left":[0,0,0,0,0,0,0,0,0,0,0],"id":46,"left_children":[1,3,5,7,9,-1,-1,-1,-1,-1,-1],"loss_changes":[1.4563991E0,1.0090624E0,2.4966747E-1,1.1637223E0,1.1247222E0,0E0,0E0,0E0,0E0,0E0,0E0],"parents":[2147483647,0,0,1,1,2,2,3,3,4,4],"right_children":[2,4,6,8,10,-1,-1,-1,-1,-1,-1],"split_conditions":[4E0,1.3943463E-2,-2.65366E-1,-8.247861E-1,1.5971914E-1,-4.22856E-3,-3.6954004E-2,-1.144826E-2,2.536296E-2,-3.5968263E-2,6.413062E-3],"split_indices":[2,1,1,0,1,0,0,0,0,0,0],"split_type":[0,0,0,0,0,0,0,0,0,0,0],"sum_hessian":[1.8977852E1,1.6624052E1,2.3537998E0,1.0922947E1,5.7011046E0,1.199486E0,1.1543138E0,2.1155605E0,8.807386E0,1.2383084E0,4.462796E0],"tree_param":{"num_deleted":"0","num_feature":"3","num_nodes":"11","size_leaf_vector":"1"}},{"base_weights":[6.377947E-2,4.0026918E-2,-2.2041634E-2,-2.1612603E-2,4.9839072E-2,9.044818E-3,-1.2805765E-2],"categories":[],"categories_nodes":[],"categories_segments":[],"categories_sizes":[],"default_left":[0,0,0,0,0,0,0],"id":47,"left_children":[1,-1,3,-1,5,-1,-1],"loss_changes":[1.3144299E0,0E0,5.918839E-1,0E0,7.4223214E-1,0E0,0E0],"parents":[2147483647,0,0,2,2,4,4],"right_children":[2,-1,4,-1,6,-1,-1],"split_conditions":[-2.0412414E0,4.0026918E-2,-8.247861E-1,-2.1612603E-2,5.1102556E-2,9.044818E-3,-1.2805765E-2],"split_indices":[0,0,0,0,0,0,0],"split_type":[0,0,0,0,0,0,0],"sum_hessian":[1.9509182E1,1.166552E0,1.8342628E1,1.9874041E0,1.6355225E1,1.1736553E1,4.618672E0],"tree_param":{"num_deleted":"0","num_feature":"3","num_nodes":"7","size_leaf_vector":"1"}},{"base_weights":[4.5676302E-2,2.8451297E-1,-3.8660145E-1,4.281382E-1,-1.6197214E-1,9.577236E-3,-5.1011264E-1,5.5992003E-3,3.200564E-2,-2.6869157E-2,1.6640425E-2,-3.9965563E-2,-2.1257813E-3],"categories":[],"categories_nodes":[],"categories_segments":[],"categories_sizes":[],"default_left":[0,0,0,0,0,0,0,0,0,0,0,0,0],"id":48,"left_children":[1,3,5,7,9,-1,11,-1,-1,-1,-1,-1,-1],"loss_changes":[2.1781862E0,9.3371713E-1,6.370497E-1,6.301811E-1,9.229764E-1,0E0,8.4452045E-1,0E0,0E0,0E0,0E0,0E0,0E0],"parents":[2147483647,0,0,1,1,2,2,3,3,4,4,6,6],"right_children":[2,4,6,8,10,-1,12,-1,-1,-1,-1,-1,-1],"split_conditions":[1.3943463E-2,2.307351E-2,-1.0571429E0,-3.1927545E-2,2.7720797E-1,9.577236E-3,1.1111111E-1,5.5992003E-3,3.200564E-2,-2.6869157E-2,1.6640425E-2,-3.9965563E-2,-2.1257813E-3],"split_indices":[1,0,0,1,0,0,0,0,0,0,0,0,0],"split_type":[0,0,0,0,0,0,0,0,0,0,0,0,0],"sum_hessian":[1.9032133E1,1.2479143E1,6.5529904E0,9.472971E0,3.006172E0,1.0565472E0,5.4964433E0,4.4155664E0,5.057405E0,1.6603161E0,1.345856E0,2.957742E0,2.5387013E0],"tree_param":{"num_deleted":"0","num_feature":"3","num_nodes":"13","size_leaf_vector":"1"}},{"base_weights":[9.39488E-2,5.11635E-1,-4.718535E-2,-1.1097952E-2,4.609021E-2,-2.6868358E-1,4.728936E-1,1.1927865E-2,-2.6658261E-2,5.5882316E-3,3.7079748E-2],"categories":[],"categories_nodes":[],"categories_segments":[],"categories_sizes":[],"default_left":[0,0,0,0,0,0,0,0,0,0,0],"id":49,"left_children":[1,3,5,-1,-1,7,9,-1,-1,-1,-1],"loss_changes":[1.1737647E0,1.7120225E0,1.9116831E0,0E0,0E0,1.6703117E0,4.0128052E-1,0E0,0E0,0E0,0E0],"parents":[2147483647,0,0,1,1,2,2,5,5,6,6],"right_children":[2,4,6,-1,-1,8,10,-1,-1,-1,-1],"split_conditions":[-2.8022426E-1,-7.4336416E-1,2E-1,-1.1097952E-2,4.609021E-2,-5.548766E-1,1.3671719E-1,1.1927865E-2,-2.6658261E-2,5.5882316E-3,3.7079748E-2],"split_indices":[1,1,0,0,0,0,1,0,0,0,0],"split_type":[0,0,0,0,0,0,0,0,0,0,0],"sum_hessian":[1.8501736E1,4.0097427E0,1.4491993E1,1.6025021E0,2.4072404E0,1.0502448E1,3.9895449E0,3.6329498E0,6.8694983E0,2.3061168E0,1.6834282E0],"tree_param":{"num_deleted":"0","num_feature":"3","num_nodes":"11","size_leaf_vector":"1"}},{"base_weights":[3.7794132E-4,-8.2745805E-2,3.5388727E-2,-7.3636193E-3,-3.465245E-2,-4.281042E-3,2.4199283E-2],"categories":[],"categories_nodes":[],"categories_segments":[],"categories_sizes":[],"default_left":[0,0,0,0,0,0,0],"id":50,"left_children":[1,3,-1,5,-1,-1,-1],"loss_changes":[1.2563357E0,8.746772E-1,0E0,7.347824E-1,0E0,0E0,0E0],"parents":[2147483647,0,0,1,1,3,3],"right_children":[2,4,-1,6,-1,-1,-1],"split_conditions":[8.573214E-1,5.5256647E-1,3.5388727E-2,2E-1,-3.465245E-2,-4.281042E-3,2.4199283E-2],"split_indices":[0,0,0,0,0,0,0],"split_type":[0,0,0,0,0,0,0],"sum_hessian":[1.9369738E1,1.8123173E1,1.2465643E0,1.7031569E1,1.0916052E0,1.5403928E1,1.627641E0],"tree_param":{"num_deleted":"0","num_feature":"3","num_nodes":"7","size_leaf_vector":"1"}},{"base_weights":[6.40134E-2,2.577967E-2,-2.7815862E-2,-5.5660254E-1,8.499392E-2,-3.5882555E-3,-3.9645176E-2,1.4487403E-2,-1.0855322E-2],"categories":[],"categories_nodes":[],"categories_segments":[],"categories_sizes":[],"default_left":[0,0,0,0,0,0,0,0,0],"id":51,"left_children":[1,-1,3,5,7,-1,-1,-1,-1],"loss_changes":[8.628856E-1,0E0,1.1182698E0,3.199283E-1,1.0318383E0,0E0,0E0,0E0,0E0],"parents":[2147483647,0,0,2,2,3,3,4,4],"right_children":[2,-1,4,6,8,-1,-1,-1,-1],"split_conditions":[-1E0,2.577967E-2,-5.767504E-1,-6.610978E-1,5.1102556E-2,-3.5882555E-3,-3.9645176E-2,1.4487403E-2,-1.0855322E-2],"split_indices":[0,0,0,0,0,0,0,0,0],"split_type":[0,0,0,0,0,0,0,0,0],"sum_hessian":[1.9462494E1,2.509089E0,1.6953403E1,2.2891603E0,1.4664244E1,1.1773008E0,1.1118594E0,8.764696E0,5.899548E0],"tree_param":{"num_deleted":"0","num_feature":"3","num_nodes":"9","size_leaf_vector":"1"}},{"base_weights":[2.345562E-2,3.3711344E-2,-5.371125E-2,1.0618641E-1,-3.7463978E-1,-2.0727383E-2,1.1226555E-2,-3.7566837E-2,4.8181987E-3],"categories":[],"categories_nodes":[],"categories_segments":[],"categories_sizes":[],"default_left":[0,0,0,0,0,0,0,0,0],"id":52,"left_children":[1,-1,3,5,7,-1,-1,-1,-1],"loss_changes":[1.0489454E0,0E0,1.0124768E0,9.207663E-1,1.2299839E0,0E0,0E0,0E0,0E0],"parents":[2147483647,0,0,2,2,3,3,4,4],"right_children":[2,-1,4,6,8,-1,-1,-1,-1],"split_conditions":[-2.300336E0,3.3711344E-2,1.3943463E-2,-8.247861E-1,2.307351E-2,-2.0727383E-2,1.1226555E-2,-3.7566837E-2,4.8181987E-3],"split_indices":[0,0,1,0,0,0,0,0,0],"split_type":[0,0,0,0,0,0,0,0,0],"sum_hessian":[1.916672E1,1.2116083E0,1.7955112E1,1.2430791E1,5.524321E0,1.8384515E0,1.05923395E1,2.7387533E0,2.7855678E0],"tree_param":{"num_deleted":"0","num_feature":"3","num_nodes":"9","size_leaf_vector":"1"}},{"base_weights":[-1.4690433E-1,-2.4374521E-1,1.4303231E-1,-1.3335462E-1,-3.9852336E-2,3.219055E-2,-1.6048639E-1,-1.0660597E-4,-2.5530158E-2,-1.8686464E-2,1.0756489E-2],"categories":[],"categories_nodes":[],"categories_segments":[],"categories_sizes":[],"default_left":[0,0,0,0,0,0,0,0,0,0,0],"id":53,"left_children":[1,3,5,7,-1,-1,9,-1,-1,-1,-1],"loss_changes":[6.217897E-1,8.733978E-1,9.946286E-1,7.2031105E-1,0E0,0E0,4.3695998E-1,0E0,0E0,0E0,0E0],"parents":[2147483647,0,0,1,1,2,2,3,3,6,6],"right_children":[2,4,6,8,-1,-1,10,-1,-1,-1,-1],"split_conditions":[2E-1,2.307351E-2,3.1333977E-1,2.0697348E-1,-3.9852336E-2,3.219055E-2,8.573214E-1,-1.0660597E-4,-2.5530158E-2,-1.8686464E-2,1.0756489E-2],"split_indices":[0,0,0,1,0,0,0,0,0,0,0],"split_type":[0,0,0,0,0,0,0,0,0,0,0],"sum_hessian":[1.990363E1,1.503961E1,4.8640194E0,1.3572702E1,1.4669077E0,1.4124483E0,3.4515712E0,1.0816078E1,2.756624E0,2.2048616E0,1.2467095E0],"tree_param":{"num_deleted":"0","num_feature":"3","num_nodes":"11","size_leaf_vector":"1"}},{"base_weights":[-1.7106976E-2,5.524834E-1,-1.3788773E-1,3.769665E-2,8.388121E-3,2.3531811E-2,-2.123632E-1,-3.0885277E-2,-5.130546E-3],"categories":[],"categories_nodes":[],"categories_segments":[],"categories_sizes":[],"default_left":[0,0,0,0,0,0,0,0,0],"id":54,"left_children":[1,3,5,-1,-1,-1,7,-1,-1],"loss_changes":[1.4649899E0,1.6271985E-1,8.910512E-1,0E0,0E0,0E0,6.5916026E-1,0E0,0E0],"parents":[2147483647,0,0,1,1,2,2,6,6],"right_children":[2,4,6,-1,-1,-1,8,-1,-1],"split_conditions":[-1E0,-2.0412414E0,2E0,3.769665E-2,8.388121E-3,2.3531811E-2,-5.767504E-1,-3.0885277E-2,-5.130546E-3],"split_indices":[0,0,2,0,0,0,0,0,0],"split_type":[0,0,0,0,0,0,0,0,0],"sum_hessian":[1.9187489E1,2.7315407E0,1.6455948E1,1.1629192E0,1.5686215E0,1.2143546E0,1.5241592E1,2.2614217E0,1.2980171E1],"tree_param":{"num_deleted":"0","num_feature":"3","num_nodes":"9","size_leaf_vector":"1"}},{"base_weights":[1.1418676E-2,-1.4806628E-1,5.2049047E-1,-4.0462617E-2,-3.7369728E-2,3.801841E-2,2.0811956E-3,-9.577577E-3,1.555776E-2],"categories":[],"categories_nodes":[],"categories_segments":[],"categories_sizes":[],"default_left":[0,0,0,0,0,0,0,0,0],"id":55,"left_children":[1,3,5,7,-1,-1,-1,-1,-1],"loss_changes":[1.6258348E0,9.5670795E-1,5.16516E-1,8.050455E-1,0E0,0E0,0E0,0E0,0E0],"parents":[2147483647,0,0,1,1,2,2,3,3],"right_children":[2,4,6,8,-1,-1,-1,-1,-1],"split_conditions":[1.9810146E-1,5.1102556E-2,5.5256647E-1,-1.6230053E-1,-3.7369728E-2,3.801841E-2,2.0811956E-3,-9.577577E-3,1.555776E-2],"split_indices":[0,0,0,0,0,0,0,0,0],"split_type":[0,0,0,0,0,0,0,0,0],"sum_hessian":[1.807601E1,1.4303934E1,3.772075E0,1.3031726E1,1.2722087E0,2.1215043E0,1.6505706E0,9.433438E0,3.5982869E0],"tree_param":{"num_deleted":"0","num_feature":"3","num_nodes":"9","size_leaf_vector":"1"}},{"base_weights":[6.355346E-2,1.3748085E-1,-2.5841177E-1,-6.553645E-3,4.8046928E-2,-3.524762E-2,6.874976E-3,5.8420533E-3,-3.728199E-2],"categories":[],"categories_nodes":[],"categories_segments":[],"categories_sizes":[],"default_left":[0,0,0,0,0,0,0,0,0],"id":56,"left_children":[1,3,5,7,-1,-1,-1,-1,-1],"loss_changes":[5.191022E-1,2.0434146E0,8.290376E-1,1.5108976E0,0E0,0E0,0E0,0E0,0E0],"parents":[2147483647,0,0,1,1,2,2,3,3],"right_children":[2,4,6,8,-1,-1,-1,-1,-1],"split_conditions":[3.9669916E-1,1.5971914E-1,2.307351E-2,1.3943463E-2,4.8046928E-2,-3.524762E-2,6.874976E-3,5.8420533E-3,-3.728199E-2],"split_indices":[1,1,0,1,0,0,0,0,0],"split_type":[0,0,0,0,0,0,0,0,0],"sum_hessian":[1.9316553E1,1.6175453E1,3.1410995E0,1.46117E1,1.5637535E0,1.1093282E0,2.0317712E0,1.3242671E1,1.369029E0],"tree_param":{"num_deleted":"0","num_feature":"3","num_nodes":"9","size_leaf_vector":"1"}},{"base_weights":[-6.198126E-2,1.4612469E-2,-2.2569451E-2,-5.655051E-1,1.3550448E-1,-4.0205433E-3,-3.962209E-2,1.1614522E-2,-1.8075163E-2],"categories":[],"categories_nodes":[],"categories_segments":[],"categories_sizes":[],"default_left":[0,0,0,0,0,0,0,0,0],"id":57,"left_children":[1,3,-1,5,7,-1,-1,-1,-1],"loss_changes":[5.9226E-1,1.2953129E0,0E0,2.8745842E-1,8.145224E-1,0E0,0E0,0E0,0E0],"parents":[2147483647,0,0,1,1,3,3,4,4],"right_children":[2,4,-1,6,8,-1,-1,-1,-1],"split_conditions":[4E0,-1.07349E0,-2.2569451E-2,-2.4468228E-1,5.831437E-1,-4.0205433E-3,-3.962209E-2,1.1614522E-2,-1.8075163E-2],"split_indices":[2,0,0,1,1,0,0,0,0],"split_type":[0,0,0,0,0,0,0,0,0],"sum_hessian":[1.8635899E1,1.6377113E1,2.2587862E0,2.1900542E0,1.4187058E1,1.1296577E0,1.0603964E0,1.2320433E1,1.8666259E0],"tree_param":{"num_deleted":"0","num_feature":"3","num_nodes":"9","size_leaf_vector":"1"}},{"base_weights":[5.504998E-3,-2.6771858E-1,1.4397568E-1,7.1770646E-2,-4.4639688E-2,2.244847E-1,-1.8173454E-2,-1.0040013E-2,2.6038224E-2,1.6345492E-2,-1.03988685E-2],"categories":[],"categories_nodes":[],"categories_segments":[],"categories_sizes":[],"default_left":[0,0,0,0,0,0,0,0,0,0,0],"id":58,"left_children":[1,3,5,7,-1,9,-1,-1,-1,-1,-1],"loss_changes":[8.2011503E-1,1.6127486E0,6.682637E-1,7.9663765E-1,0E0,6.4435846E-1,0E0,0E0,0E0,0E0,0E0],"parents":[2147483647,0,0,1,1,2,2,3,3,5,5],"right_children":[2,4,6,8,-1,10,-1,-1,-1,-1,-1],"split_conditions":[-1.1683327E-2,-1.8485618E-1,4E0,-1.6230053E-1,-4.4639688E-2,5.5256647E-1,-1.8173454E-2,-1.0040013E-2,2.6038224E-2,1.6345492E-2,-1.03988685E-2],"split_indices":[1,1,2,0,0,0,0,0,0,0,0],"split_type":[0,0,0,0,0,0,0,0,0,0,0],"sum_hessian":[1.9658173E1,6.2979565E0,1.3360215E1,4.654952E0,1.6430047E0,1.2012052E1,1.3481635E0,3.2405107E0,1.414441E0,9.909209E0,2.1028426E0],"tree_param":{"num_deleted":"0","num_feature":"3","num_nodes":"11","size_leaf_vector":"1"}},{"base_weights":[4.5049362E-2,4.763342E-1,-1.6130781E-1,4.7720294E-3,6.114671E-1,-4.695242E-1,7.925893E-3,3.9890658E-2,3.179222E-3,-3.7330817E-2,-5.4900744E-3,1.6409537E-2,-1.3321372E-2],"categories":[],"categories_nodes":[],"categories_segments":[],"categories_sizes":[],"default_left":[0,0,0,0,0,0,0,0,0,0,0,0,0],"id":59,"left_children":[1,3,5,-1,7,9,11,-1,-1,-1,-1,-1,-1],"loss_changes":[1.7774895E0,2.7296424E-1,7.168447E-1,0E0,4.1548264E-1,4.02704E-1,9.493239E-1,0E0,0E0,0E0,0E0,0E0,0E0],"parents":[2147483647,0,0,1,1,2,2,4,4,5,5,6,6],"right_children":[2,4,6,-1,8,10,12,-1,-1,-1,-1,-1,-1],"split_conditions":[-5.548766E-1,-4.7301617E-1,-1.6230053E-1,4.7720294E-3,2.0697348E-1,-2.287545E-2,5.1102556E-2,3.9890658E-2,3.179222E-3,-3.7330817E-2,-5.4900744E-3,1.6409537E-2,-1.3321372E-2],"split_indices":[0,1,0,0,1,1,0,0,0,0,0,0,0],"split_type":[0,0,0,0,0,0,0,0,0,0,0,0,0],"sum_hessian":[1.8108736E1,5.4370484E0,1.2671688E1,1.870636E0,3.5664124E0,3.8625736E0,8.809114E0,2.3208644E0,1.2455481E0,1.5743378E0,2.2882357E0,3.9739323E0,4.8351817E0],"tree_param":{"num_deleted":"0","num_feature":"3","num_nodes":"13","size_leaf_vector":"1"}},{"base_weights":[2.68576E-2,2.1409948E-1,-3.3635974E-1,3.960821E-1,-6.895207E-2,-6.20343E-1,1.7305331E-2,-3.2661133E-3,2.7908897E-2,-2.107023E-2,5.950767E-3,-3.6484793E-2,-1.2560039E-2],"categories":[],"categories_nodes":[],"categories_segments":[],"categories_sizes":[],"default_left":[0,0,0,0,0,0,0,0,0,0,0,0,0],"id":60,"left_children":[1,3,5,7,9,11,-1,-1,-1,-1,-1,-1,-1],"loss_changes":[1.4342589E0,7.3959076E-1,1.6105833E0,6.770421E-1,4.6507552E-1,3.6460876E-2,0E0,0E0,0E0,0E0,0E0,0E0,0E0],"parents":[2147483647,0,0,1,1,2,2,3,3,4,4,5,5],"right_children":[2,4,6,8,10,12,-1,-1,-1,-1,-1,-1,-1],"split_conditions":[1.3943463E-2,-4.594768E-2,7.2336423E-1,-8.247861E-1,3E0,1.1111111E-1,1.7305331E-2,-3.2661133E-3,2.7908897E-2,-2.107023E-2,5.950767E-3,-3.6484793E-2,-1.2560039E-2],"split_indices":[1,0,1,0,2,0,0,0,0,0,0,0,0],"split_type":[0,0,0,0,0,0,0,0,0,0,0,0,0],"sum_hessian":[1.9030209E1,1.282787E1,6.202338E0,7.5648594E0,5.263011E0,4.444112E0,1.7582262E0,2.1219013E0,5.4429584E0,1.3986113E0,3.8644E0,2.6749616E0,1.7691504E0],"tree_param":{"num_deleted":"0","num_feature":"3","num_nodes":"13","size_leaf_vector":"1"}},{"base_weights":[5.5468358E-2,-1.3419499E-1,3.0075213E-1,2.2056645E-2,-2.3714016E-1,4.985144E-1,-1.639489E-2,-2.6269302E-2,6.3812133E-4,3.8531505E-2,1.4614426E-2],"categories":[],"categories_nodes":[],"categories_segments":[],"categories_sizes":[],"default_left":[0,0,0,0,0,0,0,0,0,0,0],"id":61,"left_children":[1,3,5,-1,7,9,-1,-1,-1,-1,-1],"loss_changes":[1.0047027E0,8.3792615E-1,1.325593E0,0E0,8.1006354E-1,1.9605505E-1,0E0,0E0,0E0,0E0,0E0],"parents":[2147483647,0,0,1,1,2,2,4,4,5,5],"right_children":[2,4,6,-1,8,10,-1,-1,-1,-1,-1],"split_conditions":[3E0,2E0,4E0,2.2056645E-2,-3.1927545E-2,-2.4467726E-1,-1.639489E-2,-2.6269302E-2,6.3812133E-4,3.8531505E-2,1.4614426E-2],"split_indices":[2,2,2,0,1,0,0,0,0,0,0],"split_type":[0,0,0,0,0,0,0,0,0,0,0],"sum_hessian":[1.9729053E1,1.1381396E1,8.347658E0,1.2288152E0,1.0152581E1,6.507515E0,1.8401428E0,4.202693E0,5.9498878E0,1.6256461E0,4.881869E0],"tree_param":{"num_deleted":"0","num_feature":"3","num_nodes":"11","size_leaf_vector":"1"}},{"base_weights":[-4.3452214E-2,1.07412085E-1,-4.8326097E-2,3.5516977E-1,-7.898648E-2,2.8702376E-2,-1.1511447E-2,-1.5962472E-2,2.6148079E-2],"categories":[],"categories_nodes":[],"categories_segments":[],"categories_sizes":[],"default_left":[0,0,0,0,0,0,0,0,0],"id":62,"left_children":[1,3,-1,5,7,-1,-1,-1,-1],"loss_changes":[2.811782E0,8.4149456E-1,0E0,1.1244338E0,1.7389973E0,0E0,0E0,0E0,0E0],"parents":[2147483647,0,0,1,1,3,3,4,4],"right_children":[2,4,-1,6,8,-1,-1,-1,-1],"split_conditions":[4E0,-2.7741334E-1,-4.8326097E-2,2.0697348E-1,1.5971914E-1,2.8702376E-2,-1.1511447E-2,-1.5962472E-2,2.6148079E-2],"split_indices":[2,0,0,1,1,0,0,0,0],"split_type":[0,0,0,0,0,0,0,0,0],"sum_hessian":[1.8445639E1,1.6613934E1,1.8317053E0,6.744212E0,9.86972E0,4.92294E0,1.8212725E0,7.389784E0,2.4799364E0],"tree_param":{"num_deleted":"0","num_feature":"3","num_nodes":"9","size_leaf_vector":"1"}},{"base_weights":[8.296833E-2,4.7922492E-1,-3.0980501E-2,2.8303606E-3,3.027345E-2,-2.9087072E-2,6.447436E-2,3.1890742E-2,-2.1007096E-3],"categories":[],"categories_nodes":[],"categories_segments":[],"categories_sizes":[],"default_left":[0,0,0,0,0,0,0,0,0],"id":63,"left_children":[1,3,5,-1,-1,-1,7,-1,-1],"loss_changes":[9.1598773E-1,2.0677567E-1,9.017779E-1,0E0,0E0,0E0,9.3719995E-1,0E0,0E0],"parents":[2147483647,0,0,1,1,2,2,6,6],"right_children":[2,4,6,-1,-1,-1,8,-1,-1],"split_conditions":[-2.8022426E-1,-7.443491E-1,-1.07349E0,2.8303606E-3,3.027345E-2,-2.9087072E-2,-6.430526E-1,3.1890742E-2,-2.1007096E-3],"split_indices":[1,1,0,0,0,0,0,0,0],"split_type":[0,0,0,0,0,0,0,0,0],"sum_hessian":[1.8957512E1,3.5180147E0,1.5439497E1,1.1423272E0,2.3756876E0,1.5281093E0,1.3911387E1,1.3975238E0,1.2513864E1],"tree_param":{"num_deleted":"0","num_feature":"3","num_nodes":"9","size_leaf_vector":"1"}},{"base_weights":[-8.2521334E-2,1.9575046E-1,-2.053708E-1,-7.932867E-3,3.6891478E-1,1.6053401E-1,-3.140031E-1,-9.313088E-3,3.528159E-2,-1.0941759E-2,2.5486557E-2,-2.0739911E-2,1.3767998E-2],"categories":[],"categories_nodes":[],"categories_segments":[],"categories_sizes":[],"default_left":[0,0,0,0,0,0,0,0,0,0,0,0,0],"id":64,"left_children":[1,3,5,-1,7,9,11,-1,-1,-1,-1,-1,-1],"loss_changes":[7.45283E-1,4.77617E-1,6.385509E-1,0E0,1.0451994E0,6.479278E-1,8.120754E-1,0E0,0E0,0E0,0E0,0E0,0E0],"parents":[2147483647,0,0,1,1,2,2,4,4,5,5,6,6],"right_children":[2,4,6,-1,8,10,12,-1,-1,-1,-1,-1,-1],"split_conditions":[-5.548766E-1,-1.3055824E0,-1.8485618E-1,-7.932867E-3,-2.4468228E-1,-1.6230053E-1,7.2336423E-1,-9.313088E-3,3.528159E-2,-1.0941759E-2,2.5486557E-2,-2.0739911E-2,1.3767998E-2],"split_indices":[0,0,1,0,1,0,1,0,0,0,0,0,0],"split_type":[0,0,0,0,0,0,0,0,0,0,0,0,0],"sum_hessian":[1.9625141E1,5.828754E0,1.3796388E1,1.9406621E0,3.8880918E0,3.0489326E0,1.0747456E1,1.6365652E0,2.2515266E0,1.640263E0,1.4086696E0,9.430763E0,1.3166924E0],"tree_param":{"num_deleted":"0","num_feature":"3","num_nodes":"13","size_leaf_vector":"1"}},{"base_weights":[-2.5210144E-2,-1.2580237E-1,3.9261118E-2,3.0141905E-2,-5.1421475E-1,7.933727E-3,-1.67418E-2,-3.737199E-2,7.5945086E-3],"categories":[],"categories_nodes":[],"categories_segments":[],"categories_sizes":[],"default_left":[0,0,0,0,0,0,0,0,0],"id":65,"left_children":[1,3,-1,5,7,-1,-1,-1,-1],"loss_changes":[1.6181599E0,1.0719367E0,0E0,6.8125284E-1,8.9835095E-1,0E0,0E0,0E0,0E0],"parents":[2147483647,0,0,1,1,3,3,4,4],"right_children":[2,4,-1,6,8,-1,-1,-1,-1],"split_conditions":[8.1315714E-1,1.3943463E-2,3.9261118E-2,2.307351E-2,3E0,7.933727E-3,-1.67418E-2,-3.737199E-2,7.5945086E-3],"split_indices":[0,1,0,0,2,0,0,0,0],"split_type":[0,0,0,0,0,0,0,0,0],"sum_hessian":[1.7637358E1,1.6441395E1,1.195962E0,1.2389509E1,4.0518856E0,9.580749E0,2.8087606E0,2.9106627E0,1.1412231E0],"tree_param":{"num_deleted":"0","num_feature":"3","num_nodes":"9","size_leaf_vector":"1"}},{"base_weights":[-8.686723E-2,-5.020328E-3,-2.4383582E-2,2.4734153E-1,-1.2822318E-1,-6.0459496E-3,2.9622978E-2,-2.0016234E-2,1.186311E-3],"categories":[],"categories_nodes":[],"categories_segments":[],"categories_sizes":[],"default_left":[0,0,0,0,0,0,0,0,0],"id":66,"left_children":[1,3,-1,5,7,-1,-1,-1,-1],"loss_changes":[6.507502E-1,5.772375E-1,0E0,8.465525E-1,5.2418566E-1,0E0,0E0,0E0,0E0],"parents":[2147483647,0,0,1,1,3,3,4,4],"right_children":[2,4,-1,6,8,-1,-1,-1,-1],"split_conditions":[4E0,-5.548766E-1,-2.4383582E-2,-6.1898448E-2,-1.6230053E-1,-6.0459496E-3,2.9622978E-2,-2.0016234E-2,1.186311E-3],"split_indices":[2,0,0,1,0,0,0,0,0],"split_type":[0,0,0,0,0,0,0,0,0],"sum_hessian":[1.8911795E1,1.65456E1,2.3661947E0,5.0971947E0,1.1448405E1,2.780197E0,2.3169978E0,3.5165663E0,7.931839E0],"tree_param":{"num_deleted":"0","num_feature":"3","num_nodes":"9","size_leaf_vector":"1"}},{"base_weights":[-1.7838145E-2,-6.863692E-2,1.8714564E-2,1.4075437E-1,-2.4998698E-1,-1.0938928E-3,3.216804E-2,-2.7449757E-2,1.6742997E-3],"categories":[],"categories_nodes":[],"categories_segments":[],"categories_sizes":[],"default_left":[0,0,0,0,0,0,0,0,0],"id":67,"left_children":[1,3,-1,5,7,-1,-1,-1,-1],"loss_changes":[4.313851E-1,7.519582E-1,0E0,7.8246015E-1,9.062866E-1,0E0,0E0,0E0,0E0],"parents":[2147483647,0,0,1,1,3,3,4,4],"right_children":[2,4,-1,6,8,-1,-1,-1,-1],"split_conditions":[8.1315714E-1,-2.4467726E-1,1.8714564E-2,-3.8088664E-1,3E0,-1.0938928E-3,3.216804E-2,-2.7449757E-2,1.6742997E-3],"split_indices":[0,0,0,0,2,0,0,0,0],"split_type":[0,0,0,0,0,0,0,0,0],"sum_hessian":[1.9366524E1,1.7875755E1,1.4907678E0,8.4003525E0,9.475404E0,7.069342E0,1.3310106E0,4.155497E0,5.319906E0],"tree_param":{"num_deleted":"0","num_feature":"3","num_nodes":"9","size_leaf_vector":"1"}},{"base_weights":[1.1373996E-2,8.93363E-2,-2.7405307E-2,4.9135564E-3,3.3355933E-2,1.8314525E-2,-6.0045584E-3],"categories":[],"categories_nodes":[],"categories_segments":[],"categories_sizes":[],"default_left":[0,0,0,0,0,0,0],"id":68,"left_children":[1,3,-1,5,-1,-1,-1],"loss_changes":[9.4104916E-1,9.142594E-1,0E0,8.309077E-1,0E0,0E0,0E0],"parents":[2147483647,0,0,1,1,3,3],"right_children":[2,4,-1,6,-1,-1,-1],"split_conditions":[5.5256647E-1,2.7720797E-1,-2.7405307E-2,-2.8022426E-1,3.3355933E-2,1.8314525E-2,-6.0045584E-3],"split_indices":[0,0,0,1,0,0,0],"split_type":[0,0,0,0,0,0,0],"sum_hessian":[1.9452015E1,1.7810486E1,1.641529E0,1.6419807E1,1.3906785E0,3.723964E0,1.2695844E1],"tree_param":{"num_deleted":"0","num_feature":"3","num_nodes":"7","size_leaf_vector":"1"}},{"base_weights":[1.0786073E-1,3.835362E-2,2.9630775E-2,-2.388515E-2,1.0264823E-1,9.45506E-3,-1.5482168E-2],"categories":[],"categories_nodes":[],"categories_segments":[],"categories_sizes":[],"default_left":[0,0,0,0,0,0,0],"id":69,"left_children":[1,-1,3,-1,5,-1,-1],"loss_changes":[1.0397288E0,0E0,7.6979893E-1,0E0,6.941544E-1,0E0,0E0],"parents":[2147483647,0,0,2,2,4,4],"right_children":[2,-1,4,-1,6,-1,-1],"split_conditions":[-2.0412414E0,3.835362E-2,-4.7301617E-1,-2.388515E-2,5.831437E-1,9.45506E-3,-1.5482168E-2],"split_indices":[0,0,1,0,1,0,0],"split_type":[0,0,0,0,0,0,0],"sum_hessian":[1.9602207E1,1.1453619E0,1.8456844E1,1.6248546E0,1.6831991E1,1.4361818E1,2.4701726E0],"tree_param":{"num_deleted":"0","num_feature":"3","num_nodes":"7","size_leaf_vector":"1"}},{"base_weights":[1.1381492E-1,2.2805968E-1,-5.076941E-1,-1.6095532E-1,3.283226E-1,-4.4110264E-3,-3.509588E-2,7.7339816E-3,-1.7030954E-2,3.0857284E-2,4.3718056E-3],"categories":[],"categories_nodes":[],"categories_segments":[],"categories_sizes":[],"default_left":[0,0,0,0,0,0,0,0,0,0,0],"id":70,"left_children":[1,3,5,7,9,-1,-1,-1,-1,-1,-1],"loss_changes":[1.4713397E0,7.0876575E-1,2.0484477E-1,2.8616256E-1,8.9917564E-1,0E0,0E0,0E0,0E0,0E0,0E0],"parents":[2147483647,0,0,1,1,2,2,3,3,4,4],"right_children":[2,4,6,8,10,-1,-1,-1,-1,-1,-1],"split_conditions":[4E0,-8.247861E-1,-2.65366E-1,-2.4468228E-1,-7.145896E-2,-4.4110264E-3,-3.509588E-2,7.7339816E-3,-1.7030954E-2,3.0857284E-2,4.3718056E-3],"split_indices":[2,0,1,1,0,0,0,0,0,0,0],"split_type":[0,0,0,0,0,0,0,0,0,0,0],"sum_hessian":[1.8091211E1,1.581684E1,2.2743704E0,3.1171446E0,1.2699696E1,1.1800288E0,1.0943416E0,1.18115E0,1.9359947E0,5.0649E0,7.6347957E0],"tree_param":{"num_deleted":"0","num_feature":"3","num_nodes":"11","size_leaf_vector":"1"}},{"base_weights":[-2.7145676E-2,8.280433E-2,-3.497591E-2,-3.213401E-2,3.8107905E-1,1.3708661E-2,-2.1787351E-2,2.823925E-2,-7.5370977E-3],"categories":[],"categories_nodes":[],"categories_segments":[],"categories_sizes":[],"default_left":[0,0,0,0,0,0,0,0,0],"id":71,"left_children":[1,3,-1,5,7,-1,-1,-1,-1],"loss_changes":[1.6511406E0,6.7790246E-1,0E0,1.9662275E0,6.203876E-1,0E0,0E0,0E0,0E0],"parents":[2147483647,0,0,1,1,3,3,4,4],"right_children":[2,4,-1,6,8,-1,-1,-1,-1],"split_conditions":[4E0,1.9810146E-1,-3.497591E-2,-2.5925925E-1,5.831437E-1,1.3708661E-2,-2.1787351E-2,2.823925E-2,-7.5370977E-3],"split_indices":[2,0,0,0,1,0,0,0,0],"split_type":[0,0,0,0,0,0,0,0,0],"sum_hessian":[2.055112E1,1.8416416E1,2.134705E0,1.3937826E1,4.4785895E0,8.106443E0,5.8313837E0,3.2826772E0,1.1959122E0],"tree_param":{"num_deleted":"0","num_feature":"3","num_nodes":"9","size_leaf_vector":"1"}},{"base_weights":[1.4663772E-1,3.790205E-2,4.7074312E-1,1.5563317E-1,-3.668953E-2,4.411286E-2,1.2577699E-2,2.6964877E-2,-9.524268E-4,-3.404664E-2,3.3373337E-2],"categories":[],"categories_nodes":[],"categories_segments":[],"categories_sizes":[],"default_left":[0,0,0,0,0,0,0,0,0,0,0],"id":72,"left_children":[1,3,5,7,-1,-1,9,-1,-1,-1,-1],"loss_changes":[6.9640523E-1,1.5917538E0,9.323263E-1,1.0112392E0,0E0,0E0,1.9905807E0,0E0,0E0,0E0,0E0],"parents":[2147483647,0,0,1,1,2,2,3,3,6,6],"right_children":[2,4,6,8,-1,-1,10,-1,-1,-1,-1],"split_conditions":[2E-1,2.307351E-2,5.5256647E-1,-2.8022426E-1,-3.668953E-2,4.411286E-2,8.573214E-1,2.6964877E-2,-9.524268E-4,-3.404664E-2,3.3373337E-2],"split_indices":[0,0,0,1,0,0,0,0,0,0,0],"split_type":[0,0,0,0,0,0,0,0,0,0,0],"sum_hessian":[1.9267036E1,1.5263241E1,4.0037947E0,1.3935529E1,1.3277123E0,1.6216415E0,2.382153E0,3.70678E0,1.0228749E1,1.1376467E0,1.2445065E0],"tree_param":{"num_deleted":"0","num_feature":"3","num_nodes":"11","size_leaf_vector":"1"}},{"base_weights":[5.115141E-2,-2.3728574E-2,1.11173E-1,2.2819789E-1,-1.2039646E-1,-1.3579445E-2,1.6639944E-2,-1.7087847E-2,2.0424452E-2],"categories":[],"categories_nodes":[],"categories_segments":[],"categories_sizes":[],"default_left":[0,0,0,0,0,0,0,0,0],"id":73,"left_children":[1,-1,3,5,7,-1,-1,-1,-1],"loss_changes":[7.126591E-1,0E0,5.580832E-1,7.88421E-1,9.8578984E-1,0E0,0E0,0E0,0E0],"parents":[2147483647,0,0,2,2,3,3,4,4],"right_children":[2,-1,4,6,8,-1,-1,-1,-1],"split_conditions":[-7.4336416E-1,-2.3728574E-2,1.3943463E-2,-8.247861E-1,7.2336423E-1,-1.3579445E-2,1.6639944E-2,-1.7087847E-2,2.0424452E-2],"split_indices":[1,0,1,0,1,0,0,0,0],"split_type":[0,0,0,0,0,0,0,0,0],"sum_hessian":[1.9912863E1,1.3327513E0,1.858011E1,1.2352345E1,6.2277656E0,1.8615196E0,1.0490826E1,4.639683E0,1.5880828E0],"tree_param":{"num_deleted":"0","num_feature":"3","num_nodes":"9","size_leaf_vector":"1"}},{"base_weights":[-9.769783E-2,3.7396696E-1,-1.8134017E-1,3.5099485E-3,2.51426E-2,-2.76075E-1,1.8378851E-1,-4.951893E-3,-3.318024E-2,2.9017279E-2,-7.100966E-3],"categories":[],"categories_nodes":[],"categories_segments":[],"categories_sizes":[],"default_left":[0,0,0,0,0,0,0,0,0,0,0],"id":74,"left_children":[1,3,5,-1,-1,7,9,-1,-1,-1,-1],"loss_changes":[8.287817E-1,9.123337E-2,6.4074534E-1,0E0,0E0,8.908504E-1,6.139777E-1,0E0,0E0,0E0,0E0],"parents":[2147483647,0,0,1,1,2,2,5,5,6,6],"right_children":[2,4,6,-1,-1,8,10,-1,-1,-1,-1],"split_conditions":[-1E0,-1.4240551E0,3.790235E-1,3.5099485E-3,2.51426E-2,2.307351E-2,5.831437E-1,-4.951893E-3,-3.318024E-2,2.9017279E-2,-7.100966E-3],"split_indices":[0,0,1,0,0,0,1,0,0,0,0],"split_type":[0,0,0,0,0,0,0,0,0,0,0],"sum_hessian":[1.8288834E1,2.2319112E0,1.6056921E1,1.1250217E0,1.1068895E0,1.2942745E1,3.1141768E0,9.7459955E0,3.1967494E0,1.0522182E0,2.0619586E0],"tree_param":{"num_deleted":"0","num_feature":"3","num_nodes":"11","size_leaf_vector":"1"}},{"base_weights":[-3.822151E-2,2.6071042E-2,-1.2843485E-1,-2.1530858E-1,3.0168165E-2,-6.5645203E-3,-3.6342766E-2],"categories":[],"categories_nodes":[],"categories_segments":[],"categories_sizes":[],"default_left":[0,0,0,0,0,0,0],"id":75,"left_children":[1,-1,3,5,-1,-1,-1],"loss_changes":[1.1121087E0,0E0,1.3142753E0,6.5197164E-1,0E0,0E0,0E0],"parents":[2147483647,0,0,2,2,3,3],"right_children":[2,-1,4,6,-1,-1,-1],"split_conditions":[-5.560146E-1,2.6071042E-2,8.573214E-1,5.831437E-1,3.0168165E-2,-6.5645203E-3,-3.6342766E-2],"split_indices":[1,0,0,1,0,0,0],"split_type":[0,0,0,0,0,0,0],"sum_hessian":[1.970109E1,2.0713732E0,1.7629715E1,1.6389818E1,1.239898E0,1.515703E1,1.2327881E0],"tree_param":{"num_deleted":"0","num_feature":"3","num_nodes":"7","size_leaf_vector":"1"}},{"base_weights":[-1.297069E-1,5.690573E-2,-2.6494297E-1,-2.7676362E-1,3.4542534E-1,2.7475473E-1,-4.3044257E-1,4.342348E-3,-3.935687E-2,2.7581234E-2,-4.9192216E-3,-3.1619065E-3,2.5872547E-2,-4.6151094E-2,-9.096861E-3],"categories":[],"categories_nodes":[],"categories_segments":[],"categories_sizes":[],"default_left":[0,0,0,0,0,0,0,0,0,0,0,0,0,0,0],"id":76,"left_children":[1,3,5,7,9,11,13,-1,-1,-1,-1,-1,-1,-1,-1],"loss_changes":[5.1790583E-1,9.808204E-1,1.1659253E0,9.626814E-1,5.462494E-1,3.0859506E-1,9.785743E-1,0E0,0E0,0E0,0E0,0E0,0E0,0E0,0E0],"parents":[2147483647,0,0,1,1,2,2,3,3,4,4,5,5,6,6],"right_children":[2,4,6,8,10,12,14,-1,-1,-1,-1,-1,-1,-1,-1],"split_conditions":[-2.5925925E-1,-3.1927545E-2,-3.0882737E-2,-2.8022426E-1,2.0697348E-1,9.647146E-2,0E0,4.342348E-3,-3.935687E-2,2.7581234E-2,-4.9192216E-3,-3.1619065E-3,2.5872547E-2,-4.6151094E-2,-9.096861E-3],"split_indices":[0,1,1,1,1,0,0,0,0,0,0,0,0,0,0],"split_type":[0,0,0,0,0,0,0,0,0,0,0,0,0,0,0],"sum_hessian":[1.8924469E1,8.195158E0,1.0729311E1,3.8191288E0,4.3760295E0,2.3630853E0,8.366225E0,2.7148197E0,1.1043091E0,2.8219757E0,1.554054E0,1.2966833E0,1.066402E0,1.8952426E0,6.4709826E0],"tree_param":{"num_deleted":"0","num_feature":"3","num_nodes":"15","size_leaf_vector":"1"}},{"base_weights":[2.8246282E-2,2.1495365E-1,-2.1671987E-1,3.750714E-1,-1.7888887E-2,-5.4083014E-1,8.3557025E-2,2.6621753E-2,2.0246976E-4,-3.7923172E-2,-1.1654399E-2,1.5165376E-2,-7.1796603E-3],"categories":[],"categories_nodes":[],"categories_segments":[],"categories_sizes":[],"default_left":[0,0,0,0,0,0,0,0,0,0,0,0,0],"id":77,"left_children":[1,3,5,7,-1,9,11,-1,-1,-1,-1,-1,-1],"loss_changes":[1.016051E0,1.2833102E0,9.8590124E-1,5.9810925E-1,0E0,1.4350486E-1,3.3724067E-1,0E0,0E0,0E0,0E0,0E0,0E0],"parents":[2147483647,0,0,1,1,2,2,3,3,5,5,6,6],"right_children":[2,4,6,8,-1,10,12,-1,-1,-1,-1,-1,-1],"split_conditions":[-4.594768E-2,2.0697348E-1,2E-1,3E0,-1.7888887E-2,3E0,5.5256647E-1,2.6621753E-2,2.0246976E-4,-3.7923172E-2,-1.1654399E-2,1.5165376E-2,-7.1796603E-3],"split_indices":[0,1,0,2,0,2,0,0,0,0,0,0,0],"split_type":[0,0,0,0,0,0,0,0,0,0,0,0,0],"sum_hessian":[2.0196552E1,1.1530668E1,8.665884E0,9.281086E0,2.2495828E0,3.7822871E0,4.883597E0,6.2115116E0,3.0695739E0,1.3575963E0,2.424691E0,2.3118176E0,2.5717793E0],"tree_param":{"num_deleted":"0","num_feature":"3","num_nodes":"13","size_leaf_vector":"1"}},{"base_weights":[-6.0364865E-2,2.6395429E-2,-1.4287437E-1,-4.250751E-2,-4.6517693E-2,2.6486862E-2,-9.235113E-3],"categories":[],"categories_nodes":[],"categories_segments":[],"categories_sizes":[],"default_left":[0,0,0,0,0,0,0],"id":78,"left_children":[1,-1,3,-1,5,-1,-1],"loss_changes":[1.0297581E0,0E0,1.1892147E0,0E0,1.445662E0,0E0,0E0],"parents":[2147483647,0,0,2,2,4,4],"right_children":[2,-1,4,-1,6,-1,-1],"split_conditions":[-5.5834216E-1,2.6395429E-2,-1.07349E0,-4.250751E-2,-5.548766E-1,2.6486862E-2,-9.235113E-3],"split_indices":[1,0,0,0,0,0,0],"split_type":[0,0,0,0,0,0,0],"sum_hessian":[1.8661512E1,1.6314567E0,1.7030056E1,1.1039453E0,1.592611E1,2.532321E0,1.3393789E1],"tree_param":{"num_deleted":"0","num_feature":"3","num_nodes":"7","size_leaf_vector":"1"}},{"base_weights":[3.6478028E-2,3.6910083E-2,-4.372815E-2,-3.9408267E-2,4.5354687E-2,3.530208E-2,-3.760183E-3],"categories":[],"categories_nodes":[],"categories_segments":[],"categories_sizes":[],"default_left":[0,0,0,0,0,0,0],"id":79,"left_children":[1,-1,3,-1,5,-1,-1],"loss_changes":[1.170893E0,0E0,1.3023441E0,0E0,1.4871072E0,0E0,0E0],"parents":[2147483647,0,0,2,2,4,4],"right_children":[2,-1,4,-1,6,-1,-1],"split_conditions":[-2.0294442E0,3.6910083E-2,-7.4336416E-1,-3.9408267E-2,-2.8022426E-1,3.530208E-2,-3.760183E-3],"split_indices":[0,0,1,0,1,0,0],"split_type":[0,0,0,0,0,0,0],"sum_hessian":[1.9230291E1,1.1310387E0,1.8099253E1,1.095655E0,1.70036E1,1.8744978E0,1.5129101E1],"tree_param":{"num_deleted":"0","num_feature":"3","num_nodes":"7","size_leaf_vector":"1"}},{"base_weights":[2.361343E-3,-1.440696E-1,4.6340334E-1,2.2402432E-2,-2.5415534E-1,3.4124937E-2,1.15254916E-1,-2.73534E-2,-7.5087654E-3,-1.07669085E-2,1.8813116E-2],"categories":[],"categories_nodes":[],"categories_segments":[],"categories_sizes":[],"default_left":[0,0,0,0,0,0,0,0,0,0,0],"id":80,"left_children":[1,3,5,-1,7,-1,9,-1,-1,-1,-1],"loss_changes":[1.3938339E0,1.1360638E0,3.008592E-1,0E0,3.400179E-1,0E0,3.5066718E-1,0E0,0E0,0E0,0E0],"parents":[2147483647,0,0,1,1,2,2,4,4,6,6],"right_children":[2,4,6,-1,8,-1,10,-1,-1,-1,-1],"split_conditions":[2E-1,-5.560146E-1,5.5256647E-1,2.2402432E-2,-8.247861E-1,3.4124937E-2,1.3671719E-1,-2.73534E-2,-7.5087654E-3,-1.07669085E-2,1.8813116E-2],"split_indices":[0,1,0,0,0,0,1,0,0,0,0],"split_type":[0,0,0,0,0,0,0,0,0,0,0],"sum_hessian":[1.8657171E1,1.4681662E1,3.97551E0,1.8203809E0,1.286128E1,1.8505576E0,2.1249523E0,2.2530732E0,1.0608208E1,1.0147009E0,1.1102514E0],"tree_param":{"num_deleted":"0","num_feature":"3","num_nodes":"11","size_leaf_vector":"1"}},{"base_weights":[9.7460315E-2,2.7720911E-2,-2.4552206E-2,-1.323681E-1,3.191543E-2,2.7605714E-4,-3.904309E-2],"categories":[],"categories_nodes":[],"categories_segments":[],"categories_sizes":[],"default_left":[0,0,0,0,0,0,0],"id":81,"left_children":[1,-1,3,5,-1,-1,-1],"loss_changes":[9.9152535E-1,0E0,1.1422659E0,1.2167186E0,0E0,0E0,0E0],"parents":[2147483647,0,0,2,2,3,3],"right_children":[2,-1,4,6,-1,-1,-1],"split_conditions":[-3.6697313E-1,2.7720911E-2,8.573214E-1,3.1333977E-1,3.191543E-2,2.7605714E-4,-3.904309E-2],"split_indices":[1,0,0,0,0,0,0],"split_type":[0,0,0,0,0,0,0],"sum_hessian":[1.6539602E1,2.7387116E0,1.3800891E1,1.2558524E1,1.2423662E0,1.1174068E1,1.3844564E0],"tree_param":{"num_deleted":"0","num_feature":"3","num_nodes":"7","size_leaf_vector":"1"}},{"base_weights":[4.0353537E-3,1.1354551E-1,-3.2657664E-2,-1.1541239E-1,3.4146E-1,1.6904434E-2,-1.3877953E-2,3.7163626E-2,7.946671E-3],"categories":[],"categories_nodes":[],"categories_segments":[],"categories_sizes":[],"default_left":[0,0,0,0,0,0,0,0,0],"id":82,"left_children":[1,3,-1,5,7,-1,-1,-1,-1],"loss_changes":[1.3892393E0,9.011974E-1,0E0,7.546078E-1,5.0738883E-1,0E0,0E0,0E0,0E0],"parents":[2147483647,0,0,1,1,3,3,4,4],"right_children":[2,4,-1,6,8,-1,-1,-1,-1],"split_conditions":[3.1333977E-1,-2.4494897E-1,-3.2657664E-2,-5.560146E-1,-7.145896E-2,1.6904434E-2,-1.3877953E-2,3.7163626E-2,7.946671E-3],"split_indices":[0,0,0,1,0,0,0,0,0],"split_type":[0,0,0,0,0,0,0,0,0],"sum_hessian":[1.7272865E1,1.5514794E1,1.7580712E0,7.9859247E0,7.52887E0,1.8175153E0,6.1684093E0,1.3921249E0,6.136745E0],"tree_param":{"num_deleted":"0","num_feature":"3","num_nodes":"9","size_leaf_vector":"1"}},{"base_weights":[-5.014417E-2,-1.3361272E-1,3.1935636E-2,2.939514E-2,-5.467419E-1,1.1308577E-2,-1.1619954E-2,-4.626603E-2,6.0169636E-3],"categories":[],"categories_nodes":[],"categories_segments":[],"categories_sizes":[],"default_left":[0,0,0,0,0,0,0,0,0],"id":83,"left_children":[1,3,-1,5,7,-1,-1,-1,-1],"loss_changes":[1.1863008E0,1.2218841E0,0E0,7.628705E-1,1.4036274E0,0E0,0E0,0E0,0E0],"parents":[2147483647,0,0,1,1,3,3,4,4],"right_children":[2,4,-1,6,8,-1,-1,-1,-1],"split_conditions":[8.573214E-1,1.3943463E-2,3.1935636E-2,-4.594768E-2,3E0,1.1308577E-2,-1.1619954E-2,-4.626603E-2,6.0169636E-3],"split_indices":[0,1,0,0,2,0,0,0,0],"split_type":[0,0,0,0,0,0,0,0,0],"sum_hessian":[1.8147846E1,1.6905457E1,1.2423911E0,1.2788401E1,4.1170554E0,7.378475E0,5.409925E0,2.379522E0,1.7375335E0],"tree_param":{"num_deleted":"0","num_feature":"3","num_nodes":"9","size_leaf_vector":"1"}},{"base_weights":[-1.7346762E-2,7.1314596E-2,-2.7492797E-1,1.9174153E-1,-1.9474009E-2,-5.570119E-1,1.7277615E-2,-3.660411E-3,2.2940164E-2,-4.4027857E-2,4.9446826E-3],"categories":[],"categories_nodes":[],"categories_segments":[],"categories_sizes":[],"default_left":[0,0,0,0,0,0,0,0,0,0,0],"id":84,"left_children":[1,3,5,7,-1,9,-1,-1,-1,-1,-1],"loss_changes":[4.6649382E-1,9.265618E-1,1.1055472E0,9.4217455E-1,0E0,9.293988E-1,0E0,0E0,0E0,0E0,0E0],"parents":[2147483647,0,0,1,1,2,2,3,3,5,5],"right_children":[2,4,6,8,-1,10,-1,-1,-1,-1,-1],"split_conditions":[5.1102556E-2,2.0697348E-1,1.5971914E-1,-1.1683327E-2,-1.9474009E-2,4.082483E-1,1.7277615E-2,-3.660411E-3,2.2940164E-2,-4.4027857E-2,4.9446826E-3],"split_indices":[0,1,1,1,0,0,0,0,0,0,0],"split_type":[0,0,0,0,0,0,0,0,0,0,0],"sum_hessian":[1.856814E1,1.4351415E1,4.2167253E0,1.1840766E1,2.5106487E0,2.9691665E0,1.2475588E0,6.3082647E0,5.532501E0,1.758987E0,1.2101796E0],"tree_param":{"num_deleted":"0","num_feature":"3","num_nodes":"11","size_leaf_vector":"1"}},{"base_weights":[7.6042484E-3,2.9028205E-2,-5.872154E-2,-3.785983E-1,4.4231832E-2,-3.3243984E-2,4.331143E-3,4.308742E-2,-3.8501662E-3],"categories":[],"categories_nodes":[],"categories_segments":[],"categories_sizes":[],"default_left":[0,0,0,0,0,0,0,0,0],"id":85,"left_children":[1,-1,3,5,7,-1,-1,-1,-1],"loss_changes":[8.000974E-1,0E0,6.416E-1,6.8681973E-1,1.5777481E0,0E0,0E0,0E0,0E0],"parents":[2147483647,0,0,2,2,3,3,4,4],"right_children":[2,-1,4,6,8,-1,-1,-1,-1],"split_conditions":[-2.300336E0,2.9028205E-2,-5.767504E-1,-6.1898448E-2,-4.17365E-1,-3.3243984E-2,4.331143E-3,4.308742E-2,-3.8501662E-3],"split_indices":[0,0,0,1,0,0,0,0,0],"split_type":[0,0,0,0,0,0,0,0,0],"sum_hessian":[1.9156979E1,1.1831385E0,1.797384E1,3.7244806E0,1.424936E1,2.039978E0,1.6845027E0,1.0514071E0,1.3197953E1],"tree_param":{"num_deleted":"0","num_feature":"3","num_nodes":"9","size_leaf_vector":"1"}},{"base_weights":[-2.1742815E-2,-2.184139E-2,6.792006E-2,4.69352E-1,-6.396093E-2,4.9421713E-3,3.79591E-2,4.2767185E-4,-1.7073506E-2],"categories":[],"categories_nodes":[],"categories_segments":[],"categories_sizes":[],"default_left":[0,0,0,0,0,0,0,0,0],"id":86,"left_children":[1,-1,3,5,7,-1,-1,-1,-1],"loss_changes":[7.300593E-1,0E0,8.951449E-1,3.717752E-1,2.681539E-1,0E0,0E0,0E0,0E0],"parents":[2147483647,0,0,2,2,3,3,4,4],"right_children":[2,-1,4,6,8,-1,-1,-1,-1],"split_conditions":[-3.6273813E-1,-2.184139E-2,0E0,-1.6230053E-1,5.5256647E-1,4.9421713E-3,3.79591E-2,4.2767185E-4,-1.7073506E-2],"split_indices":[1,0,1,0,0,0,0,0,0],"split_type":[0,0,0,0,0,0,0,0,0],"sum_hessian":[1.7818726E1,2.4775012E0,1.5341225E1,3.1608927E0,1.2180332E1,1.9759483E0,1.1849444E0,1.0425326E1,1.7550057E0],"tree_param":{"num_deleted":"0","num_feature":"3","num_nodes":"9","size_leaf_vector":"1"}},{"base_weights":[4.0117193E-2,1.444802E-1,-4.0693256E-1,3.849364E-2,3.9091628E-2,-2.934722E-2,1.7182025E-3,-3.4342855E-3,2.7970746E-2],"categories":[],"categories_nodes":[],"categories_segments":[],"categories_sizes":[],"default_left":[0,0,0,0,0,0,0,0,0],"id":87,"left_children":[1,3,5,7,-1,-1,-1,-1,-1],"loss_changes":[9.469289E-1,1.0622799E0,3.271898E-1,8.712835E-1,0E0,0E0,0E0,0E0,0E0],"parents":[2147483647,0,0,1,1,2,2,3,3],"right_children":[2,4,6,8,-1,-1,-1,-1,-1],"split_conditions":[3.9669916E-1,4.082483E-1,9.313776E-1,1.5971914E-1,3.9091628E-2,-2.934722E-2,1.7182025E-3,-3.4342855E-3,2.7970746E-2],"split_indices":[1,0,1,1,0,0,0,0,0],"split_type":[0,0,0,0,0,0,0,0,0],"sum_hessian":[1.8036045E1,1.5171174E1,2.8648705E0,1.3917245E1,1.2539291E0,1.8004099E0,1.0644606E0,1.2262405E1,1.6548395E0],"tree_param":{"num_deleted":"0","num_feature":"3","num_nodes":"9","size_leaf_vector":"1"}},{"base_weights":[1.4618334E-2,4.3617347E-1,-8.82879E-2,-2.4518454E-3,3.2959014E-2,2.3161042E-2,-1.6033435E-1,-4.4401873E-2,-4.833657E-4],"categories":[],"categories_nodes":[],"categories_segments":[],"categories_sizes":[],"default_left":[0,0,0,0,0,0,0,0,0],"id":88,"left_children":[1,3,5,-1,-1,-1,7,-1,-1],"loss_changes":[8.8025254E-1,4.6250427E-1,7.2702736E-1,0E0,0E0,0E0,1.6659402E0,0E0,0E0],"parents":[2147483647,0,0,1,1,2,2,6,6],"right_children":[2,4,6,-1,-1,-1,8,-1,-1],"split_conditions":[-2.8022426E-1,-7.4336416E-1,2E0,-2.4518454E-3,3.2959014E-2,2.3161042E-2,-9.360728E-2,-4.4401873E-2,-4.833657E-4],"split_indices":[1,1,2,0,0,0,1,0,0],"split_type":[0,0,0,0,0,0,0,0,0],"sum_hessian":[1.8403667E1,2.9755952E0,1.5428072E1,1.1826143E0,1.7929808E0,1.1552523E0,1.42728195E1,1.6087444E0,1.2664076E1],"tree_param":{"num_deleted":"0","num_feature":"3","num_nodes":"9","size_leaf_vector":"1"}},{"base_weights":[1.07930236E-1,-3.979941E-1,2.0102377E-1,9.239332E-3,-3.7592035E-2,-1.708687E-2,2.8798413E-1,3.729411E-2,7.7629127E-3],"categories":[],"categories_nodes":[],"categories_segments":[],"categories_sizes":[],"default_left":[0,0,0,0,0,0,0,0,0],"id":89,"left_children":[1,3,5,-1,-1,-1,7,-1,-1],"loss_changes":[1.0282913E0,8.533921E-1,9.323938E-1,0E0,0E0,0E0,8.4274757E-1,0E0,0E0],"parents":[2147483647,0,0,1,1,2,2,6,6],"right_children":[2,4,6,-1,-1,-1,8,-1,-1],"split_conditions":[-4.7301617E-1,-1E0,-9.9591E-1,9.239332E-3,-3.7592035E-2,-1.708687E-2,-1.7108831E-1,3.729411E-2,7.7629127E-3],"split_indices":[1,0,0,0,0,0,1,0,0],"split_type":[0,0,0,0,0,0,0,0,0],"sum_hessian":[1.9134172E1,2.4646466E0,1.6669525E1,1.1116126E0,1.353034E0,1.8973643E0,1.47721615E1,2.2814724E0,1.2490689E1],"tree_param":{"num_deleted":"0","num_feature":"3","num_nodes":"9","size_leaf_vector":"1"}},{"base_weights":[-1.499159E-1,2.864327E-2,-2.322645E-1,-3.8733106E-2,-1.4836927E-1,4.4688205E-3,-1.9968968E-2],"categories":[],"categories_nodes":[],"categories_segments":[],"categories_sizes":[],"default_left":[0,0,0,0,0,0,0],"id":90,"left_children":[1,-1,3,-1,5,-1,-1],"loss_changes":[1.2331588E0,0E0,6.724747E-1,0E0,1.0038235E0,0E0,0E0],"parents":[2147483647,0,0,2,2,4,4],"right_children":[2,-1,4,-1,6,-1,-1],"split_conditions":[-2.300336E0,2.864327E-2,-7.4336416E-1,-3.8733106E-2,3E0,4.4688205E-3,-1.9968968E-2],"split_indices":[0,0,1,0,2,0,0],"split_type":[0,0,0,0,0,0,0],"sum_hessian":[1.7482899E1,1.1789098E0,1.630399E1,1.0810598E0,1.5222929E1,8.148737E0,7.074192E0],"tree_param":{"num_deleted":"0","num_feature":"3","num_nodes":"7","size_leaf_vector":"1"}},{"base_weights":[-1.8048586E-1,-5.180351E-1,-4.0335372E-2,-6.116193E-1,-3.5200424E-3,2.0371186E-2,-1.2447245E-1,-3.6705423E-2,-5.370077E-3,-3.1364515E-2,3.3421777E-4],"categories":[],"categories_nodes":[],"categories_segments":[],"categories_sizes":[],"default_left":[0,0,0,0,0,0,0,0,0,0,0],"id":91,"left_children":[1,3,5,7,-1,-1,9,-1,-1,-1,-1],"loss_changes":[9.562694E-1,2.0726836E-1,6.414242E-1,2.1836662E-1,0E0,0E0,9.251954E-1,0E0,0E0,0E0,0E0],"parents":[2147483647,0,0,1,1,2,2,3,3,6,6],"right_children":[2,4,6,8,-1,-1,10,-1,-1,-1,-1],"split_conditions":[-5.767504E-1,3E0,-3.7032804E-1,-6.571429E-1,-3.5200424E-3,2.0371186E-2,-2.4494897E-1,-3.6705423E-2,-5.370077E-3,-3.1364515E-2,3.3421777E-4],"split_indices":[0,2,0,0,0,0,0,0,0,0,0],"split_type":[0,0,0,0,0,0,0,0,0,0,0],"sum_hessian":[1.9655508E1,4.9756026E0,1.4679905E1,3.8122597E0,1.1633431E0,1.7143152E0,1.296559E1,2.7003345E0,1.1119251E0,1.8997475E0,1.1065842E1],"tree_param":{"num_deleted":"0","num_feature":"3","num_nodes":"11","size_leaf_vector":"1"}},{"base_weights":[-6.4697094E-2,-2.7007583E-1,1.2900822E-1,-5.489806E-2,-4.2440854E-2,3.278753E-1,-7.109057E-2,-1.2866989E-2,1.9250844E-2,9.094705E-5,2.4531757E-2,-3.22792E-2,8.969671E-3],"categories":[],"categories_nodes":[],"categories_segments":[],"categories_sizes":[],"default_left":[0,0,0,0,0,0,0,0,0,0,0,0,0],"id":92,"left_children":[1,3,5,7,-1,9,11,-1,-1,-1,-1,-1,-1],"loss_changes":[8.0082774E-1,1.1574697E0,4.4453418E-1,8.219868E-1,0E0,2.9030854E-1,9.933488E-1,0E0,0E0,0E0,0E0,0E0,0E0],"parents":[2147483647,0,0,1,1,2,2,3,3,5,5,6,6],"right_children":[2,4,6,8,-1,10,12,-1,-1,-1,-1,-1,-1],"split_conditions":[-1.6230053E-1,-2.5925925E-1,5.1102556E-2,-5.767504E-1,-4.2440854E-2,0E0,2E-1,-1.2866989E-2,1.9250844E-2,9.094705E-5,2.4531757E-2,-3.22792E-2,8.969671E-3],"split_indices":[0,0,0,0,0,0,0,0,0,0,0,0,0],"split_type":[0,0,0,0,0,0,0,0,0,0,0,0,0],"sum_hessian":[1.8254122E1,8.668726E0,9.585396E0,7.117336E0,1.5513895E0,4.4872255E0,5.0981708E0,5.158501E0,1.9588348E0,1.8307883E0,2.656437E0,1.0690113E0,4.0291595E0],"tree_param":{"num_deleted":"0","num_feature":"3","num_nodes":"13","size_leaf_vector":"1"}},{"base_weights":[-5.2064046E-2,2.806049E-2,-1.5537855E-1,-4.1280863E-1,1.3561137E-1,1.0196393E-2,-2.8556898E-2,-5.0219186E-3,3.0983193E-2],"categories":[],"categories_nodes":[],"categories_segments":[],"categories_sizes":[],"default_left":[0,0,0,0,0,0,0,0,0],"id":93,"left_children":[1,-1,3,5,7,-1,-1,-1,-1],"loss_changes":[1.2371311E0,0E0,1.2781799E0,9.859543E-1,1.0233217E0,0E0,0E0,0E0,0E0],"parents":[2147483647,0,0,2,2,3,3,4,4],"right_children":[2,-1,4,6,8,-1,-1,-1,-1],"split_conditions":[-5.560146E-1,2.806049E-2,3E0,-1.7108831E-1,1.3671719E-1,1.0196393E-2,-2.8556898E-2,-5.0219186E-3,3.0983193E-2],"split_indices":[1,0,2,1,1,0,0,0,0],"split_type":[0,0,0,0,0,0,0,0,0],"sum_hessian":[1.7149145E1,1.8334935E0,1.5315651E1,7.9043093E0,7.4113417E0,1.5558488E0,6.34846E0,5.514623E0,1.8967186E0],"tree_param":{"num_deleted":"0","num_feature":"3","num_nodes":"9","size_leaf_vector":"1"}},{"base_weights":[9.938524E-2,1.9203225E-1,-3.773736E-1,8.0752075E-2,3.8631864E-2,-3.7329014E-2,4.8998753E-3,9.216935E-3,-3.326202E-2],"categories":[],"categories_nodes":[],"categories_segments":[],"categories_sizes":[],"default_left":[0,0,0,0,0,0,0,0,0],"id":94,"left_children":[1,3,5,7,-1,-1,-1,-1,-1],"loss_changes":[9.7092897E-1,1.0808127E0,7.1322644E-1,1.3563117E0,0E0,0E0,0E0,0E0,0E0],"parents":[2147483647,0,0,1,1,2,2,3,3],"right_children":[2,4,6,8,-1,-1,-1,-1,-1],"split_conditions":[3.9669916E-1,1.5971914E-1,7.2336423E-1,1.3943463E-2,3.8631864E-2,-3.7329014E-2,4.8998753E-3,9.216935E-3,-3.326202E-2],"split_indices":[1,1,1,1,0,0,0,0,0],"split_type":[0,0,0,0,0,0,0,0,0],"sum_hessian":[1.9340853E1,1.6693977E1,2.6468737E0,1.4964859E1,1.7291187E0,1.1686764E0,1.4781973E0,1.3801335E1,1.1635239E0],"tree_param":{"num_deleted":"0","num_feature":"3","num_nodes":"9","size_leaf_vector":"1"}},{"base_weights":[5.949242E-2,-8.850945E-2,5.199944E-1,2.8176978E-2,-1.7796405E-1,3.4070145E-2,4.025762E-3,-3.902518E-2,-3.716457E-3],"categories":[],"categories_nodes":[],"categories_segments":[],"categories_sizes":[],"default_left":[0,0,0,0,0,0,0,0,0],"id":95,"left_children":[1,3,5,-1,7,-1,-1,-1,-1],"loss_changes":[1.4151328E0,1.036862E0,3.0203795E-1,0E0,8.7113535E-1,0E0,0E0,0E0,0E0],"parents":[2147483647,0,0,1,1,2,2,4,4],"right_children":[2,4,6,-1,8,-1,-1,-1,-1],"split_conditions":[2E-1,-2.300336E0,3.9669916E-1,2.8176978E-2,-1.07349E0,3.4070145E-2,4.025762E-3,-3.902518E-2,-3.716457E-3],"split_indices":[0,0,1,0,0,0,0,0,0],"split_type":[0,0,0,0,0,0,0,0,0],"sum_hessian":[1.9088114E1,1.5056777E1,4.031337E0,1.1770853E0,1.3879691E1,2.5458412E0,1.4854954E0,1.0784189E0,1.2801272E1],"tree_param":{"num_deleted":"0","num_feature":"3","num_nodes":"9","size_leaf_vector":"1"}},{"base_weights":[-4.851376E-3,2.745433E-2,-7.213232E-2,-1.827465E-1,3.179431E-1,-4.2144004E-3,-3.444056E-2,2.8475482E-2,-5.174585E-5],"categories":[],"categories_nodes":[],"categories_segments":[],"categories_sizes":[],"default_left":[0,0,0,0,0,0,0,0,0],"id":96,"left_children":[1,-1,3,5,7,-1,-1,-1,-1],"loss_changes":[7.4778134E-1,0E0,8.2731736E-1,6.656152E-1,3.459189E-1,0E0,0E0,0E0,0E0],"parents":[2147483647,0,0,2,2,3,3,4,4],"right_children":[2,-1,4,6,8,-1,-1,-1,-1],"split_conditions":[-2.300336E0,2.745433E-2,2E-1,3.8556784E-1,3.1333977E-1,-4.2144004E-3,-3.444056E-2,2.8475482E-2,-5.174585E-5],"split_indices":[0,0,0,1,0,0,0,0,0],"split_type":[0,0,0,0,0,0,0,0,0],"sum_hessian":[1.8001463E1,1.1740625E0,1.68274E1,1.3523916E1,3.303484E0,1.229784E1,1.2260767E0,1.4077905E0,1.8956934E0],"tree_param":{"num_deleted":"0","num_feature":"3","num_nodes":"9","size_leaf_vector":"1"}},{"base_weights":[-2.2242531E-2,2.8280047E-1,-2.1217678E-1,-1.4658058E-1,6.8701845E-1,-6.251255E-1,8.851842E-2,2.675503E-2,-2.7577007E-2,5.9643984E-2,-1.866975E-2,-5.1456545E-3,-3.9693873E-2,-1.7841594E-2,1.4967081E-2],"categories":[],"categories_nodes":[],"categories_segments":[],"categories_sizes":[],"default_left":[0,0,0,0,0,0,0,0,0,0,0,0,0,0,0],"id":97,"left_children":[1,3,5,7,9,11,13,-1,-1,-1,-1,-1,-1,-1,-1],"loss_changes":[1.1282827E0,1.4030994E0,1.5372528E0,1.5271088E0,2.613109E0,3.7237167E-1,8.3744866E-1,0E0,0E0,0E0,0E0,0E0,0E0,0E0,0E0],"parents":[2147483647,0,0,1,1,2,2,3,3,4,4,5,5,6,6],"right_children":[2,4,6,8,10,12,14,-1,-1,-1,-1,-1,-1,-1,-1],"split_conditions":[-3.7032804E-1,-8.247861E-1,-1.4920942E-2,-2.300336E0,3E0,-2.5925925E-1,3E0,2.675503E-2,-2.7577007E-2,5.9643984E-2,-1.866975E-2,-5.1456545E-3,-3.9693873E-2,-1.7841594E-2,1.4967081E-2],"split_indices":[0,0,0,0,2,0,2,0,0,0,0,0,0,0,0],"split_type":[0,0,0,0,0,0,0,0,0,0,0,0,0,0,0],"sum_hessian":[1.7438278E1,6.5038548E0,1.0934423E1,3.462831E0,3.0410237E0,4.1526284E0,6.7817945E0,1.1707324E0,2.2920985E0,1.9742875E0,1.0667363E0,1.4073502E0,2.7452784E0,1.95642E0,4.8253746E0],"tree_param":{"num_deleted":"0","num_feature":"3","num_nodes":"15","size_leaf_vector":"1"}},{"base_weights":[4.837206E-2,1.5189715E-1,-3.1965885E-2,1.07706515E-2,3.9988793E-2,5.5124266E-3,-3.250529E-2],"categories":[],"categories_nodes":[],"categories_segments":[],"categories_sizes":[],"default_left":[0,0,0,0,0,0,0],"id":98,"left_children":[1,3,-1,5,-1,-1,-1],"loss_changes":[1.4435245E0,1.5682025E0,0E0,1.0692915E0,0E0,0E0,0E0],"parents":[2147483647,0,0,1,1,3,3],"right_children":[2,4,-1,6,-1,-1,-1],"split_conditions":[5.831437E-1,1.5971914E-1,-3.1965885E-2,1.3943463E-2,3.9988793E-2,5.5124266E-3,-3.250529E-2],"split_indices":[1,1,0,1,0,0,0],"split_type":[0,0,0,0,0,0,0],"sum_hessian":[1.7912128E1,1.6245625E1,1.666503E0,1.4174613E1,2.0710115E0,1.3044308E1,1.1303053E0],"tree_param":{"num_deleted":"0","num_feature":"3","num_nodes":"7","size_leaf_vector":"1"}},{"base_weights":[6.8655364E-2,4.0309232E-1,-3.1000681E-2,-5.185871E-4,2.7027149E-2,1.5081011E-2,-1.06543496E-1,-3.0156437E-2,1.0074553E-3],"categories":[],"categories_nodes":[],"categories_segments":[],"categories_sizes":[],"default_left":[0,0,0,0,0,0,0,0,0],"id":99,"left_children":[1,3,5,-1,-1,-1,7,-1,-1],"loss_changes":[6.636829E-1,2.6457846E-1,4.3370345E-1,0E0,0E0,0E0,8.7800664E-1,0E0,0E0],"parents":[2147483647,0,0,1,1,2,2,6,6],"right_children":[2,4,6,-1,-1,-1,8,-1,-1],"split_conditions":[-2.8022426E-1,-7.443491E-1,-6.430526E-1,-5.185871E-4,2.7027149E-2,1.5081011E-2,-3.8088664E-1,-3.0156437E-2,1.0074553E-3],"split_indices":[1,1,0,0,0,0,0,0,0],"split_type":[0,0,0,0,0,0,0,0,0],"sum_hessian":[1.8538338E1,3.5568902E0,1.4981448E1,1.1180962E0,2.4387941E0,2.2188728E0,1.2762575E1,1.8298224E0,1.0932754E1],"tree_param":{"num_deleted":"0","num_feature":"3","num_nodes":"9","size_leaf_vector":"1"}},{"base_weights":[-8.736221E-3,2.591129E-2,-6.873365E-2,-2.5740108E-2,2.2275988E-2,7.2596814E-3,-9.757697E-3],"categories":[],"categories_nodes":[],"categories_segments":[],"categories_sizes":[],"default_left":[0,0,0,0,0,0,0],"id":100,"left_children":[1,-1,3,-1,5,-1,-1],"loss_changes":[6.6865724E-1,0E0,7.770665E-1,0E0,4.7256288E-1,0E0,0E0],"parents":[2147483647,0,0,2,2,4,4],"right_children":[2,-1,4,-1,6,-1,-1],"split_conditions":[-2.300336E0,2.591129E-2,-8.247861E-1,-2.5740108E-2,5.1102556E-2,7.2596814E-3,-9.757697E-3],"split_indices":[0,0,0,0,0,0,0],"split_type":[0,0,0,0,0,0,0],"sum_hessian":[1.9022469E1,1.1637444E0,1.7858725E1,2.2371485E0,1.5621575E1,1.0192035E1,5.4295406E0],"tree_param":{"num_deleted":"0","num_feature":"3","num_nodes":"7","size_leaf_vector":"1"}},{"base_weights":[2.7649065E-2,1.2370596E-1,-2.7944768E-2,2.9670683E-1,-2.8981686E-1,-1.1827539E-2,1.8725282E-2,-3.6106806E-3,-2.6382422E-2],"categories":[],"categories_nodes":[],"categories_segments":[],"categories_sizes":[],"default_left":[0,0,0,0,0,0,0,0,0],"id":101,"left_children":[1,3,-1,5,7,-1,-1,-1,-1],"loss_changes":[1.0487239E0,1.2133602E0,0E0,5.7002723E-1,2.2863305E-1,0E0,0E0,0E0,0E0],"parents":[2147483647,0,0,1,1,3,3,4,4],"right_children":[2,4,-1,6,8,-1,-1,-1,-1],"split_conditions":[4E0,1.3943463E-2,-2.7944768E-2,-1.4240551E0,3.0151135E-1,-1.1827539E-2,1.8725282E-2,-3.6106806E-3,-2.6382422E-2],"split_indices":[2,1,0,0,0,0,0,0,0],"split_type":[0,0,0,0,0,0,0,0,0],"sum_hessian":[1.6386524E1,1.4758634E1,1.6278903E0,1.0604598E1,4.154036E0,1.0903624E0,9.5142355E0,2.8500373E0,1.3039987E0],"tree_param":{"num_deleted":"0","num_feature":"3","num_nodes":"9","size_leaf_vector":"1"}},{"base_weights":[-1.8534388E-2,-4.3028715E-1,1.201765E-1,-2.904583E-2,-7.6766238E-3,2.7362395E-2,1.8129794E-2,-1.9786049E-2,6.903199E-3],"categories":[],"categories_nodes":[],"categories_segments":[],"categories_sizes":[],"default_left":[0,0,0,0,0,0,0,0,0],"id":102,"left_children":[1,3,5,-1,-1,-1,7,-1,-1],"loss_changes":[1.0895473E0,1.107952E-1,6.165101E-1,0E0,0E0,0E0,6.8181956E-1,0E0,0E0],"parents":[2147483647,0,0,1,1,2,2,6,6],"right_children":[2,4,6,-1,-1,-1,8,-1,-1],"split_conditions":[-5.767504E-1,-6.1898448E-2,-3.7032804E-1,-2.904583E-2,-7.6766238E-3,2.7362395E-2,-2.4494897E-1,-1.9786049E-2,6.903199E-3],"split_indices":[0,1,0,0,0,0,0,0,0],"split_type":[0,0,0,0,0,0,0,0,0],"sum_hessian":[1.7171133E1,3.7972474E0,1.3373885E1,1.7472435E0,2.050004E0,1.7379103E0,1.1635975E1,2.097782E0,9.538193E0],"tree_param":{"num_deleted":"0","num_feature":"3","num_nodes":"9","size_leaf_vector":"1"}},{"base_weights":[1.5249337E-1,2.1213612E-1,-2.2234042E-1,-1.9112078E-2,2.7279106E-1,-2.1957409E-2,4.8268917E-3,1.9334005E-2,-7.3136576E-3],"categories":[],"categories_nodes":[],"categories_segments":[],"categories_sizes":[],"default_left":[0,0,0,0,0,0,0,0,0],"id":103,"left_children":[1,3,5,-1,7,-1,-1,-1,-1],"loss_changes":[5.0068724E-1,7.536818E-1,2.6867726E-1,0E0,8.645152E-1,0E0,0E0,0E0,0E0],"parents":[2147483647,0,0,1,1,2,2,4,4],"right_children":[2,4,6,-1,8,-1,-1,-1,-1],"split_conditions":[4E0,-7.4336416E-1,-3.2163376E-1,-1.9112078E-2,3.104602E-1,-2.1957409E-2,4.8268917E-3,1.9334005E-2,-7.3136576E-3],"split_indices":[2,1,0,0,1,0,0,0,0],"split_type":[0,0,0,0,0,0,0,0,0],"sum_hessian":[1.9286211E1,1.7013166E1,2.2730453E0,1.0844436E0,1.5928722E1,1.128562E0,1.1444834E0,1.2585609E1,3.343113E0],"tree_param":{"num_deleted":"0","num_feature":"3","num_nodes":"9","size_leaf_vector":"1"}},{"base_weights":[-4.6287023E-2,2.6184743E-2,-1.1008165E-1,-5.991385E-3,-3.3955097E-2,7.3504606E-3,-1.5492345E-2],"categories":[],"categories_nodes":[],"categories_segments":[],"categories_sizes":[],"default_left":[0,0,0,0,0,0,0],"id":104,"left_children":[1,-1,3,5,-1,-1,-1],"loss_changes":[7.770529E-1,0E0,1.098751E0,8.2421345E-1,0E0,0E0,0E0],"parents":[2147483647,0,0,2,2,3,3],"right_children":[2,-1,4,6,-1,-1,-1],"split_conditions":[-2.300336E0,2.6184743E-2,4E0,1.3943463E-2,-3.3955097E-2,7.3504606E-3,-1.5492345E-2],"split_indices":[0,0,2,1,0,0,0],"split_type":[0,0,0,0,0,0,0],"sum_hessian":[1.8784609E1,1.1651694E0,1.761944E1,1.5749019E1,1.8704218E0,1.08180065E1,4.9310117E0],"tree_param":{"num_deleted":"0","num_feature":"3","num_nodes":"7","size_leaf_vector":"1"}},{"base_weights":[-8.885637E-2,1.1270682E-2,-3.311214E-2,-1.0383502E-1,3.7642363E-1,-1.1168231E-2,1.4503163E-2,3.6051657E-2,-1.0712712E-2],"categories":[],"categories_nodes":[],"categories_segments":[],"categories_sizes":[],"default_left":[0,0,0,0,0,0,0,0,0],"id":105,"left_children":[1,3,-1,5,7,-1,-1,-1,-1],"loss_changes":[1.1009151E0,7.619254E-1,0E0,7.173365E-1,1.0375092E0,0E0,0E0,0E0,0E0],"parents":[2147483647,0,0,1,1,3,3,4,4],"right_children":[2,4,-1,6,8,-1,-1,-1,-1],"split_conditions":[4E0,2E-1,-3.311214E-2,1.5971914E-1,3.9669916E-1,-1.1168231E-2,1.4503163E-2,3.6051657E-2,-1.0712712E-2],"split_indices":[2,0,0,1,1,0,0,0,0],"split_type":[0,0,0,0,0,0,0,0,0],"sum_hessian":[1.8045856E1,1.6197693E1,1.848163E0,1.285964E1,3.3380532E0,1.0197973E1,2.661667E0,1.9687626E0,1.3692905E0],"tree_param":{"num_deleted":"0","num_feature":"3","num_nodes":"9","size_leaf_vector":"1"}},{"base_weights":[-1.7506391E-1,1.3467723E-1,-2.9231057E-1,-5.3130392E-2,1.9121196E-2,-3.692999E-1,1.2487787E-2,1.1894295E-2,-1.5086724E-2,-2.4138475E-2,-3.949387E-3],"categories":[],"categories_nodes":[],"categories_segments":[],"categories_sizes":[],"default_left":[0,0,0,0,0,0,0,0,0,0,0],"id":106,"left_children":[1,3,5,7,-1,9,-1,-1,-1,-1,-1],"loss_changes":[7.379278E-1,2.979309E-1,6.8772995E-1,3.808336E-1,0E0,3.8674557E-1,0E0,0E0,0E0,0E0,0E0],"parents":[2147483647,0,0,1,1,2,