{"learner":{"attributes":{"best_iteration":"9","best_score":"0.7060616811116537"},"feature_names":["Home","Minutes Diff","Rest Days","UR","Recent T"],"feature_types":["float","float","float","float","float"],"gradient_booster":{"model":{"gbtree_model_param":{"num_parallel_tree":"1","num_trees":"60"},"iteration_indptr":[0,1,2,3,4,5,6,7,8,9,10,11,12,13,14,15,16,17,18,19,20,21,22,23,24,25,26,27,28,29,30,31,32,33,34,35,36,37,38,39,40,41,42,43,44,45,46,47,48,49,50,51,52,53,54,55,56,57,58,59,60],"tree_info":[0,0,0,0,0,0,0,0,0,0,0,0,0,0,0,0,0,0,0,0,0,0,0,0,0,0,0,0,0,0,0,0,0,0,0,0,0,0,0,0,0,0,0,0,0,0,0,0,0,0,0,0,0,0,0,0,0,0,0,0],"trees":[{"base_weights":[6.1901927E-2,-6.0706045E-2,1.3324545E-1,-4.5491826E-2,1.9853629E-1,5.126026E-2,3.8942979E-3],"categories":[],"categories_nodes":[],"categories_segments":[],"categories_sizes":[],"default_left":[0,0,0,0,0,0,0],"id":0,"left_children":[1,-1,3,-1,5,-1,-1],"loss_changes":[3.8434646E0,0E0,2.8504233E0,0E0,3.681608E0,0E0,0E0],"parents":[2147483647,0,0,2,2,4,4],"right_children":[2,-1,4,-1,6,-1,-1],"split_conditions":[-4.9423075E0,-6.0706045E-2,2.3076923E-1,-4.5491826E-2,3.75E-1,5.126026E-2,3.8942979E-3],"split_indices":[1,0,3,0,3,0,0],"split_type":[0,0,0,0,0,0,0],"sum_hessian":[3.9442127E1,1.2403185E0,3.820181E1,1.4883822E0,3.671343E1,3.7209554E0,3.2992474E1],"tree_param":{"num_deleted":"0","num_feature":"5","num_nodes":"7","size_leaf_vector":"1"}},{"base_weights":[-7.8153655E-2,1.4036298E-1,-5.6969357E-1,-4.4653814E-2,2.632703E-1,-1.2038234E0,-2.1598941E-1,-5.024933E-3,3.13766E-2,-1.6180422E-2,-7.305656E-2,-2.7988106E-2,3.9936747E-2],"categories":[],"categories_nodes":[],"categories_segments":[],"categories_sizes":[],"default_left":[0,0,0,0,0,0,0,0,0,0,0,0,0],"id":1,"left_children":[1,3,5,-1,7,9,11,-1,-1,-1,-1,-1,-1],"loss_changes":[4.3411827E0,3.825372E0,2.522749E0,0E0,3.5127323E0,4.8377705E-1,3.6504588E0,0E0,0E0,0E0,0E0,0E0,0E0],"parents":[2147483647,0,0,1,1,2,2,4,4,5,5,6,6],"right_children":[2,4,6,-1,8,10,12,-1,-1,-1,-1,-1,-1],"split_conditions":[3.403143E-1,3E-1,7.1428575E-2,-4.4653814E-2,-3.6842105E-1,-2.1388888E0,3E0,-5.024933E-3,3.13766E-2,-1.6180422E-2,-7.305656E-2,-2.7988106E-2,3.9936747E-2],"split_indices":[4,3,1,0,4,1,2,0,0,0,0,0,0],"split_type":[0,0,0,0,0,0,0,0,0,0,0,0,0],"sum_hessian":[3.8672596E1,2.726586E1,1.1406738E1,2.2320335E0,2.5033825E1,3.2237108E0,8.183027E0,1.2887681E1,1.2146145E1,1.2398888E0,1.983822E0,6.447183E0,1.7358443E0],"tree_param":{"num_deleted":"0","num_feature":"5","num_nodes":"13","size_leaf_vector":"1"}},{"base_weights":[5.3720713E-2,-6.3192534E-1,2.7563912E-1,-2.1654569E-1,-1.0056238E0,6.495987E-2,7.739615E-1,2.804443E-2,-3.572187E-2,-5.156019E-3,-6.6907056E-2,4.2763192E-2,-6.9222893E-3,1.2853185E-3,5.0140318E-2],"categories":[],"categories_nodes":[],"categories_segments":[],"categories_sizes":[],"default_left":[0,0,0,0,0,0,0,0,0,0,0,0,0,0,0],"id":2,"left_children":[1,3,5,7,9,11,13,-1,-1,-1,-1,-1,-1,-1,-1],"loss_changes":[6.474823E0,1.4010959E0,3.3071485E0,2.805823E0,1.4271755E0,3.9071088E0,1.5857272E0,0E0,0E0,0E0,0E0,0E0,0E0,0E0,0E0],"parents":[2147483647,0,0,1,1,2,2,3,3,4,4,5,5,6,6],"right_children":[2,4,6,8,10,12,14,-1,-1,-1,-1,-1,-1,-1,-1],"split_conditions":[-1.45E0,1E0,3E0,-3.8474897E-1,4.4444445E-1,-1.6666667E-1,-3.9911407E-1,2.804443E-2,-3.572187E-2,-5.156019E-3,-6.6907056E-2,4.2763192E-2,-6.9222893E-3,1.2853185E-3,5.0140318E-2],"split_indices":[1,0,2,4,3,1,4,0,0,0,0,0,0,0,0],"split_type":[0,0,0,0,0,0,0,0,0,0,0,0,0,0,0],"sum_hessian":[4.040868E1,9.428997E0,3.0979683E1,5.2134843E0,4.2155128E0,2.2568567E1,8.411115E0,1.9859655E0,3.2275186E0,1.4877226E0,2.72779E0,3.963649E0,1.860492E1,2.2304692E0,6.180645E0],"tree_param":{"num_deleted":"0","num_feature":"5","num_nodes":"15","size_leaf_vector":"1"}},{"base_weights":[-5.3026926E-2,-5.80101E-2,7.3136855E-3,4.490455E-2,-5.9165724E-2,-2.6602656E-2,3.4796544E-3],"categories":[],"categories_nodes":[],"categories_segments":[],"categories_sizes":[],"default_left":[0,0,0,0,0,0,0],"id":3,"left_children":[1,-1,3,-1,5,-1,-1],"loss_changes":[2.905378E0,0E0,2.5470803E0,0E0,2.4803467E0,0E0,0E0],"parents":[2147483647,0,0,2,2,4,4],"right_children":[2,-1,4,-1,6,-1,-1],"split_conditions":[-4.9423075E0,-5.80101E-2,-3.6E0,4.490455E-2,-1.45E0,-2.6602656E-2,3.4796544E-3],"split_indices":[1,0,1,0,1,0,0],"split_type":[0,0,0,0,0,0,0],"sum_hessian":[4.236171E1,1.2473235E0,4.1114384E1,1.9865606E0,3.9127823E1,7.7034607E0,3.1424362E1],"tree_param":{"num_deleted":"0","num_feature":"5","num_nodes":"7","size_leaf_vector":"1"}},{"base_weights":[8.187388E-2,-3.8221514E-1,2.3841372E-1,1.8196164E-1,-9.281343E-1,1.1259099E-1,5.730996E-1,3.827098E-2,-3.756502E-2,3.9424426E-3,-6.793425E-2,9.479021E-3,-3.863036E-2,2.9845252E-3,4.448288E-2],"categories":[],"categories_nodes":[],"categories_segments":[],"categories_sizes":[],"default_left":[0,0,0,0,0,0,0,0,0,0,0,0,0,0,0],"id":4,"left_children":[1,3,5,7,9,11,13,-1,-1,-1,-1,-1,-1,-1,-1],"loss_changes":[3.2766216E0,3.6935358E0,1.3421636E0,4.094781E0,2.6997828E0,1.8858078E0,1.3904974E0,0E0,0E0,0E0,0E0,0E0,0E0,0E0,0E0],"parents":[2147483647,0,0,1,1,2,2,3,3,4,4,5,5,6,6],"right_children":[2,4,6,8,10,12,14,-1,-1,-1,-1,-1,-1,-1,-1],"split_conditions":[-1.45E0,1E0,3E0,3.1219527E-2,-3.25E0,3.9318182E0,1.1538461E0,3.827098E-2,-3.756502E-2,3.9424426E-3,-6.793425E-2,9.479021E-3,-3.863036E-2,2.9845252E-3,4.448288E-2],"split_indices":[1,0,2,4,1,1,1,0,0,0,0,0,0,0,0],"split_type":[0,0,0,0,0,0,0,0,0,0,0,0,0,0,0],"sum_hessian":[4.284811E1,1.044386E1,3.240425E1,5.463907E0,4.9799533E0,2.4521849E1,7.8824034E0,3.4726906E0,1.9912163E0,1.7361846E0,3.2437687E0,2.3282688E1,1.2391607E0,3.459759E0,4.422644E0],"tree_param":{"num_deleted":"0","num_feature":"5","num_nodes":"15","size_leaf_vector":"1"}},{"base_weights":[-6.0239837E-2,-5.5309844E-1,8.716574E-2,-1.0285652E-1,-5.0171185E-2,7.6244426E-1,-2.437723E-2,-3.7276804E-2,2.0282378E-2,5.9578896E-2,6.3826574E-4,-3.1800035E-2,9.265578E-3],"categories":[],"categories_nodes":[],"categories_segments":[],"categories_sizes":[],"default_left":[0,0,0,0,0,0,0,0,0,0,0,0,0],"id":5,"left_children":[1,3,5,7,-1,9,11,-1,-1,-1,-1,-1,-1],"loss_changes":[3.0700412E0,1.8659983E0,2.4953475E0,2.253707E0,0E0,1.4944165E0,3.8614392E0,0E0,0E0,0E0,0E0,0E0,0E0],"parents":[2147483647,0,0,1,1,2,2,3,3,5,5,6,6],"right_children":[2,4,6,8,-1,10,12,-1,-1,-1,-1,-1,-1],"split_conditions":[-1.4642857E0,-3.8474897E-1,-4.5E-1,-1.2112035E0,-5.0171185E-2,-3.352119E-1,-3.9911407E-1,-3.7276804E-2,2.0282378E-2,5.9578896E-2,6.3826574E-4,-3.1800035E-2,9.265578E-3],"split_indices":[1,4,1,4,0,4,4,0,0,0,0,0,0],"split_type":[0,0,0,0,0,0,0,0,0,0,0,0,0],"sum_hessian":[4.059429E1,8.712235E0,3.1882057E1,4.97078E0,3.7414556E0,3.6924741E0,2.8189583E1,1.989804E0,2.980976E0,1.9734021E0,1.7190721E0,6.6780057E0,2.1511578E1],"tree_param":{"num_deleted":"0","num_feature":"5","num_nodes":"13","size_leaf_vector":"1"}},{"base_weights":[5.9588184E-3,-5.5966288E-2,6.7096524E-2,2.5772604E-1,-1.24213845E-1,4.146974E-2,-4.0584127E-3,-3.180727E-2,7.06679E-3],"categories":[],"categories_nodes":[],"categories_segments":[],"categories_sizes":[],"default_left":[0,0,0,0,0,0,0,0,0],"id":6,"left_children":[1,-1,3,5,7,-1,-1,-1,-1],"loss_changes":[3.002813E0,0E0,1.5384219E0,4.1386833E0,2.9842792E0,0E0,0E0,0E0,0E0],"parents":[2147483647,0,0,2,2,3,3,4,4],"right_children":[2,-1,4,6,8,-1,-1,-1,-1],"split_conditions":[-4.9423075E0,-5.5966288E-2,1E0,-6.5E-1,-2.7272728E-1,4.146974E-2,-4.0584127E-3,-3.180727E-2,7.06679E-3],"split_indices":[1,0,0,1,1,0,0,0,0],"split_type":[0,0,0,0,0,0,0,0,0],"sum_hessian":[4.1555588E1,1.2494922E0,4.0306095E1,2.0015083E1,2.0291012E1,6.910556E0,1.3104527E1,6.4537582E0,1.3837254E1],"tree_param":{"num_deleted":"0","num_feature":"5","num_nodes":"9","size_leaf_vector":"1"}},{"base_weights":[1.5627563E-2,-1.3430202E-1,5.2057934E-1,-4.4871876E-1,2.40821E-2,5.84652E-2,-7.71863E-2,1.2182006E-2,-5.9152793E-2,-1.8341588E-2,2.8358433E-2,-5.164128E-2,3.0076755E-2],"categories":[],"categories_nodes":[],"categories_segments":[],"categories_sizes":[],"default_left":[0,0,0,0,0,0,0,0,0,0,0,0,0],"id":7,"left_children":[1,3,5,7,9,-1,11,-1,-1,-1,-1,-1,-1],"loss_changes":[3.0269678E0,1.5501683E0,3.637452E0,5.5789576E0,4.773706E0,0E0,4.3175435E0,0E0,0E0,0E0,0E0,0E0,0E0],"parents":[2147483647,0,0,1,1,2,2,3,3,4,4,6,6],"right_children":[2,4,6,8,10,-1,12,-1,-1,-1,-1,-1,-1],"split_conditions":[6.363636E-1,-3.9911407E-1,1.2777778E0,4.6153846E-1,1E0,5.84652E-2,2.4166667E0,1.2182006E-2,-5.9152793E-2,-1.8341588E-2,2.8358433E-2,-5.164128E-2,3.0076755E-2],"split_indices":[3,4,1,3,0,0,1,0,0,0,0,0,0],"split_type":[0,0,0,0,0,0,0,0,0,0,0,0,0],"sum_hessian":[3.805907E1,2.9911747E1,8.147325E0,9.406097E0,2.050565E1,3.4486046E0,4.6987195E0,5.185368E0,4.22073E0,1.2111983E1,8.393666E0,1.7346339E0,2.9640858E0],"tree_param":{"num_deleted":"0","num_feature":"5","num_nodes":"13","size_leaf_vector":"1"}},{"base_weights":[-6.4883515E-2,-1.2078026E-1,3.143057E-2,4.058267E-1,-2.099098E-1,-2.9112035E-2,4.763448E-2,-3.9935853E-2,-5.5222544E-3],"categories":[],"categories_nodes":[],"categories_segments":[],"categories_sizes":[],"default_left":[0,0,0,0,0,0,0,0,0],"id":8,"left_children":[1,3,-1,5,7,-1,-1,-1,-1],"loss_changes":[1.6661003E0,1.9063556E0,0E0,3.7737255E0,1.8938463E0,0E0,0E0,0E0,0E0],"parents":[2147483647,0,0,1,1,3,3,4,4],"right_children":[2,4,-1,6,8,-1,-1,-1,-1],"split_conditions":[1.6272459E0,-2.3888888E0,3.143057E-2,-1.2112035E0,-1.45E0,-2.9112035E-2,4.763448E-2,-3.9935853E-2,-5.5222544E-3],"split_indices":[4,1,0,4,1,0,0,0,0],"split_type":[0,0,0,0,0,0,0,0,0],"sum_hessian":[4.002188E1,3.7800907E1,2.2209725E0,4.957446E0,3.284346E1,1.7431837E0,3.2142625E0,3.730376E0,2.9113085E1],"tree_param":{"num_deleted":"0","num_feature":"5","num_nodes":"9","size_leaf_vector":"1"}},{"base_weights":[-6.7424662E-3,6.0856265E-1,-7.10127E-2,-1.5825367E-2,5.728355E-2,4.7306955E-1,-2.1303059E-1,-1.5386072E-2,3.6541015E-2,-4.5865174E-2,-3.701393E-3],"categories":[],"categories_nodes":[],"categories_segments":[],"categories_sizes":[],"default_left":[0,0,0,0,0,0,0,0,0,0,0],"id":9,"left_children":[1,3,5,-1,-1,7,9,-1,-1,-1,-1],"loss_changes":[1.6550558E0,2.3298047E0,3.0215306E0,0E0,0E0,1.8620023E0,2.9340553E0,0E0,0E0,0E0,0E0],"parents":[2147483647,0,0,1,1,2,2,5,5,6,6],"right_children":[2,4,6,-1,-1,8,10,-1,-1,-1,-1],"split_conditions":[-3.2142856E0,3.75E-1,4.1666666E-1,-1.5825367E-2,5.728355E-2,-1.1944444E0,4.5454547E-1,-1.5386072E-2,3.6541015E-2,-4.5865174E-2,-3.701393E-3],"split_indices":[1,3,3,0,0,1,3,0,0,0,0],"split_type":[0,0,0,0,0,0,0,0,0,0,0],"sum_hessian":[3.975882E1,2.9592247E0,3.6799595E1,1.2378964E0,1.7213283E0,7.134744E0,2.966485E1,1.7226223E0,5.412122E0,3.9669049E0,2.5697945E1],"tree_param":{"num_deleted":"0","num_feature":"5","num_nodes":"11","size_leaf_vector":"1"}},{"base_weights":[9.899648E-3,-2.4027322E-1,1.786061E-1,1.4485817E-1,-1.2794042E0,-6.434031E-1,4.3321803E-1,2.6895532E-2,-1.5226192E-2,-2.1825952E-2,-7.5782664E-2,9.166535E-4,-5.5056315E-2,9.476763E-3,5.3217936E-2],"categories":[],"categories_nodes":[],"categories_segments":[],"categories_sizes":[],"default_left":[0,0,0,0,0,0,0,0,0,0,0,0,0,0,0],"id":10,"left_children":[1,3,5,7,9,11,13,-1,-1,-1,-1,-1,-1,-1,-1],"loss_changes":[1.8888872E0,7.405752E0,5.8659267E0,2.6475086E0,3.301363E-1,2.0543036E0,3.0249283E0,0E0,0E0,0E0,0E0,0E0,0E0,0E0,0E0],"parents":[2147483647,0,0,1,1,2,2,3,3,4,4,5,5,6,6],"right_children":[2,4,6,8,10,12,14,-1,-1,-1,-1,-1,-1,-1,-1],"split_conditions":[0E0,6.375767E-2,-3.9911407E-1,1E0,-2.1388888E0,7.5E-1,3E0,2.6895532E-2,-1.5226192E-2,-2.1825952E-2,-7.5782664E-2,9.166535E-4,-5.5056315E-2,9.476763E-3,5.3217936E-2],"split_indices":[1,4,4,0,1,1,2,0,0,0,0,0,0,0,0],"split_type":[0,0,0,0,0,0,0,0,0,0,0,0,0,0,0],"sum_hessian":[4.2737446E1,1.704194E1,2.5695507E1,1.3061555E1,3.9803855E0,5.715652E0,1.9979855E1,6.8623724E0,6.199182E0,1.4948375E0,2.485548E0,2.7295108E0,2.9861412E0,1.5352554E1,4.6273E0],"tree_param":{"num_deleted":"0","num_feature":"5","num_nodes":"15","size_leaf_vector":"1"}},{"base_weights":[-1.3541377E-2,-3.9180166E-1,1.8659444E-1,-9.9389106E-2,-1.1006596E0,-3.09049E-1,3.414898E-1,-4.0803585E-2,1.2132536E-2,-1.1186847E-2,-6.957018E-2,1.2020218E-2,-4.0678848E-2,2.3267724E-2,-2.2626257E-2],"categories":[],"categories_nodes":[],"categories_segments":[],"categories_sizes":[],"default_left":[0,0,0,0,0,0,0,0,0,0,0,0,0,0,0],"id":11,"left_children":[1,3,5,7,9,11,13,-1,-1,-1,-1,-1,-1,-1,-1],"loss_changes":[3.2498868E0,2.967196E0,2.2644458E0,3.0433674E0,7.68558E-1,2.1972337E0,2.364474E0,0E0,0E0,0E0,0E0,0E0,0E0,0E0,0E0],"parents":[2147483647,0,0,1,1,2,2,3,3,4,4,5,5,6,6],"right_children":[2,4,6,8,10,12,14,-1,-1,-1,-1,-1,-1,-1,-1],"split_conditions":[-2.7272728E-1,-3.4847226E-2,-4.213539E-1,-1.2112035E0,-1.6388888E0,7.5E-1,3.9318182E0,-4.0803585E-2,1.2132536E-2,-1.1186847E-2,-6.957018E-2,1.2020218E-2,-4.0678848E-2,2.3267724E-2,-2.2626257E-2],"split_indices":[1,4,4,4,1,1,1,0,0,0,0,0,0,0,0],"split_type":[0,0,0,0,0,0,0,0,0,0,0,0,0,0,0],"sum_hessian":[4.0963474E1,1.3842751E1,2.7120724E1,1.0607314E1,3.235436E0,6.220567E0,2.0900156E1,2.9791489E0,7.6281652E0,1.246215E0,1.9892209E0,3.2283053E0,2.992262E0,1.8437817E1,2.4623384E0],"tree_param":{"num_deleted":"0","num_feature":"5","num_nodes":"15","size_leaf_vector":"1"}},{"base_weights":[-2.710116E-2,-5.5380892E-2,3.0511836E-2,5.216932E-2,-3.0719735E-2,-1.9111197E-2,6.0425433E-3],"categories":[],"categories_nodes":[],"categories_segments":[],"categories_sizes":[],"default_left":[0,0,0,0,0,0,0],"id":12,"left_children":[1,-1,3,-1,5,-1,-1],"loss_changes":[2.7654972E0,0E0,2.6761696E0,0E0,2.2398677E0,0E0,0E0],"parents":[2147483647,0,0,2,2,4,4],"right_children":[2,-1,4,-1,6,-1,-1],"split_conditions":[-4.9423075E0,-5.5380892E-2,-3.6E0,5.216932E-2,-3.9911407E-1,-1.9111197E-2,6.0425433E-3],"split_indices":[1,0,1,0,4,0,0],"split_type":[0,0,0,0,0,0,0],"sum_hessian":[4.288149E1,1.2481233E0,4.1633366E1,1.4590008E0,4.0174366E1,1.1645582E1,2.8528784E1],"tree_param":{"num_deleted":"0","num_feature":"5","num_nodes":"7","size_leaf_vector":"1"}},{"base_weights":[-1.1705148E-1,-2.6987696E-1,3.904994E-1,-7.599634E-1,-6.0490903E-2,4.576772E-2,-2.5641188E-1,-1.8288106E-2,-6.0379025E-2,4.4447962E-2,-9.485096E-3,-4.3680843E-2,1.1350239E-2],"categories":[],"categories_nodes":[],"categories_segments":[],"categories_sizes":[],"default_left":[0,0,0,0,0,0,0,0,0,0,0,0,0],"id":13,"left_children":[1,3,5,7,9,-1,11,-1,-1,-1,-1,-1,-1],"loss_changes":[3.2595692E0,3.2218645E0,3.5686784E0,1.2251124E0,3.03917E0,0E0,1.7436737E0,0E0,0E0,0E0,0E0,0E0,0E0],"parents":[2147483647,0,0,1,1,2,2,3,3,4,4,6,6],"right_children":[2,4,6,8,10,-1,12,-1,-1,-1,-1,-1,-1],"split_conditions":[6.363636E-1,-1.45E0,3.403143E-1,-2.4166667E0,-1.2403169E0,4.576772E-2,5.450043E-1,-1.8288106E-2,-6.0379025E-2,4.4447962E-2,-9.485096E-3,-4.3680843E-2,1.1350239E-2],"split_indices":[3,1,4,1,4,0,4,0,0,0,0,0,0],"split_type":[0,0,0,0,0,0,0,0,0,0,0,0,0],"sum_hessian":[3.9664124E1,3.0844889E1,8.819236E0,8.446239E0,2.239865E1,4.63985E0,4.179385E0,5.457306E0,2.988934E0,1.9787531E0,2.0419897E1,1.4811487E0,2.6982367E0],"tree_param":{"num_deleted":"0","num_feature":"5","num_nodes":"13","size_leaf_vector":"1"}},{"base_weights":[-9.0433244E-4,5.7030432E-2,-3.9549734E-2,-1.857374E-2,6.0991114E-1,3.512611E-3,-6.339547E-2,5.248521E-2,5.954651E-3],"categories":[],"categories_nodes":[],"categories_segments":[],"categories_sizes":[],"default_left":[0,0,0,0,0,0,0,0,0],"id":14,"left_children":[1,3,-1,5,7,-1,-1,-1,-1],"loss_changes":[1.9976834E0,1.7115731E0,0E0,4.1676755E0,9.3758583E-1,0E0,0E0,0E0,0E0],"parents":[2147483647,0,0,1,1,3,3,4,4],"right_children":[2,4,-1,6,8,-1,-1,-1,-1],"split_conditions":[3.9318182E0,1.0457597E0,-3.9549734E-2,8.922207E-1,6E-1,3.512611E-3,-6.339547E-2,5.248521E-2,5.954651E-3],"split_indices":[1,4,0,4,3,0,0,0,0],"split_type":[0,0,0,0,0,0,0,0,0],"sum_hessian":[4.1657085E1,3.967562E1,1.9814665E0,3.5752956E1,3.9226644E0,3.426083E1,1.492127E0,1.4683133E0,2.4543512E0],"tree_param":{"num_deleted":"0","num_feature":"5","num_nodes":"9","size_leaf_vector":"1"}},{"base_weights":[-8.877648E-2,-4.177542E-2,-4.1152664E-2,-2.9240438E-1,9.425318E-2,1.4638081E-2,-4.0950578E-2,-2.3111809E-2,1.5383153E-2],"categories":[],"categories_nodes":[],"categories_segments":[],"categories_sizes":[],"default_left":[0,0,0,0,0,0,0,0,0],"id":15,"left_children":[1,-1,3,5,7,-1,-1,-1,-1],"loss_changes":[1.4715433E0,0E0,1.4176316E0,4.7241697E0,3.3851738E0,0E0,0E0,0E0,0E0],"parents":[2147483647,0,0,2,2,3,3,4,4],"right_children":[2,-1,4,6,8,-1,-1,-1,-1],"split_conditions":[2.3076923E-1,-4.177542E-2,-2.7272728E-1,-3.8474897E-1,-3.9911407E-1,1.4638081E-2,-4.0950578E-2,-2.3111809E-2,1.5383153E-2],"split_indices":[3,0,1,4,4,0,0,0,0],"split_type":[0,0,0,0,0,0,0,0,0],"sum_hessian":[4.1346252E1,1.4869683E0,3.9859283E1,1.3552512E1,2.630677E1,6.629675E0,6.922837E0,6.968832E0,1.9337938E1],"tree_param":{"num_deleted":"0","num_feature":"5","num_nodes":"9","size_leaf_vector":"1"}},{"base_weights":[1.0511749E-1,-5.29658E-2,1.6774388E-1,-3.3775523E-2,2.1200886E-1,3.471473E-2,4.1328175E-3],"categories":[],"categories_nodes":[],"categories_segments":[],"categories_sizes":[],"default_left":[0,0,0,0,0,0,0],"id":16,"left_children":[1,-1,3,-1,5,-1,-1],"loss_changes":[3.191427E0,0E0,1.6393014E0,0E0,2.3658297E0,0E0,0E0],"parents":[2147483647,0,0,2,2,4,4],"right_children":[2,-1,4,-1,6,-1,-1],"split_conditions":[-4.9423075E0,-5.29658E-2,2.3076923E-1,-3.3775523E-2,4.2857143E-1,3.471473E-2,4.1328175E-3],"split_indices":[1,0,3,0,3,0,0],"split_type":[0,0,0,0,0,0,0],"sum_hessian":[4.0326885E1,1.2459357E0,3.908095E1,1.2379135E0,3.7843037E1,7.0795937E0,3.0763445E1],"tree_param":{"num_deleted":"0","num_feature":"5","num_nodes":"7","size_leaf_vector":"1"}},{"base_weights":[-3.7730124E-2,-5.159181E-2,1.7190853E-2,1.9687504E-1,-1.5899394E-1,3.8336642E-2,-5.9369328E-3,-4.032301E-2,1.718903E-3],"categories":[],"categories_nodes":[],"categories_segments":[],"categories_sizes":[],"default_left":[0,0,0,0,0,0,0,0,0],"id":17,"left_children":[1,-1,3,5,7,-1,-1,-1,-1],"loss_changes":[2.3385904E0,0E0,1.337707E0,3.8459122E0,2.7057247E0,0E0,0E0,0E0,0E0],"parents":[2147483647,0,0,2,2,3,3,4,4],"right_children":[2,-1,4,6,8,-1,-1,-1,-1],"split_conditions":[-4.9423075E0,-5.159181E-2,1E0,-6.5E-1,-1.5E0,3.8336642E-2,-5.9369328E-3,-4.032301E-2,1.718903E-3],"split_indices":[1,0,0,1,1,0,0,0,0],"split_type":[0,0,0,0,0,0,0,0,0],"sum_hessian":[4.1508575E1,1.2418903E0,4.0266685E1,1.9877224E1,2.0389462E1,6.575486E0,1.3301739E1,3.9599326E0,1.642953E1],"tree_param":{"num_deleted":"0","num_feature":"5","num_nodes":"9","size_leaf_vector":"1"}},{"base_weights":[-8.4354565E-2,-2.7966785E-1,6.296214E-2,3.08197E-2,-6.384722E-2,-6.2892336E-1,2.8840646E-1,2.0909289E-2,-2.2527E-2,3.4305505E-2,-5.9249204E-2,2.4325514E-2,-1.8271465E-2],"categories":[],"categories_nodes":[],"categories_segments":[],"categories_sizes":[],"default_left":[0,0,0,0,0,0,0,0,0,0,0,0,0],"id":18,"left_children":[1,3,5,7,-1,9,11,-1,-1,-1,-1,-1,-1],"loss_changes":[1.1909751E0,5.525462E0,3.9347212E0,2.8897896E0,0E0,5.367238E0,2.617381E0,0E0,0E0,0E0,0E0,0E0,0E0],"parents":[2147483647,0,0,1,1,2,2,3,3,5,5,6,6],"right_children":[2,4,6,8,-1,10,12,-1,-1,-1,-1,-1,-1],"split_conditions":[0E0,2.196756E-1,-3.9911407E-1,1E0,-6.384722E-2,4.6153846E-1,3.0833333E0,2.0909289E-2,-2.2527E-2,3.4305505E-2,-5.9249204E-2,2.4325514E-2,-1.8271465E-2],"split_indices":[1,4,4,0,0,3,1,0,0,0,0,0,0],"split_type":[0,0,0,0,0,0,0,0,0,0,0,0,0],"sum_hessian":[3.9780254E1,1.6717583E1,2.3062674E1,1.3487532E1,3.2300506E0,5.228076E0,1.7834599E1,7.546142E0,5.9413896E0,1.4842005E0,3.7438757E0,1.3883876E1,3.950722E0],"tree_param":{"num_deleted":"0","num_feature":"5","num_nodes":"13","size_leaf_vector":"1"}},{"base_weights":[-1.0780832E-1,-7.105053E-1,9.4253674E-2,-6.397525E-2,-4.0427667E-1,4.2015436E-1,-9.066052E-2,3.6956423E-3,-6.065808E-2,1.0926133E-2,3.7939627E-2,4.8002604E-2,-1.0519712E-2],"categories":[],"categories_nodes":[],"categories_segments":[],"categories_sizes":[],"default_left":[0,0,0,0,0,0,0,0,0,0,0,0,0],"id":19,"left_children":[1,3,5,-1,7,9,11,-1,-1,-1,-1,-1,-1],"loss_changes":[4.777523E0,1.1953859E0,1.8370274E0,0E0,3.1268067E0,5.84144E-1,2.7014418E0,0E0,0E0,0E0,0E0,0E0,0E0],"parents":[2147483647,0,0,1,1,2,2,4,4,5,5,6,6],"right_children":[2,4,6,-1,8,10,12,-1,-1,-1,-1,-1,-1],"split_conditions":[-1.45E0,-1.2112035E0,3.2142857E-1,-6.397525E-2,3.1219527E-2,6.25E-1,3.5714287E-1,3.6956423E-3,-6.065808E-2,1.0926133E-2,3.7939627E-2,4.8002604E-2,-1.0519712E-2],"split_indices":[1,4,1,0,4,3,3,0,0,0,0,0,0],"split_type":[0,0,0,0,0,0,0,0,0,0,0,0,0],"sum_hessian":[3.768018E1,8.829089E0,2.885109E1,1.9771338E0,6.8519554E0,9.98353E0,1.886756E1,4.877275E0,1.9746808E0,7.2888846E0,2.6946452E0,1.2121569E0,1.7655403E1],"tree_param":{"num_deleted":"0","num_feature":"5","num_nodes":"13","size_leaf_vector":"1"}},{"base_weights":[-3.1836703E-2,-9.6534505E-2,5.142798E-2,-4.6359748E-1,1.4123601E-3,8.9256885E-4,-4.43753E-2,1.2998961E-2,-9.82214E-3],"categories":[],"categories_nodes":[],"categories_segments":[],"categories_sizes":[],"default_left":[0,0,0,0,0,0,0,0,0],"id":20,"left_children":[1,3,-1,5,7,-1,-1,-1,-1],"loss_changes":[2.923687E0,1.4285356E0,0E0,1.72377E0,1.7059089E0,0E0,0E0,0E0,0E0],"parents":[2147483647,0,0,1,1,3,3,4,4],"right_children":[2,4,-1,6,8,-1,-1,-1,-1],"split_conditions":[8E-1,-9.1354686E-1,5.142798E-2,1E0,2.3555508E-2,8.9256885E-4,-4.43753E-2,1.2998961E-2,-9.82214E-3],"split_indices":[3,4,0,0,4,0,0,0,0],"split_type":[0,0,0,0,0,0,0,0,0],"sum_hessian":[4.016876E1,3.8715576E1,1.4531838E0,7.3684864E0,3.1347088E1,3.8985949E0,3.4698915E0,1.3452592E1,1.7894497E1],"tree_param":{"num_deleted":"0","num_feature":"5","num_nodes":"9","size_leaf_vector":"1"}},{"base_weights":[2.0391036E-2,-5.007385E-2,7.848909E-2,4.1419353E-2,1.6901212E-2,-2.5773365E-2,3.9085983E-3],"categories":[],"categories_nodes":[],"categories_segments":[],"categories_sizes":[],"default_left":[0,0,0,0,0,0,0],"id":21,"left_children":[1,-1,3,-1,5,-1,-1],"loss_changes":[2.461493E0,0E0,1.7828263E0,0E0,1.2463168E0,0E0,0E0],"parents":[2147483647,0,0,2,2,4,4],"right_children":[2,-1,4,-1,6,-1,-1],"split_conditions":[-4.9423075E0,-5.007385E-2,-3.6E0,4.1419353E-2,-1.1923798E0,-2.5773365E-2,3.9085983E-3],"split_indices":[1,0,1,0,4,0,0],"split_type":[0,0,0,0,0,0,0],"sum_hessian":[3.9137215E1,1.2319063E0,3.790531E1,1.9318986E0,3.597341E1,2.9477856E0,3.3025627E1],"tree_param":{"num_deleted":"0","num_feature":"5","num_nodes":"7","size_leaf_vector":"1"}},{"base_weights":[-6.237441E-2,4.185167E-2,-9.080656E-1,-1.7718652E-1,3.8390145E-1,-6.6057704E-2,-4.4054687E-3,1.0624141E-2,-2.1401908E-2,4.308222E-2,3.847682E-4],"categories":[],"categories_nodes":[],"categories_segments":[],"categories_sizes":[],"default_left":[0,0,0,0,0,0,0,0,0,0,0],"id":22,"left_children":[1,3,5,7,9,-1,-1,-1,-1,-1,-1],"loss_changes":[3.4045904E0,2.6872752E0,1.3179858E0,2.2410746E0,2.5030112E0,0E0,0E0,0E0,0E0,0E0,0E0],"parents":[2147483647,0,0,1,1,2,2,3,3,4,4],"right_children":[2,4,6,8,10,-1,-1,-1,-1,-1,-1],"split_conditions":[3.0833333E0,5.5E-1,6.1538464E-1,-4.9029034E-1,1.3214285E0,-6.6057704E-2,-4.4054687E-3,1.0624141E-2,-2.1401908E-2,4.308222E-2,3.847682E-4],"split_indices":[1,1,3,4,1,0,0,0,0,0,0],"split_type":[0,0,0,0,0,0,0,0,0,0,0],"sum_hessian":[3.7194565E1,3.395975E1,3.2348123E0,2.0996332E1,1.296342E1,1.74463E0,1.4901822E0,8.282841E0,1.2713491E1,5.1425548E0,7.8208647E0],"tree_param":{"num_deleted":"0","num_feature":"5","num_nodes":"11","size_leaf_vector":"1"}},{"base_weights":[-7.892113E-2,7.744432E-2,-3.8102037E-1,-3.5886583E-1,3.0377132E-1,-7.7864605E-1,5.40098E-1,-2.6082792E-3,-5.5604275E-2,2.7054925E-2,-1.7600404E-2,-4.582723E-2,5.272943E-3,4.8010778E-2,-1.7543321E-2],"categories":[],"categories_nodes":[],"categories_segments":[],"categories_sizes":[],"default_left":[0,0,0,0,0,0,0,0,0,0,0,0,0,0,0],"id":23,"left_children":[1,3,5,7,9,11,13,-1,-1,-1,-1,-1,-1,-1,-1],"loss_changes":[1.8781852E0,2.7375953E0,5.3711386E0,2.1482136E0,3.0025716E0,1.297616E0,2.0834174E0,0E0,0E0,0E0,0E0,0E0,0E0,0E0,0E0],"parents":[2147483647,0,0,1,1,2,2,3,3,4,4,5,5,6,6],"right_children":[2,4,6,8,10,12,14,-1,-1,-1,-1,-1,-1,-1,-1],"split_conditions":[1.3214285E0,-1.45E0,9.798502E-1,-2.0454545E0,4.466625E-1,7.2727275E-1,1.9889156E0,-2.6082792E-3,-5.5604275E-2,2.7054925E-2,-1.7600404E-2,-4.582723E-2,5.272943E-3,4.8010778E-2,-1.7543321E-2],"split_indices":[1,1,4,1,4,3,4,0,0,0,0,0,0,0,0],"split_type":[0,0,0,0,0,0,0,0,0,0,0,0,0,0,0],"sum_hessian":[3.8135483E1,2.5618887E1,1.2516596E1,8.5502405E0,1.7068647E1,8.850647E0,3.6659486E0,6.835983E0,1.7142576E0,1.2661365E1,4.407282E0,7.624692E0,1.2259556E0,2.438428E0,1.2275208E0],"tree_param":{"num_deleted":"0","num_feature":"5","num_nodes":"15","size_leaf_vector":"1"}},{"base_weights":[-2.5784827E-3,-3.8391605E-1,1.1809603E-1,3.3491217E-2,-8.69325E-1,4.8509326E-2,1.9266024E-2,-2.9163256E-2,1.8334711E-2,-8.703875E-3,-5.935977E-2,-2.3811614E-2,7.483449E-3],"categories":[],"categories_nodes":[],"categories_segments":[],"categories_sizes":[],"default_left":[0,0,0,0,0,0,0,0,0,0,0,0,0],"id":24,"left_children":[1,3,5,7,9,-1,11,-1,-1,-1,-1,-1,-1],"loss_changes":[2.0124407E0,2.158731E0,2.7801702E0,1.5731155E0,8.7548375E-1,0E0,2.061524E0,0E0,0E0,0E0,0E0,0E0,0E0],"parents":[2147483647,0,0,1,1,2,2,3,3,4,4,6,6],"right_children":[2,4,6,8,10,-1,12,-1,-1,-1,-1,-1,-1],"split_conditions":[-1.45E0,-2.3888888E0,-1.2403169E0,3.75E-1,-3.8474897E-1,4.8509326E-2,-3.9911407E-1,-2.9163256E-2,1.8334711E-2,-8.703875E-3,-5.935977E-2,-2.3811614E-2,7.483449E-3],"split_indices":[1,1,4,3,4,0,4,0,0,0,0,0,0],"split_type":[0,0,0,0,0,0,0,0,0,0,0,0,0],"sum_hessian":[4.174661E1,9.510748E0,3.223586E1,5.6141214E0,3.896626E0,2.433972E0,2.9801888E1,1.7059468E0,3.9081745E0,1.7081623E0,2.1884637E0,5.6565228E0,2.4145365E1],"tree_param":{"num_deleted":"0","num_feature":"5","num_nodes":"13","size_leaf_vector":"1"}},{"base_weights":[1.1658881E-1,-3.0165924E-2,4.8836368E-1,4.4545036E-2,-1.2979701E-1,5.242547E-2,1.8887411E-1,-3.0078355E-2,2.1670589E-3,-6.4094453E-3,3.450452E-2],"categories":[],"categories_nodes":[],"categories_segments":[],"categories_sizes":[],"default_left":[0,0,0,0,0,0,0,0,0,0,0],"id":25,"left_children":[1,3,5,-1,7,-1,9,-1,-1,-1,-1],"loss_changes":[2.1585915E0,2.7873979E0,1.6773527E0,0E0,2.2433634E0,0E0,1.439916E0,0E0,0E0,0E0,0E0],"parents":[2147483647,0,0,1,1,2,2,4,4,6,6],"right_children":[2,4,6,-1,8,-1,10,-1,-1,-1,-1],"split_conditions":[6.1538464E-1,-1.5696746E0,6.666667E-1,4.4545036E-2,-1.5E0,5.242547E-2,2.6E0,-3.0078355E-2,2.1670589E-3,-6.4094453E-3,3.450452E-2],"split_indices":[3,4,3,0,1,0,1,0,0,0,0],"split_type":[0,0,0,0,0,0,0,0,0,0,0],"sum_hessian":[3.8293816E1,2.8114666E1,1.0179148E1,1.9690698E0,2.6145596E1,2.6750054E0,7.5041428E0,6.354969E0,1.9790627E1,5.052341E0,2.4518018E0],"tree_param":{"num_deleted":"0","num_feature":"5","num_nodes":"11","size_leaf_vector":"1"}},{"base_weights":[9.532118E-2,-8.759627E-3,4.0559137E-1,7.405278E-2,-4.6827993E-1,7.559243E-1,2.2302544E-2,7.820677E-3,-3.415984E-2,-6.144319E-2,8.811698E-3,1.3371159E-2,5.5143993E-2,-4.468004E-2,2.5392985E-2],"categories":[],"categories_nodes":[],"categories_segments":[],"categories_sizes":[],"default_left":[0,0,0,0,0,0,0,0,0,0,0,0,0,0,0],"id":26,"left_children":[1,3,5,7,9,11,13,-1,-1,-1,-1,-1,-1,-1,-1],"loss_changes":[1.3723569E0,1.2797472E0,1.4156629E0,1.8897005E0,2.7325802E0,6.445985E-1,3.1777182E0,0E0,0E0,0E0,0E0,0E0,0E0,0E0,0E0],"parents":[2147483647,0,0,1,1,2,2,3,3,4,4,5,5,6,6],"right_children":[2,4,6,8,10,12,14,-1,-1,-1,-1,-1,-1,-1,-1],"split_conditions":[6.363636E-1,8.615498E-1,1.2777778E0,2.6388888E0,9E-1,-2.7272728E-1,2.392857E0,7.820677E-3,-3.415984E-2,-6.144319E-2,8.811698E-3,1.3371159E-2,5.5143993E-2,-4.468004E-2,2.5392985E-2],"split_indices":[3,4,1,1,1,1,1,0,0,0,0,0,0,0,0],"split_type":[0,0,0,0,0,0,0,0,0,0,0,0,0,0,0],"sum_hessian":[4.138679E1,3.1718515E1,9.668277E0,2.7585962E1,4.1325536E0,4.5433593E0,5.1249175E0,2.5595556E1,1.9904053E0,1.4797108E0,2.652843E0,2.622186E0,1.9211732E0,1.484449E0,3.6404684E0],"tree_param":{"num_deleted":"0","num_feature":"5","num_nodes":"15","size_leaf_vector":"1"}},{"base_weights":[5.6326717E-2,-4.7830757E-2,1.09251745E-1,1.793837E-1,-5.9512144E-1,3.128637E-2,4.599709E-3,-5.069098E-2,9.005345E-3],"categories":[],"categories_nodes":[],"categories_segments":[],"categories_sizes":[],"default_left":[0,0,0,0,0,0,0,0,0],"id":27,"left_children":[1,-1,3,5,7,-1,-1,-1,-1],"loss_changes":[2.3871663E0,0E0,2.1500077E0,1.4396805E0,1.4734714E0,0E0,0E0,0E0,0E0],"parents":[2147483647,0,0,2,2,3,3,4,4],"right_children":[2,-1,4,6,8,-1,-1,-1,-1],"split_conditions":[-4.9423075E0,-4.7830757E-2,3.65E0,-2.3888888E0,4.5E0,3.128637E-2,4.599709E-3,-5.069098E-2,9.005345E-3],"split_indices":[1,0,1,1,1,0,0,0,0],"split_type":[0,0,0,0,0,0,0,0,0],"sum_hessian":[4.1578907E1,1.2167325E0,4.0362175E1,3.738519E1,2.9769828E0,5.112546E0,3.2272644E1,1.733147E0,1.2438357E0],"tree_param":{"num_deleted":"0","num_feature":"5","num_nodes":"9","size_leaf_vector":"1"}},{"base_weights":[2.2705475E-2,-3.3903006E-1,1.5300214E-1,1.7365347E-1,-8.547515E-1,4.6942003E-2,4.3379713E-2,3.3861175E-2,-1.3925321E-2,-6.6879108E-3,-5.586179E-2,-6.7077735E-3,2.2602774E-2],"categories":[],"categories_nodes":[],"categories_segments":[],"categories_sizes":[],"default_left":[0,0,0,0,0,0,0,0,0,0,0,0,0],"id":28,"left_children":[1,3,5,7,9,-1,11,-1,-1,-1,-1,-1,-1],"loss_changes":[2.0371916E0,3.1798897E0,2.6863246E0,1.6870093E0,9.642167E-1,0E0,2.1523447E0,0E0,0E0,0E0,0E0,0E0,0E0],"parents":[2147483647,0,0,1,1,2,2,3,3,4,4,6,6],"right_children":[2,4,6,8,10,-1,12,-1,-1,-1,-1,-1,-1],"split_conditions":[-1.45E0,1E0,-6.5E-1,-3.8474897E-1,4.4444445E-1,4.6942003E-2,3E0,3.3861175E-2,-1.3925321E-2,-6.6879108E-3,-5.586179E-2,-6.7077735E-3,2.2602774E-2],"split_indices":[1,0,1,4,3,0,2,0,0,0,0,0,0],"split_type":[0,0,0,0,0,0,0,0,0,0,0,0,0],"sum_hessian":[4.1121696E1,1.0465344E1,3.0656351E1,5.58075E0,4.884595E0,2.8269327E0,2.7829418E1,2.4047878E0,3.1759622E0,1.7065685E0,3.1780264E0,1.9869518E1,7.9598994E0],"tree_param":{"num_deleted":"0","num_feature":"5","num_nodes":"13","size_leaf_vector":"1"}},{"base_weights":[-3.7904855E-2,-1.017339E-1,5.6318593E-1,-4.1722304E-1,2.7628746E-2,4.9820233E-2,-1.9630024E-3,2.4447257E-3,-3.4895312E-2,2.2043636E-2,-9.042329E-3],"categories":[],"categories_nodes":[],"categories_segments":[],"categories_sizes":[],"default_left":[0,0,0,0,0,0,0,0,0,0,0],"id":29,"left_children":[1,3,5,7,9,-1,-1,-1,-1,-1,-1],"loss_changes":[1.642676E0,1.5706371E0,1.114311E0,1.4956619E0,2.4945998E0,0E0,0E0,0E0,0E0,0E0,0E0],"parents":[2147483647,0,0,1,1,2,2,3,3,4,4],"right_children":[2,4,6,8,10,-1,-1,-1,-1,-1,-1],"split_conditions":[7.5E-1,-1.0961539E0,1E0,-2.7E0,3.2142857E-1,4.9820233E-2,-1.9630024E-3,2.4447257E-3,-3.4895312E-2,2.2043636E-2,-9.042329E-3],"split_indices":[3,1,0,1,1,0,0,0,0,0,0],"split_type":[0,0,0,0,0,0,0,0,0,0,0],"sum_hessian":[4.0321415E1,3.720176E1,3.119655E0,1.0171158E1,2.7030603E1,1.4343107E0,1.6853442E0,4.1331797E0,6.0379777E0,8.690122E0,1.834048E1],"tree_param":{"num_deleted":"0","num_feature":"5","num_nodes":"11","size_leaf_vector":"1"}},{"base_weights":[-1.658347E-2,-2.2438546E-1,1.748131E-1,-6.004135E-2,-5.7151943E-2,5.096047E-2,-1.18909925E-2,1.7275546E-2,-2.4212189E-2,-4.4088613E-2,7.998149E-3],"categories":[],"categories_nodes":[],"categories_segments":[],"categories_sizes":[],"default_left":[0,0,0,0,0,0,0,0,0,0,0],"id":30,"left_children":[1,3,5,7,-1,-1,9,-1,-1,-1,-1],"loss_changes":[1.633111E0,2.8983278E0,3.3895092E0,3.2166908E0,0E0,0E0,2.9115036E0,0E0,0E0,0E0,0E0],"parents":[2147483647,0,0,1,1,2,2,3,3,6,6],"right_children":[2,4,6,8,-1,-1,10,-1,-1,-1,-1],"split_conditions":[-5.8938358E-2,-2.0277677E-1,2.3555508E-2,1E0,-5.7151943E-2,5.096047E-2,1.1997121E-1,1.7275546E-2,-2.4212189E-2,-4.4088613E-2,7.998149E-3],"split_indices":[4,4,4,0,0,0,4,0,0,0,0],"split_type":[0,0,0,0,0,0,0,0,0,0,0],"sum_hessian":[3.907498E1,1.8651943E1,2.0423038E1,1.6725214E1,1.9267284E0,2.890659E0,1.753238E1,8.645409E0,8.079805E0,2.2108214E0,1.5321557E1],"tree_param":{"num_deleted":"0","num_feature":"5","num_nodes":"11","size_leaf_vector":"1"}},{"base_weights":[3.499057E-2,7.14046E-1,-3.0298064E-2,4.503153E-2,1.3130247E-2,-9.9191196E-2,6.578088E-1,-3.242107E-2,-1.7383354E-3,1.4200944E-3,4.7944095E-2],"categories":[],"categories_nodes":[],"categories_segments":[],"categories_sizes":[],"default_left":[0,0,0,0,0,0,0,0,0,0,0],"id":31,"left_children":[1,3,5,-1,-1,7,9,-1,-1,-1,-1],"loss_changes":[1.8389782E0,6.9773555E-2,1.8835164E0,0E0,0E0,1.2418524E0,6.5906525E-1,0E0,0E0,0E0,0E0],"parents":[2147483647,0,0,1,1,2,2,5,5,6,6],"right_children":[2,4,6,-1,-1,8,10,-1,-1,-1,-1],"split_conditions":[-1.5152766E0,-6.5E-1,7.5E-1,4.503153E-2,1.3130247E-2,-1.1434646E0,2.3555508E-2,-3.242107E-2,-1.7383354E-3,1.4200944E-3,4.7944095E-2],"split_indices":[4,1,3,0,0,4,4,0,0,0,0],"split_type":[0,0,0,0,0,0,0,0,0,0,0],"sum_hessian":[3.9991547E1,2.6361952E0,3.735535E1,1.161234E0,1.474961E0,3.4733673E1,2.6216798E0,2.6948414E0,3.203883E1,1.2023817E0,1.419298E0],"tree_param":{"num_deleted":"0","num_feature":"5","num_nodes":"11","size_leaf_vector":"1"}},{"base_weights":[-5.3362582E-2,-4.7014017E-2,-4.0726922E-3,3.5077326E-2,-5.207086E-2,1.7929256E-2,-4.87643E-3],"categories":[],"categories_nodes":[],"categories_segments":[],"categories_sizes":[],"default_left":[0,0,0,0,0,0,0],"id":32,"left_children":[1,-1,3,-1,5,-1,-1],"loss_changes":[1.8327434E0,0E0,1.4184941E0,0E0,7.6554304E-1,0E0,0E0],"parents":[2147483647,0,0,2,2,4,4],"right_children":[2,-1,4,-1,6,-1,-1],"split_conditions":[-4.9423075E0,-4.7014017E-2,-3.6E0,3.5077326E-2,-1.2403169E0,1.7929256E-2,-4.87643E-3],"split_indices":[1,0,1,0,4,0,0],"split_type":[0,0,0,0,0,0,0],"sum_hessian":[4.101138E1,1.2074842E0,3.9803898E1,1.6679099E0,3.8135986E1,3.1142418E0,3.5021744E1],"tree_param":{"num_deleted":"0","num_feature":"5","num_nodes":"7","size_leaf_vector":"1"}},{"base_weights":[-7.4848235E-3,-3.1126976E-1,2.1947138E-1,-6.2237725E-2,-5.430221E-2,-5.200577E-1,4.653085E-1,1.1263539E-2,-2.0960083E-2,3.3073456E-3,-4.427861E-2,3.8362954E-2,-1.2011982E-2],"categories":[],"categories_nodes":[],"categories_segments":[],"categories_sizes":[],"default_left":[0,0,0,0,0,0,0,0,0,0,0,0,0],"id":33,"left_children":[1,3,5,7,-1,9,11,-1,-1,-1,-1,-1,-1],"loss_changes":[2.6397676E0,3.0894234E0,4.2297263E0,1.4741077E0,0E0,1.3322984E0,3.803832E0,0E0,0E0,0E0,0E0,0E0,0E0],"parents":[2147483647,0,0,1,1,2,2,3,3,5,5,6,6],"right_children":[2,4,6,8,-1,10,12,-1,-1,-1,-1,-1,-1],"split_conditions":[0E0,3.403143E-1,-3.9911407E-1,1E0,-5.430221E-2,1E0,8.7541455E-1,1.1263539E-2,-2.0960083E-2,3.3073456E-3,-4.427861E-2,3.8362954E-2,-1.2011982E-2],"split_indices":[1,4,4,0,0,0,4,0,0,0,0,0,0],"split_type":[0,0,0,0,0,0,0,0,0,0,0,0,0],"sum_hessian":[3.6296688E1,1.5362376E1,2.0934313E1,1.244316E1,2.9192157E0,4.9445686E0,1.5989744E1,7.096429E0,5.3467317E0,2.2135515E0,2.731017E0,1.1136315E1,4.8534293E0],"tree_param":{"num_deleted":"0","num_feature":"5","num_nodes":"13","size_leaf_vector":"1"}},{"base_weights":[-3.553534E-2,-3.6901228E-2,1.1182049E-2,-2.4884207E-2,4.8457433E-2,2.684795E-2,-3.751279E-3],"categories":[],"categories_nodes":[],"categories_segments":[],"categories_sizes":[],"default_left":[0,0,0,0,0,0,0],"id":34,"left_children":[1,-1,3,-1,5,-1,-1],"loss_changes":[1.3023092E0,0E0,7.4409354E-1,0E0,2.2286167E0,0E0,0E0],"parents":[2147483647,0,0,2,2,4,4],"right_children":[2,-1,4,-1,6,-1,-1],"split_conditions":[2.3076923E-1,-3.6901228E-2,-4.0833335E0,-2.4884207E-2,4.2857143E-1,2.684795E-2,-3.751279E-3],"split_indices":[3,0,1,0,3,0,0],"split_type":[0,0,0,0,0,0,0],"sum_hessian":[3.843075E1,1.4736619E0,3.6957092E1,1.6793833E0,3.5277706E1,6.4425178E0,2.883519E1],"tree_param":{"num_deleted":"0","num_feature":"5","num_nodes":"7","size_leaf_vector":"1"}},{"base_weights":[1.4842955E-2,7.649562E-2,-4.9793074E-1,-8.226512E-2,3.190429E-1,-3.9301213E-2,-4.5239334E-3,-1.0512394E-2,2.4362946E-2,3.1130776E-2,-2.142474E-2],"categories":[],"categories_nodes":[],"categories_segments":[],"categories_sizes":[],"default_left":[0,0,0,0,0,0,0,0,0,0,0],"id":35,"left_children":[1,3,5,7,9,-1,-1,-1,-1,-1,-1],"loss_changes":[1.3163325E0,1.4494714E0,4.539187E-1,1.7886239E0,3.6314492E0,0E0,0E0,0E0,0E0,0E0,0E0],"parents":[2147483647,0,0,1,1,2,2,3,3,4,4],"right_children":[2,4,6,8,10,-1,-1,-1,-1,-1,-1],"split_conditions":[3.4545455E0,5.9090906E-1,9.798502E-1,6.363636E-1,6.4285713E-1,-3.9301213E-2,-4.5239334E-3,-1.0512394E-2,2.4362946E-2,3.1130776E-2,-2.142474E-2],"split_indices":[1,1,4,3,3,0,0,0,0,0,0],"split_type":[0,0,0,0,0,0,0,0,0,0,0],"sum_hessian":[3.9432983E1,3.596018E1,3.4728045E0,2.2133438E1,1.3826742E1,1.4900951E0,1.9827093E0,1.8587347E1,3.5460904E0,9.9522705E0,3.8744726E0],"tree_param":{"num_deleted":"0","num_feature":"5","num_nodes":"11","size_leaf_vector":"1"}},{"base_weights":[-1.582718E-1,-2.0713532E-1,3.1984348E-2,-5.6641954E-1,-1.0811143E-1,-4.5724135E-2,2.0511718E-2,1.6035328E-2,-1.345225E-2],"categories":[],"categories_nodes":[],"categories_segments":[],"categories_sizes":[],"default_left":[0,0,0,0,0,0,0,0,0],"id":36,"left_children":[1,3,-1,5,7,-1,-1,-1,-1],"loss_changes":[1.7542174E0,1.3600023E0,0E0,3.22903E0,2.3327456E0,0E0,0E0,0E0,0E0],"parents":[2147483647,0,0,1,1,3,3,4,4],"right_children":[2,4,-1,6,8,-1,-1,-1,-1],"split_conditions":[8E-1,4E-1,3.1984348E-2,5.5E-1,-6.730769E-1,-4.5724135E-2,2.0511718E-2,1.6035328E-2,-1.345225E-2],"split_indices":[3,3,0,1,1,0,0,0,0],"split_type":[0,0,0,0,0,0,0,0,0],"sum_hessian":[4.059198E1,3.894743E1,1.6445522E0,7.3953094E0,3.1552118E1,5.499159E0,1.8961511E0,8.339142E0,2.3212976E1],"tree_param":{"num_deleted":"0","num_feature":"5","num_nodes":"9","size_leaf_vector":"1"}},{"base_weights":[9.376154E-3,-4.7872168E-1,9.238345E-2,-3.3405486E-2,-4.686829E-2,2.2578505E-1,-1.2282408E-1,-3.609185E-2,2.46869E-2,-1.2509915E-3,2.806878E-2,-4.1248705E-2,6.43909E-3],"categories":[],"categories_nodes":[],"categories_segments":[],"categories_sizes":[],"default_left":[0,0,0,0,0,0,0,0,0,0,0,0,0],"id":37,"left_children":[1,3,5,7,-1,9,11,-1,-1,-1,-1,-1,-1],"loss_changes":[1.7019738E0,1.2163435E0,1.0557294E0,1.8574897E0,0E0,1.904236E0,2.641394E0,0E0,0E0,0E0,0E0,0E0,0E0],"parents":[2147483647,0,0,1,1,2,2,3,3,5,5,6,6],"right_children":[2,4,6,8,-1,10,12,-1,-1,-1,-1,-1,-1],"split_conditions":[-1.1434646E0,4.6153846E-1,3.403143E-1,-7.222222E-1,-4.686829E-2,5.555556E-1,-8.3333336E-2,-3.609185E-2,2.46869E-2,-1.2509915E-3,2.806878E-2,-4.1248705E-2,6.43909E-3],"split_indices":[4,3,4,1,0,3,1,0,0,0,0,0,0],"split_type":[0,0,0,0,0,0,0,0,0,0,0,0,0],"sum_hessian":[3.99162E1,5.108729E0,3.480747E1,3.1363523E0,1.9723767E0,2.1457418E1,1.335005E1,1.1999377E0,1.9364147E0,1.2809578E1,8.6478405E0,2.9206457E0,1.0429404E1],"tree_param":{"num_deleted":"0","num_feature":"5","num_nodes":"13","size_leaf_vector":"1"}},{"base_weights":[1.7794225E-2,7.533551E-2,-5.467478E-1,-2.6524523E-2,1.11174725E-1,-4.2989347E-2,2.7127604E-3,4.507301E-2,2.8502156E-3],"categories":[],"categories_nodes":[],"categories_segments":[],"categories_sizes":[],"default_left":[0,0,0,0,0,0,0,0,0],"id":38,"left_children":[1,3,5,-1,7,-1,-1,-1,-1],"loss_changes":[1.2948406E0,8.384823E-1,7.4102616E-1,0E0,1.4351089E0,0E0,0E0,0E0,0E0],"parents":[2147483647,0,0,1,1,2,2,4,4],"right_children":[2,4,6,-1,8,-1,-1,-1,-1],"split_conditions":[1.2037865E0,-4.7E0,6.1538464E-1,-2.6524523E-2,-3.6E0,-4.2989347E-2,2.7127604E-3,4.507301E-2,2.8502156E-3],"split_indices":[4,1,3,0,1,0,0,0,0],"split_type":[0,0,0,0,0,0,0,0,0],"sum_hessian":[3.7592316E1,3.4901512E1,2.690803E0,1.1784828E0,3.372303E1,1.4861425E0,1.2046604E0,1.1599191E0,3.256311E1],"tree_param":{"num_deleted":"0","num_feature":"5","num_nodes":"9","size_leaf_vector":"1"}},{"base_weights":[2.9022726E-3,-8.452104E-2,5.028835E-1,-6.322782E-3,-5.0937142E-2,8.6047906E-1,-1.237865E-2,-4.9175676E-3,4.4581432E-2,4.71342E-3,5.621388E-2],"categories":[],"categories_nodes":[],"categories_segments":[],"categories_sizes":[],"default_left":[0,0,0,0,0,0,0,0,0,0,0],"id":39,"left_children":[1,3,5,7,-1,9,-1,-1,-1,-1,-1],"loss_changes":[1.7833581E0,2.532638E0,1.8423476E0,2.8211398E0,0E0,7.703161E-1,0E0,0E0,0E0,0E0,0E0],"parents":[2147483647,0,0,1,1,2,2,3,3,5,5],"right_children":[2,4,6,8,-1,10,-1,-1,-1,-1,-1],"split_conditions":[1.0457597E0,8.7541455E-1,3.35E0,5.450043E-1,-5.0937142E-2,9.7727275E-1,-1.237865E-2,-4.9175676E-3,4.4581432E-2,4.71342E-3,5.621388E-2],"split_indices":[4,4,1,4,0,1,0,0,0,0,0],"split_type":[0,0,0,0,0,0,0,0,0,0,0],"sum_hessian":[3.882734E1,3.3755955E1,5.071385E0,3.2077686E1,1.6782686E0,3.335431E0,1.7359538E0,2.9903439E1,2.1742496E0,1.2018812E0,2.13355E0],"tree_param":{"num_deleted":"0","num_feature":"5","num_nodes":"11","size_leaf_vector":"1"}},{"base_weights":[-1.1948499E-1,-1.5476578E-1,2.6252642E-2,-5.4337982E-2,-4.6206555E-1,-1.5392663E-2,5.5147004E-3,-4.3737944E-2,2.3742337E-2],"categories":[],"categories_nodes":[],"categories_segments":[],"categories_sizes":[],"default_left":[0,0,0,0,0,0,0,0,0],"id":40,"left_children":[1,3,-1,5,7,-1,-1,-1,-1],"loss_changes":[1.0322218E0,1.2223506E0,0E0,1.3527651E0,4.2134876E0,0E0,0E0,0E0,0E0],"parents":[2147483647,0,0,1,1,3,3,4,4],"right_children":[2,4,-1,6,8,-1,-1,-1,-1],"split_conditions":[8E-1,1.5E0,2.6252642E-2,-1.0961539E0,3E0,-1.5392663E-2,5.5147004E-3,-4.3737944E-2,2.3742337E-2],"split_indices":[3,1,0,1,2,0,0,0,0],"split_type":[0,0,0,0,0,0,0,0,0],"sum_hessian":[4.081923E1,3.9421265E1,1.3979658E0,3.059833E1,8.822934E0,1.1704592E1,1.889374E1,6.1710386E0,2.6518953E0],"tree_param":{"num_deleted":"0","num_feature":"5","num_nodes":"9","size_leaf_vector":"1"}},{"base_weights":[-4.5878123E-2,-1.1057005E-1,4.236086E-1,-5.902318E-2,-3.8982674E-2,7.11787E-1,-1.2792624E-2,-6.078434E-3,4.6078723E-2,2.2255161E-3,4.9758192E-2],"categories":[],"categories_nodes":[],"categories_segments":[],"categories_sizes":[],"default_left":[0,0,0,0,0,0,0,0,0,0,0],"id":41,"left_children":[1,3,5,7,-1,9,-1,-1,-1,-1,-1],"loss_changes":[1.2614099E0,1.193518E0,1.1709285E0,2.224981E0,0E0,6.762204E-1,0E0,0E0,0E0,0E0,0E0],"parents":[2147483647,0,0,1,1,2,2,3,3,5,5],"right_children":[2,4,6,8,-1,10,-1,-1,-1,-1,-1],"split_conditions":[1.0011803E0,8.922207E-1,3.35E0,7.3985004E-1,-3.8982674E-2,1.1666666E0,-1.2792624E-2,-6.078434E-3,4.6078723E-2,2.2255161E-3,4.9758192E-2],"split_indices":[4,4,1,4,0,1,0,0,0,0,0],"split_type":[0,0,0,0,0,0,0,0,0,0,0],"sum_hessian":[3.8989838E1,3.493986E1,4.049977E0,3.345098E1,1.4888825E0,2.8104224E0,1.2395543E0,3.2268803E1,1.1821765E0,1.1826557E0,1.6277668E0],"tree_param":{"num_deleted":"0","num_feature":"5","num_nodes":"11","size_leaf_vector":"1"}},{"base_weights":[-4.6710387E-2,-1.4429903E-1,2.3982403E-1,5.037897E-1,-2.9377195E-1,-3.347512E-2,4.5641285E-1,-6.6749933E-3,3.614387E-2,-1.9419262E-2,1.908779E-2,2.6293746E-3,3.7448864E-2],"categories":[],"categories_nodes":[],"categories_segments":[],"categories_sizes":[],"default_left":[0,0,0,0,0,0,0,0,0,0,0,0,0],"id":42,"left_children":[1,3,5,7,9,-1,11,-1,-1,-1,-1,-1,-1],"loss_changes":[1.1465479E0,3.0819678E0,2.3692696E0,9.4045424E-1,1.7616234E0,0E0,1.030681E0,0E0,0E0,0E0,0E0,0E0,0E0],"parents":[2147483647,0,0,1,1,2,2,3,3,4,4,6,6],"right_children":[2,4,6,8,10,-1,12,-1,-1,-1,-1,-1,-1],"split_conditions":[3E0,-2.0454545E0,-2.607143E0,-9.1520864E-1,7.5E-1,-3.347512E-2,-6.92715E-2,-6.6749933E-3,3.614387E-2,-1.9419262E-2,1.908779E-2,2.6293746E-3,3.7448864E-2],"split_indices":[2,1,1,4,3,0,4,0,0,0,0,0,0],"split_type":[0,0,0,0,0,0,0,0,0,0,0,0,0],"sum_hessian":[3.876545E1,2.9287153E1,9.478296E0,5.0445247E0,2.424263E1,1.421048E0,8.057249E0,1.3904864E0,3.6540382E0,2.163722E1,2.6054096E0,3.880608E0,4.1766405E0],"tree_param":{"num_deleted":"0","num_feature":"5","num_nodes":"13","size_leaf_vector":"1"}},{"base_weights":[-1.0913215E-1,-5.2419845E-2,-6.3860255E-1,-1.8038158E-1,2.0836717E-1,-4.655267E-4,-5.259454E-2,-5.8421725E-4,-4.2004447E-2,-2.8654575E-2,2.2762652E-2],"categories":[],"categories_nodes":[],"categories_segments":[],"categories_sizes":[],"default_left":[0,0,0,0,0,0,0,0,0,0,0],"id":43,"left_children":[1,3,5,7,9,-1,-1,-1,-1,-1,-1],"loss_changes":[1.1510358E0,1.2629762E0,9.595376E-1,2.7913132E0,2.6823869E0,0E0,0E0,0E0,0E0,0E0,0E0],"parents":[2147483647,0,0,1,1,2,2,3,3,4,4],"right_children":[2,4,6,8,10,-1,-1,-1,-1,-1,-1],"split_conditions":[3.4545455E0,9.166667E-1,1E0,4.466625E-1,-4.8001537E-1,-4.655267E-4,-5.259454E-2,-5.8421725E-4,-4.2004447E-2,-2.8654575E-2,2.2762652E-2],"split_indices":[1,1,0,4,4,0,0,0,0,0,0],"split_type":[0,0,0,0,0,0,0,0,0,0,0],"sum_hessian":[3.844756E1,3.5720493E1,2.7270665E0,2.4169456E1,1.1551036E1,1.486373E0,1.2406938E0,2.0058025E1,4.1114316E0,2.4559684E0,9.095067E0],"tree_param":{"num_deleted":"0","num_feature":"5","num_nodes":"11","size_leaf_vector":"1"}},{"base_weights":[1.194742E-1,-1.7847566E-1,2.1105549E-1,-4.2674008E-1,2.9965455E-2,4.056063E-2,1.396035E-1,3.3496195E-3,-3.895048E-2,-2.3587326E-2,1.5702337E-2],"categories":[],"categories_nodes":[],"categories_segments":[],"categories_sizes":[],"default_left":[0,0,0,0,0,0,0,0,0,0,0],"id":44,"left_children":[1,3,5,7,-1,-1,9,-1,-1,-1,-1],"loss_changes":[1.1381799E0,2.1913502E0,1.2292935E0,1.4753777E0,0E0,0E0,3.2605667E0,0E0,0E0,0E0,0E0],"parents":[2147483647,0,0,1,1,2,2,3,3,6,6],"right_children":[2,4,6,8,-1,-1,10,-1,-1,-1,-1],"split_conditions":[-1.45E0,6.1538464E-1,-1.2403169E0,4.4444445E-1,2.9965455E-2,4.056063E-2,-3.795477E-1,3.3496195E-3,-3.895048E-2,-2.3587326E-2,1.5702337E-2],"split_indices":[1,3,4,3,0,0,4,0,0,0,0],"split_type":[0,0,0,0,0,0,0,0,0,0,0],"sum_hessian":[3.9331528E1,9.024022E0,3.0307505E1,7.182688E0,1.8413337E0,2.1229181E0,2.8184587E1,3.3280292E0,3.8546593E0,5.8785276E0,2.2306059E1],"tree_param":{"num_deleted":"0","num_feature":"5","num_nodes":"11","size_leaf_vector":"1"}},{"base_weights":[-1.1613615E-1,-2.9408655E-1,1.2207974E-1,-5.8740836E-1,-1.5217492E-1,5.971661E-1,-8.7376654E-2,-3.974953E-2,1.3534411E-2,2.129992E-2,-2.413729E-2,3.834776E-2,-1.3105267E-3,2.1740584E-2,-1.441769E-2],"categories":[],"categories_nodes":[],"categories_segments":[],"categories_sizes":[],"default_left":[0,0,0,0,0,0,0,0,0,0,0,0,0,0,0],"id":45,"left_children":[1,3,5,7,9,11,13,-1,-1,-1,-1,-1,-1,-1,-1],"loss_changes":[1.7770348E0,9.01474E-1,1.8701717E0,1.5354402E0,3.5297694E0,6.252818E-1,1.5476066E0,0E0,0E0,0E0,0E0,0E0,0E0,0E0,0E0],"parents":[2147483647,0,0,1,1,2,2,3,3,4,4,5,5,6,6],"right_children":[2,4,6,8,10,12,14,-1,-1,-1,-1,-1,-1,-1,-1],"split_conditions":[5.555556E-1,-1.0961539E0,-5.2272725E-1,4.6153846E-1,4.1666666E-1,1.8106738E-1,5.833333E-1,-3.974953E-2,1.3534411E-2,2.129992E-2,-2.413729E-2,3.834776E-2,-1.3105267E-3,2.1740584E-2,-1.441769E-2],"split_indices":[3,1,1,3,3,4,3,0,0,0,0,0,0,0,0],"split_type":[0,0,0,0,0,0,0,0,0,0,0,0,0,0,0],"sum_hessian":[4.0073544E1,2.2804066E1,1.7269476E1,6.411883E0,1.6392183E1,4.7177362E0,1.255174E1,5.222137E0,1.1897461E0,5.8579206E0,1.0534263E1,3.5268145E0,1.1909218E0,3.164944E0,9.386795E0],"tree_param":{"num_deleted":"0","num_feature":"5","num_nodes":"15","size_leaf_vector":"1"}},{"base_weights":[-4.1364017E-3,3.1356283E-2,-5.467651E-2,5.7457022E-2,-2.6666006E-1,-1.7507656E-3,4.0400025E-2,-1.8193914E-2,2.0570518E-2],"categories":[],"categories_nodes":[],"categories_segments":[],"categories_sizes":[],"default_left":[0,0,0,0,0,0,0,0,0],"id":46,"left_children":[1,-1,3,5,7,-1,-1,-1,-1],"loss_changes":[1.3319699E0,0E0,9.323672E-1,1.8366151E0,1.0412407E0,0E0,0E0,0E0,0E0],"parents":[2147483647,0,0,2,2,3,3,4,4],"right_children":[2,-1,4,6,8,-1,-1,-1,-1],"split_conditions":[-3.6E0,3.1356283E-2,5.833333E-1,1.009409E0,8E-1,-1.7507656E-3,4.0400025E-2,-1.8193914E-2,2.0570518E-2],"split_indices":[1,0,3,4,3,0,0,0,0],"split_type":[0,0,0,0,0,0,0,0,0],"sum_hessian":[3.9674488E1,2.0952816E0,3.757921E1,2.5054834E1,1.2524371E1,2.3155285E1,1.8995506E0,1.1359121E1,1.1652496E0],"tree_param":{"num_deleted":"0","num_feature":"5","num_nodes":"9","size_leaf_vector":"1"}},{"base_weights":[6.529567E-2,-2.4751652E-2,3.3166987E-1,-1.5434547E-1,3.2673243E-1,6.5674084E-1,2.6581125E-2,-1.6295817E-3,-4.1632302E-2,2.7918374E-2,-7.7363113E-3,1.1550291E-2,4.893739E-2,-4.269687E-2,2.2426518E-2],"categories":[],"categories_nodes":[],"categories_segments":[],"categories_sizes":[],"default_left":[0,0,0,0,0,0,0,0,0,0,0,0,0,0,0],"id":47,"left_children":[1,3,5,7,9,11,13,-1,-1,-1,-1,-1,-1,-1,-1],"loss_changes":[1.015827E0,1.5228657E0,1.0419835E0,1.9794326E0,1.093307E0,4.771304E-1,2.8176024E0,0E0,0E0,0E0,0E0,0E0,0E0,0E0,0E0],"parents":[2147483647,0,0,1,1,2,2,3,3,4,4,5,5,6,6],"right_children":[2,4,6,8,10,12,14,-1,-1,-1,-1,-1,-1,-1,-1],"split_conditions":[6.363636E-1,1.3571428E0,1.2777778E0,5.063292E-1,3.0833333E0,-2.7272728E-1,2.392857E0,-1.6295817E-3,-4.1632302E-2,2.7918374E-2,-7.7363113E-3,1.1550291E-2,4.893739E-2,-4.269687E-2,2.2426518E-2],"split_indices":[3,1,1,4,1,1,1,0,0,0,0,0,0,0,0],"split_type":[0,0,0,0,0,0,0,0,0,0,0,0,0,0,0],"sum_hessian":[4.1008076E1,3.1325596E1,9.682481E0,2.3296824E1,8.028772E0,4.129689E0,5.5527916E0,2.0640022E1,2.656801E0,5.3129244E0,2.7158477E0,2.517983E0,1.6117064E0,1.4672209E0,4.0855703E0],"tree_param":{"num_deleted":"0","num_feature":"5","num_nodes":"15","size_leaf_vector":"1"}},{"base_weights":[2.120322E-2,3.4348547E-2,-3.802609E-2,-8.9937724E-2,2.8666953E-2,-1.0710743E-4,-2.8923063E-2],"categories":[],"categories_nodes":[],"categories_segments":[],"categories_sizes":[],"default_left":[0,0,0,0,0,0,0],"id":48,"left_children":[1,-1,3,5,-1,-1,-1],"loss_changes":[1.6334093E0,0E0,1.2695532E0,1.5530316E0,0E0,0E0,0E0],"parents":[2147483647,0,0,2,2,3,3],"right_children":[2,-1,4,6,-1,-1,-1],"split_conditions":[-1.5460024E0,3.4348547E-2,1.6272459E0,8.7541455E-1,2.8666953E-2,-1.0710743E-4,-2.8923063E-2],"split_indices":[4,0,4,4,0,0,0],"split_type":[0,0,0,0,0,0,0],"sum_hessian":[3.9759968E1,2.3823736E0,3.7377594E1,3.5238358E1,2.1392345E0,3.0721579E1,4.51678E0],"tree_param":{"num_deleted":"0","num_feature":"5","num_nodes":"7","size_leaf_vector":"1"}},{"base_weights":[-1.5163882E-1,-1.9689378E-1,2.8547322E-2,-4.6404522E-2,-4.9624813E-1,-8.13805E-3,5.2264392E-2,-3.9050307E-2,9.875906E-3],"categories":[],"categories_nodes":[],"categories_segments":[],"categories_sizes":[],"default_left":[0,0,0,0,0,0,0,0,0],"id":49,"left_children":[1,3,-1,5,7,-1,-1,-1,-1],"loss_changes":[1.4039327E0,1.68485E0,0E0,3.514912E0,2.6394086E0,0E0,0E0,0E0,0E0],"parents":[2147483647,0,0,1,1,3,3,4,4],"right_children":[2,4,-1,6,8,-1,-1,-1,-1],"split_conditions":[8E-1,1.3214285E0,2.8547322E-2,9.166667E-1,3E0,-8.13805E-3,5.2264392E-2,-3.9050307E-2,9.875906E-3],"split_indices":[3,1,0,1,2,0,0,0,0],"split_type":[0,0,0,0,0,0,0,0,0],"sum_hessian":[3.8495243E1,3.691105E1,1.5841956E0,2.5331564E1,1.1579485E1,2.3660639E1,1.670926E0,8.120613E0,3.4588726E0],"tree_param":{"num_deleted":"0","num_feature":"5","num_nodes":"9","size_leaf_vector":"1"}},{"base_weights":[-1.6670108E-2,-4.2972628E-2,3.0758373E-2,7.166065E-1,-3.3941112E-2,5.8230613E-3,4.900747E-2,-9.214393E-3,8.55368E-3],"categories":[],"categories_nodes":[],"categories_segments":[],"categories_sizes":[],"default_left":[0,0,0,0,0,0,0,0,0],"id":50,"left_children":[1,-1,3,5,7,-1,-1,-1,-1],"loss_changes":[1.616781E0,0E0,1.7385931E0,4.1972423E-1,1.1490827E0,0E0,0E0,0E0,0E0],"parents":[2147483647,0,0,2,2,3,3,4,4],"right_children":[2,-1,4,6,8,-1,-1,-1,-1],"split_conditions":[-4.9423075E0,-4.2972628E-2,-3.090909E0,-8.232445E-1,5.555556E-1,5.8230613E-3,4.900747E-2,-9.214393E-3,8.55368E-3],"split_indices":[1,0,1,4,3,0,0,0,0],"split_type":[0,0,0,0,0,0,0,0,0],"sum_hessian":[3.87866E1,1.1542944E0,3.7632305E1,2.375444E0,3.525686E1,1.1648133E0,1.2106307E0,2.0398672E1,1.4858187E1],"tree_param":{"num_deleted":"0","num_feature":"5","num_nodes":"9","size_leaf_vector":"1"}},{"base_weights":[-1.1819499E-2,-4.9193814E-1,1.4065652E-1,-4.786734E-2,-2.1854986E-1,2.4669601E-1,-2.7723587E-1,1.0333746E-2,-4.137042E-2,-7.832448E-3,2.2014016E-2,1.5386799E-2,-3.0937433E-2],"categories":[],"categories_nodes":[],"categories_segments":[],"categories_sizes":[],"default_left":[0,0,0,0,0,0,0,0,0,0,0,0,0],"id":51,"left_children":[1,3,5,-1,7,9,11,-1,-1,-1,-1,-1,-1],"loss_changes":[3.016085E0,1.0536003E0,1.4566984E0,0E0,2.125224E0,2.06143E0,1.5512171E0,0E0,0E0,0E0,0E0,0E0,0E0],"parents":[2147483647,0,0,1,1,2,2,4,4,5,5,6,6],"right_children":[2,4,6,-1,8,10,12,-1,-1,-1,-1,-1,-1],"split_conditions":[-1.45E0,-1.1202241E0,8.922207E-1,-4.786734E-2,-2.1388888E0,-3.9911407E-1,5.714286E-1,1.0333746E-2,-4.137042E-2,-7.832448E-3,2.2014016E-2,1.5386799E-2,-3.0937433E-2],"split_indices":[1,4,4,0,1,4,3,0,0,0,0,0,0],"split_type":[0,0,0,0,0,0,0,0,0,0,0,0,0],"sum_hessian":[3.9254448E1,8.924989E0,3.032946E1,2.3768764E0,6.5481124E0,2.4517782E1,5.8116794E0,4.244395E0,2.3037176E0,8.012999E0,1.6504784E1,2.178708E0,3.632971E0],"tree_param":{"num_deleted":"0","num_feature":"5","num_nodes":"13","size_leaf_vector":"1"}},{"base_weights":[3.6029615E-2,-3.6137372E-1,1.6153935E-1,-6.8715718E-3,-4.5817297E-2,5.553337E-2,5.9692748E-2,-3.1956594E-2,2.8912783E-2,-2.374928E-2,1.138986E-2],"categories":[],"categories_nodes":[],"categories_segments":[],"categories_sizes":[],"default_left":[0,0,0,0,0,0,0,0,0,0,0],"id":52,"left_children":[1,3,5,7,-1,-1,9,-1,-1,-1,-1],"loss_changes":[2.0078695E0,1.9001367E0,2.8718548E0,2.929882E0,0E0,0E0,2.6704051E0,0E0,0E0,0E0,0E0],"parents":[2147483647,0,0,1,1,2,2,3,3,6,6],"right_children":[2,4,6,8,-1,-1,10,-1,-1,-1,-1],"split_conditions":[-1.4642857E0,-2.3888888E0,-1.2403169E0,-9.1520864E-1,-4.5817297E-2,5.553337E-2,-3.9911407E-1,-3.1956594E-2,2.8912783E-2,-2.374928E-2,1.138986E-2],"split_indices":[1,1,4,4,0,0,4,0,0,0,0],"split_type":[0,0,0,0,0,0,0,0,0,0,0],"sum_hessian":[3.8085243E1,8.690172E0,2.9395071E1,5.9206157E0,2.769557E0,1.888692E0,2.750638E1,2.8013337E0,3.119282E0,6.142813E0,2.1363567E1],"tree_param":{"num_deleted":"0","num_feature":"5","num_nodes":"11","size_leaf_vector":"1"}},{"base_weights":[3.312457E-2,-4.6099338E-1,1.17932536E-1,-2.6446443E-2,-7.665544E-1,2.7801993E-1,-2.550679E-1,1.5410142E-2,-1.894374E-2,-7.047975E-3,-5.0376393E-2,2.0226135E-3,2.9669506E-2,-2.3017427E-2,1.5067552E-2],"categories":[],"categories_nodes":[],"categories_segments":[],"categories_sizes":[],"default_left":[0,0,0,0,0,0,0,0,0,0,0,0,0,0,0],"id":53,"left_children":[1,3,5,7,9,11,13,-1,-1,-1,-1,-1,-1,-1,-1],"loss_changes":[1.7751508E0,8.0551994E-1,2.2112901E0,5.4175526E-1,4.0307093E-1,1.8909101E0,1.4278054E0,0E0,0E0,0E0,0E0,0E0,0E0,0E0,0E0],"parents":[2147483647,0,0,1,1,2,2,3,3,4,4,5,5,6,6],"right_children":[2,4,6,8,10,12,14,-1,-1,-1,-1,-1,-1,-1,-1],"split_conditions":[-1.1434646E0,1E0,4.1755053E-1,-7.222222E-1,4.6153846E-1,5.555556E-1,2.2692308E0,1.5410142E-2,-1.894374E-2,-7.047975E-3,-5.0376393E-2,2.0226135E-3,2.9669506E-2,-2.3017427E-2,1.5067552E-2],"split_indices":[4,0,4,1,3,3,1,0,0,0,0,0,0,0,0],"split_type":[0,0,0,0,0,0,0,0,0,0,0,0,0,0,0],"sum_hessian":[4.006381E1,5.219225E0,3.4844585E1,2.6034029E0,2.6158223E0,2.4558853E1,1.028573E1,1.3997524E0,1.2036506E0,1.1681441E0,1.4476782E0,1.4650746E1,9.908107E0,7.6398177E0,2.6459131E0],"tree_param":{"num_deleted":"0","num_feature":"5","num_nodes":"15","size_leaf_vector":"1"}},{"base_weights":[1.8597905E-2,5.259905E-1,-2.9319055E-2,8.400981E-3,3.1955253E-2,-6.082149E-1,3.2966815E-2,-7.3812837E-3,-4.4363286E-2,3.3760782E-2,-8.204041E-4],"categories":[],"categories_nodes":[],"categories_segments":[],"categories_sizes":[],"default_left":[0,0,0,0,0,0,0,0,0,0,0],"id":54,"left_children":[1,3,5,-1,-1,7,9,-1,-1,-1,-1],"loss_changes":[1.0140228E0,3.826469E-2,1.4073908E0,0E0,0E0,3.560202E-1,1.1427541E0,0E0,0E0,0E0,0E0],"parents":[2147483647,0,0,1,1,2,2,5,5,6,6],"right_children":[2,4,6,-1,-1,8,10,-1,-1,-1,-1],"split_conditions":[-1.5460024E0,-2.101461E0,-1.1434646E0,8.400981E-3,3.1955253E-2,-1.2403169E0,-3.6E0,-7.3812837E-3,-4.4363286E-2,3.3760782E-2,-8.204041E-4],"split_indices":[4,4,4,0,0,4,1,0,0,0,0],"split_type":[0,0,0,0,0,0,0,0,0,0,0],"sum_hessian":[4.007322E1,2.5969539E0,3.7476265E1,1.2203467E0,1.3766072E0,2.789089E0,3.468718E1,1.6291358E0,1.1599531E0,1.5714252E0,3.3115753E1],"tree_param":{"num_deleted":"0","num_feature":"5","num_nodes":"11","size_leaf_vector":"1"}},{"base_weights":[7.105016E-2,-4.2597007E-2,1.2160367E-1,4.1320482E-1,1.2295357E-2,4.5503724E-2,-1.4234609E-2,-4.413809E-2,5.4234187E-3],"categories":[],"categories_nodes":[],"categories_segments":[],"categories_sizes":[],"default_left":[0,0,0,0,0,0,0,0,0],"id":55,"left_children":[1,-1,3,5,7,-1,-1,-1,-1],"loss_changes":[1.9111787E0,0E0,1.1934791E0,3.8036053E0,2.5387843E0,0E0,0E0,0E0,0E0],"parents":[2147483647,0,0,2,2,3,3,4,4],"right_children":[2,-1,4,6,8,-1,-1,-1,-1],"split_conditions":[-4.9423075E0,-4.2597007E-2,4.4444445E-1,-3.6457917E-1,4.5454547E-1,4.5503724E-2,-1.4234609E-2,-4.413809E-2,5.4234187E-3],"split_indices":[1,0,3,4,3,0,0,0,0],"split_type":[0,0,0,0,0,0,0,0,0],"sum_hessian":[3.773906E1,1.1365232E0,3.660254E1,9.221695E0,2.7380842E1,5.209064E0,4.0126314E0,1.8630481E0,2.5517794E1],"tree_param":{"num_deleted":"0","num_feature":"5","num_nodes":"9","size_leaf_vector":"1"}},{"base_weights":[1.08146025E-2,-6.549501E-2,4.266303E-2,-3.5110882E-1,7.217513E-2,-9.067976E-3,-4.5462385E-2,-6.019523E-3,2.6327452E-2],"categories":[],"categories_nodes":[],"categories_segments":[],"categories_sizes":[],"default_left":[0,0,0,0,0,0,0,0,0],"id":56,"left_children":[1,3,-1,5,7,-1,-1,-1,-1],"loss_changes":[2.7003067E0,1.5449593E0,0E0,1.0421498E0,2.4176502E0,0E0,0E0,0E0,0E0],"parents":[2147483647,0,0,1,1,3,3,4,4],"right_children":[2,4,-1,6,8,-1,-1,-1,-1],"split_conditions":[7.5E-1,-3E-1,4.266303E-2,-6.5E-1,3E0,-9.067976E-3,-4.5462385E-2,-6.019523E-3,2.6327452E-2],"split_indices":[3,1,0,1,2,0,0,0,0],"split_type":[0,0,0,0,0,0,0,0,0],"sum_hessian":[4.0134815E1,3.764697E1,2.4878445E0,1.1740169E1,2.5906801E1,1.0018218E1,1.7219502E0,1.8711731E1,7.1950703E0],"tree_param":{"num_deleted":"0","num_feature":"5","num_nodes":"9","size_leaf_vector":"1"}},{"base_weights":[5.107556E-2,-1.3202395E-1,2.936438E-1,7.6596E-2,-5.7486993E-1,7.850183E-1,3.4853357E-3,-9.641864E-3,3.0880556E-2,-3.8951468E-2,1.2495803E-3,-5.8072763E-3,5.093642E-2,-1.2970707E-2,3.9611105E-2],"categories":[],"categories_nodes":[],"categories_segments":[],"categories_sizes":[],"default_left":[0,0,0,0,0,0,0,0,0,0,0,0,0,0,0],"id":57,"left_children":[1,3,5,7,9,11,13,-1,-1,-1,-1,-1,-1,-1,-1],"loss_changes":[1.792038E0,2.1860225E0,2.4624698E0,2.5450952E0,9.4314003E-1,1.469374E0,2.6679966E0,0E0,0E0,0E0,0E0,0E0,0E0,0E0,0E0],"parents":[2147483647,0,0,1,1,2,2,3,3,4,4,5,5,6,6],"right_children":[2,4,6,8,10,12,14,-1,-1,-1,-1,-1,-1,-1,-1],"split_conditions":[5.555556E-1,5E-1,-3.4847226E-2,5.5E-1,5.4545456E-1,-1.0433012E0,3E0,-9.641864E-3,3.0880556E-2,-3.8951468E-2,1.2495803E-3,-5.8072763E-3,5.093642E-2,-1.2970707E-2,3.9611105E-2],"split_indices":[3,3,4,1,3,4,2,0,0,0,0,0,0,0,0],"split_type":[0,0,0,0,0,0,0,0,0,0,0,0,0,0,0],"sum_hessian":[3.8475506E1,2.2185097E1,1.629041E1,1.5642921E1,6.5421743E0,5.4149218E0,1.0875487E1,1.0872049E1,4.7708726E0,4.6581254E0,1.8840486E0,1.2187134E0,4.1962085E0,8.660047E0,2.2154403E0],"tree_param":{"num_deleted":"0","num_feature":"5","num_nodes":"15","size_leaf_vector":"1"}},{"base_weights":[-6.658254E-2,8.9120805E-2,-4.1345006E-1,6.466552E-1,-1.253249E-1,-5.370376E-1,2.0266786E-2,6.2394228E-2,9.3726296E-4,-1.4079602E-2,2.1834558E-2,-4.000307E-2,7.0345434E-3],"categories":[],"categories_nodes":[],"categories_segments":[],"categories_sizes":[],"default_left":[0,0,0,0,0,0,0,0,0,0,0,0,0],"id":58,"left_children":[1,3,5,7,9,11,-1,-1,-1,-1,-1,-1,-1],"loss_changes":[2.1127787E0,3.351209E0,1.4406531E0,2.906229E0,1.9313892E0,2.0610778E0,0E0,0E0,0E0,0E0,0E0,0E0,0E0],"parents":[2147483647,0,0,1,1,2,2,3,3,4,4,5,5],"right_children":[2,4,6,8,10,12,-1,-1,-1,-1,-1,-1,-1],"split_conditions":[1.3636364E0,-7.2975636E-1,7.777778E-1,1E0,6.25E-1,9.798502E-1,2.0266786E-2,6.2394228E-2,9.3726296E-4,-1.4079602E-2,2.1834558E-2,-4.000307E-2,7.0345434E-3],"split_indices":[1,4,3,0,3,4,0,0,0,0,0,0,0],"split_type":[0,0,0,0,0,0,0,0,0,0,0,0,0],"sum_hessian":[3.743718E1,2.6351482E1,1.1085695E1,6.760217E0,1.9591267E1,9.930839E0,1.1548567E0,2.9490824E0,3.8111348E0,1.5719469E1,3.871797E0,7.0242505E0,2.9065876E0],"tree_param":{"num_deleted":"0","num_feature":"5","num_nodes":"13","size_leaf_vector":"1"}},{"base_weights":[4.3529816E-2,-1.0869508E-1,2.0027605E-1,2.0592635E-2,-6.146316E-2,-3.4064683E-1,3.996085E-1,1.9638188E-2,-1.651349E-2,2.8876683E-2,-4.2091306E-2,3.6131676E-2,-7.5127967E-3],"categories":[],"categories_nodes":[],"categories_segments":[],"categories_sizes":[],"default_left":[0,0,0,0,0,0,0,0,0,0,0,0,0],"id":59,"left_children":[1,3,5,7,-1,9,11,-1,-1,-1,-1,-1,-1],"loss_changes":[9.8131716E-1,3.0749118E0,2.3103712E0,2.7225118E0,0E0,3.23329E0,2.8075407E0,0E0,0E0,0E0,0E0,0E0,0E0],"parents":[2147483647,0,0,1,1,2,2,3,3,5,5,6,6],"right_children":[2,4,6,8,-1,10,12,-1,-1,-1,-1,-1,-1],"split_conditions":[-5.8938358E-2,-1.4336088E-1,0E0,1E0,-6.146316E-2,-2.1388888E0,8.7541455E-1,1.9638188E-2,-1.651349E-2,2.8876683E-2,-4.2091306E-2,3.6131676E-2,-7.5127967E-3],"split_indices":[4,4,1,0,0,1,4,0,0,0,0,0,0],"split_type":[0,0,0,0,0,0,0,0,0,0,0,0,0],"sum_hessian":[3.9214622E1,2.0049755E1,1.9164867E1,1.8855848E1,1.1939069E0,4.969725E0,1.4195142E1,9.092119E0,9.763729E0,1.7010267E0,3.2686982E0,8.744102E0,5.4510403E0],"tree_param":{"num_deleted":"0","num_feature":"5","num_nodes":"13","size_leaf_vector":"1"}}]},"name":"gbtree"},"learner_model_param":{"base_score":"5.440035E-1","boost_from_average":"1","num_class":"0","num_feature":"5","num_target":"1"},"objective":{"name":"binary:logistic","reg_loss_param":{"scale_pos_weight":"1"}}},"version":[2,0,0]}