{"learner":{"attributes":{"best_iteration":"0","best_score":"0.6899638246087467"},"feature_names":["Home","Minutes Diff","Rest Days","L5UR","Recent T"],"feature_types":["float","float","float","float","float"],"gradient_booster":{"model":{"gbtree_model_param":{"num_parallel_tree":"1","num_trees":"51"},"iteration_indptr":[0,1,2,3,4,5,6,7,8,9,10,11,12,13,14,15,16,17,18,19,20,21,22,23,24,25,26,27,28,29,30,31,32,33,34,35,36,37,38,39,40,41,42,43,44,45,46,47,48,49,50,51],"tree_info":[0,0,0,0,0,0,0,0,0,0,0,0,0,0,0,0,0,0,0,0,0,0,0,0,0,0,0,0,0,0,0,0,0,0,0,0,0,0,0,0,0,0,0,0,0,0,0,0,0,0,0],"trees":[{"base_weights":[-5.0537225E-2,-5.6656837E-2,1.2419679E-2,5.575779E-2,-9.2239365E-2,-1.6764118E-1,3.7114125E-2,2.1756308E-2,-6.071159E-1,-2.6642308E-2,9.25078E-3,-6.799111E-2,-1.3499162E-2],"categories":[],"categories_nodes":[],"categories_segments":[],"categories_sizes":[],"default_left":[0,0,0,0,0,0,0,0,0,0,0,0,0],"id":0,"left_children":[1,-1,3,-1,5,7,-1,9,11,-1,-1,-1,-1],"loss_changes":[2.7904344E0,0E0,4.6598997E0,0E0,2.4517717E0,2.9045594E0,0E0,2.383977E0,2.2964435E0,0E0,0E0,0E0,0E0],"parents":[2147483647,0,0,2,2,4,4,5,5,7,7,8,8],"right_children":[2,-1,4,-1,6,8,-1,10,12,-1,-1,-1,-1],"split_conditions":[-4.9722223E0,-5.6656837E-2,-3.6E0,5.575779E-2,1.6190476E0,4.3235832E-1,3.7114125E-2,-1.45E0,2E0,-2.6642308E-2,9.25078E-3,-6.799111E-2,-1.3499162E-2],"split_indices":[1,0,1,0,4,4,0,1,3,0,0,0,0],"split_type":[0,0,0,0,0,0,0,0,0,0,0,0,0],"sum_hessian":[3.9734722E1,1.2495195E0,3.8485203E1,2.499039E0,3.598616E1,3.3737026E1,2.249135E0,2.4240679E1,9.496348E0,4.998078E0,1.9242601E1,1.9992312E0,7.497117E0],"tree_param":{"num_deleted":"0","num_feature":"5","num_nodes":"13","size_leaf_vector":"1"}},{"base_weights":[3.7872393E-2,-5.486527E-1,1.5237476E-1,-5.4493506E-2,-3.5710376E-2,5.599972E-1,-1.5706247E-1,5.442333E-2,-4.0155213E-2,6.167229E-2,3.7798172E-1,-8.050219E-1,9.349247E-2,-1.4968479E-1,5.644143E-1,-1.5072126E-3,-5.3561974E-2,-1.946616E-1,9.7048104E-1,3.2085795E-2,-3.4659933E-2,1.0447743E-2,4.566304E-2,4.423429E-2,-2.263618E-2,6.217751E-2,1.0271889E-2],"categories":[],"categories_nodes":[],"categories_segments":[],"categories_sizes":[],"default_left":[0,0,0,0,0,0,0,0,0,0,0,0,0,0,0,0,0,0,0,0,0,0,0,0,0,0,0],"id":1,"left_children":[1,3,5,-1,7,9,11,-1,-1,-1,13,15,17,19,21,-1,-1,23,25,-1,-1,-1,-1,-1,-1,-1,-1],"loss_changes":[2.7685716E0,1.8342569E0,4.405781E0,0E0,4.7545867E0,1.3714042E0,3.3613322E0,0E0,0E0,0E0,1.3873134E0,1.1534965E0,4.103977E0,2.2720356E0,1.048639E0,0E0,0E0,3.8805516E0,5.798621E-1,0E0,0E0,0E0,0E0,0E0,0E0,0E0,0E0],"parents":[2147483647,0,0,1,1,2,2,4,4,5,5,6,6,10,10,11,11,12,12,13,13,14,14,17,17,18,18],"right_children":[2,4,6,-1,8,10,12,-1,-1,-1,14,16,18,20,22,-1,-1,24,26,-1,-1,-1,-1,-1,-1,-1,-1],"split_conditions":[-1.1471385E0,-2.0714285E0,0E0,-5.4493506E-2,-4.0384614E-1,-9.6598595E-1,-8.3333336E-2,5.442333E-2,-4.0155213E-2,6.167229E-2,-6.3790536E-1,2.1655124E-1,3E0,-2.2727273E0,1E0,-1.5072126E-3,-5.3561974E-2,1.6666667E-1,2.5E0,3.2085795E-2,-3.4659933E-2,1.0447743E-2,4.566304E-2,4.423429E-2,-2.263618E-2,6.217751E-2,1.0271889E-2],"split_indices":[4,1,4,0,1,4,1,0,0,0,4,4,2,1,0,0,0,1,1,0,0,0,0,0,0,0,0],"split_type":[0,0,0,0,0,0,0,0,0,0,0,0,0,0,0,0,0,0,0,0,0,0,0,0,0,0,0],"sum_hessian":[3.897961E1,5.7474313E0,3.3232178E1,2.2493489E0,3.4980822E0,1.3991462E1,1.9240715E1,1.2494031E0,2.2486792E0,1.7478611E0,1.2243601E1,4.748271E0,1.4492445E1,3.247944E0,8.995656E0,1.4988402E0,3.2494307E0,1.1493902E1,2.9985428E0,1.2488445E0,1.9990997E0,5.2475843E0,3.7480724E0,1.7492889E0,9.744614E0,1.7488549E0,1.2496879E0],"tree_param":{"num_deleted":"0","num_feature":"5","num_nodes":"27","size_leaf_vector":"1"}},{"base_weights":[-2.4071222E-2,5.824705E-1,-1.4718083E-1,-1.942317E-2,9.0372217E-1,-3.3354336E-1,4.6110374E-1,9.109014E-3,5.3170573E-2,-4.1083235E-2,-7.000987E-1,-2.8065687E-2,7.971024E-1,-2.1789697E-1,3.7320517E-2,-8.5542536E-1,7.386274E-3,2.4634469E-1,5.2421045E-2,9.756838E-6,-3.8820874E-2,-6.576893E-2,-2.96239E-2,3.1609327E-2,-1.24470685E-2],"categories":[],"categories_nodes":[],"categories_segments":[],"categories_sizes":[],"default_left":[0,0,0,0,0,0,0,0,0,0,0,0,0,0,0,0,0,0,0,0,0,0,0,0,0],"id":2,"left_children":[1,3,5,-1,7,9,11,-1,-1,13,15,-1,17,19,-1,21,-1,23,-1,-1,-1,-1,-1,-1,-1],"loss_changes":[3.200306E0,2.6090996E0,4.174878E0,0E0,4.6766186E-1,2.9442677E0,3.4493885E0,0E0,0E0,2.4583912E0,1.7389083E0,0E0,7.092972E-1,1.734544E0,0E0,4.9012136E-1,0E0,8.2574654E-1,0E0,0E0,0E0,0E0,0E0,0E0,0E0],"parents":[2147483647,0,0,1,1,2,2,4,4,5,5,6,6,9,9,10,10,12,12,13,13,15,15,17,17],"right_children":[2,4,6,-1,8,10,12,-1,-1,14,16,-1,18,20,-1,22,-1,24,-1,-1,-1,-1,-1,-1,-1],"split_conditions":[-2.2727273E0,-1.2112035E0,3E0,-1.942317E-2,-4.681818E0,3.7913647E-1,-1E-1,9.109014E-3,5.3170573E-2,2.196756E-1,1.6272459E0,-2.8065687E-2,-6.92715E-2,2.3555508E-2,3.7320517E-2,0E0,7.386274E-3,1.3636364E0,5.2421045E-2,9.756838E-6,-3.8820874E-2,-6.576893E-2,-2.96239E-2,3.1609327E-2,-1.24470685E-2],"split_indices":[1,4,2,0,1,4,1,0,0,4,4,0,4,4,0,1,0,1,0,0,0,0,0,0,0],"split_type":[0,0,0,0,0,0,0,0,0,0,0,0,0,0,0,0,0,0,0,0,0,0,0,0,0],"sum_hessian":[4.071061E1,6.2392893E0,3.4471317E1,1.4991426E0,4.7401466E0,2.6732761E1,7.738556E0,1.246915E0,3.4932318E0,1.5487762E1,1.1245E1,1.748234E0,5.990322E0,1.3238632E1,2.2491302E0,9.496261E0,1.7487394E0,2.4974458E0,3.492876E0,1.023982E1,2.998813E0,1.9983184E0,7.497942E0,1.2484562E0,1.2489896E0],"tree_param":{"num_deleted":"0","num_feature":"5","num_nodes":"25","size_leaf_vector":"1"}},{"base_weights":[-9.980004E-4,1.4806095E-1,-3.1999782E-1,-4.8326984E-1,3.3088377E-1,-5.38213E-1,5.0485337E-1,2.3960306E-1,-5.2489888E-2,5.6264997E-2,2.2914448E-1,-6.421695E-2,-2.5357097E-1,5.280709E-2,-1.3544761E-2,-8.926005E-3,3.221708E-2,-6.2094176E-1,4.0273586E-1,-8.981902E-1,1.2814093E-1,-2.147558E-3,-4.599029E-2,2.3203283E-3,4.0695976E-2,-5.8034826E-2,-1.0374845E-2,2.3984225E-2,-1.2762499E-2],"categories":[],"categories_nodes":[],"categories_segments":[],"categories_sizes":[],"default_left":[0,0,0,0,0,0,0,0,0,0,0,0,0,0,0,0,0,0,0,0,0,0,0,0,0,0,0,0,0],"id":3,"left_children":[1,3,5,7,9,11,13,15,-1,-1,17,-1,19,-1,-1,-1,-1,21,23,25,27,-1,-1,-1,-1,-1,-1,-1,-1],"loss_changes":[2.1245894E0,3.675261E0,2.832748E0,3.2188182E0,1.6989577E0,2.166742E0,1.7797682E0,7.91562E-1,0E0,0E0,3.6025257E0,0E0,2.5119383E0,0E0,0E0,0E0,0E0,6.939261E-1,2.8152323E0,4.38658E-1,1.0649793E0,0E0,0E0,0E0,0E0,0E0,0E0,0E0,0E0],"parents":[2147483647,0,0,1,1,2,2,3,3,4,4,5,5,6,6,7,7,10,10,12,12,17,17,18,18,19,19,20,20],"right_children":[2,4,6,8,10,12,14,16,-1,-1,18,-1,20,-1,-1,-1,-1,22,24,26,28,-1,-1,-1,-1,-1,-1,-1,-1],"split_conditions":[4.1755053E-1,-1.1471385E0,1.6190476E0,-1.5152766E0,-9.6598595E-1,2E0,1.9889156E0,-1.8257419E0,-5.2489888E-2,5.6264997E-2,-5.8517236E-1,-6.421695E-2,5.454639E-1,5.280709E-2,-1.3544761E-2,-8.926005E-3,3.221708E-2,-1.8269231E0,1E0,5.5E-1,9.2221963E-1,-2.147558E-3,-4.599029E-2,2.3203283E-3,4.0695976E-2,-5.8034826E-2,-1.0374845E-2,2.3984225E-2,-1.2762499E-2],"split_indices":[4,4,4,4,4,3,4,4,0,0,4,0,4,0,0,0,0,1,0,1,4,0,0,0,0,0,0,0,0],"split_type":[0,0,0,0,0,0,0,0,0,0,0,0,0,0,0,0,0,0,0,0,0,0,0,0,0,0,0,0,0],"sum_hessian":[4.268496E1,2.945663E1,1.3228332E1,6.2456236E0,2.3211006E1,1.0735696E1,2.4926357E0,2.9977062E0,3.2479174E0,1.4929447E0,2.1718061E1,1.9947584E0,8.740937E0,1.2458323E0,1.2468033E0,1.7493896E0,1.2483165E0,3.2458634E0,1.8472198E1,2.7476919E0,5.9932456E0,1.4961283E0,1.7497351E0,1.0492404E1,7.979794E0,1.4979119E0,1.2497799E0,2.9954538E0,2.9977918E0],"tree_param":{"num_deleted":"0","num_feature":"5","num_nodes":"29","size_leaf_vector":"1"}},{"base_weights":[-3.5369815E-3,1.7702031E-1,-4.5121592E-1,-4.1048843E-1,3.2718238E-1,-1.0742701E0,-1.09285764E-1,1.0036698E-1,-5.15459E-2,5.241091E-1,-2.605042E-1,-6.4609125E-2,-1.4077644E-2,-5.2568056E-2,1.6073982E-1,-3.2827307E-2,5.585428E-1,5.0943173E-2,3.5768157E-1,-6.21E-1,1.8853016E-1,4.456562E-2,-1.7319505E-1,3.3392288E-2,1.0028201E-2,-8.749366E-3,3.608579E-2,-6.112059E-2,7.5852596E-3,3.0053323E-2,-1.0865927E-2,-3.9689884E-2,8.599843E-3],"categories":[],"categories_nodes":[],"categories_segments":[],"categories_sizes":[],"default_left":[0,0,0,0,0,0,0,0,0,0,0,0,0,0,0,0,0,0,0,0,0,0,0,0,0,0,0,0,0,0,0,0,0],"id":4,"left_children":[1,3,5,7,9,11,13,15,-1,17,19,-1,-1,-1,21,-1,23,-1,25,27,29,-1,31,-1,-1,-1,-1,-1,-1,-1,-1,-1,-1],"loss_changes":[3.6475022E0,2.9723678E0,2.6450489E0,2.31961E0,3.1661036E0,4.1030407E-1,2.5819333E0,2.0125985E0,0E0,1.2774005E0,1.2887611E0,0E0,0E0,0E0,2.1645534E0,0E0,2.8737783E-3,0E0,3.3183203E0,2.1594634E0,7.987232E-1,0E0,1.5273352E0,0E0,0E0,0E0,0E0,0E0,0E0,0E0,0E0,0E0,0E0],"parents":[2147483647,0,0,1,1,2,2,3,3,4,4,5,5,6,6,7,7,9,9,10,10,14,14,16,16,18,18,19,19,20,20,22,22],"right_children":[2,4,6,8,10,12,14,16,-1,18,20,-1,-1,-1,22,-1,24,-1,26,28,30,-1,32,-1,-1,-1,-1,-1,-1,-1,-1,-1,-1],"split_conditions":[4.3235832E-1,-1.1471385E0,2E0,-1.3096311E0,1.5E0,1.6190476E0,-3E-1,-2.8888888E0,-5.15459E-2,-7.2975636E-1,1E0,-6.4609125E-2,-1.4077644E-2,-5.2568056E-2,1.375E0,-3.2827307E-2,-1.9325044E0,5.0943173E-2,-6.388889E-1,2.6E0,3E0,4.456562E-2,2.392857E0,3.3392288E-2,1.0028201E-2,-8.749366E-3,3.608579E-2,-6.112059E-2,7.5852596E-3,3.0053323E-2,-1.0865927E-2,-3.9689884E-2,8.599843E-3],"split_indices":[4,4,3,4,1,4,1,1,0,4,0,0,0,0,1,0,4,0,1,1,3,0,1,0,0,0,0,0,0,0,0,0,0],"split_type":[0,0,0,0,0,0,0,0,0,0,0,0,0,0,0,0,0,0,0,0,0,0,0,0,0,0,0,0,0,0,0,0,0],"sum_hessian":[4.3136494E1,3.1169737E1,1.1966756E1,5.992084E0,2.5177652E1,3.4813569E0,8.485399E0,3.7459426E0,2.2461412E0,1.8939451E1,6.238201E0,2.2364936E0,1.2448633E0,1.245721E0,7.2396784E0,1.2492336E0,2.4967089E0,3.4780302E0,1.5461421E1,3.247811E0,2.9903903E0,1.7474781E0,5.4922004E0,1.2495714E0,1.2471375E0,6.4876914E0,8.973729E0,1.4990673E0,1.7487437E0,1.2444365E0,1.7459537E0,1.4985147E0,3.9936857E0],"tree_param":{"num_deleted":"0","num_feature":"5","num_nodes":"33","size_leaf_vector":"1"}},{"base_weights":[-1.1335037E-1,-1.9857686E-2,-7.291321E-1,1.6659886E-1,-4.6972477E-1,-1.0505488E-2,-4.5714747E-2,-5.396061E-2,2.682536E-1,-7.602632E-1,2.9164303E-2,6.362958E-2,1.1994751E-1,-1.0070802E0,-1.30746E-1,1.2693345E-2,-2.1584047E-2,-6.578701E-2,5.890581E-4,5.517013E-2,-5.9508603E-2],"categories":[],"categories_nodes":[],"categories_segments":[],"categories_sizes":[],"default_left":[0,0,0,0,0,0,0,0,0,0,0,0,0,0,0,0,0,0,0,0,0],"id":5,"left_children":[1,3,5,7,9,-1,-1,-1,11,13,-1,-1,15,17,19,-1,-1,-1,-1,-1,-1],"loss_changes":[2.3944128E0,3.2115881E0,3.352561E-1,3.727485E0,3.872285E0,0E0,0E0,0E0,3.7051497E0,1.300592E0,0E0,0E0,1.8583012E0,2.051025E0,6.210362E0,0E0,0E0,0E0,0E0,0E0,0E0],"parents":[2147483647,0,0,1,1,2,2,3,3,4,4,8,8,9,9,12,12,13,13,14,14],"right_children":[2,4,6,8,10,-1,-1,-1,12,14,-1,-1,16,18,20,-1,-1,-1,-1,-1,-1],"split_conditions":[4E0,4.3235832E-1,-4.0384614E-1,-4.9722223E0,1.6272459E0,-1.0505488E-2,-4.5714747E-2,-5.396061E-2,-3.090909E0,2.55E0,2.9164303E-2,6.362958E-2,1.9642857E0,1.127646E0,3.0833333E0,1.2693345E-2,-2.1584047E-2,-6.578701E-2,5.890581E-4,5.517013E-2,-5.9508603E-2],"split_indices":[3,4,1,1,4,0,0,0,1,1,0,0,1,4,1,0,0,0,0,0,0],"split_type":[0,0,0,0,0,0,0,0,0,0,0,0,0,0,0,0,0,0,0,0,0],"sum_hessian":[4.084204E1,3.635465E1,4.4873924E0,2.6147118E1,1.0207532E1,1.7412616E0,2.7461307E0,1.2470975E0,2.4900019E1,8.218076E0,1.9894567E0,2.228389E0,2.267163E1,5.472635E0,2.7454405E0,1.8677149E1,3.9944825E0,3.9765673E0,1.4960676E0,1.2489737E0,1.4964668E0],"tree_param":{"num_deleted":"0","num_feature":"5","num_nodes":"21","size_leaf_vector":"1"}},{"base_weights":[8.268697E-3,-5.253277E-2,6.5291956E-2,6.1201613E-2,-3.095219E-2,-2.1261376E-1,5.651111E-1,1.5227796E-1,-3.6894476E-1,-1.4877178E-1,8.782379E-1,-1.912769E-2,3.2941222E-2,-1.1164567E-2,-4.8358437E-2,1.893411E-2,-3.34304E-2,6.445481E-2,1.9308727E-2],"categories":[],"categories_nodes":[],"categories_segments":[],"categories_sizes":[],"default_left":[0,0,0,0,0,0,0,0,0,0,0,0,0,0,0,0,0,0,0],"id":6,"left_children":[1,-1,3,-1,5,7,9,11,13,15,17,-1,-1,-1,-1,-1,-1,-1,-1],"loss_changes":[2.6514287E0,0E0,4.669361E0,0E0,4.3778067E0,1.8166903E0,2.2448165E0,2.9515696E0,1.6920784E0,1.2783165E0,8.605652E-1,0E0,0E0,0E0,0E0,0E0,0E0,0E0,0E0],"parents":[2147483647,0,0,2,2,4,4,5,5,6,6,7,7,8,8,9,9,10,10],"right_children":[2,-1,4,-1,6,8,10,12,14,16,18,-1,-1,-1,-1,-1,-1,-1,-1],"split_conditions":[-4.9722223E0,-5.253277E-2,-3.6E0,6.1201613E-2,3E0,-3.4503278E-1,1.0714286E-1,-9.1354686E-1,3.9318182E0,-3.6961424E-1,1.5833334E0,-1.912769E-2,3.2941222E-2,-1.1164567E-2,-4.8358437E-2,1.893411E-2,-3.34304E-2,6.445481E-2,1.9308727E-2],"split_indices":[1,0,1,0,2,4,1,4,1,4,1,0,0,0,0,0,0,0,0],"split_type":[0,0,0,0,0,0,0,0,0,0,0,0,0,0,0,0,0,0,0],"sum_hessian":[4.17739E1,1.2441912E0,4.052971E1,2.2095563E0,3.8320152E1,2.986234E1,8.45781E0,8.964426E0,2.0897915E1,2.7387495E0,5.719061E0,4.479536E0,4.4848905E0,1.791041E1,2.9875054E0,1.4941945E0,1.244555E0,2.2339785E0,3.4850821E0],"tree_param":{"num_deleted":"0","num_feature":"5","num_nodes":"19","size_leaf_vector":"1"}},{"base_weights":[6.861676E-2,6.2260474E-4,4.477243E-2,1.2051011E-1,-8.5164154E-1,1.9056468E-1,-3.28564E-2,-5.2506786E-2,-8.173671E-3,1.0533287E-1,4.8372522E-2,1.0524056E-2,-2.450459E-2],"categories":[],"categories_nodes":[],"categories_segments":[],"categories_sizes":[],"default_left":[0,0,0,0,0,0,0,0,0,0,0,0,0],"id":7,"left_children":[1,3,-1,5,7,9,-1,-1,-1,11,-1,-1,-1],"loss_changes":[2.2066426E0,3.9115114E0,0E0,1.953291E0,4.7322297E-1,1.9877611E0,0E0,0E0,0E0,1.9538943E0,0E0,0E0,0E0],"parents":[2147483647,0,0,1,1,3,3,4,4,5,5,9,9],"right_children":[2,4,-1,6,8,10,-1,-1,-1,12,-1,-1,-1],"split_conditions":[1.6190476E0,8.7541455E-1,4.477243E-2,3.0714285E0,2.25E0,2.6E0,-3.28564E-2,-5.2506786E-2,-8.173671E-3,1.5E0,4.8372522E-2,1.0524056E-2,-2.450459E-2],"split_indices":[4,4,0,1,1,1,0,0,0,1,0,0,0],"split_type":[0,0,0,0,0,0,0,0,0,0,0,0,0],"sum_hessian":[3.826023E1,3.6277702E1,1.9825282E0,3.2556587E1,3.721116E0,3.0558617E1,1.9979696E0,2.4798458E0,1.2412703E0,2.8560806E1,1.9978106E0,2.4823614E1,3.7371922E0],"tree_param":{"num_deleted":"0","num_feature":"5","num_nodes":"13","size_leaf_vector":"1"}},{"base_weights":[-2.7312247E-2,1.3808024E-1,-3.8182807E-1,2.2132632E-1,-3.26533E-2,-6.4264363E-1,3.1944975E-2,-2.7045083E-1,3.6003324E-1,-6.179436E-2,-3.5731593E-1,-4.9910184E-2,3.49402E-1,1.0041042E-2,7.264947E-1,3.9329495E-2,-6.9296837E-1,4.7251415E-2,-3.0022139E-2,4.8998665E-2,-2.5056353E-2,2.3030648E-4,4.904553E-2,2.850562E-3,-5.3991813E-2],"categories":[],"categories_nodes":[],"categories_segments":[],"categories_sizes":[],"default_left":[0,0,0,0,0,0,0,0,0,0,0,0,0,0,0,0,0,0,0,0,0,0,0,0,0],"id":8,"left_children":[1,3,5,7,-1,9,-1,11,13,-1,15,-1,17,19,21,-1,23,-1,-1,-1,-1,-1,-1,-1,-1],"loss_changes":[2.4692764E0,2.0437732E0,3.9717078E0,1.9281313E0,0E0,1.4462066E0,0E0,3.2699254E0,2.7327328E0,0E0,3.9766507E0,0E0,2.96497E0,6.4115214E0,1.9096022E0,0E0,2.2206683E0,0E0,0E0,0E0,0E0,0E0,0E0,0E0,0E0],"parents":[2147483647,0,0,1,1,2,2,3,3,5,5,7,7,8,8,10,10,12,12,13,13,14,14,16,16],"right_children":[2,4,6,8,-1,10,-1,12,14,-1,16,-1,18,20,22,-1,24,-1,-1,-1,-1,-1,-1,-1,-1],"split_conditions":[4.3235832E-1,2.9230769E0,1.6272459E0,-1.1471385E0,-3.26533E-2,-1E-1,3.1944975E-2,-2.0714285E0,1E0,-6.179436E-2,5.5E-1,-4.9910184E-2,-1.3096311E0,-3.804674E-1,-5.277778E-1,3.9329495E-2,8.2392305E-1,4.7251415E-2,-3.0022139E-2,4.8998665E-2,-2.5056353E-2,2.3030648E-4,4.904553E-2,2.850562E-3,-5.3991813E-2],"split_indices":[4,1,4,4,0,1,0,1,0,0,1,0,4,4,1,0,4,0,0,0,0,0,0,0,0],"split_type":[0,0,0,0,0,0,0,0,0,0,0,0,0,0,0,0,0,0,0,0,0,0,0,0,0],"sum_hessian":[4.021403E1,2.7837496E1,1.23765335E1,2.5838917E1,1.9985796E0,1.0152723E1,2.2238102E0,5.4756217E0,2.0363295E1,2.2152944E0,7.937429E0,2.2378423E0,3.2377796E0,1.0941204E1,9.422091E0,1.4959056E0,6.441523E0,1.9930521E0,1.2447275E0,3.4595828E0,7.4816213E0,2.7206175E0,6.701473E0,2.4821932E0,3.9593298E0],"tree_param":{"num_deleted":"0","num_feature":"5","num_nodes":"25","size_leaf_vector":"1"}},{"base_weights":[-3.9479308E-2,-6.061057E-1,4.22928E-2,-5.797682E-2,1.3087963E-3,4.952589E-2,-5.4319415E-2,3.0581525E-2,-3.0490994E-2,-1.2787281E-1,3.459048E-2,5.120731E-1,-2.1698527E-1,4.4219118E-2,-1.05808545E-2,-4.6457466E-2,-1.9369548E-3],"categories":[],"categories_nodes":[],"categories_segments":[],"categories_sizes":[],"default_left":[0,0,0,0,0,0,0,0,0,0,0,0,0,0,0,0,0],"id":9,"left_children":[1,3,5,-1,7,-1,9,-1,-1,11,-1,13,15,-1,-1,-1,-1],"loss_changes":[1.9190634E0,1.7558867E0,3.4109278E0,0E0,1.6735597E0,0E0,1.9656605E0,0E0,0E0,1.9348352E0,0E0,1.3205389E0,3.6165147E0,0E0,0E0,0E0,0E0],"parents":[2147483647,0,0,1,1,2,2,4,4,6,6,9,9,11,11,12,12],"right_children":[2,4,6,-1,8,-1,10,-1,-1,12,-1,14,16,-1,-1,-1,-1],"split_conditions":[-1.1923798E0,-2.0714285E0,-9.6598595E-1,-5.797682E-2,-1.5152766E0,4.952589E-2,4E0,3.0581525E-2,-3.0490994E-2,-2.4615386E0,3.459048E-2,3E0,-5.277778E-1,4.4219118E-2,-1.05808545E-2,-4.6457466E-2,-1.9369548E-3],"split_indices":[4,1,4,0,4,0,2,0,0,1,0,2,1,0,0,0,0],"split_type":[0,0,0,0,0,0,0,0,0,0,0,0,0,0,0,0,0],"sum_hessian":[3.9864594E1,4.218823E0,3.564577E1,1.7318867E0,2.4869363E0,2.440487E0,3.3205284E1,1.2438787E0,1.2430575E0,3.0979904E1,2.2253802E0,3.206513E0,2.7773392E1,1.9706484E0,1.2358644E0,4.716475E0,2.3056915E1],"tree_param":{"num_deleted":"0","num_feature":"5","num_nodes":"17","size_leaf_vector":"1"}},{"base_weights":[6.807172E-2,-5.5725765E-1,1.8582822E-1,-5.0868627E-2,-1.0163982E-1,6.46173E-1,4.566771E-3,5.3165644E-2,-8.2259715E-1,8.3320016E-1,7.798301E-2,-5.345542E-1,1.741794E-1,-5.2210998E-2,-1.16989715E-2,4.5586195E-2,1.466682E-2,-3.5458192E-2,3.771545E-2,1.5227968E-2,-9.306396E-1,-2.098606E-1,4.917751E-1,-6.30533E-2,-1.453051E-2,-2.9491097E-2,3.2696445E-2,4.3037895E-2,-2.9851926E-2],"categories":[],"categories_nodes":[],"categories_segments":[],"categories_sizes":[],"default_left":[0,0,0,0,0,0,0,0,0,0,0,0,0,0,0,0,0,0,0,0,0,0,0,0,0,0,0,0,0],"id":10,"left_children":[1,3,5,-1,7,9,11,-1,13,15,17,19,21,-1,-1,-1,-1,-1,-1,-1,23,25,27,-1,-1,-1,-1,-1,-1],"loss_changes":[3.331262E0,1.4051931E0,3.1375566E0,0E0,4.8446226E0,1.0641842E0,2.6544802E0,0E0,2.1011686E-1,6.707525E-2,2.5231516E0,2.593105E0,2.7940555E0,0E0,0E0,0E0,0E0,0E0,0E0,0E0,6.840534E-1,3.8932877E0,5.4854255E0,0E0,0E0,0E0,0E0,0E0,0E0],"parents":[2147483647,0,0,1,1,2,2,4,4,5,5,6,6,8,8,9,9,10,10,11,11,12,12,20,20,21,21,22,22],"right_children":[2,4,6,-1,8,10,12,-1,14,16,18,20,22,-1,-1,-1,-1,-1,-1,-1,24,26,28,-1,-1,-1,-1,-1,-1],"split_conditions":[-1.1471385E0,-2.0714285E0,-3.1495342E-1,-5.0868627E-2,-4.0384614E-1,1.1111111E-1,-6.388889E-1,5.3165644E-2,3.75E-1,-3.804674E-1,-4.213539E-1,-2.4615386E0,1E0,-5.2210998E-2,-1.16989715E-2,4.5586195E-2,1.466682E-2,-3.5458192E-2,3.771545E-2,1.5227968E-2,-1.45E0,2.6E0,3.2954545E0,-6.30533E-2,-1.453051E-2,-2.9491097E-2,3.2696445E-2,4.3037895E-2,-2.9851926E-2],"split_indices":[4,1,4,0,1,1,1,0,1,4,4,1,0,0,0,0,0,0,0,0,1,1,1,0,0,0,0,0,0],"split_type":[0,0,0,0,0,0,0,0,0,0,0,0,0,0,0,0,0,0,0,0,0,0,0,0,0,0,0,0,0],"sum_hessian":[4.2832928E1,6.1962614E0,3.6636665E1,2.4694684E0,3.7267928E0,9.625691E0,2.7010973E1,1.2431679E0,2.483625E0,6.891013E0,2.7346787E0,5.949289E0,2.1061684E1,1.2419809E0,1.2416441E0,5.4146447E0,1.4763685E0,1.2413597E0,1.4933189E0,1.9818288E0,3.9674602E0,9.687128E0,1.1374556E1,1.9766532E0,1.9908069E0,6.948021E0,2.7391074E0,8.651981E0,2.7225747E0],"tree_param":{"num_deleted":"0","num_feature":"5","num_nodes":"29","size_leaf_vector":"1"}},{"base_weights":[-4.0582504E-2,-4.995982E-2,1.2842057E-2,7.454376E-1,-9.585872E-2,1.1699787E-2,4.8278265E-2,-2.6825216E-1,4.6724284E-1,-3.2741323E-1,2.8550848E-2,-1.2450256E-2,7.0842254E-1,-3.4652723E-3,-2.726902E-2,5.2635815E-2,9.51964E-3],"categories":[],"categories_nodes":[],"categories_segments":[],"categories_sizes":[],"default_left":[0,0,0,0,0,0,0,0,0,0,0,0,0,0,0,0,0],"id":11,"left_children":[1,-1,3,5,7,-1,-1,9,11,13,-1,-1,15,-1,-1,-1,-1],"loss_changes":[2.162304E0,0E0,3.3159332E0,3.7954473E-1,3.6554108E0,0E0,0E0,1.6008592E0,1.7117893E0,1.4945068E0,0E0,0E0,1.0318761E0,0E0,0E0,0E0,0E0],"parents":[2147483647,0,0,2,2,3,3,4,4,7,7,8,8,9,9,12,12],"right_children":[2,-1,4,6,8,-1,-1,10,12,14,-1,-1,16,-1,-1,-1,-1],"split_conditions":[-4.9722223E0,-4.995982E-2,-2.7E0,-9.1520864E-1,3E0,1.1699787E-2,4.8278265E-2,1.6272459E0,-1E-1,3.611111E-1,2.8550848E-2,-1.2450256E-2,1.375E0,-3.4652723E-3,-2.726902E-2,5.2635815E-2,9.51964E-3],"split_indices":[1,0,1,4,2,0,0,4,1,1,0,0,1,0,0,0,0],"split_type":[0,0,0,0,0,0,0,0,0,0,0,0,0,0,0,0,0],"sum_hessian":[4.0970787E1,1.2282877E0,3.97425E1,4.378129E0,3.5364372E1,1.9381214E0,2.4400077E0,2.7476166E1,7.8882055E0,2.6236599E1,1.2395664E0,1.9788959E0,5.90931E0,1.2615639E1,1.362096E1,2.929889E0,2.9794207E0],"tree_param":{"num_deleted":"0","num_feature":"5","num_nodes":"17","size_leaf_vector":"1"}},{"base_weights":[1.7967278E-2,-4.4529778E-1,1.5097943E-1,1.5123681E-2,-1.0260636E0,-5.4715955E-1,2.5707564E-1,-4.8747633E-2,4.2186025E-1,-9.036962E-3,-6.475057E-2,1.1326842E-2,-8.6985445E-1,-9.644571E-3,4.8953244E-1,-2.8762577E-2,8.595629E-1,-7.910441E-3,-5.756538E-2,5.885671E-1,-1.838721E-1,6.819485E-1,-3.540865E-1,5.3435322E-2,1.02899205E-2,4.722899E-2,1.7951233E-3,-3.9025065E-2,8.927254E-3,2.450183E-2,6.083103E-2,-3.2799464E-2,3.0296135E-3],"categories":[],"categories_nodes":[],"categories_segments":[],"categories_sizes":[],"default_left":[0,0,0,0,0,0,0,0,0,0,0,0,0,0,0,0,0,0,0,0,0,0,0,0,0,0,0,0,0,0,0,0,0],"id":12,"left_children":[1,3,5,7,9,11,13,-1,15,-1,-1,-1,17,19,21,-1,23,-1,-1,25,27,29,31,-1,-1,-1,-1,-1,-1,-1,-1,-1,-1],"loss_changes":[2.772785E0,2.7022212E0,2.7227046E0,3.0650697E0,7.7938175E-1,1.4250177E0,1.9231014E0,0E0,2.8377097E0,0E0,0E0,0E0,5.544183E-1,1.7121763E0,2.9282525E0,0E0,3.4504294E-1,0E0,0E0,6.9589067E-1,2.8811712E0,8.218298E-1,5.070027E-1,0E0,0E0,0E0,0E0,0E0,0E0,0E0,0E0,0E0,0E0],"parents":[2147483647,0,0,1,1,2,2,3,3,4,4,5,5,6,6,8,8,12,12,13,13,14,14,16,16,19,19,20,20,21,21,22,22],"right_children":[2,4,6,8,10,12,14,-1,16,-1,-1,-1,18,20,22,-1,24,-1,-1,26,28,30,32,-1,-1,-1,-1,-1,-1,-1,-1,-1,-1],"split_conditions":[-1.45E0,-2.2727273E0,2E0,-4.9722223E0,1E0,4.7487074E-1,1E0,-4.8747633E-2,-1.249212E0,-9.036962E-3,-6.475057E-2,1.1326842E-2,1.2272727E0,-8.181818E-1,3.2954545E0,-2.8762577E-2,-3.1853712E-1,-7.910441E-3,-5.756538E-2,-9.694221E-1,5.5E-1,2.392857E0,4.15E0,5.3435322E-2,1.02899205E-2,4.722899E-2,1.7951233E-3,-3.9025065E-2,8.927254E-3,2.450183E-2,6.083103E-2,-3.2799464E-2,3.0296135E-3],"split_indices":[1,1,3,1,0,4,0,0,4,0,0,0,1,1,1,0,4,0,0,4,1,1,1,0,0,0,0,0,0,0,0,0,0],"split_type":[0,0,0,0,0,0,0,0,0,0,0,0,0,0,0,0,0,0,0,0,0,0,0,0,0,0,0,0,0,0,0,0,0],"sum_hessian":[4.290716E1,9.047618E0,3.3859543E1,5.589954E0,3.4576638E0,3.9183888E0,2.9941154E1,1.2209384E0,4.369015E0,1.2381337E0,2.21953E0,1.2409823E0,2.6774065E0,1.4389359E1,1.5551796E1,1.2369409E0,3.1320744E0,1.2015184E0,1.4758883E0,2.709188E0,1.1680172E1,1.28195095E1,2.7322867E0,1.8920871E0,1.2399874E0,1.2164466E0,1.4927415E0,3.9779208E0,7.702251E0,1.0843815E1,1.9756942E0,1.2443955E0,1.4878912E0],"tree_param":{"num_deleted":"0","num_feature":"5","num_nodes":"33","size_leaf_vector":"1"}},{"base_weights":[-2.8961135E-2,1.4814508E-1,-2.3858258E-1,-2.0276131E-2,5.4219123E-2,-9.6305275E-1,-5.81446E-2,9.6090764E-2,-3.6108185E-2,-1.4399785E-2,-5.9030205E-2,-4.6843138E-2,1.4600444E-1,-3.1017536E-1,3.4306625E-1,5.7704348E-2,-8.7927595E-2,-3.7068035E-2,4.627653E-3,5.341534E-2,4.825092E-3,-2.0629412E-2,3.9296858E-2],"categories":[],"categories_nodes":[],"categories_segments":[],"categories_sizes":[],"default_left":[0,0,0,0,0,0,0,0,0,0,0,0,0,0,0,0,0,0,0,0,0,0,0],"id":13,"left_children":[1,3,5,7,-1,9,11,13,-1,-1,-1,-1,15,17,19,-1,21,-1,-1,-1,-1,-1,-1],"loss_changes":[1.543513E0,3.591375E0,2.4260445E0,1.7165593E0,0E0,2.0656943E-1,3.0546284E0,1.9307028E0,0E0,0E0,0E0,0E0,3.4181151E0,1.3534873E0,2.0038052E0,0E0,3.8264804E0,0E0,0E0,0E0,0E0,0E0,0E0],"parents":[2147483647,0,0,1,1,2,2,3,3,5,5,6,6,7,7,12,12,13,13,14,14,16,16],"right_children":[2,4,6,8,-1,10,12,14,-1,-1,-1,-1,16,18,20,-1,22,-1,-1,-1,-1,-1,-1],"split_conditions":[3.378687E-2,-4.0032037E-2,2.196756E-1,-1.6825148E-1,5.4219123E-2,3E0,-1E-1,-1.1471385E0,-3.6108185E-2,-1.4399785E-2,-5.9030205E-2,-4.6843138E-2,3.2142857E-1,-2.0714285E0,-9.6598595E-1,5.7704348E-2,3E0,-3.7068035E-2,4.627653E-3,5.341534E-2,4.825092E-3,-2.0629412E-2,3.9296858E-2],"split_indices":[4,4,4,4,0,3,1,4,0,0,0,0,1,1,4,0,2,0,0,0,0,0,0],"split_type":[0,0,0,0,0,0,0,0,0,0,0,0,0,0,0,0,0,0,0,0,0,0,0],"sum_hessian":[3.962377E1,2.1636591E1,1.7987179E1,1.916696E1,2.469632E0,2.721774E0,1.5265405E1,1.7181509E1,1.9854494E0,1.2297361E0,1.492038E0,2.2012894E0,1.3064116E1,6.399182E0,1.0782328E1,1.7197546E0,1.134436E1,2.6843305E0,3.7148514E0,1.8900869E0,8.8922415E0,8.656232E0,2.688129E0],"tree_param":{"num_deleted":"0","num_feature":"5","num_nodes":"23","size_leaf_vector":"1"}},{"base_weights":[-5.08E-2,8.6621776E-2,-3.6018598E-1,-5.198235E-1,2.3982154E-1,-6.0671204E-1,3.0192364E-2,6.7715556E-3,-8.9990085E-1,4.904074E-2,1.4563942E-1,-5.870817E-2,-3.3593914E-1,-5.8522154E-2,-6.8141557E-3,-1.4803514E-1,4.5514974E-1,-4.885316E-1,4.1939385E-2,2.5542026E-2,-1.8895937E-2,4.749182E-2,6.424197E-3,-1.134005E-2,-3.3816557E-2,-8.987685E-3,1.2268163E-2],"categories":[],"categories_nodes":[],"categories_segments":[],"categories_sizes":[],"default_left":[0,0,0,0,0,0,0,0,0,0,0,0,0,0,0,0,0,0,0,0,0,0,0,0,0,0,0],"id":14,"left_children":[1,3,5,7,9,11,-1,-1,13,-1,15,-1,17,-1,-1,19,21,23,25,-1,-1,-1,-1,-1,-1,-1,-1],"loss_changes":[1.8373054E0,2.9324148E0,3.5175433E0,1.7183819E0,1.5886406E0,1.3045974E0,0E0,0E0,7.0567894E-1,0E0,2.1749725E0,0E0,5.3290236E-1,0E0,0E0,2.1094599E0,1.7419169E0,1.6164744E-1,2.0091899E-1,0E0,0E0,0E0,0E0,0E0,0E0,0E0,0E0],"parents":[2147483647,0,0,1,1,2,2,3,3,4,4,5,5,8,8,10,10,12,12,15,15,16,16,17,17,18,18],"right_children":[2,4,6,8,10,12,-1,-1,14,-1,16,-1,18,-1,-1,20,22,24,26,-1,-1,-1,-1,-1,-1,-1,-1],"split_conditions":[4.3235832E-1,-1.1471385E0,1.6272459E0,-1.5460024E0,-9.694221E-1,2E0,3.0192364E-2,6.7715556E-3,3E0,4.904074E-2,1E0,-5.870817E-2,2.55E0,-5.8522154E-2,-6.8141557E-3,-4.213977E-1,3E0,8.7541455E-1,6.367443E-1,2.5542026E-2,-1.8895937E-2,4.749182E-2,6.424197E-3,-1.134005E-2,-3.3816557E-2,-8.987685E-3,1.2268163E-2],"split_indices":[4,4,4,4,4,3,0,0,2,0,0,0,1,0,0,4,3,4,4,0,0,0,0,0,0,0,0],"split_type":[0,0,0,0,0,0,0,0,0,0,0,0,0,0,0,0,0,0,0,0,0,0,0,0,0,0,0],"sum_hessian":[4.1480232E1,2.9220995E1,1.2259238E1,5.410455E0,2.381054E1,1.0057859E1,2.2013795E0,2.222512E0,3.1879432E0,1.6234848E0,2.2187054E1,2.1712632E0,7.8865957E0,1.9605715E0,1.2273717E0,1.1652476E1,1.0534577E1,5.4093857E0,2.4772103E0,2.6978693E0,8.954607E0,3.4310675E0,7.10351E0,3.1821685E0,2.2272172E0,1.2410558E0,1.2361543E0],"tree_param":{"num_deleted":"0","num_feature":"5","num_nodes":"27","size_leaf_vector":"1"}},{"base_weights":[7.352284E-2,1.8869184E-1,-1.9987905E-1,-3.4223768E-1,3.1807238E-1,-4.1337115E-1,2.9236091E-2,1.7488667E-1,-4.5588408E-2,7.5076634E-1,1.769464E-1,-4.1907664E-2,-2.102792E-1,-2.6717052E-2,3.236986E-2,4.9909674E-2,5.2774954E-3,-5.7022864E-1,4.27208E-1,3.2036435E-2,-4.4002864E-1,3.0849078E-3,-4.387001E-2,-3.0151973E-2,2.9988423E-2,1.6552476E-3,-4.3062627E-2],"categories":[],"categories_nodes":[],"categories_segments":[],"categories_sizes":[],"default_left":[0,0,0,0,0,0,0,0,0,0,0,0,0,0,0,0,0,0,0,0,0,0,0,0,0,0,0],"id":15,"left_children":[1,3,5,7,9,11,-1,13,-1,15,17,-1,19,-1,-1,-1,-1,21,23,-1,25,-1,-1,-1,-1,-1,-1],"loss_changes":[1.366094E0,2.1832135E0,2.4175506E0,2.0439777E0,1.3815076E0,7.5520873E-1,0E0,1.7509731E0,0E0,8.191087E-1,3.984979E0,0E0,1.9711231E0,0E0,0E0,0E0,0E0,1.111748E0,3.127934E0,0E0,1.5024503E0,0E0,0E0,0E0,0E0,0E0,0E0],"parents":[2147483647,0,0,1,1,2,2,3,3,4,4,5,5,7,7,9,9,10,10,12,12,17,17,18,18,20,20],"right_children":[2,4,6,8,10,12,-1,14,-1,16,18,-1,20,-1,-1,-1,-1,22,24,-1,26,-1,-1,-1,-1,-1,-1],"split_conditions":[4.3235832E-1,-1.1471385E0,1.6272459E0,-1.3096311E0,-2.05E0,-1E-1,2.9236091E-2,-2.8888888E0,-4.5588408E-2,-3.6457917E-1,-5.277778E-1,-4.1907664E-2,4.1666666E-1,-2.6717052E-2,3.236986E-2,4.9909674E-2,5.2774954E-3,-3.804674E-1,-7.241051E-1,3.2036435E-2,8.746668E-1,3.0849078E-3,-4.387001E-2,-3.0151973E-2,2.9988423E-2,1.6552476E-3,-4.3062627E-2],"split_indices":[4,4,4,4,1,1,0,1,0,4,1,0,1,0,0,0,0,4,4,0,4,0,0,0,0,0,0],"split_type":[0,0,0,0,0,0,0,0,0,0,0,0,0,0,0,0,0,0,0,0,0,0,0,0,0,0,0],"sum_hessian":[4.11876E1,2.9197962E1,1.1989637E1,5.3986626E0,2.37993E1,9.796993E0,2.1926448E0,3.192685E0,2.2059774E0,4.7908044E0,1.9008493E1,2.1574852E0,7.6395073E0,1.224253E0,1.968432E0,3.067438E0,1.7233664E0,4.448532E0,1.4559962E1,1.2437514E0,6.3957562E0,1.7164717E0,2.7320604E0,1.7309456E0,1.2829017E1,3.446233E0,2.949523E0],"tree_param":{"num_deleted":"0","num_feature":"5","num_nodes":"27","size_leaf_vector":"1"}},{"base_weights":[3.9298136E-2,-4.7106616E-2,9.246363E-2,1.9925876E-1,-4.7011685E-1,1.140482E-1,5.7288565E-2,-5.302585E-2,-1.3934086E-1,5.255741E-1,1.0699209E-2,1.33221E-2,-2.2527238E-2,-8.578922E-3,4.5400757E-2,-2.7828952E-2,5.824993E-3],"categories":[],"categories_nodes":[],"categories_segments":[],"categories_sizes":[],"default_left":[0,0,0,0,0,0,0,0,0,0,0,0,0,0,0,0,0],"id":16,"left_children":[1,-1,3,5,7,9,-1,-1,11,13,15,-1,-1,-1,-1,-1,-1],"loss_changes":[2.2303624E0,0E0,2.489423E0,2.6289313E0,1.1527762E0,1.376647E0,0E0,0E0,8.044275E-1,1.8896028E0,1.6851908E0,0E0,0E0,0E0,0E0,0E0,0E0],"parents":[2147483647,0,0,2,2,3,3,4,4,5,5,8,8,9,9,10,10],"right_children":[2,-1,4,6,8,10,-1,-1,12,14,16,-1,-1,-1,-1,-1,-1],"split_conditions":[-4.9722223E0,-4.7106616E-2,3.2954545E0,2.6E0,3.6666667E0,-2.2727273E0,5.7288565E-2,-5.302585E-2,4.321429E0,-9.1520864E-1,-1.45E0,1.33221E-2,-2.2527238E-2,-8.578922E-3,4.5400757E-2,-2.7828952E-2,5.824993E-3],"split_indices":[1,0,1,1,1,1,0,0,1,4,1,0,0,0,0,0,0],"split_type":[0,0,0,0,0,0,0,0,0,0,0,0,0,0,0,0,0],"sum_hessian":[4.0075554E1,1.2001494E0,3.8875404E1,3.3215828E1,5.6595755E0,3.1500465E1,1.7153621E0,1.2400569E0,4.419519E0,5.5029216E0,2.5997543E1,1.9806967E0,2.438822E0,2.1447012E0,3.35822E0,3.416804E0,2.258074E1],"tree_param":{"num_deleted":"0","num_feature":"5","num_nodes":"17","size_leaf_vector":"1"}},{"base_weights":[2.0974616E-2,-2.8951239E-2,3.8285088E-2,1.136145E-1,-3.221954E-1,-5.158023E-2,7.4217296E-1,-7.8656876E-1,-2.946606E-2,3.4926894E-1,-1.9628938E-1,1.0208097E0,-9.089984E-3,-6.3154357E-3,-5.378854E-2,6.156328E-1,-4.222889E-1,-2.8218224E-3,4.867543E-2,1.4604795E-2,-1.6654538E-2,6.1056335E-2,2.1282926E-2,5.9146704E-3,4.7596313E-2,-3.0238668E-2,2.285245E-3],"categories":[],"categories_nodes":[],"categories_segments":[],"categories_sizes":[],"default_left":[0,0,0,0,0,0,0,0,0,0,0,0,0,0,0,0,0,0,0,0,0,0,0,0,0,0,0],"id":17,"left_children":[1,3,-1,5,7,9,11,13,15,17,19,21,-1,-1,-1,23,25,-1,-1,-1,-1,-1,-1,-1,-1,-1,-1],"loss_changes":[1.5928813E0,1.7320437E0,0E0,2.9484699E0,1.8156474E0,1.4102032E0,1.7040267E0,8.553879E-1,2.6257772E0,1.6998E0,1.2754799E0,3.8472176E-2,0E0,0E0,0E0,5.464028E-1,5.7384145E-1,0E0,0E0,0E0,0E0,0E0,0E0,0E0,0E0,0E0,0E0],"parents":[2147483647,0,0,1,1,3,3,4,4,5,5,6,6,7,7,8,8,9,9,10,10,11,11,15,15,16,16],"right_children":[2,4,-1,6,8,10,12,14,16,18,20,22,-1,-1,-1,24,26,-1,-1,-1,-1,-1,-1,-1,-1,-1,-1],"split_conditions":[4E0,1.375E0,3.8285088E-2,5.5E-1,2.4444444E0,-9.6598595E-1,4.8565894E-1,3E0,3.0833333E0,-1.1766968E0,-2.2727273E0,3E0,-9.089984E-3,-6.3154357E-3,-5.378854E-2,1E0,1.6272459E0,-2.8218224E-3,4.867543E-2,1.4604795E-2,-1.6654538E-2,6.1056335E-2,2.1282926E-2,5.9146704E-3,4.7596313E-2,-3.0238668E-2,2.285245E-3],"split_indices":[2,1,0,1,1,4,4,3,1,4,1,3,0,0,0,0,4,0,0,0,0,0,0,0,0,0,0],"split_type":[0,0,0,0,0,0,0,0,0,0,0,0,0,0,0,0,0,0,0,0,0,0,0,0,0,0,0],"sum_hessian":[4.1244892E1,3.9554333E1,1.6905627E0,2.7027166E1,1.2527165E1,2.2129211E1,4.8979545E0,4.1912804E0,8.335885E0,5.49481E0,1.6634401E1,3.6826081E0,1.2153465E0,1.7142732E0,2.4770072E0,2.9402182E0,5.395667E0,3.8816454E0,1.6131645E0,3.39149E0,1.3242911E1,1.9683162E0,1.7142919E0,1.7314135E0,1.2088046E0,3.671697E0,1.7239702E0],"tree_param":{"num_deleted":"0","num_feature":"5","num_nodes":"27","size_leaf_vector":"1"}},{"base_weights":[3.0814238E-2,-4.464719E-1,1.692867E-1,1.3218758E-1,-9.6242946E-1,-3.2942235E-2,7.1119016E-1,3.226675E-2,-2.0482745E-2,-1.8324748E-2,-6.0232926E-2,3.6693767E-1,-2.6473024E-1,9.0275484E-1,1.4771882E-1,-1.6890562E-1,1.0013949E0,-5.7428896E-2,-9.493977E-2,9.0204505E-3,5.203236E-2,-1.3787939E-2,2.5489306E-2,2.4657466E-2,-2.774266E-2,1.1469736E-2,6.1194003E-2,9.142621E-3,-3.011237E-2],"categories":[],"categories_nodes":[],"categories_segments":[],"categories_sizes":[],"default_left":[0,0,0,0,0,0,0,0,0,0,0,0,0,0,0,0,0,0,0,0,0,0,0,0,0,0,0,0,0],"id":18,"left_children":[1,3,5,7,9,11,13,-1,-1,-1,-1,15,17,19,21,23,25,-1,27,-1,-1,-1,-1,-1,-1,-1,-1,-1,-1],"loss_changes":[2.7474837E0,2.9236684E0,3.5369797E0,1.7363755E0,2.906828E-1,2.349804E0,8.119302E-1,0E0,0E0,0E0,0E0,3.3435454E0,2.2870421E0,4.4374657E-1,6.6458E-1,1.7857149E0,4.7835016E-1,0E0,2.1512575E0,0E0,0E0,0E0,0E0,0E0,0E0,0E0,0E0,0E0,0E0],"parents":[2147483647,0,0,1,1,2,2,3,3,4,4,5,5,6,6,11,11,12,12,13,13,14,14,15,15,16,16,18,18],"right_children":[2,4,6,8,10,12,14,-1,-1,-1,-1,16,18,20,22,24,26,-1,28,-1,-1,-1,-1,-1,-1,-1,-1,-1,-1],"split_conditions":[-1.45E0,1E0,3E0,-3.804674E-1,-2.5555556E0,3.611111E-1,5.8523047E-1,3.226675E-2,-2.0482745E-2,-1.8324748E-2,-6.0232926E-2,1E0,5.5E-1,-3.2142857E-1,9.2221963E-1,-9E-1,-2E-1,-5.7428896E-2,7.278728E-1,9.0204505E-3,5.203236E-2,-1.3787939E-2,2.5489306E-2,2.4657466E-2,-2.774266E-2,1.1469736E-2,6.1194003E-2,9.142621E-3,-3.011237E-2],"split_indices":[1,0,2,4,1,1,4,0,0,0,0,0,1,1,4,1,1,0,4,0,0,0,0,0,0,0,0,0,0],"split_type":[0,0,0,0,0,0,0,0,0,0,0,0,0,0,0,0,0,0,0,0,0,0,0,0,0,0,0,0,0],"sum_hessian":[3.942763E1,8.366334E0,3.1061298E1,4.294144E0,4.07219E0,2.33039E1,7.757399E0,2.1073728E0,2.1867714E0,1.903121E0,2.1690688E0,8.337316E0,1.4966583E1,5.339863E0,2.4175363E0,4.9177294E0,3.419586E0,1.4828581E0,1.3483726E1,1.2259717E0,4.113891E0,1.2241433E0,1.1933931E0,1.7087593E0,3.20897E0,1.2194117E0,2.200174E0,9.12604E0,4.3576856E0],"tree_param":{"num_deleted":"0","num_feature":"5","num_nodes":"29","size_leaf_vector":"1"}},{"base_weights":[6.770601E-2,5.2407837E-1,-1.2325076E-2,-8.848738E-3,4.9261242E-2,-1.5011398E-1,3.7061638E-1,-5.4855708E-2,-3.7178624E-2,-1.382387E-2,5.808942E-1,-1.9527718E-1,6.707604E-1,5.443966E-2,1.6252558E-1,2.2853713E-3,-4.3429993E-2,7.916907E-3,4.226429E-2,-1.2699797E-2,2.2208124E-2],"categories":[],"categories_nodes":[],"categories_segments":[],"categories_sizes":[],"default_left":[0,0,0,0,0,0,0,0,0,0,0,0,0,0,0,0,0,0,0,0,0],"id":19,"left_children":[1,3,5,-1,-1,7,9,11,-1,-1,13,15,17,-1,19,-1,-1,-1,-1,-1,-1],"loss_changes":[1.4095522E0,2.0347457E0,1.8317654E0,0E0,0E0,1.3988426E0,1.4117954E0,2.4768717E0,0E0,0E0,1.3662441E0,3.2954118E0,2.2017312E-1,0E0,7.1785384E-1,0E0,0E0,0E0,0E0,0E0,0E0],"parents":[2147483647,0,0,1,1,2,2,5,5,6,6,7,7,10,10,11,11,12,12,14,14],"right_children":[2,4,6,-1,-1,8,10,12,-1,-1,14,16,18,-1,20,-1,-1,-1,-1,-1,-1],"split_conditions":[-2.4166667E0,-9.1520864E-1,3E0,-8.848738E-3,4.9261242E-2,3.75E0,-1E-1,2.6E0,-3.7178624E-2,-1.382387E-2,1.375E0,4.3235832E-1,3.5993013E-1,5.443966E-2,2.55E0,2.2853713E-3,-4.3429993E-2,7.916907E-3,4.226429E-2,-1.2699797E-2,2.2208124E-2],"split_indices":[1,4,2,0,0,1,1,1,0,0,1,4,4,0,1,0,0,0,0,0,0],"split_type":[0,0,0,0,0,0,0,0,0,0,0,0,0,0,0,0,0,0,0,0,0],"sum_hessian":[3.7415672E1,4.754574E0,3.26611E1,2.1310682E0,2.6235054E0,2.446586E1,8.195239E0,2.2023256E1,2.4426026E0,1.9327412E0,6.262498E0,1.9064726E1,2.9585311E0,2.1048E0,4.1576977E0,1.472626E1,4.338465E0,1.2361963E0,1.7223347E0,1.7168053E0,2.4408925E0],"tree_param":{"num_deleted":"0","num_feature":"5","num_nodes":"21","size_leaf_vector":"1"}},{"base_weights":[-1.0756765E-1,-2.2889826E-1,2.7076113E-1,4.6161905E-2,-3.1115457E-1,-3.241241E-2,5.906581E-1,-1.4367047E-1,-6.063394E-1,9.603287E-1,5.19797E-3,-3.2995993E-1,4.8250042E-2,-5.746935E-2,-2.4234726E-1,5.9922177E-2,1.4563145E-2,-3.380995E-2,2.6055617E-2,-9.701383E-3,-4.0793948E-2,7.817509E-3,-3.8778063E-2],"categories":[],"categories_nodes":[],"categories_segments":[],"categories_sizes":[],"default_left":[0,0,0,0,0,0,0,0,0,0,0,0,0,0,0,0,0,0,0,0,0,0,0],"id":20,"left_children":[1,3,5,-1,7,-1,9,11,13,15,17,19,-1,-1,21,-1,-1,-1,-1,-1,-1,-1,-1],"loss_changes":[1.9320757E0,3.2620592E0,3.425952E0,0E0,1.3983064E0,0E0,1.7700343E0,4.5481772E0,1.8099511E0,4.509778E-1,1.8217235E0,1.0490497E0,0E0,0E0,1.7354631E0,0E0,0E0,0E0,0E0,0E0,0E0,0E0,0E0],"parents":[2147483647,0,0,1,1,2,2,4,4,6,6,7,7,8,8,9,9,10,10,11,11,14,14],"right_children":[2,4,6,-1,8,-1,10,12,14,16,18,20,-1,-1,22,-1,-1,-1,-1,-1,-1,-1,-1],"split_conditions":[3E0,-3.6E0,-1.6666666E0,4.6161905E-2,1.3214285E0,-3.241241E-2,1.375E0,7.5E-1,1.7904218E-1,-2.1753915E-1,2.55E0,3.611111E-1,4.8250042E-2,-5.746935E-2,9.7987247E-1,5.9922177E-2,1.4563145E-2,-3.380995E-2,2.6055617E-2,-9.701383E-3,-4.0793948E-2,7.817509E-3,-3.8778063E-2],"split_indices":[2,1,1,0,1,0,1,1,4,4,1,1,0,0,4,0,0,0,0,0,0,0,0],"split_type":[0,0,0,0,0,0,0,0,0,0,0,0,0,0,0,0,0,0,0,0,0,0,0],"sum_hessian":[3.974036E1,3.0389406E1,9.350952E0,1.3437692E0,2.9045637E1,2.1494687E0,7.2014832E0,1.9479774E1,9.565863E0,4.0217667E0,3.1797166E0,1.7278807E1,2.2009668E0,2.9728618E0,6.5930014E0,2.3826008E0,1.6391661E0,1.2362506E0,1.943466E0,1.4595206E1,2.6836016E0,4.176732E0,2.4162693E0],"tree_param":{"num_deleted":"0","num_feature":"5","num_nodes":"23","size_leaf_vector":"1"}},{"base_weights":[3.4945566E-2,-6.05562E-1,1.2956095E-1,-8.716409E-1,7.883793E-3,-4.6631392E-2,1.9392489E-1,-1.4436403E-2,-5.1189274E-2,8.99504E-1,9.061485E-2,1.18271215E-2,5.4022223E-2,-3.5722103E-2,4.5003885E-1,4.7008853E-2,-6.4505325E-3,4.5953587E-2,-4.2177695E-3],"categories":[],"categories_nodes":[],"categories_segments":[],"categories_sizes":[],"default_left":[0,0,0,0,0,0,0,0,0,0,0,0,0,0,0,0,0,0,0],"id":21,"left_children":[1,3,5,7,-1,-1,9,-1,-1,11,13,-1,-1,15,17,-1,-1,-1,-1],"loss_changes":[2.4810593E0,1.2094871E0,2.5987668E0,6.513882E-2,0E0,0E0,2.4095507E0,0E0,0E0,2.545588E-1,1.4201703E0,0E0,0E0,2.2885768E0,2.111687E0,0E0,0E0,0E0,0E0],"parents":[2147483647,0,0,1,1,2,2,3,3,6,6,9,9,10,10,13,13,14,14],"right_children":[2,4,6,8,-1,-1,10,-1,-1,12,14,-1,-1,16,18,-1,-1,-1,-1],"split_conditions":[2E0,1.6190476E0,-4.9722223E0,3.0688775E-1,7.883793E-3,-4.6631392E-2,-2.7E0,-1.4436403E-2,-5.1189274E-2,-1.1434646E0,2.4444444E0,1.18271215E-2,5.4022223E-2,-1.5152766E0,3.0833333E0,4.7008853E-2,-6.4505325E-3,4.5953587E-2,-4.2177695E-3],"split_indices":[3,4,1,4,0,0,1,0,0,4,1,0,0,4,1,0,0,0,0],"split_type":[0,0,0,0,0,0,0,0,0,0,0,0,0,0,0,0,0,0,0],"sum_hessian":[3.8645676E1,4.278916E0,3.436676E1,3.067498E0,1.2114177E0,1.192768E0,3.3173992E1,1.2347002E0,1.8327978E0,3.2526243E0,2.9921368E1,1.1920981E0,2.0605261E0,2.2805784E1,7.1155834E0,1.1977597E0,2.1608025E1,3.4061759E0,3.7094073E0],"tree_param":{"num_deleted":"0","num_feature":"5","num_nodes":"19","size_leaf_vector":"1"}},{"base_weights":[2.2396013E-2,1.945715E-1,-2.8469476E-1,-3.1808596E-2,2.6297495E-1,-5.2247345E-1,5.1878035E-1,5.032863E-2,1.5574388E-1,2.7172592E-1,-7.75189E-1,5.1657286E-2,-1.4149219E-2,-3.2574332E-3,6.7901176E-1,-9.776757E-3,3.0860517E-2,-4.524229E-1,-6.042361E-2,5.5127903E-3,-3.764498E-2,4.451507E-2,-3.633075E-4,-4.7879905E-2,1.89335E-2],"categories":[],"categories_nodes":[],"categories_segments":[],"categories_sizes":[],"default_left":[0,0,0,0,0,0,0,0,0,0,0,0,0,0,0,0,0,0,0,0,0,0,0,0,0],"id":22,"left_children":[1,3,5,-1,7,9,11,-1,13,15,17,-1,-1,19,21,-1,-1,23,-1,-1,-1,-1,-1,-1,-1],"loss_changes":[2.0451794E0,1.5713136E0,2.9315133E0,0E0,1.7198611E0,2.4673355E0,1.8107314E0,0E0,1.8119977E0,6.7836565E-1,6.824169E-1,0E0,0E0,1.5873164E0,7.422261E-1,0E0,0E0,3.14846E0,0E0,0E0,0E0,0E0,0E0,0E0,0E0],"parents":[2147483647,0,0,1,1,2,2,4,4,5,5,6,6,8,8,9,9,10,10,13,13,14,14,17,17],"right_children":[2,4,6,-1,8,10,12,-1,14,16,18,-1,-1,20,22,-1,-1,24,-1,-1,-1,-1,-1,-1,-1],"split_conditions":[1.3214285E0,-4.9423075E0,3E0,-3.1808596E-2,-3.6E0,2.3555508E-2,8.2392305E-1,5.032863E-2,5.5E-1,-3.8924947E-1,3.9318182E0,5.1657286E-2,-1.4149219E-2,3.2142857E-1,3E0,-9.776757E-3,3.0860517E-2,2.4166667E0,-6.042361E-2,5.5127903E-3,-3.764498E-2,4.451507E-2,-3.633075E-4,-4.7879905E-2,1.89335E-2],"split_indices":[1,1,2,0,1,4,4,0,1,4,1,0,0,1,3,0,0,1,0,0,0,0,0,0,0],"split_type":[0,0,0,0,0,0,0,0,0,0,0,0,0,0,0,0,0,0,0,0,0,0,0,0,0],"sum_hessian":[3.6632954E1,2.3707409E1,1.2925544E1,1.1721115E0,2.2535297E1,1.024376E1,2.681783E0,1.7831353E0,2.0752161E1,2.45459E0,7.7891703E0,1.457894E0,1.2238891E0,1.6678095E1,4.074067E0,1.227902E0,1.226688E0,5.6353765E0,2.1537938E0,1.5225519E1,1.4525753E0,2.8877144E0,1.1863527E0,3.410256E0,2.2251205E0],"tree_param":{"num_deleted":"0","num_feature":"5","num_nodes":"25","size_leaf_vector":"1"}},{"base_weights":[1.8590073E-1,3.7055507E-1,-1.963919E-1,2.5497815E-1,4.1209977E-2,-4.398322E-1,5.6745434E-1,4.4851947E-1,-1.2851208E-1,-7.470391E-1,2.6979935E-1,4.96073E-2,-7.839124E-3,-1.0253698E-1,6.168461E-1,-4.410353E-1,2.6239565E-2,-8.869066E-1,-7.87286E-3,4.830818E-2,-2.0126235E-2,-2.930641E-2,1.6438229E-2,2.0951314E-2,4.376861E-2,-4.783106E-3,-4.220149E-2,-2.3672754E-2,-5.555587E-2],"categories":[],"categories_nodes":[],"categories_segments":[],"categories_sizes":[],"default_left":[0,0,0,0,0,0,0,0,0,0,0,0,0,0,0,0,0,0,0,0,0,0,0,0,0,0,0,0,0],"id":23,"left_children":[1,3,5,7,-1,9,11,13,15,17,19,-1,-1,21,23,25,-1,27,-1,-1,-1,-1,-1,-1,-1,-1,-1,-1,-1],"loss_changes":[2.7872622E0,1.1674883E0,2.7000067E0,1.7193263E0,0E0,2.5028706E0,1.2694266E0,1.4640527E0,1.9233294E0,4.8974323E-1,2.2260265E0,0E0,0E0,1.1085644E0,2.3210001E-1,7.750299E-1,0E0,2.5786877E-2,0E0,0E0,0E0,0E0,0E0,0E0,0E0,0E0,0E0,0E0,0E0],"parents":[2147483647,0,0,1,1,2,2,3,3,5,5,6,6,7,7,8,8,9,9,10,10,13,13,14,14,15,15,17,17],"right_children":[2,4,6,8,-1,10,12,14,16,18,20,-1,-1,22,24,26,-1,28,-1,-1,-1,-1,-1,-1,-1,-1,-1,-1,-1],"split_conditions":[4.3235832E-1,2.196756E-1,1.4852226E0,7.1428575E-2,4.1209977E-2,2.55E0,3.75E0,-1.17504E0,3E0,3E0,3.0833333E0,4.96073E-2,-7.839124E-3,-2.25E0,-5.277778E-1,2.3555508E-2,2.6239565E-2,1E0,-7.87286E-3,4.830818E-2,-2.0126235E-2,-2.930641E-2,1.6438229E-2,2.0951314E-2,4.376861E-2,-4.783106E-3,-4.220149E-2,-2.3672754E-2,-5.555587E-2],"split_indices":[4,4,4,1,0,1,1,4,2,2,1,0,0,1,1,4,0,0,0,0,0,0,0,0,0,0,0,0,0],"split_type":[0,0,0,0,0,0,0,0,0,0,0,0,0,0,0,0,0,0,0,0,0,0,0,0,0,0,0,0,0],"sum_hessian":[3.74532E1,2.5275415E1,1.2177786E1,2.1388296E1,3.8871202E0,9.556336E0,2.6214488E0,1.4101783E1,7.286513E0,6.632392E0,2.923945E0,1.4192706E0,1.202178E0,3.3910933E0,1.071069E1,5.148514E0,2.1379993E0,4.9530687E0,1.6793232E0,1.2216069E0,1.7023382E0,1.4294102E0,1.961683E0,7.5524836E0,3.1582053E0,3.4387898E0,1.709724E0,2.8356657E0,2.117403E0],"tree_param":{"num_deleted":"0","num_feature":"5","num_nodes":"29","size_leaf_vector":"1"}},{"base_weights":[1.0267912E-1,-4.49973E-2,1.5353858E-1,3.1731308E-1,-1.19426675E-1,6.0662425E-1,8.788202E-3,-4.3994956E-2,8.8991754E-2,5.983993E-2,2.4893327E-1,-4.5099697E-1,4.682465E-1,-1.5861735E-1,4.435655E-2,2.5748834E-2,-8.350527E-3,-3.0794458E-3,-3.028063E-2,-2.3237474E-2,3.9008435E-2,2.9351968E-2,-1.5525261E-2],"categories":[],"categories_nodes":[],"categories_segments":[],"categories_sizes":[],"default_left":[0,0,0,0,0,0,0,0,0,0,0,0,0,0,0,0,0,0,0,0,0,0,0],"id":24,"left_children":[1,-1,3,5,7,9,11,-1,13,-1,15,17,19,21,-1,-1,-1,-1,-1,-1,-1,-1,-1],"loss_changes":[2.2785437E0,0E0,1.8619224E0,2.2953146E0,2.6185093E0,2.5069337E0,3.0605228E0,0E0,2.8062007E0,0E0,1.1411953E0,3.9926922E-1,2.468699E0,1.4442117E0,0E0,0E0,0E0,0E0,0E0,0E0,0E0,0E0,0E0],"parents":[2147483647,0,0,2,2,3,3,4,4,5,5,6,6,8,8,10,10,11,11,12,12,13,13],"right_children":[2,-1,4,6,8,10,12,-1,14,-1,16,18,20,22,-1,-1,-1,-1,-1,-1,-1,-1,-1],"split_conditions":[-4.9722223E0,-4.49973E-2,3.403143E-1,1E0,-1E-1,-1.35E0,-3.795477E-1,-4.3994956E-2,3E0,5.983993E-2,-1.6825148E-1,-1.2403169E0,-6.5E-1,3.2142857E-1,4.435655E-2,2.5748834E-2,-8.350527E-3,-3.0794458E-3,-3.028063E-2,-2.3237474E-2,3.9008435E-2,2.9351968E-2,-1.5525261E-2],"split_indices":[1,0,4,0,1,1,4,0,2,0,4,4,1,1,0,0,0,0,0,0,0,0,0],"split_type":[0,0,0,0,0,0,0,0,0,0,0,0,0,0,0,0,0,0,0,0,0,0,0],"sum_hessian":[4.0973763E1,1.1721265E0,3.9801636E1,2.4774746E1,1.502689E1,1.2286857E1,1.2487889E1,2.539399E0,1.2487492E1,3.7513666E0,8.53549E0,6.2509294E0,6.23696E0,1.0142286E1,2.3452053E0,5.0605807E0,3.474909E0,2.173979E0,4.07695E0,1.4399494E0,4.797011E0,1.231514E0,8.910772E0],"tree_param":{"num_deleted":"0","num_feature":"5","num_nodes":"23","size_leaf_vector":"1"}},{"base_weights":[-4.8296537E-2,-4.4024076E-2,1.0954207E-3,9.335795E-2,-4.9074674E-1,-4.5189564E-3,4.6587493E-2,-5.16041E-2,2.1940509E-2,1.1893174E-1,-4.822708E-1,2.9607737E-2,-2.1411669E-2,-1.981865E-2,1.096114E-2,1.4802561E-3,-3.76997E-2],"categories":[],"categories_nodes":[],"categories_segments":[],"categories_sizes":[],"default_left":[0,0,0,0,0,0,0,0,0,0,0,0,0,0,0,0,0],"id":25,"left_children":[1,-1,3,5,7,9,-1,-1,11,13,15,-1,-1,-1,-1,-1,-1],"loss_changes":[1.585097E0,0E0,1.7420578E0,2.6560051E0,1.7056692E0,1.8227427E0,0E0,0E0,1.3044103E0,1.3576328E0,9.0472233E-1,0E0,0E0,0E0,0E0,0E0,0E0],"parents":[2147483647,0,0,2,2,3,3,4,4,5,5,8,8,9,9,10,10],"right_children":[2,-1,4,6,8,10,-1,-1,12,14,16,-1,-1,-1,-1,-1,-1],"split_conditions":[-4.9722223E0,-4.4024076E-2,3.0833333E0,2.4444444E0,3.6666667E0,1.3214285E0,4.6587493E-2,-5.16041E-2,4.321429E0,-1.17504E0,3E0,2.9607737E-2,-2.1411669E-2,-1.981865E-2,1.096114E-2,1.4802561E-3,-3.76997E-2],"split_indices":[1,0,1,1,1,1,0,0,1,4,3,0,0,0,0,0,0],"split_type":[0,0,0,0,0,0,0,0,0,0,0,0,0,0,0,0,0],"sum_hessian":[3.7540333E1,1.1605352E0,3.63798E1,3.1315622E1,5.064174E0,2.8932543E1,2.3830798E0,1.9704919E0,3.093682E0,2.3588383E1,5.34416E0,1.2257237E0,1.8679583E0,3.3619819E0,2.0226402E1,2.162139E0,3.182021E0],"tree_param":{"num_deleted":"0","num_feature":"5","num_nodes":"17","size_leaf_vector":"1"}},{"base_weights":[7.538924E-2,2.5610108E-2,6.312678E-1,1.7721856E-1,-2.9968128E-1,4.3174807E-2,6.200371E-3,-2.7605182E-2,2.2900715E-1,-4.7215756E-2,-1.2688372E-1,4.902678E-1,4.6345413E-2,-5.8846027E-1,1.1705901E-1,4.0596258E-2,-3.6834967E-3,-2.5163773E-2,1.2038813E-2,-1.4395491E-3,-5.174018E-2,-2.2621518E-2,1.3831033E-2],"categories":[],"categories_nodes":[],"categories_segments":[],"categories_sizes":[],"default_left":[0,0,0,0,0,0,0,0,0,0,0,0,0,0,0,0,0,0,0,0,0,0,0],"id":26,"left_children":[1,3,5,7,9,-1,-1,-1,11,-1,13,15,17,19,21,-1,-1,-1,-1,-1,-1,-1,-1],"loss_changes":[1.1341738E0,1.9861999E0,2.904383E-1,1.1600167E0,1.3096193E0,0E0,0E0,0E0,1.230334E0,0E0,1.3384438E0,2.000687E0,1.8905655E0,9.8552454E-1,8.712452E-1,0E0,0E0,0E0,0E0,0E0,0E0,0E0,0E0],"parents":[2147483647,0,0,1,1,2,2,3,3,4,4,8,8,10,10,11,11,12,12,13,13,14,14],"right_children":[2,4,6,8,10,-1,-1,-1,12,-1,14,16,18,20,22,-1,-1,-1,-1,-1,-1,-1,-1],"split_conditions":[1.6272459E0,3.403143E-1,1.9517664E0,-4.9423075E0,2E0,4.3174807E-2,6.200371E-3,-2.7605182E-2,-7.9545456E-1,-4.7215756E-2,4.689683E-1,1E0,-7.241051E-1,1.2777778E0,-1E-1,4.0596258E-2,-3.6834967E-3,-2.5163773E-2,1.2038813E-2,-1.4395491E-3,-5.174018E-2,-2.2621518E-2,1.3831033E-2],"split_indices":[4,4,4,1,3,0,0,0,1,0,4,0,4,1,1,0,0,0,0,0,0,0,0],"split_type":[0,0,0,0,0,0,0,0,0,0,0,0,0,0,0,0,0,0,0,0,0,0,0],"sum_hessian":[4.0571827E1,3.8197315E1,2.3745124E0,2.636472E1,1.1832597E1,1.1470904E0,1.2274221E0,1.1074953E0,2.5257223E1,1.5574716E0,1.0275125E1,9.699718E0,1.5557506E1,3.0644438E0,7.210681E0,5.896656E0,3.8030622E0,3.6503031E0,1.1907202E1,1.8319138E0,1.23253E0,1.1764326E0,6.0342484E0],"tree_param":{"num_deleted":"0","num_feature":"5","num_nodes":"23","size_leaf_vector":"1"}},{"base_weights":[-5.078844E-2,1.3114041E-1,-2.4494447E-1,-4.2517673E-2,2.2477919E-1,-7.715933E-1,-2.931855E-2,1.2231808E-1,7.16616E-1,4.13637E-3,-1.000434E0,-2.7487192E-1,4.425771E-2,2.175422E-1,-3.3725493E-2,1.1522204E-2,4.43449E-2,-6.201612E-2,-6.65003E-3,3.1316757E-1,-5.7695764E-1,1.9453092E-2,-9.55085E-3,3.66919E-2,-5.675541E-3,-4.4556428E-2,-1.1460031E-2],"categories":[],"categories_nodes":[],"categories_segments":[],"categories_sizes":[],"default_left":[0,0,0,0,0,0,0,0,0,0,0,0,0,0,0,0,0,0,0,0,0,0,0,0,0,0,0],"id":27,"left_children":[1,3,5,-1,7,9,11,13,15,-1,17,19,-1,21,-1,-1,-1,-1,-1,23,25,-1,-1,-1,-1,-1,-1],"loss_changes":[1.504602E0,2.228904E0,2.3069715E0,0E0,9.7223985E-1,1.2401028E0,3.7450953E0,1.5589497E0,7.877076E-2,0E0,8.2251024E-1,2.500033E0,0E0,1.2923217E0,0E0,0E0,0E0,0E0,0E0,9.949769E-1,7.765722E-1,0E0,0E0,0E0,0E0,0E0,0E0],"parents":[2147483647,0,0,1,1,2,2,4,4,5,5,6,6,7,7,8,8,10,10,11,11,13,13,19,19,20,20],"right_children":[2,4,6,-1,8,10,12,14,16,-1,18,20,-1,22,-1,-1,-1,-1,-1,24,26,-1,-1,-1,-1,-1,-1],"split_conditions":[2.3555508E-2,-4.9722223E0,0E0,-4.2517673E-2,-6.92715E-2,-2.607143E0,3E0,-1.6825148E-1,1E0,4.13637E-3,1E0,1.3214285E0,4.425771E-2,4E0,-3.3725493E-2,1.1522204E-2,4.43449E-2,-6.201612E-2,-6.65003E-3,4.8565894E-1,2.6E0,1.9453092E-2,-9.55085E-3,3.66919E-2,-5.675541E-3,-4.4556428E-2,-1.1460031E-2],"split_indices":[4,1,1,0,4,1,2,4,0,0,0,1,0,3,0,0,0,0,0,4,1,0,0,0,0,0,0],"split_type":[0,0,0,0,0,0,0,0,0,0,0,0,0,0,0,0,0,0,0,0,0,0,0,0,0,0,0],"sum_hessian":[4.0686638E1,2.1172274E1,1.9514366E1,1.1401674E0,2.0032106E1,4.91979E0,1.4594577E1,1.7611843E1,2.4202626E0,1.1743051E0,3.7454848E0,1.2056576E1,2.538E0,1.6381212E1,1.2306308E0,1.2382488E0,1.1820136E0,2.597321E0,1.1481637E0,4.0792437E0,7.9773326E0,1.1571174E1,4.8100386E0,1.6915886E0,2.387655E0,3.3701584E0,4.6071744E0],"tree_param":{"num_deleted":"0","num_feature":"5","num_nodes":"27","size_leaf_vector":"1"}},{"base_weights":[-7.7804835E-3,-5.0316464E-2,3.2117296E-2,7.3511414E-2,-3.313183E-1,-7.99451E-2,3.5545292E-1,-4.3148424E-2,-1.2348276E-1,5.765938E-2,-4.638354E-2,5.7492584E-1,-2.2782486E-2,-3.4876397E-1,2.7304E-2,-2.654039E-2,7.4517704E-3,-4.3157465E-3,5.185861E-2,-4.148059E-2,-7.5643174E-3],"categories":[],"categories_nodes":[],"categories_segments":[],"categories_sizes":[],"default_left":[0,0,0,0,0,0,0,0,0,0,0,0,0,0,0,0,0,0,0,0,0],"id":28,"left_children":[1,3,-1,5,7,9,11,-1,13,15,-1,17,-1,19,-1,-1,-1,-1,-1,-1,-1],"loss_changes":[1.1713257E0,1.4017876E0,0E0,1.252667E0,1.2514361E0,2.2861238E0,2.0699902E0,0E0,1.699283E0,1.0151716E0,0E0,2.6679642E0,0E0,6.4315027E-1,0E0,0E0,0E0,0E0,0E0,0E0,0E0],"parents":[2147483647,0,0,1,1,3,3,4,4,5,5,6,6,8,8,9,9,11,11,13,13],"right_children":[2,4,-1,6,8,10,12,-1,14,16,-1,18,-1,20,-1,-1,-1,-1,-1,-1,-1],"split_conditions":[4E0,4.3235832E-1,3.2117296E-2,-4.0032037E-2,2E0,-1.4336088E-1,1.75E0,-4.3148424E-2,1.2727273E0,-4.0833335E0,-4.638354E-2,0E0,-2.2782486E-2,4.7642657E-1,2.7304E-2,-2.654039E-2,7.4517704E-3,-4.3157465E-3,5.185861E-2,-4.148059E-2,-7.5643174E-3],"split_indices":[2,4,0,4,3,4,1,0,4,1,0,1,0,4,0,0,0,0,0,0,0],"split_type":[0,0,0,0,0,0,0,0,0,0,0,0,0,0,0,0,0,0,0,0,0],"sum_hessian":[4.018807E1,3.858609E1,1.6019769E0,2.7296053E1,1.129004E1,1.8139463E1,9.156589E0,2.2871823E0,9.002857E0,1.640806E1,1.7314045E0,7.4357576E0,1.7208307E0,7.0948424E0,1.9080153E0,1.558994E0,1.4849065E1,3.3939714E0,4.041786E0,1.1335833E0,5.961259E0],"tree_param":{"num_deleted":"0","num_feature":"5","num_nodes":"21","size_leaf_vector":"1"}},{"base_weights":[2.716171E-2,1.0822211E-1,-4.6629253E-1,4.756235E-2,4.662251E-2,-8.2679236E-1,3.286682E-2,1.6000274E-1,-3.410276E-1,-5.0607946E-2,-1.3355687E-2,1.0174955E-2,-7.5578513E-3,-2.5656164E-2,2.077888E-1,2.0558637E-1,-6.504701E-1,1.4989226E-2,-1.2191753E-2,3.3661336E-2,-1.5660837E-2,-4.450698E-2,5.0181085E-3],"categories":[],"categories_nodes":[],"categories_segments":[],"categories_sizes":[],"default_left":[0,0,0,0,0,0,0,0,0,0,0,0,0,0,0,0,0,0,0,0,0,0,0],"id":29,"left_children":[1,3,5,7,-1,9,11,13,15,-1,-1,-1,-1,-1,17,19,21,-1,-1,-1,-1,-1,-1],"loss_changes":[1.663958E0,1.7284609E0,1.0852219E0,1.5436767E0,0E0,8.780074E-2,1.3838409E-1,9.78749E-1,1.4814401E0,0E0,0E0,0E0,0E0,0E0,1.1544895E0,1.0939752E0,1.0480781E0,0E0,0E0,0E0,0E0,0E0,0E0],"parents":[2147483647,0,0,1,1,2,2,3,3,5,5,6,6,7,7,8,8,14,14,15,15,16,16],"right_children":[2,4,6,8,-1,10,12,14,16,-1,-1,-1,-1,-1,18,20,22,-1,-1,-1,-1,-1,-1],"split_conditions":[3.0833333E0,2.6E0,4.15E0,1.3214285E0,4.662251E-2,1.18531E0,5.344887E-1,-4.9423075E0,3E0,-5.0607946E-2,-1.3355687E-2,1.0174955E-2,-7.5578513E-3,-2.5656164E-2,4.3235832E-1,5.231144E-1,2.4166667E0,1.4989226E-2,-1.2191753E-2,3.3661336E-2,-1.5660837E-2,-4.450698E-2,5.0181085E-3],"split_indices":[1,1,1,1,0,4,4,1,3,0,0,0,0,0,4,4,1,0,0,0,0,0,0],"split_type":[0,0,0,0,0,0,0,0,0,0,0,0,0,0,0,0,0,0,0,0,0,0,0],"sum_hessian":[3.9337776E1,3.4458E1,4.879778E0,3.3081074E1,1.376924E0,2.4523132E0,2.4274645E0,2.611331E1,6.9677653E0,1.2348609E0,1.2174524E0,1.2046487E0,1.2228156E0,1.0854511E0,2.5027859E1,2.6399877E0,4.3277774E0,2.1071753E1,3.956106E0,1.2319107E0,1.4080771E0,3.139952E0,1.1878257E0],"tree_param":{"num_deleted":"0","num_feature":"5","num_nodes":"23","size_leaf_vector":"1"}},{"base_weights":[-8.3243E-2,-5.397053E-1,-4.7981102E-5,-7.234736E-1,5.387289E-3,-1.0539058E-1,4.0875423E-1,-4.0023564E-3,-5.1484656E-2,-4.060195E-2,-4.5413896E-2,7.868123E-1,5.879029E-2,5.0040025E-1,-1.5221015E-1,1.2843514E-2,4.7618378E-2,-3.4665674E-1,3.0046701E-2,5.0591093E-2,-8.732791E-3,-3.77062E-2,-1.9065122E-3,-2.3645334E-2,-3.1631452E-3],"categories":[],"categories_nodes":[],"categories_segments":[],"categories_sizes":[],"default_left":[0,0,0,0,0,0,0,0,0,0,0,0,0,0,0,0,0,0,0,0,0,0,0,0,0],"id":30,"left_children":[1,3,5,7,-1,9,11,-1,-1,-1,13,15,17,19,21,-1,-1,23,-1,-1,-1,-1,-1,-1,-1],"loss_changes":[1.4757566E0,7.9075575E-1,1.5016936E0,8.6254E-1,0E0,1.1382143E0,8.9903474E-1,0E0,0E0,0E0,1.627639E0,4.9604654E-2,1.2614214E0,1.7609532E0,1.5524397E0,0E0,0E0,9.0842575E-2,0E0,0E0,0E0,0E0,0E0,0E0,0E0],"parents":[2147483647,0,0,1,1,2,2,3,3,5,5,6,6,10,10,11,11,12,12,13,13,14,14,17,17],"right_children":[2,4,6,8,-1,10,12,-1,-1,-1,14,16,18,20,22,-1,-1,24,-1,-1,-1,-1,-1,-1,-1],"split_conditions":[2E0,1.6272459E0,5.454639E-1,4.1755053E-1,5.387289E-3,-4.9722223E0,9.2221963E-1,-4.0023564E-3,-5.1484656E-2,-4.060195E-2,-2.2727273E0,7.278728E-1,1.4852226E0,1E0,-1.45E0,1.2843514E-2,4.7618378E-2,1.5833334E0,3.0046701E-2,5.0591093E-2,-8.732791E-3,-3.77062E-2,-1.9065122E-3,-2.3645334E-2,-3.1631452E-3],"split_indices":[3,4,4,4,0,1,4,0,0,0,1,4,4,0,1,0,0,1,0,0,0,0,0,0,0],"split_type":[0,0,0,0,0,0,0,0,0,0,0,0,0,0,0,0,0,0,0,0,0,0,0,0,0],"sum_hessian":[3.7861546E1,4.990911E0,3.2870636E1,3.7960472E0,1.1948638E0,2.6725935E1,6.1447015E0,1.6308082E0,2.165239E0,1.1098912E0,2.5616043E1,2.3537414E0,3.79096E0,3.5888078E0,2.2027235E1,1.1676533E0,1.1860881E0,2.3752155E0,1.4157445E0,1.7580446E0,1.8307633E0,2.6156943E0,1.9411541E1,1.1805588E0,1.1946566E0],"tree_param":{"num_deleted":"0","num_feature":"5","num_nodes":"25","size_leaf_vector":"1"}},{"base_weights":[-7.840016E-2,2.3741165E-2,-3.574737E-1,-1.407643E-1,3.7412155E-1,-4.9248096E-2,-1.5551403E-1,-3.866988E-2,-4.9955413E-2,6.5838677E-1,-3.9802143E-1,2.578772E-2,-4.224513E-1,1.1380173E-1,-6.4216703E-1,5.5459816E-2,1.1599344E-1,1.2058277E-2,-4.243098E-2,-4.309113E-2,-1.3032612E-1,-3.980575E-2,1.1396154E-2,-4.3137882E-2,-2.059991E-3,-1.113339E-2,2.630083E-2,1.0712642E-2,-2.6367137E-2],"categories":[],"categories_nodes":[],"categories_segments":[],"categories_sizes":[],"default_left":[0,0,0,0,0,0,0,0,0,0,0,0,0,0,0,0,0,0,0,0,0,0,0,0,0,0,0,0,0],"id":31,"left_children":[1,3,5,7,9,-1,11,13,-1,15,17,-1,19,21,23,-1,25,-1,-1,-1,27,-1,-1,-1,-1,-1,-1,-1,-1],"loss_changes":[1.1437893E0,1.7872975E0,1.20708E0,1.8196901E0,2.4325266E0,0E0,1.885694E0,1.9126724E0,0E0,1.7307525E0,1.150536E0,0E0,8.129933E-1,1.9269477E0,5.189512E-1,0E0,7.514914E-1,0E0,0E0,0E0,8.6654663E-1,0E0,0E0,0E0,0E0,0E0,0E0,0E0,0E0],"parents":[2147483647,0,0,1,1,2,2,3,3,4,4,6,6,7,7,9,9,10,10,12,12,13,13,14,14,16,16,20,20],"right_children":[2,4,6,8,10,-1,12,14,-1,16,18,-1,20,22,24,-1,26,-1,-1,-1,28,-1,-1,-1,-1,-1,-1,-1,-1],"split_conditions":[1.9642857E0,5E-1,2.4444444E0,3.611111E-1,8.746668E-1,-4.9248096E-2,3.0833333E0,2.1655124E-1,-4.9955413E-2,3E0,1E0,2.578772E-2,3.5833333E0,-4.9722223E0,6.29981E-1,5.5459816E-2,3E0,1.2058277E-2,-4.243098E-2,-4.309113E-2,9.7987247E-1,-3.980575E-2,1.1396154E-2,-4.3137882E-2,-2.059991E-3,-1.113339E-2,2.630083E-2,1.0712642E-2,-2.6367137E-2],"split_indices":[1,1,1,1,4,0,1,4,0,3,0,0,1,1,4,0,2,0,0,0,4,0,0,0,0,0,0,0,0],"split_type":[0,0,0,0,0,0,0,0,0,0,0,0,0,0,0,0,0,0,0,0,0,0,0,0,0,0,0,0,0],"sum_hessian":[3.882827E1,2.9094551E1,9.73372E0,2.0205986E1,8.888565E0,1.4260287E0,8.307691E0,1.8992056E1,1.2139297E0,6.604454E0,2.2841113E0,2.09849E0,6.2092013E0,1.5809313E1,3.1827426E0,3.0360453E0,3.568409E0,1.1365992E0,1.147512E0,1.700851E0,4.5083504E0,1.0958443E0,1.4713469E1,2.009516E0,1.1732267E0,2.2045147E0,1.3638942E0,2.6600125E0,1.8483377E0],"tree_param":{"num_deleted":"0","num_feature":"5","num_nodes":"29","size_leaf_vector":"1"}},{"base_weights":[-1.17706075E-1,-3.903903E-2,-7.979029E-2,3.986242E-2,-1.2946545E-1,-4.376813E-1,-4.056449E-2,2.8055972E-1,-8.898787E-1,1.8731998E-1,-2.0678672E-1,3.8544983E-2,-2.4256214E-2,-1.4702007E-2,-5.8832407E-2,1.2807363E-3,5.0233867E-2,-4.096847E-2,-2.1786548E-3],"categories":[],"categories_nodes":[],"categories_segments":[],"categories_sizes":[],"default_left":[0,0,0,0,0,0,0,0,0,0,0,0,0,0,0,0,0,0,0],"id":32,"left_children":[1,-1,3,-1,5,7,9,11,13,15,17,-1,-1,-1,-1,-1,-1,-1,-1],"loss_changes":[9.5810837E-1,0E0,1.8243705E0,0E0,1.0302813E0,2.997489E0,1.2049731E0,1.8866366E0,5.8207893E-1,1.759921E0,1.791759E0,0E0,0E0,0E0,0E0,0E0,0E0,0E0,0E0],"parents":[2147483647,0,0,2,2,4,4,5,5,6,6,7,7,8,8,9,9,10,10],"right_children":[2,-1,4,-1,6,8,10,12,14,16,18,-1,-1,-1,-1,-1,-1,-1,-1],"split_conditions":[-4.9722223E0,-3.903903E-2,-4.090909E0,3.986242E-2,-1.45E0,1E0,2.8818024E-2,-3.6102023E-2,-2.5555556E0,-5.8938358E-2,0E0,3.8544983E-2,-2.4256214E-2,-1.4702007E-2,-5.8832407E-2,1.2807363E-3,5.0233867E-2,-4.096847E-2,-2.1786548E-3],"split_indices":[1,0,1,0,1,0,4,4,1,4,1,0,0,0,0,0,0,0,0],"split_type":[0,0,0,0,0,0,0,0,0,0,0,0,0,0,0,0,0,0,0],"sum_hessian":[3.9587387E1,1.0815015E0,3.8505882E1,1.2573599E0,3.7248524E1,7.4603972E0,2.9788126E1,3.028959E0,4.4314384E0,1.2510194E1,1.7277933E1,1.8423295E0,1.1866295E0,2.0978858E0,2.3335526E0,1.1304967E1,1.2052263E0,2.7891839E0,1.44887495E1],"tree_param":{"num_deleted":"0","num_feature":"5","num_nodes":"19","size_leaf_vector":"1"}},{"base_weights":[-7.675582E-2,7.517691E-2,-3.7887347E-1,-3.1375888E-1,3.1687507E-1,-5.1915653E-2,-1.3474278E-1,1.1611061E-1,-4.5014318E-2,-1.5973897E-1,5.200453E-1,1.297342E-1,-6.969936E-1,-2.5345538E-2,3.6949444E-1,2.2917317E-1,-3.3076946E-2,2.9938647E-1,4.751694E-2,-2.8675443E-1,3.6193487E-1,-9.034629E-3,-4.5351617E-2,-1.9019665E-3,4.8113737E-2,-8.69338E-3,2.327932E-2,3.678265E-2,-3.5573136E-2,-2.678508E-2,5.102202E-3,-3.3468602E-3,4.1472755E-2],"categories":[],"categories_nodes":[],"categories_segments":[],"categories_sizes":[],"default_left":[0,0,0,0,0,0,0,0,0,0,0,0,0,0,0,0,0,0,0,0,0,0,0,0,0,0,0,0,0,0,0,0,0],"id":33,"left_children":[1,3,5,7,9,-1,11,13,-1,15,17,19,21,-1,23,25,-1,27,-1,29,31,-1,-1,-1,-1,-1,-1,-1,-1,-1,-1,-1,-1],"loss_changes":[1.6826541E0,2.4319797E0,1.8280728E0,2.628961E0,1.6131139E0,0E0,1.5879438E0,1.2392353E0,0E0,1.2225151E0,7.896538E-1,8.4767115E-1,2.0249069E-1,0E0,1.3206913E0,4.4628572E-1,0E0,4.4651456E0,0E0,3.7516916E-1,1.1343801E0,0E0,0E0,0E0,0E0,0E0,0E0,0E0,0E0,0E0,0E0,0E0,0E0],"parents":[2147483647,0,0,1,1,2,2,3,3,4,4,6,6,7,7,9,9,10,10,11,11,12,12,14,14,15,15,17,17,19,19,20,20],"right_children":[2,4,6,8,10,-1,12,14,-1,16,18,20,22,-1,24,26,-1,28,-1,30,32,-1,-1,-1,-1,-1,-1,-1,-1,-1,-1,-1,-1],"split_conditions":[3.403143E-1,-5.8517236E-1,0E0,-4.0384614E-1,-6.388889E-1,-5.1915653E-2,3.2954545E0,3E0,-4.5014318E-2,-2.8795615E-2,1.4157875E-1,1E0,1E0,-2.5345538E-2,-2.0714285E0,-2.8333333E0,-3.3076946E-2,2.3555508E-2,4.751694E-2,5.823139E-1,1.4642857E0,-9.034629E-3,-4.5351617E-2,-1.9019665E-3,4.8113737E-2,-8.69338E-3,2.327932E-2,3.678265E-2,-3.5573136E-2,-2.678508E-2,5.102202E-3,-3.3468602E-3,4.1472755E-2],"split_indices":[4,4,1,1,1,0,1,3,0,4,4,0,0,0,1,1,0,4,0,4,1,0,0,0,0,0,0,0,0,0,0,0,0],"split_type":[0,0,0,0,0,0,0,0,0,0,0,0,0,0,0,0,0,0,0,0,0,0,0,0,0,0,0,0,0,0,0,0,0],"sum_hessian":[3.5037373E1,2.3813105E1,1.1224267E1,9.012397E0,1.4800709E1,2.153685E0,9.070582E0,5.6635695E0,3.348827E0,4.4874454E0,1.0313264E1,6.691996E0,2.3785865E0,1.3481553E0,4.3154144E0,2.8341665E0,1.6532786E0,7.938231E0,2.3750324E0,2.3113256E0,4.3806705E0,1.2257713E0,1.1528152E0,3.1118562E0,1.2035582E0,1.1456338E0,1.6885328E0,5.735237E0,2.2029943E0,1.1787409E0,1.1325847E0,2.7316556E0,1.6490148E0],"tree_param":{"num_deleted":"0","num_feature":"5","num_nodes":"33","size_leaf_vector":"1"}},{"base_weights":[-6.5786466E-2,-1.305411E-1,6.150741E-1,1.10629536E-1,-2.7891627E-1,4.048471E-2,9.215397E-3,-2.6340235E-2,3.5795625E-2,-3.6343083E-1,1.702065E-2,2.5671718E-1,-4.0075663E-1,-1.8836845E-1,-6.919874E-1,2.5410404E-2,-1.4584673E-2,-3.7657052E-2,2.5939846E-2,-4.1561328E-2,5.9342006E-4,-4.8993975E-3,-4.1037403E-2],"categories":[],"categories_nodes":[],"categories_segments":[],"categories_sizes":[],"default_left":[0,0,0,0,0,0,0,0,0,0,0,0,0,0,0,0,0,0,0,0,0,0,0],"id":34,"left_children":[1,3,5,7,9,-1,-1,11,-1,13,-1,15,17,19,21,-1,-1,-1,-1,-1,-1,-1,-1],"loss_changes":[1.7561864E0,1.3024464E0,1.4220452E-1,1.2003586E0,1.2901255E0,0E0,0E0,1.4367508E0,0E0,1.025306E0,0E0,1.2208362E0,2.273045E0,1.8740354E0,4.251461E-1,0E0,0E0,0E0,0E0,0E0,0E0,0E0,0E0],"parents":[2147483647,0,0,1,1,2,2,3,3,4,4,7,7,9,9,11,11,12,12,13,13,14,14],"right_children":[2,4,6,8,10,-1,-1,12,-1,14,-1,16,18,20,22,-1,-1,-1,-1,-1,-1,-1,-1],"split_conditions":[4E0,-3.1495342E-1,6E0,1.7E0,1.6272459E0,4.048471E-2,9.215397E-3,-7.9545456E-1,3.5795625E-2,5.231144E-1,1.702065E-2,-7.2975636E-1,3E0,-5.8938358E-2,1.6666667E-1,2.5410404E-2,-1.4584673E-2,-3.7657052E-2,2.5939846E-2,-4.1561328E-2,5.9342006E-4,-4.8993975E-3,-4.1037403E-2],"split_indices":[2,4,2,1,4,0,0,1,0,4,0,4,2,4,1,0,0,0,0,0,0,0,0],"split_type":[0,0,0,0,0,0,0,0,0,0,0,0,0,0,0,0,0,0,0,0,0,0,0],"sum_hessian":[3.701171E1,3.453542E1,2.4762917E0,1.3251187E1,2.1284233E1,1.0997597E0,1.3765321E0,1.1585893E1,1.6652942E0,1.9092087E1,2.192147E0,6.7769203E0,4.8089724E0,1.348193E1,5.610156E0,4.6965E0,2.0804203E0,3.6075032E0,1.2014693E0,2.4535668E0,1.1028363E1,1.313182E0,4.2969737E0],"tree_param":{"num_deleted":"0","num_feature":"5","num_nodes":"23","size_leaf_vector":"1"}},{"base_weights":[9.508129E-3,7.3372155E-2,-3.7270838E-1,7.451451E-3,3.7319366E-2,-4.162244E-2,2.083628E-2,1.0721751E-1,-3.321337E-1,1.5468416E-2,-1.9442633E-2,2.2019409E-1,-3.2372522E-1,-6.2584734E-1,2.3397941E-2,-4.6585924E-3,2.5112808E-2,-2.6269117E-3,-3.3699583E-2,-3.7661087E-2,-1.5137887E-3],"categories":[],"categories_nodes":[],"categories_segments":[],"categories_sizes":[],"default_left":[0,0,0,0,0,0,0,0,0,0,0,0,0,0,0,0,0,0,0,0,0],"id":35,"left_children":[1,3,5,7,-1,-1,9,11,13,-1,-1,15,17,19,-1,-1,-1,-1,-1,-1,-1],"loss_changes":[9.816535E-1,1.5176655E0,1.0597845E0,1.1292499E0,0E0,0E0,6.0257393E-1,1.322839E0,2.0727928E0,0E0,0E0,1.8996166E0,5.102255E-1,4.2994404E-1,0E0,0E0,0E0,0E0,0E0,0E0,0E0],"parents":[2147483647,0,0,1,1,2,2,3,3,6,6,7,7,8,8,11,11,12,12,13,13],"right_children":[2,4,6,8,-1,-1,10,12,14,-1,-1,16,18,20,-1,-1,-1,-1,-1,-1,-1],"split_conditions":[3.0714285E0,2.55E0,3.5833333E0,5.231144E-1,3.7319366E-2,-4.162244E-2,4.321429E0,4E0,1.2727273E0,1.5468416E-2,-1.9442633E-2,-3E-1,7.1428575E-2,3E0,2.3397941E-2,-4.6585924E-3,2.5112808E-2,-2.6269117E-3,-3.3699583E-2,-3.7661087E-2,-1.5137887E-3],"split_indices":[1,1,1,4,0,0,1,3,4,0,0,1,1,3,0,0,0,0,0,0,0],"split_type":[0,0,0,0,0,0,0,0,0,0,0,0,0,0,0,0,0,0,0,0,0],"sum_hessian":[3.8095108E1,3.3333496E1,4.761612E0,3.1280676E1,2.052818E0,1.681739E0,3.079873E0,2.4706478E1,6.5741987E0,1.9508302E0,1.1290429E0,1.99622E1,4.744278E0,4.968168E0,1.6060311E0,9.773591E0,1.0188608E1,3.3221574E0,1.4221208E0,3.8747702E0,1.0933975E0],"tree_param":{"num_deleted":"0","num_feature":"5","num_nodes":"21","size_leaf_vector":"1"}},{"base_weights":[-3.7696976E-2,-5.5304813E-1,3.850294E-2,-4.8080865E-2,-2.0362352E-1,-2.4002673E-2,4.7338888E-1,1.1858444E-2,-2.8634174E-2,3.7482405E-1,-1.0068214E-1,3.1969737E-2,2.235444E-1,-1.9531153E-2,4.3806717E-2,-8.217149E-1,1.8055009E-2,-6.516403E-3,2.4012227E-2,-9.583067E-3,-5.0993975E-2,-5.562317E-3,1.8249238E-2],"categories":[],"categories_nodes":[],"categories_segments":[],"categories_sizes":[],"default_left":[0,0,0,0,0,0,0,0,0,0,0,0,0,0,0,0,0,0,0,0,0,0,0],"id":36,"left_children":[1,3,5,-1,7,9,11,-1,-1,13,15,-1,17,-1,-1,19,21,-1,-1,-1,-1,-1,-1],"loss_changes":[1.5946949E0,5.503067E-1,9.856031E-1,0E0,8.0046844E-1,1.0251673E0,4.5872092E-2,0E0,0E0,2.4214501E0,2.40085E0,0E0,3.6733437E-1,0E0,0E0,2.992084E-1,1.1579198E0,0E0,0E0,0E0,0E0,0E0,0E0],"parents":[2147483647,0,0,1,1,2,2,4,4,5,5,6,6,9,9,10,10,12,12,15,15,16,16],"right_children":[2,4,6,-1,8,10,12,-1,-1,14,16,-1,18,-1,-1,20,22,-1,-1,-1,-1,-1,-1],"split_conditions":[2E0,-3.5714287E-2,7.3985004E-1,-4.8080865E-2,1.2857143E0,-2.2727273E0,5.5E-1,1.1858444E-2,-2.8634174E-2,-1.2112035E0,-1.45E0,3.1969737E-2,3E0,-1.9531153E-2,4.3806717E-2,-3.804674E-1,3E0,-6.516403E-3,2.4012227E-2,-9.583067E-3,-5.0993975E-2,-5.562317E-3,1.8249238E-2],"split_indices":[3,1,4,0,1,1,1,0,0,4,1,0,2,0,0,4,2,0,0,0,0,0,0],"split_type":[0,0,0,0,0,0,0,0,0,0,0,0,0,0,0,0,0,0,0,0,0,0,0],"sum_hessian":[3.9066517E1,4.226207E0,3.484031E1,1.1405741E0,3.0856326E0,3.1288116E1,3.552195E0,1.5690199E0,1.5166126E0,4.4184732E0,2.6869642E1,1.1974163E0,2.3547785E0,1.835958E0,2.5825152E0,2.9620578E0,2.3907585E1,1.1969813E0,1.1577973E0,1.1794006E0,1.7826574E0,1.7911337E1,5.996248E0],"tree_param":{"num_deleted":"0","num_feature":"5","num_nodes":"23","size_leaf_vector":"1"}},{"base_weights":[-2.9407704E-2,-2.646942E-1,2.126829E-1,2.2229315E-1,-4.4469613E-1,-4.0875438E-1,4.1939875E-1,-3.3694467E-1,6.4528376E-1,-6.863338E-1,-1.5499231E-1,2.812235E-1,-5.3061306E-2,7.1803737E-1,2.0758787E-1,-7.3763897E-4,-2.5291398E-2,4.567219E-2,4.512062E-3,-2.977029E-1,-5.4095544E-2,3.8396433E-2,-6.170296E-1,-7.2618187E-3,2.7321149E-2,-2.7689754E-3,9.79971E-1,-2.4897344E-1,6.085787E-1,-2.7720481E-2,5.7986043E-3,-5.872975E-2,-5.9400446E-4,1.0668127E-2,5.936699E-2,4.4122264E-3,-3.0658577E-2,5.1598635E-2,-4.056879E-3],"categories":[],"categories_nodes":[],"categories_segments":[],"categories_sizes":[],"default_left":[0,0,0,0,0,0,0,0,0,0,0,0,0,0,0,0,0,0,0,0,0,0,0,0,0,0,0,0,0,0,0,0,0,0,0,0,0,0,0],"id":37,"left_children":[1,3,5,7,9,11,13,15,17,19,21,23,-1,25,27,-1,-1,-1,-1,29,-1,-1,31,-1,-1,-1,33,35,37,-1,-1,-1,-1,-1,-1,-1,-1,-1,-1],"loss_changes":[2.2938583E0,1.884177E0,2.7298365E0,1.6753321E0,9.5792794E-1,2.7644215E0,8.274858E-1,1.7270291E-1,4.9091244E-1,9.074395E-1,3.9729998E0,4.698627E-1,0E0,1.2696519E0,2.0626223E0,0E0,0E0,0E0,0E0,6.3921887E-1,0E0,0E0,2.0181868E0,0E0,0E0,0E0,4.6761417E-1,7.407438E-1,1.7914608E0,0E0,0E0,0E0,0E0,0E0,0E0,0E0,0E0,0E0,0E0],"parents":[2147483647,0,0,1,1,2,2,3,3,4,4,5,5,6,6,7,7,8,8,9,9,10,10,11,11,13,13,14,14,19,19,22,22,26,26,27,27,28,28],"right_children":[2,4,6,8,10,12,14,16,18,20,22,24,-1,26,28,-1,-1,-1,-1,30,-1,-1,32,-1,-1,-1,34,36,38,-1,-1,-1,-1,-1,-1,-1,-1,-1,-1],"split_conditions":[1E0,-4.213977E-1,-1.5E0,-1.2175192E0,5.5E-1,-2.5555556E0,3.611111E-1,-1.5913421E0,-1.1944444E0,-2.7272728E-1,1.5833334E0,-1.1322441E0,-5.3061306E-2,-9.1354686E-1,1.7E0,-7.3763897E-4,-2.5291398E-2,4.567219E-2,4.512062E-3,-1.45E0,-5.4095544E-2,3.8396433E-2,2.6E0,-7.2618187E-3,2.7321149E-2,-2.7689754E-3,-2E-1,3.7913647E-1,3.2954545E0,-2.7720481E-2,5.7986043E-3,-5.872975E-2,-5.9400446E-4,1.0668127E-2,5.936699E-2,4.4122264E-3,-3.0658577E-2,5.1598635E-2,-4.056879E-3],"split_indices":[0,4,1,4,1,1,1,4,1,1,1,4,0,4,1,0,0,0,0,1,0,0,1,0,0,0,1,4,1,0,0,0,0,0,0,0,0,0,0],"split_type":[0,0,0,0,0,0,0,0,0,0,0,0,0,0,0,0,0,0,0,0,0,0,0,0,0,0,0,0,0,0,0,0,0,0,0,0,0,0,0],"sum_hessian":[3.8282597E1,1.9366772E1,1.8915825E1,5.163149E0,1.4203623E1,4.4776287E0,1.4438196E1,2.311081E0,2.8520682E0,6.997786E0,7.205837E0,2.4528105E0,2.0248182E0,4.999399E0,9.438797E0,1.1687398E0,1.1423413E0,1.4876264E0,1.3644418E0,4.4139357E0,2.5838504E0,2.1830795E0,5.022757E0,1.1139112E0,1.3388994E0,1.464301E0,3.535098E0,4.590844E0,4.847953E0,2.513792E0,1.9001437E0,2.1244018E0,2.8983555E0,1.1846279E0,2.35047E0,2.7771397E0,1.8137046E0,2.6964583E0,2.1514943E0],"tree_param":{"num_deleted":"0","num_feature":"5","num_nodes":"39","size_leaf_vector":"1"}},{"base_weights":[-3.910437E-2,-9.0183005E-2,3.319807E-2,5.226076E-2,-4.5925036E-1,-3.4345433E-1,1.659668E-1,-6.3367003E-1,9.339351E-3,-3.7371453E-2,2.1022388E-3,5.6717616E-1,-2.288335E-2,-1.2616395E-3,-7.96597E-1,2.5053784E-2,-3.0206827E-2,-1.1982995E-2,3.8109146E-2,-1.9796273E-2,1.8096041E-2,-5.628079E-2,-9.8179085E-3],"categories":[],"categories_nodes":[],"categories_segments":[],"categories_sizes":[],"default_left":[0,0,0,0,0,0,0,0,0,0,0,0,0,0,0,0,0,0,0,0,0,0,0],"id":38,"left_children":[1,3,-1,5,7,9,11,13,-1,-1,15,17,19,-1,21,-1,-1,-1,-1,-1,-1,-1,-1],"loss_changes":[1.3889433E0,1.884136E0,0E0,1.2461147E0,1.2401657E0,8.705001E-1,1.6194942E0,7.795639E-1,0E0,0E0,1.6192043E0,1.2564754E0,2.3507931E0,0E0,1.0291238E0,0E0,0E0,0E0,0E0,0E0,0E0,0E0,0E0],"parents":[2147483647,0,0,1,1,3,3,4,4,5,5,6,6,7,7,10,10,11,11,12,12,14,14],"right_children":[2,4,-1,6,8,10,12,14,-1,-1,16,18,20,-1,22,-1,-1,-1,-1,-1,-1,-1,-1],"split_conditions":[1.6272459E0,4.1755053E-1,3.319807E-2,-1.1471385E0,3E0,-2.0714285E0,-1.35E0,3.2142857E-1,9.339351E-3,-3.7371453E-2,-1.2403169E0,-4.681818E0,1E0,-1.2616395E-3,2.392857E0,2.5053784E-2,-3.0206827E-2,-1.1982995E-2,3.8109146E-2,-1.9796273E-2,1.8096041E-2,-5.628079E-2,-9.8179085E-3],"split_indices":[4,4,0,4,2,1,1,1,0,0,4,1,0,0,1,0,0,0,0,0,0,0,0],"split_type":[0,0,0,0,0,0,0,0,0,0,0,0,0,0,0,0,0,0,0,0,0,0,0],"sum_hessian":[3.6009315E1,3.4383068E1,1.6262453E0,2.5427551E1,8.955519E0,5.2245927E0,2.020296E1,7.0667524E0,1.888766E0,1.8725299E0,3.3520627E0,5.824846E0,1.4378112E1,1.7365654E0,5.330187E0,1.9338489E0,1.4182138E0,1.0892237E0,4.735622E0,7.2859583E0,7.092154E0,2.8775744E0,2.4526126E0],"tree_param":{"num_deleted":"0","num_feature":"5","num_nodes":"23","size_leaf_vector":"1"}},{"base_weights":[8.168799E-2,2.0220293E-1,-1.5203555E-1,-2.5590679E-2,2.5395992E-1,-4.4509465E-1,1.6080074E-1,4.6145137E-2,1.6589135E-1,-2.4767786E-2,-6.663924E-1,2.8933091E-2,-5.484647E-2,-3.84641E-1,2.4889956E-1,3.150341E-2,-3.0143593E-2,-4.489433E-2,1.5032872E-3,-3.0204019E-2,2.2111377E-1,-3.4752894E-2,7.9421075E-3,2.1084925E-2,1.8625584E-3,2.8920729E-2,-4.0874123E-3],"categories":[],"categories_nodes":[],"categories_segments":[],"categories_sizes":[],"default_left":[0,0,0,0,0,0,0,0,0,0,0,0,0,0,0,0,0,0,0,0,0,0,0,0,0,0,0],"id":39,"left_children":[1,3,5,-1,7,9,11,-1,13,15,17,-1,19,21,23,-1,-1,-1,-1,-1,25,-1,-1,-1,-1,-1,-1],"loss_changes":[1.103378E0,1.0743643E0,1.3116571E0,0E0,1.2900224E0,6.578064E-1,6.874724E-1,0E0,1.1406503E0,1.7195495E0,7.864349E-1,0E0,9.9952024E-1,6.821066E-1,7.331716E-1,0E0,0E0,0E0,0E0,0E0,5.380002E-1,0E0,0E0,0E0,0E0,0E0,0E0],"parents":[2147483647,0,0,1,1,2,2,4,4,5,5,6,6,8,8,9,9,10,10,12,12,13,13,14,14,20,20],"right_children":[2,4,6,-1,8,10,12,-1,14,16,18,-1,20,22,24,-1,-1,-1,-1,-1,26,-1,-1,-1,-1,-1,-1],"split_conditions":[1.3214285E0,-4.9423075E0,2.6E0,-2.5590679E-2,-3.6E0,3E0,3.0714285E0,4.6145137E-2,2E0,8.2392305E-1,3E0,2.8933091E-2,3.5833333E0,-3.5714287E-2,1E0,3.150341E-2,-3.0143593E-2,-4.489433E-2,1.5032872E-3,-3.0204019E-2,2.6244533E-1,-3.4752894E-2,7.9421075E-3,2.1084925E-2,1.8625584E-3,2.8920729E-2,-4.0874123E-3],"split_indices":[1,1,1,0,1,3,1,0,3,4,2,0,1,1,0,0,0,0,0,0,4,0,0,0,0,0,0],"split_type":[0,0,0,0,0,0,0,0,0,0,0,0,0,0,0,0,0,0,0,0,0,0,0,0,0,0,0],"sum_hessian":[3.7081055E1,2.4554745E1,1.2526309E1,1.0588286E0,2.3495916E1,6.249306E0,6.277003E0,1.6306458E0,2.186527E1,2.5389035E0,3.710403E0,1.5636789E0,4.713324E0,2.3887413E0,1.947653E1,1.148301E0,1.3906025E0,2.5677092E0,1.1426938E0,1.1785952E0,3.5347288E0,1.3428571E0,1.045884E0,1.0175975E1,9.300555E0,1.204222E0,2.3305068E0],"tree_param":{"num_deleted":"0","num_feature":"5","num_nodes":"27","size_leaf_vector":"1"}},{"base_weights":[-3.0363685E-2,-3.7036184E-2,7.780474E-3,1.20413855E-1,-1.4965104E-1,4.8023218E-1,-5.7002928E-2,-3.855191E-2,5.890623E-2,-2.2961168E-2,7.116187E-1,3.0309352E-1,-2.8657705E-1,-1.1787931E-1,6.127597E-1,5.4647665E-2,1.4643947E-2,4.398842E-2,-1.0661904E-2,-3.1734716E-2,1.6606214E-3,2.9642215E-2,-1.3426567E-2,3.9924044E-2,8.859928E-3],"categories":[],"categories_nodes":[],"categories_segments":[],"categories_sizes":[],"default_left":[0,0,0,0,0,0,0,0,0,0,0,0,0,0,0,0,0,0,0,0,0,0,0,0,0],"id":40,"left_children":[1,-1,3,5,7,9,11,-1,13,-1,15,17,19,21,23,-1,-1,-1,-1,-1,-1,-1,-1,-1,-1],"loss_changes":[1.083743E0,0E0,7.0506245E-1,1.5046196E0,2.1973686E0,2.011046E0,1.4420109E0,0E0,1.3805003E0,0E0,7.352345E-1,2.2325947E0,1.1927112E0,1.3334785E0,1.3308442E-1,0E0,0E0,0E0,0E0,0E0,0E0,0E0,0E0,0E0,0E0],"parents":[2147483647,0,0,2,2,3,3,4,4,5,5,6,6,8,8,10,10,11,11,12,12,13,13,14,14],"right_children":[2,-1,4,6,8,10,12,-1,14,-1,16,18,20,22,24,-1,-1,-1,-1,-1,-1,-1,-1,-1,-1],"split_conditions":[-4.9722223E0,-3.7036184E-2,2.6244533E-1,3E0,-8.3333336E-2,-5.8517236E-1,-7.9545456E-1,-3.855191E-2,3E0,-2.2961168E-2,-3.5957256E-1,1E0,1E0,3.2142857E-1,8.746668E-1,5.4647665E-2,1.4643947E-2,4.398842E-2,-1.0661904E-2,-3.1734716E-2,1.6606214E-3,2.9642215E-2,-1.3426567E-2,3.9924044E-2,8.859928E-3],"split_indices":[1,0,4,3,1,4,1,0,2,0,4,0,0,1,4,0,0,0,0,0,0,0,0,0,0],"split_type":[0,0,0,0,0,0,0,0,0,0,0,0,0,0,0,0,0,0,0,0,0,0,0,0,0],"sum_hessian":[3.8783596E1,1.0377876E0,3.774581E1,2.2140596E1,1.5605214E1,6.748066E0,1.539253E1,3.243711E0,1.2361504E1,1.1389875E0,5.6090784E0,5.868034E0,9.524496E0,9.967215E0,2.394289E0,2.0929685E0,3.5161097E0,2.4395232E0,3.428511E0,4.088787E0,5.435709E0,1.2298801E0,8.737334E0,1.0944133E0,1.2998757E0],"tree_param":{"num_deleted":"0","num_feature":"5","num_nodes":"25","size_leaf_vector":"1"}},{"base_weights":[-2.2018392E-4,-1.11874826E-1,3.9830843E-1,2.5606647E-2,-1.5526466E-1,-3.1754084E-2,6.73831E-1,-5.1910454E-1,-7.884149E-2,8.7580764E-1,-4.0337304E-3,-8.603895E-3,-6.088315E-1,-1.9458462E-1,5.3707886E-1,5.084901E-2,1.1646182E-2,-3.8256403E-2,-8.418729E-3,-1.9685438E-2,-2.6217266E-3,3.4519475E-2,1.2639855E-2],"categories":[],"categories_nodes":[],"categories_segments":[],"categories_sizes":[],"default_left":[0,0,0,0,0,0,0,0,0,0,0,0,0,0,0,0,0,0,0,0,0,0,0],"id":41,"left_children":[1,3,5,-1,7,-1,9,11,13,15,-1,-1,17,19,21,-1,-1,-1,-1,-1,-1,-1,-1],"loss_changes":[1.7425116E0,9.0770423E-1,2.868094E0,0E0,7.7563775E-1,0E0,1.1757255E0,4.838574E-2,1.9186697E0,2.8992844E-1,0E0,0E0,1.1308813E-1,6.065076E-1,1.2515783E-2,0E0,0E0,0E0,0E0,0E0,0E0,0E0,0E0],"parents":[2147483647,0,0,1,1,2,2,4,4,6,6,7,7,8,8,9,9,12,12,13,13,14,14],"right_children":[2,4,6,-1,8,-1,10,12,14,16,-1,-1,18,20,22,-1,-1,-1,-1,-1,-1,-1,-1],"split_conditions":[3E0,-3.6E0,-2.607143E0,2.5606647E-2,2E0,-3.1754084E-2,2.8611112E0,4.1755053E-1,6.367443E-1,4.082483E-1,-4.0337304E-3,-8.603895E-3,1.6190476E0,-2.7272728E-1,7.5E-1,5.084901E-2,1.1646182E-2,-3.8256403E-2,-8.418729E-3,-1.9685438E-2,-2.6217266E-3,3.4519475E-2,1.2639855E-2],"split_indices":[2,1,1,0,3,0,1,4,4,4,0,0,4,1,1,0,0,0,0,0,0,0,0],"split_type":[0,0,0,0,0,0,0,0,0,0,0,0,0,0,0,0,0,0,0,0,0,0,0],"sum_hessian":[3.7158287E1,2.9587984E1,7.570302E0,1.2212732E0,2.836671E1,1.3188273E0,6.2514744E0,3.91855E0,2.4448162E1,4.804554E0,1.4469208E0,1.4044638E0,2.5140862E0,2.1156523E1,3.2916377E0,3.4623456E0,1.3422083E0,1.3115563E0,1.2025299E0,8.075158E0,1.3081366E1,1.2103609E0,2.0812767E0],"tree_param":{"num_deleted":"0","num_feature":"5","num_nodes":"23","size_leaf_vector":"1"}},{"base_weights":[-3.5729654E-2,-9.309534E-2,5.8084714E-1,-4.477849E-2,-4.0490952E-1,9.555651E-3,3.6784995E-2,-1.0691719E-1,3.232968E-2,-3.2749522E-2,4.349755E-3,-4.832339E-2,-5.280562E-1,-8.505225E-3,1.1467198E-2,-3.2594193E-2,-7.2690756E-3],"categories":[],"categories_nodes":[],"categories_segments":[],"categories_sizes":[],"default_left":[0,0,0,0,0,0,0,0,0,0,0,0,0,0,0,0,0],"id":42,"left_children":[1,3,5,7,9,-1,-1,11,-1,-1,-1,13,15,-1,-1,-1,-1],"loss_changes":[1.3908021E0,5.157633E-1,6.187725E-2,1.4356011E0,6.265568E-1,0E0,0E0,7.158114E-1,0E0,0E0,0E0,9.6802723E-1,7.432842E-2,0E0,0E0,0E0,0E0],"parents":[2147483647,0,0,1,1,2,2,3,3,4,4,7,7,11,11,12,12],"right_children":[2,4,6,8,10,-1,-1,12,-1,-1,-1,14,16,-1,-1,-1,-1],"split_conditions":[4E0,3.0833333E0,3E0,2.6E0,1E0,9.555651E-3,3.6784995E-2,1.9642857E0,3.232968E-2,-3.2749522E-2,4.349755E-3,5.5E-1,3.5785106E-1,-8.505225E-3,1.1467198E-2,-3.2594193E-2,-7.2690756E-3],"split_indices":[2,1,3,1,0,0,0,1,0,0,0,1,4,0,0,0,0],"split_type":[0,0,0,0,0,0,0,0,0,0,0,0,0,0,0,0,0],"sum_hessian":[3.679233E1,3.4437332E1,2.3550022E0,3.0807234E1,3.6300972E0,1.3049237E0,1.0500784E0,2.904234E1,1.7648939E0,2.1868026E0,1.4432946E0,2.6473747E1,2.5685933E0,1.867189E1,7.801856E0,1.409128E0,1.1594654E0],"tree_param":{"num_deleted":"0","num_feature":"5","num_nodes":"17","size_leaf_vector":"1"}},{"base_weights":[-1.1992335E-1,1.4355776E-2,-3.604472E-1,-1.5422095E-1,4.6780083E-1,-5.633166E-2,-9.039333E-2,-4.7857767E-1,-8.539909E-6,4.1552473E-2,-5.2663524E-2,-2.6617962E-1,4.305781E-1,7.6688505E-3,-7.4955165E-1,3.9961804E-2,-1.423291E-1,-3.092045E-2,2.7731165E-2,-4.6126258E-1,1.8772809E-2,4.876222E-3,2.771281E-2,-9.305089E-3,-5.3563267E-2,-1.1789895E-3,-2.8649865E-2,2.9001113E-3,-3.9774902E-2],"categories":[],"categories_nodes":[],"categories_segments":[],"categories_sizes":[],"default_left":[0,0,0,0,0,0,0,0,0,0,0,0,0,0,0,0,0,0,0,0,0,0,0,0,0,0,0,0,0],"id":43,"left_children":[1,3,5,7,9,-1,11,13,15,-1,17,19,21,-1,23,-1,25,-1,-1,27,-1,-1,-1,-1,-1,-1,-1,-1,-1],"loss_changes":[1.2195625E0,1.9901131E0,2.6933675E0,9.525284E-1,1.3762407E0,0E0,1.1289291E0,1.1657747E0,1.6956309E0,0E0,1.6614199E0,1.2871468E0,7.6785386E-2,0E0,6.099446E-1,0E0,6.336098E-1,0E0,0E0,1.3084601E0,0E0,0E0,0E0,0E0,0E0,0E0,0E0,0E0,0E0],"parents":[2147483647,0,0,1,1,2,2,3,3,4,4,6,6,7,7,8,8,10,10,11,11,12,12,14,14,16,16,19,19],"right_children":[2,4,6,8,10,-1,12,14,16,-1,18,20,22,-1,24,-1,26,-1,-1,28,-1,-1,-1,-1,-1,-1,-1,-1,-1],"split_conditions":[2.6244533E-1,-4.0032037E-2,0E0,-1.1471385E0,9E-1,-5.633166E-2,3E0,-1.9325044E0,-9.6598595E-1,4.1552473E-2,8.000711E-2,1.6190476E0,4.689683E-1,7.6688505E-3,-7.9545456E-1,3.9961804E-2,-1.4336088E-1,-3.092045E-2,2.7731165E-2,8.2392305E-1,1.8772809E-2,4.876222E-3,2.771281E-2,-9.305089E-3,-5.3563267E-2,-1.1789895E-3,-2.8649865E-2,2.9001113E-3,-3.9774902E-2],"split_indices":[4,4,1,4,1,0,3,4,4,0,4,4,4,0,1,0,4,0,0,4,0,0,0,0,0,0,0,0,0],"split_type":[0,0,0,0,0,0,0,0,0,0,0,0,0,0,0,0,0,0,0,0,0,0,0,0,0,0,0,0,0],"sum_hessian":[3.660026E1,2.4091066E1,1.2509194E1,1.8043097E1,6.04797E0,2.4333913E0,1.0075804E1,5.1363616E0,1.2906735E1,3.2105083E0,2.8374617E0,7.899442E0,2.176361E0,1.6716905E0,3.4646714E0,1.2532095E0,1.1653525E1,1.4594917E0,1.37797E0,6.2732406E0,1.6262016E0,1.0736514E0,1.1027097E0,1.8329357E0,1.6317357E0,9.961552E0,1.6919743E0,2.7802835E0,3.4929574E0],"tree_param":{"num_deleted":"0","num_feature":"5","num_nodes":"29","size_leaf_vector":"1"}},{"base_weights":[3.947558E-3,-3.5993304E-2,4.3064013E-2,3.1185066E-2,-1.2614068E-3,-2.3158371E-1,9.0066314E-2,6.1250877E-2,-4.249988E-2,-1.9740921E-1,3.3712825E-1,-2.1422368E-2,1.7363079E-2,-3.095041E-2,3.3749507E-3,5.3658504E-2,6.580673E-4],"categories":[],"categories_nodes":[],"categories_segments":[],"categories_sizes":[],"default_left":[0,0,0,0,0,0,0,0,0,0,0,0,0,0,0,0,0],"id":44,"left_children":[1,-1,3,-1,5,7,9,11,-1,13,15,-1,-1,-1,-1,-1,-1],"loss_changes":[1.1116731E0,0E0,9.570535E-1,0E0,7.679741E-1,1.9290636E0,1.9240669E0,1.2646089E0,0E0,1.4622661E0,3.4278488E0,0E0,0E0,0E0,0E0,0E0,0E0],"parents":[2147483647,0,0,2,2,4,4,5,5,6,6,7,7,9,9,10,10],"right_children":[2,-1,4,-1,6,8,10,12,-1,14,16,-1,-1,-1,-1,-1,-1],"split_conditions":[-4.9722223E0,-3.5993304E-2,-3.6E0,3.1185066E-2,-2.7272728E-1,2.8818024E-2,1E0,-1.17504E0,-4.249988E-2,5.5E-1,3.2142857E-1,-2.1422368E-2,1.7363079E-2,-3.095041E-2,3.3749507E-3,5.3658504E-2,6.580673E-4],"split_indices":[1,0,1,0,1,4,0,4,0,1,1,0,0,0,0,0,0],"split_type":[0,0,0,0,0,0,0,0,0,0,0,0,0,0,0,0,0],"sum_hessian":[3.716875E1,1.0134089E0,3.6155342E1,1.6372573E0,3.4518085E1,9.364843E0,2.5153242E1,6.966829E0,2.3980143E0,1.17186575E1,1.3434585E1,2.3851097E0,4.5817194E0,4.0061765E0,7.7124815E0,3.399177E0,1.0035408E1],"tree_param":{"num_deleted":"0","num_feature":"5","num_nodes":"17","size_leaf_vector":"1"}},{"base_weights":[-8.226751E-2,-1.1860782E-1,2.0998027E-2,-3.6541473E-2,-4.8947674E-1,-9.2252664E-2,4.675251E-1,-6.410269E-1,8.228871E-3,2.5283096E-2,-1.4953828E-1,2.4475844E-3,3.2611735E-2,-4.8920143E-2,-2.4170765E-1,-4.088447E-3,-2.9976083E-2,3.8878282E-3,-2.5081253E-2],"categories":[],"categories_nodes":[],"categories_segments":[],"categories_sizes":[],"default_left":[0,0,0,0,0,0,0,0,0,0,0,0,0,0,0,0,0,0,0],"id":45,"left_children":[1,3,-1,5,7,9,11,13,-1,-1,15,-1,-1,-1,17,-1,-1,-1,-1],"loss_changes":[7.57697E-1,1.1066751E0,0E0,9.2307377E-1,7.610868E-1,1.0706773E0,2.2192192E-1,5.144496E-1,0E0,0E0,7.8297573E-1,0E0,0E0,0E0,3.612418E-1,0E0,0E0,0E0,0E0],"parents":[2147483647,0,0,1,1,3,3,4,4,5,5,6,6,7,7,10,10,14,14],"right_children":[2,4,-1,6,8,10,12,14,-1,-1,16,-1,-1,-1,18,-1,-1,-1,-1],"split_conditions":[1.6272459E0,5.8523047E-1,2.0998027E-2,4.7642657E-1,3E0,2E0,1.7E0,9.798502E-1,8.228871E-3,2.5283096E-2,2.9230769E0,2.4475844E-3,3.2611735E-2,-4.8920143E-2,1.351945E0,-4.088447E-3,-2.9976083E-2,3.8878282E-3,-2.5081253E-2],"split_indices":[4,4,0,4,3,3,1,4,0,0,1,0,0,0,4,0,0,0,0],"split_type":[0,0,0,0,0,0,0,0,0,0,0,0,0,0,0,0,0,0,0],"sum_hessian":[3.7785904E1,3.5948566E1,1.8373365E0,3.0334614E1,5.6139526E0,2.8051273E1,2.2833414E0,4.5740275E0,1.0399255E0,1.7682508E0,2.6283022E1,1.086416E0,1.1969254E0,1.6932563E0,2.8807712E0,2.386984E1,2.4131808E0,1.6067533E0,1.2740178E0],"tree_param":{"num_deleted":"0","num_feature":"5","num_nodes":"19","size_leaf_vector":"1"}},{"base_weights":[-6.83875E-2,-4.9974126E-1,-2.4945536E-3,5.7408023E-3,-4.4468056E-2,-1.03257455E-1,3.6812037E-1,-2.9630475E-2,-6.0028964E-1,5.0854553E-2,-4.316418E-2,-9.2227995E-2,3.4396335E-2,-4.604239E-2,1.875972E-3,-3.5868533E-2,3.6596602E-1,1.4340132E-2,-9.03889E-3,-9.016796E-3,3.2813936E-2],"categories":[],"categories_nodes":[],"categories_segments":[],"categories_sizes":[],"default_left":[0,0,0,0,0,0,0,0,0,0,0,0,0,0,0,0,0,0,0,0,0],"id":46,"left_children":[1,3,5,-1,-1,7,9,11,13,-1,15,17,-1,-1,-1,-1,19,-1,-1,-1,-1],"loss_changes":[1.0838124E0,1.3122103E0,1.3122476E0,0E0,0E0,9.925436E-1,2.0491886E0,1.1907939E0,7.5221574E-1,0E0,1.7956055E0,8.562291E-1,0E0,0E0,0E0,0E0,7.719479E-1,0E0,0E0,0E0,0E0],"parents":[2147483647,0,0,1,1,2,2,5,5,6,6,7,7,8,8,10,10,11,11,16,16],"right_children":[2,4,6,-1,-1,8,10,12,14,-1,16,18,-1,-1,-1,-1,20,-1,-1,-1,-1],"split_conditions":[2E0,4.1755053E-1,2.6E0,5.7408023E-3,-4.4468056E-2,1.9642857E0,3.0833333E0,1.7E0,2.4444444E0,5.0854553E-2,3.5833333E0,-2.7E0,3.4396335E-2,-4.604239E-2,1.875972E-3,-3.5868533E-2,1.4157875E-1,1.4340132E-2,-9.03889E-3,-9.016796E-3,3.2813936E-2],"split_indices":[3,4,1,0,0,1,1,1,1,0,1,1,0,0,0,0,4,0,0,0,0],"split_type":[0,0,0,0,0,0,0,0,0,0,0,0,0,0,0,0,0,0,0,0,0],"sum_hessian":[3.717515E1,4.0537868E0,3.3121365E1,1.8465265E0,2.2072604E0,2.6608442E1,6.5129232E0,2.4098299E1,2.510144E0,1.9550557E0,4.5578675E0,2.296626E1,1.1320379E0,1.3752078E0,1.1349362E0,1.4367841E0,3.1210835E0,3.9253244E0,1.9040937E1,1.2144983E0,1.9065852E0],"tree_param":{"num_deleted":"0","num_feature":"5","num_nodes":"21","size_leaf_vector":"1"}},{"base_weights":[1.2326949E-2,-4.1470837E-2,5.56359E-1,7.6198585E-2,-4.3150014E-1,4.1953083E-2,2.8244585E-3,-3.5537653E-2,1.2908193E-1,-6.3349223E-1,9.212211E-2,2.0840603E-1,-5.063605E-1,-3.855322E-2,-6.288871E-3,-7.312572E-3,1.4612088E-2,3.9213818E-2,6.260846E-3,-3.0404115E-2,-8.771416E-3],"categories":[],"categories_nodes":[],"categories_segments":[],"categories_sizes":[],"default_left":[0,0,0,0,0,0,0,0,0,0,0,0,0,0,0,0,0,0,0,0,0],"id":47,"left_children":[1,3,5,7,9,-1,-1,-1,11,13,15,17,19,-1,-1,-1,-1,-1,-1,-1,-1],"loss_changes":[1.1868839E0,1.7363297E0,4.6807516E-1,1.3137771E0,9.841013E-1,0E0,0E0,0E0,1.5351052E0,3.5304976E-1,2.006166E-1,1.1436288E0,9.095013E-3,0E0,0E0,0E0,0E0,0E0,0E0,0E0,0E0],"parents":[2147483647,0,0,1,1,2,2,3,3,4,4,8,8,9,9,10,10,11,11,12,12],"right_children":[2,4,6,8,10,-1,-1,-1,12,14,16,18,20,-1,-1,-1,-1,-1,-1,-1,-1],"split_conditions":[1.4852226E0,4.3235832E-1,3.2954545E0,-4.9722223E0,2.55E0,4.1953083E-2,2.8244585E-3,-3.5537653E-2,2.9230769E0,3E0,6.367443E-1,-2.7E0,3.65E0,-3.855322E-2,-6.288871E-3,-7.312572E-3,1.4612088E-2,3.9213818E-2,6.260846E-3,-3.0404115E-2,-8.771416E-3],"split_indices":[4,4,1,1,1,0,0,0,1,2,4,1,1,0,0,0,0,0,0,0,0],"split_type":[0,0,0,0,0,0,0,0,0,0,0,0,0,0,0,0,0,0,0,0,0],"sum_hessian":[3.876433E1,3.611663E1,2.6476998E0,2.8364017E1,7.752614E0,1.2577921E0,1.3899078E0,1.0027144E0,2.7361301E1,5.4430723E0,2.3095417E0,2.492222E1,2.439082E0,3.8745224E0,1.5685496E0,1.1768777E0,1.1326641E0,2.082013E0,2.2840208E1,1.2250448E0,1.2140371E0],"tree_param":{"num_deleted":"0","num_feature":"5","num_nodes":"21","size_leaf_vector":"1"}},{"base_weights":[-7.315607E-2,5.1462953E-3,-6.35321E-1,9.206511E-2,-2.3046231E-1,-1.23708295E-2,-4.0398505E-2,-3.6766887E-2,5.7941526E-1,-4.0185016E-2,7.2279302E-3,4.6571497E-2,-3.6267083E-2,4.6702545E-2,5.401697E-2,3.004359E-2,-2.1523422E-1,-2.736783E-2,5.686071E-3,2.581403E-2,-2.2233546E-2,-3.3770308E-2,1.3775344E-2],"categories":[],"categories_nodes":[],"categories_segments":[],"categories_sizes":[],"default_left":[0,0,0,0,0,0,0,0,0,0,0,0,0,0,0,0,0,0,0,0,0,0,0],"id":48,"left_children":[1,3,5,7,9,-1,-1,11,13,-1,15,17,-1,-1,19,-1,21,-1,-1,-1,-1,-1,-1],"loss_changes":[1.699302E0,7.341075E-1,1.1610615E-1,1.662807E0,1.3229382E0,0E0,0E0,1.274343E0,9.791666E-1,0E0,1.162651E0,8.688253E-1,0E0,0E0,9.875935E-1,0E0,1.6376507E0,0E0,0E0,0E0,0E0,0E0,0E0],"parents":[2147483647,0,0,1,1,2,2,3,3,4,4,7,7,8,8,10,10,11,11,14,14,16,16],"right_children":[2,4,6,8,10,-1,-1,12,14,-1,16,18,-1,-1,20,-1,22,-1,-1,-1,-1,-1,-1],"split_conditions":[9.7987247E-1,1.375E0,2.840909E0,5.5E-1,1.7E0,-1.23708295E-2,-4.0398505E-2,3.611111E-1,3E0,-4.0185016E-2,2.392857E0,-1.824391E0,-3.6267083E-2,4.6702545E-2,1E0,3.004359E-2,1.4157875E-1,-2.736783E-2,5.686071E-3,2.581403E-2,-2.2233546E-2,-3.3770308E-2,1.3775344E-2],"split_indices":[4,1,1,1,1,0,0,1,3,0,1,4,0,0,0,0,4,0,0,0,0,0,0],"split_type":[0,0,0,0,0,0,0,0,0,0,0,0,0,0,0,0,0,0,0,0,0,0,0],"sum_hessian":[3.7529686E1,3.381108E1,3.7186048E0,2.5144297E1,8.666784E0,1.8946974E0,1.8239074E0,2.0618353E1,4.525945E0,1.8423331E0,6.824451E0,1.9224028E1,1.3943238E0,2.2377224E0,2.288223E0,1.3965983E0,5.4278526E0,1.226308E0,1.799772E1,1.1691709E0,1.1190523E0,2.606974E0,2.8208787E0],"tree_param":{"num_deleted":"0","num_feature":"5","num_nodes":"23","size_leaf_vector":"1"}},{"base_weights":[-2.7500818E-2,2.5799903E-1,-1.4358416E-1,6.349945E-1,-3.9467376E-1,-6.1510974E-1,8.0497175E-2,3.04546E-1,5.1236074E-2,1.0809145E-2,-6.740126E-1,5.1850546E-3,-8.3767337E-1,3.868476E-2,-5.351446E-2,5.7797176E-1,-1.9228682E-2,-2.6406122E-3,-4.6551708E-2,-4.9000803E-2,-1.5029122E-2,-2.0979187E-1,4.541897E-1,-8.678989E-3,5.151538E-2,-1.5460391E-3,-4.092467E-2,2.5977087E-3,3.3429325E-2],"categories":[],"categories_nodes":[],"categories_segments":[],"categories_sizes":[],"default_left":[0,0,0,0,0,0,0,0,0,0,0,0,0,0,0,0,0,0,0,0,0,0,0,0,0,0,0,0,0],"id":49,"left_children":[1,3,5,7,9,11,13,15,-1,-1,17,-1,19,-1,21,23,-1,-1,-1,-1,-1,25,27,-1,-1,-1,-1,-1,-1],"loss_changes":[1.2671756E0,2.9785776E0,2.9055514E0,6.423311E-1,9.4359463E-1,1.4984202E0,1.8256853E0,1.2460334E0,0E0,0E0,5.0190413E-1,0E0,2.289133E-1,0E0,1.4465578E0,1.6370488E0,0E0,0E0,0E0,0E0,0E0,1.4670353E0,3.3819246E-1,0E0,0E0,0E0,0E0,0E0,0E0],"parents":[2147483647,0,0,1,1,2,2,3,3,4,4,5,5,6,6,7,7,10,10,12,12,14,14,15,15,21,21,22,22],"right_children":[2,4,6,8,10,12,14,16,-1,-1,18,-1,20,-1,22,24,-1,-1,-1,-1,-1,26,28,-1,-1,-1,-1,-1,-1],"split_conditions":[-3.804674E-1,4E0,0E0,-8.1440204E-1,-2.2821772E0,-2.4615386E0,3.611111E-1,-1.0884421E0,5.1236074E-2,1.0809145E-2,-1.375E0,5.1850546E-3,-3E-1,3.868476E-2,3E0,-2.5E0,-1.9228682E-2,-2.6406122E-3,-4.6551708E-2,-4.9000803E-2,-1.5029122E-2,3.75E0,3E0,-8.678989E-3,5.151538E-2,-1.5460391E-3,-4.092467E-2,2.5977087E-3,3.3429325E-2],"split_indices":[4,3,1,4,4,1,1,4,0,0,1,0,1,0,2,1,0,0,0,0,0,1,3,0,0,0,0,0,0],"split_type":[0,0,0,0,0,0,0,0,0,0,0,0,0,0,0,0,0,0,0,0,0,0,0,0,0,0,0,0,0],"sum_hessian":[3.6117233E1,1.0086811E1,2.6030424E1,6.410866E0,3.675945E0,7.8232455E0,1.8207178E1,4.4333086E0,1.9775572E0,1.2244391E0,2.451506E0,1.9758687E0,5.847377E0,2.1763408E0,1.6030838E1,3.289432E0,1.1438763E0,1.0702575E0,1.3812484E0,3.9704359E0,1.8769407E0,1.27064295E1,3.324408E0,1.4674829E0,1.8219492E0,1.0632728E1,2.0737019E0,1.5878075E0,1.7366004E0],"tree_param":{"num_deleted":"0","num_feature":"5","num_nodes":"29","size_leaf_vector":"1"}},{"base_weights":[1.782322E-2,-3.8725471E-1,1.0017178E-1,1.328762E-2,-6.945013E-1,5.595921E-1,1.6028194E-2,-2.2834888E-2,3.086344E-2,-9.442626E-3,-4.5289315E-2,-1.2525967E-2,4.169537E-2,-7.4393374E-1,1.9722366E-1,-2.8043365E-1,-5.5545427E-2,-1.558367E-1,4.7938353E-1,-3.4625582E-2,1.2967954E-2,1.4510554E-2,-2.1318847E-2,3.3154443E-2,-1.2944402E-2],"categories":[],"categories_nodes":[],"categories_segments":[],"categories_sizes":[],"default_left":[0,0,0,0,0,0,0,0,0,0,0,0,0,0,0,0,0,0,0,0,0,0,0,0,0],"id":50,"left_children":[1,3,5,7,9,11,13,-1,-1,-1,-1,-1,-1,15,17,19,-1,21,23,-1,-1,-1,-1,-1,-1],"loss_changes":[1.2852665E0,8.114302E-1,1.2222083E0,1.3636675E0,2.250495E-1,1.2979637E0,3.99519E0,0E0,0E0,0E0,0E0,0E0,0E0,6.393163E-1,2.4015856E0,1.0266268E0,0E0,1.4668363E0,1.9656653E0,0E0,0E0,0E0,0E0,0E0,0E0],"parents":[2147483647,0,0,1,1,2,2,3,3,4,4,5,5,6,6,13,13,14,14,15,15,17,17,18,18],"right_children":[2,4,6,8,10,12,14,-1,-1,-1,-1,-1,-1,16,18,20,-1,22,24,-1,-1,-1,-1,-1,-1],"split_conditions":[-1.1471385E0,-1.5152766E0,-2.05E0,-1.824391E0,-7.9545456E-1,-4.681818E0,-5.277778E-1,-2.2834888E-2,3.086344E-2,-9.442626E-3,-4.5289315E-2,-1.2525967E-2,4.169537E-2,1E0,1E0,3E0,-5.5545427E-2,2.3555508E-2,1.1517428E0,-3.4625582E-2,1.2967954E-2,1.4510554E-2,-2.1318847E-2,3.3154443E-2,-1.2944402E-2],"split_indices":[4,4,1,4,1,1,1,0,0,0,0,0,0,0,0,3,0,4,4,0,0,0,0,0,0],"split_type":[0,0,0,0,0,0,0,0,0,0,0,0,0,0,0,0,0,0,0,0,0,0,0,0,0],"sum_hessian":[3.6367046E1,5.5185094E0,3.0848536E1,2.8108692E0,2.7076404E0,3.90066E0,2.6947876E1,1.7179265E0,1.0929426E0,1.3560824E0,1.351558E0,1.0086496E0,2.8920102E0,4.5901937E0,2.2357683E1,2.807904E0,1.7822896E0,1.0129973E1,1.2227709E1,1.4318829E0,1.3760213E0,3.7970138E0,6.3329597E0,9.872865E0,2.3548446E0],"tree_param":{"num_deleted":"0","num_feature":"5","num_nodes":"25","size_leaf_vector":"1"}}]},"name":"gbtree"},"learner_model_param":{"base_score":"5.0980264E-1","boost_from_average":"1","num_class":"0","num_feature":"5","num_target":"1"},"objective":{"name":"binary:logistic","reg_loss_param":{"scale_pos_weight":"1"}}},"version":[2,0,0]}